5.236398428678512573e-02
-6.520424038171768188e-02
7.125921547412872314e-02
5.689198151230812073e-02
6.088293716311454773e-02
-3.513826057314872742e-02
9.346458315849304199e-02
-8.126133680343627930e-02
8.410952985286712646e-02
-1.205313131213188171e-01
6.592964380979537964e-02
2.996272966265678406e-02
9.688094258308410645e-02
-7.544270157814025879e-02
6.499505043029785156e-02
-1.063294410705566406e-01
-1.922204345464706421e-01
5.862035229802131653e-02
5.830560624599456787e-02
8.047475665807723999e-02
-4.857584461569786072e-02
-2.093286998569965363e-02
9.501433372497558594e-02
8.737465739250183105e-02
7.686146348714828491e-02
9.770166128873825073e-02
4.907714203000068665e-02
6.420266628265380859e-02
1.496110670268535614e-02
-1.200598627328872681e-01
8.928123116493225098e-02
-3.101166570559144020e-03
2.448731288313865662e-02
-1.200447906740009785e-03
7.084928452968597412e-02
-1.101169213652610779e-01
-5.739093199372291565e-02
1.017568334937095642e-01
3.882615268230438232e-02
-7.446597516536712646e-02
9.263138473033905029e-02
-1.174779608845710754e-01
6.001586094498634338e-02
-2.822076342999935150e-02
4.481074586510658264e-02
5.653812736272811890e-02
-8.574044704437255859e-02
8.345988392829895020e-02
4.485737532377243042e-02
-1.517865806818008423e-02
7.924301177263259888e-02
-4.948061704635620117e-02
4.414886981248855591e-02
7.703619450330734253e-02
-3.272694349288940430e-02
1.071969419717788696e-02
9.114105254411697388e-02
8.666364103555679321e-02
7.889177650213241577e-02
5.044483765959739685e-02
6.807634979486465454e-02
-5.688679870218038559e-03
-7.767928391695022583e-02
-2.945324813481420279e-04
