-1.803800463676452637e-01 -9.612307883799076080e-03 1.655948348343372345e-02 3.288455009460449219e-01 -2.334417998790740967e-01 -2.192585915327072144e-02 -1.416277736425399780e-01 3.050749897956848145e-01 -1.815151572227478027e-01 -1.982002722797915339e-04 3.345759510993957520e-01 -2.362258732318878174e-01 1.069087237119674683e-01 -8.660496771335601807e-02 1.307018399238586426e-01 2.179060578346252441e-01 2.976112961769104004e-01 8.772009611129760742e-02 -2.654975056648254395e-01 3.649320006370544434e-01 1.887292563915252686e-01 -9.389240294694900513e-02 3.500961065292358398e-01 2.373048663139343262e-01 -2.659250795841217041e-01 -1.566054373979568481e-01 4.816261306405067444e-02 3.485074341297149658e-01 -9.187967330217361450e-02 -3.106147646903991699e-01 6.209883466362953186e-02 9.438420832157135010e-02 -6.210763752460479736e-02 2.001970559358596802e-01 -2.282658368349075317e-01 -3.055300414562225342e-01 -2.185511142015457153e-01 2.248141914606094360e-02 -8.668791502714157104e-02 -1.551442313939332962e-03 1.190292369574308395e-02 1.345807462930679321e-01 1.851364821195602417e-01 -1.183691620826721191e-01 1.781856268644332886e-01 1.115042418241500854e-01 -2.353876680135726929e-01 1.087035164237022400e-01 -2.557731866836547852e-01 2.961253821849822998e-01 -4.024731740355491638e-02 1.947504729032516479e-01 -2.251933664083480835e-01 -2.202520333230495453e-02 1.270910054445266724e-01 4.352927580475807190e-02 -1.708186864852905273e-01 3.046904206275939941e-01 -2.140108346939086914e-01 2.398956120014190674e-01 -1.822138577699661255e-02 -1.805888861417770386e-01 -1.766278892755508423e-01 -2.178473398089408875e-02
1.399549990892410278e-01 2.107586562633514404e-01 6.524489820003509521e-02 1.354759633541107178e-01 -5.365404859185218811e-02 2.169152498245239258e-01 1.697895228862762451e-01 2.339258342981338501e-01 -8.563239127397537231e-02 1.216811873018741608e-02 1.885339021682739258e-01 -6.137038767337799072e-02 2.856230735778808594e-01 4.848075285553932190e-02 2.952560782432556152e-01 1.431693136692047119e-01 -1.393604278564453125e-01 -1.064857393503189087e-01 2.392455041408538818e-01 -2.340610884130001068e-02 1.558175683021545410e-01 4.233150277286767960e-03 -5.632409080862998962e-02 2.156949192285537720e-01 -4.623429104685783386e-02 8.364205062389373779e-02 1.241056844592094421e-01 -2.883465588092803955e-02 -1.098794117569923401e-01 -1.349124759435653687e-01 -1.143236607313156128e-01 -6.412354111671447754e-02 3.663890436291694641e-02 -3.567116707563400269e-02 2.558024227619171143e-01 -1.615650653839111328e-01 6.546798348426818848e-02 -1.488257348537445068e-01 -1.557156145572662354e-01 6.490976363420486450e-02 -1.751659512519836426e-01 2.847420610487461090e-02 -6.307893991470336914e-02 -1.389170903712511063e-02 -1.472679227590560913e-01 -1.833955943584442139e-01 1.356724947690963745e-01 -4.376789554953575134e-02 1.893843859434127808e-01 1.571560502052307129e-01 -1.780450791120529175e-01 4.496260359883308411e-02 1.706444025039672852e-01 -4.137146100401878357e-02 -9.857985377311706543e-02 2.411394119262695312e-01 1.301259696483612061e-01 -1.390816867351531982e-01 3.118723034858703613e-01 2.361047863960266113e-01 -1.707783788442611694e-01 -7.133626192808151245e-02 2.593791782855987549e-01 9.848587214946746826e-02
