-8.587270043790340424e-03 -2.390684983311075484e-09 -1.794703863561153412e-02 1.609951704740524292e-01 -5.473345145583152771e-02 -8.859681896865367889e-03 -2.544857934117317200e-02 -1.075980908353812993e-04 2.291288524866104126e-01 4.774873331189155579e-02 1.843160092830657959e-01 1.210712343454360962e-01 -2.556030452251434326e-02 8.104287832975387573e-02 1.015313193202018738e-01 8.403567597270011902e-03 5.160162225365638733e-02 -1.611226983368396759e-02 7.539772987365722656e-02 2.173236310482025146e-01 -1.001547649502754211e-02 -1.300258759329153690e-06 -2.457681670784950256e-02 2.389556616544723511e-01 -2.037036977708339691e-02 -6.456436216831207275e-02 1.321639269590377808e-01 -6.332333199679851532e-03 -2.707615494728088379e-03 1.014510542154312134e-02 2.248647511005401611e-01 -2.755597847681201529e-07 6.511779129505157471e-02 4.954088944941759109e-05 -1.457388140261173248e-02 3.066462813876569271e-04 -3.483065962791442871e-02 -2.758459933102130890e-02 1.673604846000671387e-01 -2.275187944178469479e-05 -4.438963159918785095e-02 1.117431744933128357e-02 1.349317431449890137e-01 -2.392583061009645462e-03 -1.155982073396444321e-02 -2.115712501108646393e-02 1.448614522814750671e-03 2.395908832550048828e-01 1.246703043580055237e-01 8.331028372049331665e-02 -2.020880207419395447e-02 -6.545288670167792588e-06 1.264460980892181396e-01 1.806194521486759186e-02 -1.067532459273934364e-03 6.801421195268630981e-02 -5.685954913496971130e-02 -2.364924363791942596e-02 2.342192530632019043e-01 4.712006077170372009e-02 5.748147144913673401e-02 -4.319275514509668401e-13 3.020442556589841843e-03 -1.581731624901294708e-02
-9.692540625110268593e-04 1.521234982647001743e-03 -6.105149164795875549e-03 7.566487789154052734e-02 -3.644229611381888390e-03 -2.145607140846550465e-04 -5.192915350198745728e-02 2.132931910455226898e-02 1.449458599090576172e-01 -4.291167482733726501e-02 1.124023199081420898e-01 -2.860039472579956055e-02 -1.433931104838848114e-02 7.353917695581912994e-03 6.082021817564964294e-02 -1.395845320075750351e-04 7.943706214427947998e-02 -6.565650552511215210e-02 1.882942393422126770e-02 9.513776004314422607e-02 -5.961641669273376465e-02 -7.135128253139555454e-04 -1.125667430460453033e-02 1.130142137408256531e-01 -3.237653151154518127e-02 -8.109452202916145325e-03 6.378663331270217896e-02 2.102313376963138580e-02 -5.893650650978088379e-02 -1.249143294990062714e-02 1.256030797958374023e-01 4.675424065680999774e-07 3.463074192404747009e-02 -2.293992874911054969e-04 -6.273054517805576324e-03 4.292545467615127563e-02 -5.074317753314971924e-02 -5.110669136047363281e-02 -5.589315667748451233e-02 1.348767313174903393e-03 -7.660903502255678177e-03 -1.487438936464968720e-07 6.281678378582000732e-02 5.862450222004874917e-34 -5.259386263787746429e-03 -6.607888732105493546e-03 2.145192353054881096e-03 1.156753227114677429e-01 7.160116732120513916e-02 -2.489272132515907288e-02 -8.360567502677440643e-03 2.767269616015255451e-04 6.449112296104431152e-02 -2.970145083963871002e-02 -3.474108129739761353e-02 -6.884888559579849243e-02 -8.240909315645694733e-03 -4.856048896908760071e-02 9.544132649898529053e-02 -5.055224150419235229e-02 2.826118096709251404e-02 -1.249289311999746133e-07 -7.175638643275306094e-07 5.840540677309036255e-02
