1.099836640059947968e-02 3.024754673242568970e-02
-5.001751560484990478e-05 -6.461104005575180054e-02
2.153144031763076782e-02 5.506640765815973282e-03
-1.708073914051055908e-01 2.449862286448478699e-02
2.053570002317428589e-02 -2.531656809151172638e-02
-3.534435480833053589e-02 5.127338692545890808e-02
5.536882206797599792e-02 -2.398035954684019089e-03
1.940258033573627472e-02 5.824538692831993103e-02
-2.715137600898742676e-01 1.152155920863151550e-02
-2.150770975276827812e-03 9.057471528649330139e-03
-2.131181657314300537e-01 7.267145812511444092e-02
-1.255449354648590088e-01 -2.482992410659790039e-02
8.211522549390792847e-02 -4.273675382137298584e-03
-1.992210187017917633e-02 2.231692336499691010e-02
-1.018617525696754456e-01 4.529060795903205872e-02
7.137838006019592285e-02 1.620986685156822205e-02
8.933544903993606567e-02 6.517016142606735229e-02
1.851570978760719299e-02 -2.111093373969197273e-03
-6.221512705087661743e-02 7.504010200500488281e-02
-2.185909599065780640e-01 7.835987210273742676e-02
-1.065820828080177307e-02 8.327817777171730995e-04
-6.001863628625869751e-02 -2.378656156361103058e-02
4.747391119599342346e-02 2.067838050425052643e-02
-2.347798198461532593e-01 9.838167577981948853e-02
2.888845838606357574e-02 -2.799093723297119141e-03
3.785422816872596741e-02 -4.063341300934553146e-03
-1.351077705621719360e-01 5.150605365633964539e-02
7.006635889410972595e-03 6.861395202577114105e-03
7.032056339085102081e-03 5.320005118846893311e-02
3.958234563469886780e-02 -3.509200876578688622e-03
-2.252799719572067261e-01 9.553526341915130615e-02
-6.882739853608654812e-06 -1.989444158971309662e-02
-6.675131618976593018e-02 4.632086679339408875e-02
-4.365067929029464722e-03 -4.877958819270133972e-02
1.692923717200756073e-02 3.870563348755240440e-03
-2.831324469298124313e-03 4.408918786793947220e-03
-6.833796203136444092e-02 3.198045596946030855e-04
6.423457711935043335e-02 -1.783670624718070030e-03
-1.594842225313186646e-01 4.642539843916893005e-02
7.741296198219060898e-03 -3.238434670493006706e-03
3.326128423213958740e-02 -3.389466088265180588e-03
7.381467521190643311e-02 2.131849541342489829e-08
-1.355094909667968750e-01 5.381617322564125061e-02
-2.243273658677935600e-03 -9.288203539625783378e-10
1.203326229006052017e-02 -8.592694066464900970e-03
1.733876951038837433e-02 -6.483267992734909058e-02
5.623468011617660522e-02 -4.644383490085601807e-02
-2.503816485404968262e-01 9.208399057388305664e-02
-1.314504891633987427e-01 7.257942855358123779e-02
-4.499914869666099548e-02 1.927636377513408661e-02
2.193745970726013184e-02 1.453785574994981289e-03
4.440528899431228638e-02 4.031066782772541046e-03
-1.570496708154678345e-01 -5.358132719993591309e-02
-2.292514313012361526e-03 3.714605420827865601e-02
-1.066703931428492069e-03 5.997437611222267151e-02
-6.315828859806060791e-02 2.000512368977069855e-02
4.078624024987220764e-02 -3.147308947518467903e-03
4.634597897529602051e-02 -1.424437970854341984e-03
-2.391183674335479736e-01 8.676788210868835449e-02
-3.247675299644470215e-02 6.279121339321136475e-02
-4.941640421748161316e-02 4.714290052652359009e-02
-7.905430088328557758e-09 -3.409164771437644958e-02
7.503828406333923340e-02 8.814861997961997986e-03
-8.122472465038299561e-02 7.570788729935884476e-03
