-2.806019969284534454e-02
4.245397821068763733e-02
5.402889102697372437e-02
4.708551336079835892e-03
4.875222966074943542e-02
-1.096998807042837143e-02
-3.353566676378250122e-02
-1.635990291833877563e-02
3.476202115416526794e-02
1.486188825219869614e-02
5.848977342247962952e-02
-2.085565589368343353e-02
7.882604002952575684e-02
-7.406129501760005951e-03
3.758739307522773743e-02
-2.363902144134044647e-02
-2.383850951446220279e-04
4.863004758954048157e-02
3.592483326792716980e-02
4.722907766699790955e-02
3.689914569258689880e-02
5.150775983929634094e-02
3.656706586480140686e-02
5.596034228801727295e-02
3.382035344839096069e-02
4.082450270652770996e-02
3.277388215065002441e-02
9.448517858982086182e-02
1.135085336863994598e-02
3.102785162627696991e-02
9.821909479796886444e-03
-1.827424421207979321e-05
4.686534777283668518e-02
5.718050152063369751e-02
4.155696183443069458e-02
4.684189707040786743e-02
5.546131357550621033e-02
2.268284000456333160e-02
5.554266273975372314e-02
5.275384709239006042e-02
-2.660202607512474060e-02
-1.709296368062496185e-02
-1.999432221055030823e-02
5.060444772243499756e-02
1.150632742792367935e-02
1.896627619862556458e-02
4.819923639297485352e-02
1.445699948817491531e-02
-2.849407866597175598e-02
5.187875032424926758e-02
3.666013106703758240e-02
4.792734235525131226e-02
-4.239136353135108948e-02
6.326021999120712280e-02
-2.043565735220909119e-02
3.442103043198585510e-02
6.723875552415847778e-02
6.660544872283935547e-02
-4.422171786427497864e-02
-2.679486013948917389e-02
-2.813453041017055511e-02
3.111462667584419250e-02
2.355512604117393494e-02
7.015219330787658691e-02
