5.728125944733619690e-02
-2.680897479876875877e-03
-4.103147890418767929e-03
5.866965651512145996e-02
3.428467735648155212e-02
-3.121945448219776154e-02
-1.167909894138574600e-02
3.801215812563896179e-02
-1.883375830948352814e-02
8.055369555950164795e-02
-2.889750339090824127e-02
-9.071745909750461578e-03
-3.007262572646141052e-02
1.659108884632587433e-02
3.615748882293701172e-02
7.695955783128738403e-02
1.490555517375469208e-02
7.513376418501138687e-03
2.456974424421787262e-02
4.498631879687309265e-02
5.546375364065170288e-02
5.318287014961242676e-02
1.611735485494136810e-02
3.512140363454818726e-02
5.133237689733505249e-02
5.250332877039909363e-02
7.112560421228408813e-02
3.775238245725631714e-02
4.317050799727439880e-02
-1.300372742116451263e-02
-5.119543895125389099e-02
8.042133413255214691e-03
-5.979727953672409058e-03
2.547957003116607666e-02
5.845100432634353638e-02
5.902113858610391617e-03
-1.290724240243434906e-02
-2.845891937613487244e-02
3.376602008938789368e-02
6.429468840360641479e-02
-2.391935698688030243e-02
3.406086564064025879e-02
6.907030940055847168e-02
2.011272683739662170e-02
2.220708876848220825e-02
1.399129629135131836e-02
1.790957292541861534e-03
3.884195908904075623e-02
1.761690527200698853e-02
-8.344327099621295929e-03
5.785612761974334717e-02
4.874992743134498596e-02
2.995444461703300476e-02
-1.561119133839383721e-04
-1.772239059209823608e-02
3.172848373651504517e-02
-6.540582515299320221e-03
7.128210738301277161e-03
9.603835642337799072e-03
2.849061787128448486e-02
-9.638440795242786407e-03
-1.143737416714429855e-02
-1.533067040145397186e-02
-4.964098334312438965e-03
6.403797119855880737e-02
4.275200515985488892e-02
3.538956865668296814e-02
1.791096851229667664e-02
-2.638467121869325638e-03
3.268992528319358826e-02
3.131566941738128662e-02
-4.328082874417304993e-02
1.624124310910701752e-02
3.285072743892669678e-02
7.298353128135204315e-03
2.211625501513481140e-02
8.222392201423645020e-02
4.379893466830253601e-02
2.886247448623180389e-02
4.226084426045417786e-02
-3.637953475117683411e-02
3.980235755443572998e-02
1.032449584454298019e-02
-6.702812970615923405e-04
5.743936635553836823e-03
3.079714253544807434e-02
1.371975336223840714e-02
-3.551223501563072205e-02
8.271531760692596436e-02
2.966486103832721710e-02
5.319567397236824036e-02
8.848755806684494019e-02
1.993714598938822746e-03
4.717375710606575012e-02
7.701903581619262695e-03
2.463243715465068817e-02
4.984270781278610229e-02
4.902134463191032410e-02
-2.963603101670742035e-02
3.768899291753768921e-02
1.894608698785305023e-02
1.405842322856187820e-02
-2.735918201506137848e-02
2.860298380255699158e-02
-3.025505226105451584e-03
2.000513253733515739e-03
1.994913630187511444e-02
8.715000003576278687e-02
4.235915839672088623e-02
7.848697900772094727e-02
-1.268659369088709354e-03
-4.158877581357955933e-02
4.068125411868095398e-02
-3.101419657468795776e-02
5.751198902726173401e-02
6.407605856657028198e-02
5.787480622529983521e-02
-2.995063550770282745e-04
4.689310118556022644e-02
6.331449747085571289e-02
4.765371978282928467e-02
1.485815737396478653e-02
8.264696598052978516e-02
8.202950656414031982e-02
-2.447599358856678009e-02
4.093512520194053650e-02
-3.356255218386650085e-02
-6.934792269021272659e-03
