-0.000000000000000000e+00 -0.000000000000000000e+00 -2.034504199400544167e-03 8.963394910097122192e-02 -9.412976354360580444e-02 -2.244985401630401611e-01 0.000000000000000000e+00 -5.584141984581947327e-02 -1.496615260839462280e-01 0.000000000000000000e+00 1.954473787918686867e-03 -3.168797492980957031e-01 5.298267602920532227e-01 -2.453124076128005981e-01 -2.544854879379272461e-01 -0.000000000000000000e+00
0.000000000000000000e+00 -0.000000000000000000e+00 3.081391453742980957e-01 -3.700589537620544434e-01 -2.523908615112304688e-01 0.000000000000000000e+00 -3.702237904071807861e-01 1.515412926673889160e-01 4.440534710884094238e-01 -0.000000000000000000e+00 2.156060189008712769e-01 -1.077714785933494568e-01 3.512629270553588867e-01 3.837181031703948975e-01 -2.377396076917648315e-01 -0.000000000000000000e+00
-1.917989924550056458e-02 -8.928255178034305573e-03 2.803673148155212402e-01 3.282699286937713623e-01 -3.153042122721672058e-02 -1.220612078905105591e-01 -4.189514555037021637e-03 -5.004334077239036560e-02 1.283748149871826172e-01 -3.286538720130920410e-01 1.741740703582763672e-01 2.533920407295227051e-01 -3.713322803378105164e-02 3.943267278373241425e-03 -2.953875362873077393e-01 2.863742597401142120e-02
0.000000000000000000e+00 -0.000000000000000000e+00 -3.129163682460784912e-01 -2.007413804531097412e-01 1.499479860067367554e-01 -0.000000000000000000e+00 0.000000000000000000e+00 4.121873974800109863e-01 -2.440825104713439941e-01 -1.837880015373229980e-01 -5.261154770851135254e-01 -0.000000000000000000e+00 4.174304008483886719e-01 -4.589438438415527344e-02 1.756009161472320557e-01 -0.000000000000000000e+00
0.000000000000000000e+00 -0.000000000000000000e+00 -2.168185859918594360e-01 2.880659997463226318e-01 -3.862990066409111023e-03 -1.485230773687362671e-01 -6.934514269232749939e-03 -2.049303054809570312e-01 2.102009803056716919e-01 0.000000000000000000e+00 -2.959900796413421631e-01 -0.000000000000000000e+00 2.411201894283294678e-01 3.704907298088073730e-01 -0.000000000000000000e+00 -3.691462054848670959e-02
-2.414352959021925926e-03 -0.000000000000000000e+00 6.466992199420928955e-02 7.352627813816070557e-02 -0.000000000000000000e+00 3.871101140975952148e-01 -2.558892825618386269e-03 -9.424686431884765625e-03 2.585771381855010986e-01 -1.438250690698623657e-01 3.789897561073303223e-01 1.167625635862350464e-01 2.827509939670562744e-01 -0.000000000000000000e+00 0.000000000000000000e+00 -0.000000000000000000e+00
0.000000000000000000e+00 0.000000000000000000e+00 1.230196282267570496e-01 3.667837753891944885e-02 -5.957207828760147095e-02 -1.795660704374313354e-01 0.000000000000000000e+00 -0.000000000000000000e+00 -1.720735728740692139e-01 2.560816407203674316e-01 -7.276397198438644409e-02 -0.000000000000000000e+00 0.000000000000000000e+00 -6.548249721527099609e-02 -0.000000000000000000e+00 -0.000000000000000000e+00
0.000000000000000000e+00 2.289318013936281204e-03 2.905800640583038330e-01 -2.826074957847595215e-01 2.295729219913482666e-01 0.000000000000000000e+00 -2.420053444802761078e-02 -0.000000000000000000e+00 2.952049076557159424e-01 2.769667208194732666e-01 -1.561786830425262451e-01 -2.515866160392761230e-01 2.866601943969726562e-01 3.605423271656036377e-01 -0.000000000000000000e+00 0.000000000000000000e+00
-0.000000000000000000e+00 2.073119161650538445e-03 -3.848775029182434082e-01 -3.828813508152961731e-02 -0.000000000000000000e+00 -2.574814017862081528e-03 2.939695119857788086e-01 -1.855607144534587860e-03 -1.187400296330451965e-01 -3.299592435359954834e-02 3.644508421421051025e-01 2.289194911718368530e-01 2.117254883050918579e-01 -1.814946830272674561e-01 2.362721115350723267e-01 -0.000000000000000000e+00
0.000000000000000000e+00 0.000000000000000000e+00 0.000000000000000000e+00 -0.000000000000000000e+00 0.000000000000000000e+00 -0.000000000000000000e+00 -0.000000000000000000e+00 8.862958848476409912e-02 -0.000000000000000000e+00 -0.000000000000000000e+00 -0.000000000000000000e+00 -0.000000000000000000e+00 1.869547218084335327e-01 -0.000000000000000000e+00 0.000000000000000000e+00 0.000000000000000000e+00
-0.000000000000000000e+00 0.000000000000000000e+00 1.760729700326919556e-01 -0.000000000000000000e+00 1.365308761596679688e-01 0.000000000000000000e+00 -0.000000000000000000e+00 3.952842354774475098e-01 0.000000000000000000e+00 0.000000000000000000e+00 2.384453266859054565e-01 -0.000000000000000000e+00 -2.520901262760162354e-01 -0.000000000000000000e+00 0.000000000000000000e+00 -0.000000000000000000e+00
-0.000000000000000000e+00 -0.000000000000000000e+00 -0.000000000000000000e+00 -0.000000000000000000e+00 1.263599842786788940e-01 0.000000000000000000e+00 0.000000000000000000e+00 -1.335774809122085571e-01 -1.487596631050109863e-01 -0.000000000000000000e+00 2.152261137962341309e-01 0.000000000000000000e+00 3.102185130119323730e-01 -0.000000000000000000e+00 1.555529981851577759e-01 -0.000000000000000000e+00
4.102127999067306519e-02 0.000000000000000000e+00 0.000000000000000000e+00 -0.000000000000000000e+00 -0.000000000000000000e+00 -0.000000000000000000e+00 -0.000000000000000000e+00 3.204956948757171631e-01 -3.992151096463203430e-02 -0.000000000000000000e+00 0.000000000000000000e+00 -0.000000000000000000e+00 -4.326297342777252197e-02 7.423321157693862915e-02 -0.000000000000000000e+00 0.000000000000000000e+00
4.914749413728713989e-02 -0.000000000000000000e+00 3.653464615345001221e-01 3.559312596917152405e-02 0.000000000000000000e+00 -0.000000000000000000e+00 -1.177788805216550827e-02 6.437569856643676758e-01 -2.477495074272155762e-01 -0.000000000000000000e+00 -2.019677758216857910e-01 -0.000000000000000000e+00 4.255900084972381592e-01 5.137743949890136719e-01 2.029868066310882568e-01 0.000000000000000000e+00
5.632870644330978394e-02 -0.000000000000000000e+00 4.878987371921539307e-01 -3.158317506313323975e-01 -0.000000000000000000e+00 -3.047334849834442139e-01 -0.000000000000000000e+00 4.757918715476989746e-01 -2.051629126071929932e-03 -0.000000000000000000e+00 -4.424181282520294189e-01 -3.628863692283630371e-01 -8.322542160749435425e-02 6.105474233627319336e-01 2.188807874917984009e-01 1.076931357383728027e-01
