-2.303457260131835938e-02 1.487022787332534790e-01
2.128694802522659302e-01 -3.613098561763763428e-01
-2.224061265587806702e-02 -1.269190385937690735e-02
-5.715706944465637207e-02 2.459573149681091309e-01
-5.762059008702635765e-04 -1.168979927897453308e-01
1.267062574625015259e-01 -5.045222491025924683e-02
1.652256250381469727e-01 -5.131021514534950256e-02
8.214398473501205444e-02 -3.497032225131988525e-01
-5.032828450202941895e-02 -4.276581853628158569e-02
-9.391672164201736450e-02 2.493815571069717407e-01
-6.835838407278060913e-02 -1.927725970745086670e-01
-3.526926636695861816e-01 -4.840421304106712341e-02
2.775102555751800537e-01 -2.216257601976394653e-01
1.881696432828903198e-01 6.212701275944709778e-02
1.915307939052581787e-01 -5.653909966349601746e-02
1.077089235186576843e-01 -2.391910105943679810e-01
1.034046038985252380e-01 -2.524198889732360840e-01
-1.145591884851455688e-01 1.152604520320892334e-01
-3.988209739327430725e-02 2.423111200332641602e-01
-7.269225269556045532e-02 -8.078720420598983765e-02
2.251293510198593140e-01 -1.501398235559463501e-01
-2.619490325450897217e-01 -1.103865653276443481e-01
4.770942032337188721e-02 -3.075185716152191162e-01
1.714515089988708496e-01 9.515663981437683105e-02
-8.362592197954654694e-03 4.441331326961517334e-02
5.609954893589019775e-02 1.418800801038742065e-01
2.872934937477111816e-01 1.544639915227890015e-01
-9.246421605348587036e-02 -2.681265473365783691e-01
-1.935962140560150146e-01 2.734500765800476074e-01
-2.947717905044555664e-01 2.501139640808105469e-01
-7.623113691806793213e-02 -7.123856991529464722e-02
-2.884117700159549713e-02 1.953829079866409302e-01
2.894487679004669189e-01 -1.209302246570587158e-01
2.195539921522140503e-01 1.904790103435516357e-02
3.478336334228515625e-02 -2.531675696372985840e-01
-7.864696532487869263e-02 2.167090028524398804e-01
7.621501386165618896e-02 -3.986940905451774597e-02
-1.431401520967483521e-01 -4.453611094504594803e-03
5.253485962748527527e-02 -1.267730593681335449e-01
2.974083423614501953e-01 -3.298372030258178711e-01
-1.768579520285129547e-02 -1.553930193185806274e-01
1.710977554321289062e-01 -6.530875805765390396e-03
-1.694237738847732544e-01 -1.578233689069747925e-01
-7.528571039438247681e-02 -1.172940954566001892e-01
-2.968863546848297119e-01 -2.871610820293426514e-01
-3.187252283096313477e-01 1.946461200714111328e-01
-3.875032067298889160e-02 5.585520714521408081e-02
2.248367369174957275e-01 -1.558888405561447144e-01
-1.176914498209953308e-01 -3.499318659305572510e-01
2.521899342536926270e-02 -1.522469148039817810e-02
1.205656751990318298e-01 1.863210797309875488e-01
1.011647805571556091e-01 -1.175189912319183350e-01
-2.228056639432907104e-02 -3.031291365623474121e-01
9.708488732576370239e-02 4.654608666896820068e-02
2.244868576526641846e-01 3.265808895230293274e-02
-3.001285903155803680e-02 -2.909514904022216797e-01
3.000547587871551514e-01 2.947384715080261230e-01
-3.257072567939758301e-01 -1.631027311086654663e-01
1.058136150240898132e-01 1.157975494861602783e-01
2.389653027057647705e-01 2.906087040901184082e-01
5.241338163614273071e-02 -6.745626218616962433e-03
1.874759495258331299e-01 7.970347255468368530e-02
1.855483055114746094e-01 2.960811257362365723e-01
-2.523453235626220703e-01 -2.053493559360504150e-01
