9.511659154668450356e-04
-2.039853297173976898e-02
2.318971604108810425e-02
-6.419430952519178391e-03
3.601885214447975159e-02
9.814183413982391357e-02
-2.941501140594482422e-02
7.567435503005981445e-02
2.238747105002403259e-02
3.516181930899620056e-02
1.516183000057935715e-02
1.443453971296548843e-02
1.498803030699491501e-02
1.862603984773159027e-02
2.780599519610404968e-02
2.362998761236667633e-02
-6.536108907312154770e-03
-3.968289587646722794e-03
-1.498783938586711884e-02
8.632786571979522705e-02
1.598429493606090546e-02
3.449820727109909058e-02
1.226183772087097168e-02
9.665293619036674500e-04
5.996095482259988785e-03
3.999925777316093445e-02
-4.823926370590925217e-03
4.278888553380966187e-02
-1.610845699906349182e-02
7.877387106418609619e-03
3.685618191957473755e-02
2.202688530087471008e-02
7.304147630929946899e-02
1.317369099706411362e-02
-1.016049273312091827e-02
-7.628692779690027237e-03
6.042891368269920349e-02
-1.021045725792646408e-02
2.487173490226268768e-02
9.219623357057571411e-02
2.710471116006374359e-02
2.439913898706436157e-02
2.677048370242118835e-02
-3.617492504417896271e-03
2.409298717975616455e-02
5.391283333301544189e-02
3.676157677546143532e-03
4.618093743920326233e-02
3.916049748659133911e-02
-1.053684577345848083e-02
3.287478908896446228e-02
2.586097922176122665e-03
3.286008164286613464e-02
4.625504463911056519e-02
1.386016886681318283e-02
1.151067391037940979e-02
1.615130528807640076e-02
2.073040977120399475e-02
-4.834212828427553177e-03
1.025122404098510742e-02
1.069928612560033798e-02
5.232049897313117981e-02
8.140271157026290894e-02
3.257225034758448601e-03
