1.428350657224655151e-01 -5.625756829977035522e-02 -4.863608255982398987e-02 -6.932786107063293457e-02 4.398142173886299133e-02 7.166532427072525024e-02 2.252741158008575439e-02 1.340611129999160767e-01 3.190124174579977989e-03 -2.548167109489440918e-02 1.989321708679199219e-01 -1.047522500157356262e-01 -2.279355563223361969e-02 6.490999460220336914e-02 -5.644548684358596802e-03 -2.615894563496112823e-02 1.729958504438400269e-01 -1.599218696355819702e-01 6.462036073207855225e-02 1.820284128189086914e-01 -5.320545751601457596e-03 -9.465634822845458984e-02 -7.508105784654617310e-02 -1.134540066123008728e-01 9.593208879232406616e-02 -7.327289134263992310e-02 -3.553471341729164124e-02 2.158274203538894653e-01 1.160396859049797058e-01 -1.410975903272628784e-01 1.492216624319553375e-02 1.566057801246643066e-01 8.672025054693222046e-02 8.128698170185089111e-02 6.059988588094711304e-02 -2.082931697368621826e-01 -5.601790733635425568e-03 1.871532946825027466e-02 9.334307909011840820e-02 8.348729461431503296e-02 1.647469848394393921e-01 7.506069540977478027e-02 2.125254087150096893e-02 1.592560857534408569e-01 -6.136084347963333130e-02 -1.083989664912223816e-01 -7.608788460493087769e-02 6.171050295233726501e-02 -2.048605084419250488e-01 -1.877904287539422512e-03 6.506521720439195633e-03 8.816654980182647705e-02 7.275826483964920044e-02 7.277391850948333740e-02 9.713826328516006470e-02 -6.993602146394550800e-04 1.043072864413261414e-01 1.493716426193714142e-02 -7.801812887191772461e-02 2.857539989054203033e-02 -6.185141950845718384e-02 -5.308487266302108765e-02 6.531247496604919434e-02 -6.787355989217758179e-02
1.331846974790096283e-02 -9.926168620586395264e-02 8.792062848806381226e-02 1.265920996665954590e-01 -9.162245690822601318e-02 -6.106745824217796326e-02 1.244211662560701370e-02 -7.947225123643875122e-02 7.366584613919258118e-03 9.263331443071365356e-02 2.819284051656723022e-02 3.493025153875350952e-02 9.936608374118804932e-02 8.158313482999801636e-02 1.472941040992736816e-01 -3.368188813328742981e-02 2.099050879478454590e-01 -8.653525263071060181e-02 -5.353823304176330566e-02 1.812204569578170776e-01 9.290809184312820435e-02 -1.820715703070163727e-02 -1.395393460988998413e-01 9.347517043352127075e-03 6.352130323648452759e-02 7.353609800338745117e-02 -3.616108372807502747e-02 5.748213827610015869e-02 -7.493449002504348755e-02 -5.974009260535240173e-02 4.370248317718505859e-02 -1.263234913349151611e-01 1.039731577038764954e-01 6.011028308421373367e-03 1.200658455491065979e-01 4.210799932479858398e-02 1.477671861648559570e-01 -6.780457496643066406e-02 -1.400069333612918854e-02 -8.312887698411941528e-02 7.582952082157135010e-02 -1.498596370220184326e-01 -5.269194021821022034e-02 1.265273094177246094e-01 -1.360650062561035156e-01 -3.599781543016433716e-03 1.044310107827186584e-01 -7.318148016929626465e-02 -9.771082550287246704e-02 4.419173672795295715e-02 2.761505544185638428e-02 6.784648448228836060e-02 3.775419294834136963e-02 1.464940328150987625e-02 -2.191333845257759094e-02 -1.668459922075271606e-02 2.779095992445945740e-02 2.930392511188983917e-02 -1.395148932933807373e-01 -1.689581871032714844e-01 -1.995769441127777100e-01 1.201200559735298157e-01 -1.758787781000137329e-02 1.026887223124504089e-01
-7.272586226463317871e-02 1.105793192982673645e-02 1.139680147171020508e-01 8.924869447946548462e-02 1.745434105396270752e-01 9.934077039361000061e-03 1.836196333169937134e-02 -2.963190339505672455e-02 1.748077422380447388e-01 1.376486718654632568e-01 2.127658277750015259e-01 4.929652065038681030e-02 1.334611624479293823e-01 1.136962771415710449e-01 -1.249091476202011108e-01 6.000954285264015198e-02 8.684992790222167969e-02 1.059025004506111145e-01 -6.793884932994842529e-02 1.905181556940078735e-01 -3.993095457553863525e-02 1.551513671875000000e-01 -5.342449620366096497e-02 1.237062141299247742e-01 1.951902806758880615e-01 7.402657717466354370e-02 2.467469312250614166e-02 -6.078269705176353455e-02 -7.383333146572113037e-02 1.662679016590118408e-01 6.790974736213684082e-02 1.072489172220230103e-01 -2.905418537557125092e-02 6.679388880729675293e-02 -7.135654240846633911e-02 -4.531107842922210693e-02 8.374395966529846191e-02 -1.057099997997283936e-01 1.266598552465438843e-01 -1.025906503200531006e-01 -2.581525221467018127e-02 1.295175999402999878e-01 -3.968825098127126694e-03 -9.527676552534103394e-02 -1.364112496376037598e-01 9.828697890043258667e-02 8.699969202280044556e-02 1.445376574993133545e-01 7.602462172508239746e-02 -1.755837723612785339e-02 -7.545951288193464279e-03 -3.982562571763992310e-03 7.362514734268188477e-02 9.143269062042236328e-02 1.120661571621894836e-01 1.084411963820457458e-01 1.220848038792610168e-01 1.643065661191940308e-01 1.180438101291656494e-01 3.801116347312927246e-02 2.737370878458023071e-02 -3.033170476555824280e-02 -1.173176094889640808e-01 1.590232551097869873e-01
-3.591011464595794678e-02 9.456326812505722046e-02 -9.815353155136108398e-02 -1.343618333339691162e-01 -1.247310638427734375e-01 7.450238335877656937e-03 -1.275484114885330200e-01 1.810131967067718506e-02 2.138321250677108765e-01 5.182060878723859787e-03 1.777344732545316219e-03 -1.006781831383705139e-01 2.957057766616344452e-02 1.368951797485351562e-01 1.171121001243591309e-01 -1.229897513985633850e-01 7.217234373092651367e-02 -7.718662917613983154e-02 1.069650873541831970e-01 2.008024901151657104e-01 -9.324423968791961670e-02 -3.226076811552047729e-02 -2.576871402561664581e-02 6.158206611871719360e-02 2.168013304471969604e-01 4.570156335830688477e-02 -1.100267842411994934e-01 8.943834155797958374e-02 1.033761799335479736e-01 6.392681598663330078e-02 -2.600395493209362030e-02 -7.457878440618515015e-02 -8.492583036422729492e-02 -1.437758058309555054e-01 1.464902539737522602e-03 9.453850239515304565e-02 4.137014225125312805e-02 3.022677078843116760e-02 -8.696967363357543945e-02 6.475016474723815918e-02 3.336130408570170403e-03 -3.405759483575820923e-02 -1.442878395318984985e-01 7.030188292264938354e-02 -9.094978868961334229e-02 -1.186957359313964844e-01 3.668741136789321899e-02 -7.382389158010482788e-03 -5.265991762280464172e-02 9.687261283397674561e-02 -1.372609194368124008e-02 -1.471515744924545288e-02 -1.033655032515525818e-01 9.720037877559661865e-02 1.211393997073173523e-01 8.932849019765853882e-02 -1.280860006809234619e-01 -6.866483390331268311e-02 9.144093841314315796e-02 1.812718659639358521e-01 1.295761913061141968e-01 -3.221138846129179001e-03 -8.613739162683486938e-02 -8.787658810615539551e-02
6.225115060806274414e-02 -7.720238715410232544e-02 1.308957394212484360e-02 -1.891327090561389923e-02 -1.517925113439559937e-01 -9.111189842224121094e-02 -1.173907741904258728e-01 6.959845777601003647e-03 -1.010199710726737976e-01 -9.668730944395065308e-02 5.434950441122055054e-02 -6.698656082153320312e-02 1.328535676002502441e-01 -4.414890334010124207e-02 1.120212599635124207e-01 -1.360548734664916992e-01 1.817501708865165710e-02 7.218416035175323486e-02 -2.629912830889225006e-02 -1.160913705825805664e-01 1.717775166034698486e-01 8.834684640169143677e-02 1.812877655029296875e-01 1.059908419847488403e-01 -9.023537486791610718e-02 -9.341811528429389000e-05 -6.161490455269813538e-02 2.126588113605976105e-02 -5.760883167386054993e-02 -1.245438605546951294e-01 1.358986794948577881e-01 1.075077354907989502e-01 -8.654403686523437500e-02 1.025108918547630310e-01 2.912719547748565674e-02 5.517123639583587646e-02 -3.216404840350151062e-02 -6.470944732427597046e-02 1.549154054373502731e-02 -1.158891245722770691e-01 -8.348113298416137695e-02 1.895200908184051514e-01 9.849186241626739502e-02 -2.150106132030487061e-01 3.750171512365341187e-02 2.115442454814910889e-01 -1.627681963145732880e-02 -9.712874889373779297e-02 6.984106451272964478e-02 -2.712224796414375305e-02 -1.028109155595302582e-02 -1.694172471761703491e-01 -2.967646718025207520e-02 4.043744876980781555e-02 -5.183577165007591248e-02 -1.237813606858253479e-01 -1.208872422575950623e-01 6.949133425951004028e-02 -1.634045690298080444e-01 4.081143438816070557e-02 1.172101572155952454e-01 -1.683420091867446899e-01 -1.075906753540039062e-01 2.101900726556777954e-01
-3.035589866340160370e-02 1.117531657218933105e-01 4.763185977935791016e-03 3.345767781138420105e-02 6.928767263889312744e-02 8.413553237915039062e-02 -6.847696751356124878e-02 -9.494192898273468018e-02 7.998057454824447632e-02 -1.108473762869834900e-01 -6.734848767518997192e-02 -7.570641487836837769e-02 3.220970556139945984e-02 1.175544857978820801e-01 8.187121897935867310e-02 1.782068908214569092e-01 -1.183438077569007874e-01 1.129290163516998291e-01 5.592550151050090790e-04 1.476952284574508667e-01 1.350195705890655518e-01 9.105955064296722412e-02 1.181230694055557251e-01 -5.720333009958267212e-02 -5.345211178064346313e-02 -6.327452510595321655e-02 -1.173801720142364502e-01 6.226579844951629639e-02 -7.771493494510650635e-02 1.294672489166259766e-01 -1.723497956991195679e-01 1.155433654785156250e-01 8.321978896856307983e-02 -1.139741092920303345e-01 1.456141322851181030e-01 -1.413306891918182373e-01 5.870488006621599197e-03 4.963559657335281372e-02 -1.459970474243164062e-01 6.307137012481689453e-02 8.896128088235855103e-02 -4.952190816402435303e-02 -1.102993637323379517e-01 -6.636464595794677734e-02 -1.208666637539863586e-01 -5.256873089820146561e-03 6.901377439498901367e-02 1.677684932947158813e-01 5.917387455701828003e-02 -5.817466974258422852e-02 2.541298978030681610e-02 4.595596715807914734e-02 -5.219620093703269958e-02 -6.361433118581771851e-02 1.506851520389318466e-03 -6.862141191959381104e-02 -2.095920778810977936e-02 -2.267780154943466187e-02 1.335458606481552124e-01 -2.481755986809730530e-02 1.463748067617416382e-01 -9.014718979597091675e-02 4.534302651882171631e-02 6.209999322891235352e-02
9.667017497122287750e-03 1.457359176129102707e-02 2.650653943419456482e-02 -8.380674570798873901e-02 -1.749644279479980469e-01 -8.594132214784622192e-02 -1.373399198055267334e-01 1.382622420787811279e-01 -1.264935731887817383e-01 1.838892251253128052e-01 -1.025162786245346069e-01 -1.197608038783073425e-01 -2.700438024476170540e-03 4.922371357679367065e-02 6.340569257736206055e-02 6.234035268425941467e-02 6.503037363290786743e-02 -1.086447164416313171e-01 -1.509805619716644287e-01 -7.250200212001800537e-02 7.621627300977706909e-03 2.036465704441070557e-01 1.133788959123194218e-03 1.834696345031261444e-02 6.178450584411621094e-02 3.739196807146072388e-02 -1.233892440795898438e-01 8.678341656923294067e-02 -2.600767835974693298e-02 2.400386892259120941e-02 -2.277359366416931152e-02 -1.132175177335739136e-01 5.581033974885940552e-02 1.706209927797317505e-01 -1.426216028630733490e-02 7.200806587934494019e-02 9.561610966920852661e-02 -8.344335854053497314e-02 1.230273395776748657e-01 2.356654219329357147e-02 6.854783743619918823e-02 5.543171614408493042e-02 1.730171740055084229e-01 -1.965023130178451538e-01 1.842748522758483887e-01 2.306138277053833008e-01 2.029941603541374207e-02 -3.804484754800796509e-02 1.273785829544067383e-01 -4.880477488040924072e-02 1.375235021114349365e-01 -5.243138223886489868e-02 -7.571050524711608887e-02 1.235940158367156982e-01 -8.677740395069122314e-02 1.216438487172126770e-01 -5.728341639041900635e-02 9.122072160243988037e-02 1.129483506083488464e-01 6.364712864160537720e-02 6.990710645914077759e-02 9.812347590923309326e-02 -9.361369162797927856e-02 1.360987573862075806e-01
-5.981568247079849243e-02 -9.576272964477539062e-02 -1.572563685476779938e-02 7.221689075231552124e-02 7.492327690124511719e-02 -6.942253559827804565e-02 3.256573108956217766e-03 -3.244510293006896973e-02 3.944632131606340408e-03 -1.351534482091665268e-02 4.256047308444976807e-02 -1.057287007570266724e-01 4.791504144668579102e-02 -8.452990651130676270e-02 -4.844827204942703247e-02 6.423582136631011963e-02 -6.586353480815887451e-02 1.227755695581436157e-01 1.189272776246070862e-01 -3.372209891676902771e-02 -2.302057109773159027e-02 1.596699506044387817e-01 5.104911513626575470e-03 -2.957250922918319702e-02 -2.660108916461467743e-02 8.674348890781402588e-02 -5.070826504379510880e-03 1.130020841956138611e-01 2.650670334696769714e-02 1.087866909801959991e-02 -1.100971922278404236e-01 -5.787178501486778259e-02 1.407458931207656860e-01 7.242991030216217041e-02 -9.347635321319103241e-03 5.771452561020851135e-02 -4.414207860827445984e-02 3.580328449606895447e-02 -8.925174176692962646e-02 -5.890407040715217590e-02 2.434033900499343872e-02 4.581977054476737976e-02 5.910592153668403625e-02 -1.028524935245513916e-01 5.588607862591743469e-02 6.660556793212890625e-02 -3.489435464143753052e-02 -5.397924035787582397e-02 -5.076751112937927246e-03 -1.197302341461181641e-02 5.421784520149230957e-02 -2.656404161825776100e-03 4.423590004444122314e-02 -6.921964138746261597e-02 -6.221442017704248428e-04 8.552490919828414917e-02 -1.382861137390136719e-01 3.481479361653327942e-02 -8.396787196397781372e-02 9.153992682695388794e-02 -5.540825892239809036e-03 -6.936299055814743042e-02 -7.255788892507553101e-02 -6.800207495689392090e-02
1.688742265105247498e-02 1.171228364109992981e-01 -2.118043415248394012e-02 -2.281590737402439117e-02 -5.764531344175338745e-02 9.636414796113967896e-02 6.656613945960998535e-02 5.133395642042160034e-02 1.488643884658813477e-01 -1.510091572999954224e-01 6.300664693117141724e-02 -9.522623568773269653e-02 1.020929366350173950e-01 1.036902666091918945e-01 6.673767417669296265e-02 7.535702735185623169e-02 7.268078625202178955e-02 1.265427172183990479e-01 -1.173885986208915710e-01 1.060351878404617310e-01 -6.451562978327274323e-03 -6.676601618528366089e-02 -1.729821413755416870e-01 -7.595406845211982727e-03 -9.355850517749786377e-02 1.353375464677810669e-01 -1.389678865671157837e-01 9.159164875745773315e-02 3.668339177966117859e-02 9.477774146944284439e-04 -1.371616404503583908e-02 -4.815660044550895691e-02 -1.518679708242416382e-01 -1.858723163604736328e-01 1.458291858434677124e-01 5.659694597125053406e-02 -6.925221532583236694e-02 -9.487070888280868530e-02 9.870108217000961304e-02 -6.716972589492797852e-02 -7.832149416208267212e-02 5.027983337640762329e-02 -1.218899935483932495e-01 8.503241837024688721e-02 5.587007477879524231e-02 -4.553658515214920044e-02 -8.689891546964645386e-03 1.214084029197692871e-01 -1.528532356023788452e-01 6.613123416900634766e-02 6.332434713840484619e-02 1.688572913408279419e-01 2.809776552021503448e-02 1.982111483812332153e-02 -1.445019692182540894e-01 -1.279879957437515259e-01 4.475125670433044434e-02 1.158387660980224609e-01 -1.297473907470703125e-01 -7.137139141559600830e-02 6.630284339189529419e-02 -9.757941961288452148e-02 -1.272721886634826660e-01 7.664967328310012817e-02
-1.593813486397266388e-02 -1.295875012874603271e-01 -7.819848507642745972e-02 4.814951121807098389e-02 -4.306633397936820984e-02 -1.401338279247283936e-01 9.383387863636016846e-02 8.413425832986831665e-02 4.783684760332107544e-02 2.143687941133975983e-02 -2.309312671422958374e-02 7.973842322826385498e-02 1.563121378421783447e-01 1.872042752802371979e-02 -4.103551432490348816e-02 -4.134236648678779602e-02 3.484829887747764587e-02 1.166992932558059692e-01 -8.588694781064987183e-02 -4.571063071489334106e-02 2.364793792366981506e-02 7.085163146257400513e-02 7.043273001909255981e-02 9.852656163275241852e-03 -4.923862963914871216e-02 -9.040343016386032104e-02 -2.752572484314441681e-02 9.724710136651992798e-02 5.212761461734771729e-02 7.690197974443435669e-02 1.005097329616546631e-01 -3.219365328550338745e-02 -1.539621967822313309e-02 1.009337678551673889e-01 5.544725060462951660e-02 8.282661437988281250e-02 -1.202845126390457153e-01 1.079423725605010986e-02 1.474937330931425095e-02 6.327424198389053345e-02 1.637049391865730286e-02 1.506891250610351562e-01 1.417087316513061523e-01 -1.960388012230396271e-02 -6.613764166831970215e-02 5.386491119861602783e-02 -1.557207386940717697e-02 -1.431921869516372681e-01 1.574259400367736816e-01 1.046695932745933533e-01 -9.527987241744995117e-02 3.673142939805984497e-02 -1.345047540962696075e-02 1.616325825452804565e-01 -2.632806636393070221e-02 -1.165064871311187744e-01 -1.151325330138206482e-01 -1.052755396813154221e-02 -1.338872760534286499e-01 1.332308351993560791e-01 -4.022987186908721924e-02 8.187392354011535645e-02 4.231361299753189087e-02 2.097526565194129944e-02
6.355623155832290649e-02 4.965003952383995056e-02 6.748864054679870605e-02 -8.598995208740234375e-02 -2.632931061089038849e-02 -7.377401739358901978e-02 7.186479121446609497e-02 1.436531990766525269e-01 -1.213946491479873657e-01 -5.418986827135086060e-02 -4.465728625655174255e-02 1.052898317575454712e-01 2.025450021028518677e-01 4.405850544571876526e-02 1.096624881029129028e-02 -5.980068817734718323e-02 -2.735990844666957855e-02 2.064343728125095367e-02 9.905169159173965454e-02 -1.511155217885971069e-01 8.617956191301345825e-02 5.947898328304290771e-02 -1.996719278395175934e-02 1.547136753797531128e-01 7.920613139867782593e-02 -2.618710696697235107e-02 -2.499035559594631195e-02 -1.631476879119873047e-01 -1.225194185972213745e-01 -1.229901984333992004e-01 -5.511488392949104309e-02 1.863130182027816772e-02 7.011684123426675797e-03 1.946005821228027344e-01 -5.528444424271583557e-02 1.181937530636787415e-01 -4.286246001720428467e-02 -4.267805069684982300e-02 8.640179038047790527e-02 3.573075681924819946e-02 4.172486811876296997e-02 9.403847157955169678e-03 1.315048784017562866e-01 -1.802104525268077850e-02 1.660474687814712524e-01 1.229197829961776733e-01 1.354953944683074951e-01 -8.868715912103652954e-02 1.187599375844001770e-01 1.462711095809936523e-01 1.177663952112197876e-01 2.422535978257656097e-02 -3.378931432962417603e-02 1.279079169034957886e-01 -8.896571397781372070e-02 -1.565444618463516235e-01 1.846083998680114746e-01 -1.766751557588577271e-01 1.420760303735733032e-01 1.330496966838836670e-01 -6.611157208681106567e-02 -1.519945412874221802e-01 -3.661508858203887939e-02 6.087621673941612244e-02
8.832543157041072845e-03 1.673562377691268921e-01 -8.496791124343872070e-02 5.724809691309928894e-02 2.952545508742332458e-02 -9.391558915376663208e-02 1.247325688600540161e-01 -7.258734852075576782e-02 -6.630326807498931885e-02 -1.810097843408584595e-01 1.021755784749984741e-01 -1.100850328803062439e-01 1.950057297945022583e-01 1.551846563816070557e-01 9.227338433265686035e-02 -1.173267886042594910e-01 9.449806064367294312e-02 1.585071533918380737e-01 1.311724334955215454e-01 -2.242667227983474731e-02 5.943288281559944153e-02 -1.599539965391159058e-01 3.388080745935440063e-02 -2.621028572320938110e-03 1.352596282958984375e-01 1.168170347809791565e-01 6.005115061998367310e-02 5.363102257251739502e-02 6.780543923377990723e-02 2.929723076522350311e-02 -8.502014726400375366e-02 9.077162295579910278e-02 4.138755425810813904e-02 1.295350342988967896e-01 1.394310500472784042e-02 -7.465046644210815430e-02 -1.676677018404006958e-01 1.544211357831954956e-01 3.299105167388916016e-02 4.381618276238441467e-02 -2.283290028572082520e-02 -1.197965964674949646e-01 2.405488863587379456e-02 5.641138553619384766e-02 1.640306264162063599e-01 4.054415598511695862e-02 1.993958093225955963e-02 -8.829956641420722008e-04 8.141601085662841797e-02 9.777590632438659668e-02 6.488799303770065308e-02 -7.140539120882749557e-03 8.609136193990707397e-02 2.310644537210464478e-01 -2.197895646095275879e-01 -1.537385880947113037e-01 3.937862068414688110e-02 -5.876564979553222656e-02 7.012040168046951294e-02 1.709778457880020142e-01 1.828110516071319580e-01 -1.227921769022941589e-01 -1.820715963840484619e-01 -7.124450802803039551e-02
1.972934305667877197e-01 -1.296666711568832397e-01 -8.241283893585205078e-02 1.217116788029670715e-01 -1.106804385781288147e-01 8.080477267503738403e-02 -1.845748424530029297e-01 8.226008713245391846e-02 -3.683676570653915405e-02 -1.352466493844985962e-01 4.884794726967811584e-02 1.168842539191246033e-01 -9.961780905723571777e-02 -1.004221215844154358e-01 -1.665300726890563965e-01 1.490957438945770264e-01 2.599791437387466431e-02 5.653323978185653687e-02 -8.876082487404346466e-03 1.947753876447677612e-01 -6.596151739358901978e-02 6.768884509801864624e-02 1.437164843082427979e-01 -5.095372349023818970e-02 -9.766277670860290527e-02 1.077447365969419479e-02 1.320033799856901169e-02 1.101311147212982178e-01 -3.577866777777671814e-02 -5.976603552699089050e-02 -6.025353446602821350e-02 -4.282092675566673279e-02 -4.854637756943702698e-02 -1.899640411138534546e-01 2.662104927003383636e-02 -4.817323386669158936e-02 1.112164333462715149e-01 -1.056751534342765808e-01 1.442587003111839294e-02 1.046840995550155640e-01 3.071366250514984131e-02 6.038086488842964172e-02 -9.187521040439605713e-02 1.246336624026298523e-01 4.829538613557815552e-02 2.515687048435211182e-02 1.553761656396090984e-03 1.827343702316284180e-01 4.821868985891342163e-02 7.557017728686332703e-03 -6.278482824563980103e-02 1.545927822589874268e-01 -1.292069908231496811e-02 -1.738701760768890381e-01 1.264536380767822266e-01 -9.402485936880111694e-02 3.353689610958099365e-02 -6.247546896338462830e-02 3.957589715719223022e-02 -4.325008392333984375e-02 8.174151182174682617e-02 5.711209774017333984e-02 1.693263649940490723e-01 9.969297796487808228e-02
1.564998924732208252e-01 -5.528873763978481293e-03 -8.401042781770229340e-03 3.594890609383583069e-02 5.135774239897727966e-02 -7.069275528192520142e-02 1.760899722576141357e-01 9.852973371744155884e-02 -4.861260578036308289e-02 -1.460521072149276733e-01 7.654317189007997513e-03 1.599318683147430420e-01 -1.112826019525527954e-01 5.024817958474159241e-02 1.108618569560348988e-03 1.334302425384521484e-01 -1.207345873117446899e-01 1.300621330738067627e-01 6.302035599946975708e-02 -2.903225272893905640e-02 -1.140256598591804504e-01 1.312763839960098267e-01 1.008795052766799927e-01 -1.163987889885902405e-01 2.459707856178283691e-02 1.800217293202877045e-02 6.627953052520751953e-02 -8.555888384580612183e-02 -9.101367741823196411e-02 1.167194172739982605e-01 -1.751289330422878265e-02 -1.597885191440582275e-01 -1.196401100605726242e-02 -1.998753994703292847e-01 -8.333577215671539307e-02 1.526005417108535767e-01 1.282327324151992798e-01 1.967596262693405151e-02 1.616832017898559570e-01 -6.431270390748977661e-02 5.199261009693145752e-02 1.216392293572425842e-01 -5.919443815946578979e-02 3.399338200688362122e-02 9.592151641845703125e-02 6.262023746967315674e-02 1.511269900947809219e-02 -2.174674533307552338e-02 9.646749496459960938e-02 -8.824314922094345093e-02 -1.069772168993949890e-01 6.453508883714675903e-02 1.097684353590011597e-01 1.757802963256835938e-01 6.114886328577995300e-02 -8.251991868019104004e-02 -8.497878164052963257e-02 -1.780818104743957520e-01 -6.221405696123838425e-03 -4.331943392753601074e-02 -5.642490088939666748e-02 -1.214609947055578232e-02 -5.008993670344352722e-02 -6.123812869191169739e-02
-1.052574962377548218e-01 1.034652888774871826e-01 1.789606735110282898e-02 4.871959239244461060e-02 7.017850130796432495e-02 -1.366469264030456543e-01 9.357547760009765625e-02 2.646390162408351898e-02 2.517859078943729401e-02 7.043257355690002441e-02 -3.036338603124022484e-03 6.164224073290824890e-02 -9.773430973291397095e-02 1.111426949501037598e-01 -1.913053169846534729e-02 1.207174360752105713e-01 -5.750637501478195190e-02 1.712775528430938721e-01 3.970080241560935974e-02 -1.071110274642705917e-02 -6.404254585504531860e-02 -1.275025755167007446e-01 9.862992912530899048e-03 1.764194294810295105e-02 -9.192311763763427734e-02 1.697299070656299591e-02 -5.120810493826866150e-02 -6.150224432349205017e-02 1.309955269098281860e-01 -1.150004714727401733e-01 -1.401651799678802490e-01 9.962591528892517090e-02 1.220923289656639099e-01 -6.621479243040084839e-02 1.019057780504226685e-01 8.114401996135711670e-02 -1.809502691030502319e-01 1.686177551746368408e-01 2.600536681711673737e-02 1.426819115877151489e-01 3.874837607145309448e-02 -2.633450180292129517e-02 6.150914356112480164e-02 2.969493716955184937e-02 4.239898175001144409e-02 -9.675094485282897949e-02 7.643593847751617432e-02 -1.231316104531288147e-01 -2.181658893823623657e-02 -2.319870889186859131e-02 -2.453978732228279114e-02 -1.582828909158706665e-01 -1.446207333356142044e-02 -8.558014035224914551e-02 1.068886741995811462e-01 -4.798820614814758301e-02 -1.468696892261505127e-01 -9.039974212646484375e-02 1.556852906942367554e-01 -1.136207804083824158e-01 -1.081098839640617371e-01 -1.234730109572410583e-01 4.986842349171638489e-02 -1.307727098464965820e-01
-1.542789041996002197e-01 -4.299685359001159668e-02 -7.371347397565841675e-03 -4.168751463294029236e-02 6.631311774253845215e-02 -1.364451348781585693e-01 -1.046246960759162903e-01 -6.689158082008361816e-02 1.053391695022583008e-01 -7.513441145420074463e-02 -1.723738759756088257e-01 1.114047244191169739e-01 1.444545239210128784e-01 1.123963072896003723e-01 -1.206238195300102234e-01 -3.811418265104293823e-02 3.643915802240371704e-02 1.371536552906036377e-01 -1.600618064403533936e-01 -9.311918169260025024e-03 7.012200355529785156e-02 -1.379238963127136230e-01 1.718307472765445709e-02 1.452969908714294434e-01 2.084814198315143585e-02 -1.807811670005321503e-02 -7.948322594165802002e-02 -9.455101937055587769e-02 9.192138165235519409e-02 -4.428258538246154785e-02 -9.073495119810104370e-02 1.252122074365615845e-01 -8.768628537654876709e-02 6.907833367586135864e-02 -8.052721619606018066e-02 1.441351771354675293e-01 -7.678204029798507690e-02 4.222631454467773438e-03 5.400883406400680542e-02 3.082367032766342163e-02 -1.016302406787872314e-01 1.159202009439468384e-01 -3.306769579648971558e-02 -1.406688336282968521e-02 1.364901959896087646e-01 2.193982452154159546e-01 9.119316004216670990e-03 -1.389850080013275146e-01 1.393542885780334473e-01 -1.913873478770256042e-02 3.291931003332138062e-02 -1.141036450862884521e-01 6.132366508245468140e-02 3.920830786228179932e-02 2.010341500863432884e-03 2.172663994133472443e-02 1.242269203066825867e-01 -1.024672687053680420e-01 -3.190826997160911560e-02 1.596482098102569580e-01 8.004756271839141846e-02 1.966630294919013977e-02 -1.501971185207366943e-01 1.410765796899795532e-01
-2.798207290470600128e-02 -1.279395259916782379e-02 -1.032007560133934021e-01 1.207205355167388916e-01 -1.019262988120317459e-02 -4.155225586146116257e-03 -4.261323437094688416e-02 -3.293545544147491455e-02 7.874807342886924744e-03 -8.121757954359054565e-02 2.140242233872413635e-02 -6.232440844178199768e-02 1.676222085952758789e-01 2.138264477252960205e-01 7.481452077627182007e-02 -1.313459426164627075e-01 6.323547661304473877e-02 2.016244679689407349e-01 -1.660637557506561279e-02 1.867944747209548950e-01 -5.203019827604293823e-02 -6.461697071790695190e-02 -1.041525453329086304e-01 9.245938062667846680e-02 1.875297049991786480e-03 9.972536563873291016e-02 6.807027757167816162e-02 -4.451891407370567322e-02 -4.745400976389646530e-03 -1.304120719432830811e-01 -1.791351884603500366e-01 9.274058043956756592e-03 4.515459761023521423e-02 -6.617999821901321411e-02 1.434727311134338379e-01 -1.897559501230716705e-02 1.589702069759368896e-01 4.642185568809509277e-02 1.509037613868713379e-01 7.624501734972000122e-02 1.348144956864416599e-03 -9.796580672264099121e-02 -5.163333844393491745e-03 4.411026462912559509e-02 5.061309412121772766e-02 3.373396396636962891e-02 9.434854239225387573e-02 1.201448738574981689e-01 -8.808100223541259766e-02 1.413202658295631409e-02 -1.122985035181045532e-01 2.240811735391616821e-01 5.825863033533096313e-02 1.043761298060417175e-01 -8.080980926752090454e-02 -2.592848800122737885e-02 -2.601589262485504150e-02 7.354202866554260254e-02 -2.944077365100383759e-02 3.311556577682495117e-02 -1.136280819773674011e-01 1.190962120890617371e-01 4.884392768144607544e-02 2.278883941471576691e-02
6.852294504642486572e-02 3.240519016981124878e-02 6.276509910821914673e-02 -3.554907068610191345e-02 -8.188080787658691406e-02 -3.117975592613220215e-02 7.642968744039535522e-02 -1.634535752236843109e-02 5.509603768587112427e-02 1.191959083080291748e-01 5.728703364729881287e-02 9.597644954919815063e-02 -1.702347584068775177e-02 -6.965175271034240723e-02 9.377379715442657471e-02 -6.959503144025802612e-02 -3.824979439377784729e-02 3.760309889912605286e-02 -6.104347109794616699e-02 -1.134038204327225685e-03 1.376565992832183838e-01 -1.032375320792198181e-01 -8.959072083234786987e-02 -3.033863008022308350e-02 -1.582420021295547485e-01 -1.754874177277088165e-02 -4.435263201594352722e-02 -6.131204217672348022e-02 8.647318184375762939e-02 -5.183282867074012756e-02 -1.287871301174163818e-01 9.960930049419403076e-02 -1.010609418153762817e-01 5.499038472771644592e-02 1.119519993662834167e-01 2.324395440518856049e-02 -1.110867559909820557e-01 9.996198117733001709e-02 8.114564418792724609e-02 3.027472877874970436e-03 -1.107629835605621338e-01 1.289412321057170630e-04 1.088206619024276733e-01 1.017856299877166748e-01 1.318452507257461548e-01 -7.699749618768692017e-02 -1.225901395082473755e-02 -1.434654090553522110e-02 1.179643347859382629e-01 1.042258366942405701e-01 3.886141628026962280e-02 5.740180984139442444e-02 1.219429150223731995e-01 5.062708631157875061e-03 1.274248510599136353e-01 -8.566635102033615112e-02 -2.019022963941097260e-02 -1.086346209049224854e-01 -1.208267658948898315e-01 4.433604702353477478e-02 1.011436730623245239e-01 1.498668789863586426e-01 1.337500661611557007e-02 -9.524065256118774414e-02
-7.607012987136840820e-02 1.242079511284828186e-01 -5.650532990694046021e-02 -1.156381741166114807e-01 1.117903366684913635e-01 -2.886217832565307617e-02 8.540206402540206909e-02 -1.064851507544517517e-01 6.532620172947645187e-03 1.642021685838699341e-01 5.576710030436515808e-02 2.578457817435264587e-02 -1.109150946140289307e-01 7.647938281297683716e-02 2.657847665250301361e-02 2.322171814739704132e-02 1.795754432678222656e-01 -2.009682171046733856e-02 7.068729400634765625e-02 1.348627209663391113e-01 9.798921644687652588e-02 1.476817578077316284e-01 2.123279124498367310e-02 -5.210232734680175781e-02 2.134485095739364624e-01 7.810612209141254425e-03 4.259938374161720276e-02 1.126970276236534119e-01 3.807339444756507874e-02 8.839194476604461670e-02 -1.379341334104537964e-01 8.627860993146896362e-02 -1.245457753539085388e-01 -5.775735247880220413e-03 -2.254091203212738037e-02 -1.076412349939346313e-01 1.466018557548522949e-01 -9.550256282091140747e-02 2.985139004886150360e-02 4.252558574080467224e-02 2.701562829315662384e-02 -4.698378965258598328e-03 -4.900486767292022705e-02 4.282738268375396729e-02 -7.684226334095001221e-02 -1.088977903127670288e-01 1.006888523697853088e-01 -6.967776268720626831e-02 -1.654126644134521484e-01 3.807299584150314331e-02 5.169192329049110413e-02 1.023050397634506226e-01 -7.129406183958053589e-02 -1.786461174488067627e-01 -1.223986875265836716e-02 5.436712503433227539e-02 3.584950044751167297e-02 -1.740486361086368561e-02 -7.546855509281158447e-02 1.493491977453231812e-01 -3.266438469290733337e-02 -8.513357490301132202e-02 4.429223388433456421e-02 5.340833216905593872e-02
1.236350759863853455e-01 -6.987499445676803589e-02 1.294187307357788086e-01 -2.208200842142105103e-02 1.407085359096527100e-01 -5.577694997191429138e-02 -1.313784867525100708e-01 4.541390761733055115e-02 -1.129105985164642334e-01 -1.519128773361444473e-02 -1.856656968593597412e-01 -1.208454743027687073e-01 1.954539865255355835e-01 9.207732230424880981e-02 -6.013347767293453217e-03 -3.791872784495353699e-02 4.255765676498413086e-02 -6.462255865335464478e-02 -2.900866419076919556e-02 1.896569319069385529e-02 1.831516325473785400e-01 9.756308794021606445e-02 -5.678423494100570679e-02 1.277273446321487427e-01 -9.748200885951519012e-03 -1.778587251901626587e-01 8.480521291494369507e-02 -1.262556761503219604e-01 -5.971968173980712891e-03 9.706980735063552856e-02 7.161261886358261108e-02 -9.528926014900207520e-02 9.490732848644256592e-02 1.528374552726745605e-01 -1.265419572591781616e-01 -8.885511197149753571e-03 -7.993245124816894531e-02 2.684283256530761719e-02 2.761246077716350555e-02 6.249055732041597366e-03 3.611334040760993958e-02 -4.989958181977272034e-02 1.867888867855072021e-01 7.938092947006225586e-02 7.873577624559402466e-02 2.052608579397201538e-01 4.716757219284772873e-03 -1.529531925916671753e-01 2.015942782163619995e-01 -3.067769296467304230e-02 7.079526036977767944e-02 7.596698403358459473e-02 -4.384664073586463928e-02 7.217027992010116577e-02 -4.598380997776985168e-02 -2.121466100215911865e-01 -9.366076439619064331e-02 -1.749911457300186157e-01 -2.222388051450252533e-02 3.659089282155036926e-02 4.641665145754814148e-02 -1.340101063251495361e-01 -3.634000569581985474e-02 -2.741069346666336060e-02
9.097144007682800293e-02 -1.734256148338317871e-01 1.292218565940856934e-01 -9.530118666589260101e-03 1.178812235593795776e-01 1.398712843656539917e-01 1.293155550956726074e-01 -3.673744946718215942e-02 1.571578979492187500e-01 5.282593145966529846e-02 1.667561233043670654e-01 -6.096212659031152725e-03 2.815348096191883087e-02 -1.225942224264144897e-01 -3.729997202754020691e-03 1.828805916011333466e-02 -4.124569520354270935e-02 -1.426314413547515869e-01 1.451911181211471558e-01 9.920351952314376831e-02 7.016077637672424316e-02 -1.357276225462555885e-03 8.021612651646137238e-03 -4.809951782226562500e-02 -1.063530147075653076e-01 4.920932464301586151e-03 1.450411528348922729e-01 -1.617492060177028179e-03 4.132889211177825928e-02 2.959540113806724548e-02 1.722163558006286621e-01 -3.035947680473327637e-02 2.180208265781402588e-01 -1.813259571790695190e-01 6.034045945852994919e-03 1.257152557373046875e-01 1.164962276816368103e-01 -6.635191291570663452e-02 -4.546574130654335022e-02 7.017444074153900146e-02 1.901438683271408081e-01 1.591613441705703735e-01 2.038380652666091919e-01 -1.196318417787551880e-01 1.030236929655075073e-01 9.517946839332580566e-02 1.215144470334053040e-01 -8.741416037082672119e-03 -3.802371770143508911e-02 -4.928222671151161194e-02 2.089264690876007080e-01 7.312443852424621582e-02 -6.273501366376876831e-02 3.292386606335639954e-02 1.090719401836395264e-01 1.719819605350494385e-01 -1.334538757801055908e-01 3.411838039755821228e-02 -1.190594658255577087e-01 -1.407457888126373291e-01 -2.027771249413490295e-02 7.630842924118041992e-02 5.334692820906639099e-02 -1.628537327051162720e-01
-7.784625887870788574e-02 -1.241569295525550842e-01 -1.041223853826522827e-01 3.727681189775466919e-02 1.227134764194488525e-01 1.064737737178802490e-01 -7.430392503738403320e-02 1.016682311892509460e-01 -1.398713141679763794e-01 -1.525086760520935059e-01 9.083492308855056763e-02 1.096514016389846802e-01 1.260057836771011353e-01 6.080505624413490295e-02 7.780706137418746948e-02 -1.161245554685592651e-01 -1.248479038476943970e-01 1.699697077274322510e-01 8.153168112039566040e-02 -7.640710473060607910e-02 1.361669301986694336e-01 1.377924084663391113e-01 -5.571332573890686035e-02 1.177424266934394836e-01 1.902570761740207672e-02 9.063067287206649780e-02 -3.755459934473037720e-02 -1.504132747650146484e-01 3.864396363496780396e-02 6.657313555479049683e-02 -9.182753413915634155e-02 -7.688130438327789307e-02 -4.450229927897453308e-02 1.218957751989364624e-01 -3.191239759325981140e-02 8.765432238578796387e-02 1.421087831258773804e-01 1.003156304359436035e-01 -7.143248617649078369e-02 -1.238517165184020996e-01 3.074089251458644867e-02 3.092230483889579773e-02 1.159396171569824219e-01 -5.617770552635192871e-02 1.813050657510757446e-01 1.078351959586143494e-01 -1.659019291400909424e-01 -4.307722672820091248e-03 2.036183178424835205e-01 -4.271850734949111938e-02 -5.992705002427101135e-02 1.005076523870229721e-02 -7.882690429687500000e-02 1.274286210536956787e-01 1.869521476328372955e-02 -1.066075935959815979e-01 3.136477991938591003e-02 -1.489394009113311768e-01 -1.364820823073387146e-02 4.382270388305187225e-03 8.315035700798034668e-02 -5.043835937976837158e-02 5.172213539481163025e-02 2.984380349516868591e-02
-1.621916443109512329e-01 -2.955739200115203857e-02 6.083607301115989685e-02 -1.219621226191520691e-01 1.269457191228866577e-01 -7.423820346593856812e-02 -2.182231098413467407e-02 8.530071377754211426e-02 1.791190505027770996e-01 1.979659497737884521e-01 3.194183111190795898e-02 1.311702132225036621e-01 -2.384743280708789825e-02 -3.854760527610778809e-02 -1.023677960038185120e-01 -2.395208366215229034e-02 1.174850314855575562e-01 -4.267397895455360413e-02 1.264005005359649658e-01 5.624535679817199707e-02 -7.295855320990085602e-04 1.062162779271602631e-02 7.871572673320770264e-02 -4.095932096242904663e-02 1.871216595172882080e-01 2.235756665468215942e-01 -1.126613989472389221e-01 -7.635098695755004883e-02 -4.759562015533447266e-02 -1.974363438785076141e-02 -5.556141585111618042e-02 7.076807320117950439e-02 -3.197490051388740540e-02 5.444290116429328918e-02 1.252825558185577393e-01 -5.539089068770408630e-02 -9.943272173404693604e-02 8.848486840724945068e-02 3.813041374087333679e-02 9.735820442438125610e-02 -4.981794208288192749e-02 -1.353847831487655640e-01 1.307119578123092651e-01 3.886506706476211548e-02 -6.463620811700820923e-02 1.218568682670593262e-01 1.885167211294174194e-01 1.688754409551620483e-01 -1.044805049896240234e-01 -8.591824769973754883e-02 -6.687032431364059448e-02 3.630354627966880798e-02 2.111307112500071526e-03 -3.656895831227302551e-02 1.293130666017532349e-01 -8.709858357906341553e-02 2.767547219991683960e-02 1.936729848384857178e-01 -1.431915163993835449e-01 1.333612799644470215e-01 -5.500328540802001953e-02 1.052632108330726624e-01 -7.432495057582855225e-02 -1.055531799793243408e-01
1.251362413167953491e-01 3.845311701297760010e-02 -6.113554909825325012e-02 -1.282826215028762817e-01 -5.232958123087882996e-02 -6.619728356599807739e-02 1.684828996658325195e-01 -3.149399533867835999e-02 1.132992208003997803e-01 -1.087196245789527893e-01 6.355110090225934982e-03 -1.167710945010185242e-01 1.374488025903701782e-01 -6.780183874070644379e-03 5.381450802087783813e-02 1.383670419454574585e-01 -3.459203243255615234e-02 1.396256089210510254e-01 1.227900087833404541e-01 4.984060302376747131e-02 5.582461878657341003e-02 1.175244376063346863e-01 -5.336687434464693069e-03 -7.956787943840026855e-02 -1.431784927845001221e-01 -1.014003306627273560e-01 1.303229629993438721e-01 4.943181946873664856e-02 7.754421234130859375e-02 -8.313453942537307739e-02 -4.239642620086669922e-02 -1.421683430671691895e-01 -5.431388970464468002e-03 -3.905877098441123962e-02 -8.263466507196426392e-02 1.357132345438003540e-01 -1.050931438803672791e-01 1.853775791823863983e-02 1.877319812774658203e-01 1.828259825706481934e-01 -1.355151981115341187e-01 6.950629502534866333e-02 -1.319548934698104858e-01 -1.345934569835662842e-01 1.354581564664840698e-01 3.719748696312308311e-03 8.659546077251434326e-02 3.112313523888587952e-02 1.298116743564605713e-01 3.567225486040115356e-02 1.541541963815689087e-01 -1.464674323797225952e-01 -6.073554232716560364e-02 3.922720253467559814e-02 1.662933230400085449e-01 7.054426521062850952e-02 -1.237958222627639771e-01 -1.046408340334892273e-01 1.696633994579315186e-01 -4.101184383034706116e-02 -1.023312583565711975e-01 1.529491692781448364e-01 1.849327236413955688e-01 1.192069724202156067e-01
3.178051486611366272e-02 -6.850891560316085815e-02 2.357170684263110161e-03 -7.877235859632492065e-02 5.621517077088356018e-02 9.195435792207717896e-02 1.816720515489578247e-01 1.550555601716041565e-02 -7.396751642227172852e-02 4.732511192560195923e-02 3.154230117797851562e-02 -9.382981806993484497e-02 1.229542791843414307e-01 2.254647910594940186e-01 -3.100038506090641022e-02 7.352912425994873047e-02 -4.933336377143859863e-02 4.828825965523719788e-02 -2.151575312018394470e-02 2.077372558414936066e-02 -1.022737175226211548e-01 5.400927364826202393e-02 1.082098856568336487e-01 -1.193871721625328064e-02 9.920811653137207031e-02 -4.550922289490699768e-02 5.187775939702987671e-02 -7.021170109510421753e-02 -5.251700803637504578e-02 -2.984933555126190186e-02 -9.274174273014068604e-02 -4.519037157297134399e-02 6.429369002580642700e-02 -1.060822233557701111e-01 5.969063565135002136e-02 -8.875017613172531128e-02 4.212090000510215759e-02 -4.773596674203872681e-02 -6.871949136257171631e-02 -9.186024963855743408e-02 -1.119751483201980591e-02 4.937688261270523071e-02 7.488106191158294678e-02 1.305318623781204224e-01 8.813161402940750122e-02 5.688808113336563110e-02 7.911572605371475220e-02 -9.591748565435409546e-02 -1.252729538828134537e-02 -5.432233959436416626e-02 -1.451662629842758179e-01 4.087335895746946335e-03 6.654810905456542969e-02 2.106752246618270874e-02 -2.162365056574344635e-02 3.841600939631462097e-02 -1.005130857229232788e-01 -8.446938544511795044e-02 -2.820308506488800049e-02 1.032780110836029053e-02 2.642078325152397156e-02 -8.029717952013015747e-02 2.982428530231118202e-03 3.247624263167381287e-02
-1.228465810418128967e-01 -8.587813377380371094e-02 -7.282452285289764404e-02 -7.427152246236801147e-02 1.500156670808792114e-01 7.068684697151184082e-02 4.772553592920303345e-02 -8.670563250780105591e-02 4.537640605121850967e-03 -5.277367681264877319e-02 2.786647900938987732e-02 -5.069426447153091431e-02 1.866965293884277344e-01 2.615165710449218750e-02 -5.089011043310165405e-02 1.937553659081459045e-02 1.207011472433805466e-02 -6.893602013587951660e-02 -1.354356706142425537e-01 -7.377810776233673096e-02 9.176375716924667358e-02 -8.264829218387603760e-02 -2.814991213381290436e-02 2.084200456738471985e-02 -1.238387301564216614e-01 8.160298317670822144e-02 -2.348918467760086060e-02 -1.756441742181777954e-01 -7.955375313758850098e-02 3.848405182361602783e-02 -1.053091362118721008e-01 -7.999683916568756104e-02 1.024367734789848328e-01 1.968337446451187134e-01 -8.172732591629028320e-02 -4.637302458286285400e-02 1.178934574127197266e-01 1.343291252851486206e-01 1.740015670657157898e-02 6.010716408491134644e-02 -2.831757254898548126e-02 1.311865597963333130e-01 -1.276079863309860229e-01 1.137673258781433105e-01 1.875976473093032837e-02 1.153295412659645081e-01 1.573109179735183716e-01 -8.148010820150375366e-02 1.460807919502258301e-01 -5.812431871891021729e-02 5.565562844276428223e-02 1.580315381288528442e-01 -3.212103247642517090e-02 7.334754616022109985e-02 9.623923106119036674e-04 -4.625468701124191284e-02 -2.442703396081924438e-02 -7.536460459232330322e-02 -1.314356178045272827e-01 -2.487912401556968689e-02 1.674023866653442383e-01 -4.852886870503425598e-02 5.323413386940956116e-02 3.157363831996917725e-02
-7.868604362010955811e-02 -3.140733763575553894e-02 4.136287793517112732e-02 1.338226497173309326e-01 1.596328169107437134e-01 9.568738937377929688e-02 -6.480725854635238647e-02 3.153181448578834534e-02 -6.010159477591514587e-02 1.486049890518188477e-01 1.037229970097541809e-01 1.471816599369049072e-01 8.310307562351226807e-02 4.419757053256034851e-02 -1.172978281974792480e-01 1.810679733753204346e-01 1.041795164346694946e-01 -1.225670948624610901e-01 1.017827838659286499e-01 7.981529086828231812e-02 6.430935859680175781e-02 -7.434471696615219116e-02 1.717352718114852905e-01 -1.909432560205459595e-02 -1.012894064188003540e-01 1.678734272718429565e-01 1.875226348638534546e-01 -4.657008498907089233e-02 3.428527386859059334e-03 1.499468535184860229e-01 4.996864497661590576e-02 -1.564929634332656860e-01 2.017311155796051025e-01 -2.043071538209915161e-01 -1.399707049131393433e-01 1.726238280534744263e-01 1.529296040534973145e-01 -8.537019789218902588e-02 1.863346099853515625e-01 1.272292733192443848e-01 7.171387225389480591e-02 1.295136213302612305e-01 2.218702733516693115e-01 -1.771821975708007812e-01 3.049501962959766388e-02 1.684233844280242920e-01 -6.131723895668983459e-02 9.535524994134902954e-02 6.679221242666244507e-02 -9.716631472110748291e-02 -1.352765131741762161e-03 2.020137198269367218e-02 -6.896442174911499023e-02 6.800775974988937378e-02 1.477376092225313187e-02 7.238009013235569000e-03 -1.487925052642822266e-01 -1.138743907213211060e-01 8.310864865779876709e-02 5.884684994816780090e-02 -8.109311759471893311e-02 1.169474348425865173e-01 1.442615985870361328e-01 7.347988337278366089e-02
1.862931251525878906e-02 1.353081017732620239e-01 -1.037565171718597412e-01 8.166001737117767334e-02 -6.539943814277648926e-02 -4.300736635923385620e-02 3.484135959297418594e-03 3.713268786668777466e-02 1.402072608470916748e-01 -2.318937145173549652e-02 9.080617874860763550e-02 -1.435521095991134644e-01 -5.565671995282173157e-02 8.806712180376052856e-02 1.888526082038879395e-01 -2.328722178936004639e-02 4.331628326326608658e-03 8.269751816987991333e-02 5.178796872496604919e-02 -1.553659606724977493e-02 -6.544764339923858643e-02 1.288058012723922729e-01 -9.708600491285324097e-02 -1.220352202653884888e-01 -1.334811151027679443e-01 -2.506722696125507355e-02 -2.513487637042999268e-02 -7.615214586257934570e-02 4.025081545114517212e-02 -9.834096580743789673e-02 -7.283732295036315918e-02 2.354365140199661255e-01 -8.955976366996765137e-02 7.999679446220397949e-02 6.750646233558654785e-02 -1.923978328704833984e-01 1.491252928972244263e-01 -5.731306225061416626e-02 -2.682026103138923645e-02 -8.275834843516349792e-03 -4.989159479737281799e-02 -1.177185103297233582e-01 -5.672150850296020508e-02 1.763136833906173706e-01 7.741980999708175659e-02 -3.732596291229128838e-03 -1.412522196769714355e-01 -6.835606694221496582e-02 1.672178856097161770e-03 1.285372823476791382e-01 -7.482095155864953995e-03 8.421210199594497681e-02 -7.157707586884498596e-03 1.376091986894607544e-01 -6.668660044670104980e-02 -4.291069880127906799e-02 -1.406673491001129150e-01 -2.772642672061920166e-02 2.571870386600494385e-02 -2.915925718843936920e-02 -5.113091692328453064e-02 -7.848340272903442383e-02 8.180360496044158936e-02 -1.399021744728088379e-01
-2.329737320542335510e-02 4.248146712779998779e-02 7.778907567262649536e-02 -7.219830900430679321e-02 -8.058444410562515259e-02 1.087088137865066528e-01 4.620276764035224915e-02 -1.091753095388412476e-01 1.595957726240158081e-01 -3.539785742759704590e-02 -4.018534347414970398e-02 -7.221033424139022827e-02 -2.565099671483039856e-02 1.204660981893539429e-01 1.505341380834579468e-01 -4.438072443008422852e-03 1.593270897865295410e-01 6.751325726509094238e-02 -1.194903776049613953e-01 -5.575031787157058716e-02 -2.949254401028156281e-02 2.063157558441162109e-01 1.338282525539398193e-01 5.931682512164115906e-02 -4.577248916029930115e-02 1.518566906452178955e-01 -8.927807956933975220e-02 -1.444278359413146973e-01 -9.795913100242614746e-02 3.271385654807090759e-02 1.436938941478729248e-01 4.722154140472412109e-02 -1.279937662184238434e-02 6.220677867531776428e-02 -7.428792864084243774e-02 -1.608179509639739990e-01 2.963448129594326019e-02 3.655601060017943382e-03 -2.638556435704231262e-02 -1.334541290998458862e-01 2.407388575375080109e-02 3.170916438102722168e-02 8.972112089395523071e-02 -1.150842532515525818e-01 -9.812682121992111206e-02 9.219040721654891968e-02 4.612639918923377991e-02 -7.238330692052841187e-02 4.593241214752197266e-02 6.978306174278259277e-02 -6.172263622283935547e-02 7.572275400161743164e-02 -4.807693883776664734e-02 3.838496282696723938e-02 1.403407845646142960e-02 1.459174603223800659e-01 1.201600283384323120e-01 9.094069898128509521e-02 -1.510602831840515137e-01 1.491679698228836060e-01 9.270543605089187622e-02 -1.831055805087089539e-02 -1.204883232712745667e-01 1.863329298794269562e-02
-6.702694576233625412e-03 2.115213498473167419e-02 -7.127808779478073120e-02 -6.677141040563583374e-02 -4.591783881187438965e-02 1.146884933114051819e-01 5.638161301612854004e-02 -1.865407079458236694e-02 3.362474218010902405e-02 -1.735276915132999420e-02 -7.977844029664993286e-02 -2.608610875904560089e-02 -2.334429137408733368e-02 1.050547584891319275e-01 9.447266906499862671e-02 8.417204022407531738e-02 1.141128614544868469e-01 8.134783059358596802e-02 -1.199518889188766479e-01 -7.545262109488248825e-03 -1.103090941905975342e-01 1.802267134189605713e-01 -5.514347925782203674e-02 -8.908106386661529541e-02 1.039457693696022034e-01 -3.363122418522834778e-02 7.061799615621566772e-02 -5.656967312097549438e-02 -8.685722947120666504e-02 -1.264052372425794601e-02 2.276554517447948456e-02 6.749106571078300476e-03 -5.566943809390068054e-02 -7.058054953813552856e-02 -7.709406316280364990e-02 8.283313363790512085e-02 1.713213026523590088e-01 7.067941874265670776e-02 9.769967943429946899e-02 -4.556404426693916321e-02 1.549960076808929443e-01 8.289432525634765625e-02 1.144640706479549408e-02 -7.946337759494781494e-02 2.754213474690914154e-02 2.239418923854827881e-01 4.869858920574188232e-02 6.318878382444381714e-02 -4.119370132684707642e-02 4.866087809205055237e-02 1.627400368452072144e-01 1.005514338612556458e-01 6.381011568009853363e-03 9.184109047055244446e-03 -9.547261893749237061e-02 1.262668222188949585e-01 1.329239904880523682e-01 1.318062841892242432e-01 1.829013414680957794e-02 -9.764210321009159088e-03 -8.771439641714096069e-02 9.217800945043563843e-02 -3.825568780303001404e-02 -1.109313070774078369e-01
-5.429454520344734192e-02 5.099764838814735413e-02 2.362873870879411697e-03 -1.253727972507476807e-01 2.451335266232490540e-02 1.027264539152383804e-02 1.661075353622436523e-01 -7.646636664867401123e-02 -1.451247930526733398e-01 -9.552825242280960083e-03 1.159535348415374756e-01 5.471923947334289551e-02 1.641931533813476562e-01 1.059277132153511047e-01 5.150235071778297424e-02 2.930098585784435272e-02 -1.289011240005493164e-01 -7.263559103012084961e-02 -5.606799945235252380e-02 1.114427745342254639e-01 -7.618103176355361938e-02 -7.168809324502944946e-02 6.564865261316299438e-02 1.520415842533111572e-01 9.912019222974777222e-02 -1.176710277795791626e-01 7.283324003219604492e-02 7.072303444147109985e-02 1.298917084932327271e-01 2.085383832454681396e-01 -1.094696819782257080e-01 1.009387746453285217e-01 9.150694310665130615e-02 -1.371175199747085571e-01 -7.892651855945587158e-02 1.657957583665847778e-01 1.812654361128807068e-02 1.222972050309181213e-01 1.881712116301059723e-02 -7.094065658748149872e-03 -8.556348085403442383e-02 6.383536756038665771e-02 1.262800097465515137e-01 1.246222108602523804e-02 3.478284925222396851e-02 6.973622739315032959e-02 -9.568154811859130859e-02 -4.840875044465065002e-02 -4.648478701710700989e-02 -9.911423549056053162e-03 -1.236812546849250793e-01 7.555520534515380859e-02 -1.954124495387077332e-02 -1.558371633291244507e-02 3.761281073093414307e-02 -1.406818181276321411e-01 7.770623266696929932e-02 -1.897687837481498718e-02 -4.759445413947105408e-02 -1.152026355266571045e-01 1.250299997627735138e-02 -1.099206656217575073e-01 1.197060421109199524e-01 3.133339341729879379e-03
-2.582610212266445160e-02 -2.343913353979587555e-02 1.845656335353851318e-02 8.359543979167938232e-03 -1.023020222783088684e-01 -1.308687180280685425e-01 -9.244330227375030518e-02 -9.764277189970016479e-02 -2.892536856234073639e-02 8.421502262353897095e-02 8.044310659170150757e-02 -6.409893184900283813e-02 1.564273834228515625e-01 1.804678142070770264e-01 -9.340036660432815552e-02 -2.829659730195999146e-02 -1.073878854513168335e-01 1.801296621561050415e-01 3.043418563902378082e-02 -7.288900762796401978e-02 1.097097918391227722e-01 -3.437150642275810242e-02 3.938037902116775513e-02 1.978013962507247925e-01 3.351528570055961609e-02 -1.445972593501210213e-03 8.410891890525817871e-02 -7.018052786588668823e-02 7.559338957071304321e-02 7.877918332815170288e-02 -6.901324540376663208e-02 8.286642283201217651e-02 5.492306780070066452e-03 1.881259679794311523e-01 -2.395037934184074402e-02 9.667866677045822144e-02 -1.120260506868362427e-01 -1.464961916208267212e-01 -3.280446678400039673e-02 -1.497402228415012360e-02 2.655750326812267303e-02 8.371011167764663696e-02 -7.792048156261444092e-02 -4.662514105439186096e-02 7.537703216075897217e-02 1.873787343502044678e-01 -6.454847007989883423e-02 -1.042991969734430313e-02 1.765777319669723511e-01 9.737473726272583008e-02 -7.532796263694763184e-02 -2.716205082833766937e-02 1.658043637871742249e-02 1.379051655530929565e-01 -7.950435578823089600e-02 -7.992951571941375732e-02 1.501502003520727158e-02 -1.114898398518562317e-01 -1.383228600025177002e-01 -8.066055178642272949e-02 -2.996152453124523163e-02 7.405462861061096191e-02 7.036970555782318115e-02 9.932199120521545410e-02
-1.090285554528236389e-01 -1.334252357482910156e-01 1.178373768925666809e-01 -6.024958193302154541e-02 -1.082131266593933105e-01 -2.428000420331954956e-02 -1.772946119308471680e-01 -1.265305932611227036e-02 -1.203643381595611572e-01 -1.661205142736434937e-01 -9.665371477603912354e-02 -6.652387231588363647e-02 -4.194422066211700439e-02 -7.301437854766845703e-02 2.130854129791259766e-01 2.330729365348815918e-02 -1.341498643159866333e-01 1.719058901071548462e-01 -1.095203086733818054e-01 -1.184335872530937195e-01 7.226502895355224609e-02 1.924200216308236122e-03 -3.028632327914237976e-02 1.653789170086383820e-02 -1.238314658403396606e-01 2.015665359795093536e-02 1.316066682338714600e-01 -4.454230517148971558e-02 -2.108131907880306244e-02 4.547142982482910156e-02 -8.399521559476852417e-02 2.358432486653327942e-02 -1.297209560871124268e-01 1.970098465681076050e-01 -1.193961873650550842e-02 9.999579191207885742e-02 4.464414715766906738e-02 -4.334827512502670288e-02 -1.201191768050193787e-01 -5.479270592331886292e-02 -1.014455705881118774e-01 -6.802079826593399048e-02 6.599666178226470947e-02 -1.093107238411903381e-01 1.825385987758636475e-01 1.044400706887245178e-01 6.102015450596809387e-02 1.177982166409492493e-01 1.686739921569824219e-01 1.033504307270050049e-01 -1.582204401493072510e-01 1.125039830803871155e-01 -2.267238870263099670e-02 2.103922516107559204e-01 9.501405060291290283e-02 7.512062042951583862e-02 -2.429550327360630035e-02 -4.988095909357070923e-02 9.857009351253509521e-02 1.112635210156440735e-01 9.495098143815994263e-03 1.011885777115821838e-01 -1.053490191698074341e-01 1.121584773063659668e-01
-8.627901785075664520e-03 6.114308908581733704e-02 1.501842290163040161e-01 -1.250819116830825806e-01 -1.217616647481918335e-01 -5.089132860302925110e-02 6.288460642099380493e-02 -3.303601220250129700e-02 -8.846079558134078979e-02 4.929136857390403748e-02 -7.587043195962905884e-02 1.729330122470855713e-01 -9.066468477249145508e-02 -1.005440354347229004e-01 -2.152089402079582214e-02 -3.979120030999183655e-02 -1.419384032487869263e-01 1.232146695256233215e-01 3.464481607079505920e-02 1.298072338104248047e-01 1.855320483446121216e-01 1.026117280125617981e-01 -1.081623211503028870e-01 1.860381290316581726e-02 1.131029129028320312e-01 7.214870303869247437e-02 8.206575363874435425e-02 7.918359339237213135e-02 -4.231659229844808578e-03 4.621403291821479797e-02 7.579289376735687256e-02 1.105294823646545410e-01 6.807295233011245728e-02 -2.202026173472404480e-02 1.335054337978363037e-01 -1.594009436666965485e-02 -1.323869526386260986e-01 -8.654002845287322998e-02 1.636420004069805145e-02 -6.292473524808883667e-02 -4.692097008228302002e-02 7.681760191917419434e-02 -8.310578018426895142e-02 1.013175118714570999e-02 2.613665349781513214e-02 -5.812576785683631897e-02 2.766232378780841827e-02 -5.213528871536254883e-02 -5.240418016910552979e-02 1.232535615563392639e-01 1.552107334136962891e-01 6.007604533806443214e-04 1.126225292682647705e-01 5.548939481377601624e-02 6.265990436077117920e-02 8.648458868265151978e-02 3.532606363296508789e-02 5.940562486648559570e-02 8.451616764068603516e-02 -1.190123036503791809e-01 9.390366263687610626e-03 -9.602793306112289429e-02 1.021711975336074829e-01 -1.428347732871770859e-02
-1.139449700713157654e-01 4.345255345106124878e-02 -1.022209078073501587e-01 -3.517857939004898071e-02 -1.503694206476211548e-01 2.456126821925863624e-05 -3.633744642138481140e-02 1.745413839817047119e-01 1.100659966468811035e-01 -1.146473884582519531e-01 1.012698262929916382e-01 1.337401717901229858e-01 -1.015905737876892090e-01 3.991531673818826675e-03 -1.660714596509933472e-01 -7.763049751520156860e-02 1.067689508199691772e-01 -6.818082649260759354e-03 -1.063423529267311096e-01 -5.207667872309684753e-02 -1.030652131885290146e-02 1.702674776315689087e-01 9.622053056955337524e-02 -9.071853756904602051e-02 1.268148124217987061e-01 -1.264252066612243652e-01 2.947616763412952423e-02 1.526736170053482056e-01 -3.451981395483016968e-02 1.936643123626708984e-01 1.546867098659276962e-02 1.798638403415679932e-01 -4.681641235947608948e-02 -1.064202934503555298e-01 -1.191692501306533813e-01 -2.744979597628116608e-02 -3.999170660972595215e-02 1.511420160531997681e-01 -9.172793477773666382e-02 -5.143588408827781677e-02 -7.665298879146575928e-02 1.427720338106155396e-01 -1.223695874214172363e-01 -4.164167866110801697e-02 -1.593615710735321045e-01 -8.945556730031967163e-02 -1.009789556264877319e-01 1.602464355528354645e-02 1.002991423010826111e-01 9.664891660213470459e-02 3.902731835842132568e-02 1.070428863167762756e-01 -3.214037790894508362e-02 -8.631122857332229614e-02 7.980517297983169556e-02 2.574356645345687866e-02 2.189163863658905029e-01 -1.037995368242263794e-01 3.989747539162635803e-02 2.121551781892776489e-01 9.663744270801544189e-02 6.879352033138275146e-02 2.070312649011611938e-01 7.708387076854705811e-02
8.114850521087646484e-02 -8.919528871774673462e-02 7.511498034000396729e-02 3.576291026547551155e-03 8.404160290956497192e-02 -6.637403368949890137e-02 8.203347027301788330e-02 3.569128364324569702e-02 2.916439063847064972e-02 1.280526220798492432e-01 -4.101793095469474792e-02 -1.269702985882759094e-02 -1.131318435072898865e-01 -5.771943181753158569e-02 -6.033108010888099670e-02 6.985380500555038452e-02 2.202226966619491577e-02 1.123253926634788513e-01 6.644895672798156738e-02 -6.046768277883529663e-03 -8.128836750984191895e-02 1.114012114703655243e-02 -1.881995238363742828e-02 -5.367473885416984558e-02 -7.473976165056228638e-02 -8.488562703132629395e-02 -4.800281673669815063e-02 6.027156114578247070e-02 -5.894209817051887512e-02 -3.438032418489456177e-02 1.006976515054702759e-01 7.351078093051910400e-02 -1.245847903192043304e-02 -1.150484904646873474e-01 -6.074697151780128479e-02 2.280100435018539429e-02 4.750639945268630981e-02 -9.941918402910232544e-02 -6.345646828413009644e-02 8.656797930598258972e-03 1.119522564113140106e-02 -3.643281012773513794e-02 -7.301346212625503540e-02 -3.660693392157554626e-02 2.951722592115402222e-02 -4.451361671090126038e-02 -2.857268787920475006e-02 -7.131353951990604401e-03 -3.483964875340461731e-02 -4.124744608998298645e-02 -7.150792330503463745e-02 3.643732517957687378e-02 2.999420836567878723e-02 -1.576695009134709835e-03 -1.022129952907562256e-01 -1.117957290261983871e-02 -7.008798420429229736e-03 -2.392408438026905060e-02 1.238446906208992004e-01 -5.735526233911514282e-02 7.894696295261383057e-02 -5.876163765788078308e-02 6.874081678688526154e-03 -8.305344730615615845e-02
-1.379730701446533203e-01 -2.466151304543018341e-02 -5.292379483580589294e-02 -1.222269833087921143e-01 1.112101674079895020e-01 1.943917125463485718e-01 1.574515700340270996e-01 -3.848436102271080017e-02 1.943428814411163330e-01 -2.023813873529434204e-02 2.213085293769836426e-01 -6.519923359155654907e-02 -1.114647164940834045e-01 -1.575697958469390869e-01 -1.094770878553390503e-01 -1.461510509252548218e-01 1.685057580471038818e-01 -1.786664314568042755e-02 -9.156927466392517090e-02 -1.001385040581226349e-02 6.011882051825523376e-02 -2.802920714020729065e-02 2.916120737791061401e-02 9.311728924512863159e-02 1.992095857858657837e-01 -7.549345493316650391e-02 1.214654445648193359e-01 2.237597480416297913e-02 5.513450130820274353e-02 -1.514453589916229248e-01 3.242599964141845703e-02 -2.543554827570915222e-02 -2.964437380433082581e-02 -1.182861533015966415e-02 -1.164989843964576721e-01 -1.053232550621032715e-01 1.316581964492797852e-01 1.056434735655784607e-01 -3.004220500588417053e-02 -7.870884239673614502e-02 6.930378824472427368e-02 3.095392696559429169e-02 -1.283625066280364990e-01 3.356687352061271667e-02 -1.682938635349273682e-01 1.193317919969558716e-01 2.247428894042968750e-02 -1.004826501011848450e-01 -1.538715958595275879e-01 -1.732946559786796570e-02 1.118416562676429749e-01 8.439857512712478638e-02 4.145551100373268127e-02 6.799216568470001221e-02 1.336266547441482544e-01 1.832308247685432434e-02 3.741966187953948975e-02 -8.186970651149749756e-02 -1.704442873597145081e-02 2.044096216559410095e-02 4.916053265333175659e-02 7.735992968082427979e-02 -3.429658338427543640e-02 -5.434704571962356567e-02
-9.202674031257629395e-03 -1.077399402856826782e-01 3.287343680858612061e-02 -1.166547834873199463e-01 -3.980751335620880127e-02 -5.309881269931793213e-02 -1.283303834497928619e-02 -4.278255254030227661e-02 -5.995719507336616516e-02 -3.966580610722303391e-03 -1.113441437482833862e-01 5.373714119195938110e-02 -6.794805172830820084e-03 8.483417332172393799e-02 -4.618912190198898315e-02 -9.624486416578292847e-02 -3.390302136540412903e-02 -2.306559588760137558e-03 -5.146064609289169312e-02 -5.761876702308654785e-03 1.628334373235702515e-01 -7.939006388187408447e-02 1.388923376798629761e-01 1.516946852207183838e-01 5.080509558320045471e-02 -1.261977553367614746e-01 1.024677008390426636e-01 1.219803318381309509e-01 -7.395854219794273376e-03 -3.777101635932922363e-02 -1.922427862882614136e-01 -7.504019886255264282e-02 -2.397965267300605774e-02 -2.847469225525856018e-02 6.428814493119716644e-03 -3.144478797912597656e-02 -1.339551806449890137e-01 4.270357638597488403e-02 3.143032640218734741e-02 -7.071619480848312378e-02 4.154441412538290024e-03 -8.021500892937183380e-03 -6.020445749163627625e-02 7.120091468095779419e-02 -5.559983849525451660e-02 1.227972507476806641e-01 3.281964734196662903e-02 4.557330906391143799e-02 7.671257108449935913e-02 -7.846899330615997314e-03 3.648070991039276123e-02 -3.529828041791915894e-02 3.361266572028398514e-03 -1.003493815660476685e-01 -7.072106003761291504e-02 6.775619834661483765e-02 1.550980471074581146e-02 9.114906191825866699e-03 6.992752850055694580e-02 4.490974172949790955e-02 2.530988752841949463e-01 1.158005222678184509e-01 -4.071250930428504944e-02 4.587958380579948425e-02
1.518933027982711792e-01 3.013461083173751831e-02 1.260921955108642578e-01 5.539415031671524048e-02 1.195025965571403503e-01 -7.628192007541656494e-02 1.496905982494354248e-01 1.351409554481506348e-01 -7.113646715879440308e-02 -1.507835686206817627e-01 7.636228948831558228e-02 1.622603982686996460e-01 1.604739725589752197e-01 -3.355767205357551575e-02 3.102043084800243378e-02 9.854385629296302795e-03 2.963552251458168030e-02 9.222277253866195679e-02 1.289734840393066406e-01 1.399665772914886475e-01 9.272679686546325684e-02 4.458028823137283325e-02 1.000453382730484009e-01 2.261803001165390015e-01 1.946325786411762238e-02 -8.331601507961750031e-03 -5.264388397336006165e-02 7.254009693861007690e-02 3.210400044918060303e-02 1.613432466983795166e-01 1.364356577396392822e-01 8.368499577045440674e-02 -8.955372869968414307e-02 1.195275858044624329e-01 1.482352018356323242e-01 -5.224493891000747681e-02 -4.091504588723182678e-02 9.081230498850345612e-03 -5.920132249593734741e-02 6.889177113771438599e-02 7.112626731395721436e-02 -2.876197174191474915e-02 -2.607825398445129395e-02 6.598290801048278809e-02 1.019614860415458679e-01 -9.812661446630954742e-03 -7.036814838647842407e-02 3.769657760858535767e-02 -1.107802540063858032e-01 1.282671391963958740e-01 1.464945673942565918e-01 -4.422356933355331421e-02 2.981027588248252869e-02 1.062033474445343018e-01 1.645778119564056396e-01 -1.060602664947509766e-01 1.598321646451950073e-01 -1.769344322383403778e-02 1.637390404939651489e-01 9.681062400341033936e-02 9.554105252027511597e-02 -9.519742429256439209e-02 1.848809868097305298e-01 1.166930273175239563e-01
7.405404001474380493e-02 -4.764946177601814270e-02 -1.026772409677505493e-01 -2.929151616990566254e-02 -1.043463200330734253e-01 3.306590765714645386e-02 1.144926995038986206e-02 1.668816804885864258e-02 -6.955354660749435425e-02 -1.850573271512985229e-01 -4.444819688796997070e-02 1.724545508623123169e-01 6.333158910274505615e-02 -1.583709269762039185e-01 -9.981060028076171875e-02 -8.454330265522003174e-02 -1.762911826372146606e-01 -7.050700485706329346e-02 2.543808892369270325e-02 -6.063594296574592590e-02 8.137744665145874023e-02 -1.418859064579010010e-01 5.902010202407836914e-02 -6.281226873397827148e-02 2.027434855699539185e-02 2.507857792079448700e-02 -7.544453442096710205e-02 2.074630185961723328e-02 4.940738528966903687e-02 -2.290396951138973236e-02 4.292878881096839905e-02 -1.025771796703338623e-01 -7.463597506284713745e-02 -1.134953871369361877e-01 1.061790436506271362e-01 -1.549850553274154663e-01 4.527890309691429138e-02 6.903918460011482239e-03 -1.196905598044395447e-01 1.026224568486213684e-01 -8.687698841094970703e-02 7.178287953138351440e-02 -1.082267835736274719e-01 1.468897908926010132e-01 -1.110702054575085640e-03 -7.078026980161666870e-02 -1.781550794839859009e-01 1.983751803636550903e-01 3.722244501113891602e-02 -7.549463212490081787e-02 4.515777528285980225e-02 -7.369119673967361450e-02 8.577696233987808228e-02 -1.230671778321266174e-01 -1.020753160119056702e-01 1.524434387683868408e-01 1.477916985750198364e-01 2.278843708336353302e-02 -1.094385460019111633e-01 -4.075594246387481689e-03 -4.074928537011146545e-02 1.398016214370727539e-01 -8.056530496105551720e-04 2.546807378530502319e-02
4.179876670241355896e-02 5.098010599613189697e-02 -7.667623460292816162e-02 -9.801974147558212280e-02 -3.420036658644676208e-02 -3.187949582934379578e-02 1.168174520134925842e-01 -1.225622594356536865e-01 -1.579278707504272461e-01 -1.660969257354736328e-01 3.226771950721740723e-02 -9.482818096876144409e-02 6.826689839363098145e-02 1.579328030347824097e-01 -5.920714884996414185e-02 -1.082373261451721191e-01 6.217487622052431107e-03 2.308195643126964569e-02 -1.476533561944961548e-01 2.161550670862197876e-01 8.927845954895019531e-02 -1.284676045179367065e-01 -6.187131628394126892e-02 7.157503068447113037e-02 6.456867605447769165e-02 -7.298623770475387573e-02 8.977472782135009766e-02 1.131505426019430161e-02 -1.421328932046890259e-01 -8.808514475822448730e-02 -8.024066686630249023e-02 7.936169207096099854e-02 -1.064961478114128113e-01 1.347330957651138306e-01 3.077652119100093842e-02 -1.212210133671760559e-01 -1.125459000468254089e-01 1.259558647871017456e-01 -4.864342510700225830e-02 -8.223963528871536255e-02 -1.837496906518936157e-01 1.428828835487365723e-01 1.188237518072128296e-01 1.459439545869827271e-01 1.152212396264076233e-01 6.864614039659500122e-02 3.694034740328788757e-02 1.930413581430912018e-02 5.854661390185356140e-02 -3.604175522923469543e-02 4.883484169840812683e-02 4.537686333060264587e-02 -1.291138399392366409e-02 4.709352180361747742e-02 2.444083429872989655e-02 -1.512103825807571411e-01 1.296542137861251831e-01 -1.920193992555141449e-02 -1.097234189510345459e-01 9.491097182035446167e-02 1.238216310739517212e-01 3.651544451713562012e-02 3.765188157558441162e-02 1.932652890682220459e-01
-5.276139453053474426e-02 -5.046951770782470703e-02 1.144112125039100647e-01 1.284737326204776764e-02 -8.141089975833892822e-02 -8.312425017356872559e-02 3.577170521020889282e-02 1.410623937845230103e-01 7.483950257301330566e-02 6.636711955070495605e-02 -5.495615303516387939e-02 4.591743275523185730e-02 2.074635773897171021e-01 7.979015260934829712e-02 -1.315785795450210571e-01 1.387005150318145752e-01 -3.897644951939582825e-02 -5.941853299736976624e-02 9.190985560417175293e-02 -2.956908382475376129e-02 -5.605543032288551331e-03 -5.703330039978027344e-02 6.749118864536285400e-02 7.387189567089080811e-02 -5.947427824139595032e-02 -1.846770793199539185e-01 9.692707657814025879e-02 -1.463202685117721558e-01 -6.153784319758415222e-02 -1.042783930897712708e-01 5.250665545463562012e-02 -1.053858920931816101e-01 -8.140488713979721069e-02 1.485760211944580078e-01 1.035707220435142517e-01 8.864616602659225464e-02 4.939998686313629150e-02 6.186154857277870178e-02 -1.077256053686141968e-01 -7.098145037889480591e-02 -1.417888551950454712e-01 2.131205648183822632e-01 1.716258674860000610e-01 -1.345540285110473633e-01 1.419114917516708374e-01 -1.581880822777748108e-02 -3.056573495268821716e-02 5.965797230601310730e-02 -2.083950676023960114e-02 -5.850839614868164062e-02 1.019513756036758423e-01 -6.645091809332370758e-03 -5.078282952308654785e-02 -3.358871862292289734e-02 -8.042702078819274902e-02 3.823506087064743042e-02 -4.775143042206764221e-02 7.412574440240859985e-02 1.446858942508697510e-01 -1.195226460695266724e-01 9.322310984134674072e-02 -6.594710517674684525e-03 -1.158643439412117004e-01 1.720051765441894531e-01
9.265767037868499756e-02 1.881035789847373962e-02 9.995061159133911133e-02 -6.250322610139846802e-02 3.253398463129997253e-02 -8.182580769062042236e-02 9.764359146356582642e-02 -1.983805559575557709e-02 -1.090878397226333618e-01 -2.607817389070987701e-02 -1.567578613758087158e-01 -7.482129335403442383e-02 -2.151806093752384186e-02 1.402190476655960083e-01 1.782392412424087524e-01 1.154093965888023376e-01 -1.044300943613052368e-01 -4.960012808442115784e-02 -4.577564448118209839e-02 1.662006378173828125e-01 -4.550512414425611496e-03 -6.122195720672607422e-02 1.330895125865936279e-01 8.168000727891921997e-02 1.803283393383026123e-02 3.427243977785110474e-02 -1.089422330260276794e-01 -4.966438189148902893e-02 4.184627614449709654e-04 -1.115389913320541382e-01 1.055273562669754028e-01 -7.665744423866271973e-02 3.939557075500488281e-02 2.822628710418939590e-03 -8.320658653974533081e-02 1.610405594110488892e-01 2.532655745744705200e-02 -1.255285441875457764e-01 2.282162010669708252e-02 1.432080417871475220e-01 1.228940952569246292e-02 -6.266715377569198608e-02 3.279263153672218323e-02 9.717161953449249268e-02 2.145431563258171082e-02 -1.103422939777374268e-01 1.279648393392562866e-01 -8.731848560273647308e-03 2.010307610034942627e-01 3.722285106778144836e-02 -1.074288263916969299e-01 1.009573340415954590e-01 1.680235117673873901e-01 7.747901976108551025e-02 -3.652380080893635750e-03 5.038766190409660339e-03 5.122675001621246338e-02 -1.733234524726867676e-01 3.346088901162147522e-02 -1.681233644485473633e-01 1.343147009611129761e-01 1.202499195933341980e-01 2.076898962259292603e-01 -8.365149609744548798e-03
1.113170310854911804e-01 -6.323141604661941528e-02 1.000500693917274475e-01 1.243662461638450623e-01 9.807445853948593140e-02 9.252675622701644897e-02 1.228201612830162048e-01 -2.173131704330444336e-02 -1.197153851389884949e-01 -5.895693227648735046e-02 4.527315869927406311e-02 -1.130500733852386475e-01 1.089422255754470825e-01 4.732025787234306335e-02 1.019266527146100998e-02 7.076399028301239014e-02 1.013170704245567322e-01 -1.034834310412406921e-01 2.197565883398056030e-02 1.634318195283412933e-02 1.824336200952529907e-01 -4.422149062156677246e-02 -1.240006927400827408e-02 1.245021894574165344e-01 1.053438037633895874e-01 -5.104567483067512512e-02 7.062485069036483765e-02 1.781263016164302826e-02 6.628496199846267700e-02 -1.396954874508082867e-03 -9.359865635633468628e-02 -8.082448691129684448e-02 -7.701647281646728516e-02 4.073553904891014099e-02 -7.887368649244308472e-02 -1.495068967342376709e-01 -1.650236845016479492e-01 -3.239151835441589355e-02 -1.206674724817276001e-01 8.885329961776733398e-02 7.672961056232452393e-02 1.887184977531433105e-01 -2.732172794640064240e-02 -7.307193428277969360e-02 -1.151536125689744949e-02 7.922311313450336456e-03 -1.665950119495391846e-01 8.631962537765502930e-02 1.230693235993385315e-01 -3.328014165163040161e-02 5.588658154010772705e-02 -2.044880203902721405e-02 -6.793951988220214844e-02 1.660335510969161987e-01 3.856580331921577454e-02 -1.223455294966697693e-01 -5.061341449618339539e-02 -1.341511011123657227e-01 4.035613313317298889e-02 1.566742509603500366e-01 7.022503763437271118e-02 -1.975690200924873352e-02 8.643460460007190704e-03 1.323998421430587769e-01
-6.451650708913803101e-02 4.879126325249671936e-02 -3.426086530089378357e-02 1.187761873006820679e-01 -3.416106477379798889e-02 2.950836345553398132e-02 -7.410994148813188076e-04 -7.333231717348098755e-02 1.635863780975341797e-01 1.636145561933517456e-01 1.445936262607574463e-01 -9.774865955114364624e-02 -5.829465761780738831e-02 -1.145287230610847473e-01 1.777998730540275574e-02 4.160881787538528442e-02 -5.370392277836799622e-02 8.708781003952026367e-02 4.159909486770629883e-02 -2.477618679404258728e-02 6.218397989869117737e-03 -4.507590830326080322e-02 -1.504789739847183228e-01 -1.065534278750419617e-01 3.045455180108547211e-02 6.573501508682966232e-03 8.929780870676040649e-02 8.513797819614410400e-02 -9.378641098737716675e-02 9.387294948101043701e-02 4.649416729807853699e-02 8.263876289129257202e-02 5.434275418519973755e-02 1.640214323997497559e-01 -1.334420442581176758e-01 -1.643138527870178223e-01 -1.295652240514755249e-02 1.141865644603967667e-02 8.389031514525413513e-03 1.236719042062759399e-01 1.279892027378082275e-01 8.212506771087646484e-03 1.496741920709609985e-01 3.012316673994064331e-02 4.583320766687393188e-02 1.985640823841094971e-01 -8.986001461744308472e-02 1.145100519061088562e-01 5.114367604255676270e-02 6.998317688703536987e-02 1.059702504426240921e-02 -2.709163166582584381e-02 -9.506070986390113831e-03 1.728054732084274292e-01 1.342377904802560806e-02 -1.262908875942230225e-01 -5.914986133575439453e-02 1.940858364105224609e-01 -1.566868275403976440e-01 -2.148557454347610474e-02 1.494789570569992065e-01 -3.471931815147399902e-02 1.648610830307006836e-01 -9.787526726722717285e-02
-1.396136134862899780e-01 1.256393641233444214e-01 -3.528517857193946838e-02 -1.147176399827003479e-01 -2.305939793586730957e-02 3.045932576060295105e-02 -4.625165462493896484e-02 1.565101444721221924e-01 5.056313239037990570e-03 -1.048947572708129883e-01 2.404403090476989746e-01 -1.211701184511184692e-01 -8.778623491525650024e-02 1.371966022998094559e-02 9.025891125202178955e-02 9.111914038658142090e-02 1.533731669187545776e-01 4.724844824522733688e-03 8.285567164421081543e-02 5.274549126625061035e-03 1.903287693858146667e-02 2.101715207099914551e-01 -1.526359021663665771e-01 -8.062954992055892944e-02 -5.025579780340194702e-02 1.818269491195678711e-01 4.730186611413955688e-02 1.494523584842681885e-01 -9.103838354349136353e-02 -1.257164627313613892e-01 -6.804777681827545166e-02 6.060119718313217163e-02 4.576085507869720459e-02 1.052135825157165527e-01 -5.730253458023071289e-02 7.910212874412536621e-02 6.217463687062263489e-02 9.770622849464416504e-02 -8.482208475470542908e-03 -3.267380595207214355e-02 9.150159358978271484e-02 -1.007386595010757446e-01 1.463994979858398438e-01 -2.587587386369705200e-02 -2.091602087020874023e-01 1.435387581586837769e-01 1.994892209768295288e-01 -6.853021681308746338e-02 -1.389790028333663940e-01 -3.760174661874771118e-02 -6.791143864393234253e-02 1.762217096984386444e-02 -9.954322129487991333e-02 -1.656415760517120361e-01 9.265124052762985229e-02 -1.206308254040777683e-03 -1.540776342153549194e-01 -6.627590209245681763e-02 2.738125249743461609e-02 4.356190934777259827e-02 -4.076840728521347046e-02 -1.103016585111618042e-01 9.771346300840377808e-02 1.738979294896125793e-02
-3.173875063657760620e-02 3.149201348423957825e-02 -9.302728623151779175e-02 -8.465174585580825806e-02 3.568320721387863159e-02 -6.332654505968093872e-02 1.647634804248809814e-01 1.619677245616912842e-01 1.505109816789627075e-01 -3.602635487914085388e-02 1.698271632194519043e-01 6.173161417245864868e-02 1.434639394283294678e-01 -1.124683991074562073e-01 1.085812672972679138e-01 1.497919261455535889e-01 -3.515130653977394104e-02 1.429103016853332520e-01 8.034990727901458740e-02 -6.688591837882995605e-02 1.099490374326705933e-02 3.319203108549118042e-02 5.967149138450622559e-02 1.740510761737823486e-01 3.119790740311145782e-02 -7.353426516056060791e-02 1.131657287478446960e-01 9.208716452121734619e-02 -1.266512870788574219e-01 -4.841158911585807800e-02 1.647411137819290161e-01 7.261284440755844116e-02 1.830551475286483765e-01 4.615670442581176758e-02 -1.059107407927513123e-01 -3.461078926920890808e-02 4.174550995230674744e-02 1.598475128412246704e-01 2.068435996770858765e-01 -7.533431053161621094e-02 1.423121150583028793e-02 -3.094542212784290314e-02 -9.585496783256530762e-02 1.515135467052459717e-01 8.527074009180068970e-02 -5.437318608164787292e-02 1.779277026653289795e-01 5.521386861801147461e-02 1.659424901008605957e-01 -3.215227276086807251e-02 1.233581081032752991e-01 -1.255027055740356445e-01 6.923682242631912231e-02 1.027062013745307922e-01 -1.715634763240814209e-02 1.118039488792419434e-01 -5.790809541940689087e-02 2.648914791643619537e-02 1.276090592145919800e-01 -1.293267160654067993e-01 -7.526560686528682709e-03 -3.884617937728762627e-03 7.852628827095031738e-02 8.674091845750808716e-02
-6.635945290327072144e-02 -8.994143456220626831e-03 -7.997469604015350342e-02 7.090287655591964722e-02 -1.949306763708591461e-02 1.169001683592796326e-01 -9.199199080467224121e-02 -5.009546130895614624e-02 -1.041949242353439331e-01 -1.689577996730804443e-01 -1.078467816114425659e-01 9.985856711864471436e-02 7.220671512186527252e-03 1.687313467264175415e-01 1.574600189924240112e-01 1.720283627510070801e-01 6.719154119491577148e-02 -3.232071176171302795e-02 1.190640404820442200e-01 1.180123761296272278e-01 -1.808298751711845398e-02 -1.607422903180122375e-02 5.835324525833129883e-02 -3.353041596710681915e-03 -1.091399695724248886e-02 8.813802152872085571e-02 -5.781091749668121338e-02 1.337637305259704590e-01 -1.373477466404438019e-02 1.771487295627593994e-01 8.469569683074951172e-02 1.470834612846374512e-01 1.155287921428680420e-01 -1.464651525020599365e-01 1.022041216492652893e-01 8.872201293706893921e-02 -1.868545860052108765e-01 9.132300317287445068e-02 -6.801766157150268555e-02 7.225997000932693481e-02 -8.907118439674377441e-02 -5.989288538694381714e-02 -3.841585293412208557e-02 1.356140226125717163e-01 9.615390002727508545e-02 7.414671033620834351e-02 -7.446716725826263428e-02 4.423601925373077393e-02 -5.098361894488334656e-02 -2.125697955489158630e-02 5.487690865993499756e-02 -1.148225087672472000e-02 1.564739793539047241e-01 -3.226157650351524353e-02 9.066038578748703003e-02 -9.062824398279190063e-02 1.558896154165267944e-01 -1.333706825971603394e-01 1.127372980117797852e-01 1.096804514527320862e-01 1.777270585298538208e-01 1.248637884855270386e-01 -5.385433137416839600e-02 -1.698193140327930450e-02
-3.851948305964469910e-02 -1.264305859804153442e-01 -1.246409676969051361e-02 1.379871666431427002e-01 -7.509659230709075928e-02 -7.029521744698286057e-03 7.777970284223556519e-02 -3.558585792779922485e-02 -5.738979578018188477e-02 -6.405778229236602783e-02 8.282751590013504028e-02 9.673934429883956909e-02 5.986778810620307922e-02 1.355545967817306519e-01 -5.267751589417457581e-02 -1.215187460184097290e-01 5.701722204685211182e-02 2.721174620091915131e-02 -6.284686923027038574e-02 -2.419333904981613159e-02 -1.533912569284439087e-01 1.532488018274307251e-01 -4.964775219559669495e-02 -1.949221268296241760e-02 2.377019450068473816e-02 1.171680167317390442e-01 -2.456801570951938629e-02 -1.232651695609092712e-01 -8.254209905862808228e-02 -5.484400317072868347e-02 8.310498297214508057e-02 1.436075121164321899e-01 -9.805350005626678467e-02 -7.697720080614089966e-02 7.662143558263778687e-02 1.173141598701477051e-01 1.537661105394363403e-01 -6.919730454683303833e-02 8.323895186185836792e-02 -4.520427808165550232e-02 1.418352425098419189e-01 -2.197702601552009583e-02 -1.000844687223434448e-01 -3.434906527400016785e-02 -1.192605420947074890e-01 -1.068773120641708374e-01 1.474654525518417358e-01 7.357273250818252563e-02 8.374324440956115723e-02 9.219936281442642212e-02 -3.624248132109642029e-02 -1.176914125680923462e-01 -3.167571872472763062e-02 5.047539994120597839e-02 1.031059250235557556e-01 1.246842071413993835e-01 -8.378764241933822632e-02 -1.048888117074966431e-01 -1.446406990289688110e-01 -9.775190800428390503e-02 8.878276497125625610e-02 1.249945089221000671e-01 -6.650704145431518555e-02 -1.147531643509864807e-01
5.258644744753837585e-02 1.152517274022102356e-01 1.081405580043792725e-01 -7.766427844762802124e-02 7.916690409183502197e-02 7.393042743206024170e-02 1.015489455312490463e-02 5.175703763961791992e-02 -8.844900876283645630e-02 -3.468076884746551514e-02 -1.304834336042404175e-01 -7.848532497882843018e-02 -2.605974674224853516e-02 1.456586271524429321e-01 -8.878447860479354858e-02 1.077601015567779541e-01 1.676878519356250763e-02 1.040899008512496948e-01 -4.150359332561492920e-02 8.630115538835525513e-03 -4.644264467060565948e-03 1.453745514154434204e-01 2.513079345226287842e-01 2.274423390626907349e-01 1.151428651064634323e-02 -1.646953672170639038e-01 -4.860623180866241455e-02 -1.112534850835800171e-01 1.243956685066223145e-01 -1.093860156834125519e-02 3.038837574422359467e-02 4.764916375279426575e-02 3.408095613121986389e-02 1.778228133916854858e-01 2.528453618288040161e-02 6.358138471841812134e-02 -1.170545741915702820e-01 1.335420012474060059e-01 7.812257111072540283e-02 1.872437819838523865e-02 -1.313659250736236572e-01 1.762885898351669312e-01 1.796453297138214111e-01 -5.502158775925636292e-02 4.651358351111412048e-02 -2.775937085971236229e-03 -1.346565186977386475e-01 -5.983629450201988220e-02 4.802172631025314331e-02 3.254412114620208740e-02 1.553601771593093872e-01 -1.843590885400772095e-01 9.042876958847045898e-02 6.807679776102304459e-03 3.249696269631385803e-02 3.311717510223388672e-02 5.128835141658782959e-02 -2.024329267442226410e-02 1.107433885335922241e-01 -4.019179567694664001e-02 5.358144640922546387e-02 -1.365330070257186890e-01 5.380582064390182495e-02 -8.507715910673141479e-02
8.066446334123611450e-02 -1.021205261349678040e-01 -1.158702000975608826e-01 7.502779364585876465e-02 -3.535915911197662354e-02 -9.222361445426940918e-02 -3.491549938917160034e-02 -1.622415781021118164e-01 -1.157375127077102661e-01 -2.116079442203044891e-02 -3.082589805126190186e-02 -9.067290276288986206e-02 -8.082329295575618744e-03 9.466600418090820312e-02 8.422797918319702148e-02 -1.763138771057128906e-01 5.684568732976913452e-02 6.050640717148780823e-02 -8.726508170366287231e-02 -1.695357076823711395e-02 -2.647570334374904633e-02 -9.410724043846130371e-02 -4.994200170040130615e-02 1.711604893207550049e-01 -1.926877200603485107e-01 9.207478165626525879e-02 -7.534186542034149170e-02 -2.014428228139877319e-01 2.086082100868225098e-02 -7.810946553945541382e-02 3.685371950268745422e-02 -4.695660993456840515e-02 -1.925803124904632568e-01 1.525357663631439209e-01 2.675114758312702179e-02 -6.264329701662063599e-02 -6.939617544412612915e-02 -2.116783559322357178e-01 3.826557844877243042e-02 8.426455408334732056e-02 6.276640295982360840e-02 2.125162072479724884e-02 -1.628583222627639771e-01 -8.894959092140197754e-02 -1.760385371744632721e-02 -7.520882785320281982e-02 -8.725111186504364014e-02 -4.070776514708995819e-03 6.458060443401336670e-02 1.031916588544845581e-01 -7.037003338336944580e-02 1.234967336058616638e-01 1.083143129944801331e-01 1.560563147068023682e-01 -1.024234369397163391e-01 6.271819025278091431e-02 -2.102639898657798767e-02 -2.405729144811630249e-02 -5.488893482834100723e-03 -3.640196286141872406e-03 -3.615225106477737427e-02 7.814384065568447113e-03 -2.793006831780076027e-03 1.753584891557693481e-01
-1.276604384183883667e-01 -1.003661230206489563e-01 -1.896249316632747650e-02 5.120325461030006409e-02 -1.498697549104690552e-01 -2.849216945469379425e-02 -8.979973196983337402e-02 4.885673150420188904e-02 8.684523403644561768e-02 5.144574679434299469e-03 -5.179150030016899109e-02 1.016676947474479675e-01 -4.691560566425323486e-02 1.337944120168685913e-01 4.569248110055923462e-02 -2.531624026596546173e-02 3.914278745651245117e-02 2.605191431939601898e-02 -1.767960563302040100e-02 4.881697520613670349e-02 -7.272358238697052002e-02 -9.730112552642822266e-02 -5.719164386391639709e-02 -3.018630668520927429e-02 7.567796111106872559e-02 -1.049710363149642944e-01 -8.493753150105476379e-03 7.082129269838333130e-02 -8.255518227815628052e-02 -8.841542154550552368e-02 1.220257654786109924e-01 1.242460981011390686e-01 1.298499554395675659e-01 1.085512340068817139e-02 1.227759756147861481e-02 8.940784633159637451e-02 -1.853840053081512451e-02 -9.536154568195343018e-02 -6.914540380239486694e-02 1.055012419819831848e-01 4.572150856256484985e-02 -6.322727352380752563e-02 -4.552016034722328186e-02 -2.700469084084033966e-02 1.237076669931411743e-01 9.463734924793243408e-02 -5.510737746953964233e-02 -6.820344133302569389e-04 1.513105537742376328e-02 1.113065928220748901e-01 1.688110530376434326e-01 -2.732699969783425331e-03 4.633565619587898254e-02 -1.344999969005584717e-01 -5.712069571018218994e-02 -6.606554985046386719e-02 1.871906965970993042e-01 -1.045664176344871521e-01 1.237000599503517151e-01 1.058426052331924438e-01 3.626953437924385071e-02 9.021304547786712646e-02 -1.064039990305900574e-01 7.670372724533081055e-02
7.018486410379409790e-02 -9.374540299177169800e-02 -1.202455982565879822e-01 1.119441390037536621e-01 5.462208017706871033e-02 6.647351384162902832e-02 -3.786464408040046692e-02 -5.319126695394515991e-02 -1.205038428306579590e-01 -8.364101499319076538e-02 -5.552186444401741028e-02 -2.436139993369579315e-02 1.852779835462570190e-02 5.241342633962631226e-02 -4.551691934466362000e-02 1.828164160251617432e-01 1.234002336859703064e-01 -8.399973064661026001e-02 2.132858353434130549e-04 1.515026092529296875e-01 -1.260119825601577759e-01 1.568480283021926880e-01 6.300474703311920166e-02 1.847831308841705322e-01 -6.771754939109086990e-03 7.943621277809143066e-02 4.750134050846099854e-02 -1.068052351474761963e-01 -2.793247997760772705e-02 8.134448528289794922e-02 -1.636770181357860565e-02 -8.758746832609176636e-02 2.457758784294128418e-02 -1.268876045942306519e-01 -5.758344009518623352e-02 -3.158472105860710144e-02 2.450387738645076752e-02 -1.082844194024801254e-02 4.848739504814147949e-02 1.314127296209335327e-01 -6.589924450963735580e-03 -1.032261997461318970e-01 1.316116452217102051e-01 -2.392712049186229706e-02 -1.195845454931259155e-01 6.635125726461410522e-02 9.175863116979598999e-02 -7.743980735540390015e-02 1.290518641471862793e-01 7.937642931938171387e-02 -1.925872638821601868e-02 -1.090469490736722946e-02 -1.639740075916051865e-04 3.400522097945213318e-02 -8.660362660884857178e-02 1.499741375446319580e-01 -4.719166457653045654e-02 1.437855660915374756e-01 -1.998543180525302887e-02 9.704805165529251099e-02 -6.705556064844131470e-02 9.997045993804931641e-02 2.495631203055381775e-02 4.407934844493865967e-02
1.351863592863082886e-01 -1.339259594678878784e-01 4.183228313922882080e-02 -1.219283044338226318e-01 3.216586261987686157e-02 2.318704873323440552e-02 -1.955460906028747559e-01 2.082783877849578857e-01 -6.667120009660720825e-02 -6.260175257921218872e-02 -6.430382281541824341e-02 2.208448350429534912e-01 -1.896254159510135651e-02 1.044128909707069397e-01 7.427655905485153198e-02 -4.499164968729019165e-02 -8.341334015130996704e-02 1.114692762494087219e-01 -1.524450927972793579e-01 1.518810242414474487e-01 6.207406520843505859e-02 1.160673350095748901e-01 1.009600982069969177e-01 3.884821012616157532e-02 3.396673128008842468e-02 -8.369691669940948486e-02 -5.787320807576179504e-02 1.673154979944229126e-01 -7.699382305145263672e-02 8.651635795831680298e-02 1.761305034160614014e-01 -1.272895280271768570e-02 6.029320880770683289e-02 -1.040091961622238159e-01 -1.720578595995903015e-02 1.422825604677200317e-01 -1.256560385227203369e-01 -9.862528741359710693e-02 -8.805922418832778931e-02 2.503431141376495361e-01 -1.607699394226074219e-01 -4.412293061614036560e-02 -8.324972540140151978e-02 -1.258575022220611572e-01 9.852878004312515259e-02 -3.865217417478561401e-02 6.417510658502578735e-02 -1.666715741157531738e-02 1.824650764465332031e-01 -2.311892434954643250e-02 1.413658559322357178e-01 -1.113226637244224548e-01 -5.381600558757781982e-02 4.820273444056510925e-02 2.205245941877365112e-01 4.120882973074913025e-02 3.449944034218788147e-02 -1.860464066267013550e-01 -2.744382992386817932e-02 -1.762869022786617279e-02 -5.180541425943374634e-02 -4.673576727509498596e-02 3.849059343338012695e-03 1.592562161386013031e-02
5.999345332384109497e-02 8.369649201631546021e-02 9.314019978046417236e-02 1.810852251946926117e-02 -8.161779493093490601e-02 2.419715970754623413e-01 -6.209175288677215576e-02 -2.339132316410541534e-02 7.902149227447807789e-04 7.057883590459823608e-02 1.194404736161231995e-01 -1.156353130936622620e-01 -4.502284526824951172e-02 4.507441446185112000e-02 -9.758856892585754395e-02 -2.933651395142078400e-02 5.107805877923965454e-02 -3.295339271426200867e-02 -1.350333839654922485e-01 1.411622315645217896e-01 7.208074629306793213e-02 1.489759683609008789e-01 -5.126782879233360291e-02 -1.256912499666213989e-01 1.416744142770767212e-01 1.925369026139378548e-03 -9.579574316740036011e-02 -4.020221158862113953e-02 4.587684758007526398e-03 -5.486470647156238556e-03 6.733688712120056152e-02 2.284379005432128906e-01 3.220045566558837891e-02 -1.865119338035583496e-01 7.014317065477371216e-02 -1.377035677433013916e-02 1.210139542818069458e-01 -3.630752488970756531e-02 -1.369427591562271118e-01 4.408371448516845703e-02 3.016086295247077942e-02 -6.216983497142791748e-02 5.784994363784790039e-02 1.161661222577095032e-01 -5.490954592823982239e-02 3.141879662871360779e-02 1.525376141071319580e-01 8.964921534061431885e-02 -1.131803146563470364e-03 -2.227809838950634003e-02 -9.574147313833236694e-02 -2.078342065215110779e-02 1.018797904253005981e-01 1.143928691744804382e-01 9.465567767620086670e-03 1.001611799001693726e-01 -1.150619387626647949e-01 1.076084896922111511e-01 -7.963909953832626343e-02 6.073291227221488953e-02 -1.040662303566932678e-01 1.557023078203201294e-01 1.948622465133666992e-01 5.869291722774505615e-02
-2.353523857891559601e-02 9.838582575321197510e-02 -2.474836632609367371e-02 7.080992311239242554e-02 6.973207741975784302e-02 1.100884750485420227e-01 -1.054599881172180176e-01 -3.034978359937667847e-02 4.395571723580360413e-02 -9.109194576740264893e-02 -2.417803741991519928e-02 4.455523937940597534e-02 -9.902996569871902466e-02 9.576907753944396973e-02 9.428010880947113037e-02 1.222983524203300476e-01 1.067193299531936646e-01 -9.526750445365905762e-02 -1.054450720548629761e-01 -3.009090758860111237e-02 -4.009773489087820053e-03 5.808456614613533020e-02 1.563041210174560547e-01 -9.737980365753173828e-02 9.651607275009155273e-02 -7.920125871896743774e-02 -4.653058201074600220e-02 -8.558145910501480103e-02 -2.662205137312412262e-02 3.369787335395812988e-02 1.628528386354446411e-01 1.236025691032409668e-01 -4.890787228941917419e-02 -9.235532581806182861e-02 -1.305035799741744995e-01 -6.074141338467597961e-02 9.769643098115921021e-02 1.636197715997695923e-01 5.308541283011436462e-02 7.668191939592361450e-02 -6.939305458217859268e-03 -8.369676768779754639e-03 1.331867724657058716e-01 7.501764595508575439e-02 -8.592149615287780762e-02 -5.669204890727996826e-02 7.182618230581283569e-02 1.663992851972579956e-01 -6.842033565044403076e-02 -8.144413679838180542e-02 7.566879689693450928e-02 -1.546681523323059082e-01 -2.038702555000782013e-02 -9.013889729976654053e-02 7.450395263731479645e-03 1.093145906925201416e-01 -1.084545999765396118e-01 8.886400610208511353e-02 1.642165780067443848e-01 1.140477806329727173e-01 -2.208127453923225403e-02 -1.189465001225471497e-01 2.817681804299354553e-02 -4.429173469543457031e-02
8.879312872886657715e-02 3.735181316733360291e-02 -8.149169385433197021e-02 -6.492523103952407837e-02 1.164207756519317627e-01 -9.256005287170410156e-02 -1.499666273593902588e-01 -5.710151046514511108e-02 -4.049053415656089783e-02 2.195888198912143707e-02 -3.697354346513748169e-02 -4.600927233695983887e-02 1.703122258186340332e-01 2.052874565124511719e-01 -2.785699255764484406e-02 -5.469516292214393616e-02 4.188252612948417664e-02 -9.895862638950347900e-02 -1.451997011899948120e-01 9.993789345026016235e-02 1.266169846057891846e-01 -5.363188311457633972e-02 1.411690413951873779e-01 9.678913652896881104e-02 -6.576230376958847046e-02 5.177015438675880432e-02 9.960524737834930420e-02 -6.990684662014245987e-03 5.362898483872413635e-02 -7.033119350671768188e-02 1.768030226230621338e-02 1.409448534250259399e-01 6.399191915988922119e-02 1.005956232547760010e-01 1.241429448127746582e-01 -1.034599244594573975e-01 -3.406603261828422546e-02 -2.337393909692764282e-02 3.669437766075134277e-02 -8.452925831079483032e-02 -7.337430119514465332e-02 1.233231425285339355e-01 1.183720678091049194e-01 3.924307972192764282e-02 1.397596299648284912e-01 1.019220948219299316e-01 1.020902320742607117e-01 3.745485469698905945e-02 -3.001992404460906982e-02 4.943369701504707336e-02 1.401838660240173340e-01 5.947617441415786743e-02 -6.208086386322975159e-02 1.551399677991867065e-01 1.235567629337310791e-01 1.141748428344726562e-01 8.707662671804428101e-02 -7.211989164352416992e-02 -3.504816442728042603e-02 1.625514626502990723e-01 1.627477258443832397e-01 -5.951176211237907410e-02 -1.284227371215820312e-01 2.112468704581260681e-02
1.021824628114700317e-01 -1.150439530611038208e-01 4.786076024174690247e-03 1.296879351139068604e-01 -4.212888330221176147e-02 7.403719704598188400e-03 -1.251197904348373413e-01 7.711533457040786743e-02 -9.699206054210662842e-02 1.624155491590499878e-01 6.756646931171417236e-02 -1.239368021488189697e-01 -9.093087166547775269e-02 -7.771556824445724487e-02 -4.317400977015495300e-02 9.972988814115524292e-02 -1.121257618069648743e-01 -6.161563843488693237e-02 -1.925737597048282623e-02 -5.337312072515487671e-02 -1.188900247216224670e-01 2.309623733162879944e-02 6.060742214322090149e-02 9.089002758264541626e-02 -2.475502341985702515e-02 1.330208592116832733e-02 -8.181798271834850311e-03 -6.348864734172821045e-02 1.017403975129127502e-01 -1.430411636829376221e-01 1.838960051536560059e-01 -3.056612983345985413e-02 1.267607361078262329e-01 3.841377049684524536e-02 8.566465973854064941e-02 6.133235618472099304e-02 2.189808189868927002e-01 -7.270055264234542847e-02 1.004174426198005676e-01 -3.282921388745307922e-02 1.269970387220382690e-01 -9.310898184776306152e-02 1.646116003394126892e-02 6.988686509430408478e-03 4.584206268191337585e-02 1.160118579864501953e-01 1.792642027139663696e-01 5.489256978034973145e-02 -1.167391333729028702e-02 -2.638928405940532684e-02 2.784926630556583405e-02 9.654227644205093384e-02 5.095201730728149414e-02 8.882641792297363281e-02 6.744100898504257202e-02 1.811614781618118286e-01 -1.227419152855873108e-01 3.498048707842826843e-02 1.539593189954757690e-02 5.096355453133583069e-03 -8.712570369243621826e-02 1.743018999695777893e-02 2.187204062938690186e-01 -1.029265224933624268e-01
-1.342572718858718872e-01 1.426358222961425781e-01 -5.637529864907264709e-02 -1.344505250453948975e-01 -6.643966189585626125e-04 1.402394026517868042e-01 3.099232539534568787e-02 4.449422657489776611e-02 -5.929402261972427368e-02 -1.736040562391281128e-01 -1.012696176767349243e-01 -1.111519038677215576e-01 1.019223034381866455e-01 -2.789597585797309875e-02 -5.790768563747406006e-02 -3.725888580083847046e-02 5.190709605813026428e-02 1.699558645486831665e-01 -8.274170011281967163e-02 1.204032078385353088e-01 -1.594917476177215576e-02 8.656580001115798950e-03 7.808166742324829102e-02 -5.700141564011573792e-02 -2.350067719817161560e-02 3.489495068788528442e-02 -6.896168738603591919e-02 -9.131945669651031494e-02 -2.994901314377784729e-02 7.874135673046112061e-02 -9.919421374797821045e-02 3.595354780554771423e-02 -1.521731466054916382e-01 -1.441679298877716064e-01 1.665126830339431763e-01 -2.207206748425960541e-02 -2.095085829496383667e-01 1.541367918252944946e-01 1.080536916851997375e-01 -5.253992229700088501e-02 -1.493783444166183472e-01 4.309557378292083740e-02 -1.318562626838684082e-01 -6.821689009666442871e-02 -9.110825136303901672e-03 7.833500206470489502e-02 6.686162948608398438e-02 5.809485167264938354e-02 7.249784469604492188e-02 1.102787703275680542e-01 -1.359190493822097778e-01 1.971301995217800140e-02 -3.801151737570762634e-02 -3.446715325117111206e-02 -6.877875328063964844e-02 2.624280168674886227e-04 -1.680846884846687317e-02 -4.463950172066688538e-02 -1.808062046766281128e-01 1.566261053085327148e-01 -3.604621067643165588e-02 -1.350670307874679565e-01 -2.485136315226554871e-02 3.676959127187728882e-02
-1.782424747943878174e-02 -1.260429173707962036e-01 1.213890910148620605e-01 -6.925892829895019531e-02 -9.514959901571273804e-02 1.892916974611580372e-03 1.359266638755798340e-01 1.767024248838424683e-01 -6.417502649128437042e-03 -2.273344434797763824e-02 1.836689114570617676e-01 -9.680914878845214844e-02 1.041260287165641785e-01 -5.647035688161849976e-02 4.440468549728393555e-02 -5.444210767745971680e-02 6.955745816230773926e-02 -9.902816265821456909e-02 1.309997290372848511e-01 -4.211832955479621887e-02 -1.662768274545669556e-01 -3.957637399435043335e-02 1.227467730641365051e-01 1.313685923814773560e-01 6.533847749233245850e-02 1.609962135553359985e-01 -3.579201549291610718e-02 -2.832352370023727417e-02 -3.041894547641277313e-02 -1.068887338042259216e-01 1.109525654464960098e-02 -1.028267592191696167e-01 1.638809889554977417e-01 -1.705100685358047485e-01 7.587406784296035767e-03 3.811843693256378174e-02 -6.074578687548637390e-02 -1.156600043177604675e-01 1.488369554281234741e-01 -1.770724728703498840e-02 -7.936060428619384766e-02 -1.354367583990097046e-01 -1.434137225151062012e-01 -9.861868619918823242e-02 -1.022659838199615479e-01 3.962833806872367859e-02 6.712845712900161743e-02 3.967818990349769592e-02 -1.449193339794874191e-02 7.020190823823213577e-04 1.256977468729019165e-01 -6.371146440505981445e-02 9.359444677829742432e-02 1.570872366428375244e-01 1.493857055902481079e-01 7.297724951058626175e-03 6.151363253593444824e-02 1.585719436407089233e-01 -9.534393437206745148e-03 -6.200389564037322998e-02 -1.882815659046173096e-01 -2.731921151280403137e-03 8.511625230312347412e-02 -5.559394881129264832e-02
-1.148192677646875381e-02 -6.990257650613784790e-02 -6.301882117986679077e-02 3.332435712218284607e-02 1.347152236849069595e-02 -2.540204860270023346e-02 3.350840508937835693e-02 -4.436668753623962402e-02 1.428696811199188232e-01 3.877954557538032532e-02 1.325883567333221436e-01 -5.777371302247047424e-02 -5.581362172961235046e-03 -6.301229353994131088e-03 8.543784730136394501e-03 -1.479258388280868530e-01 3.045023418962955475e-02 6.799366325139999390e-02 -9.485537558794021606e-02 1.713823080062866211e-01 -4.445465281605720520e-02 -1.105802413076162338e-02 -1.098986193537712097e-01 -1.100537702441215515e-01 1.158902794122695923e-01 -6.221850961446762085e-02 -1.145089641213417053e-01 6.731107085943222046e-02 7.018112391233444214e-02 -7.623733580112457275e-02 8.443401008844375610e-02 -1.743721775710582733e-02 6.580012384802103043e-03 -1.008448749780654907e-01 6.430468708276748657e-02 -3.160667046904563904e-02 5.709945037961006165e-02 -1.212868839502334595e-01 -7.773980498313903809e-02 -1.029627174139022827e-01 4.264315590262413025e-02 -8.898881822824478149e-02 6.607959419488906860e-02 1.233345642685890198e-01 7.119116932153701782e-02 1.081557348370552063e-01 1.344482786953449249e-02 -6.139475479722023010e-02 -2.752901054918766022e-02 2.713576890528202057e-03 -1.242518350481987000e-01 2.126642912626266479e-01 -7.803989946842193604e-02 6.579872220754623413e-02 3.437911346554756165e-02 -5.470326286740601063e-04 6.565692275762557983e-02 8.726789802312850952e-02 -1.979547291994094849e-01 1.828322708606719971e-01 -1.445622742176055908e-01 -5.902086570858955383e-02 -9.235113859176635742e-02 1.566631346940994263e-01
