-3.226755186915397644e-02
-6.792464852333068848e-02
-3.817696869373321533e-02
9.737207740545272827e-02
-1.416238397359848022e-02
1.081064809113740921e-02
4.303421452641487122e-02
2.849395014345645905e-02
5.136279389262199402e-02
2.508060820400714874e-02
6.642722338438034058e-02
4.852467402815818787e-02
2.585350722074508667e-02
-5.903337895870208740e-02
-2.959440648555755615e-02
-3.264544531702995300e-02
-2.456844411790370941e-02
-4.875759407877922058e-02
3.274504840373992920e-02
-1.918860897421836853e-02
-4.282775893807411194e-02
-1.600817590951919556e-02
-3.392840502783656120e-03
-2.671319805085659027e-02
5.614484474062919617e-02
-6.240352243185043335e-02
-5.808779969811439514e-03
6.352926045656204224e-02
5.066265352070331573e-03
-2.439464628696441650e-02
-3.998549655079841614e-02
6.098859943449497223e-03
8.788046427071094513e-03
-4.055751860141754150e-02
-6.559129804372787476e-02
3.140445053577423096e-02
-2.313510701060295105e-02
4.307444766163825989e-02
-2.146194875240325928e-02
-6.343401037156581879e-03
-1.886442676186561584e-02
5.047701671719551086e-02
-2.525149844586849213e-02
-3.336630016565322876e-02
2.088120207190513611e-03
4.234376177191734314e-02
-1.012888271361589432e-02
-5.138274654746055603e-02
8.875863254070281982e-02
4.120849072933197021e-02
-3.477849066257476807e-02
-5.158884916454553604e-03
1.614902541041374207e-02
7.022053003311157227e-02
-2.950908616185188293e-02
3.256832063198089600e-02
-3.020246326923370361e-02
1.187837217003107071e-02
3.776393830776214600e-02
-5.899942293763160706e-02
2.929649315774440765e-02
-2.148047788068652153e-03
4.794538766145706177e-02
-6.543184630572795868e-03
-3.603417798876762390e-02
3.361878544092178345e-02
-7.767634838819503784e-02
-3.775664791464805603e-02
-1.699183136224746704e-02
-1.322863344103097916e-02
-7.475318852812051773e-03
8.490346372127532959e-02
4.901395738124847412e-02
-1.359668280929327011e-02
-1.694355905055999756e-02
-2.435551583766937256e-02
3.608864173293113708e-02
-2.500063274055719376e-03
2.958541549742221832e-02
5.795379169285297394e-03
-2.246436290442943573e-02
-7.305498421192169189e-02
-3.708361089229583740e-02
6.400248967111110687e-03
-3.059517592191696167e-02
5.929655581712722778e-02
5.389978364109992981e-02
-3.786189248785376549e-03
1.509596779942512512e-02
-4.996702447533607483e-02
-1.772276870906352997e-02
5.065178498625755310e-03
2.950639277696609497e-02
6.111987400799989700e-03
1.434179604984819889e-03
-1.009515020996332169e-02
-1.642188802361488342e-02
1.510265376418828964e-02
1.030205399729311466e-03
-7.849148660898208618e-02
-2.357397414743900299e-02
-2.407872863113880157e-02
-2.738757990300655365e-02
-2.662350796163082123e-02
3.069007210433483124e-02
4.507068172097206116e-02
4.379531368613243103e-03
6.858155876398086548e-02
-6.544739753007888794e-02
-4.583491536322981119e-04
6.704507395625114441e-03
-6.766591966152191162e-02
-2.590772323310375214e-02
6.912786513566970825e-03
7.191766798496246338e-02
3.990262746810913086e-02
-1.930001750588417053e-02
5.325432866811752319e-02
-2.389848791062831879e-02
-2.308724448084831238e-02
-3.644208237528800964e-02
-1.742514199577271938e-03
7.783568929880857468e-03
2.756769955158233643e-02
-2.061356417834758759e-02
1.309350281953811646e-01
-2.859007753431797028e-02
3.132158517837524414e-02
