1.861167699098587036e-02
-5.969533696770668030e-03
1.769419573247432709e-02
-1.010095477104187012e-01
6.368809193372726440e-02
2.275359630584716797e-02
-2.965833432972431183e-02
8.918977528810501099e-02
3.235856443643569946e-02
2.089753933250904083e-02
-1.653217524290084839e-02
1.253554038703441620e-02
4.304512590169906616e-02
2.317166514694690704e-02
-4.469506815075874329e-02
5.794742144644260406e-03
1.992035470902919769e-02
5.778521299362182617e-03
6.867065280675888062e-02
-4.060364887118339539e-02
9.984482824802398682e-02
-2.239404246211051941e-02
3.638612478971481323e-02
-1.739520952105522156e-02
5.957579240202903748e-02
3.957705199718475342e-02
4.677272960543632507e-02
-2.990750037133693695e-02
7.450599968433380127e-02
5.737742409110069275e-02
-5.524684861302375793e-02
-6.535993516445159912e-02
6.914987415075302124e-02
9.888779371976852417e-02
5.063993483781814575e-02
4.617465287446975708e-02
-4.176611825823783875e-02
5.074499547481536865e-02
5.821309983730316162e-02
5.242296308279037476e-02
6.576666980981826782e-02
8.001497946679592133e-03
-3.882221505045890808e-02
9.604918211698532104e-02
-5.578636378049850464e-02
9.663961082696914673e-02
-6.356380414217710495e-03
4.137339070439338684e-02
6.532368808984756470e-02
3.547249734401702881e-02
-5.961079522967338562e-02
2.190091833472251892e-02
1.750378496944904327e-02
-2.659906819462776184e-02
-9.071695618331432343e-03
2.721880935132503510e-02
8.610666543245315552e-02
-2.565228007733821869e-02
-1.849910826422274113e-03
4.153298959136009216e-02
1.201426237821578979e-02
4.407575726509094238e-02
3.616978600621223450e-02
7.848212122917175293e-02
