-3.952578827738761902e-02 -1.399336308240890503e-01 -5.220733582973480225e-02 -1.791846156120300293e-01 -1.479519009590148926e-01 -1.421383023262023926e-01 2.598260343074798584e-01 -1.127751544117927551e-01 2.180922925472259521e-01 3.138512074947357178e-01 1.014061048626899719e-01 2.823928929865360260e-02 -1.437867730855941772e-01 1.789514273405075073e-01 7.243001461029052734e-02 -6.522161513566970825e-02 1.404333859682083130e-01 -1.389457285404205322e-01 -6.006656959652900696e-02 1.049292162060737610e-01 1.402934342622756958e-01 -1.862991154193878174e-01 1.903923302888870239e-01 1.060099974274635315e-01 1.060184612870216370e-01 1.333977580070495605e-01 1.851553916931152344e-01 2.296591401100158691e-01 5.324216559529304504e-02 2.510648593306541443e-02 3.872445598244667053e-02 1.029429733753204346e-01 -1.308032274246215820e-01 2.716053724288940430e-01 2.056529670953750610e-01 1.803164184093475342e-01 -1.647398434579372406e-02 -2.261270582675933838e-01 -1.761556044220924377e-02 4.087151214480400085e-02 8.989705890417098999e-02 -1.749840378761291504e-01 -1.080915257334709167e-01 8.321242034435272217e-02 5.748661234974861145e-02 1.020257398486137390e-01 -1.128273382782936096e-01 -1.191191449761390686e-01 3.385671675205230713e-01 8.356816321611404419e-02 -1.049071997404098511e-01 -1.652896106243133545e-01 7.017418742179870605e-02 8.455664850771427155e-03 2.400933653116226196e-01 2.364242672920227051e-01 -1.375209391117095947e-01 -2.111471593379974365e-01 -1.580487936735153198e-02 -1.567250043153762817e-01 1.448881626129150391e-01 9.259331226348876953e-02 2.181566208600997925e-01 -1.076155826449394226e-01 2.929417192935943604e-01 -2.350915074348449707e-01 1.325166076421737671e-01 -9.189715236425399780e-02 -5.242909491062164307e-02 -2.792554441839456558e-03 -1.020335406064987183e-01 6.864454597234725952e-02 -1.293199509382247925e-01 2.176617085933685303e-01 -1.000802665948867798e-01 -1.652028411626815796e-01 2.637563645839691162e-01 -6.786875426769256592e-02 4.334142804145812988e-02 -5.349247157573699951e-02 1.556355655193328857e-01 -1.098553743213415146e-02 -9.738640487194061279e-02 -1.297430396080017090e-01 -1.157717406749725342e-01 1.528661549091339111e-01 3.138323128223419189e-02 5.709163099527359009e-02 -1.623514443635940552e-01 -1.589456647634506226e-01 -6.949482113122940063e-02 -1.112802252173423767e-01 -3.927769884467124939e-02 2.542690373957157135e-02 2.598383128643035889e-01 -1.811229884624481201e-01 -3.519589081406593323e-02 -1.223257780075073242e-01 -8.252293616533279419e-02 2.882862463593482971e-02 -1.167646348476409912e-01 1.734233796596527100e-01 -1.154517456889152527e-01 -9.359443187713623047e-02 4.262128844857215881e-02 2.199358865618705750e-02 2.171616554260253906e-01 5.982923321425914764e-03 1.221547573804855347e-01 -8.681958913803100586e-02 -4.000841639935970306e-03 -1.668624877929687500e-01 7.856110483407974243e-02 2.503313310444355011e-02 7.395566254854202271e-02 2.202784456312656403e-02 -3.098725900053977966e-02 1.046873405575752258e-01 -1.685077697038650513e-01 -9.144407510757446289e-02 1.988161206245422363e-01 -1.841036528348922729e-01 4.530347511172294617e-02 1.568051129579544067e-01 -1.151539850980043411e-02 -2.008280716836452484e-02 2.038700431585311890e-01 1.342951655387878418e-01
1.315389424562454224e-01 -1.229595392942428589e-01 -1.647246181964874268e-01 1.373690515756607056e-01 1.302620172500610352e-01 9.947355836629867554e-02 -5.259460583329200745e-02 -8.816645294427871704e-02 2.813147306442260742e-01 -1.738632619380950928e-01 5.008511617779731750e-02 2.672829329967498779e-01 -2.015908621251583099e-02 -1.994376778602600098e-01 1.713548600673675537e-01 1.428969800472259521e-01 5.872804298996925354e-02 -4.093233030289411545e-03 -4.361721873283386230e-02 1.798945665359497070e-01 -1.978789716958999634e-01 4.805197939276695251e-02 -2.032714188098907471e-01 -1.395806521177291870e-01 3.021874427795410156e-01 -1.339903771877288818e-01 4.986029863357543945e-02 2.127025276422500610e-01 9.198756888508796692e-03 -8.916603028774261475e-02 -4.794400557875633240e-02 5.662527680397033691e-02 -5.530099198222160339e-02 -7.904782146215438843e-02 -1.311893016099929810e-01 -2.005541026592254639e-01 -5.076748877763748169e-02 1.212216317653656006e-01 2.698200047016143799e-01 -6.306605786085128784e-02 2.189077287912368774e-01 3.544002771377563477e-02 8.262646943330764771e-02 1.786659471690654755e-02 -4.076544567942619324e-02 2.755360305309295654e-01 -8.476517349481582642e-02 -3.131737932562828064e-02 -2.637237682938575745e-02 -1.181354597210884094e-01 1.051617972552776337e-02 4.810591787099838257e-02 -1.809458285570144653e-01 3.180505940690636635e-03 -1.178291216492652893e-01 -6.831924617290496826e-02 1.145482510328292847e-01 2.341743260622024536e-01 2.480011200532317162e-03 1.284343749284744263e-01 1.426557153463363647e-01 -3.817467018961906433e-02 3.086751997470855713e-01 7.838626950979232788e-02 -1.918396800756454468e-01 1.337716877460479736e-01 -1.999018639326095581e-01 2.243920266628265381e-01 3.997574374079704285e-02 -1.235682591795921326e-01 -7.593118399381637573e-02 -8.164640516042709351e-02 8.579162508249282837e-02 1.604867726564407349e-01 2.366195470094680786e-01 -1.141113042831420898e-01 -9.861868619918823242e-02 -1.490861736238002777e-02 -1.498378813266754150e-01 -1.142403930425643921e-01 1.575023978948593140e-01 -1.098815351724624634e-01 1.132096797227859497e-01 3.504125401377677917e-02 1.002224013209342957e-01 2.122577428817749023e-01 -1.662001013755798340e-01 -3.177231177687644958e-02 2.190437726676464081e-02 4.592774435877799988e-02 -2.283021621406078339e-02 1.314438879489898682e-01 -2.386128529906272888e-02 -4.217632859945297241e-02 -1.216262802481651306e-01 8.305877447128295898e-02 9.130033105611801147e-02 4.125624522566795349e-02 -1.535298489034175873e-02 7.478081434965133667e-02 1.580508798360824585e-01 1.403782516717910767e-01 -1.454341858625411987e-01 -1.311455070972442627e-01 7.588040083646774292e-02 2.703443765640258789e-01 -9.871558099985122681e-02 -1.218029409646987915e-01 -1.413577795028686523e-01 -7.245178520679473877e-02 1.272503584623336792e-01 2.707055807113647461e-01 1.438593268394470215e-01 -1.536464095115661621e-01 -7.235527038574218750e-02 5.843750014901161194e-02 -7.332304865121841431e-02 -6.251641362905502319e-02 1.925301402807235718e-01 9.009588509798049927e-02 -3.014743095263838768e-03 2.081717252731323242e-01 -1.612377762794494629e-01 2.290244214236736298e-02 -1.831929683685302734e-01 -3.504333784803748131e-03 -2.010293006896972656e-01 1.794401258230209351e-01
-1.259908527135848999e-01 2.658455073833465576e-01 1.209376528859138489e-01 2.272923737764358521e-01 9.118915349245071411e-02 2.554658353328704834e-01 -6.144857034087181091e-02 2.264247089624404907e-01 -1.755767017602920532e-01 -1.085609868168830872e-01 2.154521048069000244e-01 -1.931564062833786011e-01 1.341551244258880615e-01 -1.271757036447525024e-01 1.825377158820629120e-02 4.339263588190078735e-02 -1.863905340433120728e-01 8.872177451848983765e-02 2.541112899780273438e-01 -1.411485821008682251e-01 -9.324112534523010254e-02 -3.340008109807968140e-02 -1.416398286819458008e-01 -7.444854825735092163e-02 -1.744059920310974121e-01 1.835565418004989624e-01 -7.173680514097213745e-02 -1.976271569728851318e-01 2.879703342914581299e-01 -2.131230235099792480e-01 -9.415645897388458252e-02 2.101861834526062012e-01 5.695308372378349304e-02 -2.341088205575942993e-01 -6.045760959386825562e-02 2.374527901411056519e-01 -7.718654721975326538e-02 2.281580120325088501e-01 -1.160968616604804993e-01 1.325982064008712769e-02 -1.651216298341751099e-01 2.144959419965744019e-01 -1.500616818666458130e-01 2.604342699050903320e-01 -7.751794904470443726e-02 -4.219553992152214050e-02 1.177594289183616638e-01 -3.921272605657577515e-02 -1.459030061960220337e-01 -1.499272882938385010e-01 -9.520299732685089111e-02 1.468048989772796631e-01 1.688543409109115601e-01 8.514972776174545288e-02 8.433609455823898315e-02 1.025007516145706177e-01 -5.577655136585235596e-02 -3.402524068951606750e-02 7.962125539779663086e-02 -1.347716599702835083e-01 -1.636501103639602661e-01 -6.126052886247634888e-02 3.937999159097671509e-02 3.365252614021301270e-01 -1.217218860983848572e-01 -2.361033856868743896e-02 2.097461745142936707e-02 1.236179471015930176e-02 2.314602881669998169e-01 7.827567309141159058e-02 2.869970500469207764e-01 3.679741173982620239e-02 1.716195493936538696e-01 -9.036945551633834839e-02 -1.633947193622589111e-01 2.088147588074207306e-02 -2.385014593601226807e-01 -7.790096104145050049e-02 1.975692808628082275e-01 4.294141009449958801e-02 5.429943650960922241e-02 8.906987309455871582e-02 -3.201431035995483398e-02 9.009781479835510254e-02 -1.577259451150894165e-01 9.445407986640930176e-02 2.056446820497512817e-01 -1.731529831886291504e-01 1.519987434148788452e-01 -5.626535788178443909e-02 -1.796626895666122437e-01 1.327483952045440674e-01 3.007374107837677002e-01 -5.592292174696922302e-02 1.902950108051300049e-01 -9.186231344938278198e-02 -9.202466160058975220e-02 1.880097575485706329e-02 1.385618001222610474e-01 9.882614761590957642e-02 1.745015978813171387e-01 -1.005286425352096558e-01 2.152818739414215088e-01 2.357425987720489502e-01 -2.436698600649833679e-02 -1.504663527011871338e-01 2.287301979959011078e-02 2.851129174232482910e-01 1.849863119423389435e-02 2.606157660484313965e-01 1.926882565021514893e-01 -5.445728078484535217e-02 9.924007207155227661e-02 3.681434784084558487e-03 2.356647253036499023e-01 -1.565596610307693481e-01 -1.743886172771453857e-01 1.881034672260284424e-01 -1.112841367721557617e-01 -8.099760115146636963e-02 -3.682548925280570984e-02 1.234866213053464890e-02 2.249477803707122803e-01 1.291858702898025513e-01 1.002113297581672668e-01 1.173918694257736206e-01 -1.452111303806304932e-01 1.118567287921905518e-01
-1.168022770434617996e-02 -1.168629676103591919e-01 9.699433296918869019e-02 -6.690106540918350220e-02 -1.039174422621726990e-01 1.982324868440628052e-01 -8.668943494558334351e-02 -2.857680991291999817e-02 -6.684563308954238892e-02 -6.142953783273696899e-02 2.253843992948532104e-01 5.082416161894798279e-02 -1.550665348768234253e-01 2.341291867196559906e-02 5.750108137726783752e-02 4.469223693013191223e-02 9.551149606704711914e-02 4.742196295410394669e-03 1.014291420578956604e-01 -1.622677743434906006e-01 -1.269751936197280884e-01 -8.083531260490417480e-02 5.686198174953460693e-02 -8.025185018777847290e-02 -7.639166712760925293e-02 -6.376565247774124146e-02 -9.240390732884407043e-03 -5.711332336068153381e-02 1.234015077352523804e-01 8.012841641902923584e-02 -1.846966594457626343e-01 9.742604941129684448e-02 8.730744570493698120e-02 3.944565355777740479e-02 1.136460304260253906e-01 3.435787186026573181e-02 2.292844466865062714e-03 5.983041133731603622e-03 -5.969327315688133240e-02 -6.056364160031080246e-03 3.244214132428169250e-02 8.951894193887710571e-02 -5.818010121583938599e-02 -7.769545912742614746e-02 -1.740627735853195190e-01 -3.957502543926239014e-02 -3.501720353960990906e-02 -6.307164579629898071e-02 -2.097392380237579346e-01 1.093773990869522095e-01 1.770709455013275146e-01 -1.439136266708374023e-01 -3.631071373820304871e-02 7.457539439201354980e-02 -1.407446525990962982e-02 -1.209235563874244690e-01 8.000054955482482910e-02 -1.971919648349285126e-02 2.526432573795318604e-01 -1.437672078609466553e-01 -9.554821252822875977e-02 -6.355390697717666626e-02 -7.555080950260162354e-02 1.608588546514511108e-01 -6.834136438556015491e-04 -3.468651557341217995e-03 1.785709708929061890e-01 -1.206207461655139923e-02 1.711934506893157959e-01 -2.575975656509399414e-02 1.620878130197525024e-01 1.762674748897552490e-01 7.838936150074005127e-02 4.611323773860931396e-02 -1.550248861312866211e-01 1.461650729179382324e-01 -6.327155977487564087e-02 -1.270583420991897583e-01 1.035096496343612671e-02 1.117480620741844177e-01 -4.826805740594863892e-02 -7.701243460178375244e-02 -1.259302496910095215e-01 1.025754809379577637e-01 -1.277476549148559570e-01 4.792965576052665710e-02 1.766038089990615845e-01 6.349248439073562622e-02 3.286777809262275696e-02 1.202377602458000183e-01 1.153812706470489502e-01 2.185906320810317993e-01 2.404758483171463013e-01 -2.311657965183258057e-01 -2.480777353048324585e-02 -1.509211808443069458e-01 7.639241963624954224e-02 5.158675834536552429e-02 1.018760055303573608e-01 -5.946213379502296448e-02 -9.055048227310180664e-02 -1.579551100730895996e-01 2.586777508258819580e-01 2.908811569213867188e-01 2.603243887424468994e-01 -1.850992143154144287e-01 -7.089099287986755371e-02 1.356164962053298950e-01 -4.891458526253700256e-02 2.363123893737792969e-01 7.765487581491470337e-02 -8.000181615352630615e-02 1.303528398275375366e-01 -7.960152626037597656e-02 1.473525464534759521e-01 -7.185788452625274658e-02 -1.300723999738693237e-01 2.475308328866958618e-01 4.022759199142456055e-02 -1.422749161720275879e-01 9.086243808269500732e-02 -1.650493144989013672e-01 1.812126636505126953e-01 1.036460250616073608e-01 -2.332576513290405273e-01 1.851121485233306885e-01 -5.449412018060684204e-02 2.443957477807998657e-01
4.228543862700462341e-02 1.659299582242965698e-01 1.668338547460734844e-03 4.091508686542510986e-02 -1.467803418636322021e-01 -8.967189490795135498e-02 2.572046220302581787e-02 1.372484117746353149e-01 3.144925236701965332e-01 6.808598339557647705e-02 -1.089409589767456055e-01 -5.802746862173080444e-03 1.201682090759277344e-01 9.659616649150848389e-02 2.101470381021499634e-01 1.337596923112869263e-01 1.477450430393218994e-01 -9.382832050323486328e-02 1.357656866312026978e-01 -2.561484090983867645e-02 6.979412585496902466e-02 -1.545519679784774780e-01 -2.977228723466396332e-02 -4.177957028150558472e-02 -2.954576537013053894e-02 1.362981349229812622e-01 2.224159836769104004e-01 3.482776284217834473e-01 -1.031280234456062317e-01 1.321659889072179794e-02 1.893163323402404785e-01 -4.483700171113014221e-02 1.023548617959022522e-01 -2.119255363941192627e-01 -8.662584424018859863e-02 -2.854943461716175079e-02 -1.742154210805892944e-01 -1.319001615047454834e-01 -1.352163106203079224e-01 -1.764469742774963379e-01 -1.911100447177886963e-01 1.284755468368530273e-01 -2.533309459686279297e-01 -4.347825050354003906e-02 -7.796326279640197754e-02 4.305252060294151306e-02 4.960634745657444000e-03 -2.286919355392456055e-01 -9.924052283167839050e-03 5.775779020041227341e-03 1.744905710220336914e-01 1.407052576541900635e-01 -4.610344395041465759e-02 1.011736094951629639e-01 5.764092504978179932e-02 1.139449775218963623e-01 -1.493582129478454590e-01 -1.771434545516967773e-01 -1.117011811584234238e-02 1.575946360826492310e-01 2.704509496688842773e-01 -1.854518502950668335e-01 1.676994413137435913e-01 -1.578894853591918945e-01 -4.719258472323417664e-02 1.037491261959075928e-01 -8.180908113718032837e-02 8.728068321943283081e-02 6.691845599561929703e-03 -1.043970882892608643e-01 -1.707509905099868774e-02 8.582764118909835815e-02 1.273120660334825516e-02 2.062681466341018677e-01 -6.173092871904373169e-02 6.334671378135681152e-02 -8.049283176660537720e-02 -1.271721348166465759e-02 1.831571385264396667e-02 4.531836882233619690e-02 6.151802092790603638e-02 1.404001843184232712e-02 -1.040435582399368286e-01 -5.065654218196868896e-02 -1.127306558191776276e-02 -3.355357050895690918e-02 6.740992516279220581e-02 -2.473503947257995605e-01 -2.291747555136680603e-02 1.842579338699579239e-03 2.576956897974014282e-02 -1.392950564622879028e-01 -7.511084526777267456e-02 -8.806775510311126709e-02 1.158109158277511597e-01 -1.324521154165267944e-01 -2.004726976156234741e-01 5.512395873665809631e-02 -2.171422988176345825e-01 1.459242701530456543e-01 1.204703301191329956e-01 3.013105094432830811e-01 1.763558536767959595e-01 8.070607483386993408e-02 2.366183400154113770e-01 2.416962236166000366e-01 -1.700093299150466919e-01 8.117531985044479370e-02 1.313825696706771851e-01 4.481270909309387207e-02 1.144119948148727417e-01 1.397273540496826172e-01 3.071806728839874268e-01 -1.064713150262832642e-01 -1.100999489426612854e-01 7.287533581256866455e-02 -9.093996882438659668e-02 7.698179781436920166e-02 -6.943066418170928955e-02 -1.764726936817169189e-01 2.046032994985580444e-01 -1.119204312562942505e-01 -8.681057393550872803e-02 1.730294972658157349e-01 1.970157958567142487e-02 1.829959750175476074e-01 -1.968583650887012482e-02 2.424568384885787964e-01
-1.806088387966156006e-01 1.488199532032012939e-01 8.521087467670440674e-02 8.636529743671417236e-02 -2.113876342773437500e-01 1.323888897895812988e-01 -1.291317492723464966e-01 1.692061498761177063e-02 1.768787205219268799e-02 -1.460221260786056519e-01 1.058163419365882874e-01 -1.721662133932113647e-01 2.593709528446197510e-01 6.610091775655746460e-02 -1.821926832199096680e-01 5.537641700357198715e-03 -2.399048954248428345e-01 -1.024788841605186462e-01 5.770723894238471985e-02 -2.008503228425979614e-01 -1.323853433132171631e-01 -2.488445118069648743e-02 1.778865903615951538e-01 4.009176045656204224e-02 -5.858883261680603027e-02 7.700556516647338867e-02 -2.063965499401092529e-01 1.384673453867435455e-02 1.152727156877517700e-01 1.822378039360046387e-01 -2.468712180852890015e-01 1.544195860624313354e-01 1.640120297670364380e-01 6.106163188815116882e-02 -1.004851311445236206e-01 -1.282607316970825195e-01 2.086359858512878418e-01 2.741940505802631378e-02 8.869180083274841309e-02 1.831818968057632446e-01 7.098085433244705200e-02 1.860576868057250977e-01 2.124882936477661133e-01 1.201528683304786682e-01 1.996506005525588989e-01 -7.769471406936645508e-02 2.720132768154144287e-01 1.761772297322750092e-02 -6.096005812287330627e-02 2.392974197864532471e-01 -5.738302320241928101e-02 1.739888787269592285e-01 1.382025629281997681e-01 1.409713178873062134e-01 7.459056377410888672e-02 1.716607809066772461e-02 2.016055732965469360e-01 1.923311874270439148e-02 4.560241848230361938e-02 1.644933968782424927e-01 -6.048915674909949303e-04 5.924586206674575806e-02 -1.583562493324279785e-01 4.238754883408546448e-02 -1.158373244106769562e-02 2.788713015615940094e-02 -2.986649610102176666e-02 -7.617071270942687988e-02 -9.167879819869995117e-02 3.030092120170593262e-01 -3.749226406216621399e-02 1.990757584571838379e-01 1.076400503516197205e-01 -1.814118623733520508e-01 9.102393686771392822e-02 4.495234042406082153e-02 8.734438568353652954e-02 2.414904683828353882e-01 2.856840007007122040e-02 2.549894750118255615e-01 1.865029633045196533e-01 -2.069315165281295776e-01 -1.252956688404083252e-01 5.664782598614692688e-02 1.666586846113204956e-01 -1.679389178752899170e-01 2.105772346258163452e-01 1.884729564189910889e-01 -1.086879894137382507e-01 -3.197307884693145752e-02 1.423111855983734131e-01 5.551542714238166809e-02 -1.331772357225418091e-01 -2.074552178382873535e-01 3.850146755576133728e-02 1.737317591905593872e-01 -7.419148832559585571e-02 1.828037351369857788e-01 9.993062913417816162e-02 2.846450544893741608e-02 -2.465021796524524689e-02 -6.546782702207565308e-02 1.404817998409271240e-01 -1.387063413858413696e-01 -1.115854736417531967e-02 -3.066560439765453339e-02 -7.735355198383331299e-02 1.128062307834625244e-01 5.620782077312469482e-02 1.722899228334426880e-01 -2.579447999596595764e-02 6.563505530357360840e-02 -7.719068229198455811e-02 6.272909790277481079e-02 6.919957697391510010e-02 -2.310225963592529297e-01 7.091836631298065186e-02 7.814280688762664795e-02 3.206419572234153748e-02 1.206424832344055176e-01 -2.238225787878036499e-01 -1.028574071824550629e-02 4.899613186717033386e-02 1.454885601997375488e-01 1.330669671297073364e-01 1.134362965822219849e-01 -1.810353100299835205e-01 -1.075077429413795471e-01
9.343181550502777100e-02 -2.329061776399612427e-01 1.375368088483810425e-01 2.296034619212150574e-02 1.315729785710573196e-02 -8.880659937858581543e-02 5.846318230032920837e-02 4.604134708642959595e-02 -9.711389429867267609e-03 5.756678991019725800e-03 1.269662193953990936e-02 -8.846124261617660522e-02 1.141597628593444824e-01 3.667672351002693176e-02 1.521600596606731415e-02 -2.119422517716884613e-02 9.886603057384490967e-02 1.066380962729454041e-01 -1.541948914527893066e-01 1.104655042290687561e-01 -5.968374200165271759e-03 -2.169524505734443665e-02 -1.355559229850769043e-01 -4.013939294964075089e-03 5.070898309350013733e-02 -3.722718358039855957e-02 6.057282537221908569e-02 5.621498450636863708e-03 -2.627290971577167511e-02 -1.493977904319763184e-01 -2.247310802340507507e-02 1.361019909381866455e-01 1.145018711686134338e-01 1.067019551992416382e-01 -6.418456882238388062e-02 3.213597089052200317e-02 -2.475965917110443115e-01 3.421315178275108337e-02 1.468772441148757935e-01 -2.284542322158813477e-01 1.710267513990402222e-01 1.231769621372222900e-01 -2.856610119342803955e-01 -1.419141441583633423e-01 -8.628946542739868164e-02 -8.382905274629592896e-02 -2.694713771343231201e-01 -1.709591895341873169e-01 -3.651605919003486633e-02 -1.147651076316833496e-01 8.417926728725433350e-02 1.179724112153053284e-01 -1.323743537068367004e-02 -2.173621654510498047e-01 -5.093974247574806213e-02 -6.423510611057281494e-02 1.423457562923431396e-01 7.853076793253421783e-03 -4.496668465435504913e-03 1.355232447385787964e-01 5.992701277136802673e-02 -2.321434617042541504e-01 3.867181763052940369e-02 -6.897881627082824707e-03 6.530238687992095947e-02 8.879620581865310669e-02 -2.666153199970722198e-02 -2.323907427489757538e-02 1.594177796505391598e-03 -9.858249872922897339e-02 -1.063201650977134705e-01 7.049660384654998779e-02 1.703924834728240967e-01 3.876239061355590820e-02 4.704135656356811523e-02 1.445353031158447266e-01 -1.409411281347274780e-01 -5.463342741131782532e-02 9.993856400251388550e-02 3.869873704388737679e-03 1.292901337146759033e-01 2.938091347459703684e-04 9.230213612318038940e-02 7.815040647983551025e-02 2.022535912692546844e-02 5.556255951523780823e-02 6.629550457000732422e-02 -1.375660449266433716e-01 5.136829242110252380e-02 1.232050806283950806e-01 -1.516727954149246216e-01 -3.865406662225723267e-02 7.242985069751739502e-02 -4.741264507174491882e-03 -5.796523392200469971e-02 -3.680373728275299072e-02 9.391883015632629395e-02 1.623667627573013306e-01 -1.437312066555023193e-01 -8.971372246742248535e-02 -2.984412014484405518e-02 1.066755950450897217e-01 9.951278567314147949e-02 4.727648571133613586e-03 -3.959011659026145935e-02 -5.302504170686006546e-03 6.806309521198272705e-02 6.066178902983665466e-02 -7.653049379587173462e-02 1.453436613082885742e-01 1.247892305254936218e-01 3.771262243390083313e-02 1.021073907613754272e-01 -6.428075954318046570e-03 6.154597178101539612e-02 -9.973019361495971680e-02 -4.617852158844470978e-03 1.527480334043502808e-01 1.380066275596618652e-01 -5.869082640856504440e-03 -1.077767834067344666e-01 -1.233299635350704193e-02 -2.872768417000770569e-02 1.057551205158233643e-01 -1.609617620706558228e-01 6.856093555688858032e-02 5.246866494417190552e-02 1.218940764665603638e-01
5.716548115015029907e-02 -1.184873282909393311e-01 6.780915707349777222e-02 1.402165926992893219e-02 -1.933236606419086456e-02 1.609065830707550049e-01 -5.175862833857536316e-02 1.954503357410430908e-02 -1.262811385095119476e-02 9.533983469009399414e-02 -3.424942493438720703e-02 1.171514466404914856e-01 7.483234256505966187e-02 -3.073397558182477951e-03 -2.133461087942123413e-02 -1.631229966878890991e-01 3.201300278306007385e-02 -4.723801091313362122e-02 -1.194838508963584900e-01 -5.943226441740989685e-02 1.557537019252777100e-01 3.582300618290901184e-02 -5.468556284904479980e-02 4.579636454582214355e-02 4.780179634690284729e-02 -1.019293591380119324e-01 -8.359178155660629272e-02 2.053079940378665924e-02 1.395521014928817749e-01 -3.872828092426061630e-04 -1.171310991048812866e-01 -1.349750906229019165e-01 7.729391008615493774e-02 6.084250286221504211e-02 -1.103612333536148071e-01 -2.240784652531147003e-02 -1.503422972746193409e-03 1.418741643428802490e-01 1.129755005240440369e-01 -1.060768887400627136e-01 -1.387426070868968964e-02 -1.431478466838598251e-02 -6.351009756326675415e-02 -1.471274644136428833e-01 -7.555160671472549438e-02 -1.566302776336669922e-01 -1.418953239917755127e-01 -3.452409431338310242e-02 -3.901321440935134888e-02 -4.800381883978843689e-02 -1.126722022891044617e-01 -1.024835184216499329e-01 5.891482159495353699e-02 -1.855759136378765106e-02 -5.571787804365158081e-02 3.845748025923967361e-03 -5.451251287013292313e-03 8.294157683849334717e-02 2.521188743412494659e-02 4.818234592676162720e-03 5.256891995668411255e-02 -1.501166820526123047e-01 -3.559506684541702271e-02 -8.833654969930648804e-02 -6.783725321292877197e-02 1.199385300278663635e-01 1.188700199127197266e-01 -1.222640722990036011e-01 1.813524030148983002e-02 3.193039819598197937e-02 -2.909081988036632538e-02 -1.040467396378517151e-01 6.824767589569091797e-02 1.128687337040901184e-01 1.030126288533210754e-01 9.108513593673706055e-02 -1.423607319593429565e-01 5.210747476667165756e-03 2.362579572945833206e-03 -6.318939477205276489e-02 -8.363063633441925049e-02 -9.481085091829299927e-02 -2.933536423370242119e-03 1.752674281597137451e-01 1.451368778944015503e-01 -1.078818589448928833e-01 8.118464052677154541e-02 -1.021228581666946411e-01 -3.376725688576698303e-02 -1.335094422101974487e-01 -1.042876206338405609e-02 -3.113438608124852180e-03 -4.368468746542930603e-02 7.876083999872207642e-02 -9.658802300691604614e-02 6.059227511286735535e-02 -2.286965958774089813e-02 9.008563309907913208e-02 -3.951239585876464844e-02 -1.206404790282249451e-01 -1.153476387262344360e-01 -4.719051998108625412e-03 -1.144311726093292236e-01 5.297276005148887634e-02 -7.918001711368560791e-02 1.067237257957458496e-01 -8.574396371841430664e-02 3.632259741425514221e-02 -2.318990882486104965e-03 -6.848598271608352661e-02 6.296040862798690796e-02 -3.816446661949157715e-02 3.764571994543075562e-02 4.336428269743919373e-02 -1.152056176215410233e-02 -1.628888212144374847e-02 5.537385586649179459e-03 -3.088954277336597443e-02 1.005637571215629578e-01 -1.151113882660865784e-01 1.191481947898864746e-01 1.325739920139312744e-01 1.667383313179016113e-02 4.181198775768280029e-02 7.041489332914352417e-02 4.334869980812072754e-02 1.054393500089645386e-01 -6.419059634208679199e-02
-5.820263177156448364e-02 -1.594464527443051338e-03 4.572207108139991760e-02 -1.265211254358291626e-01 1.314778178930282593e-01 -2.672046609222888947e-02 9.333255887031555176e-02 1.098701804876327515e-01 4.388467967510223389e-02 1.418400555849075317e-01 5.890364944934844971e-02 -3.469849377870559692e-02 -3.476676717400550842e-02 -3.163226693868637085e-02 1.252828538417816162e-01 -1.582302153110504150e-01 2.386077307164669037e-02 9.790066629648208618e-02 -1.298970878124237061e-01 1.571141034364700317e-01 1.858023740351200104e-02 2.003026902675628662e-01 1.085111200809478760e-01 -1.243480592966079712e-01 1.454245448112487793e-01 -1.709771901369094849e-01 -6.244045868515968323e-02 5.379030853509902954e-02 8.763720840215682983e-02 -7.030782289803028107e-03 -1.087106019258499146e-01 8.056317269802093506e-02 1.424499750137329102e-01 1.270030736923217773e-01 -5.702020227909088135e-02 8.014431223273277283e-03 6.321426946669816971e-03 -8.258480578660964966e-02 1.253834813833236694e-01 7.790757715702056885e-02 -1.107310205698013306e-01 1.091779023408889771e-01 -8.572716265916824341e-02 -1.507374793291091919e-01 -1.063395105302333832e-02 -6.348665058612823486e-02 -1.490817815065383911e-01 -8.194805681705474854e-02 5.324283149093389511e-03 3.447863971814513206e-03 1.092193722724914551e-01 -1.371226608753204346e-01 -6.103815045207738876e-03 4.928848892450332642e-02 -6.888019293546676636e-02 1.452493369579315186e-01 1.735987216234207153e-01 -3.315796330571174622e-02 -5.706984922289848328e-02 1.926573365926742554e-01 1.627377867698669434e-01 1.174380853772163391e-01 1.356720328330993652e-01 -1.749793738126754761e-01 -1.252946406602859497e-01 6.280031800270080566e-02 -8.340193890035152435e-03 1.311937570571899414e-01 -3.608721867203712463e-02 1.599751561880111694e-01 -3.059023525565862656e-03 -1.447101682424545288e-01 4.559089615941047668e-02 -2.609407715499401093e-02 -5.327792465686798096e-02 6.457225233316421509e-02 -2.346005290746688843e-02 1.339140385389328003e-01 -1.319874674081802368e-01 7.253018021583557129e-02 1.779730059206485748e-02 1.383512094616889954e-02 3.988381847739219666e-02 2.118086963891983032e-01 3.689784556627273560e-02 5.236110091209411621e-02 -2.066790610551834106e-01 -9.962163865566253662e-02 -9.681113064289093018e-02 -1.666945870965719223e-03 1.773054152727127075e-01 -5.785996466875076294e-02 -9.507322311401367188e-02 -9.542831778526306152e-02 -1.006657816469669342e-02 9.970576316118240356e-02 6.223641335964202881e-02 -4.202583804726600647e-02 -1.016549915075302124e-01 -6.056236475706100464e-02 -1.508427560329437256e-01 1.289290338754653931e-01 -1.505330353975296021e-01 -1.563329249620437622e-01 8.168552070856094360e-02 1.502468716353178024e-02 -1.378304790705442429e-02 8.155294507741928101e-02 -3.817991912364959717e-02 -2.122531831264495850e-01 -1.464720815420150757e-01 1.031158715486526489e-01 -8.845406770706176758e-02 -7.578255236148834229e-02 -7.260317355394363403e-02 -6.486909091472625732e-02 5.399584397673606873e-02 -1.314422339200973511e-01 2.171036303043365479e-01 1.556218415498733521e-01 -5.190009996294975281e-02 7.999809458851814270e-04 -5.379276350140571594e-02 2.463203668594360352e-02 -1.079836860299110413e-01 1.370778530836105347e-01 1.371702877804636955e-03 5.466963350772857666e-02
4.417337104678153992e-02 8.998234570026397705e-02 -9.979043900966644287e-02 -4.935271292924880981e-02 1.074130907654762268e-01 -3.443006053566932678e-02 1.757680065929889679e-02 -7.862645387649536133e-02 9.877952188253402710e-02 1.807154156267642975e-02 1.553191840648651123e-01 5.869471933692693710e-03 5.672853067517280579e-02 2.774248458445072174e-02 1.312700808048248291e-01 1.481838896870613098e-02 -1.890756934881210327e-02 -5.785872787237167358e-02 -5.784677341580390930e-03 1.034209355711936951e-01 -1.133173704147338867e-01 -1.801255643367767334e-01 1.423677057027816772e-01 -9.440795518457889557e-03 -4.222993552684783936e-02 -9.417773783206939697e-02 -1.484726518392562866e-01 1.001709699630737305e-01 5.306422337889671326e-02 -5.580051988363265991e-02 -6.883964687585830688e-02 7.859321683645248413e-02 -1.457794308662414551e-01 7.794623076915740967e-02 -7.874011993408203125e-03 1.211950927972793579e-01 -1.419954895973205566e-01 2.126588672399520874e-01 1.234354916960000992e-02 -7.887215912342071533e-02 -1.408459395170211792e-01 5.744463577866554260e-02 -1.882569491863250732e-01 9.051971882581710815e-02 -4.116320237517356873e-02 1.314436495304107666e-01 -1.785060167312622070e-01 -1.731038242578506470e-01 1.613910496234893799e-01 7.112529873847961426e-02 1.282319575548171997e-01 -4.242827743291854858e-02 -2.037767879664897919e-02 9.815608710050582886e-02 -2.654897235333919525e-02 -6.787276268005371094e-02 -1.043409854173660278e-01 -1.455909013748168945e-01 3.459459543228149414e-02 -1.242289692163467407e-02 -1.003015041351318359e-01 -9.206671267747879028e-02 -7.220013439655303955e-02 -1.145106479525566101e-01 8.675417047925293446e-04 -1.846436262130737305e-01 1.426798403263092041e-01 1.398499459028244019e-01 6.565189361572265625e-02 -1.870599538087844849e-01 7.261887192726135254e-02 1.872563660144805908e-01 1.133633628487586975e-01 4.854848235845565796e-02 -1.725405901670455933e-01 6.512529402971267700e-02 1.087710857391357422e-01 -8.482147939503192902e-03 2.004817575216293335e-01 1.325826048851013184e-01 -8.327970653772354126e-02 -4.627100378274917603e-02 -1.293423622846603394e-01 -5.847741290926933289e-02 -7.312685996294021606e-02 -3.753336146473884583e-02 1.343510597944259644e-01 -1.279077380895614624e-01 1.096403449773788452e-01 1.799323111772537231e-01 -1.593635827302932739e-01 1.834397166967391968e-01 -6.960646249353885651e-03 -8.014552295207977295e-02 -5.963873863220214844e-02 -1.806687563657760620e-01 -1.542365103960037231e-01 -1.511936169117689133e-02 4.124773666262626648e-02 -2.308428473770618439e-02 -1.423152238130569458e-01 -1.095777377486228943e-01 2.041110098361968994e-01 -1.055200695991516113e-01 -7.990397512912750244e-03 6.554199010133743286e-02 -4.253545403480529785e-02 9.963466972112655640e-02 1.338653452694416046e-02 1.467874646186828613e-01 1.486052870750427246e-01 6.081864237785339355e-02 1.553274691104888916e-01 -7.973897457122802734e-02 2.259024381637573242e-01 -1.407459974288940430e-01 -1.108105704188346863e-01 -7.604039460420608521e-02 -1.274623721837997437e-01 -1.884356290102005005e-01 8.705572038888931274e-02 9.767364710569381714e-02 -7.593644410371780396e-02 2.259800210595130920e-03 -1.231560111045837402e-01 1.513764560222625732e-01 -9.282641857862472534e-02 1.669993400573730469e-01
