5.564161017537117004e-02
-1.286350283771753311e-02
-6.364521384239196777e-02
-2.808216959238052368e-02
-6.145409774035215378e-03
-1.340831257402896881e-02
-2.674432238563895226e-03
-5.428113974630832672e-03
1.398691814392805099e-02
-3.720803186297416687e-02
4.709491971880197525e-03
-2.689167484641075134e-02
-8.307611942291259766e-02
6.588447093963623047e-02
-9.606710635125637054e-03
-2.388329803943634033e-02
2.951572649180889130e-02
-6.385222077369689941e-02
-8.080198429524898529e-03
3.433073870837688446e-03
-2.610714174807071686e-02
-4.054442048072814941e-02
5.864759907126426697e-03
-1.039271131157875061e-01
-1.814575865864753723e-02
-2.811854518949985504e-02
-1.223378069698810577e-02
8.882261812686920166e-03
-1.794752292335033417e-02
-3.874453529715538025e-02
2.973811887204647064e-02
-6.483735889196395874e-02
7.766667008399963379e-02
-2.214935608208179474e-02
3.241367265582084656e-02
-3.396149724721908569e-02
-1.538085751235485077e-02
-5.488695949316024780e-02
7.358829677104949951e-02
1.419977564364671707e-02
1.637915708124637604e-02
-2.210991457104682922e-02
3.016818873584270477e-02
-2.122467383742332458e-02
-4.764064028859138489e-02
-4.903141874819993973e-03
-2.583498507738113403e-02
-8.299205219373106956e-04
3.143150359392166138e-02
-7.243391871452331543e-02
3.684221953153610229e-02
3.587916120886802673e-02
-3.220656514167785645e-02
-1.151301991194486618e-02
-5.809403210878372192e-02
-6.388571346178650856e-04
-7.086140662431716919e-02
-2.972674556076526642e-02
-7.759226486086845398e-03
-1.372629031538963318e-02
2.009894885122776031e-02
-4.510092735290527344e-02
-4.177610203623771667e-02
5.778149515390396118e-02
