9.382400661706924438e-02
6.405267864465713501e-02
8.589629828929901123e-02
9.444054961204528809e-02
-7.795760780572891235e-02
-1.772067626006901264e-03
-5.650203675031661987e-03
1.071035563945770264e-01
-8.877983316779136658e-03
1.544680744409561157e-01
1.102085039019584656e-01
-4.622086510062217712e-02
4.042874649167060852e-02
1.130015850067138672e-01
7.252768427133560181e-02
5.439060926437377930e-02
9.542803466320037842e-02
-6.547299027442932129e-02
1.430434733629226685e-02
-3.404070064425468445e-02
6.843882799148559570e-02
1.428317129611968994e-01
1.363453567028045654e-01
1.094009429216384888e-01
2.134516090154647827e-02
6.258665025234222412e-02
-3.772674873471260071e-02
-2.505002357065677643e-02
6.252076476812362671e-02
5.037815868854522705e-02
5.396901816129684448e-02
1.677256077527999878e-01
-8.703912608325481415e-03
9.710311889648437500e-02
9.973281621932983398e-02
3.660727292299270630e-02
3.218374028801918030e-02
9.070318937301635742e-02
1.075427159667015076e-01
-6.172076612710952759e-02
1.425036489963531494e-01
6.998795270919799805e-02
8.975316584110260010e-02
2.613999135792255402e-02
8.725915849208831787e-02
-1.651049591600894928e-02
-1.109139546751976013e-01
2.795823104679584503e-02
7.117921859025955200e-02
1.751428097486495972e-02
-7.749160379171371460e-02
5.926806479692459106e-02
1.121032983064651489e-01
1.280826926231384277e-01
7.628863304853439331e-02
-1.082042511552572250e-02
8.485868573188781738e-02
5.481067299842834473e-02
9.216056019067764282e-02
5.859592556953430176e-02
1.482824087142944336e-01
1.095524504780769348e-01
3.470811992883682251e-02
-8.797576278448104858e-02
