-2.788443304598331451e-02
-4.568615928292274475e-02
5.237457528710365295e-02
5.417168140411376953e-02
3.798217698931694031e-02
1.530784741044044495e-02
6.045638024806976318e-02
3.453148156404495239e-02
6.169294938445091248e-02
-2.800004184246063232e-02
1.880893297493457794e-02
3.372154757380485535e-02
5.691855400800704956e-02
5.267384648323059082e-02
-1.226246170699596405e-02
5.491299927234649658e-02
-1.215243805199861526e-02
4.113764688372612000e-02
5.578223615884780884e-02
3.759427741169929504e-02
5.249042063951492310e-02
3.260499238967895508e-02
-2.364707365632057190e-02
5.847130343317985535e-02
2.152874134480953217e-02
-3.506084159016609192e-02
9.036983363330364227e-03
6.183032691478729248e-02
2.232785336673259735e-02
-5.911960080265998840e-02
-2.137025631964206696e-02
3.359714150428771973e-02
2.182583138346672058e-02
2.370871044695377350e-02
-1.806513965129852295e-02
-3.097078390419483185e-02
9.693061932921409607e-03
2.612775191664695740e-02
-2.010519430041313171e-02
2.139557525515556335e-02
2.822737768292427063e-02
6.822125520557165146e-03
5.877579003572463989e-02
4.562974348664283752e-02
1.693176478147506714e-02
6.392461061477661133e-02
-3.123742714524269104e-02
3.255995735526084900e-02
8.388335816562175751e-03
4.547995049506425858e-03
-3.078084066510200500e-02
5.543934926390647888e-02
5.032846704125404358e-02
2.845689654350280762e-02
-3.117025084793567657e-02
2.408452518284320831e-02
3.415422886610031128e-02
4.017730429768562317e-02
5.165594071149826050e-02
3.798723965883255005e-02
2.358746528625488281e-02
3.405223041772842407e-02
5.138592794537544250e-02
-2.167525514960289001e-02
6.654951721429824829e-02
3.131582215428352356e-02
2.492223307490348816e-02
-5.307932570576667786e-02
-1.638329587876796722e-02
3.399855643510818481e-02
-3.962137177586555481e-02
2.745735272765159607e-02
5.390472710132598877e-02
2.035866305232048035e-02
3.285581246018409729e-03
3.643118590116500854e-02
3.449596092104911804e-02
3.368252888321876526e-02
-1.790181733667850494e-02
2.372227795422077179e-02
5.166769400238990784e-02
4.723066091537475586e-02
2.486882172524929047e-02
1.425518747419118881e-02
5.895102769136428833e-02
-1.339925103820860386e-03
3.587770089507102966e-02
-4.007777199149131775e-02
5.435235053300857544e-02
6.123587861657142639e-02
1.717254333198070526e-02
4.074662923812866211e-02
-3.292131796479225159e-02
4.279791563749313354e-02
4.558090493083000183e-02
5.329425632953643799e-02
-1.642165146768093109e-02
3.570403531193733215e-02
-9.401447139680385590e-03
5.021048337221145630e-02
5.016308277845382690e-02
4.120331257581710815e-02
-2.368123270571231842e-02
3.535903990268707275e-02
1.421988382935523987e-02
-7.901387289166450500e-03
1.258738059550523758e-02
5.671684816479682922e-02
-1.133058965206146240e-02
3.360233828425407410e-02
-3.611620888113975525e-02
6.301172077655792236e-02
4.479892551898956299e-02
-1.528400462120771408e-02
3.599454089999198914e-02
3.139550238847732544e-02
3.317645564675331116e-02
-4.616899043321609497e-02
5.794801190495491028e-02
1.255282200872898102e-02
5.078586935997009277e-02
4.966288805007934570e-02
3.643963858485221863e-02
4.174873977899551392e-02
2.897179126739501953e-02
4.929580911993980408e-02
6.496674567461013794e-02
4.002133384346961975e-02
