1.358348429203033447e-01 -2.177086845040321350e-02 -1.234948262572288513e-01 4.852432906627655029e-01
1.848530024290084839e-03 -3.753186762332916260e-01 -4.196115136146545410e-01 1.393703520298004150e-01
-3.488751649856567383e-01 5.966718494892120361e-02 3.093529045581817627e-01 -5.814429521560668945e-01
5.859470963478088379e-01 2.637203633785247803e-01 -2.893953919410705566e-01 1.862947642803192139e-01
2.785961627960205078e-01 3.403703570365905762e-01 5.835516452789306641e-01 -3.510649129748344421e-02
3.040782809257507324e-01 -3.365370333194732666e-01 -4.270646274089813232e-01 -2.555362582206726074e-01
6.077741980552673340e-01 -1.403374969959259033e-01 2.877886593341827393e-01 -3.590191900730133057e-01
5.035310983657836914e-01 2.436795458197593689e-02 -5.646706223487854004e-01 -5.548321083188056946e-02
-2.707511186599731445e-01 3.958814442157745361e-01 -1.801737211644649506e-02 -2.832732796669006348e-01
2.479571104049682617e-02 2.931442856788635254e-01 3.674911558628082275e-01 -5.921066403388977051e-01
4.153187870979309082e-01 -1.516913324594497681e-01 2.739957869052886963e-01 -4.233272969722747803e-01
2.739332914352416992e-01 -5.178868174552917480e-01 -3.038783371448516846e-02 -4.346553981304168701e-01
1.464588940143585205e-01 1.811075210571289062e-01 5.839186906814575195e-01 -2.694534361362457275e-01
1.592881083488464355e-01 4.791409969329833984e-01 -3.697901368141174316e-01 3.224539160728454590e-01
-7.454388309270143509e-03 2.443533837795257568e-01 -3.446387946605682373e-01 -6.027333140373229980e-01
4.466975629329681396e-01 -4.726638495922088623e-01 -4.384249746799468994e-01 -2.122574299573898315e-01
