1.969392783939838409e-02 4.920160863548517227e-04 1.225719898939132690e-01 5.041497573256492615e-02 8.651039749383926392e-02 8.599038422107696533e-02 -6.679251790046691895e-02 -1.048369612544775009e-02 -3.807350620627403259e-02 3.496396914124488831e-02 1.580306440591812134e-01 -8.650864660739898682e-02 1.031507253646850586e-01 -2.689400874078273773e-02 -3.606455028057098389e-02 1.463282257318496704e-01 -2.797513641417026520e-02 1.653998643159866333e-01 -7.642651908099651337e-03 -1.054211053997278214e-02 -1.146672889590263367e-01 -2.388245612382888794e-02 1.289478503167629242e-03 1.461371183395385742e-01 1.001120433211326599e-01 1.949471980333328247e-01 -3.329958766698837280e-02 3.317682072520256042e-02 -5.779600143432617188e-02 4.671126604080200195e-02 -5.291874520480632782e-03 -5.592404305934906006e-02 1.011215597391128540e-01 1.008969396352767944e-01 1.426500678062438965e-01 6.907191872596740723e-02 -2.560186386108398438e-02 -2.457090653479099274e-02 4.492907226085662842e-02 8.986894041299819946e-03 -4.819442983716726303e-04 5.451449751853942871e-02 2.536432258784770966e-02 8.723965287208557129e-02 -2.013067156076431274e-02 6.378361489623785019e-03 5.394609645009040833e-02 2.678632363677024841e-02 1.480903625488281250e-01 -3.065190510824322701e-03 4.229675047099590302e-03 7.562551647424697876e-02 8.415193110704421997e-02 9.642506390810012817e-02 8.793552964925765991e-02 -7.519956678152084351e-02 2.107243835926055908e-01 -5.027235671877861023e-02 3.560231300070881844e-03 1.819301955401897430e-02 3.595732524991035461e-02 2.148042321205139160e-01 4.234834574162960052e-03 -7.235342264175415039e-02
4.413080587983131409e-02 -3.693949547596275806e-04 -9.037898480892181396e-02 -1.668108701705932617e-01 -2.423373609781265259e-01 -8.393550664186477661e-02 2.455394715070724487e-02 -2.179574370384216309e-01 4.034594446420669556e-02 -2.741038799285888672e-02 -6.246336549520492554e-02 7.673986256122589111e-02 -2.415509372949600220e-01 -9.561073035001754761e-02 5.163088813424110413e-02 -2.048734128475189209e-01 1.024088039994239807e-01 -1.254448443651199341e-01 3.171261772513389587e-02 9.822141379117965698e-03 -2.741941250860691071e-02 -6.785814464092254639e-02 2.129098027944564819e-02 -1.792488098144531250e-01 -2.126651257276535034e-01 -1.048750802874565125e-01 8.016956597566604614e-02 8.554379642009735107e-02 4.373342171311378479e-02 -2.766954153776168823e-02 1.002621185034513474e-02 2.364462008699774742e-03 -2.247442454099655151e-01 -1.096883416175842285e-01 -2.283204644918441772e-01 -7.357697933912277222e-02 -2.358555793762207031e-01 -1.018872708082199097e-01 -3.192358091473579407e-02 6.703496444970369339e-03 7.266744226217269897e-02 6.045598909258842468e-02 1.358439773321151733e-01 5.640391632914543152e-02 -1.583543866872787476e-01 3.261858224868774414e-02 -9.114363044500350952e-02 7.306025922298431396e-02 -2.847150899469852448e-02 -1.198633387684822083e-01 2.648968994617462158e-02 5.802358686923980713e-02 -1.717063337564468384e-01 -2.002685517072677612e-01 -1.411470025777816772e-01 2.624391391873359680e-02 -2.160274386405944824e-01 -9.805841371417045593e-03 3.107848344370722771e-03 -7.551129441708326340e-03 -7.049090415239334106e-02 -1.804826706647872925e-01 2.575175464153289795e-02 -1.083676740527153015e-01
-5.804174765944480896e-02 4.773508757352828979e-02 -4.458144307136535645e-02 1.636292668990790844e-03 1.403848379850387573e-01 -8.737386018037796021e-02 -6.381300836801528931e-02 -5.355393514037132263e-02 6.243391707539558411e-02 -5.001605302095413208e-02 -8.110188692808151245e-02 -1.242252141237258911e-01 -4.757500067353248596e-02 5.923140048980712891e-02 -3.698677942156791687e-02 -9.627894498407840729e-03 -5.906634777784347534e-02 -4.767476394772529602e-02 -8.720288984477519989e-03 -1.960255950689315796e-02 -6.186432018876075745e-02 -3.982891212217509747e-04 2.393508553504943848e-01 5.467868968844413757e-02 2.459717541933059692e-01 -6.960727274417877197e-02 2.879228889942169189e-01 1.534529328346252441e-01 -8.720684796571731567e-02 -6.483396142721176147e-02 1.984139531850814819e-01 -1.390497852116823196e-02 1.944717466831207275e-01 -6.450949609279632568e-02 -3.051884286105632782e-02 -8.703483641147613525e-02 -1.501526962965726852e-02 -1.102687641978263855e-01 4.202426224946975708e-02 -3.364042192697525024e-02 1.907696723937988281e-01 2.089814096689224243e-01 -1.085207834839820862e-01 -5.917809158563613892e-02 3.171440660953521729e-01 2.515359818935394287e-01 -1.562640815973281860e-02 1.736961305141448975e-01 -7.226244360208511353e-02 2.466434091329574585e-01 1.036203280091285706e-01 3.655049204826354980e-01 1.783126890659332275e-01 -9.116581827402114868e-02 2.361697554588317871e-01 2.964158952236175537e-01 -2.371333353221416473e-02 -1.091814413666725159e-02 6.403763592243194580e-02 -5.090599507093429565e-02 -8.758055977523326874e-03 -4.693055152893066406e-02 1.185366325080394745e-02 1.893744617700576782e-01
2.815128490328788757e-02 3.072202205657958984e-03 1.012853928841650486e-03 3.493440570309758186e-03 4.207392409443855286e-02 2.326838672161102295e-02 1.927305757999420166e-02 4.845654591917991638e-03 1.450960524380207062e-02 -5.876910313963890076e-02 6.330762058496475220e-02 2.860470907762646675e-03 1.013929396867752075e-02 -4.365481063723564148e-02 -4.827587306499481201e-02 -8.036897331476211548e-02 -1.020170096307992935e-02 3.130429657176136971e-03 -1.385389245115220547e-03 2.028900943696498871e-02 7.075287401676177979e-02 1.078776922076940536e-02 5.729392915964126587e-02 -6.558262556791305542e-02 3.850530833005905151e-02 -3.562200441956520081e-02 4.685915634036064148e-02 3.364866599440574646e-02 8.479870110750198364e-02 1.455298857763409615e-03 3.373510017991065979e-02 -3.252909518778324127e-04 6.938443332910537720e-02 -5.556000396609306335e-02 5.538698751479387283e-04 7.106621563434600830e-02 -6.577695161104202271e-02 4.321224056184291840e-03 -5.674126558005809784e-03 -5.602282285690307617e-02 9.501954913139343262e-02 4.359805211424827576e-02 -6.583645939826965332e-02 5.531139206141233444e-03 4.853250086307525635e-02 5.842358618974685669e-02 9.486967697739601135e-03 4.088589549064636230e-02 1.144409272819757462e-02 4.291632398962974548e-02 -8.956077508628368378e-03 3.562939912080764771e-02 2.956270053982734680e-02 -4.139737039804458618e-02 9.864093363285064697e-02 7.554331421852111816e-02 -2.205395884811878204e-02 1.736288890242576599e-02 -4.401671886444091797e-02 -1.064576441422104836e-03 1.970872655510902405e-02 1.778703927993774414e-02 -7.919906824827194214e-02 4.920420423150062561e-02
1.008075922727584839e-01 1.369058247655630112e-02 1.028916090726852417e-01 -8.989932388067245483e-02 -1.227162894792854786e-03 -1.951591372489929199e-01 1.352372020483016968e-01 -1.696459501981735229e-01 -1.509280651807785034e-01 8.789262175559997559e-02 1.378626227378845215e-01 -2.048069536685943604e-01 -1.724017560482025146e-01 1.001009717583656311e-01 1.396255940198898315e-02 -1.420068368315696716e-02 -2.986595332622528076e-01 -1.921408474445343018e-01 -1.758910566568374634e-01 1.607153862714767456e-01 -2.470502853393554688e-01 2.585789188742637634e-02 7.878553867340087891e-02 5.815541371703147888e-02 -2.417352423071861267e-02 -2.496000528335571289e-01 -2.545655965805053711e-01 -2.462318390607833862e-01 -2.517613470554351807e-01 1.463129073381423950e-01 1.629728637635707855e-02 -8.245982974767684937e-02 -2.187126129865646362e-01 -4.432478547096252441e-02 -6.259688176214694977e-03 -2.517832517623901367e-01 -7.332731969654560089e-03 -2.883079349994659424e-01 4.238460212945938110e-02 1.208389103412628174e-01 -1.836373955011367798e-01 1.086956188082695007e-01 -2.066196799278259277e-01 -2.153364866971969604e-01 3.502902388572692871e-02 5.023553501814603806e-03 9.847219288349151611e-02 -1.034587472677230835e-01 -2.931371331214904785e-01 -8.374631404876708984e-02 1.044578999280929565e-01 3.380629420280456543e-02 -1.790881752967834473e-01 -2.753384113311767578e-01 -1.578274816274642944e-01 -1.400749981403350830e-01 4.512920230627059937e-02 1.314788907766342163e-01 6.210922263562679291e-03 1.156900003552436829e-01 -1.867224834859371185e-02 4.190738126635551453e-02 4.860620200634002686e-02 1.056786552071571350e-01
1.148333698511123657e-01 -4.655746370553970337e-02 1.418955177068710327e-01 8.658766001462936401e-02 4.830414056777954102e-02 1.166907884180545807e-02 2.179841399192810059e-01 2.913901209831237793e-02 -7.061764597892761230e-02 1.434232443571090698e-01 2.365446090698242188e-01 1.115804612636566162e-01 4.524343647062778473e-03 -3.330770507454872131e-02 -2.740231575444340706e-03 1.028502359986305237e-01 -7.963535189628601074e-02 8.379746973514556885e-02 -1.219516173005104065e-01 1.355842649936676025e-01 -1.342008113861083984e-01 -1.066835522651672363e-01 3.994162753224372864e-02 7.834354788064956665e-02 8.696690201759338379e-02 -4.549599438905715942e-02 -8.291838318109512329e-02 9.941927343606948853e-02 -1.155862361192703247e-01 1.899511218070983887e-01 5.598726216703653336e-03 -1.514908764511346817e-02 -7.962319999933242798e-02 4.939118400216102600e-02 -4.635789990425109863e-02 -3.962512686848640442e-02 2.792421542108058929e-02 8.526724576950073242e-02 -7.475579530000686646e-02 1.150957196950912476e-01 -4.674238618463277817e-03 9.381996840238571167e-02 7.419496029615402222e-02 -7.237999141216278076e-02 1.279267072677612305e-01 -5.632145702838897705e-02 9.039996564388275146e-02 -3.535166010260581970e-02 -9.067119657993316650e-02 4.623841121792793274e-02 1.132357567548751831e-01 -1.018038168549537659e-01 6.727379746735095978e-03 1.181422993540763855e-01 -5.990663170814514160e-02 3.701504319906234741e-02 8.163235336542129517e-02 -1.796922087669372559e-02 7.446409016847610474e-02 1.196999624371528625e-01 5.784449726343154907e-02 8.924331516027450562e-02 -6.369950715452432632e-03 8.905965834856033325e-02
