9.025096148252487183e-02
1.260676980018615723e-01
5.766050517559051514e-02
7.800815999507904053e-02
-6.161055341362953186e-02
-1.270105037838220596e-02
7.865656167268753052e-03
5.518452450633049011e-02
2.465067058801651001e-02
-2.477620728313922882e-02
3.613863140344619751e-03
-1.000534296035766602e-01
7.350618392229080200e-02
1.356821209192276001e-01
2.664339728653430939e-02
3.599940985441207886e-02
-1.352918148040771484e-01
1.181313991546630859e-01
5.098617821931838989e-02
-9.276352077722549438e-02
1.057085543870925903e-01
7.063067704439163208e-02
9.114893525838851929e-02
7.824604958295822144e-02
3.618207946419715881e-02
-6.694290786981582642e-02
1.141090318560600281e-01
-1.149430721998214722e-01
1.376277208328247070e-01
6.622698903083801270e-02
8.740037679672241211e-02
-5.454299040138721466e-03
7.145810127258300781e-02
8.455201238393783569e-02
6.438288092613220215e-02
-4.521813988685607910e-02
4.194379970431327820e-02
4.587486013770103455e-02
3.884408250451087952e-02
-2.484792610630393028e-03
7.990439236164093018e-02
-7.799129933118820190e-02
4.578870162367820740e-02
9.086722880601882935e-02
8.996541798114776611e-02
4.927368462085723877e-02
5.559117347002029419e-02
-3.523246198892593384e-02
6.219933554530143738e-02
-7.716363668441772461e-02
4.851879552006721497e-02
4.860505461692810059e-02
8.003469556570053101e-02
7.419124990701675415e-02
6.364505738019943237e-02
-7.741563022136688232e-02
6.677965819835662842e-02
-7.167800515890121460e-02
-8.103656768798828125e-02
-9.624024480581283569e-02
1.270621549338102341e-02
5.959380790591239929e-02
4.758696258068084717e-02
-1.362968049943447113e-02
