7.801916450262069702e-02 -2.710690200328826904e-01
9.586946666240692139e-02 -3.312738835811614990e-01
6.952189654111862183e-02 -1.254936605691909790e-01
1.920629665255546570e-02 4.886574298143386841e-02
-1.381999580189585686e-03 -1.217782124876976013e-02
5.329765917849726975e-05 2.214793148880289664e-08
1.499093603342771530e-02 -1.425065798684954643e-03
6.779406219720840454e-03 1.677112840116024017e-02
3.449603915214538574e-02 -8.630000799894332886e-02
-6.678026914596557617e-02 -2.378728054463863373e-02
3.990659117698669434e-02 -3.258915990591049194e-02
-2.033592760562896729e-02 -8.501274511218070984e-03
5.349367111921310425e-02 -2.078492790460586548e-01
2.235957086086273193e-01 -2.418315261602401733e-01
1.269656140357255936e-02 2.816331107169389725e-03
-7.363715767860412598e-02 3.847309201955795288e-02
-6.317649781703948975e-02 4.607175290584564209e-02
2.368720620870590210e-01 -2.083547860383987427e-01
-1.989671587944030762e-02 -9.490749984979629517e-02
-2.936704084277153015e-02 -2.849826356396079063e-03
1.296809315681457520e-01 -4.415174573659896851e-02
4.668032284826040268e-03 8.751352876424789429e-02
6.702189147472381592e-02 -6.172581017017364502e-02
1.392995864152908325e-01 -1.986502856016159058e-01
-2.197080478072166443e-02 7.374014705419540405e-02
-1.892946602310985327e-05 -3.370157675817608833e-03
1.236369907855987549e-01 -2.039515972137451172e-01
6.603674963116645813e-03 6.790751218795776367e-02
2.479045540094375610e-01 -8.725679665803909302e-02
-6.224396202014759183e-06 4.420051723718643188e-02
-3.557039797306060791e-02 -2.408654391765594482e-01
-5.539830774068832397e-03 3.177663311362266541e-04
1.143140271306037903e-01 -1.693285703659057617e-01
1.634821444749832153e-01 -2.354478538036346436e-01
1.128321979194879532e-03 9.222435206174850464e-02
-7.976906601925293216e-08 -1.430260390043258667e-02
4.442761093378067017e-02 -5.663862451910972595e-02
7.331629283726215363e-03 -1.603716867975890636e-03
5.567761138081550598e-02 -6.978505104780197144e-02
8.274596184492111206e-02 -8.643326163291931152e-02
9.971633553504943848e-02 -2.005489319562911987e-01
1.729095876216888428e-01 1.184656620025634766e-01
5.833096802234649658e-02 -4.565877467393875122e-02
1.315538287162780762e-01 -2.084824293851852417e-01
1.000061854720115662e-01 -9.038320928812026978e-02
-1.719994237646460533e-03 1.393225975334644318e-02
-1.372859813272953033e-02 5.112147331237792969e-02
-3.839398414129391313e-05 -4.040182381868362427e-02
-4.775037523359060287e-03 -1.271213740110397339e-01
-7.611261308193206787e-02 -5.410062894225120544e-02
-1.640402898192405701e-02 3.549326583743095398e-02
4.129095032112672925e-06 7.862017303705215454e-02
-3.711380437016487122e-02 -2.152080088853836060e-01
5.865561217069625854e-02 -1.547262221574783325e-01
7.751969248056411743e-02 -3.542124480009078979e-02
1.344156637787818909e-02 5.515960976481437683e-03
-4.931438714265823364e-03 5.000028014183044434e-02
-4.559252038598060608e-02 7.272947579622268677e-02
-7.539237290620803833e-02 6.096327304840087891e-02
-7.112144958227872849e-03 -4.156706854701042175e-03
2.242037281394004822e-02 -4.783518670592457056e-04
7.504397630691528320e-02 -1.475705057382583618e-01
2.079112688079476357e-03 7.802621275186538696e-02
2.065241336822509766e-02 -9.297779202461242676e-02
