-2.661833073943853378e-03
5.928568169474601746e-02
-2.425481937825679779e-02
2.945563197135925293e-02
2.081784605979919434e-02
2.556109800934791565e-02
1.543511450290679932e-02
2.037379518151283264e-02
1.947138458490371704e-02
-2.929949946701526642e-02
6.391073763370513916e-02
6.513611972332000732e-02
2.313706837594509125e-02
-5.054168775677680969e-02
-9.198120795190334320e-03
6.561569869518280029e-02
2.902269177138805389e-02
-3.950734063982963562e-02
8.754819631576538086e-03
6.924556195735931396e-02
1.334232091903686523e-02
5.375070124864578247e-02
2.693626843392848969e-02
5.256535485386848450e-02
3.039094991981983185e-02
2.930442802608013153e-02
-3.093849681317806244e-02
3.592567890882492065e-02
-5.742916837334632874e-03
9.307219088077545166e-02
4.140505194664001465e-02
5.832356587052345276e-02
4.742312058806419373e-02
1.506225951015949249e-02
-3.500773385167121887e-02
4.364920780062675476e-02
6.487040966749191284e-02
-6.231374107301235199e-03
2.194692939519882202e-02
1.800679787993431091e-02
3.171647712588310242e-02
4.262220859527587891e-02
6.129286810755729675e-02
-1.467824820429086685e-02
1.080589089542627335e-02
4.294412210583686829e-02
6.371752917766571045e-02
1.320583187043666840e-02
4.417724162340164185e-02
-1.402852032333612442e-02
6.463017780333757401e-03
3.660142049193382263e-02
1.485557854175567627e-02
1.086448803544044495e-01
4.338553175330162048e-02
6.790836900472640991e-02
-1.298567093908786774e-02
-4.195768386125564575e-03
1.191912442445755005e-01
6.333891302347183228e-02
7.622890919446945190e-02
3.297035023570060730e-02
7.330763339996337891e-02
2.311490103602409363e-02
