3.601271659135818481e-02
3.853031992912292480e-02
6.137047335505485535e-02
1.477844826877117157e-02
8.251710236072540283e-02
1.848953217267990112e-02
-2.071296876238193363e-06
1.047727745026350021e-02
6.601997464895248413e-02
-2.120338939130306244e-02
-2.712014876306056976e-02
-2.500829286873340607e-02
-1.571432128548622131e-02
5.970622226595878601e-02
6.366169452667236328e-02
1.201007049530744553e-02
4.551257938146591187e-02
2.130910567939281464e-02
-4.516363888978958130e-02
3.396630287170410156e-02
7.741423696279525757e-02
-1.132690813392400742e-02
-1.588766276836395264e-02
6.445625424385070801e-02
3.088042722083628178e-04
4.360976815223693848e-02
5.835563316941261292e-02
7.431062310934066772e-02
6.681607663631439209e-02
5.166702717542648315e-02
-3.811106085777282715e-02
7.148146629333496094e-02
-3.836992010474205017e-02
2.764431387186050415e-02
5.504081398248672485e-02
6.369993090629577637e-02
-2.341575734317302704e-02
1.758180931210517883e-02
-3.205536305904388428e-02
2.901675179600715637e-02
4.702842980623245239e-02
6.112198159098625183e-02
-2.941306307911872864e-02
-7.289319485425949097e-02
-2.354046329855918884e-02
7.645526528358459473e-02
-2.082332409918308258e-02
7.106830924749374390e-02
6.051435694098472595e-02
-3.596270829439163208e-02
3.575075790286064148e-02
2.019203081727027893e-02
6.291352957487106323e-02
-3.171073645353317261e-02
4.823279008269309998e-02
7.203684002161026001e-02
8.711753040552139282e-02
5.364226549863815308e-02
-2.689080778509378433e-03
4.470565915107727051e-02
3.001216053962707520e-02
3.717805072665214539e-02
5.661078169941902161e-02
-4.999310895800590515e-02
