1.081901192665100098e-01 -8.367254585027694702e-02 2.459224779158830643e-03 -8.598704822361469269e-03 -1.985211372375488281e-01 -1.554211825132369995e-01 6.149635091423988342e-02 3.240816593170166016e-01 -8.126839250326156616e-02 1.018715351819992065e-01 1.573231965303421021e-01 -3.925478458404541016e-02 9.048760682344436646e-02 -6.972152739763259888e-02 2.824771404266357422e-02 8.123261854052543640e-03 2.160422131419181824e-02 1.999951303005218506e-01 6.014933460392057896e-04 1.853982955217361450e-01 1.003305763006210327e-01 -1.793505996465682983e-01 -1.525303274393081665e-01 1.506940871477127075e-01 1.634708195924758911e-01 4.848536849021911621e-02 1.586585342884063721e-01 -1.785074174404144287e-01 2.290181815624237061e-02 9.493628889322280884e-02 -7.200801372528076172e-02 -2.018690668046474457e-02 -1.014975160360336304e-01 1.274672299623489380e-01 -1.329985111951828003e-01 3.266524672508239746e-01 -1.881499439477920532e-01 -1.687812358140945435e-01 -1.328963339328765869e-01 6.610146909952163696e-02 1.099648624658584595e-01 -1.520714312791824341e-01 -6.693803519010543823e-02 -7.181623578071594238e-02 3.194466233253479004e-02 -1.118480563163757324e-01 4.242412000894546509e-02 1.197601109743118286e-01 2.004170119762420654e-01 -2.042703889310359955e-02 1.160372868180274963e-01 2.272124439477920532e-01 7.021652907133102417e-02 -4.314088076353073120e-02 -5.095100402832031250e-02 4.359354451298713684e-02 -1.009872853755950928e-01 -9.398888796567916870e-03 -7.001283019781112671e-02 -1.235957071185112000e-01 2.441582381725311279e-01 1.956226080656051636e-01 2.910070121288299561e-01 -1.741413623094558716e-01
1.220298111438751221e-01 2.207495272159576416e-01 -8.755109459161758423e-02 2.000630497932434082e-01 -1.169062703847885132e-01 9.854786843061447144e-02 -2.413321472704410553e-02 -3.770716115832328796e-02 -2.210025489330291748e-01 9.833530336618423462e-02 1.619157046079635620e-01 1.358596682548522949e-01 7.840165495872497559e-02 1.841941028833389282e-01 -2.216625362634658813e-01 9.146381914615631104e-02 1.778319329023361206e-01 7.650763541460037231e-02 -3.793609887361526489e-02 1.445692628622055054e-01 -3.122296333312988281e-01 1.466278582811355591e-01 8.779561519622802734e-02 -3.467378616333007812e-01 8.426864445209503174e-02 3.017834424972534180e-01 -3.773339688777923584e-01 -3.234396576881408691e-01 -3.095008134841918945e-01 2.766011655330657959e-01 -2.495051175355911255e-02 -2.270628362894058228e-01 1.902150511741638184e-01 1.288474202156066895e-01 1.200909540057182312e-01 -2.688075602054595947e-01 1.578891873359680176e-01 -1.732843369245529175e-01 -1.916956156492233276e-02 9.548071026802062988e-02 2.543920874595642090e-01 1.804230362176895142e-01 1.506294757127761841e-01 -1.611538231372833252e-01 3.418392688035964966e-02 -2.037563025951385498e-01 2.066169977188110352e-01 -2.432531565427780151e-01 -2.742580771446228027e-01 1.382425874471664429e-01 1.747054904699325562e-01 1.540798693895339966e-01 -3.398343920707702637e-01 1.455084681510925293e-01 2.676148414611816406e-01 -3.120115101337432861e-01 -3.294464945793151855e-01 -2.486688941717147827e-01 1.980755478143692017e-01 9.397205710411071777e-02 1.707480996847152710e-01 1.972388327121734619e-01 -2.289354503154754639e-01 -6.198174878954887390e-02
