-2.688328325748443604e-01 -1.721492111682891846e-01 1.910695880651473999e-01 3.911219164729118347e-02
-2.124038040637969971e-01 2.852917183190584183e-03 -6.292326748371124268e-02 1.614789515733718872e-01
1.826713234186172485e-01 -2.884212136268615723e-02 -1.593821942806243896e-01 -2.252357155084609985e-01
-1.295145601034164429e-01 -4.899637773633003235e-02 -1.232899576425552368e-01 2.223871201276779175e-01
2.515635192394256592e-01 -4.682955518364906311e-02 1.448090523481369019e-01 -1.702952533960342407e-01
1.065464615821838379e-01 -1.830583252012729645e-02 1.363484263420104980e-01 -9.369414299726486206e-02
1.560740079730749130e-02 -5.426186323165893555e-02 5.241685733199119568e-02 7.757030427455902100e-02
2.131436169147491455e-01 -2.152752280235290527e-01 -1.266636997461318970e-01 -2.550504505634307861e-01
-8.116008341312408447e-02 -1.812382489442825317e-01 -2.614179551601409912e-01 -3.323733806610107422e-01
1.043366566300392151e-01 -1.048991382122039795e-01 5.427908524870872498e-02 5.065577477216720581e-02
1.145533099770545959e-01 -1.677101701498031616e-01 5.004232004284858704e-02 -1.134259626269340515e-01
8.111280202865600586e-02 -1.340472847223281860e-01 4.241170361638069153e-03 1.205133199691772461e-01
-1.998632401227951050e-02 -6.677960604429244995e-02 -7.744245976209640503e-02 -5.057400837540626526e-02
-1.798392832279205322e-01 -8.367088437080383301e-02 1.688220649957656860e-01 -2.105901837348937988e-01
3.635197877883911133e-01 -1.058691926300525665e-02 1.168193966150283813e-01 2.942999079823493958e-02
-3.291323548182845116e-03 4.291964322328567505e-02 6.945747882127761841e-02 1.792664825916290283e-01
-8.875995874404907227e-02 -1.347217336297035217e-02 2.100204974412918091e-01 1.266882866621017456e-01
-2.443285286426544189e-01 -9.477072954177856445e-02 -2.098089307546615601e-01 -9.952880442142486572e-02
-1.305041313171386719e-01 -9.515368938446044922e-02 1.160693690180778503e-01 -1.630577892065048218e-01
-2.299137264490127563e-01 -5.799855291843414307e-02 9.329265356063842773e-02 -9.244852699339389801e-03
2.863721847534179688e-01 -1.322269588708877563e-01 -6.523735821247100830e-02 -1.458007004112005234e-02
1.146511286497116089e-01 -8.618201315402984619e-02 7.943850755691528320e-02 -1.962970476597547531e-03
1.073401421308517456e-01 3.286017570644617081e-03 3.809536248445510864e-02 9.270425140857696533e-02
2.836756706237792969e-01 -1.571772694587707520e-01 -3.322245478630065918e-01 -1.656418889760971069e-01
5.788594111800193787e-02 2.001618146896362305e-01 2.627918124198913574e-01 -1.541667133569717407e-01
-3.055315613746643066e-01 -2.050861567258834839e-01 3.015257120132446289e-01 -1.829572254791855812e-03
3.676227629184722900e-01 -1.555896103382110596e-01 -3.259597718715667725e-01 -3.215516507625579834e-01
2.085167020559310913e-01 3.544878214597702026e-02 -8.035123348236083984e-02 -1.676444858312606812e-01
-4.960774257779121399e-02 -2.404212057590484619e-01 -2.786817252635955811e-01 -1.989074796438217163e-01
-1.291676610708236694e-01 -1.462141424417495728e-01 1.040459498763084412e-01 2.887632139027118683e-02
-1.220545545220375061e-01 -9.611953049898147583e-02 8.575995266437530518e-02 3.331577032804489136e-02
2.607050240039825439e-01 -2.826043777167797089e-02 -3.552748858928680420e-01 -7.893264293670654297e-02
1.412126868963241577e-01 -3.805515915155410767e-02 -6.364681571722030640e-02 -3.971533477306365967e-02
-2.193109542131423950e-01 1.166064143180847168e-01 1.119590178132057190e-01 -1.281026401557028294e-03
-1.041507646441459656e-01 -3.206022456288337708e-02 1.241860017180442810e-01 6.125399470329284668e-02
6.736700981855392456e-02 -3.363306224346160889e-01 -2.319016307592391968e-01 -2.198691368103027344e-01
1.111742854118347168e-01 1.779135614633560181e-01 -1.445378456264734268e-02 -1.045814976096153259e-01
2.399278581142425537e-01 1.697960346937179565e-01 7.138268649578094482e-02 9.707065671682357788e-02
-7.680393755435943604e-02 6.997802853584289551e-02 1.010126173496246338e-01 4.410054162144660950e-02
-2.483998388051986694e-01 -1.408639550209045410e-01 2.498833537101745605e-01 2.044735699892044067e-01
-1.359401047229766846e-01 -1.580058336257934570e-01 2.370912432670593262e-01 9.813162684440612793e-02
-2.616878449916839600e-01 -2.402504980564117432e-01 2.060046046972274780e-02 -1.815044581890106201e-01
7.907032966613769531e-03 8.298563957214355469e-02 -1.251661330461502075e-01 -9.403482079505920410e-02
-6.351039558649063110e-02 -1.561346054077148438e-01 1.122011691331863403e-01 1.032425686717033386e-01
1.310817599296569824e-01 -2.361979708075523376e-02 4.003755003213882446e-02 5.550500378012657166e-02
2.263916432857513428e-01 -3.189436793327331543e-01 1.153711527585983276e-01 1.282780915498733521e-01
2.496114745736122131e-02 -1.046401709318161011e-01 -1.200184971094131470e-01 -1.774508059024810791e-01
1.463252399116754532e-02 -1.951692402362823486e-01 -2.929125726222991943e-01 -2.637554109096527100e-01
2.830026447772979736e-01 -5.251602828502655029e-02 -1.725541800260543823e-01 -5.267133563756942749e-02
-2.676721848547458649e-02 1.343663129955530167e-02 -1.001558452844619751e-01 6.150976195931434631e-02
-2.350700348615646362e-01 -8.289437741041183472e-02 2.317482829093933105e-01 1.689819246530532837e-01
-1.915442794561386108e-01 1.101479455828666687e-01 1.957704275846481323e-01 -5.760196968913078308e-02
3.181742429733276367e-01 -1.577629148960113525e-01 -1.917369365692138672e-01 -3.152697384357452393e-01
1.693634241819381714e-01 -1.249754521995782852e-02 6.287042796611785889e-02 3.793065622448921204e-02
-1.913402527570724487e-01 -3.179070353507995605e-02 9.064383804798126221e-03 8.304611593484878540e-02
3.755471408367156982e-01 7.762186974287033081e-02 -6.427464634180068970e-02 -1.221719682216644287e-01
7.688079774379730225e-02 -1.843250915408134460e-02 -2.027732133865356445e-01 -2.028423994779586792e-01
8.570969104766845703e-02 -2.223882228136062622e-01 1.492176353931427002e-01 -6.686066091060638428e-02
-1.257706880569458008e-01 8.216916769742965698e-02 -1.742516010999679565e-01 1.913069337606430054e-01
-2.322069108486175537e-01 -6.393834482878446579e-03 2.245852053165435791e-01 -1.324383262544870377e-02
-1.500338315963745117e-01 -1.137809827923774719e-01 1.396290510892868042e-01 1.133888810873031616e-01
-2.053127884864807129e-01 -2.232738733291625977e-01 -9.343174099922180176e-02 1.214416101574897766e-01
2.569740116596221924e-01 -1.171418353915214539e-01 -4.143353924155235291e-02 -7.809492200613021851e-02
-3.505820780992507935e-02 1.199036743491888046e-02 1.870418787002563477e-01 2.014178186655044556e-01
