0.000000000000000000e+00
7.649847120046615601e-02
5.804160609841346741e-02
6.273847073316574097e-02
1.663331128656864166e-02
-2.830605208873748779e-02
0.000000000000000000e+00
2.572487294673919678e-02
6.907111406326293945e-02
4.079870879650115967e-02
-2.563411183655261993e-02
-8.088503032922744751e-03
5.017133057117462158e-02
0.000000000000000000e+00
-5.938007030636072159e-03
0.000000000000000000e+00
0.000000000000000000e+00
6.340110301971435547e-02
4.176068678498268127e-02
0.000000000000000000e+00
5.070658773183822632e-02
1.704182103276252747e-02
4.249439388513565063e-02
-2.221764065325260162e-03
-3.142004087567329407e-02
-2.043063752353191376e-02
0.000000000000000000e+00
5.301362276077270508e-02
-6.097955629229545593e-02
-3.004424087703227997e-02
0.000000000000000000e+00
0.000000000000000000e+00
1.823674887418746948e-02
2.751493453979492188e-02
0.000000000000000000e+00
-2.105715498328208923e-02
2.100149355828762054e-02
-1.434950344264507294e-02
-2.509872987866401672e-02
-8.599040098488330841e-03
1.018371153622865677e-02
3.567707911133766174e-02
8.101401850581169128e-03
0.000000000000000000e+00
7.076188176870346069e-02
-5.605771206319332123e-03
-3.852345421910285950e-02
1.001151930540800095e-02
-3.895104303956031799e-02
2.087503671646118164e-02
-1.505284756422042847e-02
-9.518310427665710449e-03
-7.992750033736228943e-03
5.488076806068420410e-02
4.121127724647521973e-02
8.689744281582534313e-04
4.408489167690277100e-02
2.269632183015346527e-02
-2.144492231309413910e-02
-1.676543243229389191e-02
5.197286233305931091e-02
-1.580517552793025970e-02
-2.198437601327896118e-02
3.654247149825096130e-02
