-6.079204380512237549e-03
-2.543715294450521469e-03
8.653058856725692749e-02
0.000000000000000000e+00
-6.394533812999725342e-02
-7.610610872507095337e-02
-3.177736420184373856e-03
-6.241536512970924377e-02
3.270790679380297661e-03
1.163429766893386841e-01
-2.856034040451049805e-02
0.000000000000000000e+00
0.000000000000000000e+00
-2.936434559524059296e-02
5.448642373085021973e-02
-6.860816478729248047e-02
0.000000000000000000e+00
7.780437171459197998e-02
7.073741406202316284e-02
1.779564842581748962e-02
-5.690428242087364197e-02
7.610701769590377808e-02
9.253521263599395752e-02
0.000000000000000000e+00
1.081991270184516907e-01
0.000000000000000000e+00
8.715371787548065186e-02
1.111222803592681885e-01
8.590768277645111084e-02
8.286625891923904419e-02
8.995370566844940186e-02
1.945047266781330109e-02
9.595205634832382202e-02
2.717323601245880127e-02
1.224292069673538208e-01
6.057521328330039978e-02
0.000000000000000000e+00
2.982066245749592781e-03
-7.822991907596588135e-02
-2.335396595299243927e-02
-2.629810944199562073e-02
1.671749725937843323e-02
3.595901280641555786e-02
1.155663579702377319e-01
1.033516973257064819e-01
1.930496073327958584e-03
-1.456347201019525528e-02
0.000000000000000000e+00
0.000000000000000000e+00
2.057365328073501587e-02
0.000000000000000000e+00
-1.806500740349292755e-02
-3.515674173831939697e-02
8.916563540697097778e-02
-1.986081711947917938e-02
4.059296043124049902e-04
-4.756211710628122091e-04
-4.607111960649490356e-02
-2.428270177915692329e-03
-2.376529853790998459e-03
3.601945191621780396e-02
-1.210592593997716904e-02
6.295597553253173828e-02
-2.234309911727905273e-02
