-8.159020944731310010e-05 -3.742961585521697998e-02 -3.481885045766830444e-02 -5.488336831331253052e-02 -7.995110684611006491e-10 3.312946434113478444e-14 -2.330657152924686670e-04 -4.214129585307091475e-04 2.010224945843219757e-02 -7.574081537313759327e-04 -9.019767048812354915e-07 -6.153376261863741092e-07 -3.033850714564323425e-02 4.564903122172836447e-08 1.905000768601894379e-02 -1.131266963619774352e-32 -4.132303595542907715e-02 -5.433640442788600922e-03 -6.318483501672744751e-02 -2.840015292167663574e-02 2.622195146977901459e-02 -2.753429580479860306e-03 1.503270678222179413e-02 -9.997832239605486393e-05 2.713281428441405296e-03 -2.934243184427032247e-06 9.012469090521335602e-03 2.565539616625756025e-04 -3.439985215663909912e-02 4.620803985744714737e-03 5.574915092438459396e-03 7.485368289053440094e-03 -5.536871403455734253e-02 2.640315797179937363e-03 -8.655115030705928802e-03 3.236708696931600571e-03 -4.305217415094375610e-02 -7.435592124238610268e-04 -1.779443956911563873e-02 -3.379978612065315247e-02 -4.440121159632326453e-08 -1.395692303776741028e-02 1.394374703522771597e-04 1.169210008811205626e-05 -2.813603170216083527e-02 1.769586279988288879e-02 6.665040564257651567e-05 -3.813748806715011597e-02 -7.204266265034675598e-03 3.802229091525077820e-02 -3.811303366345701658e-24 8.200153708457946777e-03 1.189150911073966199e-08 2.469661645591259003e-02 1.839595101773738861e-02 -4.064333334099501371e-04 6.481730192899703979e-02 -1.541766431182622910e-02 -7.037911098450422287e-03 -6.329409778118133545e-03 1.711582764983177185e-02 -4.745375365018844604e-02 1.606601290404796600e-04 1.576981693506240845e-02
2.377592772245407104e-02 -3.600398078560829163e-02 -4.285866743884980679e-04 -4.340092800703132525e-06 -1.552077475935220718e-03 -5.847095698118209839e-02 -2.178370486944913864e-03 -1.693510421318933368e-04 -3.672816976904869080e-02 -2.174951368942856789e-04 2.194982254877686501e-03 -1.763683976605534554e-03 -3.628903953592846343e-14 -3.118827225989662111e-05 -5.401886301115155220e-04 -1.168992957989445358e-10 -1.381112029775977135e-03 7.024444057606160641e-04 5.613255128264427185e-02 4.635890200734138489e-02 -1.618917658925056458e-02 8.880373788997530937e-04 -5.718769039958715439e-03 -1.093255355954170227e-03 -4.980490356683731079e-02 -5.374548891268204898e-06 4.907137155532836914e-02 -7.624712772667407990e-03 7.406021468341350555e-03 -1.424810267053544521e-03 3.595176152884960175e-03 4.768453910946846008e-02 -1.532954396679997444e-03 1.281258370727300644e-02 -5.696888640522956848e-02 -5.093720741569995880e-03 -2.236718870699405670e-02 3.423472866415977478e-02 2.850343849836178833e-10 4.741004854440689087e-02 4.244980216026306152e-02 1.988134026760235429e-04 3.018885327037423849e-04 -1.368795614689588547e-02 -1.520045450888574123e-03 3.303101658821105957e-02 -1.789802312850952148e-02 -4.014159447390196314e-18 -3.162422776222229004e-02 -1.456723548471927643e-04 -3.575211018323898315e-02 8.729463443160057068e-04 -1.312025822699069977e-02 -1.134764286689460278e-03 1.422210689634084702e-02 7.124076783657073975e-02 2.176552312448620796e-03 5.478069931268692017e-02 5.543952085998959124e-28 9.584444617307369671e-34 -8.298319298774003983e-04 -5.333132669329643250e-02 2.680376637727022171e-03 -2.208747901022434235e-03
-3.662120783701539040e-03 2.895343972463052554e-33 7.733224774710834026e-04 -7.005185409525438445e-08 2.526836469769477844e-03 3.141425922513008118e-02 1.288542818035217720e-32 6.563418358564376831e-02 -2.012215740978717804e-02 1.765264663845300674e-03 -5.762780085206031799e-02 -9.358425624668598175e-03 -1.746673486195504665e-03 1.332837427980848588e-06 4.651548806577920914e-04 2.854443620890378952e-03 -2.615387711557559669e-05 1.089892539312131703e-04 1.026460176944965497e-05 -3.805888444185256958e-02 1.065569836646318436e-02 2.219769085058942437e-04 1.067003328353166580e-02 -3.011389821767807007e-02 5.066690966486930847e-02 -4.017460586425158908e-09 6.183609832078218460e-03 3.037598216906189919e-04 1.092475280165672302e-02 1.651253201998770237e-03 9.924384765326976776e-03 -2.924888394773006439e-03 1.517418422736227512e-03 -5.274747963994741440e-03 9.657139307819306850e-04 4.317341663409024477e-04 -6.342114065773785114e-04 -2.937268232926726341e-03 1.091468427330255508e-02 -5.067125885549472741e-11 4.518750309944152832e-02 -2.259986475110054016e-03 3.894970286637544632e-03 5.882747936993837357e-04 2.586272545158863068e-02 -2.116216346621513367e-03 -7.897072435211885901e-33 -1.091657299548387527e-02 -2.624986693263053894e-02 -6.349203735589981079e-02 -3.860804252326488495e-03 -3.603701293468475342e-02 2.475275541655719280e-04 1.395951490849256516e-03 -3.663526847958564758e-02 -4.085023247171193361e-04 -6.921504223100782838e-07 -3.393673151731491089e-02 -2.933962503448128700e-03 -4.810648411512374878e-02 9.819855913519859314e-04 7.713597122149806751e-12 1.777850266080349684e-04 -3.222510684281587601e-03
