2.001637518405914307e-01 -6.226707249879837036e-03
-1.203555464744567871e-01 -5.071306228637695312e-02
1.183014288544654846e-01 -1.842861473560333252e-01
-2.240604460239410400e-01 -5.270512774586677551e-02
-2.587879598140716553e-01 4.576162993907928467e-02
-2.106720954179763794e-01 2.057793438434600830e-01
1.573058217763900757e-01 -3.208064841789567473e-27
-2.563981413841247559e-01 5.787214636802673340e-02
-2.953302860260009766e-02 -1.396397203207015991e-01
-2.505439519882202148e-01 2.928321948274970055e-03
-1.524615734815597534e-01 2.300652414560317993e-01
2.385431081056594849e-01 3.954952210187911987e-02
-4.225397482514381409e-02 -6.107918545603752136e-02
-1.907007396221160889e-01 1.211052387952804565e-01
1.503515094518661499e-01 -1.238526180386543274e-01
-3.165327385067939758e-02 1.040011737495660782e-02
1.695235259830951691e-02 6.410845369100570679e-02
-1.872433573007583618e-01 -1.168814674019813538e-01
1.385313123464584351e-01 -2.906925976276397705e-01
-3.930996637791395187e-03 3.302652205536271701e-12
-2.005037218332290649e-01 -7.825564593076705933e-02
1.906756162643432617e-01 -2.314826399087905884e-01
-2.895621210336685181e-02 -1.477060019969940186e-01
2.280790125951170921e-03 1.861501336097717285e-01
9.021180868148803711e-02 1.157571226358413696e-01
-2.384579181671142578e-01 1.450750380754470825e-01
1.605259925127029419e-01 1.977433562278747559e-01
7.314483076333999634e-02 -1.144888401031494141e-01
1.061508208513259888e-01 5.287653580307960510e-02
-2.410359382629394531e-01 1.928517818450927734e-01
-3.491036477498710155e-04 -4.309167340397834778e-02
-1.358551830053329468e-01 3.994724247604608536e-03
1.775266528129577637e-01 -1.299417763948440552e-01
1.532263755798339844e-01 -1.217742860317230225e-01
-1.312636286020278931e-01 9.308776818215847015e-03
1.989317536354064941e-01 1.413881331682205200e-01
5.339871719479560852e-02 -5.514298379421234131e-02
1.546346247196197510e-01 7.933564484119415283e-02
4.264564067125320435e-02 2.442123368382453918e-02
2.105238474905490875e-02 2.083226591348648071e-01
-7.764536142349243164e-02 -1.868377905339002609e-03
-2.585956156253814697e-01 -3.149841129779815674e-01
9.804567694664001465e-02 -1.966879814863204956e-01
1.973277889192104340e-02 7.454572914866730571e-05
-2.146000862121582031e-01 -2.299936115741729736e-01
-1.982712298631668091e-01 -1.595447957515716553e-01
1.819237619638442993e-01 8.583492040634155273e-02
-1.417567580938339233e-01 -2.205724120140075684e-01
5.417929962277412415e-02 1.044528633356094360e-01
2.564656138420104980e-01 -9.717155247926712036e-02
7.719317078590393066e-02 2.439624965190887451e-01
-2.201490849256515503e-02 1.800051927566528320e-01
1.212553903460502625e-01 1.382262706756591797e-01
-3.223531246185302734e-01 -2.826097607612609863e-01
-3.237964212894439697e-01 -2.013748586177825928e-01
1.419957876205444336e-01 -6.686404347419738770e-02
-1.282784789800643921e-01 -1.732159554958343506e-01
2.036667168140411377e-01 -6.881879270076751709e-02
-1.746589839458465576e-01 3.287367150187492371e-02
-7.045105844736099243e-02 1.274209469556808472e-01
-1.132757142186164856e-01 -5.719857662916183472e-02
5.722730979323387146e-02 2.364733368158340454e-01
-1.075894162058830261e-01 5.989579111337661743e-02
1.023559644818305969e-01 -2.897872626781463623e-01
