2.509153783321380615e-01 -9.971074014902114868e-02 -0.000000000000000000e+00 1.885778903961181641e-01 -0.000000000000000000e+00 0.000000000000000000e+00 0.000000000000000000e+00 0.000000000000000000e+00 0.000000000000000000e+00 -0.000000000000000000e+00 0.000000000000000000e+00 -5.481389537453651428e-02 0.000000000000000000e+00 1.166212484240531921e-01 -3.082755506038665771e-01 1.336665004491806030e-01
6.041516065597534180e-01 -2.241130620241165161e-01 1.149051189422607422e-01 1.227546632289886475e-01 1.268976032733917236e-01 -4.959967136383056641e-01 -7.585558574646711349e-03 -1.469499468803405762e-01 8.591814339160919189e-02 -1.114127412438392639e-01 0.000000000000000000e+00 -0.000000000000000000e+00 -4.163839221000671387e-01 -4.285555481910705566e-01 3.055692017078399658e-01 3.201696276664733887e-01
1.790070831775665283e-01 2.114346176385879517e-01 -0.000000000000000000e+00 0.000000000000000000e+00 -2.858398556709289551e-01 -6.276661157608032227e-02 0.000000000000000000e+00 -0.000000000000000000e+00 -1.103816404938697815e-01 0.000000000000000000e+00 0.000000000000000000e+00 1.351238191127777100e-01 -1.904078423976898193e-01 0.000000000000000000e+00 -3.224709033966064453e-01 -1.260851770639419556e-01
-1.370197087526321411e-01 -0.000000000000000000e+00 -0.000000000000000000e+00 4.988338053226470947e-01 3.125918805599212646e-01 2.482589781284332275e-01 -3.256389871239662170e-02 3.973306119441986084e-01 2.153735235333442688e-02 0.000000000000000000e+00 0.000000000000000000e+00 -1.362038999795913696e-01 1.146007701754570007e-01 -1.892403662204742432e-01 -3.425920009613037109e-01 -2.381233274936676025e-01
0.000000000000000000e+00 -7.223275303840637207e-02 0.000000000000000000e+00 0.000000000000000000e+00 -3.485299348831176758e-01 2.598508894443511963e-01 8.016449213027954102e-02 7.044040411710739136e-02 2.313044816255569458e-01 0.000000000000000000e+00 -1.044730469584465027e-01 0.000000000000000000e+00 -2.777693271636962891e-01 0.000000000000000000e+00 -4.897561967372894287e-01 -0.000000000000000000e+00
-1.660544276237487793e-01 -3.594605326652526855e-01 0.000000000000000000e+00 -1.353542506694793701e-01 -2.100560218095779419e-01 1.919922232627868652e-01 -0.000000000000000000e+00 -8.082654327154159546e-02 -0.000000000000000000e+00 -3.375305980443954468e-02 -0.000000000000000000e+00 -1.184972450137138367e-01 -4.383829534053802490e-01 -4.751149117946624756e-01 -3.409593403339385986e-01 2.347493022680282593e-01
0.000000000000000000e+00 -2.924991846084594727e-01 -0.000000000000000000e+00 -2.158799767494201660e-01 4.078523516654968262e-01 1.942464709281921387e-01 -0.000000000000000000e+00 4.075653553009033203e-01 0.000000000000000000e+00 0.000000000000000000e+00 4.301278665661811829e-02 -0.000000000000000000e+00 -3.281766772270202637e-01 -3.571870326995849609e-01 2.290072143077850342e-01 0.000000000000000000e+00
3.975003212690353394e-02 3.174826204776763916e-01 -0.000000000000000000e+00 3.968041837215423584e-01 -4.576594382524490356e-02 3.509068191051483154e-01 -0.000000000000000000e+00 -9.220669418573379517e-02 -0.000000000000000000e+00 -7.096378505229949951e-02 -0.000000000000000000e+00 9.433726221323013306e-02 1.256137639284133911e-01 0.000000000000000000e+00 -3.917418718338012695e-01 -3.213299214839935303e-01
4.687018692493438721e-01 1.060731634497642517e-01 0.000000000000000000e+00 1.851599663496017456e-01 1.284891664981842041e-01 3.389878273010253906e-01 -0.000000000000000000e+00 2.050610929727554321e-01 -0.000000000000000000e+00 -3.172008395195007324e-01 -0.000000000000000000e+00 2.167670130729675293e-01 3.371596336364746094e-01 -2.518434822559356689e-01 -1.887084096670150757e-01 -0.000000000000000000e+00
4.283150732517242432e-01 4.422637820243835449e-01 -8.607736229896545410e-02 3.036500215530395508e-01 -2.932872772216796875e-01 -2.296656519174575806e-01 -0.000000000000000000e+00 -3.569350838661193848e-01 -2.550619244575500488e-01 2.256306409835815430e-01 0.000000000000000000e+00 -1.618084013462066650e-01 2.034274041652679443e-01 3.126595541834831238e-02 3.379156291484832764e-01 2.008522748947143555e-01
-7.722678035497665405e-02 3.901531994342803955e-01 1.317084878683090210e-01 -5.895296856760978699e-02 -2.680002152919769287e-01 -2.800313532352447510e-01 9.066297858953475952e-02 -4.182771146297454834e-01 0.000000000000000000e+00 -0.000000000000000000e+00 -0.000000000000000000e+00 3.780975639820098877e-01 1.166242659091949463e-01 -3.548047542572021484e-01 -2.491528391838073730e-01 1.113345399498939514e-01
1.874673664569854736e-01 8.107025921344757080e-02 0.000000000000000000e+00 4.857695400714874268e-01 -5.330055356025695801e-01 4.321198444813489914e-03 0.000000000000000000e+00 3.119862973690032959e-01 -1.329607218503952026e-01 -2.744027674198150635e-01 0.000000000000000000e+00 -0.000000000000000000e+00 3.014945983886718750e-01 -3.885551989078521729e-01 3.543643653392791748e-01 9.166859090328216553e-02
