-2.945175170898437500e-01 3.394130766391754150e-01 5.133339762687683105e-01 8.459527045488357544e-02 -1.422627121210098267e-01 4.812122583389282227e-01 1.135745644569396973e-01 3.052379488945007324e-01 -2.064299136400222778e-01 -1.354490369558334351e-01 -1.651011407375335693e-01 7.131893187761306763e-02 -2.743596732616424561e-01 -7.856407319195568562e-04 3.684933483600616455e-01 -1.225833743810653687e-01
7.125500123947858810e-04 5.605876445770263672e-01 5.888866782188415527e-01 -1.699177175760269165e-02 -1.398291289806365967e-01 4.200879633426666260e-01 -3.567584604024887085e-02 -1.300984919071197510e-01 -2.772461809217929840e-02 -1.268148571252822876e-01 -1.085183322429656982e-01 3.486794829368591309e-01 2.640850245952606201e-01 2.198769450187683105e-01 -3.462665379047393799e-01 -2.860247194766998291e-01
-7.218705117702484131e-02 -3.229666501283645630e-02 1.468634456396102905e-01 2.242969572544097900e-01 -1.807871609926223755e-01 -3.543404489755630493e-02 1.506274044513702393e-01 -1.713729090988636017e-02 -3.834341093897819519e-02 -3.263042541220784187e-03 -2.803268432617187500e-01 6.066543459892272949e-01 -1.913677901029586792e-02 -2.564818859100341797e-01 -2.072792351245880127e-01 4.542134404182434082e-01
