9.145729008529776061e-28 3.008141219615936279e-01 2.267494797706604004e-01 -1.813095808029174805e-01
-3.028289079666137695e-01 -4.244968295097351074e-01 1.012070104479789734e-01 1.286754310131072998e-01
-5.187765955924987793e-01 -3.003141582012176514e-01 -4.848220944404602051e-01 1.991046965122222900e-02
5.161553025245666504e-01 8.957328647375106812e-02 3.825586736202239990e-01 -9.032471477985382080e-02
-2.700751880183815956e-03 1.624117344617843628e-01 2.037114351987838745e-01 -2.543708384037017822e-01
-4.632952809333801270e-01 -2.643627822399139404e-01 -1.960952430963516235e-01 -1.390664428472518921e-01
3.562209606170654297e-01 6.115386262536048889e-02 -1.810932159423828125e-01 -3.299497663974761963e-01
3.937444388866424561e-01 -9.582299739122390747e-02 -3.714123666286468506e-01 4.865230321884155273e-01
-2.068718150258064270e-02 6.040949746966362000e-02 1.526799169369041920e-03 -1.114147678017616272e-01
1.911465674638748169e-01 1.882855892181396484e-01 -1.293604224920272827e-01 3.116630017757415771e-01
-3.491586074233055115e-02 -1.416281424462795258e-02 1.254395647265482694e-05 -1.817067563533782959e-01
-1.383890807628631592e-01 1.686279326677322388e-01 3.036381006240844727e-01 -4.037180542945861816e-01
-1.489148288965225220e-01 1.556148082017898560e-01 -2.458366751670837402e-01 3.792960047721862793e-01
3.165450692176818848e-01 1.147734150290489197e-01 2.628655731678009033e-01 -2.354547381401062012e-01
4.112828075885772705e-01 3.154964447021484375e-01 3.420641422271728516e-01 5.122143402695655823e-02
-3.051474988460540771e-01 -3.336920142173767090e-01 -4.025554358959197998e-01 -4.278228878974914551e-01
