-3.381159156560897827e-02
1.376126408576965332e-01
-3.042300045490264893e-02
-1.049449667334556580e-01
-3.721579164266586304e-02
9.613779373466968536e-03
-9.808377176523208618e-02
5.377925187349319458e-02
1.355176270008087158e-01
1.169929727911949158e-01
-4.117910563945770264e-02
-1.053632330149412155e-02
2.488630451261997223e-02
1.392511427402496338e-01
-3.206047043204307556e-02
3.051064349710941315e-02
1.113371104001998901e-01
-1.704980246722698212e-02
7.096829265356063843e-02
1.432079672813415527e-01
1.218516975641250610e-01
1.649706251919269562e-02
-1.249609962105751038e-01
-1.665358990430831909e-02
-4.064909368753433228e-02
-3.227066621184349060e-02
1.480387300252914429e-01
1.319065541028976440e-01
-7.454977929592132568e-02
1.610275655984878540e-01
-2.447428554296493530e-02
7.219894975423812866e-02
1.419398337602615356e-01
6.978876888751983643e-02
-1.625431887805461884e-02
-5.719260498881340027e-02
1.095391362905502319e-01
-2.000579424202442169e-02
-4.390172660350799561e-03
-1.148559805005788803e-02
9.406544268131256104e-02
1.244266033172607422e-01
1.875331811606884003e-02
1.450042147189378738e-02
1.333777159452438354e-01
7.034788280725479126e-02
1.262421607971191406e-01
1.398977339267730713e-01
7.578579825349152088e-04
-1.745082996785640717e-02
-4.686628468334674835e-03
1.130947917699813843e-01
-1.824056543409824371e-02
1.285982728004455566e-01
-1.237844899296760559e-01
1.192019060254096985e-01
1.334237866103649139e-02
9.434677660465240479e-03
1.138160228729248047e-01
3.474989533424377441e-02
1.465528905391693115e-01
6.998002529144287109e-02
1.089124828577041626e-01
-1.371067855507135391e-02
