-8.434822410345077515e-02 -2.889223098754882812e-01 -1.486874073743820190e-01 1.669642925262451172e-01 -2.362266480922698975e-01 -2.751469910144805908e-01 1.965536326169967651e-01 2.479542344808578491e-01 1.414415240287780762e-01 2.043647766113281250e-01 -3.134335279464721680e-01 -2.908524824306368828e-03 -2.485000044107437134e-01 -6.507353391498327255e-03 2.259937301278114319e-02 1.955259889364242554e-01 -9.621258825063705444e-02 -1.016958206892013550e-01 -1.411869078874588013e-01 -5.716596916317939758e-02 -1.516096442937850952e-01 -1.228090375661849976e-01 1.904586702585220337e-01 1.436074730008840561e-02 2.397191226482391357e-01 -6.238503754138946533e-02 2.145186662673950195e-01 2.836464047431945801e-01 -8.197510987520217896e-02 2.258977890014648438e-01 -1.999530941247940063e-01 2.397005632519721985e-02 1.312617063522338867e-01 1.921488344669342041e-01 -1.138534471392631531e-01 -2.198136448860168457e-01 9.076189994812011719e-02 2.041888087987899780e-01 2.099695503711700439e-01 -1.909935846924781799e-02 5.373715981841087341e-02 2.962400317192077637e-01 2.625523507595062256e-01 -2.730717360973358154e-01 1.199583485722541809e-01 -2.706989943981170654e-01 -7.248903065919876099e-02 1.460985094308853149e-02 4.980890825390815735e-02 1.121170446276664734e-01 -1.887122243642807007e-01 -3.034497797489166260e-01 -1.944018304347991943e-01 -1.029279530048370361e-01 -8.676920086145401001e-02 -2.875894606113433838e-01 -2.129388786852359772e-02 -2.054390907287597656e-01 -3.437338024377822876e-02 2.619029283523559570e-01 -8.657974004745483398e-02 -2.237840443849563599e-01 1.364935636520385742e-01 2.807883173227310181e-02
-1.331121325492858887e-01 -5.956830456852912903e-02 9.630224853754043579e-02 -1.300134416669607162e-02 1.774564683437347412e-01 -3.692990913987159729e-02 1.764366328716278076e-01 1.346495449542999268e-01 -7.505196332931518555e-02 -1.541330814361572266e-01 -2.310116142034530640e-01 1.323924660682678223e-01 9.993661940097808838e-02 -9.709103032946586609e-03 2.271768152713775635e-01 8.310297131538391113e-02 6.421709060668945312e-02 4.781679809093475342e-02 6.961797922849655151e-02 2.015535682439804077e-01 -8.740659058094024658e-02 7.888329029083251953e-02 -1.346862912178039551e-01 8.644452691078186035e-02 -1.007366627454757690e-01 2.618525624275207520e-01 -1.824105158448219299e-02 -1.136134266853332520e-01 -5.879019573330879211e-02 1.000199019908905029e-01 2.315078526735305786e-01 5.726218596100807190e-02 2.359524667263031006e-01 1.546071916818618774e-01 -1.848242580890655518e-01 7.597356289625167847e-02 2.373483628034591675e-01 -1.685520634055137634e-02 2.019720673561096191e-01 -6.352753937244415283e-02 2.251385152339935303e-01 -1.565436869859695435e-01 2.748824656009674072e-01 -1.709494441747665405e-01 7.110196352005004883e-02 1.089720129966735840e-01 -9.101931750774383545e-02 -7.179786264896392822e-02 1.436439305543899536e-01 1.640381850302219391e-02 -2.093600481748580933e-01 7.837038487195968628e-02 1.429994255304336548e-01 7.515148818492889404e-02 8.542062342166900635e-02 -1.269421577453613281e-01 -2.882965803146362305e-01 1.577798575162887573e-01 2.038443982601165771e-01 1.078671440482139587e-01 1.468882262706756592e-01 1.309782415628433228e-01 1.192759796977043152e-01 -8.961644768714904785e-02
