-2.177291922271251678e-02 -3.801494464278221130e-02
-8.152025938034057617e-02 2.628282606601715088e-01
-1.629202663898468018e-01 9.415695071220397949e-02
2.110391706228256226e-01 2.838392853736877441e-01
1.052772328257560730e-01 1.428844928741455078e-01
-2.165483236312866211e-01 -1.794308871030807495e-01
2.201726287603378296e-01 1.792407333850860596e-01
3.103505074977874756e-01 2.663830816745758057e-01
2.159497439861297607e-01 8.549260348081588745e-02
1.792733222246170044e-01 -1.847325414419174194e-01
-2.409869134426116943e-01 -1.949430406093597412e-01
-1.496639847755432129e-01 -1.306523978710174561e-01
-9.836651384830474854e-02 9.457923471927642822e-02
1.462084352970123291e-01 2.883683009713422507e-05
2.531317174434661865e-01 -1.532758474349975586e-01
2.036285102367401123e-01 2.169690132141113281e-01
-2.592925727367401123e-01 -1.253077238798141479e-01
6.319141946732997894e-03 -2.196472883224487305e-01
-1.736235469579696655e-01 -1.415572762489318848e-01
-3.577809035778045654e-02 -2.176810353994369507e-01
-7.483784109354019165e-02 1.843693703413009644e-01
1.482557207345962524e-01 1.216742917895317078e-01
-4.877087846398353577e-02 1.225591450929641724e-01
-2.953553758561611176e-02 -1.750528365373611450e-01
1.845465898513793945e-01 -2.984569640830159187e-03
8.558738976716995239e-02 4.256372153759002686e-02
3.060094118118286133e-01 8.075321093201637268e-03
1.160988882184028625e-01 3.346816301345825195e-01
1.802012771368026733e-01 5.507675558328628540e-02
-2.046021670103073120e-01 3.298929929733276367e-01
2.313273847103118896e-01 1.567492038011550903e-01
1.544710155576467514e-02 1.458474546670913696e-01
2.928149998188018799e-01 2.786829769611358643e-01
2.542405128479003906e-01 1.154078915715217590e-01
-1.090895310044288635e-01 1.870479881763458252e-01
-6.526728719472885132e-02 -1.101107746362686157e-01
-1.317566335201263428e-01 2.776785492897033691e-01
2.991463840007781982e-01 1.534759551286697388e-01
2.396863847970962524e-01 1.653288751840591431e-01
8.018031716346740723e-02 -3.225188329815864563e-02
-1.399219483137130737e-01 -2.550715506076812744e-01
2.794338762760162354e-01 1.510395109653472900e-01
2.814093232154846191e-01 -3.757756575942039490e-02
-2.502868175506591797e-01 1.989004909992218018e-01
-1.641556322574615479e-01 1.587472259998321533e-01
-2.140918523073196411e-01 1.878146380186080933e-01
1.040144041180610657e-01 4.732910078018903732e-03
-9.755000472068786621e-02 -1.431033164262771606e-01
-9.883531928062438965e-02 2.294805366545915604e-03
1.016809642314910889e-01 7.602117955684661865e-02
-6.887413561344146729e-02 -1.786896586418151855e-01
-3.360081911087036133e-01 -1.118417158722877502e-01
1.504001021385192871e-01 1.262768507003784180e-01
1.698977500200271606e-01 -2.026544697582721710e-02
1.940017193555831909e-01 -2.510623633861541748e-01
-3.470415174961090088e-01 1.056781262159347534e-01
-2.893940806388854980e-01 -1.060378849506378174e-01
-8.993174880743026733e-02 6.505940854549407959e-02
4.953989014029502869e-02 1.159073635935783386e-01
1.250523328781127930e-01 4.264050349593162537e-02
-1.450496017932891846e-01 5.150660872459411621e-02
-2.961058914661407471e-01 1.831448264420032501e-02
-1.202840283513069153e-01 1.261590570211410522e-01
9.775382280349731445e-02 -2.069851458072662354e-01
