1.013937685638666153e-02 2.205463070389150199e-19
-2.098800837993621826e-01 2.787463963031768799e-01
1.031885272823274136e-03 2.241064328700304031e-03
-4.150351975113153458e-03 -2.698771096765995026e-02
1.056920550763607025e-02 1.723602908896282315e-04
4.696820676326751709e-02 6.539306044578552246e-02
1.863370125647634268e-04 1.818443648517131805e-02
6.476748734712600708e-03 -8.849386125802993774e-03
-2.024745792150497437e-01 8.781193196773529053e-02
-1.275692582130432129e-01 7.019546627998352051e-02
2.921392954885959625e-02 -1.131225377321243286e-03
-5.109821911901235580e-03 5.027651786804199219e-02
4.084541928023099899e-03 -1.836986653506755829e-02
-1.542613208293914795e-01 2.108324617147445679e-01
3.628628095611929893e-03 -2.285163282067514956e-05
2.834444167092442513e-03 -4.168564453721046448e-03
-7.361423224210739136e-02 1.339463442564010620e-01
1.864850521087646484e-02 6.758267432451248169e-02
-6.872840970754623413e-02 5.553650483489036560e-02
-5.793549492955207825e-02 1.681799739599227905e-01
2.509643696248531342e-02 2.094659358263015747e-01
-1.049894317984580994e-01 3.270423039793968201e-02
-1.017990615218877792e-02 -9.989521652460098267e-02
1.959524862468242645e-02 2.382396487519145012e-03
1.482377331996076464e-08 -1.284788828343153000e-03
-3.756653890013694763e-02 -3.550910577178001404e-02
-1.800865978002548218e-01 2.253832817077636719e-01
-6.590863317251205444e-02 7.960169017314910889e-02
9.325646609067916870e-02 3.706439211964607239e-02
-1.375141143798828125e-01 1.458807140588760376e-01
2.969328306789975613e-06 1.947177387773990631e-02
-5.017987638711929321e-02 8.425670117139816284e-02
-2.149264663457870483e-01 2.253032028675079346e-01
6.623598281294107437e-03 -9.752450510859489441e-03
5.900667607784271240e-02 3.150294348597526550e-02
2.058267407119274139e-02 -6.502812262624502182e-03
-1.048031449317932129e-01 1.309050619602203369e-01
2.271364792250096798e-06 4.031473398208618164e-02
-6.369632319547235966e-05 -2.210126837098869146e-07
-2.142271026968955994e-02 4.053871706128120422e-02
-9.006207436323165894e-02 1.312516331672668457e-01
-1.717858761548995972e-01 7.245273143053054810e-02
6.277628988027572632e-02 4.584816843271255493e-02
3.015995956957340240e-03 -5.171779077500104904e-03
-2.195205092430114746e-01 2.691901624202728271e-01
-1.876013167202472687e-02 5.999121442437171936e-02
-1.624431461095809937e-01 1.591380685567855835e-01
-1.777444779872894287e-01 1.713981181383132935e-01
-2.776031848043203354e-03 4.514449392445385456e-04
1.450579240918159485e-02 4.125024378299713135e-02
3.753335401415824890e-02 -3.816512599587440491e-02
-1.192726120352745056e-01 1.758151948451995850e-01
4.877449944615364075e-03 1.292097568511962891e-02
-9.228961169719696045e-02 1.252386569976806641e-01
-7.084810733795166016e-02 -8.976896107196807861e-02
-1.327830255031585693e-01 8.919461071491241455e-02
3.881742432713508606e-02 -4.575194790959358215e-02
4.808655008673667908e-02 -3.007804043591022491e-02
-1.816161349415779114e-02 1.720351129770278931e-01
3.924814052879810333e-03 -5.382294766604900360e-03
-2.430950105190277100e-01 2.735635340213775635e-01
-7.775090634822845459e-02 2.793181128799915314e-02
-8.662909269332885742e-02 6.840092688798904419e-02
-5.542557346416288055e-07 -2.689722168724983931e-04
