-2.629532814025878906e-01 2.447397559881210327e-01 3.684538304805755615e-01 -2.149752527475357056e-01 1.488767564296722412e-02 7.804958522319793701e-02 -1.674694474786520004e-03 -2.026188969612121582e-01 1.860035955905914307e-01 1.134672388434410095e-01 1.199118942022323608e-01 -1.497417539358139038e-01 -4.364791512489318848e-01 7.097250223159790039e-02 -1.608213037252426147e-01 4.170398041605949402e-02
3.470357879996299744e-02 -4.796807765960693359e-01 1.260731369256973267e-01 4.838304221630096436e-01 -2.426095753908157349e-01 2.611061930656433105e-02 -9.945701062679290771e-02 -2.192059308290481567e-01 -1.090195477008819580e-01 -1.414877623319625854e-01 3.125607073307037354e-01 -1.978056430816650391e-01 3.845582008361816406e-01 3.025839850306510925e-02 -2.257198989391326904e-01 3.453474342823028564e-01
1.178874671459197998e-01 3.889594972133636475e-01 -1.016540080308914185e-01 -1.382458359003067017e-01 5.481357499957084656e-02 1.619219966232776642e-02 -4.203273355960845947e-01 -1.252834647893905640e-01 -3.454003632068634033e-01 2.129015475511550903e-01 3.854838013648986816e-01 2.814813852310180664e-01 6.912162154912948608e-02 -3.988810479640960693e-01 -1.125092580914497375e-01 2.624654956161975861e-02
1.648667305707931519e-01 -3.713296353816986084e-01 1.417577117681503296e-01 -1.663606017827987671e-01 -1.996124684810638428e-01 6.788306683301925659e-02 -8.506641536951065063e-02 7.478569447994232178e-02 2.672721445560455322e-01 -2.288228869438171387e-01 -2.487514615058898926e-01 9.511806070804595947e-02 -1.154678314924240112e-01 2.148091346025466919e-01 9.543048590421676636e-02 9.756694734096527100e-02
-3.911112248897552490e-02 3.292647600173950195e-01 -1.605509370565414429e-01 -1.585467904806137085e-01 2.325542070025221619e-08 -2.911319769918918610e-02 8.572978526353836060e-02 -1.975393295288085938e-01 3.122776187956333160e-02 2.524182796478271484e-01 -6.863895058631896973e-02 3.043966293334960938e-01 -2.004196196794509888e-01 1.395256351679563522e-02 -2.494915679562836885e-04 2.130071669816970825e-01
3.207991123199462891e-01 2.095254957675933838e-01 1.585081070661544800e-01 -1.193482130765914917e-01 -4.333565235137939453e-01 -3.648736327886581421e-02 5.050273984670639038e-02 -5.074006505310535431e-03 -2.106428146362304688e-03 -1.158835068345069885e-01 -1.121559292078018188e-01 3.025347590446472168e-01 3.124715089797973633e-01 -1.655800342559814453e-01 -1.093412488698959351e-01 -1.353842020034790039e-01
-1.132053509354591370e-01 -4.019763171672821045e-01 -2.300905138254165649e-01 4.543086886405944824e-02 1.358430236577987671e-01 2.068139016628265381e-01 -5.634277686476707458e-02 -1.365815997123718262e-01 -5.437872931361198425e-02 -1.146774590015411377e-01 1.024668291211128235e-01 3.567106425762176514e-01 -2.621982097625732422e-01 1.704054325819015503e-02 9.915245324373245239e-02 7.743959780782461166e-03
-3.943081796169281006e-01 6.567411869764328003e-02 1.913012713193893433e-01 -1.739245355129241943e-01 1.011286899447441101e-01 -1.758436560630798340e-01 -1.188558414578437805e-01 3.035223782062530518e-01 5.018704757094383240e-02 1.619331538677215576e-01 3.941660746932029724e-02 2.768378555774688721e-01 -3.146634623408317566e-02 1.148788258433341980e-01 4.653213080018758774e-03 -2.543744742870330811e-01
1.169884428381919861e-01 3.112468421459197998e-01 -2.157021015882492065e-01 -5.168148130178451538e-02 -2.447255402803421021e-01 6.819030642509460449e-02 3.210986256599426270e-01 2.711838185787200928e-01 -9.350536018610000610e-02 -2.010036408901214600e-01 1.743606030941009521e-01 -1.520599983632564545e-02 2.701355703175067902e-02 -4.356391727924346924e-02 -3.964960202574729919e-02 -1.219506263732910156e-01
-2.868162095546722412e-01 3.557199239730834961e-01 -3.909676671028137207e-01 2.267746776342391968e-01 6.755934655666351318e-02 4.810934662818908691e-01 2.009216547012329102e-01 -3.668541312217712402e-01 2.282084673643112183e-01 1.394941955804824829e-01 -1.532534062862396240e-01 -1.583946645259857178e-01 1.811767369508743286e-01 1.336888223886489868e-01 -1.681216061115264893e-01 1.895794123411178589e-01
4.033862650394439697e-01 -2.377825230360031128e-01 4.690491855144500732e-01 -2.848851382732391357e-01 1.939451694488525391e-01 -1.202348619699478149e-01 1.677076369524002075e-01 4.537201523780822754e-01 3.245186507701873779e-01 3.622059151530265808e-02 -7.264523208141326904e-02 -2.759895622730255127e-01 2.016095668077468872e-01 2.916469275951385498e-01 1.083617028573014007e-12 -5.790273845195770264e-02
3.236254751682281494e-01 -1.073585525155067444e-01 -1.229015141725540161e-01 1.020643934607505798e-01 -2.740808725357055664e-01 -3.201398765668272972e-03 -1.796914935111999512e-01 2.962563931941986084e-01 5.006881952285766602e-01 -3.405619561672210693e-01 2.686369046568870544e-02 -2.960478365421295166e-01 -4.070614576339721680e-01 3.855410516262054443e-01 -7.030585408210754395e-02 4.241267591714859009e-02
4.293729662895202637e-01 -3.638448417186737061e-01 1.230119392275810242e-01 -2.225317507982254028e-01 -1.278988106078146461e-32 -3.948966041207313538e-02 -1.006761267781257629e-01 1.777133792638778687e-01 -2.246536612510681152e-01 8.961493521928787231e-02 2.530113756656646729e-01 -3.457214832305908203e-01 8.713153749704360962e-02 -8.829259872436523438e-02 -2.218240201473236084e-01 -9.909563232213258743e-04
-1.340614855289459229e-01 -3.948874399065971375e-02 -1.210704222321510315e-01 6.069023013114929199e-01 6.457706913352012634e-03 -2.814761400222778320e-01 -2.033131010830402374e-02 1.679756045341491699e-01 1.875928938388824463e-01 5.167903900146484375e-01 -5.093796849250793457e-01 9.552620351314544678e-02 -3.703126907348632812e-01 1.572876572608947754e-01 -1.527426065877079964e-03 -2.046906352043151855e-01
2.893224656581878662e-01 -3.782783150672912598e-01 5.968031883239746094e-01 3.500129580497741699e-01 2.914730310440063477e-01 -8.950736373662948608e-02 4.264046624302864075e-02 2.914105653762817383e-01 -1.396910250186920166e-01 5.684835910797119141e-01 -1.969538033008575439e-01 -1.631088256835937500e-01 -3.845509290695190430e-01 -1.197855174541473389e-01 2.727508946167760283e-32 -2.020998001098632812e-01
