6.874023377895355225e-02
6.710834801197052002e-02
5.241722986102104187e-02
-6.958697736263275146e-02
4.484481737017631531e-02
7.590992003679275513e-02
-7.680831104516983032e-02
-5.927637591958045959e-02
-2.197355590760707855e-02
5.429545789957046509e-02
-6.018453463912010193e-02
6.145492568612098694e-02
-8.928187936544418335e-02
4.936425015330314636e-02
-2.624039910733699799e-02
-3.235595300793647766e-02
-3.816381096839904785e-02
-7.516288757324218750e-02
6.164643913507461548e-02
1.340724620968103409e-02
4.986914247274398804e-02
-9.110207110643386841e-02
1.492839679121971130e-02
-3.996360674500465393e-02
-5.251351371407508850e-02
-1.439892314374446869e-02
6.868981570005416870e-02
3.903037309646606445e-02
-1.061417069286108017e-02
-1.201861817389726639e-02
-1.562451757490634918e-02
9.453373029828071594e-03
4.551244527101516724e-02
1.051232684403657913e-02
8.994489163160324097e-02
8.564635366201400757e-02
-1.985377073287963867e-02
9.365964680910110474e-02
1.406119018793106079e-02
-5.200631450861692429e-03
-4.069593176245689392e-02
-4.792549461126327515e-02
8.960601687431335449e-02
1.217470094561576843e-01
4.602184891700744629e-02
-7.878842204809188843e-02
-2.429752051830291748e-02
-3.265016153454780579e-02
-7.020475342869758606e-03
3.835757821798324585e-02
2.635361999273300171e-02
1.128631993196904659e-03
6.873874459415674210e-03
4.158300533890724182e-02
-4.144389554858207703e-02
7.760437577962875366e-02
4.356289654970169067e-02
-2.023672312498092651e-02
4.471029713749885559e-02
5.176199600100517273e-02
1.135078519582748413e-01
-2.899087592959403992e-02
3.429918363690376282e-02
-1.015272364020347595e-01
