-7.058727089315652847e-03 2.356112934648990631e-02 4.749343171715736389e-02 -4.470089823007583618e-02 -2.544718794524669647e-02 2.705627493560314178e-02 5.783810093998908997e-02 -7.771277800202369690e-03 -7.797878235578536987e-03 -1.491271145641803741e-02 -4.515130072832107544e-02 -4.584317281842231750e-02 -3.588948631659150124e-03 2.504704147577285767e-02 -3.213724493980407715e-02 -5.731236562132835388e-02 2.649770677089691162e-02 -7.174869999289512634e-03 4.175987560302019119e-03 -5.789289623498916626e-02 -1.110983937978744507e-01 -5.265659466385841370e-02 6.598445773124694824e-02 -2.623219415545463562e-02 -4.909965023398399353e-02 -2.991994656622409821e-02 -1.419799122959375381e-02 1.827348582446575165e-02 9.556652366882190108e-05 -6.017666310071945190e-03 -2.607832849025726318e-02 5.455294251441955566e-02 -4.712155088782310486e-02 2.223363704979419708e-02 1.718550454825162888e-03 -3.892459720373153687e-02 -1.406454853713512421e-02 -1.135549768805503845e-01 -1.140768900513648987e-01 -1.646948419511318207e-02 7.367709279060363770e-02 -5.391065496951341629e-03 1.085555106401443481e-01 -9.014013409614562988e-02 8.582708984613418579e-02 -5.585089698433876038e-02 2.537311241030693054e-02 -4.620093852281570435e-02 2.065747790038585663e-02 7.435121107846498489e-03 -6.785384844988584518e-03 -2.154444716870784760e-02 1.170127466320991516e-01 -2.298538107424974442e-03 6.540764123201370239e-02 8.408143371343612671e-02 2.551490440964698792e-02 -2.734639681875705719e-03 8.182455599308013916e-02 -6.909216195344924927e-02 -8.865233510732650757e-02 5.227688699960708618e-02 5.336742848157882690e-02 -2.151040174067020416e-02
-5.533101409673690796e-02 4.343395587056875229e-03 -4.692555591464042664e-02 -1.574090495705604553e-02 -3.383663669228553772e-02 9.372550994157791138e-03 -8.745504543185234070e-03 4.393680486828088760e-03 -4.857010208070278168e-03 2.098618820309638977e-02 6.908963550813496113e-04 1.062260866165161133e-01 4.776431247591972351e-02 3.100114874541759491e-02 -1.721218042075634003e-02 1.207681652158498764e-02 -6.596551742404699326e-03 1.212533283978700638e-02 1.043569743633270264e-01 -2.111498638987541199e-02 -6.898220628499984741e-02 -3.788643330335617065e-02 -3.571781888604164124e-02 2.022478915750980377e-02 -1.265680883079767227e-02 5.948072765022516251e-03 4.255612939596176147e-02 -4.981323331594467163e-02 1.390039455145597458e-03 -5.638477206230163574e-02 1.554015930742025375e-02 -2.918671816587448120e-03 -5.233809817582368851e-03 1.140674855560064316e-02 -8.253506571054458618e-02 4.951212089508771896e-03 -2.629893086850643158e-02 -1.004104688763618469e-01 -1.027775276452302933e-02 1.170354429632425308e-02 -1.341056451201438904e-02 1.603913679718971252e-02 6.511151790618896484e-02 7.981684058904647827e-02 -3.230620175600051880e-02 -1.107562240213155746e-02 1.100332196801900864e-02 -3.196623921394348145e-02 2.339118858799338341e-03 -2.797280810773372650e-02 -7.732821977697312832e-04 1.524341478943824768e-02 -1.059760376811027527e-01 5.251770466566085815e-02 -3.222446516156196594e-02 -1.255813613533973694e-02 4.044214263558387756e-02 2.259208075702190399e-02 4.352242127060890198e-02 1.773303374648094177e-02 9.351035207509994507e-02 8.784482255578041077e-03 2.755926689133048058e-03 6.066621281206607819e-04
-5.617849901318550110e-02 5.958055332303047180e-02 -3.246738016605377197e-02 6.278913468122482300e-02 -6.472412031143903732e-03 6.324072182178497314e-02 -8.040096610784530640e-03 7.940028607845306396e-02 -8.758018724620342255e-03 1.987778209149837494e-02 4.043106734752655029e-02 -7.887480314821004868e-04 4.393233358860015869e-02 3.679496049880981445e-02 -3.725015372037887573e-02 1.236680080182850361e-03 6.503824144601821899e-02 -2.634478441905230284e-04 -6.841041147708892822e-02 7.909519225358963013e-02 1.432478334754705429e-02 7.958251982927322388e-03 -4.292509704828262329e-02 2.555215731263160706e-02 2.556516230106353760e-02 -6.616227794438600540e-03 -8.602634072303771973e-02 -3.127675503492355347e-02 8.176028728485107422e-03 -4.109698813408613205e-03 3.807252645492553711e-02 4.515167791396379471e-03 4.723540693521499634e-02 1.469417568296194077e-02 4.388857632875442505e-02 5.948482081294059753e-02 1.546276733279228210e-02 9.095578640699386597e-02 -8.930346369743347168e-02 1.651643775403499603e-02 -8.785882033407688141e-03 3.448048233985900879e-02 -1.246306672692298889e-01 5.440821498632431030e-02 -6.477979570627212524e-02 -7.571776211261749268e-02 1.687840186059474945e-02 2.487196028232574463e-02 8.452113717794418335e-03 -2.483797259628772736e-02 -5.018014088273048401e-02 5.362535268068313599e-02 7.896836847066879272e-02 6.599698960781097412e-02 -2.474392019212245941e-02 -8.053401857614517212e-02 2.623696252703666687e-02 1.476798485964536667e-02 -7.094267010688781738e-02 3.176236152648925781e-02 -4.192809015512466431e-02 2.028334885835647583e-02 -2.677671611309051514e-03 4.471835214644670486e-03
8.451862633228302002e-02 4.999929293990135193e-02 7.274176180362701416e-02 6.024760752916336060e-02 1.119275949895381927e-02 1.379977166652679443e-01 -1.622451655566692352e-02 4.605390876531600952e-02 -1.910153031349182129e-02 -4.754363745450973511e-02 -6.198421493172645569e-02 -8.534721285104751587e-02 2.777199726551771164e-03 -1.432845443487167358e-01 2.304336056113243103e-02 -1.777683943510055542e-01 -2.206103876233100891e-03 2.968195360153913498e-03 6.902048736810684204e-02 2.707824483513832092e-02 1.511311903595924377e-02 -7.579061784781515598e-04 2.595748938620090485e-02 2.088384144008159637e-02 3.799503203481435776e-03 -1.019745320081710815e-02 8.406987041234970093e-02 -5.239441245794296265e-02 6.650964170694351196e-02 -7.892008125782012939e-02 -7.258465886116027832e-02 8.938121795654296875e-02 -5.678251385688781738e-02 -6.865449249744415283e-02 8.713044971227645874e-02 5.497985985130071640e-04 -1.952199824154376984e-02 1.977088898420333862e-01 -1.646005809307098389e-01 -1.832225173711776733e-02 -4.216166585683822632e-02 -7.323008030652999878e-02 2.640676125884056091e-02 9.163205325603485107e-02 2.236680984497070312e-01 4.666994139552116394e-02 -4.309192299842834473e-02 5.413001775741577148e-02 -4.356755409389734268e-03 -1.416253950446844101e-02 -4.192928317934274673e-03 -4.435510560870170593e-02 2.711771428585052490e-01 1.373393982648849487e-01 2.043432183563709259e-02 -3.903681412339210510e-02 -8.274978399276733398e-02 -5.847880244255065918e-02 5.757472291588783264e-02 -3.507962450385093689e-02 8.971846103668212891e-02 -7.789374794811010361e-03 -5.298839882016181946e-02 5.063260905444622040e-03
1.796609908342361450e-02 -1.205664221197366714e-02 -5.065400153398513794e-02 -2.604468725621700287e-03 -3.154367953538894653e-02 -4.817872121930122375e-02 2.328471466898918152e-02 -4.301956295967102051e-02 -4.414567351341247559e-02 -6.118642538785934448e-02 -9.782940149307250977e-02 6.210558488965034485e-02 4.883370548486709595e-02 1.415642052888870239e-01 -5.752775818109512329e-03 5.006581917405128479e-02 2.310948818922042847e-02 -6.373336538672447205e-03 -2.000457048416137695e-02 -9.040389955043792725e-02 1.622300222516059875e-02 2.583398669958114624e-02 3.915247321128845215e-02 -3.205284476280212402e-02 -4.900294169783592224e-02 -2.711196057498455048e-02 1.310226917266845703e-01 -1.285865008831024170e-01 -1.163839246146380901e-03 -5.351974815130233765e-02 -1.148855462670326233e-01 -6.241163238883018494e-03 7.809796929359436035e-02 -1.459056437015533447e-01 -6.767970323562622070e-02 7.684871554374694824e-02 -6.363231688737869263e-02 8.506901562213897705e-02 9.336135536432266235e-02 -5.133986845612525940e-02 -2.061312086880207062e-02 -1.405187249183654785e-01 1.481066346168518066e-01 6.013039872050285339e-02 -1.199633162468671799e-02 -8.516406267881393433e-02 -1.239285022020339966e-01 -5.009334534406661987e-02 3.077049506828188896e-03 -2.804058417677879333e-02 -5.499067530035972595e-02 -8.158873021602630615e-02 -1.027822643518447876e-01 -6.250229477882385254e-02 -6.881320476531982422e-02 -1.013417690992355347e-01 -1.126176640391349792e-01 -7.744945585727691650e-02 1.549700498580932617e-01 -4.574697092175483704e-02 1.445637643337249756e-01 5.868236534297466278e-03 -6.027044728398323059e-02 7.225975394248962402e-02
5.150220170617103577e-02 1.442997716367244720e-02 1.805642433464527130e-02 -2.570442110300064087e-02 3.384107351303100586e-02 4.685855936259031296e-03 4.817562922835350037e-02 -2.908308617770671844e-02 -3.547456115484237671e-02 -9.641323238611221313e-02 -1.285399645566940308e-01 4.496460407972335815e-02 2.789863944053649902e-02 -3.245534747838973999e-02 8.804192766547203064e-03 8.014947921037673950e-02 6.138665974140167236e-02 6.939451210200786591e-03 8.525997400283813477e-02 -1.432159394025802612e-01 5.032441392540931702e-02 8.655858784914016724e-02 3.858551010489463806e-02 -5.137744545936584473e-02 -6.684705615043640137e-02 -3.459379449486732483e-02 2.393561042845249176e-02 -1.124240905046463013e-01 -6.022044457495212555e-03 -1.388263404369354248e-01 -1.013266444206237793e-01 1.027063233777880669e-03 6.890746206045150757e-02 -1.169743761420249939e-02 8.279145509004592896e-02 6.710575520992279053e-02 -5.240278691053390503e-02 -5.597502738237380981e-02 1.033633053302764893e-01 -4.746494069695472717e-02 -1.810689643025398254e-02 -1.180590689182281494e-01 2.922306396067142487e-02 3.584811836481094360e-02 -7.918623089790344238e-02 -1.037007272243499756e-01 2.977379132062196732e-03 1.055376976728439331e-02 3.230852633714675903e-02 -3.550516441464424133e-02 -1.155543886125087738e-02 -8.218657225370407104e-02 3.360046073794364929e-02 1.384196579456329346e-01 -6.770168244838714600e-02 8.508895337581634521e-02 -1.184750497341156006e-01 -1.048200726509094238e-01 -5.559810250997543335e-02 6.869783252477645874e-02 5.139376968145370483e-02 -3.181230509653687477e-03 -1.113426964730024338e-02 8.414889127016067505e-02
9.877194650471210480e-03 -5.328055936843156815e-03 3.913626819849014282e-02 3.883593156933784485e-02 -8.474434725940227509e-03 4.240114241838455200e-02 7.592637836933135986e-02 4.548725206404924393e-03 1.607598178088665009e-02 -5.429219454526901245e-03 -1.330827269703149796e-02 -5.048274993896484375e-02 3.935052547603845596e-03 1.516760885715484619e-02 5.468890815973281860e-02 -6.895659863948822021e-02 8.370941132307052612e-02 6.629206240177154541e-02 -3.839761018753051758e-02 5.745042115449905396e-02 -5.193182453513145447e-02 6.716790050268173218e-02 9.004576504230499268e-02 -7.381892763078212738e-03 -7.897481322288513184e-02 5.435478687286376953e-02 -6.955561786890029907e-02 -4.691075161099433899e-02 1.802979782223701477e-02 -2.123199775815010071e-02 3.770782798528671265e-02 -2.070749178528785706e-02 -6.299337744712829590e-02 5.421606823801994324e-02 9.158109873533248901e-02 -7.663433253765106201e-02 6.446498911827802658e-03 1.388847678899765015e-01 3.666166588664054871e-02 -8.625523187220096588e-03 7.615871261805295944e-03 1.761726848781108856e-02 3.692038729786872864e-02 2.485261671245098114e-02 2.935774065554141998e-02 2.867670031264424324e-03 9.029860794544219971e-02 1.814194396138191223e-02 -1.730410009622573853e-02 1.859345124103128910e-03 -2.427909756079316139e-03 5.812087655067443848e-02 -1.763333752751350403e-02 -2.777536958456039429e-02 -2.025242894887924194e-03 1.284333528019487858e-03 1.322483457624912262e-02 7.712282240390777588e-02 -6.352653726935386658e-03 3.084266930818557739e-02 -2.695496752858161926e-02 4.523862153291702271e-02 -3.200146602466702461e-03 6.825270503759384155e-02
-5.294519290328025818e-02 -2.311061508953571320e-02 4.669248685240745544e-02 2.061020396649837494e-02 3.470737487077713013e-02 2.033978141844272614e-02 -7.664324948564171791e-04 -3.043972514569759369e-02 -5.041026324033737183e-02 4.478981345891952515e-02 1.715099997818470001e-02 -6.512930989265441895e-02 1.565716415643692017e-02 -1.510542910546064377e-02 2.491708658635616302e-02 -6.658938527107238770e-02 8.574748784303665161e-02 -5.092480033636093140e-02 4.389968141913414001e-02 5.217737331986427307e-02 -1.026635244488716125e-02 2.474665082991123199e-02 -6.897898763418197632e-02 -5.464738607406616211e-02 -7.536938413977622986e-03 -1.396997179836034775e-02 2.924974076449871063e-02 9.705147705972194672e-03 2.383466623723506927e-02 1.428409013897180557e-02 -1.236835494637489319e-02 -3.715235739946365356e-02 -1.200736314058303833e-02 -1.915412582457065582e-02 -4.024262726306915283e-02 4.127433523535728455e-02 2.060915343463420868e-03 -7.783146109431982040e-03 -7.467864453792572021e-02 -2.245333418250083923e-02 -9.866994805634021759e-03 -7.003279775381088257e-02 -1.256380081176757812e-01 4.733560979366302490e-02 6.197517365217208862e-02 -6.651922315359115601e-02 2.323300950229167938e-02 -6.035810708999633789e-02 1.864271797239780426e-02 3.295683767646551132e-03 2.421130426228046417e-02 -5.636472254991531372e-02 -3.465719893574714661e-02 -9.189812839031219482e-02 7.971277087926864624e-02 -8.255802839994430542e-02 1.431664451956748962e-02 -1.775191910564899445e-02 -2.875768579542636871e-02 3.990001976490020752e-02 -3.196617588400840759e-02 2.344475127756595612e-02 3.053438290953636169e-02 6.146141886711120605e-02
-9.418554604053497314e-03 -2.591619268059730530e-03 -4.093156661838293076e-03 1.143658906221389771e-02 -4.468912631273269653e-02 -1.625750772655010223e-02 -9.730565361678600311e-03 -4.882121458649635315e-03 -3.791119530797004700e-02 1.580860838294029236e-02 1.133549306541681290e-02 -6.620810180902481079e-02 2.303458005189895630e-02 -8.275752514600753784e-02 2.557224035263061523e-02 -6.202473863959312439e-02 2.584662474691867828e-02 -1.901651360094547272e-02 -8.551394939422607422e-02 3.934562671929597855e-03 -6.112933903932571411e-02 4.717827960848808289e-02 3.723229095339775085e-02 5.118721723556518555e-02 -1.335899345576763153e-02 2.632850967347621918e-02 -6.239450722932815552e-02 9.173772297799587250e-03 -2.656802302226424217e-03 9.339263662695884705e-03 1.727149263024330139e-02 -3.440324449911713600e-03 1.546412473544478416e-03 -8.735083043575286865e-03 -9.617333300411701202e-03 -1.001581102609634399e-01 -1.033682283014059067e-02 -2.247274620458483696e-03 -1.734010688960552216e-02 5.514269694685935974e-02 5.543795973062515259e-02 3.418229520320892334e-02 1.323896273970603943e-02 -9.133680164813995361e-02 -3.979348391294479370e-02 -2.657041698694229126e-02 -4.683980345726013184e-02 1.035704277455806732e-02 1.064216904342174530e-02 1.347128418274223804e-03 5.369497928768396378e-03 3.513272153213620186e-03 8.961388841271400452e-03 1.229001283645629883e-01 3.157516196370124817e-02 7.877103239297866821e-02 4.698032885789871216e-02 -2.606126666069030762e-02 -5.335929989814758301e-02 -6.580275297164916992e-02 -5.693582817912101746e-02 -2.104641683399677277e-02 1.196671393699944019e-03 -1.844906434416770935e-02
-9.938636794686317444e-04 -6.971241533756256104e-02 -4.758351296186447144e-02 -2.903614367824047804e-04 -3.026629053056240082e-02 -1.246815547347068787e-01 -6.273279339075088501e-02 4.624192416667938232e-02 2.134831808507442474e-02 3.038723208010196686e-02 4.379057884216308594e-02 -9.333869814872741699e-02 -8.896822109818458557e-03 2.995584346354007721e-02 2.180712856352329254e-02 1.206568852066993713e-01 8.746998384594917297e-03 -7.436050567775964737e-03 8.158080279827117920e-03 8.126872032880783081e-02 4.106220602989196777e-02 -2.065710723400115967e-02 6.490960717201232910e-03 2.535986341536045074e-02 3.383626788854598999e-02 -5.909029860049486160e-03 7.507424801588058472e-02 7.249593734741210938e-02 -1.316726114600896835e-02 3.698849305510520935e-02 4.462904110550880432e-02 -3.932740539312362671e-02 7.449473440647125244e-02 9.302756935358047485e-02 1.173369964817538857e-04 2.560235746204853058e-02 3.223701938986778259e-02 -8.273686468601226807e-02 6.716416031122207642e-02 2.250210754573345184e-02 -4.454488679766654968e-02 8.094728738069534302e-02 9.697075188159942627e-02 -6.121871992945671082e-02 -6.131023168563842773e-02 5.637899413704872131e-02 4.707679897546768188e-02 8.976218104362487793e-02 -4.855704307556152344e-02 5.816108733415603638e-02 4.220438376069068909e-02 5.158077180385589600e-02 -9.335710108280181885e-02 5.552862584590911865e-02 8.805064857006072998e-02 -1.218487396836280823e-01 9.402436017990112305e-02 5.124492570757865906e-02 3.020784072577953339e-02 -6.632363051176071167e-02 3.893042728304862976e-02 -5.426528397947549820e-03 9.001635946333408356e-03 -5.231645330786705017e-02
2.166140824556350708e-02 -2.567253820598125458e-02 -3.568314388394355774e-02 -3.976745530962944031e-03 -1.324563194066286087e-02 -2.286220202222466469e-03 -1.082335226237773895e-02 2.135041356086730957e-02 -5.588484462350606918e-03 1.806784071959555149e-03 7.434885203838348389e-02 1.126676239073276520e-02 9.013830684125423431e-03 -3.005336411297321320e-02 -8.898734813556075096e-04 6.717249751091003418e-02 7.504856213927268982e-03 -3.463027626276016235e-02 9.460371732711791992e-02 1.848919317126274109e-02 -6.365346163511276245e-02 -5.638596042990684509e-02 8.411385118961334229e-03 2.990949153900146484e-02 1.069027371704578400e-02 -2.427003532648086548e-02 5.247163400053977966e-02 7.068791892379522324e-03 -4.753024782985448837e-03 -3.812985261902213097e-03 2.432581409811973572e-02 -2.523903176188468933e-02 1.266844384372234344e-02 3.032344952225685120e-02 -9.867627918720245361e-02 -1.117656901478767395e-01 -2.141407318413257599e-02 -1.052371412515640259e-01 -1.763523742556571960e-02 2.667225152254104614e-02 -1.753861457109451294e-02 5.425395071506500244e-02 -8.808505535125732422e-02 -1.204411908984184265e-01 -1.149626299738883972e-01 -4.510474950075149536e-02 -1.873309537768363953e-02 5.028607323765754700e-02 5.005844309926033020e-02 8.946435526013374329e-03 7.411115220747888088e-04 3.126225201413035393e-03 -5.217479169368743896e-02 -1.477988809347152710e-01 -6.826896220445632935e-02 -1.132088229060173035e-01 2.863144688308238983e-02 3.726572543382644653e-02 -3.036553226411342621e-02 -8.428344130516052246e-02 -1.002864465117454529e-01 2.476313384249806404e-03 -2.150894515216350555e-02 -7.879125885665416718e-03
2.788087911903858185e-02 4.892187193036079407e-02 2.741403132677078247e-02 1.530197355896234512e-02 -1.194340735673904419e-02 -2.243157848715782166e-02 -1.443702820688486099e-02 2.590164169669151306e-02 2.260204777121543884e-02 -2.693090960383415222e-02 4.627247154712677002e-02 4.210949689149856567e-02 -2.619069442152976990e-02 -1.023352593183517456e-01 6.673435866832733154e-02 1.610031537711620331e-02 2.157271094620227814e-02 -5.629833787679672241e-03 -9.827696532011032104e-02 8.539803326129913330e-02 -6.095655634999275208e-02 7.367357145994901657e-03 -2.842155518010258675e-04 3.577478975057601929e-02 2.194550260901451111e-02 6.362476199865341187e-02 7.524451613426208496e-02 -6.582359224557876587e-02 -1.185558154247701168e-03 6.012913212180137634e-02 -2.044418593868613243e-03 9.994902648031711578e-03 2.752001164481043816e-03 1.950043439865112305e-02 -1.116452664136886597e-01 -4.733714461326599121e-02 7.202412933111190796e-02 -5.562432482838630676e-02 6.729269027709960938e-02 3.342369571328163147e-02 3.595266118645668030e-02 7.150800526142120361e-02 -1.330132503062486649e-02 -7.730995304882526398e-03 7.367894053459167480e-02 5.843230709433555603e-02 8.599900454282760620e-02 3.678930550813674927e-02 -1.005509402602910995e-02 -3.172040451318025589e-03 2.789047313854098320e-03 3.173491358757019043e-02 -1.099473834037780762e-01 -1.282315254211425781e-01 3.629847988486289978e-02 -6.587732583284378052e-02 8.781137317419052124e-02 3.336684405803680420e-02 -5.817825719714164734e-02 9.938664734363555908e-03 -8.019182085990905762e-02 -7.568388245999813080e-03 -3.141623735427856445e-02 -4.715674743056297302e-02
6.777844578027725220e-02 -2.088488638401031494e-02 -2.199829742312431335e-02 1.378222601488232613e-03 9.431323036551475525e-03 3.553152084350585938e-03 2.860802784562110901e-02 2.328893914818763733e-02 1.547008380293846130e-02 9.962422773241996765e-03 -4.824456293135881424e-03 -2.723906747996807098e-02 -3.660980612039566040e-02 6.203668192028999329e-03 -1.833201735280454159e-03 -3.206959366798400879e-02 4.559483379125595093e-02 4.062448069453239441e-02 1.118595227599143982e-01 7.647557556629180908e-02 -5.952613055706024170e-02 7.569817453622817993e-02 4.003438726067543030e-02 -3.625519946217536926e-02 2.510344237089157104e-02 -3.076973743736743927e-02 -1.016009878367185593e-02 5.969436373561620712e-03 -1.861216267570853233e-03 1.156242447905242443e-03 -1.959317177534103394e-02 8.152618072926998138e-03 -6.438747793436050415e-02 2.434312552213668823e-02 -7.984896004199981689e-02 5.321489152265712619e-05 8.480736985802650452e-03 -1.246707886457443237e-01 7.800003886222839355e-02 -3.240080177783966064e-02 -1.036898139864206314e-02 -1.214369200170040131e-02 -8.159051835536956787e-02 8.637685328722000122e-02 -8.427088707685470581e-02 3.244009613990783691e-02 5.389937758445739746e-02 -2.481588907539844513e-02 -6.074617151170969009e-03 6.182500720024108887e-02 2.994354441761970520e-02 6.967892497777938843e-02 -1.135091390460729599e-02 1.564017087221145630e-01 -2.321364171802997589e-02 5.021702125668525696e-02 4.550341516733169556e-02 -2.661049924790859222e-02 5.760381743311882019e-02 2.112451009452342987e-03 5.476272478699684143e-02 -5.538658425211906433e-02 -1.996378414332866669e-03 7.356130518019199371e-03
3.241438791155815125e-02 -8.921897970139980316e-03 -8.102222636807709932e-05 6.936392746865749359e-03 6.667878944426774979e-03 8.166430145502090454e-02 -1.030865758657455444e-01 -4.149130731821060181e-02 -2.000551484525203705e-02 -1.036087870597839355e-01 7.249332964420318604e-02 -1.693910360336303711e-02 6.268487125635147095e-02 -4.077712073922157288e-02 -1.909675821661949158e-02 -3.710831981152296066e-03 -1.913133449852466583e-02 -5.943615734577178955e-02 -1.648963615298271179e-02 -4.853845760226249695e-02 -9.214998036623001099e-02 -2.460457943379878998e-02 1.424306817352771759e-02 1.181188225746154785e-02 -7.563497126102447510e-02 3.714929521083831787e-02 1.658704504370689392e-02 -1.674249954521656036e-02 -7.973747415235266089e-05 9.690821170806884766e-03 1.255916990339756012e-02 2.543238457292318344e-03 5.374826956540346146e-03 -6.390435248613357544e-02 9.468292444944381714e-02 1.567926071584224701e-02 -8.467634767293930054e-02 3.100442700088024139e-02 4.462236538529396057e-03 5.192048102617263794e-02 4.702605307102203369e-02 9.193506091833114624e-02 -9.737079590559005737e-02 1.303649842739105225e-01 -5.852571222931146622e-03 8.818327635526657104e-02 -8.452919125556945801e-02 -8.816736936569213867e-02 -5.422620847821235657e-02 -1.463547348976135254e-02 -7.893816567957401276e-03 -1.051828861236572266e-01 5.668858997523784637e-03 7.230777293443679810e-02 -3.951549157500267029e-02 7.175212353467941284e-02 5.598084256052970886e-02 -2.283817902207374573e-02 1.994736306369304657e-02 1.052324399352073669e-01 -3.386661782860755920e-02 6.096615456044673920e-03 3.665557131171226501e-02 -1.503923628479242325e-02
-1.411978621035814285e-03 2.995631657540798187e-02 -2.443503588438034058e-02 -2.933443337678909302e-02 -7.227399386465549469e-03 -4.538625851273536682e-02 -7.810094859451055527e-03 -5.800499767065048218e-02 -1.405258849263191223e-02 -3.112019598484039307e-02 3.344472125172615051e-02 5.681836605072021484e-02 2.818878740072250366e-03 4.833502322435379028e-02 7.155457139015197754e-02 1.205213740468025208e-02 6.559175252914428711e-02 -3.128525987267494202e-02 3.118376480415463448e-05 -1.306290086358785629e-02 9.001512825489044189e-02 -4.414578527212142944e-02 -2.994719194248318672e-03 -1.056234911084175110e-02 2.295489190146327019e-03 7.673584669828414917e-02 -4.663535207509994507e-02 -2.688815817236900330e-03 -2.182285487651824951e-02 -2.996544353663921356e-03 7.145118713378906250e-02 -3.225031774491071701e-03 2.525991201400756836e-02 -5.984495952725410461e-02 4.667559266090393066e-02 6.506573408842086792e-02 1.104103308171033859e-02 6.167641282081604004e-02 -3.782514110207557678e-02 1.814659312367439270e-02 -6.443812698125839233e-02 -2.313216775655746460e-02 7.894172519445419312e-02 -6.734367460012435913e-02 1.111630722880363464e-01 2.980335615575313568e-02 -1.119746044278144836e-01 3.521192818880081177e-03 -6.565583404153585434e-03 -1.022289041429758072e-02 6.478207558393478394e-02 -1.666507497429847717e-02 -1.146601419895887375e-02 1.009920686483383179e-01 9.139636158943176270e-02 -8.672777563333511353e-03 -3.889565169811248779e-02 -2.397046983242034912e-02 -1.087604090571403503e-03 -2.035096473991870880e-02 4.423459619283676147e-02 -8.934667333960533142e-03 3.658565459772944450e-03 -4.695567861199378967e-02
2.792113646864891052e-02 1.065606623888015747e-02 1.187974307686090469e-02 -2.239422872662544250e-03 -4.029213916510343552e-03 1.607118733227252960e-02 -1.499265525490045547e-02 4.526762664318084717e-02 -2.594736590981483459e-02 6.667742505669593811e-03 -5.486836191266775131e-03 5.002327635884284973e-02 2.393813803791999817e-02 6.370507180690765381e-02 -7.238310761749744415e-03 1.049545034766197205e-01 -2.211087569594383240e-02 6.182207260280847549e-03 -3.814148530364036560e-02 3.817896172404289246e-02 -1.004501581192016602e-01 -5.772982165217399597e-02 -1.610365509986877441e-02 -2.424314850941300392e-03 -1.033026631921529770e-02 1.021370384842157364e-02 -6.912776082754135132e-02 3.980705142021179199e-02 -1.979548484086990356e-02 6.550886482000350952e-02 4.112779628485441208e-03 5.674048140645027161e-02 7.082857191562652588e-02 -5.006619729101657867e-03 -4.434223473072052002e-02 -6.249541789293289185e-02 -1.061301864683628082e-02 4.814834892749786377e-02 1.215914338827133179e-01 -1.987147331237792969e-02 -6.120392680168151855e-02 2.960649086162447929e-03 8.712983876466751099e-02 -1.020504534244537354e-02 -8.154230308718979359e-04 5.695625022053718567e-02 -6.187909096479415894e-02 -3.506505489349365234e-02 6.732172798365354538e-03 -6.414231378585100174e-03 1.975735090672969818e-02 -4.964353889226913452e-02 1.803630404174327850e-02 8.641123026609420776e-02 -3.638808801770210266e-02 -1.269287243485450745e-02 -7.014301372691988945e-04 -9.910142980515956879e-03 -5.007893964648246765e-02 1.896724221296608448e-03 1.428211224265396595e-03 -4.317358543630689383e-04 8.895478094927966595e-04 7.976520806550979614e-02
-7.028386741876602173e-02 3.677076473832130432e-02 3.569732233881950378e-02 7.852062582969665527e-03 -1.524766720831394196e-02 -1.792752556502819061e-02 2.583190985023975372e-02 9.390361607074737549e-02 1.908893138170242310e-02 -9.796232916414737701e-03 -1.570842228829860687e-02 2.547445148229598999e-02 1.863466203212738037e-02 -3.335847984999418259e-03 4.771057516336441040e-02 7.237343490123748779e-02 8.729256689548492432e-02 5.735484510660171509e-02 -3.216740116477012634e-02 -3.607764467597007751e-02 8.042915910482406616e-02 2.186145260930061340e-02 9.076759219169616699e-02 -1.906993985176086426e-02 1.301928330212831497e-02 -7.282729726284742355e-03 -1.951064914464950562e-02 -3.948422148823738098e-02 -3.913792595267295837e-02 -3.025616705417633057e-02 -4.420961439609527588e-02 -2.436185814440250397e-02 -1.315470784902572632e-02 9.375020116567611694e-02 -8.225864171981811523e-02 4.350914806127548218e-02 -1.015089452266693115e-02 -8.151795715093612671e-03 -1.087277829647064209e-01 -3.374752774834632874e-02 1.270126365125179291e-02 -3.463980183005332947e-02 5.236142501235008240e-02 9.707872569561004639e-02 3.824627399444580078e-02 -8.321474492549896240e-02 7.933596149086952209e-03 -6.508908700197935104e-03 2.206796966493129730e-02 -2.482161653460934758e-05 -6.562697235494852066e-04 4.067218303680419922e-02 3.620738908648490906e-02 -3.099562600255012512e-02 9.437420219182968140e-02 -4.264508932828903198e-02 3.731188550591468811e-02 -2.970499917864799500e-02 -7.385399658232927322e-03 -1.200550943613052368e-01 -4.474393278360366821e-02 2.129618823528289795e-02 -2.744934149086475372e-02 7.642545551061630249e-02
1.328235305845737457e-02 -4.995827749371528625e-02 -6.394940614700317383e-02 3.794873133301734924e-02 -2.868268638849258423e-02 -6.518056243658065796e-02 2.342524379491806030e-02 5.146755278110504150e-02 3.249332308769226074e-02 1.939350552856922150e-02 -7.349713705480098724e-04 -2.376718074083328247e-02 -2.329843118786811829e-02 -2.529655583202838898e-02 3.276922553777694702e-02 1.236216351389884949e-02 -2.030091919004917145e-02 1.424101553857326508e-02 -2.626991085708141327e-02 1.762347854673862457e-02 -8.806843310594558716e-03 1.384260691702365875e-02 1.593912765383720398e-02 -6.233393028378486633e-02 -9.328992106020450592e-03 -1.470090076327323914e-02 1.668285205960273743e-02 6.188075989484786987e-02 4.022231325507164001e-03 -1.773342862725257874e-02 -3.079916536808013916e-02 -2.992060407996177673e-02 -3.183608502149581909e-02 -7.960561662912368774e-02 7.232277840375900269e-02 -3.466370701789855957e-02 -3.430190554354339838e-05 -7.993267476558685303e-02 5.391239002346992493e-02 4.806274920701980591e-02 -2.159609459340572357e-02 -2.059372141957283020e-02 -1.237715706229209900e-01 1.542305923067033291e-03 -7.588493824005126953e-02 8.841799944639205933e-02 9.965731203556060791e-02 -2.676377445459365845e-02 6.026401370763778687e-02 8.951812051236629486e-03 4.436896997503936291e-04 3.720534965395927429e-02 -8.376765996217727661e-02 -5.389985628426074982e-03 -4.453896358609199524e-02 -8.015768975019454956e-02 9.581504017114639282e-02 -2.892904728651046753e-02 -5.365771707147359848e-03 8.588025346398353577e-03 -8.232250547735020518e-05 -4.941741470247507095e-03 3.522766288369894028e-03 -1.629287190735340118e-02
3.575126454234123230e-02 5.406764149665832520e-02 -2.301885373890399933e-02 4.867623746395111084e-02 9.015978430397808552e-04 -8.560525253415107727e-03 -1.327146496623754501e-02 -8.357468061149120331e-03 3.899019584059715271e-02 -1.353765372186899185e-02 -7.185074687004089355e-02 -6.858337670564651489e-03 -2.959557436406612396e-02 1.125998049974441528e-02 4.526021704077720642e-02 -4.689911380410194397e-02 -2.070995047688484192e-02 6.399472802877426147e-02 2.244670875370502472e-02 -1.324334293603897095e-01 5.903793126344680786e-02 2.654904127120971680e-02 2.884243801236152649e-02 5.031757056713104248e-02 1.154187973588705063e-02 1.956796087324619293e-02 -1.639573834836483002e-02 -5.330982059240341187e-02 -4.137030337005853653e-03 -7.379481196403503418e-02 -1.646319963037967682e-02 1.382295787334442139e-02 -7.424002513289451599e-03 -1.050805300474166870e-02 5.391265079379081726e-02 2.821709401905536652e-02 -7.195429503917694092e-02 -1.225597485899925232e-01 -6.281575560569763184e-02 -2.178277634084224701e-02 1.801034808158874512e-02 -1.483020838350057602e-03 1.088668406009674072e-01 -3.470818698406219482e-02 9.007267653942108154e-02 -1.016000732779502869e-01 -9.818422049283981323e-02 -2.671812474727630615e-02 -4.551005363464355469e-02 -1.526592671871185303e-02 -2.142087323591113091e-03 -3.745819255709648132e-02 -8.663570880889892578e-02 -7.666551321744918823e-02 -4.301216918975114822e-03 -5.981297418475151062e-02 -1.279450766742229462e-02 -9.583906829357147217e-02 -3.641934692859649658e-02 -5.270562134683132172e-03 1.420628372579813004e-02 1.072536502033472061e-02 -1.934381201863288879e-02 1.383824646472930908e-02
3.255512565374374390e-02 3.250874578952789307e-02 1.460435613989830017e-02 -9.308343753218650818e-03 1.364086940884590149e-02 3.960202261805534363e-02 1.771327573806047440e-03 1.226239744573831558e-02 -4.796678945422172546e-02 -2.168753184378147125e-02 -6.389396637678146362e-02 8.349573612213134766e-02 -6.804899871349334717e-02 5.487797316163778305e-03 -4.145402833819389343e-02 -2.805465646088123322e-02 -3.517672419548034668e-02 -5.490894615650177002e-02 -9.888885915279388428e-02 -4.288920387625694275e-02 3.003118745982646942e-02 3.874884545803070068e-02 -3.529468551278114319e-02 -5.702524632215499878e-02 -5.023571848869323730e-02 -1.992367208003997803e-02 8.595430850982666016e-02 -2.775291725993156433e-02 1.317234709858894348e-02 -4.293027147650718689e-02 -6.863510608673095703e-02 7.313554640859365463e-03 -5.566721782088279724e-02 -8.392564207315444946e-02 -7.019422203302383423e-02 -5.314187332987785339e-02 -1.650590635836124420e-02 4.200226068496704102e-02 2.426247810944914818e-03 -2.440015971660614014e-02 6.928306072950363159e-03 -1.143223568797111511e-01 -8.546867966651916504e-02 -1.195955928415060043e-02 8.172716200351715088e-02 1.604190096259117126e-02 -6.217752024531364441e-02 -4.093050956726074219e-02 2.478161477483808994e-04 1.692414470016956329e-02 7.083028554916381836e-03 -5.158349126577377319e-02 -2.153248898684978485e-02 -1.148110777139663696e-01 -1.916132867336273193e-02 7.574331015348434448e-02 -7.546566426753997803e-02 -2.253642305731773376e-02 3.156606853008270264e-02 4.619714617729187012e-02 -9.245071560144424438e-02 -8.556080865673720837e-04 -4.476941656321287155e-03 -4.051040485501289368e-02
