-1.012093573808670044e-01 1.600701734423637390e-02
-9.920483082532882690e-02 -6.206091493368148804e-02
-8.684037625789642334e-02 8.387500420212745667e-03
1.099177151918411255e-01 8.973985910415649414e-02
-4.804252833127975464e-02 -8.978804573416709900e-03
-1.829659342765808105e-01 3.269334137439727783e-02
1.105069220066070557e-01 4.566950723528862000e-02
1.345439553260803223e-01 6.911335140466690063e-02
5.369392782449722290e-02 -3.801027312874794006e-02
7.642660290002822876e-02 -8.594801276922225952e-02
1.782348453998565674e-01 7.778437808156013489e-03
-1.440266072750091553e-01 5.476626008749008179e-02
-1.428454741835594177e-02 -8.078760653734207153e-02
-1.881593465805053711e-01 1.193494070321321487e-02
1.125492975115776062e-01 1.688436418771743774e-01
-2.220675498247146606e-01 4.270518943667411804e-02
2.002381347119808197e-02 -1.353655159473419189e-01
7.280017435550689697e-02 -3.566917777061462402e-02
-1.869860291481018066e-01 5.022991076111793518e-02
2.075769901275634766e-01 -2.714927541092038155e-03
-1.318401843309402466e-01 1.219035461544990540e-01
1.291451305150985718e-01 1.835937425494194031e-02
-1.400417834520339966e-01 -1.476133316755294800e-01
6.095615774393081665e-02 -3.743379935622215271e-02
1.647223234176635742e-01 6.429962813854217529e-02
-1.112703420221805573e-02 -1.144562289118766785e-01
-5.274636298418045044e-02 1.461918652057647705e-01
1.258910149335861206e-01 -6.962044537067413330e-02
1.706510223448276520e-02 7.767997682094573975e-02
1.446881294250488281e-01 -2.946573682129383087e-02
1.696906685829162598e-01 -3.341834992170333862e-02
-6.233806163072586060e-02 6.242274120450019836e-02
-1.197974830865859985e-01 6.393247842788696289e-02
1.072554662823677063e-01 -1.409124284982681274e-01
-8.961049467325210571e-02 1.307842135429382324e-01
-1.848701387643814087e-01 6.409454345703125000e-02
7.735697925090789795e-02 -5.846093595027923584e-02
-1.936969757080078125e-01 1.472549140453338623e-01
-2.659871578216552734e-01 -5.879401043057441711e-02
9.291879832744598389e-02 -2.367026545107364655e-02
-1.478839945048093796e-02 9.952326864004135132e-02
1.942834258079528809e-01 -1.212931349873542786e-01
-2.181392759084701538e-01 1.100377924740314484e-02
-1.757521331310272217e-01 1.009373087435960770e-02
-2.113840281963348389e-01 5.503720790147781372e-02
1.221926361322402954e-01 -1.180033311247825623e-01
1.458737105131149292e-01 -8.904881030321121216e-02
1.394753307104110718e-01 7.150686532258987427e-02
-1.394050475209951401e-02 -1.299377530813217163e-01
4.892536904662847519e-03 -6.981830298900604248e-02
-7.767394650727510452e-03 -5.975653976202011108e-02
1.488012969493865967e-01 -6.717672944068908691e-02
-2.781119942665100098e-01 1.204816624522209167e-01
-2.472403943538665771e-01 1.748011261224746704e-01
1.481572687625885010e-01 8.328327909111976624e-03
-2.074548900127410889e-01 -3.537583723664283752e-02
1.569855213165283203e-01 -9.995365887880325317e-02
1.358036845922470093e-01 -6.142078340053558350e-02
-9.467353671789169312e-02 1.346329897642135620e-01
-1.787789762020111084e-01 4.497438296675682068e-02
-2.028372585773468018e-01 6.015941873192787170e-02
-1.147065591067075729e-02 -5.613781884312629700e-02
8.650052361190319061e-03 -3.050138987600803375e-02
1.711951792240142822e-01 1.107027381658554077e-01
