-2.639834880828857422e-01 3.706994652748107910e-02 2.389463782310485840e-01 -1.558236777782440186e-01 1.380432993173599243e-01 -2.851449549198150635e-01 2.211637943983078003e-01 -2.342248111963272095e-01 -2.754346430301666260e-01 3.705764561891555786e-02 -2.105973660945892334e-01 -8.310969173908233643e-02 -3.686108589172363281e-01 -7.032620254904031754e-03 1.568675339221954346e-01 -3.051981329917907715e-01 -8.639666438102722168e-02 -1.227227877825498581e-02 -1.606663018465042114e-01 1.619250178337097168e-01 1.788082420825958252e-01 -7.618031650781631470e-02 -1.203542724251747131e-01 -1.057391613721847534e-01 4.359447956085205078e-02 1.351451128721237183e-01 1.346197873353958130e-01 -1.874113380908966064e-01 3.225782141089439392e-02 1.618344932794570923e-01 -2.431625872850418091e-01 -3.207788988947868347e-02 1.858285069465637207e-01 -1.866262853145599365e-01 6.958156079053878784e-02 1.823551058769226074e-01 -2.735189199447631836e-01 -2.456727623939514160e-01 -3.558422029018402100e-01 -2.738640606403350830e-01 -8.632182329893112183e-02 2.404426783323287964e-01 -9.332440048456192017e-02 1.341556310653686523e-01 1.135469526052474976e-01 2.171948403120040894e-01 -7.077549397945404053e-02 4.015707224607467651e-02 1.260897666215896606e-01 1.910825371742248535e-01 1.552516669034957886e-01 7.989230751991271973e-02 -1.835487782955169678e-01 -3.775619566440582275e-01 -3.689743280410766602e-01 -3.488126443699002266e-03 1.088538020849227905e-01 9.189828485250473022e-02 4.540313780307769775e-02 -1.425971388816833496e-01 9.364906698465347290e-02 -7.822523266077041626e-02 -3.979905843734741211e-01 -3.056636452674865723e-01
-1.283446699380874634e-01 -2.005869522690773010e-02 7.310564070940017700e-02 1.956396400928497314e-01 -1.746678352355957031e-01 2.302088737487792969e-01 1.335119754076004028e-01 1.142360046505928040e-01 8.534708619117736816e-02 -7.832310348749160767e-02 -9.734174236655235291e-03 -6.129532307386398315e-02 3.701909184455871582e-01 -1.870228350162506104e-01 6.711778044700622559e-02 -4.998216032981872559e-02 9.570239484310150146e-02 1.688125915825366974e-02 -8.396797813475131989e-03 -1.107938066124916077e-01 -2.056783065199851990e-02 -6.087333336472511292e-02 9.441158175468444824e-02 -1.847137212753295898e-01 2.312480360269546509e-01 5.630679894238710403e-03 2.546702325344085693e-02 1.148123592138290405e-01 2.621223926544189453e-01 -9.487044811248779297e-02 3.242014646530151367e-01 -1.027841493487358093e-01 -8.553642034530639648e-02 -1.548812240362167358e-01 -2.497767060995101929e-01 6.481368839740753174e-02 2.537681162357330322e-01 2.663163244724273682e-01 2.130658924579620361e-01 6.689452379941940308e-02 2.116370946168899536e-01 -6.629216670989990234e-02 -2.250334024429321289e-01 -5.756923928856849670e-03 -1.764980256557464600e-01 -1.999851763248443604e-01 1.110846456140279770e-02 3.453981280326843262e-01 1.970172673463821411e-02 1.081911176443099976e-01 7.720638811588287354e-02 -1.895973831415176392e-01 2.695820927619934082e-01 5.686555430293083191e-02 3.211064338684082031e-01 -1.778707653284072876e-01 -1.590930819511413574e-01 -1.500914990901947021e-02 1.074230074882507324e-01 1.586067825555801392e-01 4.008801877498626709e-01 2.807411253452301025e-01 3.360881507396697998e-01 -1.776966303586959839e-01
-2.033376693725585938e-01 6.230315938591957092e-02 -5.967042595148086548e-02 1.425550132989883423e-01 -2.135787457227706909e-01 -2.535104155540466309e-01 -2.723667621612548828e-01 1.931213140487670898e-01 -1.685243546962738037e-01 1.540850996971130371e-01 -1.401458531618118286e-01 -1.641255170106887817e-01 1.783624738454818726e-01 -4.796099662780761719e-02 3.752124682068824768e-02 -2.744559571146965027e-02 -1.303901076316833496e-01 -1.441488862037658691e-01 4.071642644703388214e-03 -8.897424489259719849e-02 1.596129536628723145e-01 -1.279686391353607178e-01 2.372221201658248901e-01 -3.882487714290618896e-01 -6.098883226513862610e-03 3.807367011904716492e-02 -3.143768012523651123e-02 2.813704311847686768e-01 -2.558090984821319580e-01 -3.191710114479064941e-01 -5.871317908167839050e-02 -2.698836922645568848e-01 -3.722925782203674316e-01 -2.702445685863494873e-01 -4.838548193220049143e-04 1.544927060604095459e-01 -1.709766238927841187e-01 -2.926858663558959961e-01 1.325283497571945190e-01 -1.917542815208435059e-01 -2.702239751815795898e-01 2.809947729110717773e-01 -1.446046531200408936e-01 2.088411450386047363e-01 -2.962566614151000977e-01 -2.245863676071166992e-01 -2.091518193483352661e-01 1.654383540153503418e-01 -3.080074787139892578e-01 8.919216692447662354e-02 -2.248031497001647949e-01 -8.758012950420379639e-02 -1.156348064541816711e-01 -3.034120500087738037e-01 -1.174761354923248291e-01 -1.056363061070442200e-01 -9.419244527816772461e-02 -2.931916713714599609e-02 3.536881878972053528e-02 -7.016484439373016357e-02 9.419050998985767365e-03 3.374798223376274109e-02 6.085179746150970459e-03 -1.237171292304992676e-01
1.924956440925598145e-01 6.000580266118049622e-02 3.767369547858834267e-03 -1.475488543510437012e-01 8.147433400154113770e-02 3.860471770167350769e-02 -3.029284477233886719e-01 -1.534738577902317047e-02 3.511368483304977417e-02 1.103291586041450500e-01 1.609394550323486328e-01 2.665021419525146484e-01 -1.475181430578231812e-01 -1.766553223133087158e-01 1.425112783908843994e-01 1.171108707785606384e-01 2.462715953588485718e-01 -9.725091606378555298e-02 -2.689545452594757080e-01 -1.247087419033050537e-01 -1.376126557588577271e-01 -7.787418365478515625e-02 7.273811846971511841e-03 -2.566214501857757568e-01 -1.233189478516578674e-01 2.423947006464004517e-01 2.854937687516212463e-02 1.221896242350339890e-02 5.634273588657379150e-02 -1.164925377815961838e-02 -1.657447218894958496e-01 1.395331472158432007e-01 -1.827408373355865479e-01 -4.289931803941726685e-02 -1.011128053069114685e-01 3.917425870895385742e-02 5.717426538467407227e-02 -1.817751824855804443e-01 2.845413982868194580e-01 -9.792146831750869751e-02 2.435609698295593262e-03 -4.311560187488794327e-03 6.623066961765289307e-03 -1.350317243486642838e-02 -1.247745081782341003e-01 -2.004440277814865112e-01 -3.730749189853668213e-01 2.939506433904170990e-02 -5.000478029251098633e-02 3.160928934812545776e-02 -2.047666758298873901e-01 -8.807154744863510132e-02 1.640492081642150879e-01 9.149698168039321899e-02 -1.302336454391479492e-01 6.580926477909088135e-02 3.302171081304550171e-02 -1.812718659639358521e-01 -1.525098532438278198e-01 7.306331396102905273e-02 2.989871054887771606e-02 -2.458417117595672607e-01 1.199604347348213196e-01 5.049477517604827881e-02
1.889296472072601318e-01 -7.028894498944282532e-03 2.176627218723297119e-01 3.073354661464691162e-01 -1.810973882675170898e-01 -7.063903659582138062e-02 -1.008672192692756653e-01 7.606527209281921387e-02 -2.405032813549041748e-01 5.484845489263534546e-02 -7.454641908407211304e-02 -1.719307750463485718e-01 -6.893656402826309204e-02 3.921099603176116943e-01 1.972331851720809937e-01 1.005362272262573242e-01 -1.617416590452194214e-01 -2.268087714910507202e-01 -8.292563259601593018e-02 -3.305865079164505005e-02 3.554195538163185120e-02 -8.645925670862197876e-02 -1.358434110879898071e-01 -1.378536522388458252e-01 -2.288858890533447266e-01 -2.228634804487228394e-01 4.065819084644317627e-01 -3.547533601522445679e-02 -2.438220232725143433e-01 1.911058872938156128e-01 7.521101087331771851e-02 -2.038920819759368896e-01 2.067947238683700562e-01 -1.951140910387039185e-02 -2.705318331718444824e-01 4.025180637836456299e-01 1.413786262273788452e-01 -1.917309360578656197e-03 -2.343684583902359009e-01 -2.112840563058853149e-01 7.950359582901000977e-02 2.992058098316192627e-01 -1.138455569744110107e-01 1.046835780143737793e-01 -1.700292378664016724e-01 3.412627875804901123e-01 -1.386184245347976685e-03 1.611846238374710083e-01 6.682787090539932251e-02 3.023535013198852539e-01 -1.617604047060012817e-01 3.315445780754089355e-02 -1.669971644878387451e-01 -2.155083715915679932e-01 1.771385073661804199e-01 -2.202727645635604858e-01 -1.654366254806518555e-01 4.040243327617645264e-01 3.759777843952178955e-01 -1.652549952268600464e-01 1.592799127101898193e-01 8.871299028396606445e-02 -8.052954077720642090e-02 -2.038334161043167114e-01
-1.319173425436019897e-01 -9.916132315993309021e-03 -3.575561940670013428e-01 -4.127830266952514648e-02 -1.845696121454238892e-01 -1.576735824346542358e-02 1.855719387531280518e-01 -1.235870495438575745e-01 -2.066457122564315796e-01 -2.293811738491058350e-01 -1.022384911775588989e-01 -1.909915208816528320e-01 -9.166652709245681763e-02 -8.510637283325195312e-02 -1.737456321716308594e-01 1.271043568849563599e-01 1.193131133913993835e-02 2.900667190551757812e-01 -1.058295592665672302e-01 1.007102802395820618e-01 -1.337927132844924927e-01 -3.193879723548889160e-01 -1.413787342607975006e-02 -1.488792151212692261e-01 8.327518403530120850e-02 4.692891985177993774e-02 -1.929600164294242859e-02 1.914147287607192993e-01 -9.674841538071632385e-03 2.911735177040100098e-01 -8.216711878776550293e-02 1.840154379606246948e-01 -1.577681750059127808e-01 1.899133026599884033e-01 1.202733162790536880e-02 -1.743722110986709595e-01 2.238821089267730713e-01 1.349083185195922852e-01 1.746637672185897827e-01 -2.357370704412460327e-01 1.700117290019989014e-01 1.508879512548446655e-01 -9.999927133321762085e-02 -3.473564386367797852e-01 6.125923618674278259e-02 -9.582012891769409180e-02 -2.675277553498744965e-02 -1.161194965243339539e-01 2.253871411085128784e-01 -1.916442662477493286e-01 1.687188446521759033e-01 -1.097340434789657593e-01 1.282792836427688599e-01 -9.247773140668869019e-02 1.453580707311630249e-01 2.005246132612228394e-01 5.218728445470333099e-03 -2.145278155803680420e-01 4.027651250362396240e-02 -1.637193560600280762e-01 1.954994648694992065e-01 1.546391397714614868e-01 -4.484630003571510315e-02 7.311630994081497192e-02
