-2.398323267698287964e-01 4.389716312289237976e-02
-1.484773904085159302e-01 3.214882686734199524e-02
2.408203333616256714e-01 2.331136763095855713e-01
5.200018733739852905e-02 -4.752874746918678284e-02
1.222102344036102295e-01 1.351044625043869019e-01
1.298001110553741455e-01 2.706200182437896729e-01
1.656087636947631836e-01 -2.970397770404815674e-01
-7.087047398090362549e-02 -3.200640082359313965e-01
2.753245234489440918e-01 -1.461797356605529785e-01
-7.925265282392501831e-02 1.590310335159301758e-01
-7.632561773061752319e-02 6.761945039033889771e-02
1.833072453737258911e-01 2.864871025085449219e-01
1.263827458024024963e-02 -2.654810547828674316e-01
3.202067315578460693e-01 -2.875550650060176849e-02
3.002969622611999512e-01 1.300042420625686646e-01
-7.631446421146392822e-02 -2.130267173051834106e-01
-1.835197806358337402e-01 1.635136455297470093e-01
-1.609469391405582428e-02 1.888482719659805298e-01
-1.188500970602035522e-01 -1.121622771024703979e-01
1.907838135957717896e-02 3.060901463031768799e-01
2.892631888389587402e-01 1.380937825888395309e-02
-1.063473895192146301e-01 1.630055904388427734e-01
-3.356471061706542969e-01 -1.834638416767120361e-01
1.998756378889083862e-01 3.243731260299682617e-01
1.562962383031845093e-01 1.141399368643760681e-01
-2.600243389606475830e-01 2.167017161846160889e-01
-1.245425548404455185e-02 -2.424125224351882935e-01
-3.186442852020263672e-01 1.823028624057769775e-01
1.055340617895126343e-01 3.237941265106201172e-01
-3.830091655254364014e-02 -2.464876323938369751e-01
1.539494991302490234e-01 1.904308497905731201e-01
6.979832798242568970e-02 4.136195406317710876e-03
-4.057249054312705994e-02 2.322734519839286804e-02
3.074808120727539062e-01 -2.218179553747177124e-01
2.154900729656219482e-01 -2.156321853399276733e-01
2.165603190660476685e-01 -1.497474610805511475e-01
1.688254177570343018e-01 3.707474796101450920e-03
1.481220424175262451e-01 2.758879065513610840e-01
-1.318297982215881348e-01 -1.551908105611801147e-01
-1.499627232551574707e-01 1.148589476943016052e-01
4.606246203184127808e-02 2.546269893646240234e-01
-2.879455983638763428e-01 1.920646429061889648e-01
2.803594768047332764e-01 2.893855273723602295e-01
9.619629383087158203e-02 2.271661460399627686e-01
-1.143580079078674316e-01 2.952993214130401611e-01
2.817354351282119751e-02 4.442076198756694794e-03
3.798604011535644531e-02 -5.552288144826889038e-02
-5.645637586712837219e-02 3.454906642436981201e-01
-3.287697136402130127e-01 -6.516656372696161270e-03
1.712360233068466187e-01 2.701560258865356445e-01
-3.319784998893737793e-02 -1.476919949054718018e-01
1.823051571846008301e-01 1.680477559566497803e-01
2.373162955045700073e-01 -2.610836327075958252e-01
-8.454734832048416138e-02 -4.243723303079605103e-02
4.414987564086914062e-02 -1.092386618256568909e-02
8.458390831947326660e-02 -2.370447218418121338e-01
2.030690312385559082e-01 1.418879926204681396e-01
-4.496750980615615845e-02 -2.346734702587127686e-01
7.848602533340454102e-02 -1.732734292745590210e-01
-1.615789085626602173e-01 6.153966486454010010e-02
-2.314311861991882324e-01 -7.532800547778606415e-03
1.838691905140876770e-02 1.988526666536927223e-03
9.107907861471176147e-02 -5.991881713271141052e-02
-2.096053212881088257e-01 2.354995533823966980e-02
