-2.965648770332336426e-01 2.703585326671600342e-01
1.663866341114044189e-01 -1.991943717002868652e-01
-3.015958666801452637e-01 -2.348222881555557251e-01
-2.186650186777114868e-01 1.254810243844985962e-01
-8.259853720664978027e-02 -2.365070432424545288e-01
3.836661577224731445e-02 -2.644298672676086426e-01
-2.059539258480072021e-01 2.210876494646072388e-01
2.385714203119277954e-01 2.038418352603912354e-01
9.290519170463085175e-03 4.743495211005210876e-02
5.929869040846824646e-02 -2.167934179306030273e-01
-2.912327349185943604e-01 -8.570707589387893677e-02
2.998400330543518066e-01 -3.626184910535812378e-02
-3.751774132251739502e-02 -3.122825324535369873e-01
-1.786576211452484131e-01 -2.162257134914398193e-01
-2.875641919672489166e-02 -2.127881050109863281e-01
6.118753179907798767e-02 -1.804035007953643799e-01
-1.434499621391296387e-01 -1.368511319160461426e-01
-2.280533015727996826e-01 1.503769159317016602e-01
2.365011572837829590e-01 1.494835168123245239e-01
1.635095663368701935e-02 2.439937740564346313e-01
-2.038199305534362793e-01 3.935608640313148499e-02
-2.198985815048217773e-01 -2.442703247070312500e-01
-1.752859652042388916e-01 -8.863990753889083862e-02
-2.144820094108581543e-01 1.909397691488265991e-01
-1.929072886705398560e-01 -2.702871859073638916e-01
1.082801446318626404e-01 1.867085844278335571e-01
1.759853959083557129e-02 -2.383447289466857910e-01
1.203462332487106323e-01 -2.683589458465576172e-01
-1.457210928201675415e-01 -7.787270843982696533e-02
8.915903419256210327e-02 -5.463802814483642578e-02
-2.027407884597778320e-01 2.387682944536209106e-01
1.176055744290351868e-01 1.341254264116287231e-01
-2.710200548171997070e-01 -4.949132353067398071e-02
1.475960910320281982e-01 -1.001226678490638733e-01
-1.858260929584503174e-01 1.945847868919372559e-01
-8.181130513548851013e-03 -6.592819839715957642e-02
-1.008022204041481018e-01 -7.272446155548095703e-02
3.231758475303649902e-01 -4.290116205811500549e-02
-2.891625463962554932e-01 9.060833603143692017e-02
8.196386694908142090e-02 3.282973170280456543e-02
-1.326059401035308838e-01 -1.382861882448196411e-01
2.098002433776855469e-01 -2.602661252021789551e-01
1.214849054813385010e-01 -8.943528681993484497e-02
1.118302941322326660e-01 6.586886011064052582e-03
2.073710113763809204e-01 -1.560537219047546387e-01
-3.108875453472137451e-01 -2.306229323148727417e-01
-5.597211420536041260e-02 1.381291002035140991e-01
2.077675014734268188e-01 2.638450562953948975e-01
-2.557316422462463379e-01 -5.791588500142097473e-02
1.116404160857200623e-01 1.886779963970184326e-01
1.178446039557456970e-01 -1.027408018708229065e-01
1.307580620050430298e-01 1.824954897165298462e-01
7.742675393819808960e-02 2.108089923858642578e-01
3.941603377461433411e-02 -1.263803094625473022e-01
-9.597466140985488892e-02 7.849717885255813599e-02
-1.946514397859573364e-01 -2.524987049400806427e-02
6.155241280794143677e-02 -2.353746742010116577e-01
-2.155031263828277588e-01 -5.935481563210487366e-02
1.680337637662887573e-01 3.157638609409332275e-01
-1.313969939947128296e-01 -1.834161579608917236e-01
-1.886962205171585083e-01 2.345316857099533081e-01
-6.161295250058174133e-02 1.489321887493133545e-01
1.993860602378845215e-01 1.313356459140777588e-01
-2.686725258827209473e-01 1.828404366970062256e-01
