2.381197810173034668e-01 -1.263917237520217896e-01
-2.418706864118576050e-01 3.933431804180145264e-01
1.740616410970687866e-01 -1.896806806325912476e-02
-2.722051143646240234e-01 -1.006045415997505188e-01
-7.753099501132965088e-02 -6.847863551229238510e-05
-3.021393418312072754e-01 1.828426122665405273e-01
-1.080275326967239380e-01 1.315539330244064331e-01
-5.933229252696037292e-02 2.603264451026916504e-01
-1.649206280708312988e-01 -7.178540527820587158e-02
1.716773770749568939e-02 -5.965352989733219147e-03
-6.379721313714981079e-02 -1.992115676403045654e-01
-3.453299999237060547e-01 4.468992352485656738e-02
7.021977007389068604e-02 -1.377102285623550415e-01
-8.885516226291656494e-02 8.318004012107849121e-02
-9.736717492341995239e-02 1.665287613868713379e-01
-8.048319816589355469e-02 -6.023965775966644287e-02
-1.528481543064117432e-01 1.684886366128921509e-01
3.058426640927791595e-02 6.289988756179809570e-02
8.743990212678909302e-03 -1.571372598409652710e-01
-2.847535312175750732e-01 1.537989173084497452e-02
1.762445271015167236e-01 -9.089729189872741699e-02
2.953428030014038086e-02 1.074175983667373657e-01
-3.684651255607604980e-01 1.633929759263992310e-01
-6.709392182528972626e-04 1.122210267931222916e-02
1.760227791965007782e-02 3.453221321105957031e-01
-1.972827762365341187e-01 -7.979578524827957153e-02
2.557591199874877930e-01 1.586042195558547974e-01
2.494632899761199951e-01 -3.849332570098340511e-04
-4.702760279178619385e-02 3.207769691944122314e-01
1.263988576829433441e-02 -1.485030204057693481e-01
6.598785519599914551e-02 -2.586773931980133057e-01
3.651868551969528198e-02 2.287908345460891724e-01
-2.110131680965423584e-01 2.460004985332489014e-01
1.070018559694290161e-01 -1.709460169076919556e-01
-1.775541305541992188e-01 -5.997210275381803513e-03
-2.678039669990539551e-01 2.194599211215972900e-01
-1.336621791124343872e-01 1.458049714565277100e-01
-2.183913588523864746e-01 6.649360875599086285e-05
9.025678038597106934e-02 4.571688175201416016e-02
6.147832795977592468e-02 3.771429061889648438e-01
1.161579340696334839e-01 2.590484023094177246e-01
-1.260455232113599777e-02 8.956588059663772583e-02
-2.700856924057006836e-01 3.960197865962982178e-01
-1.496022492647171021e-01 -2.000048942863941193e-02
1.420158594846725464e-01 -7.905512303113937378e-02
-2.409665286540985107e-01 2.079636156558990479e-01
-3.832995593547821045e-01 2.266395986080169678e-01
-2.203923165798187256e-01 -1.495656222105026245e-01
-1.662623286247253418e-01 -6.534194573760032654e-03
-2.962488830089569092e-01 -1.173626258969306946e-01
1.433924734592437744e-01 6.562476046383380890e-03
1.643947958946228027e-01 -2.767943218350410461e-02
4.046176373958587646e-02 1.634906046092510223e-02
-1.451480388641357422e-01 1.527456343173980713e-01
-1.247738748788833618e-01 3.055486977100372314e-01
1.329428702592849731e-01 -1.914867907762527466e-01
-2.722444236278533936e-01 -1.397141069173812866e-01
-1.681511253118515015e-01 -2.593166427686810493e-03
1.410364657640457153e-01 3.740693628787994385e-01
2.289369404315948486e-01 -2.551946341991424561e-01
-1.110340282320976257e-01 -7.925665937364101410e-03
8.881023526191711426e-02 1.902453042566776276e-02
2.102607637643814087e-01 1.853862777352333069e-02
1.966306120157241821e-01 4.155332967638969421e-02
