-5.440050270408391953e-03 -4.269265756011009216e-02 1.456356197595596313e-01 3.170181438326835632e-02 -3.751295804977416992e-02 2.477003037929534912e-01 -4.772067442536354065e-02 6.923300772905349731e-02 2.725229859352111816e-01 2.015562057495117188e-01 -1.462892250856384635e-04 -9.781226515769958496e-03 -1.343702548183500767e-03 3.020575344562530518e-01 -2.560762502253055573e-02 7.504167407751083374e-02 -5.883643031120300293e-02 -3.346265479922294617e-02 1.386680454015731812e-01 -1.069935038685798645e-02 -4.064764827489852905e-02 2.957399785518646240e-01 1.847864985466003418e-01 2.759907245635986328e-01 1.680224388837814331e-01 -2.699403651058673859e-02 -5.995840206742286682e-02 1.672047674655914307e-01 -3.341520205140113831e-02 7.796075195074081421e-02 2.811297178268432617e-01 3.455328941345214844e-01 -4.631773044820874929e-04 1.678579449653625488e-01 1.634968966245651245e-01 -2.642087265849113464e-02 -4.943814815305813681e-07 1.681135445833206177e-01 -2.870679087936878204e-02 1.348292231559753418e-01 1.716523170471191406e-01 1.490009427070617676e-01 6.476119905710220337e-02 -1.756122708320617676e-02 1.782504171133041382e-01 -3.484334424138069153e-02 7.458515465259552002e-02 -8.791970461606979370e-02 -3.464528545737266541e-02 4.388669527348664987e-29 2.602627733722329140e-03 -2.595875784754753113e-02 1.654763370752334595e-01 3.426771759986877441e-01 2.436924539506435394e-02 6.101243942975997925e-02 5.737223848700523376e-02 -2.903409861028194427e-02 -2.305564656853675842e-02 2.774559892714023590e-02 2.433618903160095215e-01 -2.257846854627132416e-02 -4.880075529217720032e-02 -1.775014027953147888e-02
3.385790064930915833e-02 -7.345907855778932571e-03 3.671884536743164062e-02 1.082223001867532730e-02 2.104850718751549721e-03 4.809215292334556580e-02 3.410989890539894986e-08 2.417634706944227219e-03 9.497300535440444946e-02 5.118517577648162842e-02 -1.163099150289781392e-04 1.996466016862541437e-05 7.304021157324314117e-03 1.903489232063293457e-02 2.931092306971549988e-02 6.563545018434524536e-02 6.471996661275625229e-03 -6.168048456311225891e-02 -4.758913069963455200e-02 7.935627363622188568e-04 3.245632722973823547e-02 6.228755041956901550e-02 3.417877107858657837e-02 6.139202415943145752e-02 8.413580805063247681e-02 5.483756214380264282e-02 -2.902041887864470482e-03 8.636707812547683716e-02 -1.012608595192432404e-02 -8.816766552627086639e-03 6.566434353590011597e-02 8.189766108989715576e-02 1.852109096944332123e-02 1.060750707983970642e-01 7.463890314102172852e-02 -3.492734581232070923e-02 -6.678254902362823486e-02 4.385431110858917236e-02 -6.713654100894927979e-02 9.283198416233062744e-02 4.155894741415977478e-02 3.774970397353172302e-02 -7.363999728113412857e-03 -1.933314651250839233e-02 4.199957847595214844e-02 -4.273023921996355057e-03 5.644579231739044189e-02 1.203184598125517368e-03 7.770409435033798218e-02 -1.234487135661765933e-04 2.156820148229598999e-02 -1.143564842641353607e-02 8.067045360803604126e-02 7.671091705560684204e-02 -2.569976495578885078e-04 -8.237221091985702515e-02 -1.660313270986080170e-02 -2.542207203805446625e-02 -6.953178346157073975e-02 -1.461119623854756355e-03 5.146900936961174011e-02 -3.068596497178077698e-02 -4.313998855650424957e-03 -3.801823407411575317e-02
