-2.428087871521711349e-03
1.534439474344253540e-01
2.341225184500217438e-02
-8.775248378515243530e-02
5.608066171407699585e-02
-8.667834848165512085e-02
-5.384573712944984436e-03
-5.761061236262321472e-02
7.434280216693878174e-02
6.926713883876800537e-02
1.278088837862014771e-01
7.498376816511154175e-02
2.297071926295757294e-02
-1.053527966141700745e-01
-1.040487550199031830e-02
1.333269923925399780e-01
4.786722734570503235e-02
5.492002889513969421e-02
4.612132534384727478e-02
5.654174089431762695e-02
8.763848245143890381e-02
1.233679503202438354e-01
-5.033875349909067154e-03
-3.424581140279769897e-02
1.356151103973388672e-01
1.127290651202201843e-01
8.384217321872711182e-02
5.118377134203910828e-02
1.003159284591674805e-01
1.564706861972808838e-02
2.085809968411922455e-02
-6.206915155053138733e-02
1.190904304385185242e-01
7.725279033184051514e-02
3.192685544490814209e-02
4.961425811052322388e-02
-1.159987971186637878e-01
3.175172954797744751e-02
4.911288991570472717e-02
1.047242209315299988e-01
7.674717903137207031e-02
7.938054203987121582e-02
5.127000808715820312e-02
-2.786928974092006683e-02
9.224391728639602661e-02
1.030837073922157288e-01
-1.028120219707489014e-01
-4.342339932918548584e-02
1.448715031147003174e-01
3.368073701858520508e-02
6.419157981872558594e-02
1.215097978711128235e-01
4.892600327730178833e-02
2.905045635998249054e-02
-1.914567686617374420e-02
3.832228854298591614e-02
7.503512501716613770e-02
1.243174895644187927e-01
9.564110636711120605e-02
-4.269163683056831360e-02
6.501654535531997681e-02
3.473333641886711121e-02
3.324868530035018921e-02
-6.741783022880554199e-02
