-5.638882890343666077e-02 -9.036283195018768311e-02
7.334733754396438599e-02 -1.654981821775436401e-01
-6.894054263830184937e-02 1.030188873410224915e-01
-3.947268798947334290e-02 3.096319548785686493e-02
2.044009119272232056e-01 2.183412611484527588e-01
2.086057700216770172e-02 1.025537215173244476e-02
1.359578669071197510e-01 1.694088876247406006e-01
2.039622664451599121e-01 4.443256929516792297e-02
4.919438064098358154e-02 8.193182200193405151e-02
-5.930448323488235474e-02 2.307884544134140015e-01
-1.816103458404541016e-01 -3.912063688039779663e-02
7.155860960483551025e-02 2.989525161683559418e-02
-2.088369876146316528e-01 1.641211807727813721e-01
-1.981097273528575897e-03 4.275665804743766785e-02
-6.591392308473587036e-02 -9.885203838348388672e-02
1.043231487274169922e-01 -1.827525198459625244e-01
-1.751347184181213379e-01 3.849949315190315247e-02
7.653555274009704590e-02 1.577402837574481964e-02
-2.449287325143814087e-01 7.150775939226150513e-02
-2.073060572147369385e-01 -1.972026824951171875e-01
2.007747739553451538e-01 -4.640836734324693680e-03
2.329344004392623901e-01 2.020626887679100037e-02
2.160366326570510864e-01 -7.065631449222564697e-03
3.181045129895210266e-02 -1.389645487070083618e-01
8.239478617906570435e-02 -1.717746853828430176e-01
2.540320456027984619e-01 6.969148665666580200e-02
2.356465160846710205e-01 -8.475311100482940674e-02
-1.683403998613357544e-01 2.881898283958435059e-01
-1.893566995859146118e-01 -2.004456818103790283e-01
-1.749310791492462158e-01 4.237773269414901733e-02
-7.522251456975936890e-02 2.722964286804199219e-01
1.819962263107299805e-02 -1.207403391599655151e-01
-2.712258398532867432e-01 -9.468469768762588501e-03
1.696886420249938965e-01 1.153101474046707153e-01
7.325684279203414917e-02 -1.262303292751312256e-01
-8.871670812368392944e-02 -1.710803508758544922e-01
-1.486495882272720337e-01 3.926409035921096802e-02
-5.477383360266685486e-02 1.458373069763183594e-01
1.151381433010101318e-01 -1.048860792070627213e-02
-1.935614198446273804e-01 -1.194164305925369263e-01
2.233122102916240692e-02 2.253136485815048218e-01
-2.002933025360107422e-01 1.470419913530349731e-01
-2.219790369272232056e-01 1.436734795570373535e-01
1.685260236263275146e-02 -8.027376979589462280e-02
1.679606176912784576e-02 -2.344933599233627319e-01
-3.127389848232269287e-01 -7.933721691370010376e-02
-7.091558724641799927e-02 6.861130893230438232e-02
1.284431070089340210e-01 5.487554892897605896e-02
1.736572980880737305e-01 1.124992370605468750e-01
1.005752831697463989e-01 -9.864038974046707153e-02
-1.048185303807258606e-01 -5.716461688280105591e-02
2.951501309871673584e-01 8.281610906124114990e-02
-1.581445783376693726e-01 -1.429885923862457275e-01
2.559993565082550049e-01 -2.479895716533064842e-03
-9.901384823024272919e-03 1.406466364860534668e-01
-7.125449925661087036e-02 3.892449662089347839e-02
2.488123476505279541e-01 -9.958440065383911133e-02
3.001593351364135742e-01 -7.468976825475692749e-02
-3.148617222905158997e-02 3.098891377449035645e-01
-3.926037997007369995e-02 1.642862334847450256e-02
-9.348923712968826294e-02 2.979017794132232666e-01
-2.239796519279479980e-01 1.827433258295059204e-01
-4.304390400648117065e-03 -1.506242454051971436e-01
-1.669819056987762451e-01 1.756087541580200195e-01
