-2.074230462312698364e-01 1.609222888946533203e-01
-5.893684551119804382e-02 1.772640049457550049e-01
-1.568669974803924561e-01 -7.498166710138320923e-02
-2.880626707337796688e-04 1.386286914348602295e-01
-2.031549811363220215e-01 8.252765983343124390e-02
1.355318129062652588e-01 5.332439392805099487e-02
-9.021096676588058472e-02 5.885832384228706360e-02
-1.370893269777297974e-01 1.595817953348159790e-01
-2.396105378866195679e-01 5.136835947632789612e-02
-1.988325640559196472e-02 1.074754744768142700e-01
-2.153635174036026001e-01 1.497837007045745850e-01
1.786541938781738281e-01 -2.200602442026138306e-01
3.337364271283149719e-02 1.058928072452545166e-01
-5.692225694656372070e-02 1.669688709080219269e-02
-3.255637362599372864e-02 6.115064024925231934e-02
-1.113086640834808350e-01 -7.364820688962936401e-02
3.831202909350395203e-02 8.480549603700637817e-02
-6.395909190177917480e-02 4.172265157103538513e-02
-8.328703790903091431e-02 -1.028704941272735596e-01
-9.549428522586822510e-02 5.717965960502624512e-02
-1.770174503326416016e-01 1.585439033806324005e-02
1.068731620907783508e-01 -3.870403766632080078e-02
2.497845329344272614e-02 5.017607659101486206e-02
7.145489752292633057e-02 -1.726665645837783813e-01
-1.449704915285110474e-02 3.548758337274193764e-03
5.194715410470962524e-02 -9.624073654413223267e-02
7.024896889925003052e-02 -1.107076779007911682e-01
1.507961899042129517e-01 6.473473459482192993e-02
-1.884649395942687988e-01 -1.163919642567634583e-01
-1.809420883655548096e-01 1.858458071947097778e-01
6.303990632295608521e-02 9.698492288589477539e-02
1.502233445644378662e-01 -2.375406473875045776e-01
2.239076942205429077e-01 -6.971247494220733643e-02
1.775120347738265991e-01 -2.546110562980175018e-02
1.620750725269317627e-01 7.758273184299468994e-02
-2.171580940485000610e-01 1.711284965276718140e-01
-1.580981165170669556e-01 1.518263071775436401e-01
-6.816261261701583862e-02 -2.767357975244522095e-02
1.161287948489189148e-01 2.274187467992305756e-02
2.111141234636306763e-01 -5.373252555727958679e-02
8.435899019241333008e-02 1.075919866561889648e-01
-1.582309454679489136e-01 1.387382447719573975e-01
1.268787402659654617e-02 -1.640284806489944458e-01
5.483099445700645447e-02 8.004604279994964600e-02
-5.404870212078094482e-02 1.256450563669204712e-01
1.281630396842956543e-01 2.444830955937504768e-03
-1.053666919469833374e-01 8.503838628530502319e-02
9.191411733627319336e-02 2.591573167592287064e-03
4.922446608543395996e-02 -4.807764664292335510e-02
-1.297611296176910400e-01 1.299990713596343994e-01
2.100613899528980255e-03 -1.151414066553115845e-01
6.520260125398635864e-02 -6.106474436819553375e-03
2.432455122470855713e-01 -1.675603091716766357e-01
-1.656323224306106567e-01 1.196592450141906738e-01
-5.018005520105361938e-02 1.646704040467739105e-02
-1.084576919674873352e-01 -3.903311118483543396e-02
1.647162735462188721e-01 1.092551201581954956e-01
5.701594799757003784e-02 -5.219606310129165649e-02
1.393702030181884766e-01 6.021883711218833923e-02
1.823479831218719482e-01 1.269321888685226440e-01
-1.800220608711242676e-01 1.083952784538269043e-01
2.051051259040832520e-01 -1.656823903322219849e-01
-2.017145305871963501e-01 1.012207344174385071e-01
1.992073357105255127e-01 -7.882155478000640869e-02
