-1.235699802637100220e-01 -1.268915683031082153e-01
-1.914701461791992188e-01 -1.407751142978668213e-01
-7.826598733663558960e-02 1.948866620659828186e-02
1.746145039796829224e-01 1.962910294532775879e-01
-5.103588104248046875e-02 3.937349095940589905e-02
-1.098613627254962921e-02 -3.814340382814407349e-02
-1.326657924801111221e-02 2.150346152484416962e-02
-1.301227807998657227e-01 6.961786001920700073e-02
-1.365033239126205444e-01 -1.263672560453414917e-01
-1.251208633184432983e-01 -1.313014421612024307e-03
-2.682155072689056396e-01 -1.071447273716330528e-03
-4.378836229443550110e-02 8.604895323514938354e-02
-2.339704036712646484e-01 -1.175830513238906860e-01
2.702577710151672363e-01 2.098153233528137207e-01
4.245441406965255737e-02 -1.452704668045043945e-01
-3.965525538660585880e-04 1.076536402106285095e-01
-1.088575422763824463e-01 -1.294866111129522324e-02
1.655417531728744507e-01 1.280860602855682373e-01
2.868755757808685303e-01 1.460942476987838745e-01
6.002038344740867615e-02 4.032439738512039185e-02
-1.395633518695831299e-01 -1.044764518737792969e-01
-1.684095710515975952e-01 -2.068255692720413208e-01
-1.926589384675025940e-02 -3.079751878976821899e-02
2.276469022035598755e-01 1.290152966976165771e-01
1.449842900037765503e-01 1.455877423286437988e-01
-9.904260933399200439e-02 -4.511641338467597961e-02
-2.168797999620437622e-01 -1.121666878461837769e-01
1.820332258939743042e-01 4.557976499199867249e-02
-2.007610499858856201e-01 -2.246963093057274818e-03
-1.445806771516799927e-01 -9.007442742586135864e-02
1.484896056354045868e-02 -7.798813283443450928e-02
2.077489942312240601e-01 1.614523679018020630e-01
-2.204210758209228516e-01 -1.437957286834716797e-01
-1.162752211093902588e-01 6.979987490922212601e-03
1.372237652540206909e-01 4.766426049172878265e-03
5.964921414852142334e-02 1.174687594175338745e-02
-1.898077130317687988e-01 -9.759410470724105835e-02
-1.826209723949432373e-01 1.845454871654510498e-01
1.175272837281227112e-01 5.000364780426025391e-02
1.313799023628234863e-01 9.300877898931503296e-02
-1.655958294868469238e-01 -1.627930998802185059e-01
-1.520413309335708618e-01 -2.188310958445072174e-02
-5.735960602760314941e-02 7.632824033498764038e-02
-8.515594154596328735e-02 2.647946961224079132e-02
1.708297431468963623e-01 4.384922981262207031e-02
4.112850874662399292e-03 -2.752891927957534790e-02
-4.469104111194610596e-02 -4.119200166314840317e-03
-2.701589465141296387e-02 -5.362386256456375122e-02
-1.931547969579696655e-01 1.675650663673877716e-02
-1.186370328068733215e-01 -1.011295616626739502e-01
-2.083107680082321167e-01 -1.601082235574722290e-01
-1.078156009316444397e-01 -4.486353695392608643e-02
-4.309378564357757568e-02 -2.790429443120956421e-02
2.409229055047035217e-02 -2.078239340335130692e-03
-1.945804357528686523e-01 -1.550499349832534790e-01
-1.668321900069713593e-02 -6.812839419580996037e-04
-2.780211865901947021e-01 -3.705524280667304993e-02
-1.241829544305801392e-01 9.856741875410079956e-02
2.537502050399780273e-01 1.905619949102401733e-01
7.664129137992858887e-02 4.028167575597763062e-02
1.696800142526626587e-01 5.421472713351249695e-02
-9.344053268432617188e-02 -1.710164733231067657e-02
-2.069665193557739258e-01 -1.195902973413467407e-01
-1.447238493710756302e-02 2.120378613471984863e-01
