-6.016102153807878494e-03 -5.567194521427154541e-02 8.035841397941112518e-03 -4.510542785283178091e-04 4.261109605431556702e-02 8.363942615687847137e-03 4.388944059610366821e-02 -4.339962080121040344e-02 8.384954929351806641e-02 -9.052702225744724274e-03 -6.555711384862661362e-03 1.253590639680624008e-02 -1.003027893602848053e-02 6.422871351242065430e-02 -1.157231479883193970e-01 -1.151788700371980667e-02 5.641847848892211914e-02 -1.937080919742584229e-02 2.381890825927257538e-02 -9.036468714475631714e-02 4.410161171108484268e-03 -7.284674048423767090e-02 -2.457064948976039886e-02 -1.022372469305992126e-01 2.490048855543136597e-02 -7.522620260715484619e-02 -8.934497833251953125e-02 4.374055191874504089e-02 1.158977020531892776e-02 4.410633817315101624e-03 -8.465842157602310181e-02 -6.352426856756210327e-02 -6.239963322877883911e-02 4.811887070536613464e-02 1.280584372580051422e-02 4.448255524039268494e-02 -5.235321354120969772e-03 4.815632477402687073e-02 -3.968294709920883179e-02 -6.973808258771896362e-02 -7.612196262925863266e-03 -1.948095671832561493e-02 -3.749868273735046387e-02 7.540819351561367512e-04 -3.575111180543899536e-02 -6.964157801121473312e-03 -5.080420989543199539e-03 -3.674278035759925842e-02 1.941319182515144348e-02 -1.087540853768587112e-02 4.171298444271087646e-02 -5.162367597222328186e-02 1.342924311757087708e-03 7.668734528124332428e-03 -9.179950691759586334e-03 2.182787656784057617e-02 2.051609568297863007e-02 5.147405341267585754e-02 5.842998623847961426e-03 6.640559062361717224e-03 6.395712029188871384e-03 -1.739529147744178772e-02 -4.429791122674942017e-02 3.716977685689926147e-02
-8.087921887636184692e-03 2.484717406332492828e-02 -2.244841679930686951e-02 -2.604505862109363079e-04 1.516124140471220016e-02 9.252147749066352844e-03 5.005910247564315796e-02 -3.378922701813280582e-04 1.961464062333106995e-02 -5.114959087222814560e-03 -4.210320860147476196e-02 1.879374310374259949e-02 -1.187083683907985687e-02 -2.010759338736534119e-02 2.273661270737648010e-02 3.905625548213720322e-03 -4.931117407977581024e-03 -7.431185804307460785e-03 2.009464241564273834e-02 2.591744810342788696e-02 -1.420373213477432728e-03 -3.285030648112297058e-02 -3.681128472089767456e-02 5.960633233189582825e-02 1.897256448864936829e-02 8.662356995046138763e-03 -5.821133777499198914e-02 2.757817506790161133e-03 -3.489658236503601074e-03 1.516889967024326324e-02 -1.002375429379753768e-04 2.257576398551464081e-02 -1.125138346105813980e-02 3.391889482736587524e-02 -2.899708598852157593e-02 -6.686661392450332642e-03 -3.136687446385622025e-03 3.651385381817817688e-02 3.261275589466094971e-02 -3.085515461862087250e-02 1.906008087098598480e-02 -5.260599777102470398e-03 -8.372993208467960358e-03 -3.735780017450451851e-03 -2.899783104658126831e-02 9.519112296402454376e-03 1.879824511706829071e-02 1.776141487061977386e-02 -2.093612216413021088e-03 3.933210298418998718e-02 -4.212355986237525940e-02 3.148574754595756531e-02 -7.234845543280243874e-05 -3.905349411070346832e-03 -2.946576103568077087e-02 -4.905452806269749999e-05 1.004625228233635426e-03 -5.742969922721385956e-03 -4.072355572134256363e-03 -5.039893835783004761e-02 -3.220441192388534546e-02 -1.492161303758621216e-03 3.985585179179906845e-03 -1.900833798572421074e-03
-6.330390926450490952e-03 9.378914535045623779e-02 -1.447002775967121124e-02 -3.196916368324309587e-04 1.178722269833087921e-02 1.061294134706258774e-02 3.248037770390510559e-02 2.522269636392593384e-02 -9.491912275552749634e-02 -8.925744891166687012e-02 -1.256738603115081787e-02 1.359087228775024414e-02 4.985019937157630920e-02 -5.876169353723526001e-02 -8.187267929315567017e-02 5.795971676707267761e-02 -9.937441907823085785e-03 -2.401052787899971008e-02 -3.380126785486936569e-03 7.439029216766357422e-02 -1.204547472298145294e-02 3.871482610702514648e-02 -7.651791721582412720e-02 4.878851026296615601e-02 -3.547619655728340149e-02 2.391969086602330208e-03 -1.106833368539810181e-01 -6.458035856485366821e-02 -6.843236088752746582e-02 8.266871422529220581e-02 -3.798116464167833328e-03 5.422888696193695068e-02 -3.176349028944969177e-02 1.148537620902061462e-01 -8.827842772006988525e-02 -3.065122757107019424e-03 -1.478819642215967178e-02 -2.502974122762680054e-02 -5.893255397677421570e-02 2.314454689621925354e-02 3.084616735577583313e-02 -3.279076423496007919e-03 -4.720005765557289124e-02 -5.719656497240066528e-02 6.456136703491210938e-02 -6.764974910765886307e-03 -1.854779385030269623e-02 1.104250643402338028e-02 3.235812112689018250e-02 7.801833003759384155e-02 -3.235534951090812683e-02 8.928005397319793701e-02 5.730301141738891602e-03 -4.673261195421218872e-02 -2.364062890410423279e-02 6.969193462282419205e-03 1.308932807296514511e-02 7.927611470222473145e-03 -3.250954300165176392e-02 6.261910311877727509e-04 -2.740972302854061127e-02 3.421965613961219788e-02 -3.627513349056243896e-02 -2.763345465064048767e-02
-1.211050315760076046e-03 1.882234215736389160e-02 -9.814671240746974945e-03 3.213798627257347107e-02 -8.642243221402168274e-03 4.446681588888168335e-02 2.477579191327095032e-02 5.818315315991640091e-03 -9.112757630646228790e-03 6.032820045948028564e-02 -1.217804150655865669e-03 2.840148657560348511e-02 4.795636609196662903e-02 4.864115640521049500e-02 -4.759496450424194336e-02 2.704743295907974243e-02 -1.597547344863414764e-02 -2.348636649549007416e-02 -2.362207509577274323e-03 -6.110593676567077637e-02 -4.488752223551273346e-03 8.601916581392288208e-02 8.132629841566085815e-02 9.224692732095718384e-02 -2.690411172807216644e-03 -2.709407173097133636e-02 -6.363382935523986816e-02 -4.414674825966358185e-03 -2.590153366327285767e-03 5.564325489103794098e-03 -5.075888708233833313e-02 3.404128924012184143e-02 -1.449476275593042374e-02 -3.925505280494689941e-02 -1.325330324470996857e-02 -1.119422493502497673e-03 -3.448479343205690384e-03 -3.259079903364181519e-02 1.021196618676185608e-01 -1.851746626198291779e-02 3.944454714655876160e-02 -1.946742762811481953e-03 -1.043093297630548477e-02 6.423443555831909180e-02 -5.220000445842742920e-02 8.007922023534774780e-02 7.783212512731552124e-02 4.014973714947700500e-02 7.586076110601425171e-02 1.832813397049903870e-02 -4.726254940032958984e-02 1.144678741693496704e-01 2.710978314280509949e-02 -4.464715719223022461e-03 -6.352498312480747700e-04 1.295410474995151162e-04 9.954582154750823975e-02 4.107277095317840576e-02 -2.482757670804858208e-03 -5.906831845641136169e-02 4.678256064653396606e-02 -2.705502323806285858e-02 7.511769980192184448e-02 -1.157866092398762703e-03
-5.983129958622157574e-04 8.158237487077713013e-02 -8.162972517311573029e-03 -6.705774366855621338e-02 5.623518303036689758e-02 5.632429569959640503e-02 4.086250439286231995e-02 9.500325657427310944e-03 1.055398732423782349e-01 1.163571327924728394e-02 -9.700228460133075714e-03 -1.271758321672677994e-02 2.224400267004966736e-02 -1.698648929595947266e-02 -6.356793455779552460e-03 5.695505067706108093e-02 -2.023586304858326912e-03 5.675626918673515320e-03 -6.350853294134140015e-02 1.050919890403747559e-01 -4.790995270013809204e-02 -2.697877585887908936e-02 1.221848838031291962e-02 1.735548228025436401e-01 -7.719994522631168365e-03 -6.742275319993495941e-03 -6.893076002597808838e-02 -5.038638040423393250e-02 2.549040829762816429e-03 5.527222156524658203e-02 -3.075107932090759277e-02 5.393543466925621033e-02 -7.973675429821014404e-02 5.290700588375329971e-03 3.081817924976348877e-02 1.444389671087265015e-02 4.827604629099369049e-03 8.893346041440963745e-02 2.141191996634006500e-02 6.168891116976737976e-02 -6.555117666721343994e-03 -4.610089212656021118e-02 5.872464925050735474e-02 -1.724687591195106506e-02 3.562903497368097305e-03 1.282893121242523193e-01 -1.388509292155504227e-02 9.511711448431015015e-02 5.904600769281387329e-02 7.211945205926895142e-02 1.111422199755907059e-02 5.448737367987632751e-02 -9.662898257374763489e-03 -5.707560107111930847e-02 -2.097276970744132996e-02 -1.598606444895267487e-02 7.619829848408699036e-03 2.793904021382331848e-02 6.433988362550735474e-02 2.259368821978569031e-02 -7.555872946977615356e-02 4.483590275049209595e-02 6.868670135736465454e-02 3.783557098358869553e-03
2.009958261623978615e-04 6.453749537467956543e-02 3.042395459488034248e-03 1.294949906878173351e-04 6.965256482362747192e-02 -3.263904713094234467e-03 1.499240193516016006e-02 4.081428050994873047e-02 -7.010860741138458252e-02 -2.634255588054656982e-02 -7.323302794247865677e-03 -1.664558239281177521e-02 -1.316318009048700333e-02 -3.786448389291763306e-02 -3.471120446920394897e-02 -1.689266227185726166e-02 -4.029942676424980164e-03 -5.919550545513629913e-03 -1.498022861778736115e-02 -4.770579282194375992e-03 1.815856993198394775e-02 -3.863265365362167358e-02 -4.301048815250396729e-02 4.404929652810096741e-02 -2.034807391464710236e-02 -1.338559854775667191e-02 6.756888702511787415e-03 1.781634800136089325e-02 -6.531221419572830200e-02 7.433163374662399292e-02 5.554028227925300598e-02 9.809135226532816887e-04 -5.178516358137130737e-02 3.423390164971351624e-02 1.951107569038867950e-02 -6.177701521664857864e-03 2.854367531836032867e-02 1.058938503265380859e-01 2.312463475391268730e-03 -4.741303622722625732e-02 -1.393781229853630066e-02 2.823591791093349457e-02 5.828061699867248535e-02 -6.901090592145919800e-02 -3.286539763212203979e-02 1.711187139153480530e-02 -2.108529442921280861e-03 -3.601178294047713280e-03 -2.193711232393980026e-03 -5.242698267102241516e-02 2.396149374544620514e-02 -1.272824942134320736e-03 -7.984770461916923523e-03 7.219827920198440552e-02 -4.936482757329940796e-02 -1.121655758470296860e-02 6.884808838367462158e-02 6.192570435814559460e-04 5.713550839573144913e-03 3.400191431865096092e-03 -2.724670618772506714e-02 3.693816065788269043e-02 3.244373202323913574e-02 9.349113330245018005e-03
-1.541909412480890751e-03 4.614290595054626465e-02 -5.422535538673400879e-02 -1.298111863434314728e-03 1.452006306499242783e-02 2.098614349961280823e-02 -6.917985528707504272e-02 2.100775949656963348e-03 1.238320097327232361e-01 -5.841252207756042480e-02 -7.081153802573680878e-03 2.192128822207450867e-02 -4.520221054553985596e-02 -6.518077105283737183e-02 6.276199221611022949e-02 -3.847688063979148865e-02 -4.956132546067237854e-02 -3.528965264558792114e-02 3.444059193134307861e-02 -1.299077179282903671e-03 -1.886488124728202820e-02 1.036909744143486023e-01 -4.962724447250366211e-02 1.666692197322845459e-01 8.393651992082595825e-02 2.009410038590431213e-02 -8.932384103536605835e-02 2.359596453607082367e-02 2.379957213997840881e-02 1.122456882148981094e-02 -2.317879581823945045e-03 2.670181728899478912e-02 -5.861965008080005646e-03 -9.660108014941215515e-03 5.943740159273147583e-02 -2.310895174741744995e-02 -3.596504405140876770e-02 1.524125337600708008e-01 1.436668783426284790e-01 -7.173874229192733765e-02 -5.183604116609785706e-06 -3.752884268760681152e-02 -5.343172233551740646e-04 -5.337468907237052917e-02 -1.035192608833312988e-01 1.693118214607238770e-01 2.226037438958883286e-03 7.099060714244842529e-02 3.659851849079132080e-03 8.839946240186691284e-02 -6.526527553796768188e-02 1.380906850099563599e-01 -4.575111344456672668e-02 -5.704728141427040100e-02 -9.630350396037101746e-03 1.401045155944302678e-04 7.190543413162231445e-02 -9.404396265745162964e-02 -1.363731175661087036e-02 5.108805745840072632e-02 -1.186625286936759949e-01 -7.898699492216110229e-03 6.834050267934799194e-02 -1.441672071814537048e-02
-2.225631615146994591e-03 4.600451327860355377e-03 2.217120304703712463e-02 3.957796469330787659e-02 -2.478030882775783539e-02 -1.966179907321929932e-02 -3.773867338895797729e-02 -1.873176079243421555e-04 -3.687701001763343811e-02 -3.305747359991073608e-02 -3.148397803306579590e-02 4.889314062893390656e-03 -2.200026065111160278e-02 1.058652531355619431e-03 -2.797890454530715942e-02 7.387004792690277100e-02 1.462473440915346146e-02 5.294242128729820251e-02 -3.174240887165069580e-02 -7.594526559114456177e-02 1.500138663686811924e-03 -7.158777862787246704e-02 6.039797142148017883e-02 -6.909764558076858521e-02 9.630426764488220215e-03 -1.917986944317817688e-02 5.276897177100181580e-02 9.597738273441791534e-03 -1.057183253578841686e-03 -9.858635254204273224e-03 -4.174500238150358200e-03 6.103260815143585205e-02 -2.545218169689178467e-02 4.720149561762809753e-02 -3.114281594753265381e-02 -6.043362617492675781e-02 -3.115407656878232956e-03 -8.869938552379608154e-03 -3.498452156782150269e-02 -6.613861769437789917e-02 1.114569511264562607e-02 5.032401997596025467e-03 3.464090870693325996e-03 -6.731484085321426392e-02 2.508946694433689117e-02 8.251992985606193542e-03 2.591277239844202995e-03 9.084066376090049744e-03 -3.750969842076301575e-02 4.045511409640312195e-02 -5.176153779029846191e-02 -2.340719662606716156e-02 2.155014127492904663e-02 -5.707223434001207352e-03 -3.001303598284721375e-02 -5.304281599819660187e-03 2.259076200425624847e-02 6.212584301829338074e-02 -2.895722351968288422e-02 -7.804368622601032257e-03 -4.346562922000885010e-02 -5.725726485252380371e-03 -3.908671438694000244e-02 4.341974388808012009e-03
9.453525417484343052e-04 -1.252257227897644043e-01 4.152393434196710587e-03 3.128825128078460693e-02 -3.930635005235671997e-02 -4.101691022515296936e-02 -1.770300790667533875e-02 -2.763232775032520294e-02 -1.260360479354858398e-01 7.809462398290634155e-02 3.278899937868118286e-02 2.330435207113623619e-03 -1.888995431363582611e-02 4.213959723711013794e-02 -9.470583498477935791e-02 2.710931561887264252e-02 1.315642334520816803e-02 8.529887534677982330e-03 -1.027390882372856140e-01 -8.716947585344314575e-02 2.580308588221669197e-03 -1.127557456493377686e-01 6.824102252721786499e-02 -9.537810087203979492e-02 -1.582440435886383057e-01 -2.020364068448543549e-02 7.772047072649002075e-02 3.967534005641937256e-02 7.817356847226619720e-03 -5.186093598604202271e-02 -2.871260605752468109e-02 -1.225575506687164307e-01 -1.573389023542404175e-01 -7.497455179691314697e-02 7.806942611932754517e-02 6.389426440000534058e-02 2.518526744097471237e-03 -1.941710710525512695e-01 -4.766665771603584290e-02 -3.968680649995803833e-02 -7.068978250026702881e-02 1.195152942091226578e-02 3.379358351230621338e-02 5.223800614476203918e-02 1.761541329324245453e-02 -1.500460803508758545e-01 -1.171573065221309662e-02 -1.140716299414634705e-01 -9.619902074337005615e-02 -1.255329698324203491e-01 1.652715727686882019e-02 4.995051026344299316e-02 -2.287851413711905479e-03 -4.546861350536346436e-02 1.328356191515922546e-02 5.936499685049057007e-02 -6.169576081447303295e-04 -3.500047698616981506e-02 -4.893189668655395508e-02 -9.670229256153106689e-02 8.334425836801528931e-02 3.840881632640957832e-03 -5.911329761147499084e-02 1.582699641585350037e-02
3.090664744377136230e-03 -4.090622439980506897e-02 7.614042144268751144e-03 2.925309818238019943e-04 2.675103582441806793e-02 4.604885354638099670e-02 -4.071429371833801270e-03 -4.927146434783935547e-02 3.259189054369926453e-02 -6.138844043016433716e-02 -8.008260279893875122e-03 3.628868609666824341e-02 7.964218966662883759e-03 5.122353136539459229e-02 -5.725813284516334534e-02 6.244295835494995117e-02 1.451668795198202133e-02 -1.257629506289958954e-02 3.060831129550933838e-02 -5.047737434506416321e-02 -1.029563834890723228e-03 -6.298285722732543945e-02 1.397910714149475098e-02 4.342768713831901550e-02 -2.580640465021133423e-02 -3.085060417652130127e-02 9.825997054576873779e-03 1.579110696911811829e-02 -6.538222730159759521e-02 -1.609961502254009247e-02 -7.744192332029342651e-02 1.722262054681777954e-02 -4.235471785068511963e-02 -5.445205047726631165e-02 8.016986399888992310e-02 2.862577699124813080e-02 -7.061542943120002747e-03 7.597787678241729736e-02 -5.273778364062309265e-02 2.966316603124141693e-02 -2.977752499282360077e-02 -4.815147258341312408e-03 5.507813300937414169e-03 -5.227455124258995056e-02 1.008942723274230957e-03 -8.228742517530918121e-04 7.318161427974700928e-03 1.405606139451265335e-02 -1.847938448190689087e-02 -2.614101395010948181e-02 2.225940860807895660e-02 -7.093843072652816772e-02 -1.291337190195918083e-03 -2.211827039718627930e-02 -4.228178877383470535e-03 6.207898259162902832e-02 7.925647660158574581e-04 1.532768597826361656e-03 -2.357301861047744751e-02 -1.078275777399539948e-02 4.211401194334030151e-02 -2.245976403355598450e-02 1.075884327292442322e-01 -1.169889513403177261e-02
-7.389424717985093594e-04 8.029988966882228851e-03 -1.044968888163566589e-02 -3.473756089806556702e-02 -4.537725448608398438e-02 -3.510867059230804443e-02 4.799380898475646973e-02 -6.310323253273963928e-03 -1.125356331467628479e-01 1.617443561553955078e-02 -2.855746261775493622e-02 -1.577384304255247116e-03 -1.717663952149450779e-03 -2.376862242817878723e-02 7.844949513673782349e-02 -3.511231392621994019e-02 3.714249469339847565e-03 -3.642231971025466919e-02 -9.662677533924579620e-03 6.477873772382736206e-02 -7.133643142879009247e-03 7.488247007131576538e-02 -3.025586903095245361e-02 -3.077870421111583710e-02 -5.286726728081703186e-02 -1.034492328763008118e-01 -2.798470295965671539e-02 -2.204785309731960297e-02 3.766177967190742493e-02 -9.478248655796051025e-02 -3.469747677445411682e-02 -5.492373928427696228e-02 4.810733254998922348e-03 -5.346282199025154114e-02 -6.987447291612625122e-02 8.674924611113965511e-04 -4.687197878956794739e-02 -1.326925754547119141e-01 -9.503200650215148926e-02 -2.661525830626487732e-02 -9.507176280021667480e-02 -4.395098984241485596e-02 -3.751663118600845337e-02 2.006607688963413239e-02 -9.619155898690223694e-03 3.269663453102111816e-02 -1.625400967895984650e-02 2.596014179289340973e-02 -1.519097108393907547e-02 -1.337336301803588867e-01 4.723893478512763977e-02 -1.296652257442474365e-01 1.951554045081138611e-02 -1.553259789943695068e-02 -1.645545358769595623e-03 2.616035053506493568e-03 3.779834136366844177e-02 -6.725941598415374756e-02 1.048911176621913910e-02 2.291020937263965607e-02 -8.651387691497802734e-02 2.088550850749015808e-02 3.414706140756607056e-02 6.329610012471675873e-03
-1.820773701183497906e-03 6.536377966403961182e-02 -3.929566591978073120e-03 -1.391288591548800468e-03 -4.713395610451698303e-02 -3.067446686327457428e-02 7.091575115919113159e-02 1.513237133622169495e-02 -3.469023853540420532e-02 6.194788962602615356e-02 -8.419520454481244087e-04 4.602115228772163391e-02 -7.491470780223608017e-03 -5.788940191268920898e-02 -5.339935421943664551e-02 5.885285884141921997e-02 -3.934527933597564697e-02 -1.849940046668052673e-03 4.313759133219718933e-02 3.953430801630020142e-03 -1.109855249524116516e-02 -5.523512605577707291e-03 -1.697186194360256195e-02 1.319710165262222290e-01 -3.961075842380523682e-02 -9.696315973997116089e-04 -6.309826858341693878e-03 6.648470461368560791e-02 1.816272735595703125e-02 7.882203161716461182e-02 2.019893436226993799e-04 -1.816422911360859871e-03 1.171450614929199219e-01 8.622170425951480865e-04 1.220247074961662292e-01 -1.903750700876116753e-03 2.008403837680816650e-02 6.445904076099395752e-02 -2.747375518083572388e-03 2.591653540730476379e-02 -1.579063571989536285e-02 2.481925673782825470e-02 -1.429120078682899475e-02 9.145254269242286682e-03 2.555455453693866730e-02 8.800753951072692871e-02 -1.722028106451034546e-02 6.087585538625717163e-02 -3.020429518073797226e-03 2.810760401189327240e-03 -1.222498156130313873e-02 1.549061737023293972e-03 -1.401418168097734451e-02 4.212033003568649292e-02 -4.152790457010269165e-02 1.366065000183880329e-03 -5.196505412459373474e-02 -6.133324466645717621e-03 7.138731889426708221e-03 -3.127650171518325806e-02 -3.203226719051599503e-03 -4.211761057376861572e-03 9.583367034792900085e-03 -3.022986464202404022e-02
5.096595734357833862e-02 -1.969176977872848511e-01 4.697127640247344971e-02 9.497871506027877331e-04 -1.577780097723007202e-01 -1.024431437253952026e-01 7.524517178535461426e-02 -2.657558023929595947e-02 -1.503647714853286743e-01 1.527983397245407104e-01 -2.790597826242446899e-02 -2.830670960247516632e-02 1.056011319160461426e-01 6.297906488180160522e-02 -2.333643585443496704e-01 4.345622658729553223e-02 4.270756989717483521e-02 3.779804334044456482e-02 -1.851194649934768677e-01 -1.778726279735565186e-01 4.480086266994476318e-02 -2.098293900489807129e-01 8.958903700113296509e-02 -1.910369843244552612e-01 -1.467409729957580566e-01 -1.475769132375717163e-01 2.016142606735229492e-01 7.625420391559600830e-02 3.835481032729148865e-02 -1.638367623090744019e-01 3.845022991299629211e-02 -1.567710936069488525e-01 -1.177650466561317444e-01 -2.591677606105804443e-01 -1.496300101280212402e-01 2.811667136847972870e-02 5.403816327452659607e-02 -1.354521811008453369e-01 -2.415546923875808716e-01 1.464227735996246338e-01 -1.633705496788024902e-01 1.015247851610183716e-01 1.492199003696441650e-01 5.575667321681976318e-02 2.122696638107299805e-01 -2.175913006067276001e-01 -3.425423055887222290e-03 -1.069892495870590210e-01 -3.752152994275093079e-02 -1.418539285659790039e-01 5.610451474785804749e-02 -2.526534199714660645e-01 2.824512496590614319e-02 7.795553654432296753e-03 1.164748426526784897e-02 4.044806584715843201e-02 9.327652864158153534e-03 3.045762516558170319e-02 1.485776752233505249e-01 -1.463894546031951904e-01 8.075677603483200073e-02 3.979225084185600281e-02 3.001273050904273987e-02 7.646267861127853394e-02
5.540133267641067505e-02 4.131077229976654053e-02 3.996771760284900665e-03 -4.701183736324310303e-02 -3.630999103188514709e-02 -7.264909334480762482e-03 9.633816778659820557e-02 1.623236760497093201e-02 4.574867710471153259e-02 -3.334921225905418396e-02 7.977874949574470520e-03 -1.326616387814283371e-02 -2.331806719303131104e-02 -6.747873499989509583e-03 7.113998383283615112e-02 2.210118994116783142e-02 5.696205794811248779e-02 1.828641747124493122e-03 -6.646715104579925537e-03 1.596397720277309418e-02 1.618180051445960999e-02 3.079475089907646179e-02 -3.095681592822074890e-02 -6.474535912275314331e-02 -5.728438496589660645e-03 -1.743109314702451229e-03 -2.644863678142428398e-03 5.596060678362846375e-02 -1.940265670418739319e-02 -1.155556738376617432e-02 -2.563989348709583282e-02 1.060211379081010818e-02 8.978606760501861572e-02 -2.509939298033714294e-02 -1.366328634321689606e-02 -5.282606929540634155e-02 4.052619636058807373e-02 1.311857104301452637e-01 -4.511819221079349518e-03 -1.384683698415756226e-02 -2.359250746667385101e-02 4.349614609964191914e-04 -8.044103160500526428e-03 -2.262338995933532715e-03 -6.548862904310226440e-02 5.259169638156890869e-02 7.838345132768154144e-03 8.402917534112930298e-02 -5.269061028957366943e-02 -5.180741474032402039e-02 -6.235523149371147156e-02 -3.257847623899579048e-03 7.291811704635620117e-02 -3.776078671216964722e-02 -2.863089554011821747e-03 4.640511050820350647e-02 2.788450382649898529e-02 -1.732436567544937134e-02 -2.702498622238636017e-02 4.235431551933288574e-02 -5.759124644100666046e-03 -1.178820524364709854e-02 -5.265338346362113953e-02 -1.223895978182554245e-02
1.920402236282825470e-02 4.297418892383575439e-02 -6.086907535791397095e-02 -2.669485472142696381e-02 3.758932277560234070e-02 4.388554394245147705e-02 1.540636643767356873e-02 3.029552474617958069e-02 -2.657356671988964081e-02 -7.071015238761901855e-02 3.892759606242179871e-02 5.028416053391993046e-04 -6.736274063587188721e-02 3.199981525540351868e-02 1.234050989151000977e-01 -3.251630812883377075e-02 -4.427669569849967957e-02 -6.862081587314605713e-02 -1.950076036155223846e-02 5.398944392800331116e-02 3.690932877361774445e-03 6.366785615682601929e-02 -8.406302332878112793e-02 1.115315631031990051e-01 -4.657875746488571167e-02 9.281166642904281616e-02 -1.341708935797214508e-03 3.156384825706481934e-02 -2.876645699143409729e-02 5.697288736701011658e-02 2.114168927073478699e-02 7.174982130527496338e-02 -1.490608975291252136e-02 -4.982716962695121765e-02 -3.937087953090667725e-03 -5.312819406390190125e-02 -2.646790631115436554e-02 6.485533714294433594e-02 5.151093006134033203e-02 2.167333662509918213e-02 -6.104926019906997681e-02 4.449527710676193237e-02 -7.991108298301696777e-02 -1.263612210750579834e-01 -1.329611390829086304e-01 -5.648322030901908875e-02 5.351377651095390320e-03 7.845499366521835327e-02 -1.403943821787834167e-02 1.124574989080429077e-01 -7.859547436237335205e-02 -3.563729301095008850e-02 3.132974263280630112e-03 -4.672498255968093872e-02 2.673228271305561066e-02 4.616436734795570374e-02 -1.925321295857429504e-02 -6.253886967897415161e-02 -1.048908233642578125e-01 -5.142078548669815063e-02 -1.101349145174026489e-01 -2.469896897673606873e-02 2.732671983540058136e-02 -4.946462437510490417e-02
-1.539567601867020130e-04 4.470660537481307983e-02 -2.369172172620892525e-03 -3.386388346552848816e-02 -4.909645300358533859e-03 -3.606009297072887421e-03 1.284698839299380779e-03 -2.225114963948726654e-02 5.403750576078891754e-03 -1.323438435792922974e-02 -4.645461449399590492e-04 -1.075640670023858547e-03 -5.122078582644462585e-03 -6.544229108840227127e-03 -3.106664633378386497e-03 3.619144856929779053e-02 -6.947965011931955814e-04 1.988596469163894653e-02 1.490981876850128174e-02 8.368607610464096069e-03 -1.859655185398878530e-06 3.038578433915972710e-03 -2.233626320958137512e-03 1.300383079797029495e-02 9.531446732580661774e-03 -3.299659583717584610e-03 -7.217665202915668488e-03 4.052102100104093552e-03 -5.223723873496055603e-02 -4.144145920872688293e-02 5.972600774839520454e-04 -5.443668924272060394e-04 -8.503222838044166565e-03 3.131787991151213646e-03 -5.875734612345695496e-02 -1.880120672285556793e-02 5.737593397498130798e-02 -1.066276854544412345e-05 8.465953578706830740e-05 1.768318004906177521e-02 6.330576539039611816e-02 7.720323628745973110e-04 -1.454165112227201462e-02 5.540340393781661987e-02 -6.064720917493104935e-03 2.611968666315078735e-02 1.410634908825159073e-02 -2.354839583858847618e-03 -5.544578656554222107e-03 -2.350593276787549257e-04 1.727620698511600494e-02 9.310076944530010223e-03 -3.063752083107829094e-03 -7.052358239889144897e-03 2.162732370197772980e-02 1.504993066191673279e-02 1.667753560468554497e-03 -3.427776508033275604e-03 -3.725968534126877785e-03 -3.466128837317228317e-03 -1.101735513657331467e-02 -1.639147871173918247e-03 1.476807403378188610e-03 -1.632573257666081190e-04
2.311254153028130531e-03 -9.555474668741226196e-02 8.644957095384597778e-02 2.369924448430538177e-03 -1.427595410495996475e-02 -1.934189349412918091e-02 -3.056899271905422211e-02 -9.656705078668892384e-04 8.852261304855346680e-02 1.499852091073989868e-01 -7.341443747282028198e-02 2.806829870678484440e-04 6.591488420963287354e-02 8.788201957941055298e-02 8.343132585287094116e-02 -2.285462431609630585e-02 2.403610385954380035e-02 -3.109999746084213257e-02 -1.370524708181619644e-02 -4.498879238963127136e-02 2.860426716506481171e-02 -1.122117391787469387e-03 1.360147297382354736e-01 -8.741302415728569031e-03 5.108665674924850464e-02 -2.721319347620010376e-02 3.026466444134712219e-02 1.207272056490182877e-02 -2.388282120227813721e-02 8.805019780993461609e-03 -4.903139546513557434e-02 -1.551677007228136063e-02 -4.213281348347663879e-02 -4.565335810184478760e-02 5.293374508619308472e-02 7.645794749259948730e-02 6.015199795365333557e-02 -2.171091921627521515e-02 5.014524236321449280e-02 2.118012011051177979e-01 -8.117877691984176636e-02 -1.139394640922546387e-01 2.716917358338832855e-02 8.964961767196655273e-02 1.806561052799224854e-01 -2.109603397548198700e-02 1.667996286414563656e-03 2.248910069465637207e-02 -4.807331413030624390e-02 -6.055558100342750549e-03 8.572079241275787354e-02 -2.062614448368549347e-02 -4.508924856781959534e-02 -5.204372853040695190e-02 -1.174060776829719543e-01 2.411432005465030670e-02 -2.778056263923645020e-02 1.422362923622131348e-01 1.485620588064193726e-01 -7.524070795625448227e-03 1.992884129285812378e-01 4.534593597054481506e-02 -2.739186584949493408e-02 7.897207140922546387e-02
-5.211742827668786049e-04 -2.262068539857864380e-02 -1.729300245642662048e-02 -1.246808329597115517e-03 -3.494718112051486969e-03 -8.155668154358863831e-03 3.847508225589990616e-03 -1.208356488496065140e-02 -2.253950200974941254e-02 1.566398073919117451e-03 1.985402964055538177e-02 1.073415507562458515e-03 -9.660937823355197906e-03 -4.800244420766830444e-02 -3.124487400054931641e-02 -2.255384065210819244e-02 6.925272755324840546e-03 -4.154651833232492208e-04 2.602451667189598083e-02 -3.561782464385032654e-02 8.297570049762725830e-03 -8.210224658250808716e-02 -4.096783325076103210e-02 7.202962413430213928e-03 1.049854047596454620e-02 3.748087584972381592e-02 4.203197080641984940e-03 1.095320098102092743e-02 1.973088597878813744e-03 3.031400963664054871e-02 3.934330865740776062e-02 -6.291973870247602463e-03 3.889888525009155273e-02 4.784780740737915039e-02 -9.041002020239830017e-03 2.646541222929954529e-03 -7.954717613756656647e-03 4.892785567790269852e-03 -2.388288080692291260e-02 -3.813686221837997437e-02 7.140565663576126099e-02 -3.828004235401749611e-03 -8.991931565105915070e-03 3.759997664019465446e-03 -5.919069796800613403e-02 7.260150462388992310e-02 -2.185241552069783211e-03 -3.725999593734741211e-02 2.971712965518236160e-03 -5.950324609875679016e-02 -2.628602460026741028e-02 3.169676754623651505e-03 3.672150894999504089e-02 -3.083955089095979929e-04 1.674213074147701263e-02 5.516892299056053162e-02 8.924561552703380585e-03 -4.020345956087112427e-02 -9.693503379821777344e-03 -2.557655982673168182e-02 -3.438582271337509155e-02 -2.816953230649232864e-03 -4.301353916525840759e-02 1.198905613273382187e-02
