3.377488814294338226e-03 -2.018849253654479980e-01 3.651251792907714844e-01 1.795408427715301514e-01
2.981466650962829590e-01 2.519785463809967041e-01 -7.653833925724029541e-02 1.070150807499885559e-01
3.933313116431236267e-02 3.509434461593627930e-01 3.195343613624572754e-01 3.937229514122009277e-01
-2.352723479270935059e-01 1.875132322311401367e-01 3.425553143024444580e-01 2.842399179935455322e-01
-2.290085703134536743e-01 2.098501920700073242e-01 -1.899408847093582153e-01 -1.970898509025573730e-01
-3.552384376525878906e-01 4.664125144481658936e-01 3.994106650352478027e-01 -6.564076989889144897e-02
-1.311336904764175415e-01 -3.320904076099395752e-02 4.323986768722534180e-01 -3.444695472717285156e-01
-1.739574819803237915e-01 4.208682477474212646e-01 -1.675872653722763062e-01 1.091038063168525696e-02
-2.449018880724906921e-02 1.335758566856384277e-01 -5.792842060327529907e-02 -1.742134802043437958e-02
8.002277463674545288e-02 -6.972369551658630371e-02 2.745033800601959229e-01 2.727107107639312744e-01
-1.233007162809371948e-01 -3.622830212116241455e-01 2.457171231508255005e-01 -4.494824409484863281e-01
1.394880935549736023e-02 -3.168247267603874207e-02 3.533549308776855469e-01 -2.657591104507446289e-01
2.927726507186889648e-01 -4.762977659702301025e-01 -1.429593712091445923e-01 1.812734603881835938e-01
-6.498745083808898926e-02 8.052878826856613159e-02 1.821199506521224976e-01 2.765517532825469971e-01
1.705592721700668335e-01 -3.131191432476043701e-01 4.602983593940734863e-01 1.840679794549942017e-01
-2.932420074939727783e-01 2.443368285894393921e-01 -1.829476356506347656e-01 1.857384741306304932e-01
1.918207108974456787e-01 2.129564061760902405e-02 5.563604086637496948e-02 2.150493860244750977e-01
-3.268851637840270996e-01 -3.703456223011016846e-01 -4.244981408119201660e-01 -1.623881459236145020e-01
4.699522163718938828e-03 3.869579136371612549e-01 2.103552818298339844e-01 -2.040347456932067871e-01
1.849854439496994019e-01 1.320829838514328003e-01 -1.651915460824966431e-01 2.838138639926910400e-01
1.806580871343612671e-01 4.270270466804504395e-01 -3.812348544597625732e-01 -1.036092862486839294e-01
2.322458028793334961e-01 -1.695370674133300781e-01 -3.046155273914337158e-01 1.824567914009094238e-01
-3.056152164936065674e-01 9.915747493505477905e-02 2.845846116542816162e-01 2.011472880840301514e-01
1.763763278722763062e-01 -3.306467533111572266e-01 -2.745964825153350830e-01 -4.572050273418426514e-01
-9.169233590364456177e-02 -2.569031715393066406e-01 -3.861450254917144775e-01 -1.520746648311614990e-01
3.960447907447814941e-01 -9.028050303459167480e-02 2.333158850669860840e-01 3.923685252666473389e-01
-2.659208178520202637e-01 -3.598545193672180176e-01 4.251294136047363281e-01 1.146951690316200256e-01
4.284558594226837158e-01 1.509226262569427490e-01 2.140261530876159668e-01 8.518267422914505005e-02
3.403668105602264404e-01 -1.321123819798231125e-02 -4.505357444286346436e-01 1.786057502031326294e-01
1.793081462383270264e-01 4.091877043247222900e-01 -2.949177026748657227e-01 2.225288003683090210e-01
1.164786424487829208e-02 -2.239772379398345947e-01 -1.850740611553192139e-01 -3.302810788154602051e-01
-9.425010532140731812e-02 3.153888285160064697e-01 -3.545437008142471313e-03 4.003879129886627197e-01
