6.241264939308166504e-02
-1.478622574359178543e-02
5.549140647053718567e-02
1.711810764390975237e-04
3.742558765225112438e-04
1.155768404714763165e-03
-1.178584434092044830e-02
-3.807031607721000910e-04
-4.558058828115463257e-02
4.018067196011543274e-02
8.181666582822799683e-02
-4.404566809535026550e-02
7.306392490863800049e-02
-9.576467564329504967e-04
0.000000000000000000e+00
1.711265183985233307e-02
5.647805705666542053e-02
9.833911899477243423e-04
-1.909977290779352188e-04
4.367690708022564650e-04
6.728663295507431030e-02
-1.457835314795374870e-03
-2.559653297066688538e-02
1.053749769926071167e-02
-3.063555434346199036e-02
-8.612035890109837055e-04
1.050637662410736084e-01
7.753393799066543579e-02
-7.308145868591964245e-04
7.430905103683471680e-02
-1.845413446426391602e-02
6.568302214145660400e-02
-3.589627146720886230e-02
3.877367451786994934e-02
-1.555807795375585556e-02
-2.402201853692531586e-02
3.448818111792206764e-03
5.214480683207511902e-02
-7.583550177514553070e-05
9.642656892538070679e-02
-1.588139683008193970e-02
1.639188081026077271e-02
2.163040637969970703e-02
2.102867700159549713e-02
2.414775639772415161e-02
2.718216925859451294e-02
-1.046697725541889668e-03
3.083126805722713470e-02
-2.846451103687286377e-02
-2.625307533890008926e-03
6.356500834226608276e-02
4.547978937625885010e-02
8.381814695894718170e-03
3.288441151380538940e-02
4.021858423948287964e-02
1.234106644988059998e-01
-2.778170397505164146e-03
-3.505919885355979204e-04
-2.621448971331119537e-02
-1.135120820254087448e-02
5.647376552224159241e-02
-1.079210452735424042e-02
-4.028580442536622286e-04
-4.957082681357860565e-03
-3.485428169369697571e-03
-8.364873356185853481e-04
-1.617001183331012726e-02
3.977361321449279785e-02
-4.214240610599517822e-02
0.000000000000000000e+00
-3.193208575248718262e-02
3.069351613521575928e-02
3.134905174374580383e-02
-6.045032292604446411e-03
7.256875932216644287e-02
-4.719943739473819733e-03
4.526485572569072247e-04
4.223253577947616577e-03
-9.618283947929739952e-04
-7.307754131034016609e-04
3.828415647149085999e-02
1.165188923478126526e-01
-3.162965923547744751e-02
-1.903925207443535328e-03
2.409214340150356293e-02
-5.208075791597366333e-02
-3.775681555271148682e-02
7.350782398134469986e-04
1.351775676012039185e-01
-1.454306329833343625e-04
-7.323623634874820709e-03
-4.880643682554364204e-04
1.011836063116788864e-02
2.023524232208728790e-02
5.026520416140556335e-02
-2.887076989281922579e-04
-1.339850295335054398e-02
-6.534852087497711182e-02
2.449701540172100067e-02
6.618610769510269165e-02
4.627726227045059204e-02
-4.069653525948524475e-02
4.892638325691223145e-02
-3.042164817452430725e-02
4.406165971886366606e-04
4.321144148707389832e-02
-1.007335493341088295e-03
-1.312098000198602676e-02
2.248655818402767181e-02
8.788082003593444824e-02
-5.560782551765441895e-02
3.999244887381792068e-03
3.839797526597976685e-02
5.921570956707000732e-02
8.911445736885070801e-02
5.669181793928146362e-02
4.324447363615036011e-02
1.020957008004188538e-01
7.962287217378616333e-02
4.754853900521993637e-03
6.952814012765884399e-02
1.136779435910284519e-03
-2.065057400614023209e-03
-4.786396748386323452e-04
6.488376297056674957e-03
-7.764269248582422733e-04
-4.407089576125144958e-02
-8.686742512509226799e-04
