1.556223928928375244e-01 -1.292723268270492554e-01 -2.244373857975006104e-01 2.952322661876678467e-01
-1.626683324575424194e-01 1.473070681095123291e-01 1.644430309534072876e-01 -1.822940707206726074e-01
1.429848521947860718e-01 -2.484621107578277588e-01 -1.462515443563461304e-01 7.270418852567672729e-02
4.547252878546714783e-02 9.393049776554107666e-02 -1.888316571712493896e-01 -1.492265015840530396e-01
-1.555604934692382812e-01 1.345435231924057007e-01 1.444034725427627563e-01 -1.446440964937210083e-01
2.001755870878696442e-02 2.026682198047637939e-01 9.952807426452636719e-02 -9.922709316015243530e-02
-1.389078497886657715e-01 2.401444911956787109e-01 6.532365083694458008e-02 -2.092212140560150146e-01
9.845297783613204956e-02 1.971183568239212036e-01 -1.530619263648986816e-01 -1.698965877294540405e-01
1.273442655801773071e-01 -4.321465268731117249e-02 1.616892069578170776e-01 1.993900723755359650e-02
1.012009605765342712e-01 6.047990173101425171e-02 -1.746278703212738037e-01 3.623244538903236389e-02
2.691518962383270264e-01 -3.600963205099105835e-02 1.118683069944381714e-02 2.469533383846282959e-01
9.437724202871322632e-02 -4.182943142950534821e-03 -1.383529603481292725e-01 9.776121377944946289e-02
-6.730602681636810303e-02 1.590620577335357666e-01 2.528348267078399658e-01 1.944419890642166138e-01
1.068419218063354492e-01 2.207329422235488892e-01 1.461673676967620850e-01 9.739758074283599854e-02
-1.746886482578702271e-05 -4.576133936643600464e-02 7.223610300570726395e-04 1.910519599914550781e-02
-8.950410783290863037e-02 1.989075392484664917e-01 9.843207150697708130e-02 1.841038465499877930e-01
1.432689577341079712e-01 4.739881306886672974e-02 -2.134529948234558105e-01 1.223686486482620239e-01
1.190266311168670654e-01 1.368630528450012207e-01 1.563823223114013672e-02 1.636640876531600952e-01
-1.193005219101905823e-01 2.746328711509704590e-01 2.306483685970306396e-01 -1.731787323951721191e-01
-2.470787763595581055e-01 2.977233827114105225e-01 -1.496473560109734535e-03 -7.682755589485168457e-02
-9.985312819480895996e-02 -1.075069531798362732e-01 -1.310076862573623657e-01 1.580588519573211670e-01
-1.176037192344665527e-01 2.702677845954895020e-01 1.842597275972366333e-01 -4.486047849059104919e-02
9.146880358457565308e-02 -4.938080534338951111e-02 -2.008625566959381104e-01 -8.100079372525215149e-03
8.080615848302841187e-02 -2.438119426369667053e-02 2.161384522914886475e-01 -1.482311487197875977e-01
1.740643233060836792e-01 -3.392348811030387878e-02 1.547254715114831924e-02 -2.451841980218887329e-01
1.723904162645339966e-01 1.875659674406051636e-01 5.800233036279678345e-02 -2.139664590358734131e-01
-1.682044863700866699e-01 -3.402512520551681519e-02 8.308766782283782959e-02 1.948664933443069458e-01
1.998122632503509521e-01 -1.603707671165466309e-01 -5.237459391355514526e-02 2.812460660934448242e-01
-8.629252761602401733e-02 8.895052969455718994e-02 -1.009537428617477417e-01 -3.392479717731475830e-01
1.727441996335983276e-01 -2.227358818054199219e-01 5.431348457932472229e-03 1.042400673031806946e-01
1.567386537790298462e-01 -4.415286332368850708e-02 -1.445139795541763306e-01 2.817209064960479736e-02
-5.669606849551200867e-02 -1.742294877767562866e-01 -1.762157082557678223e-01 3.218717873096466064e-01
-1.509928852319717407e-01 -1.523431092500686646e-01 -8.128777891397476196e-02 9.395501017570495605e-02
-2.240456342697143555e-01 -4.992057383060455322e-02 1.645216941833496094e-01 -1.453561037778854370e-01
-4.596482962369918823e-02 -1.446920335292816162e-01 5.985229834914207458e-02 1.513534039258956909e-01
2.388296127319335938e-01 1.741603463888168335e-01 3.232780471444129944e-02 1.594247668981552124e-01
4.350750520825386047e-02 2.183219045400619507e-01 1.322299093008041382e-01 -1.661341488361358643e-01
2.056401073932647705e-01 -1.271560788154602051e-01 -1.778199076652526855e-01 8.354120701551437378e-02
-3.338085860013961792e-02 2.065394818782806396e-01 -2.111264914274215698e-01 3.179324045777320862e-02
1.423899382352828979e-01 -1.521632522344589233e-01 3.641437739133834839e-02 1.675985157489776611e-01
-1.880812086164951324e-02 -1.295496821403503418e-01 -7.388476282358169556e-02 -4.766050726175308228e-02
-1.467145234346389771e-01 -9.038061834871768951e-03 -4.237290704622864723e-04 -2.057226300239562988e-01
1.754383440129458904e-03 1.609874814748764038e-01 1.094112023711204529e-01 -1.995155513286590576e-01
-2.107683122158050537e-01 -3.266970440745353699e-02 2.061905115842819214e-01 -1.969385594129562378e-01
-1.811087876558303833e-01 2.341135591268539429e-01 3.138158097863197327e-02 -3.710275143384933472e-02
-1.087902262806892395e-01 -7.759694475680589676e-03 -7.568039745092391968e-02 -2.649372220039367676e-01
1.633654832839965820e-01 1.938056349754333496e-01 -3.032018430531024933e-03 1.522458195686340332e-01
7.965020090341567993e-02 1.896761655807495117e-01 1.883291304111480713e-01 8.389060944318771362e-02
1.431383043527603149e-01 3.190149739384651184e-02 -1.470450460910797119e-01 3.864795714616775513e-02
5.572237446904182434e-02 1.210193485021591187e-01 -2.214685268700122833e-02 -2.385413199663162231e-01
1.070765629410743713e-01 -2.313362061977386475e-01 -8.763640373945236206e-02 -5.721784383058547974e-02
-9.164226800203323364e-02 9.384308755397796631e-02 1.248460188508033752e-01 -2.811838388442993164e-01
1.567366868257522583e-01 1.574753075838088989e-01 -2.599421739578247070e-01 9.990569949150085449e-02
-2.000282108783721924e-01 2.697006464004516602e-01 2.503052949905395508e-01 -2.721010148525238037e-01
-2.040705084800720215e-01 5.777938291430473328e-02 1.123836562037467957e-01 9.218470007181167603e-02
4.307693243026733398e-02 -2.424032390117645264e-01 8.087927475571632385e-03 6.696708500385284424e-02
-2.120451480150222778e-01 1.906902194023132324e-01 9.139588475227355957e-02 -1.778541803359985352e-01
-1.535952091217041016e-01 2.679459154605865479e-01 3.602167591452598572e-02 -2.687097191810607910e-01
1.028703972697257996e-01 -3.065937198698520660e-02 -2.202145159244537354e-01 -9.555549919605255127e-02
6.520280987024307251e-02 8.615340292453765869e-02 -9.424134343862533569e-02 2.164692878723144531e-01
-1.019266061484813690e-02 -8.147604018449783325e-02 -6.533402204513549805e-02 8.091001957654953003e-02
2.035039961338043213e-01 3.743743873201310635e-04 1.354954093694686890e-01 -2.647499442100524902e-01
2.561479210853576660e-01 1.554561108350753784e-01 3.009027987718582153e-02 -1.402134746313095093e-01
1.318287104368209839e-01 5.609720945358276367e-02 -2.140875756740570068e-01 7.000064477324485779e-03
-1.206303164362907410e-01 -5.511023849248886108e-02 1.164744719862937927e-01 3.460147976875305176e-02
-1.476164311170578003e-01 1.963215768337249756e-01 1.367188990116119385e-01 -1.091909408569335938e-01
1.357342749834060669e-01 -1.457557231187820435e-01 -1.911289095878601074e-01 -3.536274284124374390e-02
1.672553420066833496e-01 -1.483136713504791260e-01 1.084115058183670044e-01 8.924495195969939232e-04
1.520564258098602295e-01 -5.119995027780532837e-02 -8.092416077852249146e-02 1.185302212834358215e-01
-4.933453399864373243e-32 1.067985977432073241e-11 1.184642047860386549e-31 7.916410786650851058e-33
2.223767340183258057e-02 -5.200487375259399414e-02 -6.388033181428909302e-02 2.906164620071649551e-03
-3.071182407438755035e-02 3.219006583094596863e-03 5.309788882732391357e-02 -3.182186745107173920e-03
2.702233195304870605e-01 9.731208533048629761e-02 3.353995829820632935e-02 1.583908647298812866e-01
5.645851759478238598e-32 5.010885186493396759e-03 -2.736207284033298492e-02 1.896814815700054169e-02
-1.056047901511192322e-01 -2.290082424879074097e-01 -2.378502935171127319e-01 1.301687061786651611e-01
1.482811570167541504e-01 9.357085078954696655e-02 -2.259132117033004761e-01 -1.554142385721206665e-01
4.895661026239395142e-02 2.792574465274810791e-01 1.433771401643753052e-01 -4.035181552171707153e-02
-9.505172818899154663e-02 2.165324389934539795e-01 3.164526075124740601e-02 -8.296964690089225769e-03
-8.945757150650024414e-02 1.395996212959289551e-01 1.136748790740966797e-01 -3.164120018482208252e-01
1.937399655580520630e-01 6.174628064036369324e-02 -9.192454069852828979e-02 6.368811428546905518e-02
-2.024749061092734337e-03 1.004418358206748962e-01 -1.937174052000045776e-01 2.753940224647521973e-01
1.118215769529342651e-01 -3.156925439834594727e-01 -1.089767366647720337e-01 2.057173401117324829e-01
-2.122392803430557251e-01 2.035961896181106567e-01 -1.637100577354431152e-01 -2.225822955369949341e-01
-1.217856407165527344e-01 1.362947225570678711e-01 -2.081492841243743896e-01 -5.071571562439203262e-03
8.989039808511734009e-02 -1.629963815212249756e-01 -2.368680015206336975e-02 -1.256075128912925720e-02
7.809761911630630493e-02 7.465819269418716431e-02 5.478024948388338089e-03 1.886983811855316162e-01
-1.335343271493911743e-01 -1.069618301698938012e-04 1.236563101410865784e-01 7.475596666336059570e-02
1.191036626696586609e-01 6.492337584495544434e-02 1.114102303981781006e-01 -2.523791491985321045e-01
-4.150727391242980957e-02 -3.163419067859649658e-01 -1.198356002569198608e-01 2.109085917472839355e-01
-4.816334322094917297e-02 2.981188297271728516e-01 1.708686053752899170e-01 -3.006486920639872551e-03
1.773409247398376465e-01 -4.607105255126953125e-02 -1.001920998096466064e-01 -1.008185595273971558e-01
1.098781265318393707e-02 1.544131487607955933e-01 1.405692398548126221e-01 -4.677345603704452515e-02
-9.516338258981704712e-02 1.852269768714904785e-01 2.426739186048507690e-01 -5.871016532182693481e-02
2.900129258632659912e-01 -4.867984727025032043e-02 -2.508035600185394287e-01 2.974848747253417969e-01
8.298771455883979797e-03 -1.455886512994766235e-01 -9.074280411005020142e-02 9.502103924751281738e-02
-9.293108433485031128e-02 2.329328954219818115e-01 -9.079226106405258179e-02 -1.498150676488876343e-01
-3.611117601394653320e-02 -6.402830779552459717e-02 1.095365360379219055e-01 1.798568964004516602e-01
-1.240480244159698486e-01 -1.639499142765998840e-02 1.770199090242385864e-01 -2.150559872388839722e-01
4.516319558024406433e-02 2.509557306766510010e-01 2.292889058589935303e-01 1.965792663395404816e-02
-1.331472992897033691e-01 2.144720256328582764e-01 2.803929448127746582e-01 1.464544534683227539e-01
-1.019305735826492310e-01 6.369514018297195435e-02 -1.324884295463562012e-01 2.588420808315277100e-01
-1.130475029349327087e-01 1.767266243696212769e-01 1.871002465486526489e-01 -1.982213705778121948e-01
2.571833133697509766e-01 -2.428854256868362427e-01 -1.488402336835861206e-01 -1.273712962865829468e-01
3.683228790760040283e-02 1.873490363359451294e-01 1.084842681884765625e-01 -1.205765753984451294e-01
1.411684155464172363e-01 -7.599022984504699707e-02 -9.959993511438369751e-02 -2.836092710494995117e-01
-6.215495988726615906e-02 -1.264941990375518799e-01 -1.782364398241043091e-01 1.196241676807403564e-01
-9.482277184724807739e-02 2.591550648212432861e-01 3.876477107405662537e-02 -2.987549006938934326e-01
8.704777061939239502e-02 1.046488136053085327e-01 -1.482608914375305176e-01 1.735814064741134644e-01
1.254946738481521606e-01 -7.619512081146240234e-02 -2.040929645299911499e-01 -7.684226334095001221e-02
1.463010311126708984e-01 -2.055921554565429688e-01 1.244892831891775131e-02 3.340416550636291504e-01
-1.729373037815093994e-01 1.729300916194915771e-01 1.598500013351440430e-01 5.912028253078460693e-02
-7.153803855180740356e-02 2.662160992622375488e-01 1.314697414636611938e-01 2.825645357370376587e-02
-1.057497262954711914e-01 -1.249424368143081665e-01 8.656114339828491211e-02 -2.854354977607727051e-01
3.943633288145065308e-02 6.527304649353027344e-02 2.596798539161682129e-01 7.738949358463287354e-02
2.242651134729385376e-01 -2.427292466163635254e-01 4.786192253232002258e-02 1.719416677951812744e-01
-4.904256388545036316e-02 2.766235731542110443e-03 -1.737849712371826172e-01 2.170124053955078125e-01
-1.711953580379486084e-01 2.761123180389404297e-01 1.533082425594329834e-01 8.147528022527694702e-02
-1.962781399488449097e-01 -1.374584436416625977e-01 -2.153170108795166016e-01 2.965547144412994385e-01
-1.804785430431365967e-01 -3.654285520315170288e-02 2.804707288742065430e-01 -4.051766172051429749e-02
2.743585035204887390e-02 -3.078326396644115448e-02 2.786057628691196442e-02 -1.123220995068550110e-01
4.582183808088302612e-02 -1.882022768259048462e-01 -1.776188164949417114e-01 2.338303774595260620e-01
-1.455451399087905884e-01 1.475691944360733032e-01 -5.755730345845222473e-02 -8.552641421556472778e-02
1.014012023806571960e-01 -2.697646059095859528e-02 -8.002982288599014282e-02 -1.027209535241127014e-01
1.355900466442108154e-01 2.402682304382324219e-01 -1.459054946899414062e-01 -1.954605132341384888e-01
7.313866913318634033e-02 4.684540629386901855e-02 1.503285169601440430e-01 6.501381844282150269e-02
8.787105232477188110e-02 2.753747999668121338e-01 -1.245654150843620300e-01 -1.856253445148468018e-01
-6.845217198133468628e-02 -2.372302114963531494e-02 -7.457224279642105103e-02 -4.504448175430297852e-02
2.351102977991104126e-01 1.513927876949310303e-01 -5.700247362256050110e-02 8.786067366600036621e-02
