1.853859238326549530e-02
-9.979918599128723145e-03
-7.509832829236984253e-02
1.539299264550209045e-02
-5.320271849632263184e-02
6.086111441254615784e-02
2.015849947929382324e-02
1.149631962180137634e-01
-7.403873372822999954e-03
-2.408339828252792358e-02
2.510025911033153534e-02
6.704810261726379395e-02
7.363513857126235962e-02
1.072800382971763611e-01
5.050626769661903381e-02
4.101660475134849548e-02
5.456709489226341248e-02
3.157946467399597168e-02
8.326678723096847534e-02
-5.870405957102775574e-02
1.604257151484489441e-02
-2.591278217732906342e-02
-3.007007529959082603e-03
3.550491482019424438e-02
-4.937426745891571045e-02
7.523109763860702515e-02
5.388243496417999268e-02
-1.431751530617475510e-03
2.134686894714832306e-02
5.291618779301643372e-02
4.615985602140426636e-02
3.153174649924039841e-03
9.688692539930343628e-02
1.922344602644443512e-02
7.542022317647933960e-02
5.829136073589324951e-02
-2.182153053581714630e-02
2.451721020042896271e-02
9.170542657375335693e-02
4.771679639816284180e-02
-2.065897360444068909e-02
-6.898767501115798950e-02
3.974368423223495483e-02
2.831427194178104401e-02
-4.055638238787651062e-02
4.401835799217224121e-02
5.821875110268592834e-02
-4.707458615303039551e-02
-1.762778870761394501e-02
5.907733924686908722e-03
-6.277562677860260010e-02
-1.675854064524173737e-02
-4.463848099112510681e-02
1.901092194020748138e-02
-5.552851036190986633e-02
-3.339858353137969971e-02
-6.344327330589294434e-02
1.850259117782115936e-02
-9.046011255122721195e-04
-3.225266188383102417e-02
-4.782198369503021240e-02
-8.428344130516052246e-02
-2.303427271544933319e-02
-5.020944401621818542e-02
