1.942779310047626495e-02 -4.324280470609664917e-02 -6.699411571025848389e-02 5.657098069787025452e-02 -9.830737859010696411e-02 -1.622620970010757446e-01 -1.223182976245880127e-01 -5.974643398076295853e-03 -1.283655613660812378e-01 1.845774613320827484e-02 1.213131323456764221e-01 1.248645558953285217e-01 1.917696148157119751e-01 -1.383327990770339966e-01 -2.061630832031369209e-03 1.969968676567077637e-01 5.636242777109146118e-02 4.375642165541648865e-02 -3.561379387974739075e-02 1.053195148706436157e-01 -1.426968425512313843e-01 -1.906648511067032814e-03 1.313668191432952881e-01 7.887063175439834595e-02 1.061985716223716736e-01 -3.990666568279266357e-02 5.227978527545928955e-02 7.246877253055572510e-02 -1.899265199899673462e-01 -6.724882870912551880e-03 3.674474358558654785e-02 -4.297984763979911804e-02 1.402572542428970337e-01 -3.860775148496031761e-03 -1.811121851205825806e-01 -3.184665739536285400e-02 -7.429967820644378662e-02 -1.207352653145790100e-01 -9.360078722238540649e-02 7.981452345848083496e-02 1.113940030336380005e-01 1.632641069591045380e-02 1.699378527700901031e-02 -3.555345162749290466e-02 1.252609640359878540e-01 -3.710008040070533752e-02 1.082606688141822815e-01 -1.240975037217140198e-02 -1.735832169651985168e-02 -1.433192566037178040e-02 -5.146946059539914131e-04 9.632667154073715210e-02 7.388700544834136963e-02 -9.242402017116546631e-02 -7.225056737661361694e-02 -6.868154555559158325e-02 8.294281363487243652e-02 1.156065911054611206e-01 -5.076633766293525696e-03 8.811438828706741333e-02 3.911864757537841797e-02 -1.228830367326736450e-01 -6.322533637285232544e-02 1.398045718669891357e-01
-4.987749829888343811e-02 -1.283324509859085083e-01 1.107536181807518005e-01 -7.968150079250335693e-02 -6.187755987048149109e-02 1.208824440836906433e-01 -8.537942171096801758e-02 -9.529035538434982300e-02 -4.284040629863739014e-02 -7.951027154922485352e-02 -6.784567236900329590e-02 7.543433457612991333e-02 -8.126852661371231079e-02 -3.398902714252471924e-02 -1.428602039813995361e-01 -1.141543872654438019e-02 3.854139521718025208e-02 -1.971552893519401550e-02 1.381329596042633057e-01 -7.100584357976913452e-02 -1.035712286829948425e-02 6.857495009899139404e-02 -3.756257146596908569e-02 1.000581979751586914e-01 -1.264540385454893112e-02 1.103392392396926880e-01 -1.176446005702018738e-01 -4.516378045082092285e-03 4.804068058729171753e-02 3.142551705241203308e-02 -8.297857642173767090e-02 6.303026527166366577e-02 -1.055296063423156738e-01 -4.259160719811916351e-03 -3.235156461596488953e-02 -1.935082254931330681e-03 -6.640794128179550171e-02 3.596229478716850281e-02 6.283742189407348633e-02 2.683553472161293030e-02 1.451588869094848633e-01 -4.664621129631996155e-02 -2.507747150957584381e-02 5.892293900251388550e-02 -3.713267296552658081e-02 -5.044025555253028870e-02 -7.218695431947708130e-02 3.743077442049980164e-02 1.456305980682373047e-01 -2.948055416345596313e-02 1.198125444352626801e-02 -1.435918807983398438e-01 -3.357241302728652954e-02 3.728775307536125183e-02 1.719919964671134949e-02 6.355374120175838470e-03 -1.074285283684730530e-01 -8.180811256170272827e-02 4.936174303293228149e-02 8.382480591535568237e-02 -4.893986135721206665e-02 1.030847653746604919e-01 -4.335759207606315613e-02 8.187822997570037842e-02
-1.362656950950622559e-01 1.390275955200195312e-01 9.671295434236526489e-02 8.467806875705718994e-02 -8.324307389557361603e-03 5.067417025566101074e-02 1.036930456757545471e-01 -6.933925300836563110e-02 1.402984410524368286e-01 -9.804011136293411255e-02 -5.595916509628295898e-02 2.040009759366512299e-02 -5.737087875604629517e-02 -2.575968019664287567e-02 -2.123256623744964600e-01 6.850836426019668579e-02 -9.708672016859054565e-02 3.278041025623679161e-03 -6.286043673753738403e-02 4.948654398322105408e-02 7.983581162989139557e-03 2.539197355508804321e-02 1.159155145287513733e-01 1.002203524112701416e-01 -7.100558280944824219e-02 7.582715898752212524e-02 -1.707308180630207062e-02 9.682115912437438965e-02 3.929312527179718018e-02 2.343260915949940681e-03 1.411209851503372192e-01 1.452513635158538818e-01 -5.258395895361900330e-02 -7.823649793863296509e-02 -7.684077322483062744e-02 5.193497985601425171e-03 -8.347730338573455811e-02 -1.661877185106277466e-01 1.592487096786499023e-02 7.099659740924835205e-02 1.144286990165710449e-01 1.854895055294036865e-02 7.073345035314559937e-02 -2.284613996744155884e-02 7.129094004631042480e-02 -1.782398968935012817e-01 -3.425279632210731506e-02 6.630403548479080200e-02 -1.494291517883539200e-02 5.672550573945045471e-02 -7.788602262735366821e-03 2.444855682551860809e-02 7.832081057131290436e-03 -1.644765287637710571e-01 5.212867399677634239e-04 1.309581995010375977e-01 9.725507348775863647e-02 -1.622837409377098083e-02 7.912625372409820557e-02 3.914908319711685181e-02 9.618446230888366699e-02 -1.234479919075965881e-01 -2.377258613705635071e-02 1.103320941329002380e-01
4.236146807670593262e-02 -3.245926648378372192e-02 6.481888238340616226e-03 -1.523340642452239990e-01 1.470503062009811401e-01 -1.341813802719116211e-01 -1.904235631227493286e-01 1.171599626541137695e-01 1.797417700290679932e-01 -7.137646526098251343e-02 -3.295085579156875610e-02 -2.443848550319671631e-02 -2.579387277364730835e-02 -2.459388822317123413e-01 1.635174006223678589e-01 -4.049611464142799377e-02 -2.150993645191192627e-01 1.861374527215957642e-01 -7.511958479881286621e-02 9.194457530975341797e-02 8.020609617233276367e-02 1.284358799457550049e-01 -3.741411492228507996e-02 9.771095961332321167e-02 -1.068782582879066467e-01 -1.433244943618774414e-01 6.713886559009552002e-02 -9.913752973079681396e-02 8.208889514207839966e-02 -9.252660721540451050e-02 1.925627142190933228e-01 7.714274525642395020e-02 1.998827755451202393e-01 1.922050267457962036e-01 -9.440158307552337646e-02 3.037700057029724121e-02 -3.090242855250835419e-02 1.023418828845024109e-01 -9.883976727724075317e-02 1.010052487254142761e-01 -1.274769157171249390e-01 -1.094981133937835693e-01 1.317162960767745972e-01 -8.093576878309249878e-02 -9.809841215610504150e-02 1.364957094192504883e-01 4.843112081289291382e-02 -1.420509070158004761e-01 -2.904077060520648956e-02 -3.529725363478064537e-03 1.165110319852828979e-01 3.476342186331748962e-02 3.259778488427400589e-03 8.915576338768005371e-02 1.452324986457824707e-01 -5.227279663085937500e-02 1.356652528047561646e-01 1.563028097152709961e-01 -1.265111565589904785e-01 -6.769354641437530518e-02 7.093842327594757080e-02 -1.484035849571228027e-01 -3.115171007812023163e-02 1.070420295000076294e-01
-6.572849303483963013e-02 2.566404826939105988e-02 -1.010532677173614502e-02 -5.616887286305427551e-02 -7.752639055252075195e-02 1.809354275465011597e-01 3.153217211365699768e-02 -7.751967012882232666e-02 -1.140716224908828735e-01 1.091255173087120056e-01 -3.157244622707366943e-02 2.544712089002132416e-02 1.695276498794555664e-01 -2.647068910300731659e-02 -1.735881268978118896e-01 -1.562885940074920654e-01 -2.236724458634853363e-02 3.806561976671218872e-02 7.870781421661376953e-02 2.805241569876670837e-02 7.752265781164169312e-02 2.390470355749130249e-01 -1.952933706343173981e-02 9.207985131070017815e-04 -5.925854668021202087e-02 -4.419588670134544373e-02 -5.323007702827453613e-02 -1.912197917699813843e-01 4.815372079610824585e-02 -6.270428746938705444e-02 1.390849798917770386e-01 -1.540500074625015259e-01 -2.060036063194274902e-01 3.005764819681644440e-02 -2.883865498006343842e-02 1.495225727558135986e-02 7.048676162958145142e-02 -6.134310737252235413e-02 3.271300345659255981e-02 -6.756039708852767944e-02 2.715497910976409912e-01 -1.142335832118988037e-01 -3.300986066460609436e-02 6.840571016073226929e-02 -2.021371573209762573e-01 -1.949831694364547729e-01 -9.575966000556945801e-02 -6.155426427721977234e-02 2.049326449632644653e-01 -1.250756680965423584e-01 3.391753137111663818e-02 7.683415710926055908e-02 8.636521548032760620e-02 -3.926602751016616821e-02 7.023462653160095215e-02 2.912159822881221771e-02 -1.885289140045642853e-02 1.164095923304557800e-01 -2.109764218330383301e-01 2.849095761775970459e-01 -4.419812560081481934e-02 -1.893632560968399048e-01 -9.322785586118698120e-02 -8.047793060541152954e-02
-1.350258290767669678e-02 -1.793122142553329468e-01 3.796397522091865540e-02 4.721324145793914795e-02 -3.626930294558405876e-03 -5.565597489476203918e-02 1.151184830814599991e-02 1.976013369858264923e-02 1.607019901275634766e-01 9.422413259744644165e-02 1.172746866941452026e-01 -7.936757057905197144e-02 -3.125416114926338196e-02 6.530659645795822144e-02 1.479884088039398193e-01 1.886646300554275513e-01 -1.387289464473724365e-01 6.394199281930923462e-02 -1.432360708713531494e-01 -1.222394704818725586e-01 2.607244439423084259e-02 5.616904422640800476e-02 1.117283627390861511e-01 2.319715917110443115e-03 -7.986306212842464447e-03 -1.795075461268424988e-02 1.193056106567382812e-01 -1.824520230293273926e-01 1.503397673368453979e-01 -1.259894818067550659e-01 1.234056130051612854e-01 5.677228420972824097e-02 1.865108460187911987e-01 4.387513548135757446e-02 -1.001975387334823608e-01 -6.015487480908632278e-03 -1.434058248996734619e-01 -2.666594460606575012e-02 -6.113389879465103149e-02 -1.045180261135101318e-01 3.472647815942764282e-02 9.078691899776458740e-02 1.184906288981437683e-01 6.324920058250427246e-02 -1.512137651443481445e-01 -9.068240411579608917e-03 3.838957101106643677e-02 1.372628808021545410e-01 4.692592844367027283e-02 -8.437880873680114746e-02 3.676624223589897156e-02 -2.206935919821262360e-02 -1.223904639482498169e-01 -4.754580929875373840e-02 1.914734691381454468e-01 1.069125756621360779e-01 5.808794870972633362e-02 1.315078735351562500e-01 -1.379489004611968994e-01 -1.134959161281585693e-01 -1.326195448637008667e-01 -1.393158584833145142e-01 -1.267716586589813232e-01 1.903629302978515625e-02
-8.355258405208587646e-02 2.879791706800460815e-02 9.246653877198696136e-03 5.443615838885307312e-03 9.406278282403945923e-02 2.297802641987800598e-02 1.080026030540466309e-01 -2.678530476987361908e-02 3.392137959599494934e-02 3.469715267419815063e-02 2.958628535270690918e-02 -2.323867753148078918e-02 -8.467404544353485107e-02 -1.116350293159484863e-01 -1.311450731009244919e-02 9.414698183536529541e-02 1.762590110301971436e-01 2.069559507071971893e-02 -1.003274694085121155e-01 6.687859445810317993e-02 1.210596635937690735e-01 -6.740502268075942993e-02 1.230553388595581055e-01 1.493861549533903599e-03 1.171624213457107544e-01 8.243956416845321655e-02 -5.797114223241806030e-02 1.037094444036483765e-01 -4.866356495767831802e-03 -8.395527303218841553e-02 -8.772567659616470337e-02 -1.027833968400955200e-01 -1.797889769077301025e-01 -1.310260742902755737e-01 1.622666716575622559e-01 -1.048909500241279602e-01 -3.643026575446128845e-02 -1.305406987667083740e-01 -1.972612179815769196e-02 1.491689123213291168e-02 -3.652386367321014404e-02 9.469352662563323975e-02 -1.400683522224426270e-01 1.886531338095664978e-02 1.302172690629959106e-01 -9.372509084641933441e-03 -3.942199051380157471e-02 -2.111956924200057983e-01 -1.447775661945343018e-01 5.825253576040267944e-02 -2.749250270426273346e-02 4.315620288252830505e-03 -2.021483518183231354e-02 -5.999532714486122131e-02 3.084660880267620087e-02 1.002122312784194946e-01 1.534079760313034058e-01 1.243073344230651855e-01 -1.107194647192955017e-01 2.021944522857666016e-02 -1.040172278881072998e-01 -6.547083705663681030e-02 -3.446512296795845032e-02 -5.674050375819206238e-02
-5.083793029189109802e-02 -9.756530821323394775e-02 -8.366050315089523792e-05 -2.055366337299346924e-02 4.130104184150695801e-02 8.982212841510772705e-02 -4.524168372154235840e-02 -5.692952498793601990e-02 2.578954398632049561e-02 1.303984597325325012e-02 -6.806999444961547852e-02 -2.442744746804237366e-02 -4.914874210953712463e-02 1.857537776231765747e-02 2.304185740649700165e-02 -1.469530910253524780e-01 8.951187133789062500e-02 1.184137091040611267e-01 -1.229786220937967300e-02 1.026088222861289978e-01 -6.999116390943527222e-02 -1.003956198692321777e-01 -6.614239513874053955e-02 -1.348994579166173935e-02 8.464772999286651611e-02 -5.500372499227523804e-02 -9.545254521071910858e-03 -1.146273538470268250e-01 -1.385788768529891968e-01 -1.764523424208164215e-02 -1.366866528987884521e-01 3.466695919632911682e-02 -1.222734823822975159e-01 1.025443896651268005e-01 -3.700110316276550293e-02 -1.071963533759117126e-01 3.821231797337532043e-02 1.224613636732101440e-01 1.150906551629304886e-02 6.150056724436581135e-04 -1.178781017661094666e-01 1.533650755882263184e-01 -1.595817655324935913e-01 1.181040406227111816e-01 -4.106248170137405396e-02 1.072837486863136292e-01 2.881799126043915749e-03 -9.877531230449676514e-02 -4.509084299206733704e-02 -5.257494747638702393e-02 1.522141043096780777e-02 1.515726596117019653e-01 1.041298881173133850e-01 -9.424075484275817871e-03 -6.904283910989761353e-02 1.280831545591354370e-01 1.165311411023139954e-02 -3.144698217511177063e-02 6.170944496989250183e-02 -1.309788376092910767e-01 -2.805819362401962280e-02 -1.122877001762390137e-01 -5.050881765782833099e-03 -7.675712555646896362e-02
-8.114679902791976929e-02 1.117602922022342682e-02 1.161710768938064575e-01 -4.729218780994415283e-02 -1.566349714994430542e-02 -1.294434070587158203e-01 -4.705085605382919312e-02 6.327396258711814880e-03 1.357223093509674072e-01 1.224878579378128052e-01 1.180434599518775940e-01 1.012493111193180084e-02 -1.689422279596328735e-01 -4.755327478051185608e-02 -1.679712980985641479e-01 1.851985752582550049e-01 1.451827138662338257e-01 8.286800235509872437e-02 7.128780707716941833e-03 3.400668874382972717e-02 -5.179742351174354553e-02 -1.428750306367874146e-01 -3.361671790480613708e-02 -6.260040402412414551e-02 -2.316028997302055359e-02 2.654719911515712738e-02 1.402348931878805161e-02 -8.105867356061935425e-02 -1.088300570845603943e-01 3.505234420299530029e-02 4.174033924937248230e-02 1.133435964584350586e-01 3.485471010208129883e-02 -1.171849817037582397e-01 7.181589305400848389e-02 5.064021050930023193e-02 1.807208955287933350e-01 -4.630989953875541687e-02 1.039189100265502930e-01 1.293429583311080933e-01 -9.722108393907546997e-02 -6.439056992530822754e-02 6.196532025933265686e-02 -6.197169050574302673e-02 -8.192507177591323853e-02 7.390262931585311890e-02 -5.494922399520874023e-02 1.253749281167984009e-01 6.716249138116836548e-02 -5.170302838087081909e-02 4.361096024513244629e-02 -1.182774379849433899e-01 -1.233961507678031921e-01 -5.690931342542171478e-03 1.408060193061828613e-01 1.225557737052440643e-02 -7.015025615692138672e-02 -4.234407469630241394e-02 -8.824554830789566040e-02 3.280559554696083069e-02 2.088418044149875641e-02 -5.766879767179489136e-02 3.318307222798466682e-03 -5.572831630706787109e-02
4.059294238686561584e-02 1.271174997091293335e-01 7.582939416170120239e-02 -3.425312042236328125e-02 6.224895641207695007e-02 -6.896798312664031982e-02 6.892187893390655518e-02 4.176449403166770935e-02 9.054829180240631104e-02 5.463291332125663757e-02 3.631772845983505249e-02 4.106873273849487305e-02 -1.802206635475158691e-01 7.914946228265762329e-02 1.541587151587009430e-02 5.160178244113922119e-02 -1.570733450353145599e-02 -9.683926403522491455e-02 -8.411048352718353271e-02 -1.336189806461334229e-01 -4.169631376862525940e-02 1.906498074531555176e-01 -1.704289019107818604e-02 -1.583344489336013794e-01 -6.421261280775070190e-02 -3.209900856018066406e-02 -1.222381833940744400e-02 1.830055862665176392e-01 -1.029411703348159790e-01 -1.091245487332344055e-01 1.249870434403419495e-01 -1.348324120044708252e-01 1.185556724667549133e-01 -1.714608371257781982e-01 7.571966946125030518e-02 -1.527553200721740723e-01 1.293382793664932251e-01 -2.068188190460205078e-01 6.113556027412414551e-02 -7.294055074453353882e-02 6.300851237028837204e-03 -3.341842815279960632e-02 -1.811491101980209351e-01 1.395055204629898071e-01 9.979295730590820312e-02 -1.213580667972564697e-01 -7.043051300570368767e-04 -1.400424093008041382e-01 7.623587548732757568e-02 7.603559643030166626e-02 7.029352337121963501e-02 1.911396160721778870e-02 -3.454352496191859245e-03 3.466106578707695007e-02 -8.001261949539184570e-02 9.013365209102630615e-02 1.607107669115066528e-01 8.370418846607208252e-02 1.227176263928413391e-01 1.265776455402374268e-01 -4.447611421346664429e-02 1.763914823532104492e-01 -3.060454130172729492e-02 2.203233167529106140e-02
-1.116857379674911499e-01 -1.320954412221908569e-01 1.155771315097808838e-03 1.269294917583465576e-01 -2.011616826057434082e-01 1.243496462702751160e-01 7.554444950073957443e-03 -3.907051309943199158e-02 -8.471319824457168579e-02 3.414316475391387939e-02 5.945758894085884094e-02 -1.590867787599563599e-01 -1.463273018598556519e-01 4.521081224083900452e-02 1.221629083156585693e-01 -2.322730794548988342e-02 1.113743409514427185e-01 1.276994794607162476e-01 7.198407500982284546e-02 1.288659721612930298e-01 -8.729679137468338013e-02 -5.924610421061515808e-03 -9.856019169092178345e-02 -1.470576673746109009e-01 -4.553674533963203430e-02 1.487348973751068115e-02 -6.887510884553194046e-03 3.949581459164619446e-02 1.457250863313674927e-01 3.526875376701354980e-02 -8.875823696143925190e-04 -2.509838044643402100e-01 -1.819253116846084595e-01 1.148729547858238220e-01 2.239674627780914307e-01 -1.318783164024353027e-01 1.804078221321105957e-01 -2.527602612972259521e-01 1.294757872819900513e-01 -1.907282918691635132e-01 1.214287010952830315e-03 -1.221472918987274170e-01 -7.312075048685073853e-02 3.335376828908920288e-02 -9.534467756748199463e-02 -2.401031404733657837e-01 -5.133694037795066833e-02 9.014019370079040527e-02 -1.164335459470748901e-01 -3.563908115029335022e-02 -4.823867976665496826e-02 3.485918417572975159e-02 7.850621640682220459e-02 5.413111299276351929e-02 -1.518205553293228149e-01 -3.378488123416900635e-02 -7.633095234632492065e-02 3.737679868936538696e-02 7.697242498397827148e-02 1.223299354314804077e-01 -6.853250414133071899e-02 2.679960243403911591e-02 -3.868447989225387573e-02 2.943219989538192749e-02
4.589423909783363342e-02 3.130351006984710693e-02 -6.256519258022308350e-02 4.791567474603652954e-02 -9.769339114427566528e-02 5.391467735171318054e-02 1.234187781810760498e-01 -5.615763738751411438e-02 -7.214446365833282471e-02 -1.245107501745223999e-01 -7.657405734062194824e-02 -2.041874267160892487e-02 -1.691675484180450439e-01 8.074881881475448608e-02 -1.483140736818313599e-01 -2.182424068450927734e-02 1.039981693029403687e-01 1.978713274002075195e-02 -9.151867032051086426e-02 5.010152608156204224e-02 -1.354327052831649780e-01 -1.445490717887878418e-01 2.335347980260848999e-02 2.327441051602363586e-02 -1.597661152482032776e-02 -7.964769378304481506e-03 -1.028621122241020203e-01 3.261886537075042725e-02 -1.478879130445420742e-03 9.680897928774356842e-03 -1.051711961627006531e-01 -1.036007180809974670e-01 -1.364883035421371460e-01 8.974393457174301147e-02 -8.065058290958404541e-02 -6.816291064023971558e-02 -1.324566155672073364e-01 7.605482637882232666e-02 1.008784323930740356e-01 6.140677630901336670e-02 -7.999271154403686523e-02 6.736516952514648438e-02 6.082284823060035706e-02 1.406975835561752319e-02 -7.754001300781965256e-03 -1.028633909299969673e-03 -3.654473647475242615e-02 -5.556091666221618652e-02 -2.528820885345339775e-03 9.780551493167877197e-02 4.834518209099769592e-02 -3.272083820775151253e-03 1.969655789434909821e-02 -7.905625551939010620e-02 -2.202457003295421600e-02 -5.541637167334556580e-02 -1.698673665523529053e-01 1.543715149164199829e-01 8.046568185091018677e-02 -1.089855358004570007e-01 1.808249503374099731e-01 -2.785911317914724350e-03 6.155554205179214478e-02 -3.501218557357788086e-02
-5.949424579739570618e-02 -2.903174608945846558e-02 -1.679277978837490082e-02 1.369453668594360352e-01 1.844004378654062748e-03 1.014929264783859253e-01 -6.773160770535469055e-03 -1.536799408495426178e-02 -1.330610960721969604e-01 -1.327302753925323486e-01 -9.892012178897857666e-02 1.119784265756607056e-01 -1.552172601222991943e-01 8.109414018690586090e-03 6.485233455896377563e-02 2.604695782065391541e-02 -8.799067139625549316e-02 2.054348774254322052e-02 -9.679803252220153809e-02 -5.389312654733657837e-02 -6.830506771802902222e-02 -1.107136756181716919e-01 -1.655007451772689819e-01 5.778397992253303528e-02 1.421346794813871384e-02 -1.598588377237319946e-02 -3.609466925263404846e-02 5.037569627165794373e-02 -7.985584437847137451e-03 3.128834068775177002e-02 1.245918590575456619e-02 7.479035109281539917e-02 -8.415544778108596802e-02 9.080903977155685425e-02 -8.602617681026458740e-02 1.274092793464660645e-01 -4.295171424746513367e-02 -1.240982487797737122e-01 -1.239662338048219681e-02 5.093124508857727051e-02 3.956370800733566284e-02 5.519088008441030979e-04 -1.501969695091247559e-01 7.106790691614151001e-02 -8.081284165382385254e-02 1.447459757328033447e-01 -1.060291230678558350e-01 -1.149596497416496277e-01 -1.432084888219833374e-01 -1.659352914430201054e-03 5.071545485407114029e-03 -3.968073055148124695e-03 -5.678762122988700867e-02 -2.522528171539306641e-02 1.187227889895439148e-01 1.032306998968124390e-01 3.207385167479515076e-02 2.129862271249294281e-02 3.034136258065700531e-02 7.192262262105941772e-02 -1.268790811300277710e-01 -1.015084832906723022e-01 9.562100283801555634e-03 7.314299046993255615e-02
4.075901582837104797e-02 -2.393410541117191315e-02 -2.217962034046649933e-02 -1.170540973544120789e-01 5.965564399957656860e-02 1.355798989534378052e-01 1.626408249139785767e-01 -3.272857144474983215e-02 -8.146730810403823853e-02 -1.104447022080421448e-01 -5.003255978226661682e-02 6.726387888193130493e-02 -3.557191789150238037e-02 2.808506041765213013e-02 -9.371218830347061157e-02 8.010218292474746704e-02 5.720724537968635559e-02 -4.052010178565979004e-02 -1.575990021228790283e-01 -7.655688375234603882e-02 -3.076214343309402466e-02 -4.239811748266220093e-02 5.795043706893920898e-02 -8.942433446645736694e-02 1.679835654795169830e-02 -5.690514668822288513e-02 -1.005619764328002930e-01 -1.214670389890670776e-01 -4.639738425612449646e-02 -7.388927042484283447e-02 -7.911062985658645630e-02 1.372293233871459961e-01 7.918806374073028564e-02 3.363583609461784363e-02 -5.606081336736679077e-02 4.254378750920295715e-02 3.446272015571594238e-02 2.057861164212226868e-02 -1.351756453514099121e-01 3.174126893281936646e-02 -1.109184976667165756e-02 -1.343153119087219238e-01 6.445463746786117554e-02 -8.042088896036148071e-02 -4.770444706082344055e-03 -1.121569201350212097e-01 3.551942855119705200e-02 1.324154585599899292e-01 -1.470334082841873169e-01 -6.621493399143218994e-02 2.580084837973117828e-03 -1.016562655568122864e-01 9.557509911246597767e-04 4.912738222628831863e-03 4.619889426976442337e-03 1.171575710177421570e-01 -6.061997264623641968e-02 -4.499444738030433655e-02 4.241256043314933777e-03 8.849903196096420288e-02 -5.282983928918838501e-02 1.799228228628635406e-02 9.275331161916255951e-03 3.255340736359357834e-03
6.856378912925720215e-02 1.132281571626663208e-01 -2.047298941761255264e-03 1.698312908411026001e-02 -1.023905500769615173e-01 -5.250017717480659485e-02 -1.479232609272003174e-01 -4.586025699973106384e-02 -2.806727774441242218e-02 -6.572898477315902710e-02 -1.261504739522933960e-01 -4.862641170620918274e-02 4.977765679359436035e-02 1.524550765752792358e-01 -1.532278954982757568e-01 8.787622675299644470e-03 -1.416064202785491943e-01 9.714836627244949341e-02 -6.057815626263618469e-02 -1.118102148175239563e-01 -5.420964211225509644e-02 -6.118347123265266418e-02 1.134244166314601898e-02 -2.582909725606441498e-02 -6.109421327710151672e-02 1.069756746292114258e-01 1.405945792794227600e-02 -9.016548842191696167e-02 1.062042117118835449e-01 9.201364219188690186e-02 1.345177888870239258e-01 -1.381392329931259155e-01 -8.010707050561904907e-02 -4.725037142634391785e-02 8.276503533124923706e-02 -1.593091338872909546e-02 -7.473034784197807312e-03 9.904077649116516113e-02 2.495195344090461731e-02 3.026087023317813873e-02 -1.221205368638038635e-01 1.226492598652839661e-01 -1.419073492288589478e-01 -2.812607772648334503e-02 8.361160010099411011e-02 9.961094707250595093e-03 -1.369973737746477127e-02 -7.853960245847702026e-02 -2.864849194884300232e-02 -4.697932675480842590e-02 -4.158250987529754639e-02 1.230341196060180664e-01 7.327520754188299179e-03 6.655896082520484924e-03 1.079507172107696533e-01 1.388890948146581650e-02 -1.360130459070205688e-01 1.862605065107345581e-01 7.326687872409820557e-02 -1.195037215948104858e-01 6.562674045562744141e-02 -7.666558376513421535e-04 1.110079362988471985e-01 1.698725111782550812e-02
-7.936354726552963257e-02 1.148106306791305542e-01 2.837321348488330841e-02 -3.192432597279548645e-02 -3.722854331135749817e-02 -5.791035480797290802e-03 6.687586009502410889e-02 -1.517474930733442307e-02 -1.012180671095848083e-01 7.862883806228637695e-02 -1.512726489454507828e-02 4.831081256270408630e-02 2.375923655927181244e-02 9.304829873144626617e-03 1.021963655948638916e-01 -7.736164331436157227e-02 -1.060444042086601257e-01 1.278987377882003784e-01 2.749805524945259094e-02 -9.014505147933959961e-02 -7.861017435789108276e-02 -6.415736675262451172e-02 -9.757915884256362915e-02 -3.857859969139099121e-02 -6.726939231157302856e-02 -8.533798158168792725e-02 -9.366509504616260529e-03 -4.281618818640708923e-02 -9.434086829423904419e-02 8.718841522932052612e-02 -2.255408652126789093e-02 1.635272651910781860e-01 1.179028302431106567e-01 1.318713128566741943e-01 1.169389709830284119e-01 -2.427333593368530273e-02 8.513471484184265137e-02 -8.984952419996261597e-02 -2.142848260700702667e-02 2.857104316353797913e-02 1.610714942216873169e-02 -9.766368567943572998e-02 -4.212749004364013672e-02 -2.139040455222129822e-02 -2.492538653314113617e-02 8.177588880062103271e-02 2.904486097395420074e-02 1.351873725652694702e-01 -6.902808696031570435e-02 -5.854770913720130920e-02 -6.335762329399585724e-03 8.669837564229965210e-02 -3.663676977157592773e-02 -7.469680160284042358e-03 -1.254161149263381958e-01 -1.461593657732009888e-01 -1.591189652681350708e-01 -1.070384532213211060e-01 -3.526254324242472649e-03 -9.746335446834564209e-02 -5.486587993800640106e-03 -4.159472137689590454e-02 -4.764008522033691406e-02 5.061602219939231873e-02
-3.837063163518905640e-02 1.782508380711078644e-02 8.383397944271564484e-03 -3.207425400614738464e-02 -1.071323305368423462e-01 1.571958810091018677e-01 1.141955479979515076e-01 -7.327681779861450195e-02 -1.829840987920761108e-02 1.073646992444992065e-01 9.756486862897872925e-02 -6.555113196372985840e-02 3.113877400755882263e-02 -1.093351244926452637e-01 -9.194245934486389160e-02 -9.075216948986053467e-02 3.621241077780723572e-02 -6.545716524124145508e-02 1.643083095550537109e-01 -6.964532285928726196e-02 -1.348524168133735657e-02 8.105534315109252930e-02 -1.051565259695053101e-01 6.994605064392089844e-02 1.814835369586944580e-01 1.491925269365310669e-01 1.225314661860466003e-01 1.476151645183563232e-01 -3.552273556124418974e-04 2.331523224711418152e-03 -1.118768677115440369e-01 -4.560369253158569336e-02 -1.044430285692214966e-01 -9.825530648231506348e-02 1.983904652297496796e-02 -4.463217407464981079e-02 -2.498044446110725403e-02 -1.435762643814086914e-01 2.920807525515556335e-02 -6.849326938390731812e-02 -2.618124149739742279e-02 -3.369474783539772034e-02 -1.350486129522323608e-01 -1.040103584527969360e-01 7.793287187814712524e-02 -5.615950375795364380e-02 1.484393607825040817e-02 7.179620116949081421e-02 -9.800789412111043930e-04 -2.873130142688751221e-02 -5.645623314194381237e-04 1.420469284057617188e-01 3.515549004077911377e-02 9.368764236569404602e-03 5.979425460100173950e-02 2.527250535786151886e-02 -2.014215588569641113e-01 1.761144101619720459e-01 1.207492873072624207e-02 -2.192131802439689636e-02 -9.093090891838073730e-02 -1.045839786529541016e-01 -4.693447425961494446e-02 1.192029565572738647e-01
-4.034058749675750732e-02 1.061493903398513794e-01 -7.588128000497817993e-02 -6.741017848253250122e-02 -6.392768025398254395e-02 -4.361391440033912659e-02 1.328517645597457886e-01 -7.144910097122192383e-02 -9.882272034883499146e-02 -1.086578294634819031e-01 8.284347504377365112e-02 -9.747578948736190796e-02 -8.159603923559188843e-02 7.644449174404144287e-02 1.048156023025512695e-01 -4.082836210727691650e-02 -9.929893910884857178e-02 -9.053993970155715942e-02 -6.324233114719390869e-02 1.410045176744461060e-01 -1.251029968261718750e-01 -4.682090878486633301e-02 3.225888684391975403e-02 -9.451459348201751709e-02 7.655614614486694336e-02 9.846467524766921997e-02 -6.175597757101058960e-02 -1.110544577240943909e-01 1.699448078870773315e-01 7.105949521064758301e-02 -6.233239546418190002e-02 -1.513712555170059204e-01 5.553139001131057739e-02 5.960474163293838501e-02 4.746377840638160706e-02 -3.801015391945838928e-02 1.292205154895782471e-01 -9.423783421516418457e-02 -1.088335439562797546e-01 9.792860597372055054e-02 -1.145778298377990723e-01 -8.878093957901000977e-02 -7.990662753582000732e-02 -3.079370036721229553e-02 -1.610898226499557495e-01 -1.371637284755706787e-01 3.139657899737358093e-02 1.507186703383922577e-02 7.244177907705307007e-02 -8.945386856794357300e-02 -7.020181417465209961e-02 7.848628610372543335e-02 -5.456756334751844406e-03 -7.728637754917144775e-02 2.120809629559516907e-02 -1.458231266587972641e-02 1.242190301418304443e-01 -1.351313591003417969e-01 5.221842788159847260e-03 -7.086209952831268311e-02 7.938116788864135742e-02 -1.132777333259582520e-01 9.600462764501571655e-02 2.420315286144614220e-03
-1.567961126565933228e-01 3.128865361213684082e-02 1.489655822515487671e-01 -1.621773391962051392e-01 2.002476528286933899e-02 -5.813983827829360962e-02 3.196497634053230286e-02 -1.068951468914747238e-02 5.758664919994771481e-04 -4.676968604326248169e-02 -1.040134653449058533e-01 1.956912316381931305e-02 1.432458311319351196e-01 5.181509256362915039e-02 -2.762513794004917145e-02 4.389972612261772156e-02 8.312750607728958130e-02 7.710649073123931885e-02 -1.464107483625411987e-01 1.137850284576416016e-01 -9.731506556272506714e-02 -1.683804541826248169e-01 -1.825661398470401764e-02 8.821474388241767883e-03 6.360949575901031494e-02 -1.117641180753707886e-01 -7.237084209918975830e-02 -1.225749701261520386e-01 8.970066905021667480e-02 1.470068376511335373e-02 3.216784819960594177e-02 -1.110208407044410706e-01 8.479830622673034668e-02 -4.612460732460021973e-03 1.014647539705038071e-02 1.121009420603513718e-02 1.590365618467330933e-01 4.178654775023460388e-02 -3.581209480762481689e-02 -1.250565797090530396e-01 -1.773928403854370117e-01 2.425779402256011963e-02 1.243578046560287476e-01 -7.710578292608261108e-02 -6.371176987886428833e-02 -1.212114691734313965e-01 -1.022896021604537964e-01 7.077416777610778809e-02 -1.696677953004837036e-01 -5.515545606613159180e-02 5.486688110977411270e-03 -5.569241195917129517e-02 -1.629437208175659180e-01 -9.475817531347274780e-02 1.054895892739295959e-01 1.354274451732635498e-01 -4.454920813441276550e-02 5.996385589241981506e-02 -1.608505696058273315e-01 -9.664314799010753632e-03 -6.286482512950897217e-02 -5.341442301869392395e-02 -1.449970155954360962e-01 1.401986628770828247e-01
-5.474106594920158386e-02 -3.912669420242309570e-02 3.731833025813102722e-02 7.571386545896530151e-02 -1.367882043123245239e-01 1.001545265316963196e-01 3.116370178759098053e-02 -5.511896684765815735e-03 1.458466649055480957e-01 1.212684661149978638e-01 -8.324681222438812256e-02 -4.647319018840789795e-02 -1.470387279987335205e-01 -2.407698892056941986e-02 2.402759902179241180e-02 3.512613475322723389e-03 -1.453065872192382812e-01 9.427819401025772095e-02 2.156358957290649414e-02 1.134134754538536072e-01 4.927355330437421799e-03 3.078281506896018982e-02 3.806157968938350677e-03 6.817920506000518799e-02 6.203810125589370728e-02 5.903293937444686890e-02 -3.418553993105888367e-02 -4.971218109130859375e-02 -1.919097155332565308e-01 -8.159570395946502686e-02 1.562015712261199951e-01 9.417687356472015381e-02 1.559617072343826294e-01 -1.441220194101333618e-01 1.062424406409263611e-01 7.549186050891876221e-02 -2.756682783365249634e-02 1.368478536605834961e-01 -6.192891672253608704e-02 1.079785078763961792e-02 -1.657824590802192688e-02 2.102325670421123505e-02 7.739777117967605591e-02 -1.422931998968124390e-01 -1.689393818378448486e-01 1.322382539510726929e-01 4.419610649347305298e-02 9.440439194440841675e-02 -2.750652469694614410e-02 -1.051361560821533203e-01 8.523416705429553986e-03 -6.587655842304229736e-02 7.587546110153198242e-02 -3.135908767580986023e-02 7.145672291517257690e-02 1.053585633635520935e-01 -6.490954011678695679e-02 -3.280157595872879028e-02 -1.400628536939620972e-01 4.859828203916549683e-02 9.578462340869009495e-04 -1.502626389265060425e-01 -8.854802697896957397e-02 1.160066500306129456e-01
