-1.156978681683540344e-01 -2.763003110885620117e-01 3.395800590515136719e-01 3.214460313320159912e-01
1.054022237658500671e-01 7.531735301017761230e-02 -4.292377829551696777e-02 -7.310280203819274902e-02
-1.959677338600158691e-01 -4.472910165786743164e-01 -4.352001547813415527e-01 3.691529482603073120e-02
-8.781209588050842285e-02 3.918187916278839111e-01 2.074017422273755074e-03 -2.187536656856536865e-01
6.668338179588317871e-01 -2.599061280488967896e-02 -9.327412396669387817e-02 -6.089217215776443481e-02
3.594563603401184082e-01 -6.474056094884872437e-02 -8.137162029743194580e-02 4.520783424377441406e-01
4.883204996585845947e-01 -3.486234545707702637e-01 -1.298651844263076782e-01 3.956300914287567139e-01
1.192626170814037323e-02 2.293728590011596680e-01 -2.237849682569503784e-01 -3.760489225387573242e-01
-2.294870465993881226e-01 1.481416225433349609e-01 -2.796829938888549805e-01 -8.805326372385025024e-02
1.593938022851943970e-01 5.075464248657226562e-01 -3.035279512405395508e-01 5.490350127220153809e-01
-2.908004522323608398e-01 -4.062785208225250244e-01 -1.551536023616790771e-01 -2.150196880102157593e-01
1.435294002294540405e-01 -1.385763287544250488e-01 -5.895954370498657227e-02 3.691217396408319473e-03
-8.653081953525543213e-02 -5.900642648339271545e-02 -2.121680080890655518e-01 -1.263610571622848511e-01
4.449242055416107178e-01 6.091611981391906738e-01 1.084492579102516174e-01 -3.077236562967300415e-02
5.890201330184936523e-01 4.270671606063842773e-01 -2.638503313064575195e-01 4.730594158172607422e-01
3.675267100334167480e-01 2.537871301174163818e-01 -2.532464861869812012e-01 4.436555504798889160e-01
