1.352803707122802734e-01
-3.541002050042152405e-02
5.411957204341888428e-02
8.417513221502304077e-02
1.070992350578308105e-01
0.000000000000000000e+00
7.489903271198272705e-02
8.639656752347946167e-02
-4.088499397039413452e-02
1.013725921511650085e-01
-5.388730391860008240e-02
-8.469253033399581909e-02
4.308779910206794739e-02
0.000000000000000000e+00
6.044797971844673157e-02
-3.548731654882431030e-02
9.776347875595092773e-02
5.894385278224945068e-02
-5.696594715118408203e-02
9.483723342418670654e-02
-1.733872666954994202e-02
0.000000000000000000e+00
2.986877784132957458e-02
-3.623266145586967468e-02
8.098123967647552490e-02
8.988171070814132690e-02
4.411786422133445740e-02
1.049275472760200500e-01
4.807804152369499207e-02
0.000000000000000000e+00
-1.627726294100284576e-02
3.831354528665542603e-02
3.378838300704956055e-02
-5.916790291666984558e-02
0.000000000000000000e+00
-8.018472790718078613e-02
9.398947656154632568e-02
-3.038266673684120178e-02
-8.389714173972606659e-03
7.619999349117279053e-02
-3.841757075861096382e-03
-1.155000738799571991e-02
0.000000000000000000e+00
-2.275434508919715881e-02
1.038597971200942993e-01
-6.146218255162239075e-02
0.000000000000000000e+00
6.923319399356842041e-02
5.843327939510345459e-02
-5.052779614925384521e-02
-2.253855764865875244e-02
1.035518497228622437e-01
-1.452147774398326874e-02
3.070650435984134674e-02
8.783908188343048096e-02
-4.908142983913421631e-02
6.787426769733428955e-02
-3.543970733880996704e-02
5.845966562628746033e-02
7.949433475732803345e-02
1.064455416053533554e-02
3.775129839777946472e-02
6.788382772356271744e-03
4.837435856461524963e-02
