2.840826101601123810e-02 -1.484998594969511032e-02 -1.198282372206449509e-02 1.188671775162220001e-02 4.581464454531669617e-02 -8.283766917884349823e-03 9.213420562446117401e-03 1.045877262949943542e-01 3.667150065302848816e-02 6.490743253380060196e-03 -8.594506420195102692e-03 4.309838265180587769e-02 1.407830044627189636e-02 -4.174997285008430481e-02 8.232879638671875000e-02 -8.111790437384992729e-33 8.849429897964000702e-03 -1.342024537734687328e-03 -1.136790728196501732e-03 2.754286676645278931e-02 7.898875512182712555e-03 -6.558544933795928955e-02 4.831314831972122192e-02 6.035323068499565125e-02 3.261148557066917419e-02 1.659165322780609131e-02 2.997586689889431000e-02 -6.096208817325532436e-04 -1.653955504298210144e-02 -7.138571888208389282e-02 2.025359968627071794e-08 6.188074126839637756e-03 1.039638090878725052e-02 -1.706248335540294647e-02 -7.563688559457659721e-04 7.901834696531295776e-02 3.247603401541709900e-02 -9.318169432907197313e-33 4.891433194279670715e-02 1.644775271415710449e-02 5.432817153632640839e-03 5.251722257071378408e-08 -1.310101964691057219e-07 -3.437913842496698180e-11 4.443462006747722626e-03 5.893887137062847614e-04 -1.285630446545837913e-06 8.182786405086517334e-03 -1.466417778283357620e-02 1.105412520701065660e-04 2.944921143352985382e-02 4.814155772328376770e-02 4.308670759201049805e-05 3.002158552408218384e-02 -7.795978337526321411e-02 4.805928544016069281e-09 1.425639446824789047e-02 2.075632510241121054e-04 -7.876264862716197968e-03 3.343930840492248535e-02 1.568865286571963225e-07 5.734022706747055054e-02 2.964095212519168854e-03 5.623766034841537476e-02
1.463061547838151455e-03 -2.509034238755702972e-02 6.132956221699714661e-02 2.414201572537422180e-02 -1.534931547939777374e-02 -5.921638803556561470e-04 8.198095858097076416e-02 7.995907217264175415e-02 1.616701856255531311e-02 -1.701891981065273285e-02 3.599199652671813965e-02 4.049614816904067993e-02 1.412879582494497299e-02 -2.375788099584497104e-08 1.940437778830528259e-02 -2.378295920789241791e-02 -1.055154018104076385e-02 4.175093770027160645e-02 -4.413430765271186829e-02 1.508250646293163300e-02 -1.991237327456474304e-02 -5.057376250624656677e-02 2.940954873338341713e-04 -5.419875308871269226e-02 -2.535092644393444061e-03 2.988528087735176086e-02 -4.188894852995872498e-02 -4.830532893538475037e-02 4.759984149131923914e-04 -3.813657537102699280e-02 1.178491674363613129e-02 6.193373352289199829e-02 3.354191035032272339e-02 -5.872106552124023438e-02 -2.822803822564161744e-22 -4.262223467230796814e-02 -6.331498175859451294e-02 9.705346822738647461e-02 -3.785017546782676323e-14 -3.614453133195638657e-03 4.176866787020117044e-04 -2.312941476702690125e-03 -1.014517056319164112e-05 -5.618449610221069282e-17 -4.988082218915224075e-04 4.370078817009925842e-02 -5.159762501716613770e-02 -4.582315683364868164e-03 6.545711308717727661e-02 3.596358844783554877e-33 -6.830871105194091797e-02 2.639915794134140015e-03 7.652029395103454590e-02 1.286204531788825989e-02 -4.961775988340377808e-02 5.127975717186927795e-02 4.891562089323997498e-02 2.815907076001167297e-02 1.771556213498115540e-02 4.659858718514442444e-02 2.190771279856562614e-03 2.185257326345890760e-04 -1.368622854351997375e-02 6.183640798553824425e-04
3.048971295356750488e-03 4.346862435340881348e-02 5.354500375688076019e-03 3.513779118657112122e-02 7.580266892910003662e-02 -4.632917978142359061e-07 7.572629302740097046e-02 1.146427094936370850e-01 -8.292992599308490753e-03 7.365092169493436813e-03 1.079436019062995911e-02 1.061275824904441833e-01 1.021001604385674000e-03 -9.648260146377651836e-08 1.505155675113201141e-02 3.978025779360905290e-05 1.353440135717391968e-01 6.653249263763427734e-02 9.320066124200820923e-02 1.724304631352424622e-02 -1.957342732339384384e-09 -2.769118327705655247e-05 -7.964922487735748291e-02 -1.666680509515572339e-05 2.072757855057716370e-02 1.079576276242733002e-02 -1.494696550071239471e-02 3.922814037650823593e-03 1.365083735436201096e-03 -4.713797352451365441e-06 -1.099334403988905251e-04 -7.973458617925643921e-02 -3.354574739933013916e-02 4.525579139590263367e-02 -8.204373443732038140e-06 2.433778904378414154e-02 1.064919233322143555e-01 -1.871756161563098431e-03 9.598071686923503876e-03 9.002007544040679932e-02 -4.518165439367294312e-02 -7.318320394134048001e-10 -1.311673258896917105e-04 2.782335213851183653e-04 2.010398358106613159e-02 3.823096677660942078e-02 -4.445102810859680176e-02 1.199573427438735962e-01 5.249232053756713867e-02 5.219084024429321289e-02 -6.608464755117893219e-03 2.559621259570121765e-02 -4.083997919224202633e-05 -1.069299038499593735e-02 7.781101763248443604e-02 9.570682421326637268e-03 4.589940980076789856e-02 -4.563628509640693665e-02 1.187775880098342896e-01 4.631560295820236206e-02 7.321762852370738983e-03 -7.554117590188980103e-02 -5.958226323127746582e-02 -2.417848072946071625e-02
