1.602521352469921112e-02 -5.714751034975051880e-02 -3.982149064540863037e-03 -7.473913952708244324e-03 -9.119376540184020996e-03 -6.553194951266050339e-03 -9.327487088739871979e-03 2.034678868949413300e-02 -1.539309788495302200e-02 5.840695276856422424e-02 -1.345174293965101242e-02 -8.023848058655858040e-04 -4.527622368186712265e-03 -1.699973108770791441e-05 -6.871426478028297424e-03 8.850533515214920044e-02 -3.344419971108436584e-02 1.580484583973884583e-02 -2.205381728708744049e-02 -4.025468602776527405e-03 2.456369984429329634e-04 -6.914957892149686813e-03 -2.487228994141332805e-05 -2.540982328355312347e-02 2.404871769249439240e-02 1.554953632876276970e-04 -6.811140105128288269e-03 -5.006564408540725708e-02 3.802404552698135376e-02 3.235227242112159729e-02 1.752902986481785774e-03 -6.699301768094301224e-03 1.247331732884049416e-03 5.001368001103401184e-02 9.689085418358445168e-04 5.081014707684516907e-03 -2.409951202571392059e-02 -3.525830339640378952e-03 -6.105479318648576736e-03 -6.253633648157119751e-02 6.330640520900487900e-03 -2.265817858278751373e-02 -7.743438333272933960e-02 1.237329561263322830e-02 -7.255347911268472672e-03 1.345481707273935388e-32 7.043957710266113281e-02 1.069671940058469772e-02 1.958780549466609955e-02 -3.878741408698260784e-04 1.659664674662053585e-03 3.903591539710760117e-03 -6.439493736252188683e-04 -4.015452042222023010e-02 4.624667111784219742e-03 -1.418967622157651931e-05 2.684093825519084930e-02 -1.118552777916193008e-02 -1.288255474518607002e-10 1.362882088869810104e-03 1.226137019693851471e-02 3.274812549352645874e-02 5.832957103848457336e-03 9.125781361944973469e-04
-2.574187936261296272e-03 5.369646847248077393e-02 -8.865314535796642303e-03 2.858479918608288670e-34 -2.324102679267525673e-03 2.994655445218086243e-02 -7.117211818695068359e-02 1.837916905060410500e-03 -1.843900827225297689e-05 -4.363043233752250671e-02 1.060440437868237495e-03 -4.212818294763565063e-02 -1.705998554825782776e-02 -3.639186546206474304e-02 1.785531057976186275e-04 -2.775164507329463959e-02 -5.105492845177650452e-02 9.970627725124359131e-03 -1.460831495933234692e-03 -3.320593759417533875e-02 -4.257185384631156921e-02 1.724601723253726959e-02 -4.559450224041938782e-02 1.491733454167842865e-02 -5.541974306106567383e-02 3.207755461335182190e-02 -6.129948794841766357e-02 -9.939390292856842279e-05 -4.581135044645634480e-07 -4.840984567999839783e-02 7.959630340337753296e-02 -1.901040785014629364e-02 2.705007605254650116e-02 1.684905029833316803e-02 -3.752158954739570618e-02 2.552798762917518616e-02 5.254407972097396851e-02 6.396480835974216461e-03 -8.223443292081356049e-03 6.963828206062316895e-02 -1.081984803771931506e-32 4.668799415230751038e-02 -1.701186904034707301e-23 2.777390182018280029e-03 -7.610630989074707031e-02 -5.278702825307846069e-02 -4.535366967320442200e-02 -1.283765025436878204e-02 1.415366370899556603e-34 6.570875644683837891e-02 -6.985355913639068604e-02 7.252866867929697037e-03 1.911043375730514526e-02 6.490010302513837814e-03 7.024222612380981445e-02 5.696730804629623890e-04 -1.648097485303878784e-02 -1.778067089617252350e-02 4.692465066909790039e-02 1.250689662992954254e-02 -3.466683207079768181e-03 6.463024765253067017e-02 7.856241427361965179e-04 -1.579027995467185974e-02
3.490560874342918396e-02 -6.166282634584811677e-33 7.379067689180374146e-02 -8.100629597902297974e-02 2.317855507135391235e-02 1.340120732784271240e-01 -7.835754007101058960e-02 9.521836042404174805e-02 8.932001888751983643e-02 -2.922825282439589500e-03 2.332666516304016113e-02 1.032286789268255234e-03 8.315435796976089478e-02 1.244496554136276245e-02 -5.927197262644767761e-02 1.471095085144042969e-01 -3.688803687691688538e-02 7.846720516681671143e-02 1.427737437188625336e-02 9.388036409016258499e-33 -1.084937946870923042e-03 1.162853688001632690e-01 1.188824186101555824e-03 -8.576331660151481628e-03 -7.724656164646148682e-02 3.545494750142097473e-02 1.054677665233612061e-01 3.237676247954368591e-02 4.546286910772323608e-02 1.909308135509490967e-02 4.308446869254112244e-02 6.261395663022994995e-02 -2.192896977066993713e-02 -3.249330446124076843e-02 -7.772583514451980591e-03 -2.300003357231616974e-02 5.071279034018516541e-02 1.187501847743988037e-01 1.005559116601943970e-01 -1.306378375738859177e-02 -3.962901607155799866e-02 -7.385051343590021133e-03 3.661814407251995362e-09 -1.104726735502481461e-02 5.591780319809913635e-02 1.666982308961451054e-03 -9.345156140625476837e-03 3.592636808753013611e-02 -5.947523564100265503e-02 1.544895116239786148e-02 4.146752133965492249e-02 -1.259057037532329559e-02 2.830705791711807251e-02 -8.598602376878261566e-03 -7.720328867435455322e-02 -4.360405728220939636e-02 1.258757561445236206e-01 1.855551004409790039e-01 1.514430250972509384e-02 -3.652928397059440613e-02 5.592759326100349426e-02 7.925561070442199707e-02 -2.265902934595942497e-03 -1.109566446393728256e-02
