7.923108525574207306e-03 -5.559293925762176514e-02
-5.154897458851337433e-03 -5.671572405844926834e-03
3.924335539340972900e-02 -8.420275151729583740e-02
-7.179046422243118286e-02 -1.539916824549436569e-02
2.528336457908153534e-02 -4.121892526745796204e-02
6.887008994817733765e-02 -1.139306724071502686e-01
-9.396167654704412620e-14 -2.416198956882853710e-32
-6.122581660747528076e-02 -1.565102487802505493e-02
1.153015438467264175e-02 9.286817163228988647e-02
-1.238732598721981049e-03 1.786842755973339081e-02
3.768742084503173828e-02 -2.502479404211044312e-02
-5.953904986381530762e-02 5.303300544619560242e-02
1.416874025017023087e-02 -1.182676702737808228e-01
-8.493530750274658203e-02 -3.739224894161452539e-06
-2.185940276831388474e-03 1.577778137288987637e-03
1.332518011331558228e-01 -5.529801547527313232e-02
5.557027831673622131e-02 -5.202717334032058716e-02
4.061170294880867004e-02 -6.403289735317230225e-02
3.032853454351425171e-02 -2.229075692594051361e-02
-3.647672012448310852e-02 -3.021219279617071152e-03
-1.228627841919660568e-02 3.332940104883164167e-05
7.856468111276626587e-02 -9.085281193256378174e-02
-5.400924384593963623e-02 9.040717966854572296e-03
3.672445937991142273e-02 6.315124779939651489e-02
-4.849143698811531067e-02 2.155052730813622475e-03
6.862366199493408203e-02 4.014603048563003540e-02
8.555220067501068115e-02 -9.362509846687316895e-02
5.662963539361953735e-02 2.467080391943454742e-02
6.510709412395954132e-03 8.764395117759704590e-02
-1.085343118757009506e-02 -6.229496002197265625e-02
4.038603976368904114e-02 -3.828845173120498657e-02
3.087699785828590393e-02 -1.055011376738548279e-01
-2.349780686199665070e-02 1.189102884382009506e-02
-6.538411136716604233e-03 4.862611740827560425e-02
2.347295521758496761e-04 1.317408308386802673e-02
-6.642311811447143555e-03 7.171850651502609253e-02
4.133902862668037415e-02 -5.517833679914474487e-02
-2.816088497638702393e-02 -1.555521935224533081e-01
1.027915552258491516e-01 -7.186672836542129517e-02
5.773922428488731384e-03 2.925192378461360931e-02
9.762939589563757181e-05 -6.607737392187118530e-02
-5.041824653744697571e-02 -3.472077101469039917e-02
1.408247771905735135e-04 4.107987880706787109e-02
2.770274132490158081e-02 4.821448773145675659e-02
3.256930410861968994e-02 -1.030804216861724854e-01
4.802477317732145590e-13 9.458202868700027466e-03
-4.100248962640762329e-02 7.955334149301052094e-03
-3.395023196935653687e-02 -4.943093657493591309e-02
-1.330340904104332367e-08 -6.453975569456815720e-03
2.784479223191738129e-02 -2.258503437042236328e-02
-5.534538999199867249e-03 7.171195000410079956e-02
4.869009833782911301e-03 5.434440448880195618e-02
1.980562880635261536e-02 -3.987723216414451599e-02
1.789473928511142731e-03 1.964245602721348405e-04
-5.964632146060466766e-03 9.097699820995330811e-02
8.365253917872905731e-03 1.559194992296397686e-03
1.041899025440216064e-01 -1.128198876976966858e-01
7.421570271253585815e-02 -1.725675761699676514e-01
-6.537995766848325729e-03 5.252903699874877930e-02
2.059215493500232697e-02 6.024840474128723145e-02
5.201814696192741394e-02 -4.084616154432296753e-02
9.938292205333709717e-02 -4.515866190195083618e-02
-3.043071739375591278e-02 -5.826034612255170941e-05
-6.503704190254211426e-02 -2.253827080130577087e-02
