8.169697830453515053e-04
6.702669197693467140e-04
-3.886079043149948120e-02
-1.893820613622665405e-02
1.224104240536689758e-01
-1.849193358793854713e-04
4.777327552437782288e-02
1.195180639624595642e-01
1.123340725898742676e-01
6.828250735998153687e-02
-8.177871677617076784e-06
-8.468306064605712891e-02
-9.404688328504562378e-02
-1.043980102986097336e-02
3.250016272068023682e-02
-2.309821546077728271e-03
2.145386300981044769e-03
-4.591160640120506287e-02
1.042919307947158813e-01
1.257510040886700153e-03
-4.812123253941535950e-02
-5.534962983801960945e-04
-1.703000999987125397e-02
-2.367527596652507782e-02
-1.215312443673610687e-02
9.964983910322189331e-04
1.875283755362033844e-02
-2.497710473835468292e-02
8.280123770236968994e-02
6.922496110200881958e-02
7.350378483533859253e-02
-2.329094568267464638e-03
1.488804846303537488e-04
4.818692430853843689e-02
3.420836105942726135e-02
6.356593221426010132e-02
4.531494341790676117e-04
-9.140057489275932312e-03
6.024729809723794460e-04
7.726898044347763062e-02
-8.109005540609359741e-02
2.997226547449827194e-04
1.051642447710037231e-01
3.744366019964218140e-02
-2.205152809619903564e-02
4.093477874994277954e-02
3.264947235584259033e-02
1.285798934986814857e-04
3.519895544741302729e-04
0.000000000000000000e+00
3.550622984766960144e-02
3.946679644286632538e-03
-4.190278123132884502e-04
-3.767237067222595215e-04
9.322552382946014404e-02
3.860279172658920288e-02
1.174541339278221130e-01
-5.382479727268218994e-02
-3.050529211759567261e-02
9.463045001029968262e-02
7.228218484669923782e-03
5.986976623535156250e-02
3.578399494290351868e-02
-7.001870311796665192e-03
