-4.194366186857223511e-02 1.900295317173004150e-01 3.525979518890380859e-01 1.570200920104980469e-01 -1.092628464102745056e-01 -1.184527855366468430e-02 3.034547157585620880e-02 2.148833274841308594e-01 3.113578855991363525e-01 -8.129417969071783504e-21 6.857912242412567139e-02 1.090642511844635010e-01 1.647382080554962158e-01 1.549522578716278076e-01 1.742978096008300781e-01 -7.490348070859909058e-02 9.000308811664581299e-02 2.746132910251617432e-01 1.262440979480743408e-01 -1.701426692306995392e-02 4.870073869824409485e-03 -1.042722314596176147e-01 1.285483241081237793e-01 2.542878687381744385e-01 1.893772780895233154e-01 -8.058781176805496216e-02 -5.962749477475881577e-03 3.790832683444023132e-02 1.480221450328826904e-01 4.728521220386028290e-03 2.366335391998291016e-01 -2.313955500721931458e-02 -2.644979860633611679e-03 9.369217604398727417e-02 7.865992933511734009e-02 -3.066293356823734939e-05 1.469202786684036255e-01 2.681520283222198486e-01 -2.920957980677485466e-03 1.132616400718688965e-01 5.100236088037490845e-02 2.437334060668945312e-01 -7.054427260300144553e-05 -1.147958636283874512e-01 -9.590569883584976196e-02 -4.046105220913887024e-02 -1.434903194527659132e-12 2.310194224119186401e-01 6.007874757051467896e-02 2.203099578619003296e-01 4.562586918473243713e-02 2.086556702852249146e-01 -9.310586750507354736e-02 1.692857295274734497e-01 5.626165773719549179e-03 -2.625553496181964874e-02 2.196645140647888184e-01 2.013142555952072144e-01 -1.342691574245691299e-02 -2.772071957588195801e-02 -6.279925628405180760e-07 -2.305116131901741028e-02 9.874672442674636841e-02 -9.687868878245353699e-03
-1.045328378677368164e-01 1.063610464334487915e-01 4.806172847747802734e-02 -4.222443699836730957e-02 9.367503225803375244e-02 5.024214088916778564e-02 3.366417065262794495e-02 1.964879631996154785e-01 2.078115046024322510e-01 -5.131292343139648438e-02 2.780950963497161865e-01 -4.785347846336662769e-05 1.254349499940872192e-01 -2.745375726244301498e-17 -8.440043777227401733e-03 -4.559049382805824280e-02 1.055512428283691406e-01 -6.468265503644943237e-02 -2.086817663116136146e-10 7.104107068121051422e-30 1.065801009535789490e-01 -4.783012345433235168e-02 -4.034123942255973816e-02 -4.404158145189285278e-02 8.122135698795318604e-02 -5.092060193419456482e-02 4.862979799509048462e-02 -2.118987807553482546e-15 2.078015916049480438e-02 1.504483669996261597e-01 3.003650903701782227e-01 8.707369118928909302e-02 8.159088343381881714e-02 -3.132771328091621399e-02 -8.597913384437561035e-02 -7.672529318369925022e-04 2.061325497925281525e-02 -2.162669971585273743e-02 -2.342750318348407745e-02 -5.080635415957886203e-14 5.345434695482254028e-02 -2.634301967918872833e-02 -3.741978853940963745e-02 3.855004534125328064e-02 -2.904457323893439025e-05 1.149524748325347900e-01 -8.651162497699260712e-03 9.769083000719547272e-03 1.556150913238525391e-01 2.982171475887298584e-01 1.908993721008300781e-01 1.354191154241561890e-01 -5.211693048477172852e-02 2.565052807331085205e-01 -3.131588413064767540e-13 9.811911731958389282e-02 3.082490293309092522e-03 2.131491750478744507e-01 -4.721911344436961573e-25 1.354847662150859833e-02 -8.695583790540695190e-02 -7.566687464714050293e-02 2.067420184612274170e-01 -2.872957102954387665e-02
-1.361820101737976074e-02 1.530859619379043579e-01 -4.644975438714027405e-02 -4.882189631462097168e-02 3.132101297378540039e-01 4.264852404594421387e-02 2.766802161931991577e-02 -5.111704766750335693e-02 -2.759093977510929108e-02 -1.286542136222124100e-02 -3.786677494645118713e-02 -7.327858358621597290e-03 -8.869761228561401367e-02 1.421984732151031494e-01 -3.010589443147182465e-02 1.287550777196884155e-01 6.584338098764419556e-02 1.772597432136535645e-01 -3.293282166123390198e-02 1.777068078517913818e-01 7.548709213733673096e-02 -1.211877316236495972e-01 -8.464608341455459595e-02 -5.840867757797241211e-02 -2.231021039187908173e-02 9.040085598826408386e-03 4.011568054556846619e-02 -4.286149889230728149e-02 -1.001454666256904602e-01 -7.903998345136642456e-02 -5.674185603857040405e-02 2.318443357944488525e-01 1.875728964805603027e-01 3.069539070129394531e-01 1.359912306070327759e-01 -5.426743626594543457e-02 -7.176544517278671265e-02 -6.009449809789657593e-02 2.774680964648723602e-02 1.409106403589248657e-01 2.065837979316711426e-01 -2.618334628641605377e-02 -8.506382256746292114e-02 1.379505544900894165e-01 -5.371596291661262512e-02 -2.259989827871322632e-02 -7.479855325073003769e-03 -3.166419640183448792e-02 6.771549582481384277e-02 -5.966411903500556946e-02 3.110353350639343262e-01 2.952298223972320557e-01 8.326621726155281067e-03 -6.477101147174835205e-02 -4.493087530136108398e-03 2.546084523200988770e-01 1.542176455259323120e-01 -4.398586973547935486e-02 -5.490023270249366760e-02 2.468987703323364258e-01 -7.626608014106750488e-02 -7.238566875457763672e-02 2.222454547882080078e-02 1.632211804389953613e-01
