-1.992902904748916626e-01 -1.568440906703472137e-02 1.270049959421157837e-01 -1.780082881450653076e-01 -6.542028486728668213e-02 -2.049247175455093384e-01 1.136499196290969849e-01 -5.286204069852828979e-02 1.888819038867950439e-01 8.691360801458358765e-02 1.013295259326696396e-02 1.322769820690155029e-01 2.668345347046852112e-02 -1.686700582504272461e-01 2.695651724934577942e-02 -2.217129617929458618e-02 5.323851853609085083e-02 -1.933119148015975952e-01 1.274467110633850098e-01 2.362038753926753998e-02 -2.044540196657180786e-01 1.804037839174270630e-01 1.054915562272071838e-01 -9.306277334690093994e-02 2.875929474830627441e-01 -2.208037301898002625e-02 -1.077609434723854065e-01 2.079813182353973389e-01 -9.690588712692260742e-02 1.211144998669624329e-01 6.062783673405647278e-02 -5.686580762267112732e-02 -2.199660092592239380e-01 2.420110702514648438e-01 1.712064146995544434e-01 -1.330758333206176758e-01 -2.334381788969039917e-01 -1.352699100971221924e-01 -5.007345601916313171e-02 2.712861299514770508e-01 -3.892957791686058044e-02 -1.452860236167907715e-01 1.503043249249458313e-02 -1.691153645515441895e-01 -1.018804833292961121e-01 -2.684526145458221436e-01 -1.174175664782524109e-01 5.714783072471618652e-02 2.468620799481868744e-02 3.631527349352836609e-02 1.655046939849853516e-01 -2.503469288349151611e-01 8.195997215807437897e-03 2.293318957090377808e-01 -2.281824499368667603e-02 -3.248368576169013977e-02 6.224969867616891861e-03 -2.737652659416198730e-01 6.766612082719802856e-02 -6.281471997499465942e-02 -1.735413330607116222e-03 -7.372440397739410400e-02 -1.684996783733367920e-01 9.379105269908905029e-02
-3.056444227695465088e-02 1.909057497978210449e-01 1.108840554952621460e-01 1.317628845572471619e-02 -1.258731633424758911e-01 4.242270439863204956e-02 9.623766690492630005e-02 8.008953928947448730e-02 2.307630181312561035e-01 -9.004467725753784180e-02 6.060064211487770081e-02 4.821071028709411621e-02 -1.908059120178222656e-01 1.862517446279525757e-01 -9.000541269779205322e-02 -6.771189719438552856e-02 2.159800827503204346e-01 -2.292362041771411896e-02 -9.642450511455535889e-02 5.320227891206741333e-02 -6.715933326631784439e-03 7.093911617994308472e-02 -2.218616940081119537e-02 8.687245100736618042e-02 1.014757677912712097e-01 -1.172241121530532837e-01 -4.605533182621002197e-02 1.417297869920730591e-01 -6.235698610544204712e-02 7.105199992656707764e-02 1.249343971721827984e-03 -1.091683655977249146e-02 7.563214004039764404e-02 -2.068720292299985886e-03 4.767112433910369873e-02 -7.640352845191955566e-02 6.054676696658134460e-02 -3.598953771870583296e-04 1.305620372295379639e-01 1.069709882140159607e-01 9.222470223903656006e-02 -4.590294137597084045e-02 1.403079926967620850e-01 -3.110098652541637421e-02 -1.808761507272720337e-01 -1.670314669609069824e-01 -1.517200320959091187e-01 6.831694394350051880e-02 -3.667469718493521214e-04 3.333819285035133362e-02 1.075332891196012497e-02 4.435267299413681030e-02 -1.916593462228775024e-01 -5.265658721327781677e-02 -1.033684685826301575e-01 7.900706678628921509e-02 1.218849718570709229e-01 -7.814592681825160980e-03 -6.156657263636589050e-02 1.801079213619232178e-01 -1.121771261096000671e-01 5.989557504653930664e-02 -8.308719098567962646e-02 -8.046206831932067871e-02
-6.941790133714675903e-02 3.435665071010589600e-01 -3.160747513175010681e-02 5.408111959695816040e-02 9.225058555603027344e-02 -5.906178802251815796e-02 2.112553864717483521e-01 -2.171324789524078369e-01 -1.225971616804599762e-02 -3.532517850399017334e-01 -6.063790991902351379e-02 1.403463184833526611e-01 1.270425878465175629e-02 5.440313741564750671e-02 3.926664292812347412e-01 1.431174129247665405e-01 1.496800333261489868e-01 2.217577248811721802e-01 -7.002617418766021729e-02 -1.006795559078454971e-02 1.554365158081054688e-01 8.544956892728805542e-02 4.595777764916419983e-02 1.498285979032516479e-01 4.855475202202796936e-02 8.813360333442687988e-02 2.077548354864120483e-01 -1.038280278444290161e-01 -3.564836382865905762e-01 1.521669775247573853e-01 -1.185827981680631638e-02 -1.316633075475692749e-01 2.152699083089828491e-01 3.332363963127136230e-01 8.718331903219223022e-02 -9.579884260892868042e-02 2.813870310783386230e-01 3.418238088488578796e-02 -1.946717947721481323e-01 -1.374728530645370483e-01 2.626464366912841797e-01 7.736230641603469849e-02 3.761771917343139648e-01 -2.235548347234725952e-01 1.705965548753738403e-01 1.830893456935882568e-01 -2.088444977998733521e-01 6.770238280296325684e-02 -2.763607725501060486e-02 -5.754888802766799927e-02 9.221613407135009766e-02 2.590219378471374512e-01 1.799520999193191528e-01 2.303586155176162720e-01 3.058671653270721436e-01 5.284737423062324524e-02 -1.954572461545467377e-02 -2.989101111888885498e-01 -2.162266224622726440e-01 2.321633100509643555e-01 1.542041897773742676e-01 5.775176919996738434e-03 -2.528699040412902832e-01 6.901749293319880962e-04
-9.270273894071578979e-02 -1.408259570598602295e-01 -7.689823955297470093e-02 -1.502617150545120239e-01 -5.965008959174156189e-02 1.325981169939041138e-01 5.594092980027198792e-02 -2.769951708614826202e-02 8.030065335333347321e-03 -2.315173596143722534e-01 -9.224388049915432930e-04 -9.330080449581146240e-02 -1.485717594623565674e-01 1.342896521091461182e-01 -1.031386703252792358e-01 1.366054713726043701e-01 3.193209469318389893e-01 -3.570531308650970459e-02 1.512130498886108398e-01 -8.602920919656753540e-02 1.788082122802734375e-01 2.212093770503997803e-01 -1.833528727293014526e-01 3.692601248621940613e-02 1.694842576980590820e-01 1.802921146154403687e-01 -1.822833418846130371e-01 2.481733858585357666e-01 -2.233041524887084961e-01 1.566444188356399536e-01 2.547099292278289795e-01 -2.517163753509521484e-01 5.283940210938453674e-02 6.040912121534347534e-03 -2.012612223625183105e-01 3.575835376977920532e-02 2.148332148790359497e-01 6.609153468161821365e-03 1.924085319042205811e-01 5.381056666374206543e-02 1.663497835397720337e-01 -2.195454984903335571e-01 4.792413488030433655e-02 1.322516473010182381e-03 1.499783247709274292e-01 -1.081622168421745300e-01 -2.047348022460937500e-02 -2.328550815582275391e-02 2.242813445627689362e-02 1.130074411630630493e-01 2.602153718471527100e-01 -6.194309517741203308e-02 1.034210175275802612e-01 8.069875091314315796e-02 -1.922558099031448364e-01 9.572194516658782959e-02 1.773119568824768066e-01 -1.176254525780677795e-01 5.426350515335798264e-03 -1.870854794979095459e-01 -4.723188281059265137e-02 -1.681609898805618286e-01 -2.054803669452667236e-01 2.402020990848541260e-02
-5.541590601205825806e-02 -8.789774775505065918e-02 -2.187982797622680664e-01 2.053451240062713623e-01 1.943448036909103394e-01 1.890436559915542603e-01 7.002263516187667847e-02 1.205035224556922913e-01 1.400381922721862793e-01 -2.417284101247787476e-01 2.025685906410217285e-01 9.954496473073959351e-02 9.720314294099807739e-02 -3.353712335228919983e-02 -9.768775850534439087e-02 -1.362755000591278076e-01 2.460203021764755249e-01 -6.996625661849975586e-02 1.418391764163970947e-01 1.514656990766525269e-01 -1.066776216030120850e-01 8.292206376791000366e-02 -5.478556454181671143e-02 1.637228205800056458e-02 -1.443333327770233154e-01 -2.154854685068130493e-01 7.738852500915527344e-02 -1.068259999155998230e-01 -1.734172105789184570e-01 -5.385746434330940247e-02 2.333386242389678955e-01 -1.450601406395435333e-02 -7.509025186300277710e-02 1.327075064182281494e-01 -1.951618045568466187e-01 -9.481218457221984863e-02 -6.933756917715072632e-02 -1.026964336633682251e-01 1.856725364923477173e-01 2.164029330015182495e-01 -1.684844940900802612e-01 -6.371373683214187622e-02 -6.100729852914810181e-02 -1.590432822704315186e-01 -4.646675288677215576e-02 1.213362589478492737e-01 -1.898898780345916748e-01 1.684904396533966064e-01 2.672227025032043457e-01 -2.386702448129653931e-01 1.767283529043197632e-01 -1.279420554637908936e-01 -6.825139373540878296e-02 2.091626673936843872e-01 -7.486842572689056396e-02 6.920772790908813477e-02 1.604089736938476562e-01 -1.038352325558662415e-01 -1.247611492872238159e-01 -1.266651302576065063e-01 -1.664130836725234985e-01 -6.759584695100784302e-02 1.535160094499588013e-01 -2.385665774345397949e-01
1.500290911644697189e-02 1.735899299383163452e-01 -2.732471525669097900e-01 1.558439433574676514e-02 5.068394541740417480e-02 -5.798906460404396057e-02 1.456714421510696411e-02 -2.350736595690250397e-02 3.100002929568290710e-02 -1.413322687149047852e-01 -1.484058052301406860e-02 1.198627799749374390e-01 3.056073933839797974e-02 -9.526176750659942627e-02 1.782046258449554443e-01 2.409428507089614868e-01 -2.108283340930938721e-01 3.707684203982353210e-02 -1.480794399976730347e-01 -6.307710707187652588e-02 1.881382241845130920e-02 -1.287671476602554321e-01 -5.334429442882537842e-02 -7.617145031690597534e-02 -8.233829587697982788e-02 6.490604486316442490e-03 7.868964225053787231e-02 -6.318797916173934937e-02 8.482978492975234985e-02 -2.462908439338207245e-02 2.986462973058223724e-02 7.613823562860488892e-02 9.684769064188003540e-02 -1.843930184841156006e-01 2.617179155349731445e-01 1.716842353343963623e-01 1.256993561983108521e-01 8.162257820367813110e-02 -2.132312953472137451e-02 2.933902479708194733e-02 -2.375088073313236237e-02 -1.512000262737274170e-01 1.050725504755973816e-01 -1.553593128919601440e-01 -1.641422659158706665e-01 1.555937081575393677e-01 -5.841162800788879395e-02 -5.917281284928321838e-02 2.141509205102920532e-01 1.653371602296829224e-01 -4.561851546168327332e-02 -5.433465540409088135e-02 -7.562933117151260376e-02 -1.865203306078910828e-02 1.523873805999755859e-01 -9.317213296890258789e-02 -1.161860972642898560e-01 1.657940000295639038e-01 5.560794845223426819e-02 -1.393982172012329102e-01 -1.897657811641693115e-01 -1.038774251937866211e-01 3.901749104261398315e-02 -1.916133165359497070e-01
-3.740070760250091553e-01 4.933050647377967834e-02 -6.587257981300354004e-02 -2.415795177221298218e-01 1.501925736665725708e-01 -1.037774905562400818e-01 6.778967380523681641e-02 1.645263582468032837e-01 2.501704096794128418e-01 5.377786606550216675e-02 1.270854771137237549e-01 -7.825664430856704712e-02 -1.347458362579345703e-01 6.123101711273193359e-02 -2.011479884386062622e-01 -1.741611659526824951e-01 -1.480848491191864014e-01 -3.672919869422912598e-01 6.300364434719085693e-02 1.443831324577331543e-01 -2.670907378196716309e-01 3.383251428604125977e-01 -3.294426500797271729e-01 1.670727580785751343e-01 5.427183955907821655e-02 1.166335195302963257e-01 -1.036766078323125839e-02 -1.838829964399337769e-01 1.851033791899681091e-02 2.430862002074718475e-02 4.867172241210937500e-02 -1.218232139945030212e-01 -3.842674791812896729e-01 1.532820612192153931e-01 6.308175623416900635e-02 2.310836464166641235e-01 -1.621070951223373413e-01 -1.241882294416427612e-01 -5.162310972809791565e-02 -2.253283187747001648e-02 -3.226103782653808594e-01 -3.650625944137573242e-01 -2.402973473072052002e-01 -8.169434964656829834e-02 -3.463908135890960693e-01 -1.136508584022521973e-01 -2.359702251851558685e-02 8.064410835504531860e-02 5.283778905868530273e-02 -1.353498175740242004e-02 2.808869816362857819e-02 -2.782502770423889160e-01 -3.651733398437500000e-01 1.144349798560142517e-01 -3.288718163967132568e-01 -5.939707159996032715e-02 -1.458046883344650269e-01 1.557023078203201294e-01 6.295147538185119629e-02 1.472610235214233398e-01 -3.855494558811187744e-01 -4.416357874870300293e-01 2.169540822505950928e-01 1.335857361555099487e-01
6.311080884188413620e-03 1.505626887083053589e-01 6.093615200370550156e-03 5.107061564922332764e-02 -9.272028692066669464e-03 -8.530376106500625610e-02 -2.223707735538482666e-01 -1.821056306362152100e-01 2.467697560787200928e-01 7.605628669261932373e-02 1.051490306854248047e-01 1.016608104109764099e-01 -1.478216201066970825e-01 -2.642101235687732697e-02 1.685166358947753906e-02 -1.438704580068588257e-01 -4.087653383612632751e-02 -1.308972686529159546e-01 6.626844406127929688e-02 1.107250899076461792e-01 -1.476666480302810669e-01 1.481818258762359619e-01 8.334156870841979980e-02 2.341006696224212646e-02 6.659211125224828720e-03 -1.443398743867874146e-02 -1.462229490280151367e-01 1.686427593231201172e-01 -1.187282130122184753e-01 -3.860836476087570190e-02 -7.549560815095901489e-02 -3.571005072444677353e-03 -8.115603029727935791e-02 -2.552654147148132324e-01 5.622395500540733337e-02 2.608176134526729584e-02 -2.439645491540431976e-02 -2.261456251144409180e-01 -1.699955612421035767e-01 -2.426728159189224243e-01 -1.220938339829444885e-01 -1.966423839330673218e-01 -1.895621716976165771e-01 3.219921141862869263e-02 6.054144352674484253e-02 5.760197062045335770e-03 -1.075099036097526550e-01 6.007532775402069092e-02 3.175577148795127869e-02 1.103883683681488037e-01 -2.070750594139099121e-01 -1.291450411081314087e-01 7.919087260961532593e-02 -1.506579816341400146e-01 -6.423253566026687622e-02 1.688648015260696411e-01 1.229030564427375793e-01 2.455009520053863525e-01 -1.572582423686981201e-01 -1.831154823303222656e-01 -1.514540910720825195e-01 -5.388932675123214722e-02 1.944058686494827271e-01 -1.243524253368377686e-01
