1.216134652495384216e-01 1.182517558336257935e-01 1.199064776301383972e-01 -1.304767876863479614e-01 -1.673347502946853638e-02 -1.167507618665695190e-01 -6.517802923917770386e-02 -1.159586831927299500e-01 -7.392927259206771851e-02 1.729917377233505249e-01 2.296209894120693207e-02 -8.058221638202667236e-02 -5.632349103689193726e-02 1.141620576381683350e-01 1.628946699202060699e-02 -1.177575588226318359e-01 1.435352116823196411e-01 3.780268877744674683e-02 2.568277157843112946e-02 -2.367241308093070984e-03 -8.898738026618957520e-02 6.204978376626968384e-02 5.860130488872528076e-02 -2.265303395688533783e-03 -1.189351230859756470e-01 -6.185201182961463928e-02 -8.677309378981590271e-03 -4.170876368880271912e-02 -1.430157572031021118e-01 -1.012693569064140320e-01 1.613417863845825195e-01 5.553194880485534668e-02 -1.122727617621421814e-01 -5.610559880733489990e-02 2.211537361145019531e-01 1.077670529484748840e-01 1.166081428527832031e-02 -1.080811396241188049e-01 1.353547424077987671e-01 1.683010458946228027e-01 -1.011607646942138672e-01 1.014450564980506897e-01 7.595990598201751709e-02 5.051082000136375427e-02 2.139502391219139099e-02 -1.068711206316947937e-01 6.331235636025667191e-03 -7.034358382225036621e-02 1.727410554885864258e-01 2.053918987512588501e-01 -1.356067359447479248e-01 -1.171311214566230774e-01 -8.414744585752487183e-02 6.811201572418212891e-02 6.504999846220016479e-02 5.035641416907310486e-02 1.426741331815719604e-01 -7.188288867473602295e-02 -1.646134406328201294e-01 -8.222698420286178589e-02 2.509285211563110352e-01 3.246520087122917175e-02 1.588630080223083496e-01 -3.335391357541084290e-02 7.070584595203399658e-02 -7.837348431348800659e-02 1.544610857963562012e-01 -4.487723112106323242e-02 -8.930329978466033936e-02 6.776659935712814331e-02 -6.201914511620998383e-03 1.389102488756179810e-01 -7.384413480758666992e-02 8.040595054626464844e-02 -1.482347548007965088e-01 -1.012931540608406067e-01 -1.706711053848266602e-01 1.498049497604370117e-01 -6.052440777420997620e-02 1.857137829065322876e-01 1.280060559511184692e-01 -1.037957668304443359e-01 1.072891354560852051e-01 9.111467748880386353e-02 -1.686182618141174316e-01 -6.078694760799407959e-02 1.000229120254516602e-01 -1.561778336763381958e-01 -7.933490723371505737e-02 -6.611591577529907227e-02 1.208872869610786438e-01 -2.124547399580478668e-02 -1.195446476340293884e-01 4.317971318960189819e-02 6.663679331541061401e-02 6.697376817464828491e-02 -4.337199404835700989e-02 1.381247341632843018e-01 -9.611704200506210327e-02 -9.858657419681549072e-02 -7.884919643402099609e-02 -1.010194197297096252e-01 -1.200383435934782028e-02 -1.721572130918502808e-02 8.324663341045379639e-02 7.776600122451782227e-02 -1.250031441450119019e-01 -1.136748213320970535e-02 1.652492135763168335e-01 5.522136017680168152e-02 4.032783675938844681e-03 -9.433877654373645782e-03 -1.691051721572875977e-01 -1.122289523482322693e-01 -5.447402130812406540e-03 -1.207796409726142883e-01 -2.566559473052620888e-03 1.123464852571487427e-01 1.384295076131820679e-01 6.166672706604003906e-02 7.756100036203861237e-03 -3.492737933993339539e-02 -6.499110907316207886e-02 -1.210242360830307007e-01 7.354042679071426392e-02 -6.660321354866027832e-02 2.150178700685501099e-02 6.725458055734634399e-02
-1.607582271099090576e-01 -1.735588349401950836e-02 -8.329370617866516113e-02 -4.745119810104370117e-02 -6.322760134935379028e-02 2.101375907659530640e-01 9.398227185010910034e-02 2.374405786395072937e-02 -9.948496520519256592e-02 -1.403961330652236938e-01 1.127472370862960815e-01 3.496183827519416809e-02 -9.318228065967559814e-02 -1.475866138935089111e-01 -8.548375219106674194e-02 -9.249815344810485840e-02 3.769144043326377869e-02 -1.472849547863006592e-01 6.562256254255771637e-03 -1.375744640827178955e-01 -1.620285660028457642e-01 1.151944994926452637e-01 9.717862308025360107e-02 6.135314702987670898e-02 1.384728550910949707e-01 -1.680096089839935303e-01 -3.904053941369056702e-02 1.490639895200729370e-01 -1.045760810375213623e-01 1.010301262140274048e-01 1.407317668199539185e-01 6.520429998636245728e-02 1.156995221972465515e-01 1.340545415878295898e-01 -3.089605644345283508e-02 1.276773773133754730e-02 -6.315200775861740112e-02 1.243383735418319702e-01 2.868574485182762146e-02 -7.518056035041809082e-02 1.041161194443702698e-01 6.906228512525558472e-02 2.042638957500457764e-01 -7.491251826286315918e-02 -1.280143707990646362e-01 8.687380701303482056e-02 1.296263635158538818e-01 5.033520236611366272e-02 -5.810365453362464905e-02 8.885162882506847382e-03 -1.416644304990768433e-01 -6.105285137891769409e-02 -1.937210932374000549e-02 4.139313939958810806e-03 -6.980815529823303223e-02 9.173508733510971069e-02 7.526028435677289963e-03 -2.747518196702003479e-02 1.326921284198760986e-01 -1.311606466770172119e-01 -1.011092811822891235e-01 -3.618953004479408264e-02 -9.562402963638305664e-02 1.944454163312911987e-01 1.333843022584915161e-01 -5.931454524397850037e-02 9.198133647441864014e-02 -1.249953522346913815e-03 2.121568843722343445e-02 1.833678223192691803e-02 9.273344278335571289e-02 -1.052849143743515015e-01 1.670871227979660034e-01 -7.796013355255126953e-02 -1.034688502550125122e-01 -1.736360341310501099e-01 -5.424706637859344482e-02 1.198607087135314941e-01 -8.634486049413681030e-02 -1.566051393747329712e-01 1.200483366847038269e-01 -1.655257493257522583e-01 1.474073827266693115e-01 3.646720945835113525e-02 -8.881754428148269653e-02 -1.308138221502304077e-01 4.745285958051681519e-02 -3.742057085037231445e-02 1.094368025660514832e-01 -3.965561836957931519e-02 -1.529657095670700073e-01 4.371825233101844788e-02 -2.061415929347276688e-03 -1.847639381885528564e-01 1.642648279666900635e-01 -1.877226494252681732e-02 -6.590513139963150024e-02 1.460082978010177612e-01 1.660885848104953766e-02 1.087952554225921631e-01 6.109204888343811035e-02 1.008706837892532349e-01 1.160614714026451111e-01 -3.720465302467346191e-02 -1.099407523870468140e-01 -1.617739051580429077e-01 8.767985552549362183e-02 1.109618600457906723e-02 -1.213193163275718689e-01 2.133155614137649536e-01 1.571254283189773560e-01 5.509806424379348755e-02 -1.492450833320617676e-01 6.910904496908187866e-02 -1.208679899573326111e-01 -3.726065903902053833e-02 -1.513969600200653076e-01 8.361075073480606079e-02 1.090854182839393616e-01 3.235441446304321289e-02 1.021448895335197449e-01 6.424325704574584961e-02 2.441123872995376587e-02 -1.643226593732833862e-01 -2.258894499391317368e-03 -1.268805712461471558e-01 -6.923402100801467896e-02 -1.003612428903579712e-01
2.249379158020019531e-01 -1.450715363025665283e-01 1.109023243188858032e-01 -9.764508157968521118e-02 2.409384399652481079e-02 1.829570233821868896e-01 -1.297181397676467896e-01 9.580563753843307495e-02 -1.180230546742677689e-02 -1.619800925254821777e-01 -7.518605887889862061e-02 1.426218152046203613e-01 1.056932508945465088e-01 8.140432834625244141e-02 8.039538562297821045e-02 4.095603898167610168e-02 -1.178068891167640686e-01 -1.224260553717613220e-01 -2.307711914181709290e-02 2.030273675918579102e-01 6.977546960115432739e-02 -2.470388263463973999e-02 1.359109431505203247e-01 5.304182413965463638e-03 -5.638085678219795227e-02 -5.155540630221366882e-02 -1.024756878614425659e-01 -3.215664625167846680e-02 9.523110836744308472e-02 1.493298411369323730e-01 9.993101656436920166e-02 -1.385547816753387451e-01 8.232294023036956787e-02 -3.352336585521697998e-02 5.551617592573165894e-02 1.496516466140747070e-01 1.623598486185073853e-01 -6.936939805746078491e-02 -1.438543796539306641e-01 -1.801054030656814575e-01 -1.503863036632537842e-01 -1.519616842269897461e-01 1.812967509031295776e-01 -1.717372238636016846e-01 1.296593695878982544e-01 1.259524673223495483e-01 -2.007881551980972290e-02 -8.833055198192596436e-02 1.587411463260650635e-01 -1.314559578895568848e-01 1.554405838251113892e-01 5.587716400623321533e-02 -6.926065543666481972e-04 8.652155846357345581e-02 -2.034598290920257568e-01 -1.314313858747482300e-01 1.707460284233093262e-01 -1.513636559247970581e-01 7.112552970647811890e-02 8.371800929307937622e-02 1.718384176492691040e-01 -1.086367368698120117e-01 1.724121868610382080e-01 -1.608714163303375244e-01 3.179998695850372314e-02 2.701329533010721207e-03 9.751025587320327759e-03 -1.174935791641473770e-02 -9.279844164848327637e-02 1.806210428476333618e-01 -9.528870880603790283e-02 -1.499519795179367065e-01 -9.515156596899032593e-02 -2.010614611208438873e-02 -1.388575583696365356e-01 1.370552480220794678e-01 -4.648591205477714539e-02 -3.264217451214790344e-02 1.502235680818557739e-01 6.129857525229454041e-02 -7.059182226657867432e-02 1.216037198901176453e-01 1.598489325260743499e-04 -1.220853626728057861e-01 1.719756126403808594e-01 -7.131499797105789185e-02 1.545976102352142334e-01 -1.575957983732223511e-01 -7.153566181659698486e-02 6.158647686243057251e-02 -2.545616589486598969e-03 7.610533386468887329e-02 -1.437879502773284912e-01 2.467510849237442017e-01 1.501232236623764038e-01 -1.615703105926513672e-01 1.191025376319885254e-01 -3.819292783737182617e-02 3.816712647676467896e-03 -1.867864280939102173e-01 7.429578341543674469e-03 8.372149616479873657e-02 3.275369759649038315e-03 2.295261174440383911e-01 8.568970859050750732e-02 1.364582777023315430e-01 1.883596032857894897e-01 -6.418491899967193604e-02 1.151760444045066833e-01 -6.602934002876281738e-02 -8.644028753042221069e-02 4.223531112074851990e-03 -5.309237167239189148e-02 6.856521964073181152e-02 1.238645985722541809e-01 1.091370657086372375e-01 -1.343495845794677734e-01 5.155636370182037354e-02 5.974142998456954956e-02 2.822083793580532074e-02 -3.857997432351112366e-02 -1.032078787684440613e-01 -4.478263854980468750e-02 1.930727809667587280e-01 -9.799639880657196045e-02 -2.764646336436271667e-02 -1.082827448844909668e-01 1.945260763168334961e-01
1.916673928499221802e-01 2.649891674518585205e-01 2.116753533482551575e-02 2.465539053082466125e-02 -2.395742535591125488e-01 1.357955299317836761e-02 1.271472778171300888e-02 -2.288990281522274017e-02 -6.216303631663322449e-02 -7.055949419736862183e-02 -1.584939360618591309e-01 1.070697978138923645e-01 5.516321957111358643e-02 3.224940598011016846e-02 -5.911718681454658508e-02 2.403163351118564606e-02 -1.418661773204803467e-01 -2.326242774724960327e-01 -8.391562849283218384e-02 -1.906000226736068726e-01 -1.915247179567813873e-02 1.259208917617797852e-01 -9.483811259269714355e-02 -1.737521737813949585e-01 -1.412154734134674072e-01 -1.796296238899230957e-01 1.623066067695617676e-01 6.697596609592437744e-02 6.384062021970748901e-02 -1.886881142854690552e-01 -3.936773538589477539e-02 1.452253460884094238e-01 -1.064994037151336670e-01 1.469789743423461914e-01 1.398212611675262451e-01 -2.196238636970520020e-01 -6.907702982425689697e-02 1.276479512453079224e-01 2.621610462665557861e-02 9.354833513498306274e-02 -7.865388691425323486e-02 1.437174677848815918e-01 -7.044781744480133057e-02 -1.160704717040061951e-01 1.079832166433334351e-01 4.946851357817649841e-02 -6.560882180929183960e-02 -1.259659081697463989e-01 2.808113694190979004e-01 1.086224764585494995e-01 -2.321442663669586182e-01 1.030563041567802429e-01 -1.942132785916328430e-02 7.131967693567276001e-02 -3.891728352755308151e-03 -5.666448548436164856e-02 1.334943156689405441e-02 -1.388790607452392578e-01 -6.584654003381729126e-02 4.292203113436698914e-02 -1.138693615794181824e-01 8.394466340541839600e-02 -2.211347222328186035e-02 -3.826227784156799316e-02 -8.580060303211212158e-02 1.415939629077911377e-02 -7.973305135965347290e-02 1.248511075973510742e-01 1.335966140031814575e-01 4.277480766177177429e-02 -1.238528564572334290e-01 1.541852504014968872e-01 4.915663599967956543e-02 1.852422207593917847e-01 6.952316034585237503e-03 3.250410035252571106e-02 -5.024176090955734253e-02 -2.470086365938186646e-01 -2.166304290294647217e-01 -8.048880100250244141e-02 1.538983285427093506e-01 -9.064193814992904663e-02 -4.963495209813117981e-02 2.390687316656112671e-01 -1.492250114679336548e-01 -1.242098957300186157e-01 2.491085790097713470e-02 -1.495479699224233627e-02 2.402485311031341553e-01 2.613455355167388916e-01 -1.826961338520050049e-01 -6.681317836046218872e-02 8.237951248884201050e-02 1.684162020683288574e-01 -1.174575928598642349e-02 -9.213844686746597290e-02 -2.803185880184173584e-01 -1.543089151382446289e-01 3.334976732730865479e-02 -8.912900835275650024e-02 -1.868150532245635986e-01 1.531872898340225220e-01 -1.150917857885360718e-01 -2.863786928355693817e-02 1.782331764698028564e-01 7.872798293828964233e-02 9.546993672847747803e-02 2.082260511815547943e-02 -3.737681731581687927e-02 2.415398508310317993e-01 1.001878380775451660e-01 -2.283898890018463135e-01 9.025264531373977661e-02 1.290579289197921753e-01 4.194325208663940430e-02 -6.966742873191833496e-02 -7.306950539350509644e-02 -2.333445241674780846e-03 4.915604740381240845e-02 1.017595827579498291e-01 3.126364946365356445e-02 -7.172673940658569336e-02 2.023658752441406250e-01 9.933736175298690796e-02 -5.816661566495895386e-02 5.521067976951599121e-02 -1.054118350148200989e-01 5.156721174716949463e-02
-9.570132941007614136e-02 9.262077510356903076e-02 4.835533723235130310e-02 -5.984819307923316956e-02 -8.560629934072494507e-02 1.722391694784164429e-01 -9.109175950288772583e-02 1.257438212633132935e-01 -1.009347215294837952e-01 6.856273859739303589e-02 1.021319851279258728e-01 -2.560709044337272644e-02 1.645799353718757629e-02 -1.122312322258949280e-01 -2.586461976170539856e-02 -8.452276885509490967e-02 -9.787762165069580078e-02 5.930965766310691833e-02 -1.245447397232055664e-01 1.780289709568023682e-01 -1.257438212633132935e-01 2.329473048448562622e-01 -2.687314152717590332e-01 -5.165850371122360229e-02 -1.975072473287582397e-01 1.597865968942642212e-01 -7.740180194377899170e-02 1.641470938920974731e-01 1.656589210033416748e-01 3.244991600513458252e-02 2.110758423805236816e-01 -1.072735264897346497e-01 -1.074147224426269531e-01 -2.018528617918491364e-02 4.352863132953643799e-02 1.622323244810104370e-01 -2.030149698257446289e-01 -6.549852341413497925e-02 -3.812198713421821594e-02 -4.095993563532829285e-02 -9.505649656057357788e-02 -2.030774652957916260e-01 1.544624418020248413e-01 1.360466331243515015e-01 -2.867509238421916962e-02 -5.478111281991004944e-02 -1.128069832921028137e-01 1.462774723768234253e-01 2.152040302753448486e-01 -2.222774028778076172e-01 2.780177071690559387e-02 -9.149484336376190186e-02 -1.230523455888032913e-02 8.063205331563949585e-02 -1.166635751724243164e-01 2.462672768160700798e-03 1.051338948309421539e-02 -1.619934141635894775e-01 -9.767390787601470947e-02 -1.069001182913780212e-01 -1.856094747781753540e-01 8.491133339703083038e-03 -1.531370133161544800e-01 1.411427408456802368e-01 -9.944038093090057373e-02 9.451820701360702515e-02 1.141426339745521545e-01 -1.294154971837997437e-01 -1.614818698726594448e-03 1.235958486795425415e-01 1.910097002983093262e-01 1.351818889379501343e-01 1.889882981777191162e-01 1.803827732801437378e-01 9.359379857778549194e-02 -4.872875660657882690e-02 -5.206724163144826889e-03 7.813105732202529907e-02 1.799713969230651855e-01 -1.117671653628349304e-01 -5.255740880966186523e-02 1.365675777196884155e-01 -1.036577112972736359e-02 2.169127464294433594e-01 -2.012984454631805420e-01 2.908813394606113434e-02 8.742559701204299927e-02 2.096397131681442261e-01 1.431332379579544067e-01 1.720162779092788696e-01 1.614973992109298706e-01 -2.745058201253414154e-02 -1.803778260946273804e-01 -2.183952741324901581e-02 1.891778260469436646e-01 -1.548960506916046143e-01 -7.328382879495620728e-02 -3.258941695094108582e-02 1.386054605245590210e-01 1.132939010858535767e-01 -2.912591211497783661e-02 -9.353781491518020630e-02 -4.843107983469963074e-02 -3.953598439693450928e-02 1.532761752605438232e-01 -1.750775724649429321e-01 -7.145557552576065063e-02 -3.512702882289886475e-02 1.061314642429351807e-01 -1.779698431491851807e-01 1.667417138814926147e-01 1.400828063488006592e-01 1.471242904663085938e-01 2.544496580958366394e-02 -1.576909124851226807e-01 -6.240665167570114136e-02 -1.309919059276580811e-01 -2.432972043752670288e-01 -5.818553641438484192e-02 -1.246069744229316711e-01 6.868129968643188477e-02 3.440945222973823547e-02 -1.292231678962707520e-01 9.592074900865554810e-02 -1.443675607442855835e-01 -6.501048058271408081e-02 3.074445761740207672e-02 -4.561544209718704224e-02
1.080062016844749451e-01 1.076209247112274170e-01 1.804873696528375149e-03 -1.266726553440093994e-01 4.287452995777130127e-02 1.434371471405029297e-01 2.176061123609542847e-01 8.091068267822265625e-02 -9.208385832607746124e-03 7.813087850809097290e-02 3.166359383612871170e-03 1.813494861125946045e-01 2.681809961795806885e-01 8.615350723266601562e-02 1.949681937694549561e-01 -1.111897900700569153e-01 -1.004209890961647034e-01 -1.886964440345764160e-01 1.582701355218887329e-01 -8.373790420591831207e-03 4.421197250485420227e-02 6.507046520709991455e-03 -9.466312080621719360e-02 1.456466875970363617e-02 -2.857593446969985962e-02 -5.020600184798240662e-02 9.440627694129943848e-02 1.226649526506662369e-02 1.665501594543457031e-01 -9.740950912237167358e-02 -8.416604250669479370e-02 1.415626853704452515e-01 5.885719880461692810e-02 1.530143469572067261e-01 2.897550584748387337e-03 -1.215966567397117615e-01 1.050671562552452087e-01 1.544392760843038559e-02 1.603674888610839844e-01 1.497791148722171783e-02 2.462956123054027557e-02 7.343532890081405640e-02 4.300797358155250549e-02 -1.542515605688095093e-01 -6.807968765497207642e-02 -2.046050690114498138e-02 -8.116938173770904541e-02 -6.081935390830039978e-02 -1.984258294105529785e-01 1.585476100444793701e-01 6.251655519008636475e-02 1.380969882011413574e-01 -2.322946339845657349e-01 2.190981805324554443e-01 -2.249906361103057861e-01 7.013136893510818481e-02 1.974541395902633667e-01 -1.275680810213088989e-01 1.789435744285583496e-01 -1.073503494262695312e-01 -1.203610524535179138e-01 -1.337035745382308960e-01 1.655888706445693970e-01 -1.888070106506347656e-01 -6.572322547435760498e-02 -9.353184700012207031e-02 -6.198602914810180664e-02 4.904009867459535599e-03 1.017067655920982361e-01 5.808511376380920410e-02 4.539880529046058655e-02 6.503286957740783691e-02 -1.669555604457855225e-01 6.546633690595626831e-02 1.366465538740158081e-01 8.870742470026016235e-02 1.258986145257949829e-01 5.446935445070266724e-02 2.492386847734451294e-02 -5.572127923369407654e-02 1.775756180286407471e-01 -1.153133735060691833e-01 -2.424712106585502625e-02 4.591327626258134842e-03 -8.501823991537094116e-02 9.233433753252029419e-02 -5.895964568480849266e-04 -1.566153466701507568e-01 -7.172206789255142212e-02 3.714028000831604004e-02 -2.214103192090988159e-02 -1.792862862348556519e-01 -1.231758594512939453e-01 1.258844286203384399e-01 -2.358827292919158936e-01 3.734386339783668518e-02 5.855068191885948181e-02 7.288043946027755737e-02 -1.136900931596755981e-01 -1.632801629602909088e-02 -5.945483967661857605e-02 -1.443389356136322021e-01 -1.911270022392272949e-01 -1.239975467324256897e-01 -1.400614827871322632e-01 -1.585498750209808350e-01 2.265322208404541016e-02 -5.525946244597434998e-02 1.231494247913360596e-01 6.816136091947555542e-02 4.191197082400321960e-02 7.662290334701538086e-02 -1.029142215847969055e-01 -5.697897169739007950e-03 -1.032323241233825684e-01 1.931395009160041809e-02 1.474310010671615601e-01 -2.809530124068260193e-03 1.654992401599884033e-01 -2.744003385305404663e-02 -1.016030609607696533e-01 1.343641579151153564e-01 2.577582299709320068e-01 -1.225162670016288757e-01 -1.134485006332397461e-01 4.252947866916656494e-02 -1.619151681661605835e-01 8.445248752832412720e-02
-1.867236196994781494e-01 -5.527738109230995178e-02 1.147163379937410355e-02 -1.487242877483367920e-01 2.161050960421562195e-02 -5.665707588195800781e-02 -1.796348392963409424e-01 8.702883124351501465e-02 8.445583283901214600e-02 -1.423864811658859253e-01 1.785369366407394409e-01 -1.305558085441589355e-01 1.391343623399734497e-01 2.481959201395511627e-02 -1.768221557140350342e-01 -8.639345318078994751e-02 -4.661570861935615540e-02 -1.422486305236816406e-01 2.688035182654857635e-02 -7.501153647899627686e-02 3.848975151777267456e-02 -6.160402670502662659e-02 7.626163959503173828e-02 4.377301037311553955e-02 1.415671408176422119e-01 8.966667950153350830e-02 -2.591567486524581909e-02 -4.327702149748802185e-02 1.108871996402740479e-01 -1.709616333246231079e-01 6.343912333250045776e-02 -1.609719246625900269e-01 -6.794817000627517700e-02 -8.561576902866363525e-02 6.673451047390699387e-03 -1.698207408189773560e-01 -9.941806644201278687e-02 6.246391683816909790e-02 3.055922128260135651e-02 -2.149914763867855072e-02 5.266726016998291016e-02 9.322360157966613770e-02 1.465379297733306885e-01 1.337686032056808472e-01 -1.323040723800659180e-01 -1.588312685489654541e-01 5.904061347246170044e-02 -1.296377182006835938e-01 2.978543750941753387e-02 -1.915900558233261108e-01 -1.471212059259414673e-01 -7.231666892766952515e-02 6.701079662889242172e-03 2.696600183844566345e-02 4.616324231028556824e-02 1.561283618211746216e-01 -2.256692945957183838e-01 1.380375027656555176e-01 -4.478384554386138916e-02 -1.078115589916706085e-02 -7.017703354358673096e-02 1.728387773036956787e-01 -3.261148929595947266e-03 -1.065663099288940430e-01 2.127088606357574463e-01 2.487318590283393860e-02 8.492373675107955933e-02 -1.391958594322204590e-01 -2.575101889669895172e-02 -1.643148511648178101e-01 1.196869388222694397e-01 1.224996224045753479e-01 1.619528681039810181e-01 -2.211524359881877899e-02 1.314791440963745117e-01 7.746936380863189697e-02 9.190449863672256470e-02 -5.872021615505218506e-02 -1.492739319801330566e-01 -1.910356879234313965e-01 -7.360988855361938477e-02 3.641740232706069946e-02 6.295298784971237183e-02 1.104398593306541443e-01 7.687285542488098145e-02 6.078575551509857178e-02 7.572109997272491455e-02 -1.037934329360723495e-02 1.707103103399276733e-01 1.205826550722122192e-01 4.005110822618007660e-03 -1.192962974309921265e-01 -6.155757978558540344e-02 -1.985323578119277954e-01 -1.573799252510070801e-01 7.016584277153015137e-02 -1.348203718662261963e-01 1.244411570951342583e-03 2.074961364269256592e-01 -1.926852390170097351e-02 -7.577680796384811401e-02 4.451290704309940338e-03 6.818500161170959473e-02 5.342473089694976807e-02 -2.151870913803577423e-02 -8.028870820999145508e-02 7.750381529331207275e-02 1.104612946510314941e-01 1.127750501036643982e-01 9.355986863374710083e-02 1.176622416824102402e-02 -1.185797303915023804e-01 -8.859916031360626221e-02 1.423939783126115799e-02 -1.287025362253189087e-01 -1.641054302453994751e-01 -2.270883023738861084e-01 8.882962167263031006e-02 2.582267299294471741e-02 1.619381904602050781e-01 1.434540934860706329e-02 -9.501124918460845947e-02 -2.510269582271575928e-01 4.609916731715202332e-02 1.296311020851135254e-01 5.844222381711006165e-02 3.504212573170661926e-02 2.952790074050426483e-02
5.678347125649452209e-02 -1.336194872856140137e-01 -4.744124040007591248e-02 -1.916395127773284912e-01 5.876631662249565125e-02 -2.981905080378055573e-02 -3.799001500010490417e-02 -5.540856625884771347e-03 3.486762195825576782e-02 1.357672959566116333e-01 -6.350670754909515381e-02 -7.116930186748504639e-02 9.233773499727249146e-02 -1.484327167272567749e-01 -7.553852628916501999e-03 -2.498984895646572113e-02 9.675323963165283203e-02 6.597777456045150757e-02 1.468004435300827026e-01 -1.818051636219024658e-01 -8.568942546844482422e-02 5.431127268821001053e-03 -1.057737842202186584e-01 1.782818585634231567e-01 1.798669993877410889e-01 1.215073615312576294e-01 8.367498964071273804e-02 -4.750416800379753113e-02 -1.510857045650482178e-01 -1.370543390512466431e-01 2.097920700907707214e-02 6.666740775108337402e-02 9.681682288646697998e-02 1.071072518825531006e-01 3.922142460942268372e-02 -3.328744694590568542e-02 6.189318373799324036e-02 -9.088528901338577271e-02 -2.532823197543621063e-02 -1.425984948873519897e-01 1.112686619162559509e-01 1.049158796668052673e-01 -1.768428534269332886e-01 1.489266604185104370e-01 -1.880685798823833466e-02 1.392076015472412109e-01 1.109512820839881897e-01 1.499071121215820312e-01 9.669420868158340454e-02 -4.358182474970817566e-02 3.865310549736022949e-02 -1.506736278533935547e-01 -1.169629693031311035e-01 -8.135360479354858398e-02 2.999710477888584137e-02 -4.370953887701034546e-02 8.624427020549774170e-02 1.017837524414062500e-01 -1.618766635656356812e-01 1.755590289831161499e-01 -1.464260816574096680e-01 -9.555372595787048340e-02 5.016531795263290405e-02 -4.570157080888748169e-02 1.198764294385910034e-01 -5.486494046635925770e-04 1.066690161824226379e-01 2.695800922811031342e-02 -1.094381213188171387e-01 2.024000883102416992e-01 1.158011183142662048e-01 1.394281834363937378e-01 1.300905644893646240e-01 -1.208206545561552048e-02 5.301915854215621948e-02 1.533847153186798096e-01 6.997101753950119019e-02 8.358108997344970703e-02 1.771055310964584351e-01 7.646262645721435547e-02 -3.402782604098320007e-02 9.720447659492492676e-02 -2.592088468372821808e-02 -3.711679577827453613e-02 -6.055149063467979431e-02 -1.825924515724182129e-01 6.607745890505611897e-04 3.521293774247169495e-02 -3.649190813302993774e-02 -2.351231873035430908e-01 5.586709454655647278e-02 1.676607429981231689e-01 -7.580029219388961792e-02 -5.131144821643829346e-02 4.854048788547515869e-02 1.291662454605102539e-01 1.348907351493835449e-01 1.616846472024917603e-01 -8.418992906808853149e-02 -1.617967486381530762e-01 3.875160962343215942e-02 5.836010724306106567e-02 1.867445111274719238e-01 5.374053120613098145e-02 7.987958937883377075e-02 -1.243176758289337158e-01 5.621050298213958740e-02 -8.656854927539825439e-02 7.756929099559783936e-02 7.643107790499925613e-03 -8.667011745274066925e-03 -1.180293336510658264e-01 -3.386845812201499939e-02 5.081091821193695068e-02 -1.464290022850036621e-01 -7.175965607166290283e-02 2.553113549947738647e-02 -1.612899005413055420e-01 4.181267693638801575e-02 2.704666927456855774e-02 -7.354456186294555664e-02 -2.178368158638477325e-02 1.113242506980895996e-01 1.295335441827774048e-01 6.751684844493865967e-02 -3.777364641427993774e-02 8.701372891664505005e-02 2.064634673297405243e-02
-5.643430352210998535e-02 -1.495690494775772095e-01 5.962222442030906677e-02 1.119634695351123810e-02 -2.437269315123558044e-02 -7.239450514316558838e-02 1.454051136970520020e-01 -1.706002354621887207e-01 1.943453401327133179e-02 -1.660661958158016205e-02 -4.217839613556861877e-02 -7.090906798839569092e-02 9.410434961318969727e-02 -1.038132160902023315e-01 -1.443571597337722778e-02 8.190602064132690430e-02 -5.871921777725219727e-02 -1.134259104728698730e-01 -1.691478788852691650e-01 -1.401803046464920044e-01 1.325659155845642090e-01 9.491539001464843750e-02 -1.556127518415451050e-01 8.358663320541381836e-02 -9.064226411283016205e-03 -5.190272815525531769e-03 -7.890214771032333374e-02 1.395922806113958359e-02 -1.127128675580024719e-01 1.777519881725311279e-01 -6.635627895593643188e-02 -9.835258871316909790e-02 1.134947910904884338e-01 -1.539204828441143036e-02 2.673725131899118423e-03 1.287383139133453369e-01 -1.668654978275299072e-01 1.222485154867172241e-01 1.379106193780899048e-01 1.019625961780548096e-01 -5.754161998629570007e-02 7.158753275871276855e-02 1.199952811002731323e-01 1.810392141342163086e-01 -7.856939733028411865e-02 7.749744690954685211e-04 1.533918678760528564e-01 -1.908618807792663574e-01 1.106923744082450867e-01 2.280953228473663330e-01 -4.033214598894119263e-02 -1.410239487886428833e-01 6.524061411619186401e-02 -1.550162211060523987e-02 7.542628049850463867e-02 1.160455401986837387e-02 2.129375338554382324e-01 -1.833462901413440704e-02 1.659011691808700562e-01 -1.345131993293762207e-01 -1.108958348631858826e-01 9.399832040071487427e-02 1.699239015579223633e-01 1.161441877484321594e-01 1.089806482195854187e-01 1.126158758997917175e-01 -1.796891354024410248e-02 -1.705886423587799072e-01 -9.550670534372329712e-02 -1.233424693346023560e-01 -5.478776246309280396e-02 -7.687897235155105591e-02 -1.356697678565979004e-01 -1.799492985010147095e-01 -6.652772426605224609e-02 1.801699548959732056e-01 -2.427909709513187408e-02 1.047642249614000320e-02 1.921808905899524689e-02 5.050143972039222717e-02 1.810144931077957153e-01 -6.175877153873443604e-02 -6.069491058588027954e-02 1.516934335231781006e-01 1.558526884764432907e-02 -1.263390928506851196e-01 -8.174737542867660522e-02 -1.815979927778244019e-01 -2.199058886617422104e-03 -1.844231337308883667e-01 6.998629122972488403e-02 5.026149749755859375e-02 -5.074908956885337830e-02 5.524938926100730896e-02 1.047953441739082336e-01 1.124839857220649719e-01 9.774422645568847656e-02 -1.291754841804504395e-01 1.855241879820823669e-02 1.280997395515441895e-01 1.459981054067611694e-01 -2.187285863328725100e-04 -4.508550092577934265e-02 3.297292441129684448e-02 -2.018487639725208282e-02 -5.976739339530467987e-03 1.095185726881027222e-01 -1.879125460982322693e-02 1.236689835786819458e-01 1.060893908143043518e-01 1.472560502588748932e-02 -1.307607162743806839e-04 1.273964941501617432e-01 -1.531633287668228149e-01 3.777746111154556274e-02 -1.469006836414337158e-01 8.094131201505661011e-02 -3.040044009685516357e-02 -3.453611209988594055e-02 -1.280065774917602539e-01 -9.259799867868423462e-02 1.328541934490203857e-01 1.444424539804458618e-01 4.224359989166259766e-02 5.928355827927589417e-02 2.059974335134029388e-02 1.748062372207641602e-01 1.819306761026382446e-01
1.157118901610374451e-01 -1.166154369711875916e-01 -1.932694576680660248e-02 1.162939369678497314e-01 9.037901461124420166e-02 2.000337839126586914e-01 -2.146112173795700073e-01 -7.729075103998184204e-02 -5.720331519842147827e-02 -1.976024806499481201e-01 -5.555955320596694946e-02 1.875670254230499268e-01 -8.563376963138580322e-02 1.138128414750099182e-01 5.222013220191001892e-02 -1.090957224369049072e-01 5.363933276385068893e-03 -1.472986191511154175e-01 1.549870669841766357e-01 -9.494236856698989868e-02 -8.579214662313461304e-02 1.341367661952972412e-01 1.588642224669456482e-02 -6.438896805047988892e-02 5.769939720630645752e-02 1.705639995634555817e-02 -9.673235565423965454e-02 -1.413771957159042358e-01 -1.297162622213363647e-01 -4.052098840475082397e-02 1.346967369318008423e-01 1.417262405157089233e-01 -3.895824030041694641e-02 -1.080648414790630341e-02 1.754418164491653442e-01 4.768869280815124512e-02 -1.241847034543752670e-02 -1.997015178203582764e-01 -9.352844953536987305e-02 -1.293785125017166138e-01 1.591352373361587524e-01 -3.747862577438354492e-02 1.558966282755136490e-02 9.663183987140655518e-02 -7.906673848628997803e-02 -1.575250923633575439e-01 1.501896381378173828e-01 1.958018541336059570e-02 -1.115870848298072815e-01 1.275763213634490967e-01 -3.839737921953201294e-02 1.776618510484695435e-01 -5.686120688915252686e-02 2.299880050122737885e-02 1.107005104422569275e-01 -1.479345709085464478e-01 -5.392856150865554810e-02 1.819811388850212097e-02 -1.758764237165451050e-01 5.227976664900779724e-02 1.215912401676177979e-01 2.089108377695083618e-01 -8.875722065567970276e-03 1.832346469163894653e-01 -1.812855303287506104e-01 -1.186309456825256348e-01 -1.715328246355056763e-01 -3.467441722750663757e-02 -7.073910534381866455e-02 -5.053433775901794434e-02 -4.373272880911827087e-03 7.430686801671981812e-02 5.966886505484580994e-02 -7.075276225805282593e-02 -5.599156767129898071e-02 -1.250303387641906738e-01 9.632539004087448120e-02 2.215153872966766357e-01 1.586572080850601196e-01 -4.313402250409126282e-02 -2.137441039085388184e-01 -2.108906954526901245e-02 -9.925120323896408081e-02 -4.389392212033271790e-02 1.211436539888381958e-01 5.978360399603843689e-02 3.744394332170486450e-02 2.393607608973979950e-02 -1.410657912492752075e-01 -1.764813661575317383e-01 1.941951513290405273e-01 5.187007784843444824e-02 1.712046861648559570e-01 3.687407076358795166e-02 -1.451847255229949951e-01 -9.521147608757019043e-02 1.395265460014343262e-01 9.788065403699874878e-02 -2.347158035263419151e-03 -1.729421615600585938e-01 6.958819180727005005e-02 -1.006264910101890564e-01 4.035918414592742920e-02 -4.130948707461357117e-02 4.958511143922805786e-02 1.001190301030874252e-02 -6.616878788918256760e-03 1.839224100112915039e-01 4.466572031378746033e-02 -1.285817325115203857e-01 -6.763027608394622803e-02 -1.812634058296680450e-02 8.165144920349121094e-02 -1.082396283745765686e-01 -1.472709625959396362e-01 -2.249089768156409264e-03 -5.436569452285766602e-02 7.022985070943832397e-02 8.712770789861679077e-02 -9.987046569585800171e-02 -9.383336454629898071e-02 1.248698681592941284e-01 -1.791982203722000122e-01 -6.999845057725906372e-02 1.062507182359695435e-01 -6.516996026039123535e-02 6.441184133291244507e-02 1.113490015268325806e-01
-5.302746221423149109e-02 -1.424569040536880493e-01 1.484274864196777344e-01 -3.996592015027999878e-02 -7.287897914648056030e-02 5.804750695824623108e-02 -7.863111793994903564e-02 -8.591926097869873047e-02 -5.186853930354118347e-02 1.457709372043609619e-01 2.103501111268997192e-01 -1.020169109106063843e-01 9.043645858764648438e-02 9.340532124042510986e-02 4.904039204120635986e-02 -1.479610353708267212e-01 -1.126573681831359863e-01 -1.424378752708435059e-01 -1.753977388143539429e-01 1.384039670228958130e-01 -4.234240949153900146e-02 1.047796159982681274e-01 -7.009324431419372559e-02 -2.067936398088932037e-02 -5.320678651332855225e-02 1.084441691637039185e-01 3.795530647039413452e-02 -1.438173502683639526e-01 9.958323091268539429e-02 -3.043237514793872833e-02 3.866738826036453247e-02 8.061186224222183228e-02 -1.216541528701782227e-01 -9.520806372165679932e-02 -6.769295781850814819e-02 -9.221329540014266968e-02 1.815796196460723877e-01 1.629496514797210693e-01 2.552399784326553345e-02 4.578097537159919739e-02 -2.214914932847023010e-02 -1.326141227036714554e-02 -4.732783511281013489e-02 -2.360090613365173340e-02 8.317227661609649658e-02 8.600001037120819092e-02 -1.213767752051353455e-01 6.441802531480789185e-02 -8.540239185094833374e-02 -2.418938428163528442e-01 5.772695690393447876e-02 1.014964729547500610e-01 -1.218513995409011841e-01 1.006886884570121765e-01 5.510123074054718018e-02 1.594912707805633545e-01 -1.389055699110031128e-01 8.112171292304992676e-02 1.492387801408767700e-01 1.366001367568969727e-02 -1.420913040637969971e-01 5.720523744821548462e-02 -1.220825389027595520e-01 -1.558417230844497681e-01 2.752513810992240906e-02 -1.571025550365447998e-01 -9.794749319553375244e-02 1.675534993410110474e-01 -7.546567171812057495e-02 7.403060793876647949e-03 -5.343618243932723999e-02 2.513479068875312805e-02 2.223956398665904999e-02 1.005975902080535889e-02 1.146250590682029724e-01 -6.029054895043373108e-02 -1.398083269596099854e-01 -6.229901313781738281e-02 -1.394474357366561890e-01 -2.000777870416641235e-01 -1.545058488845825195e-01 -1.411952823400497437e-01 5.583175644278526306e-02 -7.192388921976089478e-02 1.329660266637802124e-01 -8.298455737531185150e-03 -2.025115936994552612e-01 3.667719662189483643e-02 -1.669665873050689697e-01 6.644531339406967163e-02 4.337775707244873047e-02 1.189662590622901917e-01 4.827420040965080261e-02 -1.849181950092315674e-01 -3.958000987768173218e-02 7.319866120815277100e-02 5.770623311400413513e-02 -2.002116888761520386e-01 1.065666899085044861e-01 1.374439746141433716e-01 -5.387085676193237305e-02 3.542295191437005997e-03 -1.409647762775421143e-01 5.709616467356681824e-03 6.341691315174102783e-02 7.189609110355377197e-02 -7.707808166742324829e-03 -5.872714519500732422e-02 -1.947045922279357910e-01 -4.736829921603202820e-02 -1.079567372798919678e-01 -1.139118969440460205e-01 -3.882609680294990540e-02 1.257814317941665649e-01 8.541095256805419922e-02 9.796764701604843140e-02 -2.081504315137863159e-01 -6.989773828536272049e-03 1.445664018392562866e-01 5.241011828184127808e-02 -1.725053787231445312e-01 7.839810103178024292e-02 5.749994516372680664e-02 -9.924475103616714478e-02 1.484309583902359009e-01 -1.000953465700149536e-01 -1.393041312694549561e-01 -7.993409410119056702e-03
-5.446796491742134094e-02 -9.194896370172500610e-02 -9.934225678443908691e-02 1.641943305730819702e-01 -1.564315557479858398e-01 -2.933313511312007904e-02 -1.509366482496261597e-01 1.888763532042503357e-02 1.995361149311065674e-01 8.518373221158981323e-02 -1.952924579381942749e-02 7.271884381771087646e-02 -1.507360637187957764e-01 1.520704329013824463e-01 -6.650053709745407104e-02 -2.463013082742691040e-01 1.358029544353485107e-01 -9.878665953874588013e-02 4.396964609622955322e-02 -2.706303447484970093e-02 -1.555518954992294312e-01 -9.053084999322891235e-02 9.799194335937500000e-02 -1.225152015686035156e-01 -1.058785170316696167e-01 1.229323521256446838e-01 1.463563889265060425e-01 8.841512352228164673e-02 6.678952835500240326e-03 -1.935202814638614655e-02 6.136346980929374695e-02 -9.168045967817306519e-02 5.320459231734275818e-02 1.412561833858489990e-01 -2.087918221950531006e-01 -1.299120783805847168e-01 4.737561102956533432e-03 -2.051598764955997467e-02 -2.048533856868743896e-01 -5.938486382365226746e-02 -1.195718348026275635e-01 -8.290536701679229736e-02 1.052103471010923386e-02 -7.694757729768753052e-02 9.636683017015457153e-02 8.250352740287780762e-02 1.100788563489913940e-01 -1.163182109594345093e-01 1.716125607490539551e-01 -1.374442279338836670e-01 1.733483374118804932e-01 -1.259547173976898193e-01 -1.063906680792570114e-02 -1.374443061649799347e-02 -6.472718715667724609e-02 -7.749228272587060928e-03 1.877875253558158875e-02 1.745437085628509521e-01 -1.253263652324676514e-01 -1.401913017034530640e-01 -1.291962414979934692e-01 -2.181213116273283958e-03 -1.534027755260467529e-01 1.844176501035690308e-01 2.278055064380168915e-02 -2.305721305310726166e-02 -3.410934284329414368e-02 -9.665269404649734497e-03 1.311465203762054443e-01 -1.646073907613754272e-01 -6.574919819831848145e-02 1.363040180876851082e-03 1.874922960996627808e-01 1.941222511231899261e-02 1.363396048545837402e-01 -1.284941732883453369e-01 7.778029888868331909e-02 -3.560332208871841431e-02 1.369108855724334717e-01 4.922616481781005859e-02 -1.006764918565750122e-01 1.033693328499794006e-01 -1.086670011281967163e-01 4.020476713776588440e-02 -1.287000924348831177e-01 -1.403889507055282593e-01 3.618312254548072815e-02 -1.366195827722549438e-01 -1.267865858972072601e-02 9.515729546546936035e-02 -6.535255908966064453e-02 1.071193721145391464e-02 8.514738827943801880e-02 -1.796265691518783569e-02 7.403223961591720581e-02 -3.973459824919700623e-02 -6.149942800402641296e-02 -5.575601756572723389e-02 2.345125749707221985e-02 -1.046609729528427124e-01 -5.059055984020233154e-02 7.062610983848571777e-02 -1.268745064735412598e-01 1.459975093603134155e-01 6.208361312747001648e-02 -4.701504856348037720e-02 7.799042761325836182e-02 -1.066951230168342590e-01 1.354645355604588985e-03 5.601349845528602600e-02 1.478593796491622925e-01 -8.490479737520217896e-02 5.354278907179832458e-02 -1.298743188381195068e-01 1.229797601699829102e-01 -7.184354215860366821e-02 -1.458839178085327148e-01 1.173869892954826355e-02 1.626814454793930054e-01 -6.978164613246917725e-02 -1.656468212604522705e-01 -2.674316801130771637e-02 -2.348948866128921509e-01 -7.064208388328552246e-02 -6.998886354267597198e-03 1.822410672903060913e-01 9.663957357406616211e-02 1.215058043599128723e-01
-7.045834511518478394e-02 7.507882267236709595e-02 -1.567876487970352173e-01 -1.241701841354370117e-01 -2.197831124067306519e-02 -1.147714704275131226e-01 -9.044785052537918091e-02 1.785843968391418457e-01 3.809834830462932587e-03 -1.696384847164154053e-01 8.410011976957321167e-02 1.381213814020156860e-01 -1.250310689210891724e-01 7.943794876337051392e-02 -1.541675627231597900e-01 -7.905416935682296753e-02 -1.040288358926773071e-01 3.116253297775983810e-03 6.238885223865509033e-02 1.033830195665359497e-01 -7.446632534265518188e-02 -8.703093975782394409e-02 -1.932848431169986725e-02 -1.756327748298645020e-01 2.185089699923992157e-02 4.951485618948936462e-02 -1.038577184081077576e-01 -1.372711956501007080e-01 -5.635991320013999939e-02 -9.789339452981948853e-02 5.289606004953384399e-02 5.265353992581367493e-02 -1.061159968376159668e-01 1.905749887228012085e-01 -6.791727989912033081e-02 -3.038805909454822540e-02 7.502424716949462891e-02 -1.703260093927383423e-01 -2.909548394381999969e-02 -7.822198420763015747e-02 9.649187326431274414e-02 1.296318918466567993e-01 6.612265110015869141e-02 -6.814630329608917236e-02 1.591721028089523315e-01 -1.800994575023651123e-01 1.138395294547080994e-01 1.591155827045440674e-01 5.134977400302886963e-02 -9.608481079339981079e-02 -7.626508176326751709e-02 -8.731301873922348022e-02 7.127707451581954956e-02 1.711638271808624268e-01 1.370742172002792358e-01 3.619376569986343384e-02 1.599001288414001465e-01 1.264877766370773315e-01 -6.520151346921920776e-02 4.091881215572357178e-02 -1.271776705980300903e-01 -7.076951116323471069e-02 -3.032398410141468048e-02 7.424300163984298706e-02 1.255594342947006226e-01 1.392143219709396362e-01 -7.950505614280700684e-02 1.128790080547332764e-01 -1.229859367012977600e-01 -1.084776818752288818e-01 1.581316441297531128e-01 5.478611961007118225e-02 5.763097479939460754e-02 -1.313178688287734985e-01 -1.229337379336357117e-01 1.564031541347503662e-01 7.109301537275314331e-02 1.099726855754852295e-01 -7.653588801622390747e-02 2.554669789969921112e-02 -5.441610515117645264e-02 3.192575648427009583e-02 9.666123986244201660e-02 -1.484636068344116211e-01 7.665819674730300903e-02 9.414190053939819336e-02 8.268572390079498291e-03 5.390666425228118896e-02 -1.141667068004608154e-01 -4.698926955461502075e-02 -1.066104788333177567e-02 1.078148260712623596e-01 -3.390400111675262451e-02 4.556867107748985291e-02 1.049941554665565491e-01 -1.055345311760902405e-01 1.099543571472167969e-01 1.401103436946868896e-01 -2.474835328757762909e-02 9.548088163137435913e-02 2.444653958082199097e-02 2.484510280191898346e-02 9.976687282323837280e-02 -5.993303656578063965e-02 -6.688660383224487305e-02 -1.064844578504562378e-01 5.932914093136787415e-03 -5.203344393521547318e-03 -1.155286878347396851e-01 1.264586150646209717e-01 -4.441902413964271545e-02 6.924057751893997192e-02 1.389539986848831177e-01 -1.215324774384498596e-01 -1.427468061447143555e-01 6.940457224845886230e-02 -5.923423171043395996e-02 -1.426247647032141685e-03 1.315315812826156616e-01 -2.772227488458156586e-02 -7.936001569032669067e-02 7.544319960288703442e-04 -6.402142345905303955e-02 2.849832549691200256e-02 -1.519504487514495850e-01 -1.401485204696655273e-01 1.075002327561378479e-01 -8.132521808147430420e-02
3.419095650315284729e-03 -1.364804953336715698e-01 6.244879961013793945e-02 -6.354870647192001343e-02 -2.160217612981796265e-02 7.743970304727554321e-02 -1.307001151144504547e-02 3.038150817155838013e-02 -2.130049318075180054e-01 -4.882584512233734131e-02 1.905880123376846313e-02 -5.592930756392888725e-05 1.312658488750457764e-01 9.097624570131301880e-02 5.536415427923202515e-02 -6.521113216876983643e-03 -1.066483706235885620e-01 -1.360108107328414917e-01 -1.608440130949020386e-01 1.803059577941894531e-01 1.229050606489181519e-01 -1.601229757070541382e-01 -1.773931235074996948e-01 -1.809703558683395386e-02 7.017939537763595581e-02 -1.120227500796318054e-01 1.478887796401977539e-01 2.525099366903305054e-02 -1.302132308483123779e-01 -4.308554157614707947e-02 8.279436081647872925e-02 5.878707021474838257e-02 1.685605645179748535e-01 -4.163451865315437317e-02 3.795641288161277771e-02 -6.748012453317642212e-02 -2.319732904434204102e-01 -4.102338477969169617e-02 -1.765529997646808624e-02 -6.314947456121444702e-02 1.211186870932579041e-01 1.289210617542266846e-01 -1.770876497030258179e-01 1.475301086902618408e-01 -8.645849674940109253e-02 -4.900343343615531921e-02 -9.280880540609359741e-02 1.333165019750595093e-01 -8.773807436227798462e-02 -3.314178436994552612e-02 -4.147596284747123718e-02 -1.357667744159698486e-01 -7.756568491458892822e-02 -1.001131013035774231e-01 -4.175540059804916382e-02 -1.586083173751831055e-01 7.854681462049484253e-02 -1.549711376428604126e-01 2.009346634149551392e-01 1.320061534643173218e-01 -1.097340583801269531e-01 1.347621530294418335e-01 -6.248479336500167847e-02 1.143513992428779602e-02 1.194686964154243469e-01 -7.983466982841491699e-02 8.819677680730819702e-02 7.298821210861206055e-02 -1.476224660873413086e-01 5.297965928912162781e-02 -1.767441332340240479e-01 -3.743299096822738647e-02 2.637761458754539490e-02 -4.410357773303985596e-02 2.626260742545127869e-02 2.278404310345649719e-02 -1.285634040832519531e-01 -1.000322327017784119e-01 -1.304295361042022705e-01 -5.409368500113487244e-02 7.714299112558364868e-02 6.912636756896972656e-02 1.280187219381332397e-01 1.467520594596862793e-01 8.480636030435562134e-02 -7.321420311927795410e-02 -1.376453228294849396e-02 -6.061311438679695129e-02 9.354636818170547485e-02 5.225991085171699524e-02 1.843290328979492188e-01 -1.213504895567893982e-01 -4.400862380862236023e-02 -7.612302433699369431e-03 1.676956564188003540e-02 1.003021150827407837e-01 8.563994616270065308e-02 -1.970735378563404083e-02 1.909684389829635620e-01 -7.341488450765609741e-02 5.979863926768302917e-02 1.404317319393157959e-01 -5.022698640823364258e-02 -2.192570716142654419e-01 -1.515644192695617676e-01 -1.256345510482788086e-01 1.010313257575035095e-01 -3.938260301947593689e-02 -1.072468534111976624e-01 -1.229352429509162903e-01 -1.231516618281602859e-02 -4.842701554298400879e-02 -1.108674257993698120e-01 -1.276296973228454590e-01 5.538190528750419617e-02 -1.001179963350296021e-02 7.092141360044479370e-02 -1.358593553304672241e-01 1.167173981666564941e-01 -1.402253210544586182e-01 -5.966448411345481873e-02 4.508855938911437988e-02 -6.276777386665344238e-02 2.212523370981216431e-01 1.751504242420196533e-01 -1.879449635744094849e-01 -5.751935392618179321e-02 -5.108869448304176331e-02
5.506822094321250916e-02 1.378904432058334351e-01 -9.581868350505828857e-02 -1.062023937702178955e-01 -1.633546799421310425e-01 5.236160010099411011e-02 -5.520230531692504883e-02 -1.628860831260681152e-01 -9.183814376592636108e-02 1.094658076763153076e-01 1.277475059032440186e-01 -1.118193343281745911e-01 9.081675112247467041e-02 5.374210700392723083e-02 4.348725825548171997e-02 1.367945075035095215e-01 -1.179770529270172119e-01 1.083820611238479614e-01 1.037306934595108032e-01 -1.451768428087234497e-01 -1.654663681983947754e-01 4.047648608684539795e-02 9.790668636560440063e-02 1.002028957009315491e-01 -1.345785707235336304e-01 -1.454189866781234741e-01 2.069889605045318604e-01 2.487410232424736023e-02 -1.167272999882698059e-01 9.611603617668151855e-02 1.041326969861984253e-01 -8.716600015759468079e-03 1.695223301649093628e-01 -9.015315771102905273e-02 9.481278248131275177e-03 1.767952227964997292e-03 4.792761430144309998e-02 -1.657430641353130341e-02 -1.629197001457214355e-01 -1.383803337812423706e-01 1.169121637940406799e-01 4.406218975782394409e-02 -1.322955191135406494e-01 -1.287712156772613525e-01 6.806489825248718262e-02 1.205805465579032898e-01 7.154854387044906616e-02 1.228687912225723267e-01 5.791485682129859924e-02 2.212700620293617249e-02 6.234969571232795715e-02 1.557551473379135132e-01 -3.121142834424972534e-02 -1.003319919109344482e-01 1.804821193218231201e-02 -1.050872504711151123e-01 -1.450780183076858521e-01 -7.588453590869903564e-02 -1.696946285665035248e-02 -1.391782760620117188e-01 -1.529241949319839478e-01 1.024508774280548096e-01 5.228906124830245972e-02 9.421934932470321655e-02 -1.124613657593727112e-01 -8.600242435932159424e-02 -1.123765707015991211e-01 -4.986297339200973511e-02 -3.509864583611488342e-02 -4.956001788377761841e-02 1.870833453722298145e-03 1.592572778463363647e-01 -1.833220571279525757e-01 -2.562621608376502991e-02 -1.663258522748947144e-01 -1.606332510709762573e-02 -8.604209125041961670e-02 -9.753778576850891113e-02 -1.611777096986770630e-01 -1.749640144407749176e-02 7.338126003742218018e-02 8.545614033937454224e-02 1.355970948934555054e-01 1.034800708293914795e-01 -3.166976571083068848e-02 7.566370815038681030e-02 2.536920085549354553e-02 1.958608441054821014e-02 1.403936594724655151e-01 -9.496198594570159912e-02 -6.624405831098556519e-02 -1.375854462385177612e-01 -9.343685954809188843e-02 9.268134087324142456e-02 7.492846995592117310e-02 3.945619985461235046e-02 5.116575211286544800e-02 5.076578259468078613e-02 -1.052086278796195984e-01 7.187109440565109253e-02 -1.277190744876861572e-01 1.519804149866104126e-01 -1.115619018673896790e-01 1.286748200654983521e-01 2.301570773124694824e-02 -4.402442276477813721e-02 -1.179237291216850281e-01 1.740827411413192749e-01 -2.775371633470058441e-02 -1.418709158897399902e-01 2.262974716722965240e-02 -2.958853170275688171e-02 -1.081897062249481678e-03 -8.466231077909469604e-02 9.532157331705093384e-02 -1.110860481858253479e-01 6.398710422217845917e-03 1.992598921060562134e-01 1.197698041796684265e-01 3.613221272826194763e-02 8.710253238677978516e-02 1.785545796155929565e-01 8.790031820535659790e-02 7.205563783645629883e-02 -1.094013974070549011e-01 1.508898884057998657e-01 -4.891123622655868530e-02 -1.810934841632843018e-01
1.750960201025009155e-01 -1.584245860576629639e-01 1.180674061179161072e-01 -9.089054912328720093e-02 -1.306110322475433350e-01 -1.463746428489685059e-01 4.692034423351287842e-02 4.100625589489936829e-02 1.025065407156944275e-01 4.649271816015243530e-02 -3.130967542529106140e-02 -1.839451491832733154e-01 1.315913535654544830e-02 -8.078423142433166504e-02 1.293455511331558228e-01 -4.411610215902328491e-02 -8.273596316576004028e-02 -5.928219854831695557e-02 2.087951451539993286e-02 1.263260245323181152e-01 6.939669698476791382e-02 1.613925695419311523e-01 -5.326231941580772400e-02 1.570987999439239502e-01 1.383583098649978638e-01 -8.805546909570693970e-02 6.670149043202400208e-03 9.373869746923446655e-02 -1.188861876726150513e-01 1.188300326466560364e-01 -1.138379946351051331e-01 -1.315211206674575806e-01 2.977427840232849121e-02 9.927947819232940674e-02 8.171582221984863281e-02 -1.408649533987045288e-01 -2.514903247356414795e-01 -3.824358060956001282e-02 -5.961352214217185974e-02 1.117118000984191895e-01 9.860243648290634155e-02 -9.274644777178764343e-03 -1.707196086645126343e-01 2.624697238206863403e-02 1.692978665232658386e-02 1.831896044313907623e-02 1.178350076079368591e-01 -2.853756025433540344e-02 -1.571656577289104462e-02 -2.698376215994358063e-02 3.654699027538299561e-02 -1.338509619235992432e-01 9.048129618167877197e-02 1.032501980662345886e-01 1.465833093971014023e-02 9.188628196716308594e-02 3.233691304922103882e-02 1.687464267015457153e-01 -3.372645750641822815e-02 6.912028044462203979e-02 1.677990853786468506e-01 1.763545572757720947e-01 6.447526812553405762e-02 6.353857368230819702e-02 -2.804060839116573334e-02 5.513115227222442627e-02 2.799209766089916229e-02 4.136074706912040710e-02 -5.281220003962516785e-02 8.060689270496368408e-02 -4.805644042789936066e-03 4.447068274021148682e-02 2.013616561889648438e-01 9.832116216421127319e-02 -4.051872994750738144e-03 4.290541633963584900e-02 -1.244082152843475342e-01 -1.900742202997207642e-01 -5.401827767491340637e-02 -9.137869626283645630e-02 -8.517841924913227558e-04 -1.043086405843496323e-03 1.594833582639694214e-01 -5.923139676451683044e-02 1.357548087835311890e-01 1.289212852716445923e-01 1.137924846261739731e-02 8.275230973958969116e-02 6.923166220076382160e-04 7.937259972095489502e-02 -1.834056973457336426e-01 -1.709935069084167480e-01 -7.158841937780380249e-02 1.020954325795173645e-01 5.501231178641319275e-02 1.123043894767761230e-01 -8.031804114580154419e-02 -6.378827244043350220e-02 7.142682373523712158e-02 -3.991509228944778442e-02 -2.935183420777320862e-02 1.824097186326980591e-01 7.397015392780303955e-02 4.903933033347129822e-02 2.700777538120746613e-02 1.805079728364944458e-01 -1.312581002712249756e-01 5.777173861861228943e-02 -7.864982634782791138e-02 -1.888880431652069092e-01 -1.299701631069183350e-02 1.642392426729202271e-01 -1.827069936553016305e-04 1.109561622142791748e-01 1.669394373893737793e-01 -6.511044502258300781e-02 1.198194548487663269e-01 2.472271397709846497e-02 4.405421670526266098e-03 -2.709486708045005798e-02 1.348079442977905273e-01 7.833603024482727051e-02 8.948300033807754517e-02 -7.787541300058364868e-02 5.985966324806213379e-02 -9.158698469400405884e-02 -4.077763482928276062e-02 -9.389679878950119019e-03
-1.375326216220855713e-01 -1.898971758782863617e-02 1.421952694654464722e-01 -1.005318909883499146e-01 1.157927513122558594e-01 -1.648280769586563110e-01 -1.249579563736915588e-01 1.002288758754730225e-01 3.451818600296974182e-02 -2.525681443512439728e-02 -1.280493736267089844e-01 1.237532198429107666e-01 1.240645423531532288e-01 -7.796029001474380493e-02 -1.411530226469039917e-01 9.537120908498764038e-02 5.031255632638931274e-02 -1.810505092144012451e-01 -1.260473728179931641e-01 -7.849851623177528381e-03 -1.273518428206443787e-02 2.226272597908973694e-02 -1.582382768392562866e-01 1.114048063755035400e-01 8.516331017017364502e-02 2.229258045554161072e-02 -6.133780255913734436e-02 -1.647288724780082703e-02 1.017400473356246948e-01 1.333376318216323853e-01 -5.995856598019599915e-02 1.392565816640853882e-01 -6.707721203565597534e-02 1.060662940144538879e-01 -2.165577560663223267e-01 -1.385393291711807251e-01 1.292893141508102417e-01 -1.482334434986114502e-01 -2.136251926422119141e-01 7.310864329338073730e-02 1.902659386396408081e-01 1.959645003080368042e-02 1.481015384197235107e-01 -8.658099919557571411e-02 3.544201701879501343e-02 1.091691851615905762e-02 1.278343051671981812e-01 -5.837012827396392822e-02 1.664945036172866821e-01 -9.746009111404418945e-02 2.780975773930549622e-02 6.028008833527565002e-02 2.973885647952556610e-02 4.405808169394731522e-03 -1.779001206159591675e-01 -5.627406761050224304e-02 8.500140905380249023e-02 -9.602031856775283813e-02 1.603586077690124512e-01 -2.027003467082977295e-01 1.144289076328277588e-01 -1.662260107696056366e-02 1.276763677597045898e-01 5.637348443269729614e-02 -8.534303307533264160e-02 -5.922991409897804260e-02 -5.314101651310920715e-02 1.580988317728042603e-01 1.779290288686752319e-01 1.305585652589797974e-01 -1.816881150007247925e-01 -1.600011736154556274e-01 -1.139552518725395203e-01 3.922352194786071777e-02 -1.117982417345046997e-01 -1.955404132604598999e-01 -1.152248121798038483e-02 -5.537508055567741394e-02 1.733700335025787354e-01 8.153415471315383911e-02 7.750722020864486694e-02 3.916490077972412109e-02 1.573540866374969482e-01 4.999995976686477661e-02 -1.441979259252548218e-01 6.306190788745880127e-02 -1.698792874813079834e-01 1.021527871489524841e-01 6.298179179430007935e-02 1.023668199777603149e-01 2.879613637924194336e-02 -4.032239783555269241e-03 -7.730888202786445618e-03 -2.066479772329330444e-01 1.075526624917984009e-01 -1.321524083614349365e-01 -1.829725652933120728e-01 6.810401380062103271e-02 -1.263918727636337280e-01 5.076027289032936096e-02 -2.068320810794830322e-01 6.426267325878143311e-02 1.708937883377075195e-01 8.025748282670974731e-02 1.448959112167358398e-01 -1.767039000988006592e-01 1.167741119861602783e-01 1.809494346380233765e-01 -1.762834563851356506e-02 1.455780565738677979e-01 1.009609028697013855e-01 -1.497132182121276855e-01 -1.180763319134712219e-01 -8.170526474714279175e-02 -8.438556641340255737e-02 -9.710747748613357544e-02 -5.214137583971023560e-02 1.600702852010726929e-01 -9.671636670827865601e-02 5.787214264273643494e-02 8.376361429691314697e-02 3.319947049021720886e-02 -1.657297909259796143e-01 -1.756775528192520142e-01 9.177963249385356903e-03 8.561003953218460083e-02 1.616323143243789673e-01 -1.957333981990814209e-01
-1.798025220632553101e-01 2.010065615177154541e-01 -1.238505239598453045e-03 3.469218313694000244e-02 -1.527466252446174622e-02 -6.975393742322921753e-02 -1.641259193420410156e-01 8.075380697846412659e-03 -1.239650547504425049e-01 -1.059742644429206848e-01 -3.049265593290328979e-02 1.444272696971893311e-01 1.367955952882766724e-01 -3.669295087456703186e-02 1.171480715274810791e-01 -7.286071032285690308e-02 -7.219515740871429443e-02 -9.640280157327651978e-03 -1.536455005407333374e-01 1.266469946131110191e-03 -1.587626039981842041e-01 1.685138046741485596e-02 -1.069343462586402893e-01 -9.807177633047103882e-02 -1.125866100192070007e-01 -1.118378862738609314e-01 -4.505291953682899475e-02 4.155236855149269104e-02 1.270554214715957642e-02 1.179381087422370911e-01 -5.369867011904716492e-02 -1.692221611738204956e-01 -1.906074434518814087e-01 -2.758424542844295502e-02 3.158405423164367676e-02 1.375327259302139282e-01 -7.281036674976348877e-02 -1.986072063446044922e-01 -8.202210068702697754e-02 -1.108682900667190552e-01 -9.814842045307159424e-02 1.083647757768630981e-01 1.290579885244369507e-01 -1.614566892385482788e-01 1.325232237577438354e-01 9.022822231054306030e-02 -3.129156306385993958e-02 -8.216348290443420410e-02 -7.283919304609298706e-02 7.853258401155471802e-02 1.400748938322067261e-01 -1.485903561115264893e-01 -9.836040437221527100e-02 -7.778278738260269165e-02 -1.488509923219680786e-01 -1.508451104164123535e-01 -1.415163278579711914e-01 -4.885104298591613770e-02 1.393163651227951050e-01 8.838198333978652954e-02 -8.562196791172027588e-02 -9.575327858328819275e-04 1.581656164489686489e-03 3.567924723029136658e-02 -8.178889006376266479e-02 -1.798804551362991333e-01 2.277314290404319763e-02 -4.290385171771049500e-02 -4.992236569523811340e-02 -1.466894298791885376e-01 -2.355606295168399811e-02 -1.078501790761947632e-01 4.442638158798217773e-02 -1.413088440895080566e-01 2.276641316711902618e-02 7.004790753126144409e-02 -6.674194335937500000e-02 1.686993055045604706e-02 -4.251551255583763123e-02 -1.719055175781250000e-01 -5.266903340816497803e-02 4.826941713690757751e-02 -1.133379191160202026e-01 3.640974871814250946e-03 9.147501736879348755e-02 1.531405001878738403e-01 -2.535057812929153442e-02 5.047032609581947327e-02 -1.041407436132431030e-01 -1.943693608045578003e-01 4.462846741080284119e-02 8.438517898321151733e-02 3.718577325344085693e-02 -1.575589994899928570e-03 9.838034957647323608e-02 2.059140950441360474e-01 4.751459509134292603e-02 -1.484951078891754150e-01 6.197193264961242676e-02 -9.316348284482955933e-02 5.865995958447456360e-02 -1.586667597293853760e-01 6.853491067886352539e-03 -2.430646121501922607e-02 1.638800092041492462e-02 1.895474083721637726e-02 -8.660297095775604248e-02 -1.096636950969696045e-01 6.161407008767127991e-02 -1.051549166440963745e-01 1.131587252020835876e-01 -1.212330814450979233e-02 5.790594965219497681e-02 6.178602203726768494e-02 8.468196541070938110e-02 -1.431316789239645004e-02 1.151993945240974426e-01 -1.150132864713668823e-01 -3.242243826389312744e-02 5.136257037520408630e-02 -2.121797064319252968e-03 1.594160795211791992e-01 -1.672027111053466797e-01 1.419668197631835938e-01 -1.834190078079700470e-02 -1.340503692626953125e-01 6.053806841373443604e-02 2.288878336548805237e-02
1.291651092469692230e-02 1.148961260914802551e-01 -8.274189196527004242e-03 9.472601860761642456e-02 -1.851718574762344360e-01 1.196028757840394974e-02 2.289781123399734497e-01 -9.239889681339263916e-02 8.272850513458251953e-02 -6.038055196404457092e-02 -1.491512805223464966e-01 -9.803162515163421631e-02 -1.661860048770904541e-01 -1.730963289737701416e-01 -1.365724951028823853e-02 9.980231523513793945e-02 1.623392663896083832e-02 7.638012617826461792e-02 -8.040616661310195923e-02 4.900216311216354370e-02 -1.007785648107528687e-01 1.081648543477058411e-01 8.991341292858123779e-02 -7.451868802309036255e-02 8.254263550043106079e-02 1.602199673652648926e-01 -3.277272218838334084e-03 4.287514090538024902e-02 -1.309282481670379639e-01 1.340613216161727905e-01 9.369736909866333008e-02 5.307212844491004944e-02 1.140658333897590637e-01 -1.452158242464065552e-01 6.450226157903671265e-02 5.452658608555793762e-02 -1.065625250339508057e-01 1.025410071015357971e-01 1.104046776890754700e-01 -4.693564772605895996e-02 -4.614961147308349609e-02 -1.887067556381225586e-01 -1.213680431246757507e-01 -6.422252207994461060e-02 1.123862564563751221e-01 -1.129835173487663269e-01 -9.980235993862152100e-02 -9.048463404178619385e-02 -1.456473320722579956e-01 5.884292349219322205e-02 1.415373664349317551e-02 -3.067584335803985596e-02 1.496043950319290161e-01 -3.985128551721572876e-02 -1.015108972787857056e-01 1.526537686586380005e-01 -9.234075993299484253e-02 -6.162841618061065674e-02 -1.080045178532600403e-01 -1.631371229887008667e-01 -1.608368158340454102e-01 5.485098063945770264e-02 -1.216975152492523193e-01 3.366901725530624390e-02 -1.453737914562225342e-01 -2.796226553618907928e-02 4.084376990795135498e-02 1.757360696792602539e-01 -2.626430802047252655e-02 -1.041337400674819946e-01 -2.412435365840792656e-03 1.819752007722854614e-01 1.944438666105270386e-01 -1.506265699863433838e-01 9.205896407365798950e-02 -1.366038024425506592e-01 2.228744793683290482e-03 5.809683725237846375e-02 -2.407587878406047821e-02 8.386322855949401855e-02 4.760074242949485779e-02 -6.285200268030166626e-02 -8.452940732240676880e-02 4.255703464150428772e-02 -8.892221003770828247e-02 -2.223475724458694458e-01 2.006351798772811890e-01 1.198847144842147827e-01 1.408948600292205811e-01 4.208467900753021240e-02 1.073567196726799011e-01 -1.677520573139190674e-01 -4.545171186327934265e-02 6.804756820201873779e-03 -1.180030405521392822e-01 -1.154136061668395996e-01 -2.714754827320575714e-02 6.174506247043609619e-02 -2.188509516417980194e-02 2.544749528169631958e-02 7.734615355730056763e-02 1.804303973913192749e-01 -1.629659086465835571e-01 -5.059832334518432617e-02 5.784062668681144714e-02 7.879680395126342773e-02 -1.606661640107631683e-02 4.115457460284233093e-02 -1.372219435870647430e-02 -1.131955981254577637e-01 3.007058985531330109e-02 -1.956896036863327026e-01 -4.272224009037017822e-02 1.940550096333026886e-02 5.257878918200731277e-03 -1.365243941545486450e-01 -6.633614748716354370e-02 -1.582107245922088623e-01 6.258775293827056885e-02 -1.020035520195960999e-01 -9.293754398822784424e-02 -1.274352967739105225e-01 9.164169430732727051e-02 6.046096235513687134e-02 9.674307703971862793e-02 -5.000996217131614685e-02 -1.027213707566261292e-01 4.905556887388229370e-02
2.150535285472869873e-01 1.376100000925362110e-03 -1.630643755197525024e-01 -1.106038317084312439e-01 6.529269367456436157e-02 1.277146488428115845e-01 -7.796651124954223633e-02 1.149180904030799866e-01 -3.480268642306327820e-02 2.944890223443508148e-02 1.666421294212341309e-01 -1.838221698999404907e-01 -1.370563507080078125e-01 -4.626642540097236633e-02 -8.316976577043533325e-02 -1.081659346818923950e-01 9.462287998758256435e-04 3.532289713621139526e-02 1.144449412822723389e-01 -1.516860872507095337e-01 -9.714800864458084106e-02 -9.717019647359848022e-02 -9.727801382541656494e-02 -3.670951118692755699e-03 -1.443177163600921631e-01 -1.493511497974395752e-01 -1.600427478551864624e-01 5.738299712538719177e-02 -9.695992618799209595e-02 -6.169708073139190674e-02 6.627058237791061401e-02 -1.107139587402343750e-01 -9.731429070234298706e-02 2.036702483892440796e-01 3.371125459671020508e-02 6.784678250551223755e-02 6.886656582355499268e-02 1.167034953832626343e-01 1.273763626813888550e-01 1.052993834018707275e-01 7.105036824941635132e-02 8.188826590776443481e-02 2.413616888225078583e-02 -2.261123619973659515e-02 -4.334178753197193146e-03 1.688096970319747925e-01 -1.517520546913146973e-01 -4.553605243563652039e-02 4.055864643305540085e-03 7.959381490945816040e-02 1.410125792026519775e-01 -1.248641759157180786e-01 3.744179755449295044e-02 1.047924384474754333e-01 4.050337895750999451e-02 -1.200747787952423096e-01 -2.374324249103665352e-03 1.372715383768081665e-01 -1.885576993227005005e-01 -1.367576867341995239e-01 1.195732206106185913e-01 1.007781475782394409e-01 -7.892090082168579102e-02 3.712732717394828796e-02 7.087611407041549683e-02 -1.244879812002182007e-01 9.577605873346328735e-02 1.859259456396102905e-01 -1.177433282136917114e-01 9.522649645805358887e-02 -7.156287878751754761e-02 -7.015258818864822388e-02 -1.679439246654510498e-01 -2.111345529556274414e-01 8.880689740180969238e-02 -7.879041135311126709e-02 8.026904612779617310e-02 -1.021654754877090454e-01 -6.553022563457489014e-02 1.585359126329421997e-01 1.418438553810119629e-01 -3.071871586143970490e-03 -1.091598197817802429e-01 2.007721550762653351e-02 -3.746297582983970642e-02 1.158849820494651794e-01 4.513049032539129257e-03 4.431077092885971069e-02 3.832877799868583679e-02 -1.501589417457580566e-01 9.276024997234344482e-02 -1.330626606941223145e-01 -1.299956291913986206e-01 1.281159520149230957e-01 1.955157369375228882e-01 -1.215644329786300659e-01 -1.502258926630020142e-01 -8.761264383792877197e-02 1.771216839551925659e-01 -2.033823728561401367e-01 6.496810913085937500e-02 -1.438962072134017944e-01 -6.794134527444839478e-02 -2.979222312569618225e-02 3.539999574422836304e-02 1.877794624306261539e-03 -1.952247172594070435e-01 1.290994435548782349e-01 -3.308236598968505859e-02 -1.316690891981124878e-01 -6.727170944213867188e-02 4.473222419619560242e-02 -1.190941110253334045e-01 -1.283581256866455078e-01 3.721610084176063538e-02 -1.496906578540802002e-02 -1.593798249959945679e-01 -1.054106354713439941e-01 1.046526730060577393e-01 1.185853853821754456e-01 4.133284464478492737e-02 -1.495444476604461670e-01 2.725536748766899109e-02 2.878277935087680817e-02 -1.118824258446693420e-01 -5.670337006449699402e-02 1.930895596742630005e-01 1.016665697097778320e-01
