-4.339575469493865967e-01 -1.343919187784194946e-01 -1.437565237283706665e-01 1.121062114834785461e-01
6.350405514240264893e-02 -2.273582369089126587e-01 -3.288523256778717041e-01 -3.984003067016601562e-01
-3.566867113113403320e-01 -1.176364868879318237e-01 -1.637897938489913940e-01 -1.369147151708602905e-01
3.213258683681488037e-01 1.608665138483047485e-01 3.224565684795379639e-01 -3.538420796394348145e-01
1.329416930675506592e-01 1.113332458771765232e-03 -1.258906126022338867e-01 -4.190590381622314453e-01
-3.068920969963073730e-01 -2.392017096281051636e-02 -3.443532884120941162e-01 7.015886902809143066e-02
1.037150025367736816e-01 3.585310578346252441e-01 9.183836728334426880e-02 2.898522317409515381e-01
-1.925809383392333984e-01 5.512537062168121338e-02 -2.416894286870956421e-01 2.203607112169265747e-01
-2.737399637699127197e-01 7.007712125778198242e-02 -3.553322851657867432e-01 -3.079535961151123047e-01
-3.520344793796539307e-01 2.985922992229461670e-02 -5.126630067825317383e-01 6.179156899452209473e-02
3.188214004039764404e-01 2.383699268102645874e-01 -7.715708110481500626e-03 2.042603045701980591e-01
-1.666708290576934814e-01 4.860974848270416260e-02 -1.948461532592773438e-01 -2.535520195960998535e-01
4.260749816894531250e-01 1.018679961562156677e-01 4.182797670364379883e-01 2.508758306503295898e-01
4.184993803501129150e-01 4.661431908607482910e-01 7.166662067174911499e-02 -2.491084635257720947e-01
-4.034895300865173340e-01 1.189150195568799973e-02 1.163425482809543610e-02 3.859571814537048340e-01
1.794816851615905762e-01 1.421649456024169922e-01 -2.445989698171615601e-01 -9.685165248811244965e-03
-2.292210906744003296e-01 -3.348721265792846680e-01 -3.580470979213714600e-01 -2.553761899471282959e-01
-1.875621825456619263e-01 -3.832384943962097168e-01 1.948985457420349121e-01 -2.288403548300266266e-02
-3.608901202678680420e-01 3.248080611228942871e-01 -3.456029891967773438e-01 3.086513876914978027e-01
-5.145840719342231750e-02 9.514516592025756836e-02 2.015362381935119629e-01 3.872035443782806396e-01
-1.169727370142936707e-01 -1.405127495527267456e-01 2.194725871086120605e-01 -1.862547397613525391e-01
-1.393069028854370117e-01 2.775377333164215088e-01 2.603574190288782120e-03 -1.121590752154588699e-02
3.641811013221740723e-01 3.010532557964324951e-01 2.470454126596450806e-01 1.999525278806686401e-01
8.237580209970474243e-02 5.768122524023056030e-02 3.779666125774383545e-01 -2.846248745918273926e-01
2.738706171512603760e-01 3.434488177299499512e-01 8.690852671861648560e-02 -2.971949279308319092e-01
4.981044679880142212e-02 1.386807858943939209e-01 -3.396381735801696777e-01 1.229145675897598267e-01
-1.091705486178398132e-01 3.034349083900451660e-01 -3.106463551521301270e-01 3.124496638774871826e-01
-3.174569606781005859e-01 -8.691241592168807983e-02 -3.046295344829559326e-01 -2.586996853351593018e-01
-2.990460693836212158e-01 -2.810890972614288330e-01 -4.035955667495727539e-01 2.045290321111679077e-01
4.078151285648345947e-02 4.995583090931177139e-03 -3.628389239311218262e-01 -1.797122508287429810e-01
-2.464252114295959473e-01 -3.948891460895538330e-01 -1.873554885387420654e-01 -2.917287051677703857e-01
-1.609677672386169434e-01 -2.200167477130889893e-01 1.378592550754547119e-01 3.294051587581634521e-01
