-1.177522838115692139e-01
8.182241767644882202e-02
6.183238700032234192e-02
9.766673296689987183e-02
-5.300761759281158447e-02
1.607281155884265900e-02
9.912627190351486206e-02
6.361427158117294312e-02
8.823998272418975830e-02
8.880621194839477539e-02
7.471074163913726807e-02
-1.053882464766502380e-01
8.673857152462005615e-02
4.198393225669860840e-02
1.236984282732009888e-01
1.317344307899475098e-01
6.994319707155227661e-02
1.328329741954803467e-01
6.260451674461364746e-02
7.151082158088684082e-02
7.413842529058456421e-02
7.454705983400344849e-02
1.242344230413436890e-01
2.488605491816997528e-02
3.446612879633903503e-02
8.723177015781402588e-02
-4.687073454260826111e-02
-7.197268307209014893e-02
8.214794099330902100e-02
6.670126691460609436e-03
6.449545174837112427e-02
7.549235224723815918e-02
7.801099121570587158e-02
7.399109750986099243e-02
4.171659052371978760e-02
5.885794013738632202e-02
-1.042908206582069397e-01
-3.177934139966964722e-02
4.323860257863998413e-02
7.350846379995346069e-02
-2.943295612931251526e-02
2.926225401461124420e-02
3.145962581038475037e-02
-1.135493144392967224e-01
1.094991993159055710e-02
7.838746905326843262e-02
9.301949292421340942e-02
-1.716951280832290649e-02
-2.452528662979602814e-02
6.398039986379444599e-04
-5.067020654678344727e-03
6.887045502662658691e-02
8.075634390115737915e-02
3.041718713939189911e-02
-2.668055519461631775e-02
1.007053405046463013e-01
7.449508458375930786e-02
8.663005381822586060e-02
8.026069402694702148e-02
-5.339972302317619324e-02
1.133970320224761963e-01
-2.147262915968894958e-02
6.186931580305099487e-02
3.497866168618202209e-02
