0.000000000000000000e+00 5.212048292160034180e-01 3.539916276931762695e-01 -3.028261363506317139e-01
-4.867169857025146484e-01 4.644752442836761475e-01 3.866484761238098145e-01 1.508341729640960693e-01
2.062725275754928589e-01 -4.201660677790641785e-02 -0.000000000000000000e+00 3.488550782203674316e-01
3.697505295276641846e-01 5.331332683563232422e-01 -3.977476954460144043e-01 1.448009759187698364e-01
-1.335525959730148315e-01 5.700865387916564941e-01 1.851270943880081177e-01 -2.767832279205322266e-01
-0.000000000000000000e+00 1.770808547735214233e-01 2.814403772354125977e-01 8.761352300643920898e-02
0.000000000000000000e+00 -0.000000000000000000e+00 -0.000000000000000000e+00 -4.884339123964309692e-02
-1.986474245786666870e-01 7.341709733009338379e-02 2.576321065425872803e-01 -0.000000000000000000e+00
-4.468951225280761719e-01 3.109560608863830566e-01 -0.000000000000000000e+00 -0.000000000000000000e+00
-1.891147494316101074e-01 -3.952892422676086426e-01 -4.296880662441253662e-01 1.797100454568862915e-01
3.378151357173919678e-01 4.368917346000671387e-01 -0.000000000000000000e+00 -0.000000000000000000e+00
3.215654194355010986e-01 -2.513686418533325195e-01 4.619091153144836426e-01 5.926395654678344727e-01
6.006537079811096191e-01 -2.694743871688842773e-01 0.000000000000000000e+00 3.945620954036712646e-01
3.703267276287078857e-01 0.000000000000000000e+00 -0.000000000000000000e+00 -3.813994824886322021e-01
1.028161346912384033e-01 4.518538117408752441e-01 -2.576839923858642578e-01 -5.065989494323730469e-01
-4.711803495883941650e-01 5.767114758491516113e-01 -3.926436603069305420e-01 -2.109921127557754517e-01
