5.654625222086906433e-02
6.066284328699111938e-02
6.570895016193389893e-02
-4.210766777396202087e-02
-2.878051251173019409e-03
6.270020455121994019e-02
1.513088308274745941e-02
6.118033826351165771e-02
-3.855943679809570312e-02
7.859755307435989380e-02
2.901429496705532074e-02
-1.853886246681213379e-02
2.974152006208896637e-02
4.353540763258934021e-02
8.833654224872589111e-02
6.096508726477622986e-02
6.153911352157592773e-02
9.250895678997039795e-02
5.258557945489883423e-02
6.732828915119171143e-02
6.189065426588058472e-02
5.561903864145278931e-02
7.211203873157501221e-02
6.262404471635818481e-02
-2.866525948047637939e-02
5.040223523974418640e-02
-7.641110569238662720e-02
1.370050851255655289e-02
2.315339818596839905e-02
6.429520994424819946e-02
-2.720877341926097870e-02
7.554367184638977051e-03
4.675259441137313843e-02
6.832792609930038452e-02
6.973981112241744995e-02
-1.569293253123760223e-02
4.780545830726623535e-02
5.787412822246551514e-02
9.358031302690505981e-02
8.144606649875640869e-02
1.920663751661777496e-02
6.299080699682235718e-02
7.387149333953857422e-02
-5.287697911262512207e-02
4.632586240768432617e-02
-1.264056045329198241e-04
4.344194009900093079e-02
3.671082481741905212e-02
3.264347836375236511e-02
-2.473584935069084167e-02
6.887626647949218750e-02
-2.730498462915420532e-02
5.899734795093536377e-02
2.633588202297687531e-02
-3.251606971025466919e-02
7.427479326725006104e-02
2.515597455203533173e-02
5.803489685058593750e-02
6.056850776076316833e-02
6.702682375907897949e-02
-2.184667438268661499e-02
-4.087024182081222534e-02
-1.032036468386650085e-01
-2.023841068148612976e-02
