-1.746651232242584229e-01 2.271246314048767090e-01 -6.145986542105674744e-02 -1.810886412858963013e-01 -9.178897738456726074e-02 2.669222354888916016e-01 1.572919189929962158e-01 -8.102330565452575684e-02 1.620097644627094269e-02 -1.019760891795158386e-01 1.178984716534614563e-01 -9.758535027503967285e-02 1.959778815507888794e-01 4.140368849039077759e-02 3.783153593540191650e-01 -2.264191806316375732e-01 2.518003582954406738e-01 3.478655219078063965e-01 -7.608254253864288330e-02 -2.221698313951492310e-01 -1.482352614402770996e-01 2.630762457847595215e-01 2.999484241008758545e-01 -8.048775047063827515e-02 -1.287804841995239258e-01 -1.413261443376541138e-01 8.573974668979644775e-02 1.716294586658477783e-01 1.118154376745223999e-01 3.419228196144104004e-01 -1.453548818826675415e-01 -6.540596485137939453e-02 1.379510164260864258e-01 -1.731380373239517212e-01 -8.773907274007797241e-02 -2.111977525055408478e-02 8.807837218046188354e-02 2.347183376550674438e-01 3.516097068786621094e-01 3.552026152610778809e-01 1.843794882297515869e-01 2.031995803117752075e-01 1.954854577779769897e-01 1.268367748707532883e-02 -4.018100723624229431e-02 -5.607673898339271545e-02 2.069086879491806030e-01 2.454550862312316895e-01 2.283508777618408203e-01 1.077664829790592194e-02 -1.175112202763557434e-01 -8.534100838005542755e-03 -7.459088414907455444e-02 -2.432530187070369720e-02 -1.299791485071182251e-01 3.456128835678100586e-01 -2.971124462783336639e-02 2.481495141983032227e-01 -2.318402379751205444e-01 -1.687264442443847656e-01 -4.154794849455356598e-03 -1.679740101099014282e-01 6.241978704929351807e-02 1.574507653713226318e-01
-8.456088602542877197e-02 6.819019466638565063e-02 -7.970339059829711914e-02 1.141642555594444275e-01 1.580698043107986450e-01 9.529989212751388550e-02 -1.426959633827209473e-01 -8.805466443300247192e-02 4.905097931623458862e-02 -1.296534240245819092e-01 8.574784733355045319e-04 -7.528935372829437256e-02 -1.150250658392906189e-01 2.272430956363677979e-01 4.062263295054435730e-02 -1.784230470657348633e-01 -1.152102500200271606e-01 1.067143380641937256e-01 -4.444211348891258240e-02 -9.563669562339782715e-02 1.962175071239471436e-01 -1.896466501057147980e-02 3.903073072433471680e-02 2.315549552440643311e-01 9.373138099908828735e-02 -1.133698672056198120e-01 8.598963916301727295e-02 -5.206899717450141907e-02 -1.325973309576511383e-02 -1.361336261034011841e-01 1.969190984964370728e-01 6.919348984956741333e-02 -2.003211528062820435e-02 -1.303533762693405151e-01 -1.287282854318618774e-01 8.622283488512039185e-02 1.858719438314437866e-01 3.459155932068824768e-02 -1.345618814229965210e-01 1.748919934034347534e-01 -1.727021932601928711e-01 1.280844360589981079e-01 2.019719183444976807e-01 1.704978793859481812e-01 -3.139014542102813721e-02 1.987445950508117676e-01 -2.212332561612129211e-02 -1.446293890476226807e-01 -1.311067789793014526e-01 8.928716182708740234e-02 1.595760136842727661e-01 -6.028812378644943237e-02 3.140906617045402527e-02 -1.140351295471191406e-01 6.716167926788330078e-02 -3.428928554058074951e-02 -7.506854832172393799e-02 9.820001199841499329e-03 -8.690962195396423340e-02 1.337388902902603149e-01 -2.345629222691059113e-02 9.863748401403427124e-02 2.148842066526412964e-01 7.081910222768783569e-02
