1.801192760467529297e-01 1.704678535461425781e-01
-4.797539208084344864e-03 -3.220292627811431885e-01
6.285896152257919312e-02 3.616643371060490608e-03
-1.411386281251907349e-01 8.981806784868240356e-02
4.640269652009010315e-02 -2.349265068769454956e-01
-3.169525265693664551e-01 5.900583416223526001e-02
-1.604474186897277832e-01 8.740401826798915863e-03
1.716095656156539917e-01 9.052580595016479492e-02
3.197664767503738403e-02 -2.906914986670017242e-02
1.834437847137451172e-01 9.275592863559722900e-02
-2.276232987642288208e-01 -1.683994680643081665e-01
-2.356451563537120819e-02 1.103252321481704712e-01
-3.348033726215362549e-01 1.845574006438255310e-02
-3.973473608493804932e-02 -1.117250919342041016e-01
-1.903129518032073975e-01 -3.088111877441406250e-01
2.683612704277038574e-01 -6.201486103236675262e-03
-1.765936017036437988e-01 -3.377040326595306396e-01
-1.348395049571990967e-01 -2.490323483943939209e-01
1.203189343214035034e-01 -5.985961854457855225e-02
2.091398537158966064e-01 -2.662505721673369408e-03
2.572169005870819092e-01 6.472728401422500610e-02
-3.010162711143493652e-01 1.634453833103179932e-01
-1.310760229825973511e-01 -2.556780576705932617e-01
1.058945730328559875e-01 -1.584728658199310303e-01
-2.053099274635314941e-01 1.809143722057342529e-01
1.033120974898338318e-01 1.977893114089965820e-01
1.094463095068931580e-01 -7.279925048351287842e-02
-1.282636970281600952e-01 7.969396561384201050e-02
-1.488202363252639771e-01 -9.404086321592330933e-02
-2.714257538318634033e-01 -1.882485449314117432e-01
-1.576638817787170410e-01 4.474712535738945007e-03
6.653954088687896729e-02 -1.869300007820129395e-01
-3.003824055194854736e-01 -1.740605086088180542e-01
2.834145426750183105e-01 6.590090692043304443e-02
2.594523429870605469e-01 3.783479705452919006e-02
-5.234030261635780334e-02 6.120995432138442993e-02
-1.006959676742553711e-01 -9.262597560882568359e-02
-1.401999592781066895e-01 -2.590705081820487976e-02
-1.228037625551223755e-01 -2.514005899429321289e-01
-2.184273749589920044e-01 -4.043683409690856934e-02
-1.621809005737304688e-01 -2.722174525260925293e-01
-2.304879873991012573e-01 -2.544456422328948975e-01
-5.711034312844276428e-02 -2.166726887226104736e-01
1.630333065986633301e-01 -5.459367111325263977e-02
6.064270436763763428e-02 -7.488346658647060394e-03
2.200524657964706421e-01 -1.108985170722007751e-01
-2.224853634834289551e-01 -3.939247503876686096e-02
-2.608255445957183838e-01 -7.265932112932205200e-02
-3.888515233993530273e-01 4.945304989814758301e-02
-1.566299237310886383e-02 9.018862992525100708e-02
1.447160542011260986e-01 -1.489962730556726456e-02
-4.419191926717758179e-02 1.048668939620256424e-02
1.228475123643875122e-01 -6.402258574962615967e-02
8.962616324424743652e-02 -1.002030819654464722e-01
-9.117690473794937134e-02 6.402424722909927368e-02
-1.472801417112350464e-01 -2.932310290634632111e-02
7.378847151994705200e-02 -1.482435909565538168e-04
-2.149628549814224243e-01 -3.276267647743225098e-02
2.785467207431793213e-01 -4.713174700736999512e-02
1.851930916309356689e-01 2.126149833202362061e-01
-9.154284372925758362e-03 -1.112388726323843002e-02
-5.377433076500892639e-02 -4.662731662392616272e-02
2.202268838882446289e-01 8.241242915391921997e-02
3.903601318597793579e-02 -1.224469393491744995e-01
