4.435338824987411499e-02
1.137143447995185852e-01
1.237511634826660156e-01
9.083050489425659180e-02
7.985703647136688232e-02
8.115201443433761597e-02
-4.867196828126907349e-02
-6.108155939728021622e-03
5.497727543115615845e-02
-5.809828266501426697e-02
5.932087078690528870e-02
-4.407832399010658264e-02
5.580751225352287292e-02
5.306236445903778076e-02
-9.947016090154647827e-02
-6.466144323348999023e-02
1.732307225465774536e-01
7.272019237279891968e-02
7.931259274482727051e-02
5.195391550660133362e-02
6.941825151443481445e-02
-3.995021432638168335e-02
9.864198416471481323e-02
1.183858439326286316e-01
-6.549807637929916382e-02
1.416318267583847046e-01
-4.468613117933273315e-02
7.497783005237579346e-02
5.108075961470603943e-02
-4.534051939845085144e-02
-5.774922668933868408e-02
7.715213298797607422e-02
1.248018145561218262e-01
-3.842559177428483963e-03
1.339167915284633636e-02
-6.710851192474365234e-02
3.646013513207435608e-02
2.478151582181453705e-02
-5.591341853141784668e-02
8.056418597698211670e-02
5.198085308074951172e-02
-4.355021566152572632e-02
-4.851426184177398682e-02
-3.917487710714340210e-02
6.069346517324447632e-02
2.070611342787742615e-02
-1.191132236272096634e-02
-2.833559736609458923e-02
1.433421820402145386e-01
7.013007253408432007e-02
2.386262640357017517e-02
7.924000173807144165e-02
1.107514277100563049e-01
7.230256497859954834e-02
7.969259284436702728e-03
-5.846710130572319031e-02
3.333188965916633606e-02
-3.689163550734519958e-02
-1.143229976296424866e-01
1.253564059734344482e-01
6.746450066566467285e-02
7.307893782854080200e-02
-3.281094878911972046e-02
1.216154843568801880e-01
