4.284986108541488647e-02
9.532263875007629395e-02
-2.529780194163322449e-02
-1.202952936291694641e-01
8.464097231626510620e-02
2.517204917967319489e-02
-3.364120051264762878e-02
-7.615488488227128983e-03
-1.084943115711212158e-01
-1.489019542932510376e-01
3.264746442437171936e-02
-1.254389733076095581e-01
3.109963238239288330e-02
9.586790204048156738e-02
-8.234390057623386383e-03
1.150259152054786682e-01
5.624232813715934753e-02
9.894176572561264038e-02
-1.239433735609054565e-01
-1.360003501176834106e-01
3.889207914471626282e-02
4.667424783110618591e-02
8.233004063367843628e-02
5.212263017892837524e-02
-6.105562206357717514e-03
5.505333840847015381e-02
2.015293762087821960e-02
1.103387102484703064e-01
1.836959831416606903e-02
1.093114763498306274e-01
-5.249184090644121170e-03
1.876593567430973053e-02
2.694395743310451508e-02
4.838004708290100098e-02
-5.532654374837875366e-02
-7.604849338531494141e-02
2.075483836233615875e-02
1.035522595047950745e-01
5.430528149008750916e-02
-8.311442285776138306e-02
8.436418324708938599e-02
7.965524494647979736e-02
9.392246603965759277e-02
7.233843952417373657e-02
3.279248252511024475e-02
1.167511418461799622e-01
-2.900281455367803574e-03
-1.305865403264760971e-02
1.254187710583209991e-02
5.876629427075386047e-02
3.757449612021446228e-02
1.880102977156639099e-02
2.187113650143146515e-02
1.584804430603981018e-02
2.924828417599201202e-02
-3.811754658818244934e-02
1.230374425649642944e-01
2.324069105088710785e-02
-3.911815583705902100e-02
1.263726502656936646e-01
-5.533426068723201752e-03
4.807237908244132996e-02
-1.897593960165977478e-02
-7.905420660972595215e-02
