4.390612617135047913e-02 1.346807479858398438e-01 -1.410146802663803101e-02 -9.146414697170257568e-03 1.200639456510543823e-01 3.663995116949081421e-02 -4.311156924813985825e-03 1.288753468543291092e-03 -3.169484436511993408e-03 4.164967313408851624e-02 -5.337899923324584961e-02 2.963075786828994751e-02 -8.407741785049438477e-03 1.281087696552276611e-01 -5.882799625396728516e-03 2.794274389743804932e-01 1.166624203324317932e-01 2.434414178133010864e-01 1.396377454511821270e-03 -8.760866709053516388e-03 9.423239529132843018e-02 -2.672700397670269012e-02 2.824845016002655029e-01 1.250976175069808960e-01 2.392268925905227661e-02 5.454908683896064758e-02 -5.921608209609985352e-02 2.344970703125000000e-01 -2.155769057571887970e-02 2.792432904243469238e-01 -7.000753283500671387e-02 1.678159274160861969e-02 -1.659913547337055206e-02 -1.246320270001888275e-02 1.799762481823563576e-03 6.856286432594060898e-03 -8.492142078466713428e-04 1.457613557577133179e-01 -7.922267913818359375e-02 6.940051913261413574e-03 1.804271042346954346e-01 1.528559923171997070e-01 2.473051398992538452e-01 1.683482229709625244e-01 -1.667193695902824402e-02 2.665940821170806885e-01 -3.898281604051589966e-02 -5.876555908557179464e-10 -6.308458279818296432e-03 2.085485905408859253e-01 2.285184897482395172e-02 -8.136129006743431091e-03 3.686551004648208618e-03 -6.617985665798187256e-03 -7.321191020309925079e-03 -2.479004906490445137e-04 1.761156171560287476e-01 -2.221237309277057648e-02 -2.338472008705139160e-02 2.715324163436889648e-01 -4.140495508909225464e-02 -1.258453167974948883e-02 -8.336566388607025146e-03 6.987883243709802628e-03
4.105218872427940369e-02 9.752307832241058350e-02 -4.196158796548843384e-02 5.353397876024246216e-02 6.844377517700195312e-02 2.554532326757907867e-02 -8.497667731717228889e-04 2.463853172957897186e-02 2.986804954707622528e-02 -5.621469765901565552e-02 -1.066665723919868469e-02 -1.016337890177965164e-02 -1.487046573311090469e-02 8.586635440587997437e-02 1.743825851008296013e-03 8.896498382091522217e-02 4.168270528316497803e-02 6.054988875985145569e-02 1.008746325969696045e-01 8.592476695775985718e-02 2.163688279688358307e-02 -4.340667743235826492e-03 -2.059514075517654419e-02 4.356555640697479248e-02 -7.088897377252578735e-02 6.975732743740081787e-02 -2.457712404429912567e-02 1.389202028512954712e-01 9.944317489862442017e-02 3.541527688503265381e-02 1.222786307334899902e-01 1.264001429080963135e-02 4.863646999001502991e-02 -5.204906687140464783e-03 5.120781679579522461e-06 -1.205455788522158400e-07 -1.987861003726720810e-03 1.064996570348739624e-01 -3.429895639419555664e-02 -2.009544707834720612e-02 3.872157633304595947e-02 7.845469564199447632e-02 5.926917493343353271e-02 6.732335686683654785e-02 2.100724540650844574e-02 1.050078570842742920e-01 7.421671599149703979e-02 -3.172111173626035452e-04 1.128590404987335205e-01 -3.176509588956832886e-02 8.333441801369190216e-03 7.168654818087816238e-03 4.109252244234085083e-03 -3.878620639443397522e-02 -2.889173803851008415e-03 -7.001813501119613647e-02 5.297425016760826111e-02 2.397450804710388184e-02 -2.622505235194694251e-08 2.063341885805130005e-01 4.590712115168571472e-02 -9.882796555757522583e-03 3.428018047202385787e-08 -1.819198578596115112e-02
