3.016507485881447792e-03 -1.469912566244602203e-02
1.406318992376327515e-01 -5.101061612367630005e-02
2.736556157469749451e-02 1.881213188171386719e-01
2.046003239229321480e-03 -1.031081285327672958e-02
1.185927167534828186e-01 4.649356380105018616e-02
1.265440136194229126e-01 8.834711462259292603e-02
1.193980649113655090e-01 1.013779193162918091e-01
1.078977016732096672e-03 -7.429104880429804325e-04
2.290879786014556885e-01 4.955869540572166443e-02
2.675350056961178780e-03 2.155070938169956207e-02
-2.834895625710487366e-02 4.343672771938145161e-04
2.100438624620437622e-01 1.392574757337570190e-01
5.234717205166816711e-02 6.632495671510696411e-02
2.085374742746353149e-01 1.183246597647666931e-01
1.334941536188125610e-01 1.365441679954528809e-01
-4.162537306547164917e-02 6.253287941217422485e-02
4.906822927296161652e-03 -5.194032937288284302e-02
1.567945778369903564e-01 2.058611959218978882e-01
6.784250587224960327e-02 -6.971018388867378235e-03
-5.264681205153465271e-02 -9.348344057798385620e-02
1.533659994602203369e-01 1.462143659591674805e-01
-2.020221576094627380e-02 7.544285836047492921e-06
3.580833598971366882e-02 8.401773124933242798e-02
2.035213112831115723e-01 3.872154280543327332e-02
2.503369748592376709e-01 1.206972599029541016e-01
1.386900395154953003e-01 2.654219232499599457e-02
-3.964976966381072998e-02 -3.762111812829971313e-02
4.373174626380205154e-03 9.876674413681030273e-02
-9.318597614765167236e-02 -6.959085166454315186e-02
1.583267748355865479e-01 1.778993457555770874e-01
6.578175723552703857e-02 -2.544863522052764893e-02
2.279020696878433228e-01 2.052506953477859497e-01
-1.207117747981101274e-04 -2.995882555842399597e-02
-3.545017680153250694e-03 -1.023352160700596869e-04
-5.771117284893989563e-02 7.581457452943141107e-07
-1.323336437053512782e-05 6.238372251391410828e-02
7.216670364141464233e-02 1.157189682126045227e-01
8.829654008150100708e-02 8.854456990957260132e-02
1.092807352542877197e-01 1.777694076299667358e-01
-5.613347887992858887e-02 6.133008003234863281e-02
1.350420266389846802e-01 2.143248617649078369e-01
2.194017767906188965e-01 1.947332620620727539e-01
8.298602700233459473e-02 -2.397820726037025452e-02
-8.140188641846179962e-03 -4.483248631004244089e-05
1.519130542874336243e-03 -2.555487444624304771e-03
8.234304550569504499e-05 5.925444141030311584e-02
1.978649571537971497e-02 2.711813524365425110e-02
2.256713658571243286e-01 2.283688187599182129e-01
-4.312723875045776367e-02 8.449978381395339966e-02
-3.277394920587539673e-02 -4.176575196801479706e-10
2.474231459200382233e-02 1.758321560919284821e-02
-6.463807076215744019e-04 -2.884560730308294296e-03
-6.434566527605056763e-02 -5.546408519148826599e-02
-7.314468175172805786e-02 9.801650792360305786e-02
-5.486750160343945026e-04 9.998868219554424286e-03
4.214527830481529236e-02 3.166379779577255249e-02
4.484652163228020072e-05 -2.764327917248010635e-03
3.063531219959259033e-02 7.597067207098007202e-02
1.870001107454299927e-01 -5.594055354595184326e-02
1.649609953165054321e-01 1.406767517328262329e-01
1.000240668654441833e-01 4.230208694934844971e-02
3.670526295900344849e-02 -3.284834697842597961e-02
2.639424204826354980e-01 2.166888564825057983e-01
8.015968650579452515e-02 8.027134090662002563e-02
