-8.746489882469177246e-02 9.096806496381759644e-02
3.718602657318115234e-02 -5.011172592639923096e-02
1.172920092940330505e-01 -2.453851699829101562e-02
4.498956725001335144e-02 -9.047754853963851929e-02
-1.283734589815139771e-01 2.215182930231094360e-01
1.920980587601661682e-02 1.367252413183450699e-02
-2.482866123318672180e-02 2.280154234313158668e-07
-1.617178810336943199e-19 3.211951562138809931e-31
-1.612085253000259399e-01 7.624719291925430298e-02
-5.100161954760551453e-02 6.219962233444675803e-05
3.224542364478111267e-02 1.727905496954917908e-02
-5.292224884033203125e-02 -8.766709826886653900e-03
-8.239047229290008545e-02 2.161287665367126465e-01
-1.308728456497192383e-01 7.949941605329513550e-02
-5.214385688304901123e-02 -3.377257287502288818e-02
-7.450580014847218990e-04 -6.442060321569442749e-02
6.488489359617233276e-02 -4.206231608986854553e-02
-6.822598725557327271e-02 2.576934099197387695e-01
-1.907064616680145264e-01 2.115340828895568848e-01
-4.355423897504806519e-02 6.919761002063751221e-02
-1.536472886800765991e-01 1.706722229719161987e-01
-3.138103336095809937e-02 -3.133125230669975281e-02
6.867893040180206299e-02 1.971962153911590576e-01
6.897539645433425903e-02 -9.805732406675815582e-03
6.441929191350936890e-02 1.271096896380186081e-02
5.247867852449417114e-02 -3.123979084193706512e-02
-1.867642626166343689e-02 1.657644461374729872e-04
-6.375941634178161621e-02 1.901768296957015991e-01
-1.448778212070465088e-01 5.740905180573463440e-02
-6.626429967582225800e-05 8.513414286426268518e-06
-3.109426936134696007e-03 -9.006924927234649658e-02
-8.940638601779937744e-02 2.374816536903381348e-01
5.298858880996704102e-02 -3.180994465947151184e-02
-7.819375395774841309e-02 3.445280715823173523e-02
-2.260954119265079498e-02 -8.481105417013168335e-02
-5.950839444994926453e-02 -5.525554458429837723e-10
-5.972968414425849915e-02 1.136693805456161499e-01
-5.935149267315864563e-02 9.328436851501464844e-02
-8.861158043146133423e-02 -8.685591816902160645e-02
9.449919313192367554e-02 1.522316932678222656e-01
-1.030711233615875244e-01 1.662847548723220825e-01
-8.151833899319171906e-03 4.614317498164149750e-30
4.124683886766433716e-02 -2.808782458305358887e-02
-8.164687454700469971e-02 -8.286330103874206543e-02
-1.111324951052665710e-01 1.969218850135803223e-01
-6.410294026136398315e-02 5.816384684294462204e-03
-1.314998790621757507e-02 1.354841887950897217e-01
-2.676918171346187592e-02 -9.748304856392150230e-33
1.064367666840553284e-01 -6.356681138277053833e-02
-9.221863746643066406e-02 1.642693430185317993e-01
-3.586761187762022018e-03 -9.802773594856262207e-02
-1.310145575553178787e-02 1.442442089319229126e-01
5.280053988099098206e-02 2.667279215529561043e-03
-6.865403801202774048e-02 2.249185442924499512e-01
-2.439953386783599854e-02 5.241114273667335510e-02
-6.875895196571946144e-04 -7.023420184850692749e-02
-6.210489571094512939e-02 8.591248840093612671e-02
-9.783979505300521851e-02 -7.306950919883092865e-07
-1.672585378400981426e-03 -1.155667454004287720e-01
4.157201200723648071e-02 -2.705424278974533081e-02
-4.569731652736663818e-02 2.108291536569595337e-01
4.947679117321968079e-02 1.188220307230949402e-01
-2.857861039895182541e-17 -1.212836708873510361e-02
4.675515741109848022e-02 -3.035732172429561615e-02
