1.720182448625564575e-01 -6.633324176073074341e-02 1.671947538852691650e-01 -5.368540436029434204e-02 1.638718992471694946e-01 -1.582025587558746338e-01 5.755992978811264038e-02 -3.314546123147010803e-02 1.864904016256332397e-01 1.315661221742630005e-01 -1.742321550846099854e-01 1.107819080352783203e-01 8.476955443620681763e-02 -5.340440571308135986e-02 -3.025868209078907967e-03 5.226388201117515564e-02 -4.873025789856910706e-02 4.479138553142547607e-02 2.753466367721557617e-01 7.872483134269714355e-02 -5.175216123461723328e-02 1.413274109363555908e-01 -2.250739783048629761e-01 -1.816398650407791138e-02 3.004557453095912933e-03 1.341379582881927490e-01 1.562480479478836060e-01 2.011712789535522461e-01 -2.152704447507858276e-02 -2.757025361061096191e-01 1.959854066371917725e-01 2.296858429908752441e-01 -2.821018397808074951e-01 -1.052213162183761597e-01 -2.459072321653366089e-01 -2.361490949988365173e-02 -9.328485280275344849e-02 1.583645939826965332e-01 1.445809900760650635e-01 1.263739764690399170e-01 -2.706045210361480713e-01 -2.073578387498855591e-01 2.955731563270092010e-02 1.630967408418655396e-01 2.598299682140350342e-01 -2.578537762165069580e-01 1.939674615859985352e-01 -4.018192365765571594e-02 3.447535634040832520e-01 -3.016117401421070099e-02 -1.987358331680297852e-01 5.528499931097030640e-02 -1.578736752271652222e-01 3.325199186801910400e-01 -2.487495392560958862e-01 -5.920696258544921875e-02 -2.898258715867996216e-02 7.607555389404296875e-02 -9.516392648220062256e-02 3.083376958966255188e-02 8.815222978591918945e-02 1.018198430538177490e-01 -1.132820770144462585e-01 -6.631385535001754761e-02
4.432602599263191223e-02 1.683487892150878906e-01 1.089172139763832092e-01 -3.044097311794757843e-02 -3.981817886233329773e-02 -2.392892986536026001e-01 5.706100538372993469e-02 -2.027408927679061890e-01 1.552901864051818848e-01 -9.177728742361068726e-02 7.762693613767623901e-02 1.667975038290023804e-01 -1.104533821344375610e-01 -9.345152974128723145e-02 1.212384402751922607e-01 -1.652588993310928345e-01 6.418683379888534546e-02 4.677633196115493774e-02 1.413408666849136353e-01 2.104420810937881470e-01 -1.156206429004669189e-01 -3.633778914809226990e-02 5.889617651700973511e-02 -9.612802416086196899e-02 -4.825153388082981110e-03 -1.716024279594421387e-01 4.813547432422637939e-02 -1.382145099341869354e-02 6.203392148017883301e-02 1.577788740396499634e-01 5.745637789368629456e-02 5.501570180058479309e-02 -2.761291339993476868e-02 1.440490335226058960e-01 -2.251266129314899445e-02 6.553065031766891479e-02 -5.747571587562561035e-02 -4.062158986926078796e-02 9.827127307653427124e-02 -5.749488249421119690e-02 2.588195540010929108e-02 7.062485069036483765e-02 5.048898980021476746e-02 6.577656138688325882e-03 -7.997752726078033447e-02 5.403594300150871277e-02 1.539137512445449829e-01 1.963117122650146484e-01 5.195533484220504761e-02 7.299867272377014160e-02 6.592577695846557617e-02 2.013924717903137207e-01 -3.755560144782066345e-02 -1.705218665301799774e-02 -3.696990385651588440e-02 1.562602669000625610e-01 -8.544750511646270752e-02 -1.445650588721036911e-03 -1.040219515562057495e-01 -1.604277454316616058e-02 1.655546389520168304e-02 -1.589620411396026611e-01 -1.194665208458900452e-01 8.210074156522750854e-02
6.627614051103591919e-02 -1.721388250589370728e-01 -1.482577323913574219e-01 7.524603605270385742e-02 -3.517399430274963379e-01 4.904642701148986816e-02 4.301602020859718323e-02 -2.812980711460113525e-01 1.121052876114845276e-01 -1.515693310648202896e-02 -1.519483178853988647e-01 -2.917709052562713623e-01 1.342858374118804932e-01 -2.286292761564254761e-01 2.195794582366943359e-01 1.503235399723052979e-01 1.152511164546012878e-01 4.277094826102256775e-02 4.816367849707603455e-02 -2.986195497214794159e-02 1.657066941261291504e-01 4.220194369554519653e-02 -6.731631606817245483e-02 -6.329474598169326782e-02 -1.813025027513504028e-01 -1.744067370891571045e-01 -5.125188454985618591e-02 -2.152459770441055298e-01 3.328194841742515564e-02 -1.371157765388488770e-01 -1.661302000284194946e-01 -3.887207061052322388e-02 1.952580511569976807e-01 1.598848104476928711e-01 1.080153286457061768e-01 9.822150319814682007e-02 -1.200844049453735352e-01 8.741609007120132446e-02 -2.660658024251461029e-02 1.076433435082435608e-02 1.188394501805305481e-01 2.881373763084411621e-01 1.980141699314117432e-01 -5.225548520684242249e-02 -1.518620103597640991e-01 1.108434721827507019e-01 -2.532874047756195068e-01 -1.611884683370590210e-01 1.656732754781842232e-03 1.938572674989700317e-01 -2.697798907756805420e-01 2.144073396921157837e-01 -2.167707830667495728e-01 -1.820119023323059082e-01 2.002477049827575684e-01 -2.106579542160034180e-01 1.678297519683837891e-01 -3.266407251358032227e-01 -1.420707106590270996e-01 2.710285484790802002e-01 -6.580751389265060425e-02 1.166180223226547241e-01 1.357174664735794067e-01 1.569857746362686157e-01
1.332185566425323486e-01 3.255019336938858032e-02 -2.176734805107116699e-02 9.026506543159484863e-02 -1.941062957048416138e-01 -1.307315826416015625e-01 -1.061508134007453918e-01 -1.550597846508026123e-01 -5.862213298678398132e-02 7.747583836317062378e-02 1.292074378579854965e-02 -5.762715265154838562e-02 1.069104373455047607e-01 -1.996216922998428345e-01 1.962926983833312988e-01 -6.661292910575866699e-02 -1.002876237034797668e-01 4.774465784430503845e-02 6.126277521252632141e-02 -1.966567896306514740e-02 -1.757733225822448730e-01 -1.350449621677398682e-01 9.494720399379730225e-02 -5.360868200659751892e-02 -4.812942817807197571e-02 -7.320183515548706055e-02 -1.467161029577255249e-01 -1.029231846332550049e-01 6.665465980768203735e-02 -1.903494447469711304e-01 8.509354293346405029e-02 -6.113909184932708740e-04 -1.449700295925140381e-01 6.314016133546829224e-02 -6.715194787830114365e-03 2.505298145115375519e-02 -7.646007835865020752e-02 8.481967449188232422e-02 1.256513893604278564e-01 5.640719830989837646e-02 -5.180562287569046021e-02 -1.595985889434814453e-01 1.285983901470899582e-02 1.520743668079376221e-01 1.603295952081680298e-01 -1.456412523984909058e-01 7.416746765375137329e-02 2.655783295631408691e-01 -1.492211073637008667e-01 -1.180565431714057922e-01 1.964814960956573486e-01 1.729574948549270630e-01 9.319141507148742676e-02 -4.863551259040832520e-02 -4.056856501847505569e-03 1.884837150573730469e-01 2.213473618030548096e-01 1.742787659168243408e-03 -1.945473551750183105e-01 2.884263098239898682e-01 1.833864301443099976e-01 -1.868487745523452759e-01 -2.328243106603622437e-01 3.889054059982299805e-03
2.491003870964050293e-01 -1.459505707025527954e-01 -1.185242831707000732e-01 2.000673115253448486e-01 1.974686682224273682e-01 -4.297957569360733032e-02 -9.150979109108448029e-03 1.149979382753372192e-01 1.018093749880790710e-01 1.221010759472846985e-01 -6.754373013973236084e-02 1.444455087184906006e-01 2.418016940355300903e-01 -1.270435303449630737e-01 -1.442920565605163574e-01 1.598231941461563110e-01 -1.723122298717498779e-01 1.021420955657958984e-01 2.108288705348968506e-01 2.006121426820755005e-01 -2.438055165112018585e-02 1.147148236632347107e-01 7.732725888490676880e-02 -3.034027665853500366e-02 4.144760966300964355e-02 -1.861520260572433472e-01 1.558974478393793106e-02 -9.775256365537643433e-02 2.600606679916381836e-01 -2.919441834092140198e-02 -6.509386003017425537e-02 -9.876876324415206909e-02 -1.263567339628934860e-02 -1.549277901649475098e-01 -3.517824516166001558e-04 2.026926279067993164e-01 -7.924503833055496216e-02 7.221967726945877075e-02 1.658348143100738525e-01 2.612262666225433350e-01 -1.496006697416305542e-01 -1.508767344057559967e-02 1.788281649351119995e-01 1.863008588552474976e-01 2.072363048791885376e-01 2.123473584651947021e-01 1.591723710298538208e-01 -1.318823342444375157e-04 1.789947450160980225e-01 -9.142417460680007935e-02 -7.238920032978057861e-02 2.057133316993713379e-01 7.182666659355163574e-02 7.674952596426010132e-02 -7.340601086616516113e-02 1.601777374744415283e-01 2.580880224704742432e-01 9.762778878211975098e-02 4.341802746057510376e-02 -1.256585866212844849e-01 2.423163317143917084e-02 2.227153480052947998e-01 8.562307804822921753e-02 -1.564512103796005249e-01
-9.004395455121994019e-02 2.219900675117969513e-02 -9.226796776056289673e-02 1.343949437141418457e-01 -5.070871859788894653e-02 -2.091394811868667603e-01 1.390762776136398315e-01 -8.496413379907608032e-02 -1.859454363584518433e-01 5.496638268232345581e-02 5.174275487661361694e-02 1.228640675544738770e-01 5.384569615125656128e-02 1.107494458556175232e-01 9.064740687608718872e-02 -5.880748853087425232e-02 1.181058436632156372e-01 -1.366074532270431519e-01 -6.137325987219810486e-02 -1.166356727480888367e-01 4.220941290259361267e-02 1.627503782510757446e-01 1.433227509260177612e-01 -4.914795234799385071e-02 -1.002279222011566162e-01 -1.880845874547958374e-01 -1.728308498859405518e-01 9.821964055299758911e-02 4.766933247447013855e-02 -2.393802069127559662e-02 -2.880265749990940094e-02 1.412841826677322388e-01 -8.194489055313169956e-04 -1.971575468778610229e-01 6.561432033777236938e-02 1.147055402398109436e-01 1.290932446718215942e-01 1.231818944215774536e-01 -1.615896224975585938e-01 -1.236595287919044495e-01 1.652330346405506134e-02 1.769734770059585571e-01 1.428681705147027969e-02 6.676810234785079956e-02 -5.283180251717567444e-02 -3.285984322428703308e-02 7.107836753129959106e-02 -2.706640362739562988e-01 1.582482010126113892e-01 1.426857262849807739e-01 -6.861819326877593994e-02 2.210715711116790771e-01 -1.688818335533142090e-01 -8.565533906221389771e-02 1.444635093212127686e-01 1.262339800596237183e-01 -4.636547714471817017e-02 7.287847995758056641e-02 -1.185893174260854721e-02 -1.615528166294097900e-01 2.381703257560729980e-02 1.450223326683044434e-01 1.395805180072784424e-01 -2.489685565233230591e-01
7.810761034488677979e-02 -3.320987224578857422e-01 -1.050774008035659790e-01 2.635632753372192383e-01 1.458890587091445923e-01 -2.537437081336975098e-01 2.616377472877502441e-01 3.878830969333648682e-01 1.650112271308898926e-01 8.344946801662445068e-02 1.646921969950199127e-02 3.330154418945312500e-01 3.530081361532211304e-02 2.841138243675231934e-01 3.979111835360527039e-02 -1.945070736110210419e-02 2.923131585121154785e-01 -1.537578850984573364e-01 9.910438209772109985e-02 -6.517845392227172852e-02 -2.028751969337463379e-01 4.699517786502838135e-02 6.919376552104949951e-02 4.486309885978698730e-01 9.659305214881896973e-02 2.917169034481048584e-01 3.004356920719146729e-01 1.481435894966125488e-01 1.688021719455718994e-01 -2.325335741043090820e-01 4.217718839645385742e-01 9.059315547347068787e-03 -1.973064690828323364e-01 7.252871990203857422e-02 2.985839247703552246e-01 2.255670279264450073e-01 7.711738348007202148e-02 2.742380201816558838e-01 5.653806403279304504e-02 -3.881666809320449829e-02 -4.472910165786743164e-01 -5.838306248188018799e-02 1.153263896703720093e-01 2.238583415746688843e-01 -1.114592254161834717e-01 -3.109908998012542725e-01 2.770405411720275879e-01 -1.457698792219161987e-01 -3.649182245135307312e-02 -1.963768452405929565e-01 4.359190762042999268e-01 -1.266078054904937744e-01 3.011924028396606445e-01 -1.115779057145118713e-01 -4.736189544200897217e-01 3.694165647029876709e-01 1.848065406084060669e-01 3.058396875858306885e-01 2.918781340122222900e-01 1.543869916349649429e-02 -4.472464323043823242e-01 2.097366750240325928e-01 -1.985930204391479492e-01 6.234556809067726135e-02
-8.745604008436203003e-02 6.050964351743459702e-03 1.992541551589965820e-01 2.198198996484279633e-02 5.854398943483829498e-03 1.366855651140213013e-01 -1.336025446653366089e-01 -1.808541640639305115e-02 9.732671082019805908e-02 -8.725921064615249634e-02 1.384130269289016724e-01 -2.448318712413311005e-02 1.021289601922035217e-01 3.194201365113258362e-02 3.092168271541595459e-02 -1.555623412132263184e-01 -1.648310869932174683e-01 -4.350645001977682114e-03 -3.620146587491035461e-02 -1.365477889776229858e-01 -7.417282462120056152e-02 2.676213979721069336e-01 5.120277777314186096e-02 -1.376682519912719727e-01 1.352720856666564941e-01 1.061896607279777527e-01 -2.225868254899978638e-01 -9.284394979476928711e-02 -8.886702358722686768e-02 -9.955422580242156982e-02 2.142980992794036865e-01 1.256359964609146118e-01 1.202718727290630341e-02 -7.951030880212783813e-02 1.092910766601562500e-03 -9.469933062791824341e-02 1.447257995605468750e-01 1.577199697494506836e-01 1.915731094777584076e-02 -1.344142854213714600e-01 1.606724858283996582e-01 -2.324600517749786377e-01 1.810511946678161621e-02 -1.095008403062820435e-01 1.858748793601989746e-01 -4.896502941846847534e-02 -3.060369752347469330e-02 4.001695290207862854e-02 -6.756589561700820923e-02 -4.875386133790016174e-02 -1.050239987671375275e-02 -1.761794686317443848e-01 -3.096603788435459137e-02 1.011196002364158630e-01 -1.083739623427391052e-01 -1.573532633483409882e-02 2.043489515781402588e-01 1.169842332601547241e-01 1.680592894554138184e-01 -5.589428544044494629e-02 -2.693326473236083984e-01 -1.954918354749679565e-01 1.976191438734531403e-02 1.188155263662338257e-02
