digraph Tree {
node [shape=box] ;
0 [label="X[18] <= 0.255\ngini = 0.792\nsamples = 28540\nvalue = [1983, 9366, 74, 5655, 2840, 2581, 525, 5516]"] ;
1 [label="X[22] <= 0.715\ngini = 0.784\nsamples = 19313\nvalue = [1983, 281, 74, 5655, 2840, 2439, 525, 5516]"] ;
0 -> 1 [labeldistance=2.5, labelangle=45, headlabel="True"] ;
2 [label="X[22] <= 0.083\ngini = 0.707\nsamples = 12852\nvalue = [1983, 0, 74, 0, 2840, 2439, 0, 5516]"] ;
1 -> 2 ;
3 [label="X[35] <= 0.5\ngini = 0.425\nsamples = 7955\nvalue = [0, 0, 0, 0, 0, 2439, 0, 5516]"] ;
2 -> 3 ;
4 [label="gini = 0.0\nsamples = 5516\nvalue = [0, 0, 0, 0, 0, 0, 0, 5516]"] ;
3 -> 4 ;
5 [label="gini = 0.0\nsamples = 2439\nvalue = [0, 0, 0, 0, 0, 2439, 0, 0]"] ;
3 -> 5 ;
6 [label="X[18] <= -0.837\ngini = 0.499\nsamples = 4897\nvalue = [1983, 0, 74, 0, 2840, 0, 0, 0]"] ;
2 -> 6 ;
7 [label="gini = 0.0\nsamples = 1983\nvalue = [1983, 0, 0, 0, 0, 0, 0, 0]"] ;
6 -> 7 ;
8 [label="X[18] <= -0.474\ngini = 0.049\nsamples = 2914\nvalue = [0, 0, 74, 0, 2840, 0, 0, 0]"] ;
6 -> 8 ;
9 [label="gini = 0.0\nsamples = 2840\nvalue = [0, 0, 0, 0, 2840, 0, 0, 0]"] ;
8 -> 9 ;
10 [label="gini = 0.0\nsamples = 74\nvalue = [0, 0, 74, 0, 0, 0, 0, 0]"] ;
8 -> 10 ;
11 [label="X[18] <= -0.568\ngini = 0.225\nsamples = 6461\nvalue = [0, 281, 0, 5655, 0, 0, 525, 0]"] ;
1 -> 11 ;
12 [label="gini = 0.0\nsamples = 5655\nvalue = [0, 0, 0, 5655, 0, 0, 0, 0]"] ;
11 -> 12 ;
13 [label="X[22] <= 1.186\ngini = 0.454\nsamples = 806\nvalue = [0, 281, 0, 0, 0, 0, 525, 0]"] ;
11 -> 13 ;
14 [label="gini = 0.0\nsamples = 281\nvalue = [0, 281, 0, 0, 0, 0, 0, 0]"] ;
13 -> 14 ;
15 [label="gini = 0.0\nsamples = 525\nvalue = [0, 0, 0, 0, 0, 0, 525, 0]"] ;
13 -> 15 ;
16 [label="X[22] <= -1.976\ngini = 0.03\nsamples = 9227\nvalue = [0, 9085, 0, 0, 0, 142, 0, 0]"] ;
0 -> 16 [labeldistance=2.5, labelangle=-45, headlabel="False"] ;
17 [label="gini = 0.0\nsamples = 142\nvalue = [0, 0, 0, 0, 0, 142, 0, 0]"] ;
16 -> 17 ;
18 [label="gini = 0.0\nsamples = 9085\nvalue = [0, 9085, 0, 0, 0, 0, 0, 0]"] ;
16 -> 18 ;
}