1.217356696724891663e-01
1.274138987064361572e-01
1.123776808381080627e-01
-3.485310077667236328e-02
1.078300625085830688e-01
-5.161999166011810303e-02
1.165889054536819458e-01
-5.503383651375770569e-02
6.492839008569717407e-02
-1.145349931903183460e-03
-2.217213995754718781e-02
9.234924614429473877e-02
2.635946124792098999e-02
1.637910306453704834e-02
-6.694591790437698364e-02
1.862502470612525940e-02
-1.135061681270599365e-02
1.226792037487030029e-01
1.990310102701187134e-02
-6.160907447338104248e-02
-1.237153913825750351e-02
-6.114771217107772827e-02
-8.335217088460922241e-02
1.074545085430145264e-01
-1.773952879011631012e-02
7.002535462379455566e-02
1.327074468135833740e-01
-3.956118226051330566e-02
1.179817467927932739e-01
-3.852552175521850586e-02
-7.081878185272216797e-02
8.994920551776885986e-02
5.561599135398864746e-02
-1.361944619566202164e-02
1.341316998004913330e-01
-3.300303965806961060e-02
-3.887254744768142700e-02
1.055468712002038956e-02
-6.650548428297042847e-02
-3.504144772887229919e-02
3.241398185491561890e-02
-4.506240785121917725e-02
8.562120795249938965e-02
-6.879585236310958862e-02
-1.454938948154449463e-02
2.391823334619402885e-03
3.142751380801200867e-02
-7.887768559157848358e-03
-8.432672172784805298e-02
-1.638621464371681213e-02
2.655487507581710815e-02
-6.731081008911132812e-02
8.458644151687622070e-02
-5.476069822907447815e-02
-7.330045104026794434e-02
-3.768614307045936584e-02
3.916222974658012390e-02
6.608094088733196259e-03
2.141797356307506561e-02
-1.163732353597879410e-02
1.507036201655864716e-02
-3.267779201269149780e-02
-2.250421312055550516e-05
-4.947929456830024719e-02
