3.290767967700958252e-01 2.801702916622161865e-01 3.707338273525238037e-01 -6.563822180032730103e-02 2.844606041908264160e-01 -9.070899337530136108e-02 2.376810759305953979e-01 -1.595045328140258789e-01 1.971878707408905029e-01 -1.495332866907119751e-01 -2.695804834365844727e-01 2.336567640304565430e-01 8.057821542024612427e-02 -1.875461190938949585e-01 2.747722715139389038e-02 1.085538715124130249e-01 -8.642842620611190796e-02 3.283548653125762939e-01 -8.028023689985275269e-02 -5.356441065669059753e-02 -1.553913503885269165e-01 -1.243622079491615295e-01 1.965716779232025146e-01 3.406824171543121338e-01 -9.685106575489044189e-02 1.198992431163787842e-01 3.490748703479766846e-01 -1.139958202838897705e-01 2.838180065155029297e-01 -6.823791563510894775e-02 8.128859102725982666e-02 2.630795538425445557e-01 7.178685814142227173e-02 -7.606142759323120117e-02 1.886529028415679932e-01 -2.112031579017639160e-01 -1.750157959759235382e-02 -1.367128491401672363e-01 -1.799973547458648682e-01 -1.632160544395446777e-01 4.507261887192726135e-02 1.668699085712432861e-02 2.702904343605041504e-01 -1.677793562412261963e-01 -1.631095111370086670e-01 -2.321593016386032104e-01 1.585093587636947632e-01 -1.970772147178649902e-01 5.314616113901138306e-02 -1.902745515108108521e-01 -6.393424421548843384e-02 1.617921441793441772e-01 6.192312389612197876e-02 -1.196126192808151245e-01 3.288756310939788818e-02 -2.722946703433990479e-01 1.161580681800842285e-01 -1.000551357865333557e-01 -8.905739337205886841e-02 -1.073030196130275726e-02 -1.379085779190063477e-01 -1.902651488780975342e-01 -2.011303007602691650e-01 -8.436385542154312134e-02
-2.815931849181652069e-02 8.324734866619110107e-02 -1.482814103364944458e-01 3.981859236955642700e-02 -1.567720621824264526e-02 -3.326495736837387085e-02 1.048930510878562927e-01 2.432680130004882812e-01 -5.449011176824569702e-02 2.756902277469635010e-01 -1.091713178902864456e-02 1.010367367416620255e-02 -2.814613655209541321e-02 1.031644791364669800e-01 -9.230963885784149170e-02 -1.130500882863998413e-01 1.203216239809989929e-01 -2.843931131064891815e-02 6.414449214935302734e-02 -1.500285267829895020e-01 -1.639416068792343140e-01 2.465400546789169312e-01 -3.656521067023277283e-02 -1.162489429116249084e-01 -9.089132398366928101e-02 5.124058574438095093e-02 -2.267481200397014618e-02 -1.889933943748474121e-01 3.829475864768028259e-02 1.588299572467803955e-01 -1.180138736963272095e-01 -1.090743318200111389e-01 9.468778222799301147e-02 1.348037123680114746e-01 2.894138991832733154e-01 2.386398762464523315e-01 6.010432541370391846e-02 -7.000359147787094116e-02 3.858773037791252136e-02 1.215698644518852234e-01 6.974329054355621338e-02 -2.337446063756942749e-02 -6.470225751399993896e-02 9.042250923812389374e-03 -2.350238412618637085e-01 -3.182206302881240845e-02 -1.940398067235946655e-01 -3.247427940368652344e-02 -1.109096407890319824e-01 2.814068198204040527e-01 2.504727244377136230e-01 -1.388778239488601685e-01 2.562551796436309814e-01 2.311521321535110474e-01 -6.889054179191589355e-02 -1.878612935543060303e-01 -7.772033661603927612e-02 2.208869755268096924e-01 2.730709016323089600e-01 -1.381968334317207336e-02 -1.701695621013641357e-01 -1.493568569421768188e-01 -2.505018003284931183e-02 1.372668445110321045e-01
