-8.035457693040370941e-03 3.479349613189697266e-01
1.218258067965507507e-01 3.406727612018585205e-01
3.243766725063323975e-01 2.867237031459808350e-01
8.522628806531429291e-03 -1.487195864319801331e-02
2.826806604862213135e-01 6.134221702814102173e-02
9.129498153924942017e-02 -1.156802009791135788e-02
9.702445566654205322e-02 3.503492474555969238e-01
-6.108041852712631226e-02 -1.654650568962097168e-01
3.730528950691223145e-01 -9.812570363283157349e-02
4.571150988340377808e-02 1.241104081273078918e-01
-2.656961083412170410e-01 -1.456921696662902832e-01
1.032297592610120773e-02 2.553721368312835693e-01
1.349135041236877441e-01 -1.519113499671220779e-02
-1.720108091831207275e-01 -1.539799124002456665e-01
-7.320124655961990356e-02 2.900301851332187653e-02
1.486498117446899414e-01 2.292866557836532593e-01
2.420085817575454712e-01 -9.277605265378952026e-02
1.694102883338928223e-01 1.686973720788955688e-01
1.905030161142349243e-01 -2.712947130203247070e-01
1.868404448032379150e-02 1.875711083412170410e-01
1.512240618467330933e-01 -1.795256733894348145e-01
-2.331114001572132111e-02 -2.441484481096267700e-01
-1.844145506620407104e-01 1.286793053150177002e-01
2.005460858345031738e-01 2.506975829601287842e-01
2.338679478270933032e-04 -5.705195665359497070e-02
1.872194111347198486e-01 2.585966512560844421e-02
3.472413718700408936e-01 -6.397847831249237061e-02
-2.003600597381591797e-01 1.514960378408432007e-01
1.115588378161191940e-02 3.135015368461608887e-01
-1.952184587717056274e-01 9.197913855314254761e-02
-9.182997979223728180e-03 -4.196012765169143677e-02
1.748481690883636475e-01 8.393217623233795166e-02
-8.687105029821395874e-02 3.254740238189697266e-01
2.304875291883945465e-02 6.223959848284721375e-02
2.666039764881134033e-01 6.865186244249343872e-02
-6.066909059882164001e-03 2.501111328601837158e-01
-2.161156535148620605e-01 8.200167678296566010e-03
-1.410387158393859863e-01 -1.642949283123016357e-01
-1.607650369405746460e-01 1.843761950731277466e-01
1.917938739061355591e-01 -1.807734370231628418e-01
-1.464930623769760132e-01 2.159882783889770508e-01
1.496241837739944458e-01 -1.970171630382537842e-01
2.215685844421386719e-01 -1.048482507467269897e-01
3.552920743823051453e-02 1.982355415821075439e-01
-1.913188546895980835e-01 -5.233043059706687927e-02
-1.208648085594177246e-01 -1.853810250759124756e-01
3.122735917568206787e-01 -7.104306668043136597e-02
-2.671518623828887939e-01 1.016301661729812622e-02
-1.761642694473266602e-01 -1.376719623804092407e-01
1.111434027552604675e-01 1.549406349658966064e-01
-1.370104774832725525e-02 1.863342821598052979e-01
3.209678828716278076e-02 -5.370105057954788208e-02
-1.306202113628387451e-01 2.448359727859497070e-01
-1.058538723737001419e-02 -9.712558239698410034e-02
-4.509042948484420776e-02 -7.411803305149078369e-02
-2.317202687263488770e-01 -1.416523456573486328e-01
2.193219810724258423e-01 2.698703110218048096e-01
-1.562530174851417542e-02 1.124670505523681641e-01
-9.733091294765472412e-02 2.262539416551589966e-01
9.429939091205596924e-02 -4.593624919652938843e-02
-9.473614394664764404e-02 -8.468686044216156006e-02
-2.913893163204193115e-01 5.518333613872528076e-02
1.803199201822280884e-01 -2.676858901977539062e-01
-1.380720734596252441e-01 -1.550368219614028931e-01
