-1.061203628778457642e-01 -2.788265421986579895e-02 2.488589112559225214e-09 3.393894992768764496e-03 -2.177094668149948120e-02 5.261876434087753296e-02 -4.506169818341732025e-03 -4.404439777135848999e-02 -2.868233993649482727e-02 -4.418439349663183118e-33 8.512902259826660156e-02 -7.816976221874938346e-08 8.467137813568115234e-02 -1.019148249179124832e-02 3.621686249971389771e-02 5.276275798678398132e-03 1.111305579543113708e-01 -5.035993456840515137e-02 4.056398570537567139e-02 -3.086552955210208893e-02 -7.346426695585250854e-02 -1.444552326574921608e-03 1.120473667979240417e-01 5.747186392545700073e-02 -3.018841147422790527e-03 -5.904517136514186859e-03 1.677555441856384277e-01 7.728009670972824097e-02 -1.035887300968170166e-01 1.477852347306907177e-03 -2.686203806661069393e-04 -6.846386939287185669e-02 -5.131066963076591492e-02 -2.331024967133998871e-03 6.009848415851593018e-02 -1.549306977540254593e-02 -3.626374155282974243e-02 -1.605773344635963440e-02 -1.329102367162704468e-02 -1.080816518515348434e-02 -6.165947765111923218e-03 1.137730404734611511e-01 3.657461702823638916e-02 6.051939353346824646e-02 -8.026513143022384611e-08 1.000937819480895996e-01 1.194525510072708130e-03 7.391681522130966187e-02 4.236555844545364380e-02 -2.734436886385083199e-03 -2.050977014005184174e-02 -4.878828674554824829e-02 -4.193945278530009091e-05 3.307321667671203613e-02 4.250397905707359314e-02 -1.095568686723709106e-01 9.007569402456283569e-02 -9.010430425405502319e-03 1.347434669733047485e-01 1.047181869058739114e-32 -5.552987381815910339e-02 1.448855362832546234e-02 -7.611042819917201996e-03 6.698414683341979980e-03
7.636601105332374573e-03 -2.548452094197273254e-02 -3.111114539206027985e-02 -1.407131366431713104e-02 2.550900354981422424e-02 1.346441060304641724e-01 -9.653080999851226807e-02 -5.290950834751129150e-02 1.690336763858795166e-01 -2.753057560767047107e-05 3.431790322065353394e-02 -2.713292815315071493e-06 -3.320416435599327087e-02 -6.368197500705718994e-02 1.378105133771896362e-01 -2.119788950949441642e-05 -3.962630580645054579e-05 1.150426492094993591e-01 -4.380950704216957092e-02 -3.265250101685523987e-02 2.805710304528474808e-03 6.330125778913497925e-02 6.331454962491989136e-02 2.188970521092414856e-02 -1.051516830921173096e-02 -7.483513653278350830e-02 1.401220262050628662e-01 1.416349709033966064e-01 -6.119701266288757324e-02 -1.283603953197598457e-03 4.074737802147865295e-02 1.381455063819885254e-01 -9.568826854228973389e-02 -8.161249570548534393e-04 -9.319378994405269623e-03 9.851050563156604767e-03 -2.467144047841429710e-03 1.232759654521942139e-01 -1.208765525370836258e-02 -1.214731112122535706e-02 7.958059012889862061e-02 -2.991838753223419189e-02 -1.180178951472043991e-02 -1.556412596255540848e-02 -8.698320388793945312e-02 -5.012830719351768494e-03 -9.620009921491146088e-03 -2.668947563506662846e-04 -2.810221351683139801e-02 1.319787055253982544e-01 -3.217155972379259765e-05 -3.026883583515882492e-03 4.512772709131240845e-02 -8.208418637514114380e-02 5.090355128049850464e-02 -1.817181147634983063e-02 4.039526102133095264e-04 -1.029327213764190674e-01 -1.264235563576221466e-02 -8.645841479301452637e-02 8.995025950753188226e-07 -2.656956017017364502e-02 -1.569543592631816864e-02 -1.335865817964076996e-02
-6.505296099931001663e-03 2.205855846405029297e-01 -1.255609840154647827e-02 -5.712911388400243595e-07 1.364829298108816147e-02 7.014347612857818604e-02 -9.765549258133887633e-09 4.824533313512802124e-02 1.152919083833694458e-01 -1.018410623073577881e-01 -1.090853884816169739e-01 -5.126944702116276176e-11 1.494878381490707397e-01 1.103633549064397812e-02 5.349817872047424316e-02 4.365034028887748718e-02 9.713511914014816284e-02 1.383045911788940430e-01 -8.672582358121871948e-02 2.491601407527923584e-01 -8.010774105787277222e-02 -6.165996938943862915e-02 -4.934310913085937500e-02 5.792011320590972900e-02 5.830257385969161987e-02 -7.051151245832443237e-02 -6.335792690515518188e-02 -1.057080999016761780e-01 1.899204105138778687e-01 -2.643904008436948061e-04 -8.220982054829573116e-12 -1.381303835660219193e-02 9.745181351900100708e-02 -5.453294515609741211e-02 1.215316075831651688e-02 -1.483613625168800354e-02 1.811041869223117828e-02 1.410020291805267334e-01 5.963582918047904968e-02 -7.513575837947428226e-06 1.800733618438243866e-02 6.164651736617088318e-02 -2.846268564462661743e-02 9.582648426294326782e-02 -2.079976547975093126e-04 5.778089165687561035e-02 2.606355398893356323e-02 1.660988330841064453e-01 -2.631466463208198547e-02 1.284712255001068115e-01 -4.258516803383827209e-02 6.461612135171890259e-02 1.106944587081670761e-02 -1.718078181147575378e-02 6.692237406969070435e-02 1.780634522438049316e-01 8.411268889904022217e-02 6.209047883749008179e-02 1.090747416019439697e-01 2.096366323530673981e-02 -5.521956609300104901e-06 -2.658712361380821676e-08 2.011218965053558350e-01 7.955549657344818115e-02
