2.480576513335108757e-03 9.794371435418725014e-04 2.151813916862010956e-02 -3.192638105247169733e-04
5.810450762510299683e-02 -1.123818978667259216e-01 -1.668736189603805542e-01 9.593340009450912476e-02
-3.220557415055897439e-32 -1.761819981038570404e-02 -9.470061049796640873e-04 -8.761483430862426758e-02
-1.816960517317056656e-03 1.409788397133127091e-09 -4.536109417676925659e-02 1.721590087981894612e-04
-9.870354831218719482e-02 -3.045972436666488647e-03 -1.775308139622211456e-02 -5.244909599423408508e-02
7.266237586736679077e-02 -1.439864514395594597e-03 1.415843516588211060e-01 -1.416843533515930176e-01
-1.613437161651631868e-09 1.883200184238376096e-06 -8.547711372375488281e-02 -2.646963852844226364e-33
-6.744050234556198120e-02 -3.859743475914001465e-02 -8.527125418186187744e-02 -2.695623226463794708e-02
-1.110673025250434875e-01 -7.194231450557708740e-02 7.248399406671524048e-02 -1.149936541914939880e-01
6.722117960453033447e-02 4.354310221970081329e-03 2.291747136041522026e-03 -1.527995332192692955e-23
-6.090218201279640198e-02 -6.298986822366714478e-02 4.152391105890274048e-02 -1.176337711513042450e-02
2.226994559168815613e-02 1.253148168325424194e-02 2.373140350897529061e-09 1.364306546747684479e-02
1.421166509389877319e-01 1.413515955209732056e-02 -9.921486675739288330e-02 -8.779659122228622437e-02
-4.008779674768447876e-02 9.887804090976715088e-02 1.183796790428459644e-03 7.355489651672542095e-05
-4.315840825438499451e-02 -9.465090185403823853e-02 1.300601810216903687e-01 -2.076771110296249390e-03
-2.301637083292007446e-02 1.159093063324689865e-02 -4.932580515742301941e-02 -7.102402299642562866e-02
3.105757758021354675e-03 4.736517742276191711e-02 -7.220656424760818481e-02 9.408847242593765259e-02
-1.394225209951400757e-01 -6.302835047245025635e-02 -1.114421635866165161e-01 9.257700294256210327e-02
-1.899962371680885553e-04 -1.094562038779258728e-01 -5.578587949275970459e-02 -1.071664243936538696e-01
1.467831283807754517e-01 -1.086190715432167053e-01 -1.920025944709777832e-01 6.991641968488693237e-02
-2.385068451985716820e-03 3.949477151036262512e-02 5.473688361234962940e-05 -2.480459670550771989e-06
-6.917896121740341187e-02 -4.269116092473268509e-03 4.289875552058219910e-02 -8.182487450540065765e-03
-8.586172014474868774e-03 -8.237820118665695190e-02 6.833949685096740723e-02 -4.831438139081001282e-02
-1.132418215274810791e-02 -1.062098592519760132e-01 -3.974565491080284119e-02 -1.506938878446817398e-02
4.284434765577316284e-02 4.914521705359220505e-04 9.706477634608745575e-03 7.536925375461578369e-02
6.081811243192737465e-33 -1.990823683684084244e-08 -1.656830499996431172e-05 1.958237029612064362e-02
-1.218838021159172058e-01 -8.633332699537277222e-02 1.542449146509170532e-01 -1.333138048648834229e-01
-1.878867857158184052e-02 -1.604663091711699963e-03 -1.407278180122375488e-01 8.596698939800262451e-02
1.451847702264785767e-01 -9.245611727237701416e-02 -1.993216574192047119e-01 2.055109871434979141e-05
6.315866112709045410e-02 2.641527354717254639e-02 2.109587148879654706e-05 -8.493596687912940979e-03
-6.234027445316314697e-02 2.802766673266887665e-02 -1.021836102008819580e-01 9.490662068128585815e-02
-9.313309937715530396e-02 6.059567630290985107e-02 5.854731798171997070e-02 2.439145371317863464e-02
5.215773358941078186e-02 1.140190940350294113e-02 1.101063713431358337e-01 -6.913037598133087158e-02
4.312253091484308243e-03 -6.811054423451423645e-03 1.172095217043533921e-04 -6.066476926207542419e-02
-3.224670141935348511e-02 6.797291338443756104e-02 -2.093251328915357590e-03 1.089611469069495797e-04
1.993171311914920807e-02 3.306107223033905029e-02 2.691963128745555878e-02 -1.285238470882177353e-02
1.088119670748710632e-02 -7.288955897092819214e-02 -1.816743612289428711e-02 -1.049411594867706299e-01
9.972600638866424561e-02 -1.140206307172775269e-01 -9.567591547966003418e-02 1.983741670846939087e-02
8.325745165348052979e-02 -1.146376952528953552e-01 -5.375767871737480164e-02 1.467131893150508404e-03
-9.367953985929489136e-02 6.181539511152293019e-16 -3.351092711091041565e-02 -1.009586453437805176e-01
-8.803299628198146820e-03 1.167631447315216064e-01 -7.011919282376766205e-03 6.694424152374267578e-02
-1.903313957154750824e-02 -2.856965549290180206e-02 -1.165110543370246887e-01 -4.253454133868217468e-02
-2.787400595843791962e-02 -5.268435925245285034e-03 1.803940907120704651e-02 -1.439465582370758057e-02
3.542360290884971619e-02 -1.215607747435569763e-01 -6.487103551626205444e-02 -4.684619978070259094e-02
-5.336249992251396179e-02 -5.431669205427169800e-02 3.080642409622669220e-02 1.335696596652269363e-02
-2.152512595057487488e-02 4.409276321530342102e-02 3.230373561382293701e-02 -4.560895264148712158e-02
1.339545287191867828e-02 2.073828689754009247e-02 -3.612855821847915649e-02 -5.544868111610412598e-02
6.656297296285629272e-02 1.096449345350265503e-01 -9.592799097299575806e-02 1.118580773472785950e-01
-3.981055226176977158e-03 -7.929756538942456245e-04 5.707110464572906494e-02 9.996546804904937744e-02
1.540817618370056152e-01 -4.442878067493438721e-02 1.051990836858749390e-01 -1.331765055656433105e-01
-1.402526391004227062e-33 7.354842033237218857e-03 -4.330734163522720337e-02 6.299765664152801037e-04
4.242151230573654175e-02 -5.773990601301193237e-02 6.184306461364030838e-03 5.659463629126548767e-02
-5.218966677784919739e-02 -4.748264327645301819e-03 8.044793270528316498e-03 -3.741802414879202843e-03
-7.136126514524221420e-04 -1.628347299993038177e-02 2.402500482276082039e-03 -1.056274026632308960e-01
5.932113621383905411e-03 -1.225593686103820801e-01 5.925486609339714050e-02 3.377830982208251953e-02
-1.253791898488998413e-01 -8.624497056007385254e-02 -2.240303605794906616e-01 5.214386805891990662e-02
1.373757421970367432e-02 1.686055026948451996e-02 -1.253954172134399414e-01 6.684668362140655518e-02
3.037120588123798370e-02 -1.153285652399063110e-01 -5.461075156927108765e-02 1.751424511894583702e-03
8.510714769363403320e-02 -5.779466032981872559e-02 -6.586845219135284424e-02 -3.553789854049682617e-02
2.764053642749786377e-02 -9.161168127320706844e-04 9.184636920690536499e-02 -8.874461799860000610e-02
-1.707019117258460690e-29 8.063412713235022839e-28 -1.755298399075400084e-05 -2.684146951741333414e-14
4.539060965180397034e-02 8.121724240481853485e-03 1.388863543979823589e-03 -6.216135079739615321e-05
1.695289909839630127e-01 -1.525837481021881104e-01 -5.375414341688156128e-02 -5.536619573831558228e-02
6.857392191886901855e-02 -2.272242493927478790e-02 -4.296246170997619629e-02 5.451051518321037292e-03
