4.350713267922401428e-02
1.945478282868862152e-02
7.757884263992309570e-02
2.116300538182258606e-02
-1.485886052250862122e-02
-9.252121299505233765e-02
8.030056953430175781e-02
-5.443139001727104187e-02
-4.540928173810243607e-03
-3.176642954349517822e-02
-9.222324192523956299e-02
1.466023828834295273e-02
3.043617680668830872e-02
-3.563071042299270630e-02
5.778724327683448792e-02
-7.582083344459533691e-03
-4.491477459669113159e-02
1.402703113853931427e-02
1.365852821618318558e-02
7.700926810503005981e-02
2.460851334035396576e-02
1.218292117118835449e-01
1.317478250712156296e-02
2.031011320650577545e-02
1.044869348406791687e-01
3.747151792049407959e-02
8.153748512268066406e-02
-2.548587508499622345e-02
-2.084204740822315216e-02
4.384322836995124817e-02
9.693350642919540405e-03
4.265542328357696533e-02
8.205486834049224854e-02
-9.873297065496444702e-02
-7.194804493337869644e-04
1.205297484993934631e-01
3.299757465720176697e-02
2.903913520276546478e-02
4.578454419970512390e-02
-1.012748777866363525e-01
-7.251956965774297714e-03
2.606902457773685455e-02
3.029841231182217598e-03
2.521624416112899780e-02
-8.978439122438430786e-02
2.458060719072818756e-02
3.435960784554481506e-02
4.839625582098960876e-02
-9.473383426666259766e-02
1.053128167986869812e-01
7.105767726898193359e-02
1.202291809022426605e-02
7.234166562557220459e-02
-8.432706445455551147e-02
-7.832799106836318970e-02
4.990512132644653320e-02
2.176393009722232819e-02
-1.044595148414373398e-02
3.815863281488418579e-02
2.962981164455413818e-02
-2.637610025703907013e-02
5.187892913818359375e-02
2.835937589406967163e-02
-9.400714188814163208e-02
