-1.635899245738983154e-01 -1.551448702812194824e-01 1.034600064158439636e-01 -1.264539510011672974e-01 -2.599038369953632355e-02 -7.629263401031494141e-02 1.924899816513061523e-01 -3.483071923255920410e-02 -1.778421700000762939e-01 -1.566923037171363831e-02 1.264338493347167969e-01 -1.420576274394989014e-01 -4.939767718315124512e-02 -1.980381160974502563e-01 2.905470430850982666e-01 -1.666075587272644043e-01 -8.169118314981460571e-02 -1.366734951734542847e-01 -1.078303381800651550e-01 1.071863025426864624e-01 -8.399386703968048096e-02 3.427067399024963379e-01 -9.064436890184879303e-03 -7.644753903150558472e-02 3.660347461700439453e-01 -2.407316863536834717e-01 2.499963939189910889e-01 -5.574115738272666931e-02 -4.389013722538948059e-02 -1.703701466321945190e-01 2.096460759639739990e-01 1.979676634073257446e-01 3.635281920433044434e-01 5.714582279324531555e-02 -1.045554354786872864e-01 3.321995735168457031e-01 1.543488949537277222e-01 1.374373435974121094e-01 2.276143282651901245e-01 1.090424656867980957e-01 -1.021543145179748535e-01 -1.147237718105316162e-01 -1.164327189326286316e-01 -1.586123183369636536e-02 1.389752030372619629e-01 -2.297206968069076538e-01 -6.379894167184829712e-02 2.539115548133850098e-01 2.614198811352252960e-02 3.782319128513336182e-01 1.679252982139587402e-01 -4.628883302211761475e-02 1.588445007801055908e-01 -3.830700879916548729e-03 1.781309209764003754e-02 2.006280869245529175e-01 -6.642057094722986221e-03 -1.472094208002090454e-01 1.850276440382003784e-01 -1.844822056591510773e-02 -1.041257008910179138e-01 -9.760580956935882568e-03 -1.389550864696502686e-01 1.970829367637634277e-01
-1.769209504127502441e-01 -4.998450353741645813e-02 3.061953485012054443e-01 -1.518049836158752441e-01 -5.362246185541152954e-03 2.034637182950973511e-01 1.662223786115646362e-01 1.910899430513381958e-01 2.807802259922027588e-01 -1.336666792631149292e-01 -2.858542464673519135e-02 2.331367284059524536e-01 -2.067423760890960693e-01 1.252528578042984009e-01 -1.482104063034057617e-01 2.547883093357086182e-01 -1.650131680071353912e-02 3.150287866592407227e-01 -4.549636319279670715e-02 3.270915448665618896e-01 2.712327241897583008e-01 1.555349677801132202e-01 8.554591238498687744e-02 1.656436622142791748e-01 4.152192268520593643e-03 3.919770568609237671e-02 2.107341960072517395e-02 -1.132394559681415558e-02 -1.192494705319404602e-01 -5.684559792280197144e-02 1.710408627986907959e-01 -7.983139902353286743e-02 -1.237504035234451294e-01 -4.399650171399116516e-02 1.660019457340240479e-01 2.320392578840255737e-01 -6.679897010326385498e-02 -6.217170879244804382e-02 -1.109423115849494934e-01 1.392793208360671997e-01 1.353612691164016724e-01 -1.508034616708755493e-01 1.937331855297088623e-01 1.621976643800735474e-01 -6.133133918046951294e-02 -2.068739086389541626e-01 -7.020390778779983521e-02 -1.520046144723892212e-01 2.246669679880142212e-01 1.368380337953567505e-01 1.295915544033050537e-01 1.359418928623199463e-01 1.937542408704757690e-01 1.325532346963882446e-01 9.987737983465194702e-02 -3.368141129612922668e-02 9.967976808547973633e-02 2.050976008176803589e-01 -8.756620436906814575e-02 1.979107260704040527e-01 -1.239566206932067871e-01 3.268345296382904053e-01 1.375282406806945801e-01 9.777904488146305084e-04
