-1.917297244071960449e-01 -1.331243962049484253e-01
-1.829959154129028320e-01 2.445848137140274048e-01
2.566430568695068359e-01 -3.372955620288848877e-01
-1.911760121583938599e-01 2.508731484413146973e-01
3.335892409086227417e-02 -4.994659498333930969e-02
-4.960886761546134949e-02 2.170888036489486694e-01
3.033530116081237793e-01 -2.267227917909622192e-01
1.210880726575851440e-01 2.108822762966156006e-01
3.064386546611785889e-01 -1.531334370374679565e-01
1.097807884216308594e-01 -8.198744803667068481e-02
-6.338217109441757202e-02 1.799956709146499634e-01
-1.478918194770812988e-01 -3.253120481967926025e-01
-1.487954407930374146e-01 9.985557198524475098e-02
1.332002580165863037e-01 -3.505522385239601135e-02
2.270218133926391602e-01 -3.471081554889678955e-01
1.274572759866714478e-01 -6.423992663621902466e-02
1.073257029056549072e-01 7.729513198137283325e-02
9.505610913038253784e-02 -1.817070692777633667e-01
3.339297324419021606e-02 1.961977332830429077e-01
2.652842402458190918e-01 -3.555193543434143066e-01
-7.872013747692108154e-02 -2.968774735927581787e-01
7.367164641618728638e-02 -2.606871128082275391e-01
1.178154796361923218e-01 -5.410569906234741211e-02
-5.777412652969360352e-02 -1.460046172142028809e-01
2.675931751728057861e-01 7.015252858400344849e-02
-2.008542120456695557e-01 -1.261427998542785645e-01
8.748356252908706665e-02 -4.975870624184608459e-02
1.020818427205085754e-01 -2.308690547943115234e-02
-6.356850266456604004e-02 -1.820638775825500488e-01
-1.108068078756332397e-01 -5.606249347329139709e-02
1.708076298236846924e-01 1.518834829330444336e-01
1.693624816834926605e-02 -2.163018733263015747e-01
3.175779879093170166e-01 -4.853048548102378845e-02
-1.713462322950363159e-01 1.337902098894119263e-01
1.406840831041336060e-01 -8.543242514133453369e-02
2.652080953121185303e-01 -1.768197864294052124e-01
2.685387134552001953e-01 -4.996680188924074173e-03
1.086426973342895508e-01 -1.140418499708175659e-01
2.097526639699935913e-01 1.271463632583618164e-01
-1.199010536074638367e-01 -3.221011487767100334e-03
6.241333484649658203e-02 -7.347057014703750610e-02
-1.268347799777984619e-01 1.960665732622146606e-01
5.226590856909751892e-02 -2.215219438076019287e-01
3.150424957275390625e-01 -1.890652477741241455e-01
-2.570939250290393829e-03 1.353432238101959229e-01
-2.470148801803588867e-01 1.029042154550552368e-01
-2.635464668273925781e-01 8.970261365175247192e-02
3.114984035491943359e-01 -2.293074429035186768e-01
-2.255279123783111572e-01 9.922219067811965942e-02
2.038564980030059814e-01 -3.624096214771270752e-01
3.598430156707763672e-01 7.698841392993927002e-02
2.832173705101013184e-01 -2.533077001571655273e-01
2.852215468883514404e-01 -2.886488474905490875e-02
-9.786894172430038452e-02 7.531697303056716919e-02
-4.929764941334724426e-02 -3.382888436317443848e-02
2.637200057506561279e-01 9.583117812871932983e-02
2.508942782878875732e-01 6.236141175031661987e-02
2.072407007217407227e-01 1.756927222013473511e-01
2.610586285591125488e-01 -9.909509122371673584e-02
1.818879991769790649e-01 -2.680736780166625977e-01
3.514467272907495499e-03 -1.361041218042373657e-01
1.625892966985702515e-01 -2.056834101676940918e-01
-1.691246777772903442e-01 -5.850082263350486755e-02
-1.607800722122192383e-01 5.097289569675922394e-03
