1.927739530801773071e-01 7.800816744565963745e-02 -1.486749649047851562e-01 -1.606507450342178345e-01 -5.984434112906455994e-02 3.690177574753761292e-02 6.898272782564163208e-02 -1.496238857507705688e-01 1.880481094121932983e-02 -2.756276726722717285e-01 -1.329195350408554077e-01 -1.144970580935478210e-01 -5.389728024601936340e-02 9.894994646310806274e-02 -6.110068783164024353e-02 -1.610099077224731445e-01 6.448208540678024292e-02 1.763611286878585815e-01 1.193348318338394165e-01 3.424373269081115723e-02 4.184843227267265320e-02 1.921602189540863037e-01 1.247449442744255066e-01 2.887621149420738220e-02 3.768094256520271301e-02 -1.741435825824737549e-01 2.225649729371070862e-02 1.843025535345077515e-01 1.485193669795989990e-01 -3.130964338779449463e-01 -2.472353875637054443e-01 -3.753871843218803406e-02
1.033794134855270386e-02 1.984112560749053955e-01 1.001209840178489685e-01 3.633205592632293701e-02 2.897608876228332520e-01 1.134345233440399170e-01 -1.359565407037734985e-01 -1.780618429183959961e-01 1.844632476568222046e-01 -1.340013146400451660e-01 2.818166911602020264e-01 1.703399866819381714e-01 -2.266809046268463135e-01 2.480395585298538208e-01 7.164493948221206665e-02 -7.800761610269546509e-02 1.105198040604591370e-01 2.207914367318153381e-02 1.526355445384979248e-01 -1.474470496177673340e-01 -2.792110145092010498e-01 -7.893864810466766357e-02 -1.307962834835052490e-01 -2.272522747516632080e-01 -2.146486192941665649e-01 3.096102178096771240e-01 -1.555117126554250717e-02 -2.183131724596023560e-01 -1.398115456104278564e-01 2.602405548095703125e-01 2.104115555994212627e-04 5.665339156985282898e-02
-3.414012119174003601e-02 -2.572562992572784424e-01 -9.622862562537193298e-03 -7.040567230433225632e-03 1.275395452976226807e-01 1.299912780523300171e-01 -1.678475141525268555e-01 -1.610294580459594727e-01 -1.064021661877632141e-01 -2.964328043162822723e-02 1.245245561003684998e-01 -1.204069182276725769e-01 -2.256044000387191772e-01 -3.652973473072052002e-02 -1.259024441242218018e-01 -1.765492111444473267e-01 1.125693321228027344e-01 -3.106977343559265137e-01 -2.805669009685516357e-01 1.996623724699020386e-01 2.742919027805328369e-01 1.512718647718429565e-01 2.314846962690353394e-01 1.760982424020767212e-01 3.400474190711975098e-01 -4.682676121592521667e-02 1.866386830806732178e-01 -6.034982576966285706e-02 1.406877934932708740e-01 4.544882476329803467e-02 -1.421087086200714111e-01 1.690315604209899902e-01
2.017208188772201538e-01 -3.282480239868164062e-01 -1.235153079032897949e-01 5.800650641322135925e-02 -1.558539271354675293e-01 1.363140642642974854e-01 -2.523268200457096100e-02 5.102513357996940613e-02 3.315953314304351807e-01 2.434576153755187988e-01 1.798788160085678101e-01 3.087037205696105957e-01 9.133754298090934753e-03 2.185838073492050171e-01 -2.890200316905975342e-01 1.859145313501358032e-01 -2.491732873022556305e-02 -1.789042204618453979e-01 1.844091713428497314e-02 6.763761490583419800e-02 -1.294160261750221252e-03 -1.769291758537292480e-01 1.228026896715164185e-01 -1.917327195405960083e-01 -1.140908822417259216e-01 -1.267485022544860840e-01 -3.132953941822052002e-01 2.940824329853057861e-01 8.804623037576675415e-03 -7.250422984361648560e-02 2.384399175643920898e-01 -1.205474287271499634e-01
3.554786741733551025e-01 -1.147951558232307434e-01 -3.257023692131042480e-01 5.146888550370931625e-03 -2.235009819269180298e-01 2.869968712329864502e-01 3.975730240345001221e-01 -2.342364490032196045e-01 2.644135057926177979e-01 5.682890489697456360e-02 1.513323783874511719e-01 8.268060535192489624e-02 -1.508869081735610962e-01 -1.638069003820419312e-01 -2.191225588321685791e-01 -7.224889844655990601e-02 6.442427635192871094e-02 -1.354687511920928955e-01 -1.821328103542327881e-01 1.559460759162902832e-01 5.652502179145812988e-02 2.008404135704040527e-01 -7.938449084758758545e-02 2.329911850392818451e-02 8.878116309642791748e-02 -8.143407106399536133e-02 -5.371623113751411438e-02 -2.562346458435058594e-01 -5.040565505623817444e-02 3.457775712013244629e-01 5.963215138763189316e-03 -1.822613365948200226e-02
-3.133985996246337891e-01 2.960567176342010498e-01 -2.139680236577987671e-01 -1.065847501158714294e-01 -1.218491345643997192e-01 -2.201808542013168335e-01 -5.004561692476272583e-02 3.054833412170410156e-01 -3.053252398967742920e-01 -1.465341895818710327e-01 -6.877419352531433105e-02 -7.350754737854003906e-02 1.602540463209152222e-01 6.198067963123321533e-02 -1.443126797676086426e-01 -8.230409026145935059e-02 1.292806416749954224e-01 -2.158327251672744751e-01 -4.378705099225044250e-02 -4.511186480522155762e-02 9.961622953414916992e-02 2.781148850917816162e-01 -4.244203865528106689e-02 -3.986819088459014893e-02 -2.093124091625213623e-01 1.154928132891654968e-01 -6.946591287851333618e-02 1.606736034154891968e-01 3.088301420211791992e-01 1.511131823062896729e-01 -9.183035045862197876e-02 -3.363245427608489990e-01
-2.003092914819717407e-01 1.406650692224502563e-01 4.073164239525794983e-02 -1.361700296401977539e-01 1.401420533657073975e-01 1.855164021253585815e-01 1.149515062570571899e-01 -3.711725473403930664e-01 2.012626528739929199e-01 1.343059241771697998e-01 1.632437556982040405e-01 2.352855354547500610e-01 3.262820243835449219e-01 2.226848453283309937e-01 -7.254638522863388062e-02 -8.349930495023727417e-02 2.347249537706375122e-02 -2.893766462802886963e-01 5.952853336930274963e-02 -8.919867873191833496e-02 -5.952266231179237366e-02 2.284376621246337891e-01 -2.297433763742446899e-01 -2.550539374351501465e-01 -6.636329740285873413e-02 -3.344646096229553223e-01 4.080118611454963684e-03 7.869962602853775024e-03 1.753447949886322021e-01 -1.567085236310958862e-01 7.484009955078363419e-03 1.481821294873952866e-02
2.456500381231307983e-01 -1.297846287488937378e-01 2.736333608627319336e-01 1.245836690068244934e-01 -2.591273486614227295e-01 1.640882492065429688e-01 2.958782911300659180e-01 2.599000930786132812e-01 1.509654521942138672e-01 1.442251205444335938e-01 -2.827843725681304932e-01 -1.733758300542831421e-02 -1.301276385784149170e-01 1.654232144355773926e-01 -1.019909307360649109e-01 2.360975444316864014e-01 2.103767246007919312e-01 -4.989709332585334778e-02 -3.146561086177825928e-01 2.452220581471920013e-02 -2.476381063461303711e-01 -2.322173416614532471e-01 2.580205798149108887e-01 2.203728072345256805e-02 1.086476370692253113e-01 -2.684071362018585205e-01 1.804521977901458740e-01 1.626888364553451538e-01 9.778241813182830811e-02 -2.554177641868591309e-01 -5.323788523674011230e-02 -2.373355478048324585e-01
-8.808017522096633911e-02 -4.920696094632148743e-02 1.031640693545341492e-01 1.940407603979110718e-01 -3.620943427085876465e-01 -1.950452327728271484e-01 -2.390955835580825806e-01 1.641357541084289551e-01 -2.554865181446075439e-01 -2.577321231365203857e-01 2.159976363182067871e-01 1.993849724531173706e-01 -1.565787643194198608e-01 -1.132826879620552063e-01 -1.148034706711769104e-01 2.434962391853332520e-01 1.718448549509048462e-01 -1.430902928113937378e-01 3.630748391151428223e-01 -2.424101531505584717e-01 1.625448167324066162e-01 -1.579951941967010498e-01 -3.088930547237396240e-01 -2.285887002944946289e-01 2.025506049394607544e-01 3.181027472019195557e-01 1.291875392198562622e-01 2.841948270797729492e-01 3.009985685348510742e-01 -1.279208958148956299e-01 1.394902020692825317e-01 1.641471087932586670e-01
-9.237144887447357178e-02 -1.798982359468936920e-02 -2.998147159814834595e-02 -2.121943384408950806e-01 -8.929974585771560669e-02 -1.503849327564239502e-01 1.511685457080602646e-02 -2.293014675378799438e-01 1.675468683242797852e-01 2.870925366878509521e-01 -2.718035578727722168e-01 3.898825496435165405e-02 3.373423814773559570e-01 1.730120033025741577e-01 1.876647919416427612e-01 -3.441073596477508545e-01 -1.697661280632019043e-01 -2.921578884124755859e-01 -8.822640776634216309e-02 -1.322397440671920776e-01 7.077075541019439697e-02 -3.916913270950317383e-02 -2.722772061824798584e-01 3.953694924712181091e-02 -1.259153485298156738e-01 2.783057987689971924e-01 -1.128683835268020630e-01 -8.073967695236206055e-02 -2.507159709930419922e-01 -6.278717517852783203e-02 -9.288944420404732227e-04 5.387700349092483521e-02
-3.135618269443511963e-01 -1.223752498626708984e-01 8.366543054580688477e-02 -2.553523480892181396e-01 2.792619168758392334e-01 2.374717444181442261e-01 2.224074304103851318e-01 6.423841416835784912e-02 -1.891513168811798096e-01 -3.607920184731483459e-02 5.667780339717864990e-02 6.686890870332717896e-02 9.916463494300842285e-02 4.549722746014595032e-02 7.451809942722320557e-02 -1.999448686838150024e-01 3.916072659194469452e-03 -1.590216904878616333e-01 2.177381217479705811e-01 1.793320178985595703e-01 3.115545585751533508e-02 5.865684524178504944e-02 -9.766712039709091187e-02 -9.638894349336624146e-02 2.098669707775115967e-01 -1.378770917654037476e-01 2.336112260818481445e-01 -1.731626987457275391e-01 -1.271547377109527588e-01 2.238166332244873047e-01 1.681005805730819702e-01 -9.838029742240905762e-02
-2.344582378864288330e-01 5.957888904958963394e-03 1.667061448097229004e-01 -1.821665018796920776e-01 7.790798693895339966e-02 -1.351277381181716919e-01 -6.799378246068954468e-02 -1.855350881814956665e-01 9.634743630886077881e-02 9.062872827053070068e-02 2.612502872943878174e-02 2.270771004259586334e-02 2.670809626579284668e-01 1.156783699989318848e-01 2.554291188716888428e-01 -7.824696600437164307e-02 1.752321124076843262e-01 9.152312576770782471e-02 -3.365222215652465820e-01 -1.352364271879196167e-01 -1.486523598432540894e-01 9.884448349475860596e-02 -1.075731664896011353e-01 -3.133551776409149170e-01 -1.092257201671600342e-01 -3.405982553958892822e-01 2.078709751367568970e-01 -3.087014555931091309e-01 3.683156520128250122e-02 -1.453572660684585571e-01 2.121967226266860962e-01 3.221305608749389648e-01
-2.176399081945419312e-01 -1.723573505878448486e-01 9.168592095375061035e-02 -3.536664843559265137e-01 3.862097859382629395e-02 1.396244466304779053e-01 -2.499476671218872070e-01 2.308628857135772705e-01 9.823441505432128906e-02 -2.646536529064178467e-01 1.683478206396102905e-01 -5.216470733284950256e-02 6.199835240840911865e-02 2.442973107099533081e-01 5.143683403730392456e-02 4.150566831231117249e-02 -6.362048536539077759e-02 1.279931813478469849e-01 -2.515078485012054443e-01 1.129096224904060364e-01 -2.732513844966888428e-01 3.290118873119354248e-01 2.311317175626754761e-01 2.172905653715133667e-01 2.416715174913406372e-01 3.200421109795570374e-02 -2.825308144092559814e-01 9.057757258415222168e-02 -3.459904110059142113e-03 -1.321682184934616089e-01 -2.303836643695831299e-01 -5.504024773836135864e-02
-1.346295699477195740e-02 7.076399773359298706e-02 -2.051714509725570679e-01 -1.083334442228078842e-02 8.549769222736358643e-02 6.751672923564910889e-02 4.221167787909507751e-02 -1.754996478557586670e-01 -2.520689368247985840e-01 2.445548921823501587e-01 7.272811233997344971e-02 5.559264868497848511e-02 1.317222714424133301e-01 -2.424934953451156616e-01 1.966172158718109131e-01 8.282193541526794434e-02 -3.720203239936381578e-04 9.517958760261535645e-02 9.704841673374176025e-02 1.486264467239379883e-01 1.021451354026794434e-01 2.228908091783523560e-01 -2.834255397319793701e-01 -9.986142069101333618e-02 -3.398274779319763184e-01 -2.667398750782012939e-01 2.262572571635246277e-02 -1.849665492773056030e-01 -1.642234176397323608e-01 -1.213080212473869324e-01 3.672142028808593750e-01 -2.822883985936641693e-02
-1.292854547500610352e-01 2.039389610290527344e-01 -9.351570159196853638e-02 -1.858286559581756592e-01 -1.131257563829421997e-01 -9.386674314737319946e-02 2.897771894931793213e-01 3.371893242001533508e-02 9.878452867269515991e-02 -1.253427863121032715e-01 -1.249967738986015320e-01 -9.421149268746376038e-03 -2.742559611797332764e-01 8.158836513757705688e-02 -2.755244970321655273e-01 -1.912000924348831177e-01 3.743587434291839600e-02 7.220893353223800659e-02 -9.362389892339706421e-02 -2.722458168864250183e-02 2.064377814531326294e-01 -4.256807640194892883e-02 -1.153859645128250122e-01 -2.258803993463516235e-01 -1.117189452052116394e-01 9.197948500514030457e-03 -1.683835834264755249e-01 1.352566331624984741e-01 -2.029533386230468750e-01 1.515837758779525757e-01 -3.267802596092224121e-01 -1.736899912357330322e-01
4.723950847983360291e-02 -2.484262734651565552e-01 1.182122305035591125e-01 2.897873818874359131e-01 -2.377505451440811157e-01 -2.921926416456699371e-02 1.596558988094329834e-01 3.431681990623474121e-01 8.193645626306533813e-02 -2.240967750549316406e-01 2.893674075603485107e-01 8.696732670068740845e-02 -1.234738230705261230e-01 -2.135186940431594849e-01 2.299222946166992188e-01 1.026055961847305298e-02 2.381256222724914551e-01 3.651262521743774414e-01 -2.612483501434326172e-01 -2.832033932209014893e-01 -3.217834830284118652e-01 2.159158289432525635e-01 -1.642689555883407593e-01 -2.546503841876983643e-01 1.570204347372055054e-01 7.589882705360651016e-03 2.174339741468429565e-01 1.444490626454353333e-02 -1.149476245045661926e-01 -1.862075477838516235e-01 1.020447909832000732e-01 -5.893322825431823730e-02
-1.997089684009552002e-01 3.249108195304870605e-01 -1.343012601137161255e-01 -1.370393484830856323e-01 2.070100605487823486e-01 -4.966271668672561646e-02 -1.963181421160697937e-02 -1.549026668071746826e-01 -1.431141328066587448e-02 -2.469783127307891846e-01 -1.086195260286331177e-01 3.047136664390563965e-01 4.137352574616670609e-03 2.166063487529754639e-01 2.137521803379058838e-01 -3.600277900695800781e-01 -2.516068220138549805e-01 1.124184653162956238e-01 -1.694035530090332031e-01 3.028131276369094849e-02 8.605715632438659668e-02 -2.968430817127227783e-01 -9.302087128162384033e-02 -1.269818544387817383e-01 -1.562442630529403687e-01 -2.911379933357238770e-01 7.024049758911132812e-02 -2.165670841932296753e-01 -1.576766371726989746e-01 1.631411463022232056e-01 2.628929167985916138e-02 -5.812820978462696075e-03
1.319280266761779785e-01 2.235717624425888062e-01 2.822096347808837891e-01 -2.628542780876159668e-01 1.953358352184295654e-01 5.650547798722982407e-03 -2.246684134006500244e-01 -3.635047972202301025e-01 2.351216226816177368e-01 1.094184517860412598e-01 -6.322056800127029419e-02 -2.953068539500236511e-02 -9.615684300661087036e-02 1.018114238977432251e-01 -2.101031988859176636e-01 -2.015617787837982178e-01 1.807778328657150269e-01 -8.051701635122299194e-02 -3.592195510864257812e-01 -9.118630737066268921e-02 1.682602167129516602e-01 2.449973374605178833e-01 6.837748736143112183e-02 -3.426266610622406006e-01 -2.038448303937911987e-01 -1.065028011798858643e-01 4.801750928163528442e-02 8.653869479894638062e-02 -2.435122430324554443e-01 -2.557612955570220947e-01 -2.304604947566986084e-01 2.116347849369049072e-01
1.690499931573867798e-01 -2.548359334468841553e-01 7.548960298299789429e-02 -2.253372408449649811e-02 -2.142526954412460327e-01 1.511491984128952026e-01 1.605337113142013550e-01 2.921707630157470703e-01 8.569426834583282471e-02 5.516707524657249451e-02 1.733763515949249268e-02 1.119765336625277996e-03 -3.152739405632019043e-01 2.126236855983734131e-01 3.880364894866943359e-01 -2.561693266034126282e-02 2.334040701389312744e-01 3.592143356800079346e-01 1.712944954633712769e-01 -4.730523005127906799e-02 3.124032728374004364e-02 1.185221299529075623e-01 -7.293370366096496582e-02 1.080452054738998413e-01 -4.780760407447814941e-02 -2.273060381412506104e-01 1.642781645059585571e-01 2.510740458965301514e-01 -1.304132491350173950e-02 -2.686882019042968750e-01 2.434559017419815063e-01 1.053998470306396484e-01
1.766181737184524536e-02 -1.720018237829208374e-01 7.398378103971481323e-02 -1.514832526445388794e-01 6.237608939409255981e-02 2.821456193923950195e-01 -2.116290926933288574e-01 -1.409379541873931885e-01 2.839141786098480225e-01 4.821794852614402771e-02 -1.188487112522125244e-01 2.552167139947414398e-02 -6.245926767587661743e-02 -6.452206522226333618e-03 7.056307792663574219e-02 2.179713398218154907e-01 -5.220100283622741699e-02 -5.784505605697631836e-02 2.621858119964599609e-01 1.863193809986114502e-01 3.811387345194816589e-02 1.726181954145431519e-01 -8.791811019182205200e-02 -3.323665261268615723e-02 -1.580480337142944336e-01 -4.746883362531661987e-02 -2.463264316320419312e-01 9.914980083703994751e-02 8.941065520048141479e-02 3.014194965362548828e-01 -4.866947233676910400e-02 2.076355218887329102e-01
