-1.157671958208084106e-01 -6.076060608029365540e-02 -9.988826513290405273e-02 1.905604600906372070e-01
-6.873244047164916992e-02 2.201928645372390747e-01 3.616579473018646240e-01 3.048987388610839844e-01
8.001746237277984619e-02 1.633173972368240356e-01 1.569429188966751099e-01 -1.045047044754028320e-01
-3.220163285732269287e-02 1.572714000940322876e-01 -1.295057088136672974e-01 6.510389596223831177e-02
-5.130504444241523743e-02 -2.312196791172027588e-01 -2.400823980569839478e-01 -2.810507118701934814e-01
1.374898944050073624e-02 3.769112518057227135e-03 1.511163711547851562e-01 1.179364882409572601e-02
-1.348645836114883423e-01 2.413110807538032532e-03 2.542430162429809570e-01 1.458268165588378906e-01
-1.481791585683822632e-01 2.142949551343917847e-01 -3.614419698715209961e-01 1.297198385000228882e-01
-2.337056249380111694e-01 -1.349384337663650513e-01 2.031803727149963379e-01 -2.394369244575500488e-01
-2.617504000663757324e-01 -2.211907356977462769e-01 7.865306735038757324e-02 -2.824078202247619629e-01
-2.403870820999145508e-01 -1.853185445070266724e-01 -2.012364268302917480e-01 -2.898275256156921387e-01
-2.049444057047367096e-02 1.958425790071487427e-01 4.006303846836090088e-01 -3.177233636379241943e-01
2.759440839290618896e-01 -2.952048480510711670e-01 1.391012817621231079e-01 9.182295948266983032e-02
8.364190906286239624e-02 -9.083048999309539795e-02 1.339273899793624878e-01 -1.560731530189514160e-01
-1.364342402666807175e-02 2.161030024290084839e-01 2.936780154705047607e-01 -5.406585987657308578e-03
-3.159870505332946777e-01 7.737374305725097656e-02 -3.220730721950531006e-01 1.763193458318710327e-01
-7.332568615674972534e-02 2.654200494289398193e-01 -6.468220055103302002e-02 3.263474404811859131e-01
-3.499820530414581299e-01 1.644336283206939697e-01 -1.194010674953460693e-01 6.183325126767158508e-02
1.644993275403976440e-01 2.896944880485534668e-01 -3.327661752700805664e-01 -2.616596221923828125e-01
-1.184995099902153015e-01 -8.521258085966110229e-02 2.574010938405990601e-02 -4.867783188819885254e-02
4.078966006636619568e-02 -9.820946305990219116e-02 -8.272355794906616211e-02 -3.153524100780487061e-01
7.635796070098876953e-02 2.653403580188751221e-01 2.594067156314849854e-02 2.409772723913192749e-01
-3.819151967763900757e-02 -8.798753470182418823e-02 8.597183972597122192e-02 -3.428254425525665283e-01
-1.663401275873184204e-01 -3.566757440567016602e-01 -2.766071259975433350e-01 2.751490175724029541e-01
9.268350899219512939e-02 -8.293102681636810303e-02 2.108493447303771973e-01 1.930300742387771606e-01
-1.087474673986434937e-01 -3.025951385498046875e-01 -2.183221727609634399e-01 1.187148168683052063e-01
-2.428569830954074860e-02 1.544455587863922119e-01 -9.076543152332305908e-02 3.042377531528472900e-01
-3.431867342442274094e-03 1.125949919223785400e-01 -7.494512945413589478e-02 -2.720954455435276031e-02
3.720385134220123291e-01 3.258780837059020996e-01 -2.354508936405181885e-01 -1.753345131874084473e-01
-2.201200425624847412e-01 -1.785682328045368195e-02 -3.805587440729141235e-02 2.948346138000488281e-01
1.141680777072906494e-02 -2.606354057788848877e-01 1.429736912250518799e-01 1.379699856042861938e-01
-1.973450034856796265e-01 2.182266563177108765e-01 4.004933238029479980e-01 1.125149428844451904e-01
