8.680143207311630249e-02
8.719452470541000366e-02
1.299357563257217407e-01
-5.113244056701660156e-02
9.449580311775207520e-02
6.234002113342285156e-02
-6.233811844140291214e-03
1.192473396658897400e-01
2.283249236643314362e-02
4.343397170305252075e-02
1.280466914176940918e-01
-6.365400552749633789e-02
-7.799786329269409180e-02
1.334122866392135620e-01
-4.180763289332389832e-02
-2.910221926867961884e-02
1.010431870818138123e-01
8.795967698097229004e-02
-6.438829004764556885e-02
2.769611589610576630e-02
4.250898212194442749e-02
-7.557383924722671509e-02
-1.977797038853168488e-02
-7.819838076829910278e-02
1.331834346055984497e-01
1.168594807386398315e-01
-2.733918838202953339e-02
1.864722557365894318e-02
2.883818559348583221e-02
1.033338829874992371e-01
-2.247584518045186996e-03
1.051020622253417969e-02
2.806413359940052032e-02
-8.190106600522994995e-02
9.312985092401504517e-02
-7.761536538600921631e-02
1.864948542788624763e-03
6.728715449571609497e-02
-3.970414400100708008e-02
-1.091754715889692307e-02
4.660630971193313599e-02
1.269132345914840698e-01
-1.112621277570724487e-02
7.678466290235519409e-02
-5.557153001427650452e-02
1.077911183238029480e-01
1.140769943594932556e-01
9.523852728307247162e-03
-3.837934928014874458e-03
-7.655840367078781128e-02
1.334424465894699097e-01
1.305990070104598999e-01
1.411267928779125214e-02
-5.834205448627471924e-02
1.264868117868900299e-02
2.984812669456005096e-02
9.291537106037139893e-02
-1.785518415272235870e-02
-3.247962333261966705e-03
8.410197496414184570e-02
3.771849209442734718e-03
6.804604083299636841e-02
9.077991545200347900e-02
3.437275439500808716e-02
