2.966609299182891846e-01 3.172458708286285400e-01 2.297548353672027588e-01 -8.275052160024642944e-02 2.819315195083618164e-01 1.302616447210311890e-01 1.068903282284736633e-01 1.468792855739593506e-01 1.561515033245086670e-01 -2.447045892477035522e-01 2.779362499713897705e-01 1.379255205392837524e-01 1.592572927474975586e-01 3.617978394031524658e-01 -1.858565360307693481e-01 1.705900579690933228e-01 1.825012713670730591e-01 3.142427802085876465e-01 -1.067675650119781494e-01 -2.706959247589111328e-01 -6.081637926399707794e-03 1.375145018100738525e-01 1.351718237856402993e-04 2.040484696626663208e-01 3.244499862194061279e-01 2.623505294322967529e-01 -2.954497635364532471e-01 -3.038642704486846924e-01 -1.227159500122070312e-01 2.793936431407928467e-01 -1.151029989123344421e-01 -5.363027378916740417e-02 -1.278780400753021240e-01 1.849548369646072388e-01 1.957703381776809692e-01 1.541469246149063110e-01 -2.431420385837554932e-01 7.976525276899337769e-02 -7.993123726919293404e-04 1.231593936681747437e-01 -2.383265197277069092e-01 2.884581089019775391e-01 3.922526538372039795e-02 1.588945090770721436e-01 -6.696033291518688202e-03 1.666710823774337769e-01 1.292453259229660034e-01 -2.798695266246795654e-01 -1.627129614353179932e-01 1.166580840945243835e-01 2.494824528694152832e-01 1.880108416080474854e-01 -1.320344954729080200e-01 8.062314987182617188e-02 -1.494064033031463623e-01 1.286382526159286499e-01 2.776297628879547119e-01 -5.548686161637306213e-02 -1.761369854211807251e-01 2.961856722831726074e-01 -1.305990964174270630e-01 5.834032222628593445e-02 1.086098700761795044e-01 -1.662873476743698120e-01
-1.403541862964630127e-01 -1.696844846010208130e-01 1.950235664844512939e-01 -1.255636941641569138e-02 -8.263230323791503906e-02 -1.297786086797714233e-02 -2.255021333694458008e-01 2.827858030796051025e-01 -1.775002032518386841e-01 2.416419684886932373e-01 9.833892434835433960e-02 -1.201490014791488647e-01 2.490253448486328125e-01 -2.878932841122150421e-02 1.639078408479690552e-01 -1.143695972859859467e-02 1.363139003515243530e-01 -1.633345931768417358e-01 2.366648465394973755e-01 1.728821694850921631e-01 2.096669524908065796e-01 -4.767223447561264038e-02 -2.255673557519912720e-01 1.417192965745925903e-01 1.898393183946609497e-01 1.195060089230537415e-01 -2.164788991212844849e-01 -9.983442723751068115e-02 -1.309361904859542847e-01 -2.356406487524509430e-02 -1.576772332191467285e-01 -6.232076883316040039e-02 4.615790769457817078e-02 2.375985085964202881e-01 5.186052992939949036e-02 -7.704117149114608765e-02 2.609069645404815674e-01 1.305873095989227295e-01 -1.344210356473922729e-01 -6.836416199803352356e-03 2.356298118829727173e-01 2.172523289918899536e-01 -1.242982298135757446e-01 7.108595222234725952e-02 1.132175996899604797e-01 1.931319683790206909e-01 2.918723523616790771e-01 1.076539605855941772e-01 -9.852143377065658569e-02 -6.062921881675720215e-02 2.141840904951095581e-01 2.949815988540649414e-01 3.368453681468963623e-02 -6.299453228712081909e-02 7.223303616046905518e-02 -9.348181635141372681e-02 -8.190845698118209839e-02 4.846167936921119690e-02 -8.237926289439201355e-03 -1.480284482240676880e-01 3.109976463019847870e-02 1.674998700618743896e-01 1.802138835191726685e-01 1.603075414896011353e-01
