1.085120067000389099e-01
3.888676641508936882e-03
1.439372748136520386e-01
1.529351435601711273e-02
1.105307564139366150e-01
7.174908649176359177e-03
7.665050681680440903e-03
5.559724755585193634e-03
1.138877347111701965e-01
9.416290372610092163e-02
1.345788408070802689e-02
1.136294305324554443e-01
7.415416184812784195e-03
8.000094443559646606e-03
1.221538037061691284e-01
-8.018289506435394287e-02
9.283412992954254150e-02
1.325414888560771942e-02
-4.051869735121726990e-03
1.205313019454479218e-02
-1.235832870006561279e-01
3.433676320128142834e-04
-7.058198004961013794e-02
2.349430508911609650e-02
-1.005895212292671204e-01
7.117592263966798782e-03
1.210031732916831970e-01
4.883077461272478104e-03
-8.293639868497848511e-02
-3.581547364592552185e-02
1.007933728396892548e-02
-1.133986413478851318e-01
9.671358764171600342e-02
1.135550532490015030e-02
1.327708959579467773e-01
1.929041184484958649e-02
9.397386759519577026e-02
9.859940037131309509e-03
1.121068596839904785e-01
-3.541719913482666016e-02
1.191467139869928360e-02
2.726328745484352112e-02
-1.242179200053215027e-01
-1.285564601421356201e-01
1.347078531980514526e-01
-1.864713989198207855e-02
1.215771399438381195e-02
1.009959727525711060e-02
-4.886310175061225891e-02
9.958010911941528320e-02
1.178888455033302307e-01
7.094144076108932495e-02
3.987923264503479004e-02
3.477225452661514282e-02
-4.363409709185361862e-03
-3.964355587959289551e-02
-4.581832885742187500e-02
-5.131067708134651184e-02
-3.624181449413299561e-02
5.060928873717784882e-03
9.939625859260559082e-03
-8.195922523736953735e-02
4.070874303579330444e-02
1.450231969356536865e-01
