9.376095980405807495e-02 -1.822170019149780273e-01
3.011557087302207947e-02 1.267719864845275879e-01
9.205624461174011230e-02 -1.559549421072006226e-01
-7.812679978087544441e-04 1.260705385357141495e-02
3.770796954631805420e-02 -2.241642028093338013e-01
2.295254962518811226e-03 -9.599126875400543213e-02
4.680675454437732697e-03 -1.158858649432659149e-02
-2.737132273614406586e-02 -8.307375945150852203e-03
1.131207719445228577e-01 -8.453708887100219727e-02
9.258549660444259644e-02 -2.572867274284362793e-01
3.615515073761343956e-03 1.645219326019287109e-02
1.066248193383216858e-01 -2.717438638210296631e-01
1.268140412867069244e-02 4.733697045594453812e-03
4.762741550803184509e-02 1.297688782215118408e-01
6.023598462343215942e-02 -2.973405420780181885e-01
-4.245876520872116089e-02 -1.782873272895812988e-02
6.298369169235229492e-02 -2.047616988420486450e-01
-9.936754405498504639e-02 9.789929538965225220e-02
9.118091315031051636e-02 -7.095787674188613892e-02
6.063103675842285156e-02 -3.642022237181663513e-02
2.856017090380191803e-02 1.260550171136856079e-01
5.377331748604774475e-02 9.191262722015380859e-02
4.336432367563247681e-02 8.825979195535182953e-03
4.396426957100629807e-03 -3.646254166960716248e-02
1.404339098371565342e-03 4.458737745881080627e-02
-4.392399266362190247e-02 1.011754851788282394e-03
-1.271393056958913803e-02 -3.070620596408843994e-01
5.376486573368310928e-03 1.434357953257858753e-03
-1.017261222004890442e-01 -4.026836156845092773e-02
8.232126384973526001e-02 -8.461593091487884521e-02
-1.881262473762035370e-02 9.187491983175277710e-02
2.202888717874884605e-03 7.412936538457870483e-02
1.096945628523826599e-01 -7.356862723827362061e-02
-7.975014159455895424e-04 1.298811882734298706e-01
1.654428690671920776e-01 -2.764609456062316895e-01
-4.666219756472855806e-04 7.367559522390365601e-02
-1.052540913224220276e-01 -2.304957956075668335e-01
5.871779285371303558e-03 9.782195091247558594e-02
1.156687885522842407e-01 -1.741546392440795898e-01
9.381892532110214233e-02 -3.825679421424865723e-02
2.618458587676286697e-03 1.205491572618484497e-01
4.868509713560342789e-03 -5.539806559681892395e-02
8.976976573467254639e-02 9.599757939577102661e-02
-3.723013401031494141e-02 5.081390589475631714e-02
-1.003642193973064423e-02 -3.321613073348999023e-01
-1.062997430562973022e-01 -4.066469147801399231e-02
2.564027090556919575e-04 5.787270516157150269e-02
7.837525918148458004e-04 -1.589958788827061653e-03
-1.003490537405014038e-01 -5.810230039060115814e-03
5.674502998590469360e-02 -2.457517385482788086e-01
1.296686828136444092e-01 -2.753832340240478516e-01
9.758261148817837238e-04 -1.367853879928588867e-01
7.068005204200744629e-02 -1.685156673192977905e-01
2.512046881020069122e-02 -5.664977431297302246e-02
2.433917950838804245e-03 9.910286404192447662e-03
2.148605729099251072e-12 -2.712518908083438873e-02
-5.597695242613554001e-03 4.787093494087457657e-03
4.038034938275814056e-03 8.986364305019378662e-02
4.106960725039243698e-03 -3.526663035154342651e-02
5.772880464792251587e-02 -2.040403895080089569e-02
7.718942360952496529e-04 1.353439241647720337e-01
3.239194484194740653e-05 5.069009214639663696e-02
-5.440959334373474121e-02 -1.214939206838607788e-01
1.281868368387222290e-01 -1.578389257192611694e-01
