7.435815781354904175e-02
-4.578047990798950195e-02
1.198904812335968018e-01
-5.638215318322181702e-02
8.898997306823730469e-02
-3.287697210907936096e-02
8.109409362077713013e-02
1.045428588986396790e-01
-3.234559297561645508e-02
-4.117506369948387146e-02
-1.341334311291575432e-03
6.587008386850357056e-02
6.159685179591178894e-02
9.128473699092864990e-02
-5.457058548927307129e-02
3.771708533167839050e-02
1.170008629560470581e-01
8.303695917129516602e-02
-1.209819987416267395e-01
7.004155963659286499e-02
6.964785605669021606e-02
1.135234832763671875e-01
1.115911677479743958e-01
1.050507724285125732e-01
-6.979586929082870483e-02
4.870550334453582764e-02
4.777218028903007507e-02
2.513314411044120789e-02
-9.002117067575454712e-02
-1.671789959073066711e-02
5.338595807552337646e-02
1.904773712158203125e-02
8.327571302652359009e-02
-8.901527523994445801e-02
9.044979512691497803e-02
7.193727046251296997e-02
-1.898826099932193756e-02
7.543731480836868286e-02
-8.415908366441726685e-02
-6.973364204168319702e-02
1.063714846968650818e-01
7.056975364685058594e-02
8.804155141115188599e-02
7.142021507024765015e-02
-6.449922919273376465e-02
-8.475416153669357300e-02
-5.290539562702178955e-02
8.511325716972351074e-02
-3.927946835756301880e-02
4.453403875231742859e-02
1.059028133749961853e-01
5.325514450669288635e-02
1.255765557289123535e-01
6.466349959373474121e-02
6.596650183200836182e-02
9.385915100574493408e-02
7.241019606590270996e-02
6.968323886394500732e-02
8.827816694974899292e-02
2.022982761263847351e-02
1.105770021677017212e-01
6.563432514667510986e-02
-2.007844485342502594e-02
8.833505958318710327e-02
