1.752698570489883423e-01 4.656629264354705811e-02 1.324826031923294067e-01 2.058391720056533813e-01 -1.354868839342771025e-08 -8.560197055339813232e-02 1.075351685285568237e-01 2.423626333475112915e-01 1.021160557866096497e-01 -2.145218849182128906e-02 5.386244133114814758e-02 -2.421455085277557373e-02 1.873313337564468384e-01 -1.079822631311344594e-08 1.940036863088607788e-01 2.723151743412017822e-01 1.907937675714492798e-01 9.877065569162368774e-02 2.558517754077911377e-01 -5.115991830825805664e-02 -1.446420326828956604e-03 1.639995723962783813e-01 -8.061666972935199738e-03 -2.355467714369297028e-02 -1.846804469823837280e-02 -6.804345641285181046e-03 3.053660094738006592e-01 9.191014617681503296e-02 -8.981466293334960938e-03 -3.088234923779964447e-02 -5.593400448560714722e-03 -2.802259288728237152e-02 -5.738975852727890015e-02 1.353844702243804932e-01 -4.825472086668014526e-02 5.037808790802955627e-03 1.791871488094329834e-01 3.236933350563049316e-01 3.352015018463134766e-01 -9.874829993350431323e-05 -6.409116082295440719e-08 2.310020029544830322e-01 2.652674019336700439e-01 2.109276056289672852e-01 2.511802017688751221e-01 -7.447103410959243774e-02 8.075529709458351135e-03 4.558692686259746552e-03 -2.937389537692070007e-02 9.886359423398971558e-02 -1.473027747124433517e-03 4.119107965379953384e-03 -2.814640291035175323e-02 -5.993188545107841492e-02 2.368731498718261719e-01 1.785478293895721436e-01 -3.517788602039217949e-03 2.750422358512878418e-01 -7.299277186393737793e-02 -7.050500065088272095e-02 -5.730447545647621155e-02 4.956508800387382507e-02 -1.961258426308631897e-02 2.311320751905441284e-01
8.914803713560104370e-02 1.417793706059455872e-02 4.046272113919258118e-02 -7.848155684769153595e-03 -5.453229881823062897e-03 1.421345118433237076e-02 5.635593831539154053e-02 -3.929014876484870911e-02 2.051985636353492737e-02 -1.211031433194875717e-02 -1.266133598983287811e-02 -8.661593310534954071e-03 6.921327114105224609e-02 -2.863523832274950109e-06 5.752009898424148560e-02 1.351059228181838989e-02 5.534118786454200745e-02 -5.097456648945808411e-02 8.283730596303939819e-03 -3.878423944115638733e-02 4.904003813862800598e-03 -4.834992438554763794e-02 1.900217682123184204e-02 -6.134719774127006531e-02 -1.332923863083124161e-02 1.054266691207885742e-01 1.783653795719146729e-01 6.218048185110092163e-02 -4.445086792111396790e-02 -2.751876041293144226e-02 1.791986520402133465e-03 1.051971688866615295e-01 -3.428653581067919731e-03 6.998960673809051514e-02 -3.285411046817898750e-03 1.303923432715237141e-03 3.712429851293563843e-02 -3.906580805778503418e-02 1.020348370075225830e-01 -3.459352883510291576e-04 -2.048015594482421875e-03 1.232629939913749695e-01 3.914353251457214355e-02 6.425662338733673096e-02 6.975127756595611572e-02 -3.823764855042099953e-03 3.211803967133164406e-03 -2.825084142386913300e-03 -6.763729453086853027e-02 7.263365387916564941e-02 -5.604603514075279236e-02 5.385801941156387329e-02 -7.682727184146642685e-03 -5.721426568925380707e-04 7.949069142341613770e-02 3.572402149438858032e-02 3.394053084775805473e-03 1.682203263044357300e-02 2.713822759687900543e-02 1.202068105340003967e-01 1.040288899093866348e-02 1.484073847532272339e-01 -3.288682550191879272e-03 1.239223554730415344e-01
