-1.916157454252243042e-02 -7.623349130153656006e-02 3.340964019298553467e-01 -1.604209188371896744e-03 -1.013695299625396729e-01 1.732612494379281998e-03 -1.134763285517692566e-01 3.001185953617095947e-01 -2.831522579072043300e-05 -1.744722132571041584e-03 -4.195329919457435608e-02 -5.837518349289894104e-02 -6.547149270772933960e-02 2.168123126029968262e-01 7.153264712542295456e-03 1.328551918268203735e-01 2.673645019531250000e-01 -9.746386855840682983e-02 6.612242013216018677e-02 2.051841467618942261e-01 2.126227468252182007e-01 2.583333849906921387e-01 3.209946751594543457e-01 3.029753267765045166e-01 -1.208718121051788330e-01 9.061423689126968384e-02 1.187256649136543274e-01 3.433461114764213562e-02 2.290358208119869232e-02 -7.242851438604702707e-07 1.230280622839927673e-01 -4.701709002256393433e-02 -3.082393109798431396e-02 1.314882934093475342e-01 -7.864920794963836670e-02 -1.933388411998748779e-02 -5.744663253426551819e-02 -5.198713764548301697e-02 9.970527142286300659e-03 -6.810403615236282349e-02 3.638615906238555908e-01 -9.706596611067652702e-04 -2.439226768910884857e-02 -1.004724800586700439e-01 8.219336718320846558e-02 -5.328067112714052200e-03 6.683020293712615967e-02 -2.362902462482452393e-02 -7.588660228066146374e-04 -7.588826864957809448e-02 3.500509560108184814e-01 1.108452975749969482e-01 3.359527885913848877e-01 -3.046869486570358276e-02 1.298473626375198364e-01 3.229917585849761963e-01 -7.894612103700637817e-02 -8.394952118396759033e-02 -3.504354506731033325e-02 -9.623998403549194336e-02 2.919247448444366455e-01 2.728469902649521828e-03 -1.997591182589530945e-02 -2.647850662469863892e-02
-5.342351738363504410e-03 -2.016941434703767300e-04 1.382619887590408325e-01 5.510317161679267883e-03 -8.028714917600154877e-03 -7.025164086371660233e-04 -5.652891006320714951e-03 7.661993801593780518e-02 -9.556189924478530884e-02 -5.488942936062812805e-02 1.710180565714836121e-02 -5.622879788279533386e-02 2.356627769768238068e-02 1.234623417258262634e-01 -3.186036273837089539e-02 -3.736932203173637390e-02 9.571199119091033936e-02 -6.550869438797235489e-03 8.240485191345214844e-02 5.375952273607254028e-02 3.793004900217056274e-02 1.040840670466423035e-01 9.980446100234985352e-02 6.462077796459197998e-02 2.575302263721823692e-03 1.869411319494247437e-01 9.351524710655212402e-02 1.304721534252166748e-01 1.290124189108610153e-02 -3.012639645021408796e-04 4.703391343355178833e-02 -1.086855656467378139e-03 -7.800401002168655396e-02 -1.625402085483074188e-02 7.008223328739404678e-03 -9.688992984592914581e-03 8.357900381088256836e-02 -1.151589397341012955e-02 6.968024373054504395e-02 -1.017144918441772461e-01 -6.009056419134140015e-02 4.404029343277215958e-03 5.136267282068729401e-03 6.674865726381540298e-03 -3.089442383497953415e-03 6.563714891672134399e-02 -5.455469945445656776e-04 -9.317026473581790924e-03 8.232721127569675446e-03 1.443128138780593872e-01 -3.233889117836952209e-02 8.653181791305541992e-02 1.799727827310562134e-01 -1.062310859560966492e-02 5.790805071592330933e-02 -4.907335340976715088e-02 3.269198536872863770e-02 -4.217088688164949417e-03 -2.334668673574924469e-02 -7.555850315839052200e-04 1.113479807972908020e-01 -2.365968935191631317e-02 3.668933361768722534e-02 -7.846326380968093872e-02
