2.515498921275138855e-02
3.573732078075408936e-02
-8.435533381998538971e-03
-1.486935093998908997e-02
3.480933979153633118e-02
4.605824500322341919e-02
2.522394619882106781e-02
2.232505753636360168e-02
5.115680769085884094e-02
4.298529401421546936e-02
-2.651417255401611328e-02
5.679201334714889526e-02
3.116183541715145111e-02
1.722268946468830109e-02
4.219357669353485107e-02
5.664087831974029541e-02
-2.460476569831371307e-02
4.728246852755546570e-02
4.191883653402328491e-02
3.042728081345558167e-02
7.834389060735702515e-02
4.324239864945411682e-02
-2.049874281510710716e-03
1.222042832523584366e-02
3.675848618149757385e-02
6.541594397276639938e-03
-1.528635900467634201e-02
5.718494579195976257e-02
1.098160892724990845e-01
8.568624965846538544e-03
1.294003985822200775e-02
3.548073396086692810e-02
2.623262442648410797e-02
-1.722218655049800873e-02
3.504880238324403763e-03
-3.065956756472587585e-03
2.945560030639171600e-03
-1.894764043390750885e-02
1.347568351775407791e-02
2.167355269193649292e-02
2.195682376623153687e-02
3.537466749548912048e-02
-1.712559349834918976e-02
-6.174598354846239090e-03
4.055681824684143066e-02
3.047156520187854767e-02
2.268257923424243927e-02
3.957085311412811279e-02
-4.451892152428627014e-02
1.473866775631904602e-02
5.205132439732551575e-02
6.469135172665119171e-03
-6.300085224211215973e-03
3.910370543599128723e-02
-3.593327244743704796e-03
-3.613241389393806458e-02
2.371824719011783600e-02
1.872815564274787903e-02
4.470945894718170166e-02
3.968413546681404114e-02
1.417820993810892105e-02
7.435935083776712418e-03
1.361983548849821091e-02
-1.291038002818822861e-02
-2.535821683704853058e-02
6.604373455047607422e-02
5.505323782563209534e-02
1.059284340590238571e-02
3.255858644843101501e-02
2.990213222801685333e-02
4.999553412199020386e-02
-1.508693862706422806e-02
4.369155690073966980e-02
-1.876361668109893799e-02
2.814740873873233795e-02
3.736411407589912415e-02
3.249984607100486755e-02
3.350496292114257812e-02
3.019407950341701508e-02
2.530267648398876190e-02
2.437962032854557037e-02
2.878176420927047729e-02
-6.607354618608951569e-03
-3.050325065851211548e-02
1.927069388329982758e-02
3.097005560994148254e-02
4.439392313361167908e-02
4.835154395550489426e-03
-1.814625039696693420e-02
3.996837139129638672e-02
4.967229440808296204e-03
-3.474697098135948181e-02
4.660614207386970520e-02
3.225183486938476562e-02
-1.543894317001104355e-02
6.715029478073120117e-02
6.642352323979139328e-03
7.646746188402175903e-02
6.984344124794006348e-02
3.097362071275711060e-02
-8.132485672831535339e-03
-2.384387701749801636e-02
3.338231518864631653e-02
-1.163901574909687042e-02
1.492043957114219666e-02
5.587160587310791016e-03
5.266531556844711304e-02
3.619938716292381287e-02
-2.715907525271177292e-03
6.523429602384567261e-02
4.409135878086090088e-02
3.832242637872695923e-02
3.376102074980735779e-02
1.268415991216897964e-02
-1.175233162939548492e-02
3.961651027202606201e-02
3.660757094621658325e-02
-4.911978729069232941e-03
6.705354154109954834e-02
4.295515269041061401e-02
3.430665284395217896e-02
4.136062040925025940e-02
8.728980086743831635e-03
5.456997454166412354e-02
-2.505676262080669403e-02
-4.557553678750991821e-02
4.156520590186119080e-02
5.010956153273582458e-02
