-1.884431242942810059e-01 2.149206548929214478e-01 1.787166111171245575e-02 -9.158178418874740601e-02 2.434833198785781860e-01 1.125849634408950806e-01 -1.113159954547882080e-01 1.245451048016548157e-01 4.361264780163764954e-02 -1.817989349365234375e-02 -1.776314377784729004e-01 -9.476915746927261353e-02 -2.353237569332122803e-02 5.885092169046401978e-02 1.276567578315734863e-01 1.586135774850845337e-01 2.238559871912002563e-01 1.959887593984603882e-01 -1.975899040699005127e-01 1.406104266643524170e-01 -1.169022247195243835e-01 -2.504676580429077148e-03 -4.225634410977363586e-02 -1.087378337979316711e-01 -5.159511417150497437e-02 9.222402423620223999e-02 -4.931673407554626465e-02 -4.732597619295120239e-02 1.116441711783409119e-01 -1.427265852689743042e-01 8.102214336395263672e-02 -1.229493543505668640e-01 1.082989871501922607e-01 -8.094134926795959473e-02 7.558676600456237793e-02 1.164034605026245117e-01 5.880383029580116272e-02 4.295800253748893738e-02 -1.048615351319313049e-01 -1.440036892890930176e-01 1.098847761750221252e-01 7.313342392444610596e-02 9.372793883085250854e-02 -2.932947874069213867e-02 1.271258592605590820e-01 -1.673465967178344727e-01 -1.500852257013320923e-01 7.898370921611785889e-02 9.140794724225997925e-02 1.183502897620201111e-01 -1.636446565389633179e-01 8.095727115869522095e-02 8.146711625158786774e-03 4.120738804340362549e-02 -5.192939192056655884e-02 1.576828211545944214e-01 -1.647265702486038208e-01 -3.197285532951354980e-02 -2.195021212100982666e-01 2.916222251951694489e-02 -1.246707960963249207e-01 1.003463789820671082e-01 2.672897279262542725e-02 9.896595031023025513e-03 1.929422169923782349e-01 -7.684861123561859131e-02 1.698980107903480530e-02 9.161699563264846802e-02 -1.595984101295471191e-01 9.762470424175262451e-02 -5.117951333522796631e-02 1.137797683477401733e-01 -9.590708650648593903e-03 -5.418348312377929688e-02 -1.124681606888771057e-01 -1.192511245608329773e-01 -2.183960080146789551e-01 2.882407233119010925e-02 -1.695850491523742676e-01 4.105257615447044373e-02 1.089525520801544189e-01 -1.140358522534370422e-01 -9.265726059675216675e-02 -1.392427459359169006e-02 -8.370013535022735596e-02 9.253970533609390259e-02 1.822035945951938629e-02 1.545950025320053101e-01 -7.295769453048706055e-02 -1.805688291788101196e-01 -5.216903518885374069e-03 1.703242957592010498e-01 2.037171721458435059e-01 -2.063850611448287964e-01 1.250507682561874390e-01 1.185544803738594055e-01 2.324660271406173706e-01 -6.311972625553607941e-03 -1.327995806932449341e-01 7.685177773237228394e-02 -4.932850971817970276e-02 -4.660658165812492371e-02 2.419981732964515686e-02 9.210269898176193237e-02 1.187445223331451416e-01 5.238894373178482056e-03 1.789310872554779053e-01 -1.219443976879119873e-02 -1.504178494215011597e-01 1.228961255401372910e-02 1.680165342986583710e-02 1.385676264762878418e-01 8.972018212080001831e-02 -1.043860241770744324e-01 8.701221644878387451e-02 3.244138136506080627e-02 -4.911714047193527222e-02 2.096212059259414673e-01 -4.253376647830009460e-02 -4.834227636456489563e-02 1.142568662762641907e-01 -9.352014958858489990e-02 -4.399831220507621765e-02 -1.308962516486644745e-02 -4.196825996041297913e-02 -6.357526034116744995e-02 2.901897765696048737e-02 8.011631667613983154e-02
-8.183852583169937134e-02 2.382040619850158691e-01 1.463350839912891388e-02 -1.722890883684158325e-01 1.199116632342338562e-01 4.824926331639289856e-02 1.502779126167297363e-01 -2.297643870115280151e-01 4.072580486536026001e-02 -7.077556103467941284e-02 1.004492565989494324e-01 -4.009886831045150757e-02 -1.211035922169685364e-01 -1.182521805167198181e-01 2.566036283969879150e-01 -8.176841586828231812e-02 1.029513776302337646e-01 2.841950356960296631e-01 2.411992661654949188e-02 -1.784258633852005005e-01 1.254974305629730225e-01 -1.885157637298107147e-02 8.839175850152969360e-02 -3.248933330178260803e-02 -1.097728982567787170e-01 3.135522082448005676e-02 6.974543631076812744e-02 -1.399723887443542480e-01 1.846842020750045776e-01 6.167925894260406494e-02 -2.657916583120822906e-02 -4.747917503118515015e-02 -2.450418099761009216e-02 -1.816374808549880981e-01 1.103548705577850342e-01 8.986197412014007568e-02 -1.693993359804153442e-01 2.340715005993843079e-02 -6.132313236594200134e-02 -1.343395859003067017e-01 2.446521222591400146e-01 -1.324681788682937622e-01 3.172283619642257690e-02 7.696425169706344604e-02 3.252141550183296204e-02 1.988866627216339111e-01 -1.567293517291545868e-02 -1.412811428308486938e-01 -1.717242300510406494e-01 -4.650740697979927063e-02 1.226501315832138062e-01 -9.558164514601230621e-03 -5.466111376881599426e-02 1.212634891271591187e-01 -2.398318946361541748e-01 6.943025439977645874e-02 -1.734778285026550293e-02 -1.952502578496932983e-01 -3.177518397569656372e-02 -1.173621788620948792e-01 -1.610769480466842651e-01 -1.589269787073135376e-01 -3.647077083587646484e-02 -1.437212713062763214e-02 -2.238757759332656860e-01 -1.082657799124717712e-01 4.463807493448257446e-02 1.617782115936279297e-01 -4.763472452759742737e-02 3.458350524306297302e-02 -1.713735423982143402e-02 4.379158839583396912e-02 -1.498025059700012207e-01 -2.740164101123809814e-02 5.449960008263587952e-02 6.498633325099945068e-02 2.937955409288406372e-02 -6.927554309368133545e-02 -1.196950823068618774e-01 -5.856766551733016968e-02 2.797169387340545654e-01 5.919066723436117172e-03 -7.826594263315200806e-02 -9.158842265605926514e-02 2.509478330612182617e-01 4.939366132020950317e-02 -2.336107641458511353e-01 -2.314706891775131226e-01 1.513330824673175812e-02 1.290074884891510010e-01 -8.627275377511978149e-02 -2.508925497531890869e-01 8.791980892419815063e-02 1.206576242111623287e-03 2.156628072261810303e-01 -7.637977600097656250e-02 1.492255926132202148e-01 -1.100546494126319885e-01 1.674190312623977661e-01 -1.547819077968597412e-01 -1.553644090890884399e-01 -3.646329417824745178e-02 -6.085228174924850464e-02 1.503075212240219116e-01 1.334190219640731812e-01 -9.879586845636367798e-02 -2.053498625755310059e-01 -1.477807760238647461e-01 -2.517639100551605225e-02 -1.931936740875244141e-01 -1.172858476638793945e-01 -1.831032782793045044e-01 2.260574400424957275e-01 -6.007779389619827271e-02 1.024663820862770081e-01 7.222521817311644554e-04 -5.542350560426712036e-02 1.220292448997497559e-01 9.640985727310180664e-02 9.508749842643737793e-02 7.661152631044387817e-02 1.713688299059867859e-02 -2.603121399879455566e-01 -1.860036104917526245e-01 -1.129265725612640381e-01 -1.701076179742813110e-01 2.572586527094244957e-04 -1.024113968014717102e-01
-1.462521031498908997e-03 -1.384788453578948975e-01 -4.340198636054992676e-02 2.258823812007904053e-01 -6.468137353658676147e-02 -7.633806020021438599e-02 6.601721793413162231e-02 -1.406928896903991699e-01 -6.479918956756591797e-02 9.624148160219192505e-02 5.737600382417440414e-03 3.479231521487236023e-02 -4.513973835855722427e-03 9.617878496646881104e-02 -5.237299483269453049e-03 -3.792093321681022644e-02 -5.203583277761936188e-03 2.347370088100433350e-01 -9.502333402633666992e-02 -1.332365572452545166e-01 6.456690281629562378e-02 -1.383592933416366577e-01 -2.900531888008117676e-02 -2.116325497627258301e-02 -9.834345430135726929e-02 6.372332572937011719e-02 -6.220614910125732422e-02 7.986062020063400269e-02 5.165161564946174622e-02 1.803007870912551880e-01 2.541460096836090088e-02 1.396839171648025513e-01 1.666207099333405495e-03 -8.702708780765533447e-02 7.002339512109756470e-02 1.086754947900772095e-01 -5.388479679822921753e-02 -1.750303953886032104e-01 5.126025993376970291e-03 1.561528537422418594e-02 1.268193963915109634e-02 1.154558267444372177e-02 -1.113981101661920547e-02 -1.341960579156875610e-01 -5.010351166129112244e-02 1.375156044960021973e-01 1.294795572757720947e-01 1.928839273750782013e-02 -1.686717569828033447e-01 -6.842488050460815430e-02 9.613280743360519409e-02 -6.319414079189300537e-02 2.204045504331588745e-01 1.934677362442016602e-02 -9.830845892429351807e-02 2.999047748744487762e-02 1.088879033923149109e-01 -1.027858331799507141e-01 -1.253467053174972534e-01 -2.997661940753459930e-02 4.134800657629966736e-02 6.486172229051589966e-02 2.126481831073760986e-01 -2.153110317885875702e-02 9.830479323863983154e-02 8.607279509305953979e-02 -1.616679430007934570e-01 3.455460444092750549e-02 -4.582011699676513672e-02 9.247376024723052979e-02 -1.278960853815078735e-01 9.940378367900848389e-02 2.705956436693668365e-02 -6.148377805948257446e-02 1.088320836424827576e-01 1.921355277299880981e-01 2.347544133663177490e-01 4.090353101491928101e-02 1.057777926325798035e-01 -1.013710722327232361e-01 -1.092871055006980896e-01 7.270486652851104736e-02 6.835584528744220734e-03 -1.202279925346374512e-01 -1.716994345188140869e-01 1.538995206356048584e-01 -1.022356748580932617e-01 -1.950156539678573608e-01 -5.889376997947692871e-02 1.620817482471466064e-01 -4.135384410619735718e-02 -1.882881075143814087e-01 -1.631344407796859741e-01 1.128221005201339722e-01 1.050858274102210999e-01 2.130350470542907715e-02 -9.899040311574935913e-02 1.121530681848526001e-01 1.477819085121154785e-01 6.017422303557395935e-02 -1.528569031506776810e-02 -1.106148436665534973e-01 2.273108363151550293e-01 4.694995656609535217e-02 1.122099906206130981e-01 -1.935169547796249390e-01 8.923890069127082825e-03 -1.254357397556304932e-01 9.723441302776336670e-02 -6.193945556879043579e-02 -1.318371295928955078e-01 -5.360293015837669373e-02 -6.237277761101722717e-02 1.385286599397659302e-01 1.090451329946517944e-01 -8.096873760223388672e-02 1.077826619148254395e-01 1.131705269217491150e-01 -9.576381742954254150e-02 -2.428607083857059479e-02 6.417303532361984253e-02 1.105300039052963257e-01 -2.694813720881938934e-02 9.840281307697296143e-02 1.805058866739273071e-01 -5.535985156893730164e-02 -3.534225746989250183e-02 -1.615895703434944153e-02
1.367041021585464478e-01 -5.489936098456382751e-02 -9.635377675294876099e-02 -7.404658198356628418e-02 -1.225094720721244812e-01 4.420185089111328125e-02 1.567095369100570679e-01 -1.095138415694236755e-01 -1.452027559280395508e-01 6.870111078023910522e-02 -1.140661612153053284e-01 6.974979490041732788e-02 1.037641242146492004e-02 4.390849545598030090e-02 -7.900948822498321533e-02 2.272662520408630371e-02 8.844690024852752686e-02 -7.492367923259735107e-02 3.385769948363304138e-02 -2.375000566244125366e-01 1.858089119195938110e-02 8.980622142553329468e-02 7.788416743278503418e-02 -1.973880678415298462e-01 2.302889712154865265e-02 -2.252687811851501465e-01 2.795226685702800751e-02 1.161936204880475998e-02 -1.171339377760887146e-01 8.032444119453430176e-02 -5.543556064367294312e-02 -3.254744783043861389e-02 9.917119145393371582e-02 4.514493048191070557e-02 -7.621390372514724731e-02 4.018238559365272522e-02 1.294363737106323242e-01 -2.394727803766727448e-02 1.781008243560791016e-01 -2.126832306385040283e-02 -7.030536979436874390e-02 1.326526701450347900e-01 2.500050663948059082e-01 1.679279357194900513e-01 1.283865272998809814e-01 9.904625266790390015e-02 -7.544380426406860352e-02 1.955500841140747070e-01 6.111551448702812195e-02 1.002885624766349792e-01 -1.413154453039169312e-01 2.137373089790344238e-01 -3.776126727461814880e-02 6.297243386507034302e-02 7.633358985185623169e-02 1.831384152173995972e-01 1.286658793687820435e-01 -1.651868969202041626e-01 1.162593960762023926e-01 1.529895812273025513e-01 -1.228076815605163574e-01 2.875099144876003265e-02 -6.221270561218261719e-02 -7.130526006221771240e-02 1.569117605686187744e-01 5.852849408984184265e-02 -1.247961632907390594e-02 1.013182625174522400e-01 -1.291111111640930176e-01 1.654179096221923828e-01 -1.363307889550924301e-02 1.770897805690765381e-01 8.491454273462295532e-02 -2.073989063501358032e-01 7.559098303318023682e-02 -5.385554581880569458e-02 2.194049209356307983e-01 8.377508260309696198e-03 -1.061739400029182434e-01 -1.441439837217330933e-01 7.548359036445617676e-02 2.484152466058731079e-02 1.857252269983291626e-01 1.531651150435209274e-02 1.602702289819717407e-01 -7.619164139032363892e-02 -1.262418180704116821e-01 -1.380029469728469849e-01 -1.596815288066864014e-01 2.108925431966781616e-01 -1.783673316240310669e-01 6.831805221736431122e-04 -1.108588278293609619e-01 2.242764532566070557e-01 3.907983656972646713e-03 -1.192945390939712524e-01 1.591569930315017700e-01 1.659599016420543194e-03 2.473940104246139526e-01 6.087030284106731415e-03 8.367592096328735352e-02 1.901012212038040161e-01 1.295611411333084106e-01 2.137133628129959106e-01 9.369234740734100342e-02 2.998002618551254272e-02 2.473858557641506195e-02 1.134824007749557495e-01 2.513718605041503906e-01 -1.610685437917709351e-01 -4.207541793584823608e-02 -7.279564440250396729e-02 1.146734133362770081e-01 1.395418345928192139e-01 1.360386908054351807e-01 1.256033778190612793e-01 -8.406265825033187866e-02 1.921242773532867432e-01 -2.423590049147605896e-02 1.038261875510215759e-01 -6.568470597267150879e-02 2.182717807590961456e-02 -2.141611874103546143e-01 1.368677318096160889e-01 9.062828868627548218e-02 -1.208050549030303955e-01 8.845692127943038940e-02 -1.720280945301055908e-01
1.788632422685623169e-01 -1.532059609889984131e-01 6.335859000682830811e-02 -2.166801244020462036e-01 1.415584385395050049e-01 -6.556176394224166870e-02 1.508946157991886139e-02 -9.164847433567047119e-02 4.049530252814292908e-02 8.292712271213531494e-03 1.390400826930999756e-01 2.091045975685119629e-01 -1.246884241700172424e-01 3.815516829490661621e-02 -1.581245101988315582e-02 -1.047121658921241760e-01 2.114439159631729126e-01 3.579976037144660950e-02 1.097631081938743591e-01 -1.327630728483200073e-01 -6.510095298290252686e-02 -1.415203958749771118e-01 -1.692289561033248901e-01 -7.206239551305770874e-02 2.302224338054656982e-01 -1.256696134805679321e-01 -1.415518075227737427e-01 6.084670126438140869e-02 2.204156517982482910e-01 5.555350705981254578e-02 1.091421395540237427e-01 6.100878119468688965e-02 2.061943858861923218e-01 -2.034007608890533447e-01 -1.600581705570220947e-01 1.133903339505195618e-01 -3.081393428146839142e-02 1.046748310327529907e-01 -4.565129429101943970e-02 -2.046279162168502808e-01 8.837655931711196899e-02 1.099514588713645935e-01 -1.039484702050685883e-02 9.291845560073852539e-02 -1.144670601934194565e-02 -1.158804744482040405e-01 -6.026079878211021423e-02 7.818062603473663330e-02 -1.568747609853744507e-01 -1.483509391546249390e-01 -1.039620190858840942e-01 -1.213895156979560852e-01 -2.260746359825134277e-01 -1.346968412399291992e-01 -1.167657971382141113e-01 2.210081554949283600e-02 2.344691194593906403e-03 1.055776774883270264e-01 -2.640908397734165192e-02 -7.499126344919204712e-02 -1.906420849263668060e-02 5.337424576282501221e-02 2.295735180377960205e-01 -7.410209625959396362e-02 -2.216834574937820435e-01 1.157813444733619690e-01 2.166639417409896851e-01 2.481532394886016846e-01 -1.990757137537002563e-01 1.188928335905075073e-01 2.272159308195114136e-01 -1.687565632164478302e-02 2.223400026559829712e-01 -5.547062307596206665e-02 2.080129384994506836e-01 -1.673114597797393799e-01 -1.840535849332809448e-01 8.666946738958358765e-02 2.370380461215972900e-01 -1.478751301765441895e-01 -2.392482310533523560e-01 2.871832437813282013e-02 -1.597737371921539307e-01 2.837668359279632568e-02 5.792843922972679138e-02 1.433363705873489380e-01 9.874619543552398682e-02 -1.272767931222915649e-01 9.355908632278442383e-02 -1.697490811347961426e-01 -1.119410395622253418e-01 4.328634962439537048e-02 1.192392855882644653e-01 -9.827908873558044434e-02 -1.311067938804626465e-01 -7.933084666728973389e-02 -1.421085596084594727e-01 -3.172428160905838013e-02 -2.118447870016098022e-01 1.159719154238700867e-01 -2.086977809667587280e-01 -1.988472044467926025e-02 -2.220923267304897308e-02 -5.480806902050971985e-02 1.663601845502853394e-01 2.017919421195983887e-01 2.140177339315414429e-01 -8.368199318647384644e-02 -3.028699569404125214e-02 8.259014040231704712e-02 2.988568879663944244e-02 2.305603325366973877e-01 -3.763080341741442680e-03 -1.040361076593399048e-01 -2.157147228717803955e-01 6.443315651267766953e-03 2.119919806718826294e-01 -1.354120373725891113e-01 -4.075684025883674622e-02 2.573476135730743408e-01 1.930879801511764526e-01 1.014992743730545044e-01 -3.363537415862083435e-02 -5.966602265834808350e-02 1.399976164102554321e-01 8.465367555618286133e-02 -3.891548886895179749e-02 -1.888236403465270996e-01
-1.340897083282470703e-01 5.915456265211105347e-02 7.189086824655532837e-02 1.624487787485122681e-01 4.237488284707069397e-02 -1.900567114353179932e-02 1.273258924484252930e-01 -7.040567696094512939e-02 -1.842804402112960815e-01 -2.643051743507385254e-01 1.153234913945198059e-01 -9.231115877628326416e-02 -1.360426396131515503e-01 4.371556267142295837e-02 1.092077419161796570e-01 2.332178503274917603e-02 -1.099235117435455322e-01 -2.162555754184722900e-01 -2.028477191925048828e-01 5.146677792072296143e-02 -6.753844767808914185e-02 1.869357936084270477e-02 1.391543149948120117e-01 -1.452316343784332275e-01 -5.388670135289430618e-03 8.162068575620651245e-02 1.895967423915863037e-01 -1.584397852420806885e-01 -1.229584738612174988e-01 9.048008173704147339e-02 4.859645664691925049e-02 -9.905839711427688599e-02 -2.084952592849731445e-01 1.699490398168563843e-01 -6.539656221866607666e-02 4.562462493777275085e-02 -1.114212051033973694e-01 -1.043203398585319519e-01 1.340763419866561890e-01 -9.549766778945922852e-02 -7.866477966308593750e-02 5.424075201153755188e-02 1.488977372646331787e-01 -1.471885889768600464e-01 -2.490951418876647949e-01 9.774946607649326324e-03 9.193628281354904175e-02 -2.433116780593991280e-03 6.319855153560638428e-02 2.469395287334918976e-02 7.898712903261184692e-02 1.894486695528030396e-02 -1.137518137693405151e-01 -1.488264501094818115e-01 6.579613685607910156e-02 -1.550287846475839615e-02 -1.801528222858905792e-02 -9.742695093154907227e-02 -1.293449401855468750e-01 -1.403916776180267334e-01 1.116967201232910156e-01 6.496278941631317139e-02 -1.179911419749259949e-01 1.166893392801284790e-01 9.769520163536071777e-02 -2.343643754720687866e-01 -2.636252641677856445e-01 9.318910539150238037e-02 -6.471374630928039551e-02 -5.917550623416900635e-02 2.521094679832458496e-02 1.437559276819229126e-01 -1.373104602098464966e-01 -1.824605464935302734e-02 5.303968861699104309e-02 2.111249230802059174e-02 -3.305173292756080627e-02 -1.000066176056861877e-01 -1.165678650140762329e-01 -8.743210136890411377e-02 -1.429553180932998657e-01 9.099768847227096558e-02 7.081603258848190308e-02 -7.965050637722015381e-02 -2.314445376396179199e-02 5.017590150237083435e-02 -1.610749363899230957e-01 -6.060208752751350403e-02 3.738037496805191040e-02 1.724571138620376587e-01 6.908744573593139648e-02 -1.685697585344314575e-02 -2.545315772294998169e-02 -1.095383539795875549e-01 2.138553112745285034e-01 -1.044632047414779663e-01 1.052124053239822388e-01 -5.258448049426078796e-02 9.941853582859039307e-02 -2.182181030511856079e-01 -7.856578379869461060e-02 -1.200389266014099121e-01 -1.331766992807388306e-01 -1.328722834587097168e-01 -5.988457053899765015e-02 -7.262239605188369751e-02 -1.669839173555374146e-01 -6.067054718732833862e-02 -1.885283365845680237e-02 1.091485843062400818e-02 -1.874890774488449097e-01 4.634596779942512512e-02 -2.294081635773181915e-02 8.400247991085052490e-02 -1.297797411680221558e-01 -1.435767412185668945e-01 -2.307281643152236938e-01 1.746112704277038574e-01 -5.622866377234458923e-02 -1.816744171082973480e-02 -1.118028610944747925e-01 -5.811766907572746277e-02 -3.015093132853507996e-02 -1.247054524719715118e-02 1.358905732631683350e-01 -1.972233410924673080e-03 -4.711038619279861450e-02 5.100816860795021057e-02
-1.369005292654037476e-01 1.163161098957061768e-01 7.736207544803619385e-02 -3.936515748500823975e-02 -7.511042058467864990e-02 4.936860874295234680e-02 2.051297947764396667e-02 3.620767220854759216e-02 1.607493311166763306e-02 -2.053630203008651733e-01 -3.278882429003715515e-02 -1.559222936630249023e-01 5.976631492376327515e-02 -1.834084242582321167e-01 8.357938379049301147e-02 5.153138935565948486e-02 7.395393401384353638e-02 5.443407595157623291e-02 -8.985705673694610596e-02 2.045582383871078491e-01 8.660750836133956909e-02 -8.549865335226058960e-02 1.425718516111373901e-01 1.021181493997573853e-01 -1.392192393541336060e-01 1.673553436994552612e-01 3.137256205081939697e-02 6.881983578205108643e-02 -3.279449418187141418e-02 -1.117458492517471313e-01 7.018852233886718750e-02 -1.140373349189758301e-01 -1.220078095793724060e-01 -8.944559842348098755e-02 1.767667084932327271e-01 2.822522632777690887e-02 1.022826656699180603e-01 -1.870028078556060791e-01 1.646479517221450806e-01 7.364584505558013916e-02 4.498756676912307739e-02 -4.420489445328712463e-02 2.210335135459899902e-01 1.527875512838363647e-01 -2.171982973814010620e-01 9.626591205596923828e-02 6.574678421020507812e-02 1.902346014976501465e-01 4.011785984039306641e-02 1.971885561943054199e-02 -6.648613605648279190e-03 2.212387323379516602e-01 -5.918518826365470886e-02 -8.658023923635482788e-02 -1.983926258981227875e-02 -1.018812432885169983e-01 -6.285723298788070679e-02 1.005714666098356247e-02 1.450788415968418121e-02 1.964660361409187317e-03 -5.088086426258087158e-02 -2.483761496841907501e-02 1.488062273710966110e-02 -1.185326725244522095e-01 9.750926494598388672e-02 -4.833571612834930420e-02 -2.436967790126800537e-01 -1.498103290796279907e-01 3.039562702178955078e-02 3.266260400414466858e-02 -5.020552128553390503e-02 -1.215865612030029297e-01 -1.862449645996093750e-01 -7.696428149938583374e-02 5.686415731906890869e-02 1.031845137476921082e-01 1.446420848369598389e-01 9.927652031183242798e-02 -1.516640335321426392e-01 -7.245421409606933594e-02 1.737327128648757935e-02 1.797549128532409668e-01 3.971082344651222229e-02 -5.491578578948974609e-02 6.122587993741035461e-02 1.761989891529083252e-01 -5.535899475216865540e-02 1.541929990053176880e-01 -1.280223727226257324e-01 1.511065959930419922e-01 1.365407705307006836e-01 8.056642115116119385e-02 -2.162683606147766113e-01 8.126064203679561615e-03 -7.191585749387741089e-02 -2.503861188888549805e-01 9.019336104393005371e-02 -1.741110980510711670e-01 7.327152043581008911e-02 1.923675462603569031e-02 -7.158768177032470703e-02 4.599520191550254822e-02 -1.407488882541656494e-01 -9.231057763099670410e-02 3.511093929409980774e-02 -2.456252127885818481e-01 1.000028476119041443e-01 -9.888602420687675476e-03 1.825744956731796265e-01 6.510828435420989990e-02 -1.810303032398223877e-01 6.996551901102066040e-02 -2.015613205730915070e-02 9.771668910980224609e-02 -1.209367290139198303e-01 2.262105792760848999e-02 1.248843520879745483e-01 1.837507337331771851e-01 1.693500727415084839e-01 9.207206219434738159e-02 6.776352971792221069e-02 -1.205100025981664658e-02 -1.036527603864669800e-01 1.359996497631072998e-01 -7.115239650011062622e-02 9.475548565387725830e-02 -1.312332153320312500e-01 1.025150120258331299e-01
8.068444579839706421e-02 -2.644670754671096802e-02 -8.210054785013198853e-02 2.296495735645294189e-01 -1.764085739850997925e-01 5.201829597353935242e-02 6.532593071460723877e-02 7.250950485467910767e-02 -1.330785751342773438e-01 -2.419146150350570679e-01 1.697661876678466797e-01 -2.362178266048431396e-01 3.875901922583580017e-02 4.731480777263641357e-02 6.535513699054718018e-02 -1.294123977422714233e-01 -4.782326053828001022e-03 -9.655623137950897217e-02 -1.211554277688264847e-03 5.409821867942810059e-02 -2.331055253744125366e-01 7.948812842369079590e-02 -1.065598451532423496e-03 8.278563618659973145e-02 -1.676066964864730835e-01 7.089494261890649796e-03 3.782197833061218262e-02 -1.994762569665908813e-02 -1.468072682619094849e-01 8.502399176359176636e-02 1.181475669145584106e-01 1.048602536320686340e-01 -1.610246673226356506e-02 1.307102143764495850e-01 -2.020940743386745453e-02 -4.959671758115291595e-03 1.635066419839859009e-01 9.755636006593704224e-02 3.222116455435752869e-02 1.285979747772216797e-01 -1.740263104438781738e-01 -1.934636235237121582e-01 6.667330861091613770e-02 -8.978985995054244995e-02 -1.084867566823959351e-01 3.655797243118286133e-02 7.448462396860122681e-02 -3.599092736840248108e-02 1.214907765388488770e-01 1.067175269126892090e-01 1.825834959745407104e-01 -7.483613491058349609e-02 2.044558525085449219e-01 -1.399317979812622070e-01 5.161940306425094604e-02 4.002049192786216736e-02 3.169663995504379272e-02 1.010143980383872986e-01 5.028521642088890076e-03 -1.548679079860448837e-02 -4.191249981522560120e-02 1.592329144477844238e-01 -2.188162654638290405e-01 -8.338627964258193970e-02 -8.639773726463317871e-02 -1.524254530668258667e-01 -1.668598055839538574e-01 8.467322587966918945e-02 1.581307798624038696e-01 4.995780810713768005e-02 -1.847543120384216309e-01 1.361460238695144653e-01 2.148271960322745144e-05 -1.169786676764488220e-01 5.629150569438934326e-02 -7.380277384072542191e-03 6.710034608840942383e-02 -3.730981796979904175e-02 -1.805808097124099731e-01 -1.007736697793006897e-01 -8.386299759149551392e-02 9.632497280836105347e-02 6.386902183294296265e-02 8.580000698566436768e-02 1.507857292890548706e-01 -1.624654084444046021e-01 -1.817799955606460571e-01 2.178879640996456146e-02 -1.562359780073165894e-01 -6.131208688020706177e-02 -9.056627005338668823e-02 1.187396124005317688e-01 7.887886837124824524e-03 1.653436198830604553e-02 -6.551468372344970703e-02 -7.541581243276596069e-02 -3.869390347972512245e-03 -7.749895751476287842e-02 1.119474247097969055e-01 9.625535458326339722e-02 -6.445317715406417847e-02 -8.344124257564544678e-02 -1.610761135816574097e-02 -4.285700246691703796e-02 -1.202775388956069946e-01 -2.985421568155288696e-02 -1.278606206178665161e-01 1.261496990919113159e-01 2.294676005840301514e-01 -4.604434221982955933e-02 -2.543182969093322754e-01 8.421014994382858276e-02 -1.192517653107643127e-01 -8.969231694936752319e-02 1.917243003845214844e-01 2.409077286720275879e-01 2.462146431207656860e-02 -4.724231362342834473e-02 -1.454921364784240723e-01 -1.005932316184043884e-01 -1.835095882415771484e-02 6.020155549049377441e-02 1.748332381248474121e-01 1.146626323461532593e-01 -9.627642482519149780e-02 -6.986035406589508057e-02 -1.252192854881286621e-01 1.957702822983264923e-02
2.851499803364276886e-02 2.820364199578762054e-02 5.861577577888965607e-03 -1.713869720697402954e-01 -3.403288125991821289e-02 -7.467533648014068604e-02 -2.427306473255157471e-01 -2.362062484025955200e-01 1.681737368926405907e-03 -5.437583103775978088e-02 7.137501612305641174e-03 2.848341874778270721e-02 9.367656894028186798e-03 -2.225729078054428101e-02 8.400482684373855591e-02 8.927349746227264404e-02 -1.947123855352401733e-01 3.624850511550903320e-02 -5.049173906445503235e-02 -2.828173455782234669e-04 -2.240686863660812378e-02 -9.672562591731548309e-03 -1.758844852447509766e-01 -8.599125593900680542e-02 2.275754809379577637e-01 -1.180761456489562988e-01 -8.143142610788345337e-02 1.524578928947448730e-01 6.616977509111166000e-03 1.081174910068511963e-01 -5.745567753911018372e-02 -9.035574644804000854e-02 2.060805857181549072e-01 2.482015453279018402e-02 -6.676720920950174332e-03 -5.972432717680931091e-02 -1.380282640457153320e-01 1.353366225957870483e-01 -4.877114295959472656e-02 -2.488431346137076616e-04 -4.761487618088722229e-02 -5.385807598941028118e-04 1.064996123313903809e-01 6.759065389633178711e-02 1.711678355932235718e-01 -6.470768712460994720e-03 1.298388689756393433e-01 5.356249958276748657e-02 -2.077446877956390381e-01 8.812550455331802368e-02 -1.815228536725044250e-02 -6.372169405221939087e-02 1.003242284059524536e-01 5.273053050041198730e-02 -1.506323367357254028e-01 -4.941686987876892090e-02 6.656412780284881592e-02 -3.850821405649185181e-02 6.857638806104660034e-02 1.057317182421684265e-01 9.550778567790985107e-02 -1.798252910375595093e-01 -1.557278912514448166e-02 -1.834064535796642303e-02 -1.682033985853195190e-01 4.410683736205101013e-02 -8.677767962217330933e-02 -1.369830779731273651e-02 -7.514096051454544067e-02 -8.579518646001815796e-02 -1.555386036634445190e-01 2.850517258048057556e-02 -1.048972085118293762e-01 1.285634338855743408e-01 2.207922488451004028e-01 1.094026267528533936e-01 1.318651735782623291e-01 -5.704021826386451721e-02 -1.666708588600158691e-01 3.431606665253639221e-02 -1.218664720654487610e-01 -7.574420422315597534e-02 1.955344527959823608e-02 -1.704179346561431885e-01 -1.248913928866386414e-01 1.534901708364486694e-01 1.451045572757720947e-01 -9.744621813297271729e-02 3.739377856254577637e-02 -8.393559604883193970e-02 -2.698336541652679443e-01 2.704114653170108795e-02 -1.769531220197677612e-01 1.785012781620025635e-01 3.380588442087173462e-02 2.316758036613464355e-01 -9.256881661713123322e-03 4.851757362484931946e-02 2.823884226381778717e-02 -3.557520918548107147e-03 -1.460625827312469482e-01 -2.947892434895038605e-02 1.643943935632705688e-01 7.589308917522430420e-02 -1.526346206665039062e-01 -8.837666362524032593e-02 1.808679848909378052e-01 -2.102016657590866089e-01 -3.504652297124266624e-03 1.507571488618850708e-01 3.769553825259208679e-02 1.590326130390167236e-01 3.968578949570655823e-02 1.118906140327453613e-01 -2.311257123947143555e-01 -9.115906059741973877e-02 1.729876250028610229e-01 -2.318671792745590210e-01 7.951544597744941711e-03 6.708037853240966797e-02 1.576165109872817993e-01 1.961615830659866333e-01 -6.679672002792358398e-02 4.464121535420417786e-02 1.685270816087722778e-01 -2.309665270149707794e-02 2.116126865148544312e-01 -1.355498880147933960e-01
-7.728825509548187256e-02 2.640182077884674072e-01 -6.715739145874977112e-03 2.462534606456756592e-01 8.495813235640525818e-03 1.435438990592956543e-01 -9.782515466213226318e-02 -7.532273977994918823e-02 -1.162390485405921936e-01 1.894087195396423340e-01 -6.588602066040039062e-02 -9.654356166720390320e-03 3.087190985679626465e-01 5.949064344167709351e-02 4.788731038570404053e-02 -4.597488045692443848e-02 9.257338941097259521e-02 1.983096301555633545e-01 5.638861563056707382e-03 2.403237223625183105e-01 -8.968955278396606445e-02 -6.316155195236206055e-02 3.863245993852615356e-02 7.221431285142898560e-02 6.299019604921340942e-02 2.153644263744354248e-01 1.408723145723342896e-01 4.633545875549316406e-02 -2.028938531875610352e-01 1.126291379332542419e-01 -1.959979832172393799e-01 -9.688345342874526978e-02 1.080161258578300476e-01 1.213475987315177917e-01 1.535255163908004761e-01 1.424257010221481323e-01 2.411138266324996948e-01 1.171334646642208099e-02 -1.042485907673835754e-01 5.661872029304504395e-02 -3.748063743114471436e-02 9.208776056766510010e-02 1.807347983121871948e-01 -3.332231938838958740e-02 -6.247386708855628967e-02 2.111174399033188820e-03 -2.300517410039901733e-01 8.218972384929656982e-02 3.051673769950866699e-01 1.002964079380035400e-01 2.233137339353561401e-01 -1.711662709712982178e-01 9.866002202033996582e-02 -2.182755023241043091e-01 8.193685859441757202e-02 5.313635803759098053e-03 -1.213701590895652771e-01 -1.120564043521881104e-01 -5.700982734560966492e-02 1.159479282796382904e-02 3.441039845347404480e-02 2.324904501438140869e-01 8.649000525474548340e-02 2.718025445938110352e-01 1.710202544927597046e-01 2.100869566202163696e-01 -5.577411875128746033e-02 -6.817889213562011719e-02 1.877177059650421143e-01 9.070589393377304077e-02 8.827573806047439575e-02 1.347456127405166626e-01 2.519338726997375488e-01 4.179046954959630966e-03 -3.890595212578773499e-02 -1.751419454813003540e-01 -1.104614660143852234e-01 -9.175066649913787842e-02 -4.265943914651870728e-02 -7.440583780407905579e-03 -5.742342676967382431e-03 -9.452341496944427490e-02 -8.849015086889266968e-02 2.064693123102188110e-01 3.838378237560391426e-03 -1.773681938648223877e-01 1.976281404495239258e-01 2.339992672204971313e-01 6.302045658230781555e-03 6.159785017371177673e-02 2.313045412302017212e-02 1.880125254392623901e-01 1.665919125080108643e-01 4.930309951305389404e-02 2.606466114521026611e-01 4.478793591260910034e-02 1.653785407543182373e-01 -1.688355207443237305e-01 -2.281375974416732788e-01 2.401266098022460938e-01 1.771642863750457764e-01 2.012842595577239990e-01 -6.727176159620285034e-02 1.765467971563339233e-02 -2.245544195175170898e-01 5.388454720377922058e-02 2.542514503002166748e-01 -1.282899826765060425e-01 -1.227884553372859955e-02 1.271718293428421021e-01 1.551921013742685318e-02 8.882051706314086914e-02 5.589062720537185669e-02 -6.560201942920684814e-02 8.169616013765335083e-02 -3.592905402183532715e-02 1.159387081861495972e-01 -1.930150091648101807e-01 -1.948377937078475952e-01 1.222399473190307617e-01 -5.147636309266090393e-02 -1.569324731826782227e-01 3.071676790714263916e-01 -2.847724780440330505e-02 2.176378369331359863e-01 2.360945641994476318e-01 -8.909480646252632141e-03 -2.668885700404644012e-02
1.418734490871429443e-01 1.060486361384391785e-01 -1.121770739555358887e-01 1.925114691257476807e-01 -2.155316323041915894e-01 -8.560222387313842773e-02 7.378192385658621788e-04 2.704170048236846924e-01 -2.872785627841949463e-01 -1.829411685466766357e-01 -1.266853064298629761e-01 -2.239720523357391357e-01 6.670916080474853516e-02 -8.910808712244033813e-02 -6.414924561977386475e-02 -7.444516569375991821e-02 1.157861202955245972e-01 5.325116217136383057e-02 -2.635957598686218262e-01 4.836861789226531982e-02 -1.605247729457914829e-03 -2.739511728286743164e-01 -1.444802060723304749e-02 -2.544008195400238037e-01 -7.466737180948257446e-02 -3.670332487672567368e-03 1.613414436578750610e-01 -2.590568959712982178e-01 6.479646265506744385e-02 -7.231728732585906982e-02 1.050667371600866318e-03 -2.565438449382781982e-01 -1.700680553913116455e-01 2.749150060117244720e-02 1.058364287018775940e-01 -1.112104058265686035e-01 4.553937539458274841e-02 -1.206294819712638855e-01 1.030844897031784058e-01 -5.043514445424079895e-02 1.248706281185150146e-01 1.439027041196823120e-01 2.213191539049148560e-01 -8.089598268270492554e-02 -8.723117411136627197e-02 -2.435193061828613281e-01 1.614183187484741211e-01 1.515952795743942261e-01 -4.137831553816795349e-02 3.809791803359985352e-02 -1.277648061513900757e-01 -5.025333911180496216e-02 2.916245907545089722e-02 -7.170467823743820190e-02 1.417502909898757935e-01 -7.076356559991836548e-02 -1.132315173745155334e-01 1.970897167921066284e-01 -2.778364121913909912e-01 -7.704294472932815552e-02 -6.685947626829147339e-02 6.812783330678939819e-02 -1.086526140570640564e-01 1.290620416402816772e-01 7.372453063726425171e-02 -2.213824093341827393e-01 -1.707134693861007690e-01 1.765483021736145020e-01 -2.014145553112030029e-01 -6.084698811173439026e-02 -1.735257953405380249e-01 4.666082561016082764e-02 1.711294203996658325e-01 2.566460520029067993e-02 3.680180385708808899e-02 -2.594430148601531982e-01 1.191755458712577820e-01 -2.324440181255340576e-01 -5.307852104306221008e-02 4.393424093723297119e-02 8.910946547985076904e-02 1.543271839618682861e-01 -1.053272634744644165e-01 -4.990620166063308716e-02 -4.501722380518913269e-02 -2.159550786018371582e-01 8.838912099599838257e-02 -2.186462134122848511e-01 9.477192163467407227e-02 -1.107850149273872375e-01 1.486708670854568481e-01 2.432158403098583221e-02 -1.295084357261657715e-01 -9.448856860399246216e-02 1.970986276865005493e-01 -2.941388450562953949e-02 1.081112995743751526e-01 7.105658203363418579e-02 1.376188844442367554e-01 -1.797851473093032837e-01 2.147147655487060547e-01 -9.624212235212326050e-02 1.312288045883178711e-01 -6.954806298017501831e-02 3.670228272676467896e-02 -1.024068966507911682e-01 -3.654088824987411499e-02 1.950665377080440521e-02 -6.326305866241455078e-02 8.893082290887832642e-02 -2.172266878187656403e-02 -9.220669418573379517e-02 -1.576976329088211060e-01 -1.319884210824966431e-01 2.638659812510013580e-02 2.423268888378515840e-04 5.040506273508071899e-02 -1.075382158160209656e-02 -2.969582974910736084e-01 -2.263458073139190674e-01 1.201804354786872864e-01 -3.883144631981849670e-02 6.629768013954162598e-02 2.395081892609596252e-02 -2.043473161756992340e-02 7.759026437997817993e-02 -2.530685365200042725e-01 -2.401660829782485962e-01
1.438292562961578369e-01 -1.366152167320251465e-01 1.292949467897415161e-01 9.254585020244121552e-03 4.385269712656736374e-04 -2.057228535413742065e-01 6.497394293546676636e-02 1.368804872035980225e-01 1.543875485658645630e-01 2.065061479806900024e-01 1.219292581081390381e-01 1.530415117740631104e-01 2.241618782281875610e-01 1.657040975987911224e-02 -7.877010852098464966e-03 6.041868776082992554e-02 7.251276820898056030e-02 1.457163840532302856e-01 -3.843583539128303528e-02 -5.754763260483741760e-02 -5.946991223026998341e-05 -1.866469085216522217e-01 -2.033414840698242188e-01 -1.518801748752593994e-01 7.963669300079345703e-02 3.019438823685050011e-03 2.634394541382789612e-02 2.095399647951126099e-01 1.337043941020965576e-01 1.953124850988388062e-01 -1.964003080502152443e-03 -1.969572305679321289e-01 -5.356988310813903809e-02 -5.261157453060150146e-02 -2.659931182861328125e-01 6.685650348663330078e-02 1.221092045307159424e-01 -4.583565890789031982e-02 -1.688351035118103027e-01 2.273894660174846649e-02 2.943323180079460144e-02 8.020836859941482544e-02 -1.570047736167907715e-01 1.664665043354034424e-01 1.280447989702224731e-01 -1.467486023902893066e-01 6.069861352443695068e-02 1.189864054322242737e-01 -1.610386073589324951e-01 -2.506085634231567383e-01 -1.494720727205276489e-01 6.871832162141799927e-02 8.437499403953552246e-02 -1.363637000322341919e-01 -1.141356602311134338e-01 1.344478726387023926e-01 -4.619452729821205139e-02 1.937724836170673370e-02 6.934397388249635696e-04 3.276624903082847595e-02 -7.656257133930921555e-03 1.780027896165847778e-01 2.760160565376281738e-01 -7.137687504291534424e-02 -1.840960085391998291e-01 -8.733695000410079956e-02 2.105547189712524414e-01 1.635704338550567627e-01 -2.262495458126068115e-01 4.234280902892351151e-03 -5.076261982321739197e-02 -9.552649408578872681e-02 1.574484109878540039e-01 1.824910938739776611e-01 1.889266967773437500e-01 -2.044335752725601196e-01 -1.934765093028545380e-02 -1.548316329717636108e-01 -1.528573483228683472e-01 -6.156085804104804993e-02 -5.326150730252265930e-02 1.771840751171112061e-01 3.283029422163963318e-02 -2.001128196716308594e-01 -7.471816986799240112e-02 -1.227930113673210144e-01 3.730382770299911499e-02 -1.775480955839157104e-01 -8.650648593902587891e-02 -1.053091883659362793e-01 -4.362744465470314026e-02 1.337298601865768433e-01 -3.157265856862068176e-02 -1.279776394367218018e-01 9.910098742693662643e-04 6.330952793359756470e-02 9.829165786504745483e-02 2.123789042234420776e-01 -2.323835343122482300e-01 -2.696262858808040619e-02 -2.135737687349319458e-01 1.404842287302017212e-01 2.038395702838897705e-01 -7.440092414617538452e-02 1.119671091437339783e-01 5.714600533246994019e-02 -1.327582746744155884e-01 -1.429007500410079956e-01 -2.505069784820079803e-02 2.755987830460071564e-02 8.194035291671752930e-02 -1.412674039602279663e-01 -1.523573696613311768e-01 1.244211271405220032e-01 -7.181264460086822510e-02 -1.262254267930984497e-01 -1.132874265313148499e-01 1.441571861505508423e-01 -1.213536635041236877e-01 1.589954346418380737e-01 -5.228550173342227936e-03 1.745499223470687866e-01 -1.351475529372692108e-02 -5.350214987993240356e-02 9.418550133705139160e-02 -1.633249670267105103e-01 1.650882363319396973e-01 -1.078917235136032104e-01
-1.236574202775955200e-01 -1.428610365837812424e-02 -1.765342615544795990e-02 8.990441448986530304e-03 -1.953680515289306641e-01 5.142474547028541565e-02 -3.143973648548126221e-02 1.477037277072668076e-02 -4.359282180666923523e-02 -1.086799129843711853e-01 1.566726416349411011e-01 1.244367510080337524e-01 1.575336903333663940e-01 -1.231722906231880188e-01 -5.150570347905158997e-02 6.052656471729278564e-02 1.684072166681289673e-01 1.576416939496994019e-01 4.768603667616844177e-02 1.100678816437721252e-01 -6.853716820478439331e-02 1.180415824055671692e-01 -3.673687949776649475e-02 -7.149299234151840210e-02 1.298635751008987427e-01 1.676624715328216553e-01 7.149992138147354126e-02 -1.731979250907897949e-01 4.223225265741348267e-02 1.178179308772087097e-01 1.384010910987854004e-01 -1.546686589717864990e-01 -1.830310672521591187e-01 1.960250884294509888e-01 1.184690743684768677e-02 -1.624612361192703247e-01 9.885419160127639771e-02 1.607761234045028687e-01 -1.564506813883781433e-02 1.109426096081733704e-01 2.476163581013679504e-02 7.761237025260925293e-02 -6.073422729969024658e-02 -1.552491784095764160e-01 -1.985519826412200928e-01 3.235709667205810547e-02 -1.828610301017761230e-01 6.265752762556076050e-02 -1.102869287133216858e-01 -7.681634277105331421e-02 7.305327802896499634e-02 1.399394571781158447e-01 1.919306367635726929e-01 -6.883783498778939247e-04 2.810876630246639252e-02 1.714948713779449463e-01 9.562093019485473633e-02 1.415967345237731934e-01 -1.612745039165019989e-02 1.067369207739830017e-01 -8.252923190593719482e-02 9.534578770399093628e-02 -6.687423586845397949e-02 5.851241573691368103e-02 -7.144583016633987427e-02 -9.237076342105865479e-02 -1.410695612430572510e-01 -1.739436239004135132e-01 -7.183217257261276245e-02 -1.482939869165420532e-01 1.677394658327102661e-01 1.618366688489913940e-01 -4.393175616860389709e-02 1.513326913118362427e-01 -1.319490671157836914e-01 1.584238857030868530e-01 -3.137400001287460327e-02 4.764564335346221924e-02 8.768886327743530273e-02 -8.378382027149200439e-02 1.260235011577606201e-01 1.832351535558700562e-01 2.957366220653057098e-02 1.641353219747543335e-01 -5.739711225032806396e-02 3.551600128412246704e-02 -4.371123015880584717e-02 -1.204205527901649475e-01 -1.252974867820739746e-01 4.474971815943717957e-02 -8.259012550115585327e-02 -1.241279914975166321e-01 2.947503328323364258e-02 -1.198749169707298279e-01 -1.304223537445068359e-01 -3.200078383088111877e-02 -1.301055997610092163e-01 -1.885627508163452148e-01 5.792143195867538452e-02 1.192520484328269958e-01 4.060108622070401907e-04 1.550395488739013672e-01 3.658099845051765442e-02 6.246907636523246765e-02 -5.477690324187278748e-02 -1.780882924795150757e-01 -6.983166188001632690e-02 1.004699915647506714e-01 1.249725073575973511e-01 1.402677297592163086e-01 -1.037480309605598450e-01 -2.003343850374221802e-01 -1.536002382636070251e-02 1.593026369810104370e-01 1.511145234107971191e-01 -3.075139969587326050e-02 1.133648026734590530e-02 9.513097256422042847e-02 8.432557433843612671e-02 -2.147234529256820679e-01 -8.655261993408203125e-02 -1.847115010023117065e-01 9.980056434869766235e-02 1.037825420498847961e-01 3.673363849520683289e-02 -5.185214336961507797e-03 -1.770827621221542358e-01 -3.464739769697189331e-02
1.225916072726249695e-01 -2.542482316493988037e-02 9.960000962018966675e-02 5.165705457329750061e-03 1.893046647310256958e-01 2.962612360715866089e-02 5.159546434879302979e-02 1.698549538850784302e-01 4.625219479203224182e-02 -1.438655555248260498e-01 4.798800498247146606e-02 6.928464025259017944e-02 7.546987384557723999e-03 -1.796129494905471802e-01 7.393746171146631241e-03 -5.077843740582466125e-02 1.350466627627611160e-02 8.723456412553787231e-02 1.440669894218444824e-01 -6.240927428007125854e-02 1.311546117067337036e-01 5.358923226594924927e-02 1.365391612052917480e-01 2.760051935911178589e-02 8.980596065521240234e-02 1.221351921558380127e-01 1.567594856023788452e-01 1.696190983057022095e-01 1.131738424301147461e-01 -9.813904762268066406e-02 -1.481912732124328613e-01 -1.621088534593582153e-01 -5.845169723033905029e-02 -9.825120121240615845e-02 -9.199236333370208740e-02 1.973626315593719482e-01 -1.166976541280746460e-01 -1.628075242042541504e-01 -1.100144982337951660e-01 8.162767440080642700e-02 1.385771632194519043e-01 1.038429215550422668e-01 -5.157762765884399414e-02 9.052159637212753296e-02 -1.191551685333251953e-01 2.002927958965301514e-01 -9.436422586441040039e-02 -3.183314949274063110e-02 -6.904893554747104645e-03 -1.614688895642757416e-02 2.192272618412971497e-02 -1.675620377063751221e-01 7.523839175701141357e-02 1.653077751398086548e-01 -6.485585123300552368e-02 -7.720877975225448608e-02 -1.523061841726303101e-01 -6.610184907913208008e-02 -4.983435571193695068e-02 -1.350590586662292480e-01 -1.873673498630523682e-01 -7.438476383686065674e-02 -5.726393312215805054e-02 8.637163043022155762e-02 -1.571673341095447540e-02 -1.476613432168960571e-01 -1.069837361574172974e-01 3.569456934928894043e-02 -6.299468874931335449e-02 -1.070340946316719055e-01 -9.965436905622482300e-02 9.040479362010955811e-02 -1.648246645927429199e-01 -1.599677205085754395e-01 -1.477294862270355225e-01 2.703591622412204742e-02 -1.085542663931846619e-01 7.288854569196701050e-02 1.199465170502662659e-01 1.027229055762290955e-01 -5.849450081586837769e-02 -6.106479093432426453e-02 5.178869143128395081e-02 1.617831438779830933e-01 3.318835049867630005e-02 -6.326708197593688965e-02 1.584299504756927490e-01 1.005117222666740417e-01 -1.733140945434570312e-01 -9.404958039522171021e-02 4.875647276639938354e-02 -5.837746337056159973e-02 7.091401517391204834e-02 -1.117148250341415405e-01 -3.075171262025833130e-02 -1.685344725847244263e-01 -1.665778011083602905e-01 2.815417014062404633e-03 9.008017927408218384e-02 -1.107508465647697449e-01 -3.293160349130630493e-02 -1.303485631942749023e-01 2.240183949470520020e-02 1.479951590299606323e-01 1.144401580095291138e-01 -2.082298696041107178e-02 -1.011007353663444519e-01 -1.390819847583770752e-01 -1.355926692485809326e-01 -1.050992533564567566e-01 1.954032853245735168e-02 -1.229218468070030212e-01 -2.669280208647251129e-02 1.514226794242858887e-01 2.548137865960597992e-02 -1.620108038187026978e-01 1.494597345590591431e-01 4.536210745573043823e-02 1.809475757181644440e-02 -4.702313616871833801e-02 1.046098694205284119e-01 1.354605853557586670e-01 1.098985373973846436e-01 -1.902289874851703644e-02 2.459760569036006927e-02 1.147200763225555420e-01 -1.443809568881988525e-01 -1.123585328459739685e-01
-1.530735790729522705e-01 -1.480301618576049805e-01 -1.469989120960235596e-01 -1.376216411590576172e-01 -2.755646780133247375e-02 1.157257556915283203e-01 -1.092658564448356628e-01 8.652932941913604736e-02 8.340610563755035400e-02 8.492447435855865479e-02 -8.421830087900161743e-02 8.466383814811706543e-02 -1.330116540193557739e-01 -1.005312800407409668e-01 -1.264036595821380615e-01 -8.686626702547073364e-02 2.443933300673961639e-02 -1.325026750564575195e-01 4.984569549560546875e-02 5.593604966998100281e-02 -1.244803518056869507e-01 2.055887877941131592e-01 -5.609960481524467468e-02 1.692522875964641571e-02 -1.461099982261657715e-01 8.556123077869415283e-02 9.572269767522811890e-02 -1.670856773853302002e-01 -1.377931237220764160e-01 -1.567754596471786499e-01 -1.016414090991020203e-01 5.847634002566337585e-02 7.265551388263702393e-02 -1.497196108102798462e-01 2.071457505226135254e-01 6.529925763607025146e-02 1.040605753660202026e-01 6.843616068363189697e-02 9.921786189079284668e-02 2.109328955411911011e-01 1.192058622837066650e-01 -1.130871102213859558e-01 3.477898240089416504e-02 -1.911758780479431152e-01 -9.863255918025970459e-02 6.643493473529815674e-02 -1.453956812620162964e-01 -1.990830898284912109e-01 -9.687638282775878906e-02 1.111048981547355652e-01 2.172012776136398315e-01 5.979786440730094910e-02 -1.711027622222900391e-01 -1.039510667324066162e-01 -1.657124608755111694e-01 2.805318310856819153e-02 1.175134554505348206e-01 -1.535595804452896118e-01 2.382284253835678101e-01 2.224070429801940918e-01 -1.798089742660522461e-01 1.068822517991065979e-01 -5.187895148992538452e-02 1.536801159381866455e-01 -1.291378736495971680e-01 1.468009501695632935e-01 4.007918294519186020e-03 -1.331883817911148071e-01 1.997522413730621338e-01 -1.510665118694305420e-01 1.451091468334197998e-01 -9.911780059337615967e-02 -7.794795930385589600e-02 -1.066985726356506348e-01 -1.256203204393386841e-01 1.004372760653495789e-01 7.041281461715698242e-02 1.941021829843521118e-01 1.831236481666564941e-01 1.496365368366241455e-01 1.479444801807403564e-01 -2.389428019523620605e-02 -1.739670932292938232e-01 -8.385356515645980835e-02 1.130069121718406677e-01 -3.532081097364425659e-02 -3.395047038793563843e-02 -1.263292282819747925e-01 -7.579217106103897095e-02 5.821342766284942627e-02 -1.136261448264122009e-01 -1.020340323448181152e-01 1.946579068899154663e-01 1.235250756144523621e-02 7.364884950220584869e-03 1.540643274784088135e-01 4.121083393692970276e-02 -1.395678818225860596e-01 -6.409429013729095459e-02 1.212349086999893188e-01 -6.784316152334213257e-02 -8.537426590919494629e-02 -6.599712371826171875e-02 1.356005370616912842e-01 1.251761764287948608e-01 2.572206221520900726e-02 -1.037042960524559021e-01 1.502397209405899048e-01 -5.833490937948226929e-02 -1.613681577146053314e-02 -5.005858093500137329e-02 2.825096994638442993e-02 1.642859876155853271e-01 3.677037358283996582e-02 1.513191908597946167e-01 1.859379857778549194e-01 1.418306827545166016e-01 -7.079124450683593750e-02 2.495600283145904541e-01 9.444994479417800903e-02 -1.287492662668228149e-01 -3.476548567414283752e-02 -5.672650784254074097e-02 6.618643552064895630e-02 -6.688234210014343262e-02 -8.156631141901016235e-02 1.941670663654804230e-02 2.299676835536956787e-01
9.328643232583999634e-02 1.437489986419677734e-01 6.001089140772819519e-02 -1.629688441753387451e-01 3.174220398068428040e-02 -5.304991081357002258e-02 -9.017053246498107910e-02 8.541409671306610107e-02 -1.343186795711517334e-01 2.423400059342384338e-02 -1.277661621570587158e-01 -5.356705561280250549e-02 -8.269701898097991943e-02 9.594161063432693481e-02 1.469592154026031494e-01 1.454548910260200500e-02 1.860615462064743042e-01 1.949572749435901642e-02 -1.886081099510192871e-01 1.108530163764953613e-01 1.793460994958877563e-01 3.535072878003120422e-02 1.259985417127609253e-01 -1.567417085170745850e-01 -1.508282721042633057e-01 1.482151597738265991e-01 -1.545480191707611084e-01 -1.742714047431945801e-01 6.150006875395774841e-02 5.090603232383728027e-02 -1.078627333045005798e-01 1.242997795343399048e-01 8.442880213260650635e-02 1.205972656607627869e-01 3.516797721385955811e-02 1.747905462980270386e-01 6.634736806154251099e-02 1.052083149552345276e-01 -1.344089806079864502e-01 -1.551405154168605804e-02 1.890095765702426434e-03 -8.225586265325546265e-03 -1.604146063327789307e-01 -1.349285989999771118e-01 -4.001365974545478821e-02 -5.128136277198791504e-02 -1.588931530714035034e-01 -1.527298092842102051e-01 2.076025865972042084e-02 -7.542605698108673096e-02 -4.647430777549743652e-02 4.267768934369087219e-02 -1.331509053707122803e-01 -1.902032527141273022e-03 1.140288412570953369e-01 1.395517140626907349e-01 6.971741095185279846e-03 7.365645468235015869e-02 -1.007645800709724426e-01 1.286984235048294067e-01 4.527041316032409668e-02 1.427803635597229004e-01 -5.236558616161346436e-02 1.148500815033912659e-01 3.201299160718917847e-02 -1.088464483618736267e-01 2.636778913438320160e-02 5.938972160220146179e-02 -1.472675651311874390e-01 1.634592413902282715e-01 -1.056082732975482941e-02 6.237043440341949463e-02 -8.261511474847793579e-02 -4.558798391371965408e-03 -8.045002073049545288e-02 1.938900537788867950e-02 -4.832880198955535889e-02 -9.003608673810958862e-02 -5.551693215966224670e-02 9.242125600576400757e-02 1.719266362488269806e-02 6.270448118448257446e-02 -7.112684845924377441e-02 1.020091846585273743e-01 8.290997147560119629e-02 1.014978885650634766e-01 4.000489134341478348e-03 -6.498331576585769653e-02 1.419420391321182251e-01 4.909671843051910400e-02 -8.714192360639572144e-02 -6.923110783100128174e-02 1.503109335899353027e-01 -1.541798710823059082e-01 -3.757196292281150818e-02 1.109252125024795532e-01 8.015946298837661743e-02 8.816622942686080933e-02 -5.711748450994491577e-02 1.642972677946090698e-01 -6.317382212728261948e-03 5.818507447838783264e-02 -1.513918489217758179e-01 1.116649806499481201e-01 -1.081095486879348755e-01 9.451984614133834839e-02 -1.107265278697013855e-01 3.743252530694007874e-02 -7.846168428659439087e-02 5.861506331712007523e-03 -3.746802359819412231e-02 4.223852604627609253e-02 -1.704254373908042908e-02 -1.728920191526412964e-01 7.496252655982971191e-02 -5.346920341253280640e-02 -1.466337591409683228e-01 4.521235451102256775e-02 7.736533880233764648e-03 5.055941641330718994e-02 -1.265736669301986694e-01 5.239877104759216309e-02 -5.231450870633125305e-02 -3.339127823710441589e-02 -1.661520004272460938e-01 -9.852103143930435181e-02 1.156501024961471558e-01 6.492476165294647217e-02
1.484336256980895996e-01 -1.372776478528976440e-01 1.470137685537338257e-01 5.793406069278717041e-02 -5.267372354865074158e-02 -2.342165447771549225e-02 2.504267916083335876e-02 8.096923679113388062e-02 1.749226599931716919e-01 6.731866300106048584e-02 -1.379268616437911987e-01 -6.317134946584701538e-02 1.710145622491836548e-01 1.809777691960334778e-02 1.571571081876754761e-02 2.276670336723327637e-01 6.639020889997482300e-02 -1.121759787201881409e-01 1.129255667328834534e-01 1.520522087812423706e-01 -7.097322493791580200e-02 -1.220865398645401001e-01 -2.715125307440757751e-02 8.375659584999084473e-02 1.707473844289779663e-01 -7.134601473808288574e-02 1.502985209226608276e-01 2.541505917906761169e-02 6.105093285441398621e-02 -1.201666593551635742e-01 -4.902523383498191833e-02 -1.038412004709243774e-01 1.777040213346481323e-01 8.029381930828094482e-02 9.084646403789520264e-02 1.003741249442100525e-01 -1.274860650300979614e-01 -1.297494322061538696e-01 1.259614974260330200e-01 5.351543053984642029e-02 7.937924563884735107e-02 1.275863796472549438e-01 -7.125607877969741821e-02 1.163886785507202148e-01 2.222711294889450073e-01 1.650349935516715050e-03 -1.792852394282817841e-02 8.643740788102149963e-03 -1.617739535868167877e-02 1.237849444150924683e-01 -3.994419053196907043e-02 -3.165744617581367493e-02 -6.985793262720108032e-02 8.338991552591323853e-02 1.533050090074539185e-02 1.115024741739034653e-02 1.648236066102981567e-01 4.869622737169265747e-02 2.001996636390686035e-01 1.972983479499816895e-01 -1.369919478893280029e-01 1.740158200263977051e-01 1.466987133026123047e-01 7.345287501811981201e-02 -9.955018758773803711e-02 1.712959110736846924e-01 -1.029194425791501999e-02 -1.213882211595773697e-02 3.041921555995941162e-02 1.186310946941375732e-01 1.866216659545898438e-01 1.214051768183708191e-01 -9.562752395868301392e-02 5.849995836615562439e-02 1.719404757022857666e-01 -5.907031148672103882e-02 1.900707036256790161e-01 -4.186847060918807983e-02 1.957583427429199219e-01 1.225976720452308655e-01 7.061076909303665161e-02 -1.251729279756546021e-01 -1.341834757477045059e-02 1.079928278923034668e-01 5.455138534307479858e-02 -2.765399031341075897e-02 2.018544822931289673e-01 -1.909802854061126709e-02 -1.511544734239578247e-01 -4.671164229512214661e-02 -1.136833876371383667e-01 4.318261519074440002e-02 -4.586057737469673157e-02 -1.257675588130950928e-01 1.193523313850164413e-02 2.188848704099655151e-01 -1.135877445340156555e-01 -7.953915745019912720e-02 2.289366275072097778e-01 3.032236173748970032e-02 3.560985252261161804e-02 8.280730992555618286e-02 -1.065648198127746582e-01 1.314346343278884888e-01 -8.826319128274917603e-02 1.803051494061946869e-02 7.198329549282789230e-03 -4.931423813104629517e-02 -1.504226028919219971e-01 4.795384779572486877e-02 1.534250825643539429e-01 5.513905361294746399e-02 1.473570168018341064e-01 4.250456392765045166e-02 7.192268967628479004e-02 7.571784779429435730e-03 -6.215394288301467896e-02 1.049162745475769043e-01 1.557719614356756210e-02 2.317725270986557007e-01 1.808690130710601807e-01 2.203606516122817993e-01 -2.553096413612365723e-02 1.170168519020080566e-01 9.117719531059265137e-02 5.705051869153976440e-02 1.158609166741371155e-01 1.467934846878051758e-01
-2.093539685010910034e-01 1.983889006078243256e-02 2.343397215008735657e-02 -1.692596636712551117e-02 -1.097138151526451111e-01 -4.338689893484115601e-02 1.540629193186759949e-02 5.897995829582214355e-02 -9.445892274379730225e-02 -1.222545132040977478e-01 -4.533798247575759888e-02 -5.073531717061996460e-02 1.519378367811441422e-02 -8.462656289339065552e-03 -1.404213607311248779e-01 4.440951719880104065e-02 8.350624889135360718e-02 6.470996886491775513e-02 5.871206987649202347e-03 -3.789963433519005775e-03 -2.421966642141342163e-01 3.148966282606124878e-02 -5.298446491360664368e-02 -1.797015219926834106e-01 -1.790328174829483032e-01 -1.209245994687080383e-01 -1.602572202682495117e-01 6.869243923574686050e-03 -2.293461114168167114e-01 -5.404379591345787048e-02 7.932900637388229370e-02 -1.153271123766899109e-01 7.904447615146636963e-02 1.568895764648914337e-03 -1.331739276647567749e-01 -1.535223424434661865e-02 -1.472639441490173340e-01 2.291884087026119232e-02 4.463756456971168518e-02 4.566074348986148834e-03 -8.439543098211288452e-02 -9.843633323907852173e-02 -1.442080587148666382e-01 -7.960785925388336182e-02 3.214319236576557159e-03 -1.921551674604415894e-01 1.118658259510993958e-01 1.018285676836967468e-01 -1.032253503799438477e-01 -9.397023916244506836e-02 -1.520014703273773193e-01 -3.195809945464134216e-02 2.121938392519950867e-02 -1.168093383312225342e-01 -1.196495369076728821e-01 1.330625265836715698e-01 -1.468718796968460083e-01 -7.127349823713302612e-02 -1.612032055854797363e-01 -1.532371640205383301e-01 -3.901929408311843872e-02 8.547146618366241455e-02 -1.576138883829116821e-01 1.081537380814552307e-01 -4.882762208580970764e-02 -1.137822121381759644e-01 3.734357282519340515e-02 -1.131517738103866577e-01 1.447241604328155518e-01 1.632627695798873901e-01 6.218601018190383911e-02 3.895894065499305725e-02 -1.310148686170578003e-01 9.173341840505599976e-02 -9.007139503955841064e-02 -1.967021822929382324e-01 2.668874710798263550e-02 -7.283244282007217407e-02 9.579432755708694458e-02 -1.250134855508804321e-01 4.008297249674797058e-02 -1.434093154966831207e-02 -2.526780031621456146e-02 1.142500191926956177e-01 1.618024110794067383e-01 -1.148415654897689819e-01 -1.799148470163345337e-01 -4.436113685369491577e-02 -1.362474411725997925e-01 3.266931697726249695e-02 1.313963979482650757e-01 1.626233309507369995e-01 -1.541741788387298584e-01 -7.832413166761398315e-02 -1.023291423916816711e-01 -2.652573883533477783e-01 -6.891477853059768677e-02 -1.989685446023941040e-01 1.215565018355846405e-02 -8.827119320631027222e-02 -5.888659507036209106e-03 1.673811078071594238e-01 3.094673156738281250e-02 -2.012024447321891785e-02 -7.790789753198623657e-02 -1.856725215911865234e-01 -1.028176695108413696e-01 -9.578558802604675293e-02 -1.188686862587928772e-01 -2.101013213396072388e-01 -1.573685854673385620e-01 6.981720775365829468e-02 1.024119555950164795e-01 -1.640455424785614014e-01 -9.262266755104064941e-02 -7.030501216650009155e-02 -1.322711110115051270e-01 -1.074729934334754944e-01 -9.202919155359268188e-02 -1.920524239540100098e-01 1.287859231233596802e-01 -1.832868307828903198e-01 1.088021099567413330e-01 -1.675297133624553680e-02 1.829794421792030334e-02 -4.446979984641075134e-02 -6.372132897377014160e-02 -1.806642413139343262e-01
1.414216607809066772e-01 1.501015126705169678e-01 -1.765877157449722290e-01 5.884315073490142822e-02 1.481665521860122681e-01 7.638093084096908569e-02 -1.440548449754714966e-01 -5.300753749907016754e-03 -1.884035766124725342e-01 2.357911169528961182e-01 1.271758973598480225e-01 1.157911568880081177e-01 -9.192260354757308960e-02 3.075804328545928001e-03 -1.749411523342132568e-01 -6.350902840495109558e-03 -1.151009798049926758e-01 -3.856613114476203918e-02 -1.501830369234085083e-01 -4.845898598432540894e-02 1.112893819808959961e-01 -1.710351556539535522e-01 1.022456586360931396e-01 1.063232123851776123e-01 -6.850238144397735596e-02 -1.963163912296295166e-01 -1.185922771692276001e-01 6.714135408401489258e-02 9.141301363706588745e-02 3.215875849127769470e-02 -4.702407121658325195e-02 3.224129602313041687e-02 -3.785084187984466553e-02 -1.633695214986801147e-01 -1.294506490230560303e-01 2.518579959869384766e-01 1.049716025590896606e-01 1.382990181446075439e-01 -1.592235416173934937e-01 -1.168049797415733337e-01 1.578310430049896240e-01 -6.130513548851013184e-02 -7.018502801656723022e-02 3.815856203436851501e-02 -4.821725934743881226e-02 8.625709451735019684e-03 -1.430070400238037109e-01 5.679035559296607971e-02 6.719284504652023315e-02 2.775466628372669220e-02 5.658325552940368652e-02 -2.104189544916152954e-01 -1.675109937787055969e-02 -8.512326329946517944e-02 -4.066719487309455872e-02 -1.156254261732101440e-01 5.620819516479969025e-03 1.007361412048339844e-01 5.202973261475563049e-02 -1.035974025726318359e-01 -2.245233021676540375e-02 -1.005896851420402527e-01 1.217665001749992371e-01 8.596383780241012573e-02 -1.343284238828346133e-04 9.804403781890869141e-02 8.122911304235458374e-02 -1.136808097362518311e-01 -1.621984690427780151e-01 6.612929701805114746e-02 -7.698078453540802002e-02 -1.165218278765678406e-01 -9.750411659479141235e-02 -1.079350784420967102e-01 1.423122435808181763e-01 -1.888969391584396362e-01 -1.989747285842895508e-01 1.991975307464599609e-02 4.867722839117050171e-02 2.330466061830520630e-01 1.464025229215621948e-01 -2.237453460693359375e-01 4.144392162561416626e-02 1.527336686849594116e-01 1.107003018260002136e-01 -1.069999635219573975e-01 1.241494864225387573e-01 -6.250728666782379150e-02 -6.244311109185218811e-02 -1.348291337490081787e-01 -4.864259809255599976e-02 -1.683234423398971558e-02 1.602470278739929199e-01 -1.373525857925415039e-01 -3.741946443915367126e-02 -3.095097839832305908e-02 3.824267163872718811e-02 -5.036884918808937073e-02 -3.100784309208393097e-02 1.526547372341156006e-01 3.286547027528285980e-03 -1.917399913072586060e-01 1.168053671717643738e-01 -7.831841707229614258e-02 4.287533089518547058e-02 -6.392228603363037109e-02 6.791860610246658325e-02 -1.361266970634460449e-01 2.396625839173793793e-02 1.143174991011619568e-01 1.467969119548797607e-01 3.404306247830390930e-02 -1.164000630378723145e-01 -1.468741744756698608e-01 -9.171965718269348145e-02 -8.565139025449752808e-02 -9.250170737504959106e-02 -7.539013028144836426e-02 5.548278987407684326e-02 2.275379747152328491e-02 8.681083470582962036e-02 1.741445064544677734e-01 9.285493195056915283e-02 -8.674360066652297974e-02 3.453043475747108459e-02 -1.885785609483718872e-01 1.131305545568466187e-01 -1.493674814701080322e-01
-1.411560922861099243e-01 5.746610090136528015e-02 -1.219031065702438354e-01 1.156461164355278015e-01 9.058239310979843140e-02 -7.920629531145095825e-02 -1.898814886808395386e-01 -1.027917265892028809e-01 8.362483233213424683e-02 7.776923477649688721e-02 -4.662524536252021790e-02 2.989185415208339691e-02 -2.016289532184600830e-01 -1.913311034440994263e-01 1.096007600426673889e-01 5.145514756441116333e-02 -1.267542541027069092e-01 8.688188344240188599e-02 7.569936662912368774e-02 1.151167005300521851e-01 -1.176867336034774780e-01 -6.873848289251327515e-02 -1.445814520120620728e-01 -4.460828751325607300e-02 -1.839567907154560089e-02 -1.019373536109924316e-01 -1.232731118798255920e-01 -2.037965953350067139e-01 -9.784274548292160034e-02 2.472063759341835976e-03 1.313618719577789307e-01 -1.150829251855611801e-02 -8.608758449554443359e-02 4.996636137366294861e-02 6.122450530529022217e-02 7.780704181641340256e-03 -4.076693952083587646e-02 -8.804533630609512329e-02 3.834060579538345337e-02 -1.704433113336563110e-01 -2.190723642706871033e-02 -4.383050277829170227e-02 -7.664030045270919800e-02 7.405908405780792236e-02 -1.092458050698041916e-02 -1.163640543818473816e-01 9.766880422830581665e-02 3.069743327796459198e-02 -6.303060799837112427e-02 3.275865688920021057e-02 -1.813436299562454224e-01 -1.282410770654678345e-01 4.572344943881034851e-03 -1.599317342042922974e-01 5.993402376770973206e-02 3.580048680305480957e-02 -1.653052419424057007e-01 -1.489955335855484009e-01 9.457301930524408817e-04 9.268157184123992920e-02 -9.134616702795028687e-02 1.875750720500946045e-02 -1.758564114570617676e-01 -7.280137389898300171e-02 1.094270572066307068e-01 -2.063435167074203491e-01 5.094897001981735229e-02 -6.141572073101997375e-02 -7.996509224176406860e-02 -1.925618946552276611e-01 1.387792825698852539e-01 1.498842835426330566e-01 -3.370520472526550293e-02 1.330166459083557129e-01 -2.672677859663963318e-02 -1.498313248157501221e-01 -1.744913011789321899e-01 7.050586491823196411e-02 -1.292476356029510498e-01 -7.107266224920749664e-03 1.382629722356796265e-01 -9.066054224967956543e-02 1.365846246480941772e-01 1.268134415149688721e-01 -1.855213940143585205e-01 -9.126880019903182983e-02 6.589982658624649048e-02 -1.630312390625476837e-02 1.252925246953964233e-01 -1.606038063764572144e-01 -1.459348797798156738e-01 1.443036496639251709e-01 -1.072442308068275452e-01 8.172248303890228271e-02 -1.347589492797851562e-01 1.184495091438293457e-01 -2.333999052643775940e-02 -3.545225784182548523e-02 9.820385277271270752e-02 -2.046683430671691895e-01 1.692558377981185913e-01 6.570949405431747437e-02 -1.312395036220550537e-01 4.423905909061431885e-02 -2.727755531668663025e-02 1.096090897917747498e-01 -6.834992021322250366e-02 -1.642043739557266235e-01 1.148638278245925903e-01 -3.011587634682655334e-02 1.188375279307365417e-01 1.190129667520523071e-03 7.550138980150222778e-02 -5.743697285652160645e-02 -6.371646374464035034e-02 7.869359105825424194e-02 -1.615460962057113647e-01 -5.128331109881401062e-02 -7.940804958343505859e-02 -1.799945384263992310e-01 -8.910077065229415894e-02 9.683324396610260010e-02 -1.523627936840057373e-01 -1.983121931552886963e-01 -6.241123005747795105e-02 1.256641596555709839e-01 -1.981694400310516357e-01 -1.951542682945728302e-02
