1.505620032548904419e-01 4.633026942610740662e-02 1.086542382836341858e-01 2.010640650987625122e-01 -4.296625405550003052e-02 -2.175535857677459717e-01 -7.538688927888870239e-02 -2.963163852691650391e-01
1.802857033908367157e-02 -3.197654783725738525e-01 1.590059995651245117e-01 2.477068752050399780e-01 1.392553299665451050e-01 -2.969903349876403809e-01 -4.597445949912071228e-03 -3.275404274463653564e-01
2.098206877708435059e-01 1.376063674688339233e-01 -2.303340137004852295e-01 2.265222072601318359e-01 -3.981072455644607544e-02 3.885719180107116699e-02 -2.036045342683792114e-01 8.487349748611450195e-02
2.761480212211608887e-01 -1.496317535638809204e-01 1.947928965091705322e-01 6.214290857315063477e-02 -1.726782023906707764e-01 -1.705060899257659912e-01 2.740476131439208984e-01 1.271591484546661377e-01
-1.675863564014434814e-01 -3.859074041247367859e-02 -2.661232650279998779e-01 2.573596537113189697e-01 6.028044968843460083e-02 -3.389287292957305908e-01 2.339005917310714722e-01 -9.425777196884155273e-02
1.293993145227432251e-01 1.132306307554244995e-01 6.933324038982391357e-02 -1.027121674269437790e-02 1.452666819095611572e-01 -2.897219359874725342e-01 -7.058880478143692017e-02 -2.987137138843536377e-01
-8.585835807025432587e-03 1.715746968984603882e-01 1.378949880599975586e-01 2.220238298177719116e-01 2.438273131847381592e-01 -6.778582185506820679e-02 -1.985931545495986938e-01 -1.478942930698394775e-01
1.720245033502578735e-01 6.456843018531799316e-02 9.227941185235977173e-02 -1.821720451116561890e-01 2.499031424522399902e-01 7.965637370944023132e-03 -1.999270617961883545e-01 -1.779518723487854004e-01
-3.673750907182693481e-02 -2.697005867958068848e-01 1.840276867151260376e-01 9.955283254384994507e-02 2.229914963245391846e-01 1.522468477487564087e-01 4.405662044882774353e-02 1.620079725980758667e-01
1.834117919206619263e-01 -1.094420328736305237e-01 -1.702668219804763794e-01 -1.753439195454120636e-02 -4.592743143439292908e-02 3.428883552551269531e-01 1.195802539587020874e-01 1.045635342597961426e-01
-1.294878870248794556e-01 -2.279280275106430054e-01 -9.027776308357715607e-03 2.552305757999420166e-01 -8.435487747192382812e-02 2.258362174034118652e-01 -2.208247184753417969e-01 -8.926634490489959717e-02
-3.826265782117843628e-02 -3.335728943347930908e-01 1.776395738124847412e-01 -8.674455434083938599e-02 8.874376118183135986e-02 -1.247748509049415588e-01 -4.746935889124870300e-02 2.834154963493347168e-01
-5.612436309456825256e-02 1.605658829212188721e-01 -1.015723273158073425e-01 2.189573943614959717e-01 -2.124411612749099731e-01 -2.000702321529388428e-01 -7.616773992776870728e-02 1.791101694107055664e-01
-1.733223348855972290e-01 -1.388172060251235962e-01 -1.038509681820869446e-01 -1.710171066224575043e-02 -1.715295761823654175e-02 1.036118343472480774e-01 2.786408662796020508e-01 3.494737446308135986e-01
-3.094823062419891357e-01 -1.989765167236328125e-01 2.225683033466339111e-01 -1.269695907831192017e-01 -1.472442001104354858e-01 3.771658241748809814e-02 -2.724601924419403076e-01 2.125667035579681396e-01
2.192893028259277344e-01 -1.575425826013088226e-02 -3.004962205886840820e-01 -1.826839447021484375e-01 1.264417469501495361e-01 -2.221034467220306396e-01 2.278107255697250366e-01 -8.113193511962890625e-02
5.820680782198905945e-02 -6.724287569522857666e-02 -1.653862744569778442e-01 1.111635938286781311e-01 2.599669694900512695e-01 -3.141461610794067383e-01 3.293145075440406799e-02 -2.899714708328247070e-01
7.595918327569961548e-02 -1.339110881090164185e-01 1.330335438251495361e-01 9.581901133060455322e-02 -1.957907527685165405e-01 2.486062347888946533e-01 8.870045095682144165e-02 -9.018681943416595459e-02
-2.457311898469924927e-01 -1.716882437467575073e-01 1.473376601934432983e-01 1.816392391920089722e-01 2.813420593738555908e-01 1.271536499261856079e-01 -1.330904811620712280e-01 -1.710220277309417725e-01
1.855088584125041962e-02 -3.037393651902675629e-02 1.714640855789184570e-02 -2.860450446605682373e-01 -9.263204038143157959e-02 3.086195588111877441e-01 9.859715588390827179e-03 -3.875462338328361511e-02
5.151910334825515747e-02 -2.920001447200775146e-01 9.009727835655212402e-02 3.215968012809753418e-01 6.317835301160812378e-02 -3.360980749130249023e-02 1.333043724298477173e-01 2.433609068393707275e-01
1.233995407819747925e-01 -1.724954396486282349e-01 -1.566641479730606079e-01 -5.302660167217254639e-02 2.057171911001205444e-01 -3.401252324692904949e-04 3.716305643320083618e-02 1.244165077805519104e-01
6.371092796325683594e-02 1.468493789434432983e-01 7.131778448820114136e-02 -2.762357145547866821e-02 -1.652267128229141235e-01 2.274164408445358276e-01 3.547899797558784485e-02 1.939939707517623901e-01
1.061026602983474731e-01 9.550803899765014648e-02 4.182073473930358887e-02 -1.229879632592201233e-01 -1.562657505273818970e-01 -2.775818109512329102e-01 2.445022463798522949e-01 -1.680430956184864044e-02
2.419816553592681885e-01 -1.443897038698196411e-01 -2.833587229251861572e-01 1.853957474231719971e-01 -6.608720868825912476e-02 2.644289433956146240e-01 1.815052628517150879e-01 2.281733155250549316e-01
-2.554375492036342621e-02 1.505209598690271378e-03 -2.669615298509597778e-02 3.005831837654113770e-01 1.408803462982177734e-01 -3.580795228481292725e-01 2.072285860776901245e-01 -7.962387800216674805e-02
2.105504423379898071e-01 -6.047970149666070938e-03 -1.478748582303524017e-02 1.971448361873626709e-01 1.904430240392684937e-01 -3.824440017342567444e-02 -1.826087087392807007e-01 -2.073142826557159424e-01
2.566059529781341553e-01 4.096541553735733032e-02 -6.084361299872398376e-02 7.293738424777984619e-02 -2.773961126804351807e-01 1.581719666719436646e-01 2.287125736474990845e-01 -5.199354141950607300e-02
-1.998803615570068359e-01 -2.039301544427871704e-01 -2.623359262943267822e-01 1.129510775208473206e-01 7.916734367609024048e-02 2.708127796649932861e-01 -1.675093621015548706e-01 1.771804243326187134e-01
-1.147788166999816895e-01 -1.198015138506889343e-01 -1.531830281019210815e-01 2.587533295154571533e-01 -8.857528120279312134e-02 -2.399993389844894409e-01 1.213637813925743103e-01 7.438061386346817017e-02
1.313032656908035278e-01 -3.273711726069450378e-02 -1.976715922355651855e-01 -3.041364550590515137e-01 2.247936278581619263e-01 1.336204707622528076e-01 1.722121983766555786e-01 2.602997124195098877e-01
-8.182410895824432373e-02 7.058726996183395386e-02 -2.668006718158721924e-01 2.997721433639526367e-01 7.224196195602416992e-02 4.081070050597190857e-02 -6.160547211766242981e-02 -4.172145202755928040e-02
2.097432017326354980e-01 -2.884651124477386475e-01 -1.781816482543945312e-01 1.852318793535232544e-01 1.808043867349624634e-01 1.338737159967422485e-01 2.583327889442443848e-01 -8.339520543813705444e-02
-2.098795026540756226e-01 -1.480613499879837036e-01 -1.254935711622238159e-01 -7.277821749448776245e-02 -2.303551584482192993e-01 3.503395915031433105e-01 1.417277902364730835e-01 4.717881977558135986e-02
2.025093883275985718e-01 1.778751760721206665e-01 -2.647412419319152832e-01 -2.791157066822052002e-01 -6.538604944944381714e-02 -2.460550814867019653e-01 -1.903512477874755859e-01 -9.652385860681533813e-02
3.088600337505340576e-01 -2.314566075801849365e-01 2.050107717514038086e-01 6.434491276741027832e-02 2.721709609031677246e-01 1.632400453090667725e-01 2.240630052983760834e-02 1.510096788406372070e-01
1.253575384616851807e-01 1.294485330581665039e-01 -3.233081698417663574e-01 1.766522079706192017e-01 5.058327317237854004e-02 -1.706994622945785522e-01 1.963654346764087677e-02 3.612166047096252441e-01
2.321842908859252930e-01 5.650945007801055908e-02 -2.894636988639831543e-01 -1.736549735069274902e-01 -7.622361183166503906e-02 -2.920634746551513672e-01 -2.874344773590564728e-02 1.387078911066055298e-01
-2.119463384151458740e-01 1.634093374013900757e-01 -1.770787984132766724e-01 -2.270026206970214844e-01 -1.615985184907913208e-01 -1.918466836214065552e-01 1.039156839251518250e-01 -1.669013500213623047e-01
-2.128949761390686035e-01 -7.429538294672966003e-03 -2.377410680055618286e-01 8.942983299493789673e-02 1.304891556501388550e-01 -1.629473268985748291e-01 6.771083921194076538e-02 -1.549189239740371704e-01
6.391264498233795166e-02 2.093045264482498169e-01 2.096777223050594330e-02 9.002237766981124878e-02 5.992364883422851562e-02 2.516015470027923584e-01 -2.701261043548583984e-01 -1.538364887237548828e-01
-1.482853442430496216e-01 -3.962567541748285294e-03 1.553568691015243530e-01 -1.930367052555084229e-01 -9.531319141387939453e-02 8.485432714223861694e-03 2.211859226226806641e-01 -1.341425031423568726e-01
2.048527449369430542e-01 -1.732131838798522949e-01 5.430410150438547134e-03 2.619272097945213318e-02 1.687474399805068970e-01 1.884249597787857056e-01 6.317286193370819092e-02 1.161334514617919922e-01
-8.476577699184417725e-02 -2.612984776496887207e-01 -2.589482367038726807e-01 -3.221959632355719805e-04 2.478222101926803589e-01 1.428919285535812378e-01 -2.270974665880203247e-01 2.365240007638931274e-01
-1.022499352693557739e-01 2.416975796222686768e-01 -1.232639104127883911e-01 -2.646311521530151367e-01 1.859808564186096191e-01 -2.313687698915600777e-03 -1.362650394439697266e-01 2.233045995235443115e-01
-2.699429988861083984e-01 -2.071016840636730194e-02 -7.546294480562210083e-02 -2.196031510829925537e-01 -2.325721830129623413e-01 3.141308426856994629e-01 5.313207581639289856e-02 -1.976949423551559448e-01
2.286763489246368408e-01 5.345351248979568481e-02 4.954165965318679810e-02 -1.640624403953552246e-01 -1.628966480493545532e-01 6.221780925989151001e-02 1.193853244185447693e-01 3.340140879154205322e-01
2.184283584356307983e-01 -5.885722488164901733e-02 -2.324046939611434937e-01 -6.620502471923828125e-02 1.040525957942008972e-01 -5.587539076805114746e-02 2.586140930652618408e-01 -9.316481649875640869e-02
2.630796432495117188e-01 -3.050278127193450928e-01 4.380398243665695190e-02 2.653215229511260986e-01 -1.104939728975296021e-01 2.780376970767974854e-01 4.661461338400840759e-02 6.746995262801647186e-03
-2.084009349346160889e-01 -1.930296868085861206e-01 -9.631359577178955078e-02 -1.628691554069519043e-01 -2.525444924831390381e-01 -7.046241778880357742e-03 -7.914375513792037964e-03 -2.036531567573547363e-01
-4.677747935056686401e-02 -3.168130815029144287e-01 -5.485389381647109985e-02 2.912808060646057129e-01 -1.425653547048568726e-01 -5.624630022794008255e-03 -1.965863704681396484e-01 -2.906585931777954102e-01
4.300830885767936707e-02 -7.672502845525741577e-02 1.778643131256103516e-01 3.121966421604156494e-01 6.947404891252517700e-02 3.715669363737106323e-02 -5.177458003163337708e-02 2.472258657217025757e-01
1.556262373924255371e-01 -2.109896838665008545e-01 -2.039024233818054199e-01 9.316675364971160889e-02 -6.097585428506135941e-03 9.810791164636611938e-02 1.138993129134178162e-01 -1.696453541517257690e-01
-1.754659712314605713e-01 -1.784861087799072266e-01 1.431371569633483887e-01 -2.023554295301437378e-01 2.216697782278060913e-01 -2.251482009887695312e-01 -1.743619292974472046e-01 -1.158779561519622803e-01
-2.073078602552413940e-01 1.696911156177520752e-01 1.783028692007064819e-01 7.012484967708587646e-02 -1.056994311511516571e-02 -2.702592313289642334e-01 -4.500551149249076843e-02 1.640665531158447266e-01
2.151143401861190796e-01 -5.684142559766769409e-02 -1.975410878658294678e-01 3.254348784685134888e-02 -5.732062738388776779e-03 2.238492071628570557e-01 -2.121894210577011108e-01 2.614893913269042969e-01
-2.872278690338134766e-01 -1.667017191648483276e-01 1.568676233291625977e-01 -1.323636770248413086e-01 -1.069543808698654175e-01 3.031466901302337646e-01 -8.577001839876174927e-02 2.567704319953918457e-01
-1.825063377618789673e-01 6.624592840671539307e-02 -1.775925755500793457e-01 3.162465989589691162e-01 2.028392255306243896e-02 -9.997683018445968628e-02 9.942238777875900269e-02 3.265389502048492432e-01
5.265750363469123840e-02 -4.826338216662406921e-02 -2.367315888404846191e-01 1.255556643009185791e-01 1.304469555616378784e-01 -2.336322814226150513e-01 -1.241031661629676819e-01 -2.941021323204040527e-01
-9.139382094144821167e-02 2.112017571926116943e-01 -2.928233146667480469e-01 -1.005575209856033325e-01 -2.179644852876663208e-01 -1.050720587372779846e-01 -2.920074164867401123e-01 1.759125590324401855e-01
6.459143757820129395e-02 -2.606244087219238281e-01 1.845014095306396484e-01 9.283818304538726807e-02 2.491178810596466064e-01 1.241944879293441772e-01 4.193762317299842834e-02 -2.176177948713302612e-01
-3.490439848974347115e-03 1.498482823371887207e-01 2.148098945617675781e-01 -7.964043878018856049e-03 2.669511437416076660e-01 -6.627645809203386307e-03 6.971792131662368774e-02 -7.028713077306747437e-02
1.092330180108547211e-02 -8.849138021469116211e-02 1.658703833818435669e-01 -3.771340847015380859e-02 -1.865448504686355591e-01 -3.188334107398986816e-01 -2.611156925559043884e-02 1.668955236673355103e-01
2.721417844295501709e-01 6.236009672284126282e-02 -1.515581160783767700e-01 -3.219351172447204590e-02 -8.703435212373733521e-02 1.445318609476089478e-01 8.909699320793151855e-02 -2.017877101898193359e-01
