-3.542488068342208862e-02
4.549446702003479004e-02
5.439437180757522583e-02
1.118057314306497574e-02
6.481099873781204224e-02
-4.424946010112762451e-02
-6.335130892693996429e-03
2.139797993004322052e-02
4.244330897927284241e-02
6.958081573247909546e-02
1.555707771331071854e-03
6.927593052387237549e-02
-8.991024456918239594e-03
1.028179153800010681e-01
-1.505995821207761765e-02
4.373444244265556335e-02
4.407390952110290527e-03
7.062663882970809937e-02
1.908152177929878235e-02
1.212216541171073914e-02
4.714815318584442139e-02
-4.535140004009008408e-03
6.150724366307258606e-02
2.828454039990901947e-02
-2.660240232944488525e-02
-1.056547928601503372e-02
6.153985112905502319e-02
1.574353501200675964e-02
-3.210438042879104614e-02
-7.053601555526256561e-03
6.677564978599548340e-02
4.105233028531074524e-02
4.859492927789688110e-02
4.209885746240615845e-02
-5.247568711638450623e-03
2.236615400761365891e-03
9.834948927164077759e-02
8.571688085794448853e-03
8.759343065321445465e-03
2.507237158715724945e-02
6.889822334051132202e-02
-4.050858691334724426e-02
3.263426572084426880e-02
4.528085514903068542e-02
1.874638721346855164e-02
-3.536701574921607971e-02
9.573491662740707397e-02
6.045876815915107727e-02
3.147058561444282532e-02
-4.574951902031898499e-02
5.136042833328247070e-02
4.507277160882949829e-03
6.672363728284835815e-02
3.581696003675460815e-02
2.116703614592552185e-02
-2.922374941408634186e-02
4.814293235540390015e-02
2.828057855367660522e-02
-1.473623048514127731e-02
8.532584644854068756e-03
2.693852595984935760e-02
-4.716608673334121704e-02
6.945220287889242172e-03
3.184384107589721680e-02
-1.286849728785455227e-03
2.189884707331657410e-02
5.868935585021972656e-02
-8.905446156859397888e-03
1.060706302523612976e-01
5.386550351977348328e-02
5.286434292793273926e-02
3.158446028828620911e-02
-1.452192757278680801e-02
3.589658811688423157e-02
-9.436100721359252930e-03
-2.441942133009433746e-02
-1.366674806922674179e-02
8.707232773303985596e-02
-6.762968841940164566e-03
3.993612527847290039e-02
2.701489627361297607e-02
-4.473034758120775223e-03
-1.131095085293054581e-02
-4.472905024886131287e-02
4.166473448276519775e-02
7.372260093688964844e-02
1.053824201226234436e-01
-1.308092195540666580e-02
3.227591514587402344e-02
1.839420199394226074e-02
4.150920081883668900e-03
-2.408035658299922943e-02
6.085092201828956604e-02
4.169210419058799744e-02
7.628421485424041748e-02
3.101118654012680054e-02
-4.336555022746324539e-03
2.588465111330151558e-03
5.964782554656267166e-03
9.253978729248046875e-02
-1.163102686405181885e-02
3.960416838526725769e-02
-2.778166532516479492e-02
1.318801566958427429e-02
4.376868251711130142e-03
5.643392354249954224e-02
2.738017961382865906e-02
8.395595848560333252e-02
7.299896329641342163e-02
8.872984349727630615e-02
-5.426081269979476929e-02
3.254213929176330566e-02
-4.873987287282943726e-03
-7.870973646640777588e-02
8.715970814228057861e-02
3.156307339668273926e-02
-2.229053713381290436e-02
-3.215127158910036087e-03
8.824791759252548218e-02
8.231034129858016968e-02
1.676481403410434723e-02
4.130193032324314117e-03
7.752591744065284729e-03
4.111516475677490234e-02
6.320812739431858063e-03
-5.324244871735572815e-02
2.862688340246677399e-02
3.811838477849960327e-02
