5.802639573812484741e-02 -1.964348740875720978e-02 1.697778701782226562e-01 -1.220831051468849182e-01 5.922801792621612549e-02 1.134227737784385681e-01 -1.204521507024765015e-01 5.856940150260925293e-02 -3.566435538232326508e-03 -1.710642576217651367e-01 -7.296404987573623657e-02 2.241341769695281982e-02 -1.298405081033706665e-01 -8.308704942464828491e-02 6.492266058921813965e-02 8.104161173105239868e-02 8.198566734790802002e-02 -1.834721416234970093e-01 -1.128640845417976379e-01 9.739034622907638550e-02 1.577996462583541870e-01 -1.168586611747741699e-01 -1.457723230123519897e-01 9.736450016498565674e-02 1.503876596689224243e-01 6.359679251909255981e-02 -1.387998163700103760e-01 -6.277131289243698120e-02 5.528268218040466309e-02 1.918752938508987427e-01 -6.600526720285415649e-02 -1.723354011774063110e-01 -1.721985191106796265e-01 1.996167451143264771e-01 -1.105538010597229004e-01 5.236252397298812866e-02 1.226605623960494995e-01 -1.337086111307144165e-01 2.277850061655044556e-01 -9.119417518377304077e-02 -5.514470487833023071e-02 2.014221996068954468e-01 -1.909397691488265991e-01 3.060297295451164246e-02 1.224153488874435425e-01 1.311918138526380062e-03 -1.536926329135894775e-01 -1.559195369482040405e-01 2.109153717756271362e-01 2.150141894817352295e-01 1.002517268061637878e-01 3.500397549942135811e-03 -9.026312828063964844e-02 -1.280051022768020630e-01 -1.034636646509170532e-01 1.411129087209701538e-01 9.732746332883834839e-02 -4.280885308980941772e-02 8.324535191059112549e-02 -1.051910296082496643e-01 -2.221231609582901001e-01 2.250907197594642639e-02 -6.104400381445884705e-02 1.560361534357070923e-01 1.383717805147171021e-01 4.641390591859817505e-02 -1.250265240669250488e-01 -6.714370846748352051e-02 -6.270602345466613770e-02 1.527648139744997025e-02 -4.206158965826034546e-02 -2.420217357575893402e-02 -3.160358220338821411e-02 1.785834431648254395e-01 -4.571219533681869507e-02 8.701024949550628662e-02 1.822806298732757568e-01 -7.990217953920364380e-02 -1.712654083967208862e-01 8.993154391646385193e-03 7.964370399713516235e-02 -2.044539153575897217e-01 -1.667281985282897949e-01 7.598216086626052856e-02 7.309534400701522827e-02 1.212716549634933472e-01 9.966253302991390228e-03 1.792601794004440308e-01 1.376874297857284546e-01 2.752962112426757812e-01 1.133252605795860291e-01 -1.691156178712844849e-01 -7.874984294176101685e-04 -1.484912782907485962e-01 4.632016271352767944e-02 -1.646136641502380371e-01 2.879685908555984497e-02 1.973213255405426025e-01 2.605495601892471313e-02 -7.887961715459823608e-02 -7.435131818056106567e-02 -2.076996266841888428e-01 -1.920684427022933960e-01 1.269689649343490601e-01 -1.428120434284210205e-01 6.581041961908340454e-02 -1.096651852130889893e-01 -7.397952675819396973e-02 7.911297678947448730e-02 -2.607311587780714035e-03 1.575284302234649658e-01 1.170182973146438599e-01 -1.340701282024383545e-01 1.149121373891830444e-01 -4.303884133696556091e-02 -2.752078697085380554e-02 -1.542094200849533081e-01 1.902363449335098267e-01 -1.139482110738754272e-01 -9.745701402425765991e-02 4.551547765731811523e-02 7.609578222036361694e-02 -3.381438925862312317e-02 -1.289797425270080566e-01 1.123196482658386230e-01 1.409067064523696899e-01 9.034277871251106262e-03 6.726633757352828979e-02
9.936407953500747681e-02 -7.823532819747924805e-02 6.331874430179595947e-02 -9.648573468439280987e-04 9.198306500911712646e-02 -1.798830628395080566e-01 -1.604795642197132111e-02 2.012347728013992310e-01 -5.469390004873275757e-02 7.908069342374801636e-02 -9.589821845293045044e-02 1.199152097105979919e-01 1.550723165273666382e-01 2.669667899608612061e-01 -4.230704158544540405e-02 -9.015484154224395752e-02 5.124391987919807434e-02 -4.507799819111824036e-02 3.318828344345092773e-02 1.677009165287017822e-01 1.804441213607788086e-01 1.990807987749576569e-02 -6.556469947099685669e-02 1.300274878740310669e-01 1.456647515296936035e-01 1.833003014326095581e-01 1.210752874612808228e-01 -1.506393402814865112e-01 -1.081900969147682190e-01 -5.113497376441955566e-02 -7.370696216821670532e-02 1.543659567832946777e-01 8.611293882131576538e-02 1.966850161552429199e-01 -1.468148976564407349e-01 -1.830845698714256287e-02 -9.568966925144195557e-02 -1.578661650419235229e-01 1.547175049781799316e-01 -5.351992323994636536e-02 1.327474117279052734e-01 -1.741892248392105103e-01 1.510643213987350464e-01 -8.002420514822006226e-02 -9.512119740247726440e-02 -1.062456145882606506e-02 2.359142154455184937e-02 1.698214411735534668e-01 7.613237202167510986e-02 2.780128642916679382e-02 6.469426304101943970e-02 9.349384158849716187e-02 1.466395407915115356e-01 -6.203240901231765747e-02 -1.385946869850158691e-01 -9.911792725324630737e-02 1.392603367567062378e-01 6.076163053512573242e-02 1.313196029514074326e-02 7.167414575815200806e-02 2.380796521902084351e-01 5.116092786192893982e-02 -1.156557202339172363e-01 1.533700972795486450e-01 -1.626086086034774780e-01 -3.510479256510734558e-02 -5.144697055220603943e-02 -6.438823789358139038e-02 1.312393993139266968e-01 -2.594313025474548340e-02 -9.255493432283401489e-02 9.801195934414863586e-03 -1.484076976776123047e-01 -6.777874380350112915e-02 -6.649561226367950439e-02 -8.627503179013729095e-03 2.649469999596476555e-03 2.492391467094421387e-01 5.599534139037132263e-02 5.786123871803283691e-02 2.313338667154312134e-01 -4.624431207776069641e-02 -5.577320232987403870e-02 -5.985349044203758240e-02 6.836992688477039337e-03 -7.784368842840194702e-02 -5.280997976660728455e-02 -1.554860323667526245e-01 2.180323004722595215e-01 -1.549343615770339966e-01 1.189719513058662415e-02 -1.611879467964172363e-01 1.712199896574020386e-01 1.124419942498207092e-01 -7.084934413433074951e-02 3.924677893519401550e-02 9.969788044691085815e-02 7.811448723077774048e-02 1.336100250482559204e-01 2.197184264659881592e-01 8.809655159711837769e-02 1.996052861213684082e-01 2.147660404443740845e-02 1.897765547037124634e-01 1.750742271542549133e-02 1.763568371534347534e-01 -9.546153992414474487e-02 -1.598715595901012421e-02 -9.254290163516998291e-02 -1.294532418251037598e-01 -1.492000371217727661e-01 -7.232675701379776001e-02 -8.664090931415557861e-02 1.527378410100936890e-01 3.972498700022697449e-02 2.059760987758636475e-01 -8.482398092746734619e-02 9.037455916404724121e-02 1.409846246242523193e-01 -1.837231777608394623e-02 2.543294429779052734e-02 -5.242417100816965103e-03 -1.534005403518676758e-01 1.545196473598480225e-01 -1.161257550120353699e-01 -5.724771693348884583e-02 -6.202181801199913025e-02 1.084464862942695618e-01
-1.106285024434328079e-02 -9.290852397680282593e-02 1.394251734018325806e-01 1.274028569459915161e-01 -1.272676885128021240e-01 -2.038348615169525146e-01 -1.846902370452880859e-01 3.406184539198875427e-02 -3.790647536516189575e-02 4.125612322241067886e-03 -2.385953627526760101e-02 -1.010598763823509216e-01 5.319713056087493896e-02 -9.733010083436965942e-02 -4.259270057082176208e-02 -1.160761043429374695e-01 -1.830025911331176758e-01 2.628542296588420868e-02 1.927002817392349243e-01 -1.792868524789810181e-01 4.945370554924011230e-02 2.785305082798004150e-01 -8.174442499876022339e-02 2.623970992863178253e-02 2.261023968458175659e-01 1.325491964817047119e-01 -5.450416356325149536e-04 -3.320226073265075684e-02 1.497438400983810425e-01 -1.754721999168395996e-01 1.181923002004623413e-01 6.336928904056549072e-02 6.551025062799453735e-02 -1.941582411527633667e-01 -2.050811052322387695e-01 -1.991249769926071167e-01 -4.264496639370918274e-02 1.837946176528930664e-01 9.299764037132263184e-02 -2.231600508093833923e-02 2.601712048053741455e-01 2.547005936503410339e-02 -1.473255753517150879e-01 3.117156624794006348e-01 -1.696564815938472748e-02 9.497004747390747070e-02 -1.772022694349288940e-01 -8.292197436094284058e-02 -4.203580692410469055e-02 -1.634484082460403442e-01 -4.188868403434753418e-02 2.454735571518540382e-03 2.904045581817626953e-01 -1.028974875807762146e-01 1.334093809127807617e-01 -5.378517787903547287e-03 5.345918610692024231e-02 -1.917539089918136597e-01 1.969500482082366943e-01 -2.228969037532806396e-01 -1.444255411624908447e-01 -2.046569287776947021e-01 2.282882630825042725e-01 -8.011835068464279175e-02 1.232554987072944641e-01 -7.042654603719711304e-02 -7.692865282297134399e-02 5.580262281000614166e-03 -2.533150091767311096e-02 -1.008983775973320007e-01 9.291918575763702393e-02 9.161823242902755737e-02 -1.921497583389282227e-01 -1.271328032016754150e-01 2.270709536969661713e-02 9.425958991050720215e-02 1.274057477712631226e-01 -2.147621363401412964e-01 -7.136718928813934326e-02 9.738953411579132080e-02 9.315779805183410645e-02 -7.278074324131011963e-02 2.071047872304916382e-01 -7.776421308517456055e-02 -1.510187387466430664e-01 -4.507504031062126160e-02 -3.118966706097126007e-02 8.982149511575698853e-02 1.608736962080001831e-01 -1.885471791028976440e-01 -1.577009111642837524e-01 -6.202564761042594910e-02 -1.225740686058998108e-01 -5.949530005455017090e-02 -1.208369284868240356e-01 3.119615614414215088e-01 2.262281924486160278e-01 5.281891301274299622e-02 7.272782921791076660e-02 -7.345126569271087646e-02 -1.446157991886138916e-01 8.325575292110443115e-02 -5.577282607555389404e-02 2.109962403774261475e-01 5.222862586379051208e-02 3.301611915230751038e-02 -1.547294408082962036e-01 6.198624894022941589e-02 5.219651386141777039e-02 6.261537224054336548e-02 -8.092361688613891602e-02 -1.696602851152420044e-01 -1.734696179628372192e-01 -2.060091942548751831e-01 2.429006844758987427e-01 1.974330246448516846e-01 2.354322373867034912e-01 8.457404375076293945e-02 3.150004446506500244e-01 -1.399397552013397217e-01 -1.325666718184947968e-02 -1.636233925819396973e-01 -5.300489813089370728e-02 -1.298967152833938599e-01 9.901886805891990662e-03 1.142777800559997559e-01 -1.831357032060623169e-01 -1.618636101484298706e-01
-1.120456308126449585e-01 -9.004381299018859863e-02 3.679548949003219604e-02 -1.039854437112808228e-01 -4.606317728757858276e-02 -2.883321791887283325e-02 -7.880464941263198853e-02 -1.768721342086791992e-01 1.414044797420501709e-01 -1.079163551330566406e-01 6.438559293746948242e-02 1.531645357608795166e-01 -1.806942671537399292e-01 2.792141437530517578e-01 1.347076296806335449e-01 1.895340383052825928e-01 -9.027833491563796997e-02 -5.309597775340080261e-02 2.199130691587924957e-02 -1.349417865276336670e-01 1.796585321426391602e-01 -2.083460539579391479e-01 1.898057386279106140e-02 -1.317771822214126587e-01 8.088526129722595215e-02 -2.001173049211502075e-01 -1.667535156011581421e-01 3.301442414522171021e-02 1.190971955657005310e-01 -2.419916093349456787e-01 3.770788386464118958e-02 -7.066697627305984497e-02 -1.229221075773239136e-01 1.111994981765747070e-01 4.832454398274421692e-02 -3.331210464239120483e-02 7.799880206584930420e-02 -5.048416554927825928e-02 -8.718009293079376221e-02 -1.011139154434204102e-01 -5.764392018318176270e-02 1.238379999995231628e-01 3.804105520248413086e-02 -1.219487637281417847e-01 -1.108734905719757080e-01 3.012950159609317780e-02 5.578216537833213806e-02 8.134704828262329102e-02 -8.837568014860153198e-02 -6.273898482322692871e-02 3.094266541302204132e-02 -6.273662298917770386e-02 -1.371430903673171997e-01 1.549520343542098999e-01 1.174782514572143555e-01 1.144523173570632935e-01 -6.104222685098648071e-02 2.062665224075317383e-01 -4.837077111005783081e-03 -2.068784236907958984e-01 3.039791584014892578e-01 -1.127117499709129333e-01 -1.379412859678268433e-01 -1.137619316577911377e-01 5.483699589967727661e-02 -1.778333634138107300e-01 8.090048283338546753e-02 1.461308598518371582e-01 3.919387608766555786e-02 3.310266137123107910e-01 -1.342515368014574051e-02 4.922735504806041718e-03 -9.589225053787231445e-02 3.412147052586078644e-03 5.478855594992637634e-02 -7.511421293020248413e-02 -1.004082188010215759e-01 2.802281081676483154e-01 -5.241324380040168762e-02 -4.474334418773651123e-03 -1.951838582754135132e-01 2.109330892562866211e-02 9.879991412162780762e-02 -1.197537854313850403e-01 -1.583226025104522705e-02 1.559309959411621094e-01 1.284100115299224854e-01 -2.417031526565551758e-01 -1.398460566997528076e-01 1.811168715357780457e-02 -8.228074014186859131e-02 5.525848269462585449e-02 9.420854598283767700e-02 -1.699933409690856934e-02 5.353140458464622498e-02 -1.543712913990020752e-01 6.105147767812013626e-03 1.543245613574981689e-01 -8.384399861097335815e-02 1.085265502333641052e-01 -3.652373701333999634e-02 1.134661361575126648e-01 -8.094346523284912109e-02 -1.723576486110687256e-01 -2.100451290607452393e-02 4.321134462952613831e-02 -7.382408715784549713e-03 -8.453294634819030762e-03 1.517077982425689697e-01 9.406814724206924438e-02 -9.865830838680267334e-02 -6.050104275345802307e-02 -2.934338524937629700e-02 -1.700847297906875610e-01 -2.340268641710281372e-01 3.988191485404968262e-02 -2.132012248039245605e-01 1.405901163816452026e-01 -2.166763842105865479e-01 1.857841163873672485e-01 1.145671084523200989e-01 2.411273270845413208e-01 -2.254869788885116577e-01 9.577553719282150269e-02 -2.233052551746368408e-01 -1.051863878965377808e-01 5.980123765766620636e-03 2.422227337956428528e-02
-1.723271459341049194e-01 1.764093190431594849e-01 3.332920670509338379e-01 1.818760484457015991e-01 -7.037641853094100952e-02 -2.128885090351104736e-01 7.665175944566726685e-02 -2.562771439552307129e-01 -1.588845551013946533e-01 -9.028159081935882568e-02 2.786933779716491699e-01 2.652188837528228760e-01 1.891486793756484985e-01 1.001552119851112366e-01 -5.486860871315002441e-02 9.343211352825164795e-02 4.927418194711208344e-03 1.854082345962524414e-01 -1.494218558073043823e-01 3.869032114744186401e-02 8.174781501293182373e-02 -3.507002070546150208e-02 -1.573271602392196655e-01 -2.525027990341186523e-01 -7.314566988497972488e-03 -1.063136905431747437e-01 -1.707272231578826904e-01 -2.589145302772521973e-02 -9.942847490310668945e-02 3.459371253848075867e-02 -9.655919671058654785e-02 -8.790653944015502930e-02 -1.235337406396865845e-01 -2.796669006347656250e-01 -9.451009333133697510e-02 -1.177628487348556519e-01 1.303899139165878296e-01 1.609682738780975342e-01 1.801822334527969360e-02 -9.912036359310150146e-02 3.107083775103092194e-02 -1.101255342364311218e-01 2.267149239778518677e-01 -2.082788385450839996e-02 -3.465878590941429138e-02 -1.394066214561462402e-01 1.569034755229949951e-01 1.739036291837692261e-01 5.509465932846069336e-02 -1.061570420861244202e-01 2.786125242710113525e-01 1.630201488733291626e-01 -4.173650220036506653e-02 -1.532408893108367920e-01 -4.738650470972061157e-02 -1.120598912239074707e-01 7.454770151525735855e-03 -7.196293771266937256e-02 -1.277632117271423340e-01 2.047042548656463623e-02 -1.107659041881561279e-01 -1.237065866589546204e-01 -1.196253225207328796e-01 1.332162022590637207e-01 -4.111999273300170898e-02 -7.910314202308654785e-02 -1.452186796814203262e-02 -7.602001074701547623e-03 -1.007759943604469299e-01 -4.755501449108123779e-02 1.711695045232772827e-01 2.157595008611679077e-01 1.297397315502166748e-01 4.080451279878616333e-02 -1.628512293100357056e-01 1.499937623739242554e-01 -2.527418732643127441e-01 3.547415602952241898e-03 -3.560908511281013489e-02 -2.322724834084510803e-02 -6.539960950613021851e-02 3.805512562394142151e-02 6.756157428026199341e-02 -1.185888238251209259e-02 1.887872442603111267e-02 -7.485154271125793457e-02 3.128310739994049072e-01 1.426073815673589706e-02 -2.667778134346008301e-01 -9.998695552349090576e-02 1.965456306934356689e-01 -1.820544712245464325e-02 -2.191936969757080078e-01 -4.670158401131629944e-02 -8.102476596832275391e-02 2.909866571426391602e-01 -8.709246665239334106e-02 -3.800105303525924683e-03 -3.961460199207067490e-03 2.909323871135711670e-01 1.174671351909637451e-01 -3.340772539377212524e-02 -6.764525175094604492e-02 -9.426195174455642700e-02 2.448014169931411743e-01 -1.572056263685226440e-01 1.834420263767242432e-01 2.987627387046813965e-01 6.413885205984115601e-02 4.250334948301315308e-02 -1.349695324897766113e-01 -1.035484671592712402e-01 1.029037162661552429e-01 -9.374129027128219604e-02 -5.520391836762428284e-02 -1.211267709732055664e-01 2.578281164169311523e-01 2.078800201416015625e-01 -5.280788242816925049e-02 -2.756284773349761963e-01 -6.536096334457397461e-02 -1.372040361166000366e-01 1.096382141113281250e-01 3.096218109130859375e-01 4.435610771179199219e-02 -6.324154883623123169e-02 -4.352667368948459625e-03 -8.968935161828994751e-02
5.498840659856796265e-02 1.556956619024276733e-01 2.579696178436279297e-01 8.868683874607086182e-02 1.790444254875183105e-01 -3.846934065222740173e-02 -1.455809026956558228e-01 3.714804723858833313e-02 -1.004864275455474854e-01 2.458624094724655151e-01 2.625333368778228760e-01 5.065615102648735046e-02 2.583436369895935059e-01 9.504915028810501099e-02 -2.191077619791030884e-01 1.472667157649993896e-01 2.262170612812042236e-01 2.721819579601287842e-01 -8.953446894884109497e-02 1.631311178207397461e-01 -4.723763465881347656e-02 6.138693913817405701e-02 1.042424663901329041e-01 -1.884759515523910522e-01 -4.929748550057411194e-02 -1.464824378490447998e-01 3.349643899127840996e-03 8.793131262063980103e-02 7.219412922859191895e-02 -2.031055092811584473e-01 -1.306105852127075195e-01 -6.939185410737991333e-02 -1.234914287924766541e-01 -1.482779383659362793e-01 -4.288755357265472412e-02 7.217663526535034180e-02 2.620272338390350342e-01 -7.261107116937637329e-02 9.931404888629913330e-02 -8.068972080945968628e-02 -1.150317117571830750e-01 -5.168462917208671570e-02 2.553082108497619629e-01 1.700209081172943115e-01 -3.501068335026502609e-03 -1.077710688114166260e-01 1.460285633802413940e-01 2.589506804943084717e-01 -1.772531419992446899e-01 4.025869444012641907e-02 -6.679268926382064819e-02 1.735904812812805176e-01 -1.076941341161727905e-01 -1.692175120115280151e-01 -1.094724535942077637e-01 -1.464830636978149414e-01 -2.182236313819885254e-01 2.584668695926666260e-01 -6.244619935750961304e-02 2.975095510482788086e-01 -1.788366585969924927e-02 -1.870177090167999268e-01 -3.026654012501239777e-02 1.810918301343917847e-01 -4.108899272978305817e-03 -1.269311755895614624e-01 -7.096334546804428101e-02 3.680258989334106445e-02 -1.581649631261825562e-01 8.876211941242218018e-02 1.333229541778564453e-01 7.806152850389480591e-02 5.669097974896430969e-02 -1.016024798154830933e-01 -9.202785789966583252e-02 9.934607893228530884e-02 -5.339753255248069763e-02 5.116980522871017456e-02 -1.118741333484649658e-01 -1.553737223148345947e-01 1.021259278059005737e-01 -1.144462972879409790e-01 5.513196066021919250e-02 -1.769144535064697266e-01 -1.250189542770385742e-01 1.414283961057662964e-01 4.039651900529861450e-02 4.573390260338783264e-02 -1.702366769313812256e-01 -1.444771438837051392e-01 -7.630354166030883789e-02 -8.465666323900222778e-02 3.889966383576393127e-02 1.518235728144645691e-02 1.116564497351646423e-01 2.784687578678131104e-01 1.779969967901706696e-02 1.529200077056884766e-01 -6.207672134041786194e-02 -3.730122745037078857e-02 2.287336438894271851e-01 -1.382465660572052002e-01 2.261659950017929077e-01 -2.265346646308898926e-01 1.580912768840789795e-01 -1.900624036788940430e-01 1.988386660814285278e-01 1.620181202888488770e-01 -5.298646911978721619e-02 2.508778274059295654e-01 -7.934046536684036255e-02 3.653018549084663391e-02 -6.041658297181129456e-02 4.352850373834371567e-03 -2.095388323068618774e-01 -3.384959325194358826e-02 3.373529762029647827e-02 -1.125643327832221985e-01 1.451536118984222412e-01 -2.439501285552978516e-01 -5.357186123728752136e-02 -1.674652099609375000e-01 5.326392594724893570e-03 3.860347671434283257e-03 -9.708675742149353027e-02 -1.302907466888427734e-01 -1.955916583538055420e-01 -1.727152019739151001e-01
7.096361368894577026e-02 2.714826725423336029e-02 9.576904773712158203e-02 2.909249067306518555e-02 8.807871490716934204e-02 -8.979047834873199463e-02 -2.902776747941970825e-02 -5.065880343317985535e-02 -7.027903944253921509e-02 -7.033968716859817505e-02 2.288532070815563202e-02 -9.423159807920455933e-02 5.874098464846611023e-02 2.710098773241043091e-02 5.920139700174331665e-02 2.159449271857738495e-03 -7.597200572490692139e-02 -2.480746805667877197e-02 1.526842862367630005e-01 -2.175938040018081665e-01 6.768408231437206268e-03 8.267186931334435940e-04 9.847085922956466675e-02 1.103076115250587463e-01 5.310748890042304993e-02 1.209796778857707977e-02 6.922028958797454834e-02 1.047854572534561157e-01 -1.852957904338836670e-02 1.849487572908401489e-01 9.635820984840393066e-02 9.136737883090972900e-02 6.869116332381963730e-03 -3.618137538433074951e-02 -8.032509684562683105e-02 -1.187141910195350647e-01 -4.771083593368530273e-02 -8.103892207145690918e-02 -1.605318337678909302e-01 -5.935749784111976624e-02 5.720018967986106873e-02 5.991277098655700684e-02 2.640880830585956573e-02 -1.609224639832973480e-02 1.242469251155853271e-01 -2.864733710885047913e-02 7.864819467067718506e-02 3.848034515976905823e-02 7.341606914997100830e-02 1.227924693375825882e-02 1.213646903634071350e-01 -1.375534981489181519e-01 -1.809371635317802429e-03 8.244137465953826904e-02 -1.415594071149826050e-01 9.370192885398864746e-02 1.094015538692474365e-01 -1.901160478591918945e-01 -6.160371378064155579e-02 -2.080311775207519531e-01 1.462955176830291748e-01 5.523893237113952637e-02 5.805985257029533386e-02 -9.352067857980728149e-02 -4.834257438778877258e-02 -3.850738331675529480e-02 -5.542870238423347473e-02 4.461646825075149536e-02 8.765409886837005615e-02 -6.277040392160415649e-02 -1.551101207733154297e-01 6.001862511038780212e-02 4.582681134343147278e-02 -6.049424409866333008e-03 8.092935383319854736e-02 -3.331476449966430664e-02 1.244467915967106819e-03 9.732843190431594849e-02 1.368519365787506104e-01 -2.756633795797824860e-02 -4.249718040227890015e-02 -4.313324391841888428e-02 -2.093257568776607513e-02 -7.166311889886856079e-02 -7.895144075155258179e-02 1.129163503646850586e-01 -2.958623506128787994e-02 1.047655120491981506e-01 -9.474571049213409424e-02 5.672496184706687927e-02 -7.656615227460861206e-02 -2.641374617815017700e-02 -3.445269912481307983e-02 -6.992019712924957275e-02 1.719484031200408936e-01 -1.440497189760208130e-01 -2.634531818330287933e-02 -1.507820039987564087e-01 -2.066824436187744141e-01 -1.309329271316528320e-02 1.080757752060890198e-01 -4.684920236468315125e-02 -2.523111738264560699e-02 -6.294541805982589722e-02 2.969498280435800552e-03 2.683903649449348450e-02 1.113379001617431641e-02 7.187600433826446533e-02 1.722884774208068848e-01 -7.754651457071304321e-02 1.382247507572174072e-01 3.381528332829475403e-02 9.672840125858783722e-03 1.058032363653182983e-01 -1.082268133759498596e-01 1.070410013198852539e-01 -2.024175822734832764e-01 -9.700066596269607544e-02 2.098936587572097778e-02 1.840613931417465210e-01 1.139736473560333252e-01 4.223833605647087097e-02 6.993032246828079224e-02 7.828821241855621338e-02 1.455244123935699463e-01 -1.496352851390838623e-01 9.317255020141601562e-02 -7.229592651128768921e-02
-9.566875547170639038e-02 2.299930751323699951e-01 7.958642393350601196e-02 6.819294393062591553e-02 -1.062107831239700317e-01 -6.021490693092346191e-02 -2.039948701858520508e-01 -2.030725628137588501e-01 9.490904211997985840e-02 1.219695508480072021e-01 1.827748268842697144e-01 1.926836222410202026e-01 -2.975509688258171082e-02 -5.237515643239021301e-02 -1.423289179801940918e-01 1.052602156996726990e-01 1.864573359489440918e-01 2.493842244148254395e-01 9.795967489480972290e-02 6.269961595535278320e-02 1.636577546596527100e-01 9.664790332317352295e-02 4.814292863011360168e-02 3.231443464756011963e-02 -1.122330799698829651e-01 -1.009858679026365280e-02 -4.399025812745094299e-02 1.365010738372802734e-01 -1.506869047880172729e-01 -1.389531344175338745e-01 1.101568639278411865e-01 -9.295603632926940918e-02 4.231176152825355530e-02 8.990164101123809814e-02 -1.181487664580345154e-01 4.844436421990394592e-02 1.547987312078475952e-01 5.734732374548912048e-02 7.750677317380905151e-02 -7.278067059814929962e-03 1.531271487474441528e-01 -1.047686114907264709e-02 1.958654224872589111e-01 1.367219090461730957e-01 6.914494186639785767e-02 6.716758012771606445e-02 -5.426028743386268616e-02 -7.521312683820724487e-02 -1.337012797594070435e-01 -3.413229435682296753e-02 1.597399860620498657e-01 2.443359978497028351e-02 1.434831619262695312e-01 -1.434743870049715042e-02 1.038011834025382996e-01 -1.579761058092117310e-01 2.631587535142898560e-02 2.619845569133758545e-01 3.948913887143135071e-02 7.903527468442916870e-02 8.483082801103591919e-02 -1.801890432834625244e-01 -8.798196911811828613e-02 2.506938278675079346e-01 1.802455335855484009e-01 -1.411543413996696472e-02 9.116864204406738281e-02 8.282910287380218506e-02 1.514279544353485107e-01 -9.789042919874191284e-02 1.012310981750488281e-01 2.903055250644683838e-01 -8.131365478038787842e-02 -1.087356507778167725e-01 -2.754817903041839600e-02 3.347697854042053223e-02 -1.686813831329345703e-01 -3.830263391137123108e-02 8.200947195291519165e-03 -2.110820561647415161e-01 1.245339065790176392e-01 1.024910584092140198e-01 -6.813381612300872803e-02 -1.807010620832443237e-01 5.398770421743392944e-02 8.908900618553161621e-02 1.110613346099853516e-01 -1.707495450973510742e-01 -1.962987929582595825e-01 -1.766483113169670105e-02 -3.788885474205017090e-02 -1.403169184923171997e-01 -5.261580273509025574e-02 6.570284068584442139e-02 -7.397904247045516968e-02 -5.922418087720870972e-02 -7.067871838808059692e-02 2.421459555625915527e-01 2.148729562759399414e-01 2.442631274461746216e-01 8.592055737972259521e-02 1.893392801284790039e-01 1.303601264953613281e-01 5.138608068227767944e-02 2.333402261137962341e-02 4.286667704582214355e-02 1.452801972627639771e-01 7.837383449077606201e-02 5.367630347609519958e-02 2.820332050323486328e-01 -1.261092871427536011e-01 2.168533392250537872e-02 8.227914571762084961e-02 -1.028196364641189575e-01 -2.215009182691574097e-02 -1.316783875226974487e-01 5.578943341970443726e-02 6.610117107629776001e-02 -1.567024178802967072e-02 3.085685893893241882e-02 4.790240153670310974e-02 7.475783675909042358e-02 -4.311633855104446411e-02 1.295737922191619873e-01 -7.885669916868209839e-02 -2.613020874559879303e-02 -9.137625247240066528e-02 -1.249526366591453552e-01
1.298798173666000366e-01 1.762157529592514038e-01 1.905582994222640991e-01 -1.423210054636001587e-01 4.743622615933418274e-02 6.895694136619567871e-02 7.611497491598129272e-02 -1.632908582687377930e-01 -9.504437446594238281e-03 -1.444916576147079468e-01 1.203479059040546417e-02 2.495681656000670046e-05 9.928691200911998749e-03 8.887116611003875732e-02 -7.067693024873733521e-02 1.242495104670524597e-01 1.680456548929214478e-01 3.234446048736572266e-02 2.622603438794612885e-02 1.283620595932006836e-01 1.175724864006042480e-01 1.458869576454162598e-01 -7.327678799629211426e-02 -2.209864705801010132e-01 -6.945694983005523682e-02 6.982757151126861572e-02 -3.459670767188072205e-02 -1.319013386964797974e-01 -3.038077428936958313e-02 -8.354827761650085449e-03 -7.060708105564117432e-02 -1.950006000697612762e-02 -1.371735781431198120e-01 -7.660523522645235062e-03 6.699397414922714233e-02 8.197578042745590210e-02 1.354817673563957214e-02 1.626718342304229736e-01 1.081586107611656189e-01 3.891569748520851135e-02 4.815422371029853821e-02 7.049420475959777832e-02 2.727032080292701721e-02 1.601872742176055908e-01 5.705178156495094299e-02 8.617387712001800537e-02 8.050619065761566162e-02 1.060526371002197266e-01 -1.609436124563217163e-01 -8.743014186620712280e-02 -1.453438550233840942e-01 4.486544430255889893e-02 -1.511508524417877197e-01 -4.867288842797279358e-02 1.226125657558441162e-01 -1.570261865854263306e-01 4.899482429027557373e-02 -1.299633830785751343e-01 -5.566717684268951416e-02 6.195195391774177551e-02 1.059156656265258789e-01 -7.843391597270965576e-02 4.341270029544830322e-02 -1.621706038713455200e-01 -7.278434932231903076e-02 -2.312553375959396362e-01 8.873728662729263306e-02 -8.287649601697921753e-02 1.375169903039932251e-01 1.457159519195556641e-01 1.441789567470550537e-01 1.036589443683624268e-01 1.733260154724121094e-01 8.120530843734741211e-02 8.653594553470611572e-02 -5.598782375454902649e-02 -2.252613306045532227e-01 7.769080251455307007e-02 1.340406090021133423e-01 -2.450579553842544556e-01 -6.702328473329544067e-02 -1.207543257623910904e-02 2.003189623355865479e-01 -4.941599071025848389e-02 -1.260965019464492798e-01 -3.051495924592018127e-02 1.709011197090148926e-01 8.537641167640686035e-02 -1.007576882839202881e-01 5.302287265658378601e-02 7.344090193510055542e-02 -1.342035830020904541e-01 -5.092378333210945129e-02 1.487985402345657349e-01 -1.806997805833816528e-01 -7.044921070337295532e-02 -1.182937920093536377e-01 1.462198197841644287e-01 5.684416741132736206e-02 1.035006120800971985e-01 7.597745954990386963e-02 4.769632592797279358e-02 5.476434156298637390e-02 -1.812900751829147339e-01 1.878393143415451050e-01 -6.153592467308044434e-02 1.035009101033210754e-01 2.039008885622024536e-01 -8.399256318807601929e-02 -7.851636409759521484e-02 -8.902668207883834839e-02 -6.831955909729003906e-02 1.162330210208892822e-01 1.484500914812088013e-01 -3.985887765884399414e-02 -1.527206599712371826e-01 -6.077988073229789734e-02 -1.720443554222583771e-02 -9.109289944171905518e-02 -1.809083372354507446e-01 2.625636197626590729e-02 -2.526236698031425476e-02 3.478546813130378723e-02 -1.051246095448732376e-02 -9.267646074295043945e-02 -6.002569943666458130e-02 -4.482678137719631195e-03 -1.691768914461135864e-01
4.402503743767738342e-02 -2.476273328065872192e-01 -1.576244533061981201e-01 1.253797393292188644e-02 -7.814957946538925171e-02 1.951819956302642822e-01 8.614468574523925781e-02 -4.828355088829994202e-02 -1.068618707358837128e-02 1.160098910331726074e-01 -7.411292195320129395e-02 4.647734388709068298e-02 8.267238736152648926e-02 -9.887750446796417236e-02 -1.828529536724090576e-01 -9.600133448839187622e-02 -4.487075284123420715e-02 1.056703552603721619e-01 8.585084974765777588e-02 -1.326479166746139526e-01 -2.146419137716293335e-02 4.410601779818534851e-02 -9.639751911163330078e-02 1.479193121194839478e-01 1.210035160183906555e-01 -1.807258129119873047e-01 2.146494202315807343e-02 8.180836588144302368e-02 -1.378804445266723633e-01 4.406739398837089539e-02 -2.399213984608650208e-02 1.542780250310897827e-01 1.789844483137130737e-01 6.179680302739143372e-02 1.671503484249114990e-01 7.219878584146499634e-02 -6.503818929195404053e-02 1.211558133363723755e-01 -2.141074091196060181e-01 -1.498263180255889893e-01 4.727688431739807129e-02 1.321591734886169434e-01 1.571880877017974854e-01 -1.099499315023422241e-01 9.114365279674530029e-02 1.348143219947814941e-01 -7.380605489015579224e-02 -3.324239328503608704e-02 -2.801020070910453796e-02 4.656580090522766113e-02 -1.527506709098815918e-01 -2.066895514726638794e-01 2.609174139797687531e-02 2.512494623661041260e-01 -3.084890916943550110e-02 -5.940034519881010056e-03 1.206902414560317993e-02 -1.598030775785446167e-01 8.039660751819610596e-02 -1.284926570951938629e-02 2.766983397305011749e-02 4.575093090534210205e-02 1.966034919023513794e-01 -2.205968946218490601e-01 -6.386446952819824219e-02 6.684473156929016113e-02 1.025035008788108826e-01 -6.753630936145782471e-02 1.467110514640808105e-01 2.222958207130432129e-01 -1.746310591697692871e-01 1.462234705686569214e-01 -3.889271244406700134e-02 2.430203258991241455e-01 -7.569132745265960693e-02 4.839576408267021179e-02 -8.165238797664642334e-02 8.514901250600814819e-02 1.503784805536270142e-01 1.979923397302627563e-01 1.071084588766098022e-01 -8.813396096229553223e-02 1.311024576425552368e-01 -2.884241342544555664e-01 1.119014397263526917e-01 5.561720207333564758e-02 1.553457113914191723e-03 -1.395001411437988281e-01 2.325165569782257080e-01 -4.194620996713638306e-03 -1.997490525245666504e-01 -1.711620949208736420e-02 1.708274930715560913e-01 -4.659875109791755676e-02 2.012629657983779907e-01 6.952597945928573608e-02 -1.109675969928503036e-02 1.047422438859939575e-01 1.057095676660537720e-01 -7.285025715827941895e-02 4.197983071208000183e-02 1.766877621412277222e-01 1.710121706128120422e-02 -9.004740417003631592e-02 -1.632150113582611084e-01 8.035320043563842773e-02 7.143581658601760864e-02 -4.165331274271011353e-02 -7.001736760139465332e-02 -7.005405426025390625e-02 1.554787307977676392e-01 1.040706634521484375e-01 2.334285713732242584e-02 -1.118456646800041199e-01 7.069131825119256973e-03 1.489711701869964600e-01 2.078726701438426971e-02 -1.604946702718734741e-01 -3.830824419856071472e-02 1.163833588361740112e-01 -4.404372721910476685e-02 1.995007842779159546e-01 -2.486988753080368042e-01 -1.846230626106262207e-01 2.026871293783187866e-01 -2.795539796352386475e-02 1.975389420986175537e-01 2.074986994266510010e-01
3.165132924914360046e-02 -1.538645178079605103e-01 1.122960597276687622e-01 2.644274532794952393e-01 2.844685018062591553e-01 -1.827874034643173218e-01 1.094357669353485107e-01 -1.658804714679718018e-01 -2.807315587997436523e-01 7.248839735984802246e-02 1.281068772077560425e-01 4.512868821620941162e-02 1.528062224388122559e-01 -3.054660186171531677e-02 -1.870389431715011597e-01 -3.043198585510253906e-01 -5.816993117332458496e-02 -1.695029288530349731e-01 -2.083961069583892822e-01 -6.566101312637329102e-02 2.342722415924072266e-01 1.153009086847305298e-01 5.499799177050590515e-02 1.243965104222297668e-01 2.839202992618083954e-02 -2.248653620481491089e-01 8.682049065828323364e-02 3.109114468097686768e-01 7.120120525360107422e-02 4.217165336012840271e-02 -1.212256494909524918e-02 -1.610074639320373535e-01 -3.196665346622467041e-01 -2.754661738872528076e-01 -1.237560659646987915e-01 -1.421684920787811279e-01 2.150162607431411743e-01 8.353780955076217651e-02 -9.504040330648422241e-02 -9.390168637037277222e-02 -1.306110322475433350e-01 1.796987280249595642e-02 -2.393084913492202759e-01 -5.499864346347749233e-04 -3.547735512256622314e-02 3.739305958151817322e-02 4.022322222590446472e-02 6.645514816045761108e-02 1.251138560473918915e-02 6.121674180030822754e-02 1.619983166456222534e-01 -1.089880466461181641e-01 1.430766731500625610e-01 -2.038512527942657471e-01 -1.616382040083408356e-02 -3.094312548637390137e-02 -2.812663316726684570e-01 -1.895927339792251587e-01 -8.022806793451309204e-02 5.665873363614082336e-02 -1.052932739257812500e-01 6.671265512704849243e-02 -1.425418537110090256e-02 2.693775594234466553e-01 -4.825250431895256042e-02 1.802793890237808228e-01 -3.151200115680694580e-01 9.165271185338497162e-03 1.513235419988632202e-01 -2.921503186225891113e-01 1.088975891470909119e-01 -1.773745417594909668e-01 -1.784755140542984009e-01 2.436124384403228760e-01 2.261182293295860291e-02 1.527651865035295486e-02 -7.021606713533401489e-02 -6.843483448028564453e-02 3.121792338788509369e-02 -2.584149315953254700e-02 1.321995407342910767e-01 6.191486492753028870e-02 -1.308329496532678604e-02 -2.179208993911743164e-01 3.295427933335304260e-02 2.399979233741760254e-01 2.382192909717559814e-01 -1.131151616573333740e-01 -2.569038867950439453e-01 6.548237055540084839e-02 1.369156390428543091e-01 -7.182728499174118042e-02 -7.886385172605514526e-02 3.891582600772380829e-03 -9.189227595925331116e-03 3.534213081002235413e-02 -2.545968890190124512e-01 1.716367453336715698e-01 1.413898319005966187e-01 7.489494164474308491e-04 1.616298109292984009e-01 -1.128866970539093018e-01 -9.491668641567230225e-02 2.013978362083435059e-01 -4.185938462615013123e-02 2.766695618629455566e-01 -2.030146121978759766e-01 4.535083658993244171e-03 1.026767045259475708e-01 3.022584617137908936e-01 -2.907041609287261963e-01 -7.616198062896728516e-02 -8.669440448284149170e-02 -1.033898442983627319e-01 1.222096607089042664e-01 -2.580792177468538284e-03 -1.870349794626235962e-01 2.715358696877956390e-02 1.424538344144821167e-01 4.520401731133460999e-02 -2.320138663053512573e-01 -2.440934479236602783e-01 -7.495205104351043701e-02 4.179522395133972168e-02 3.291960433125495911e-02 1.028040423989295959e-01 1.137861385941505432e-01 1.552772074937820435e-01
-3.260721638798713684e-02 -1.393876969814300537e-01 6.318645924329757690e-02 -6.754922866821289062e-02 3.403089707717299461e-03 -1.524663120508193970e-01 -2.239690162241458893e-02 -2.122626751661300659e-01 -1.317864656448364258e-01 -1.442732661962509155e-01 6.911084055900573730e-02 -1.356470771133899689e-02 4.602094180881977081e-03 -3.431523144245147705e-01 -1.862261444330215454e-01 -3.350783884525299072e-01 -2.479983717203140259e-01 1.040838584303855896e-01 -2.028541862964630127e-01 -9.839835762977600098e-02 1.319609731435775757e-01 3.666697070002555847e-02 1.575860530138015747e-01 -1.429450064897537231e-01 -1.050074398517608643e-01 -9.373068809509277344e-02 1.914850771427154541e-01 1.731331944465637207e-01 5.335619673132896423e-02 -3.655955940485000610e-02 4.482585191726684570e-02 -1.926517933607101440e-01 -1.831051856279373169e-01 3.932135924696922302e-02 1.102773621678352356e-01 -1.955075412988662720e-01 6.696420907974243164e-02 1.122957002371549606e-02 1.270529329776763916e-01 1.626146286725997925e-01 -4.814192652702331543e-02 -7.345487177371978760e-02 -2.028603106737136841e-01 -3.381860256195068359e-02 -6.747598201036453247e-02 -1.184024140238761902e-01 -1.097038239240646362e-01 -4.633425921201705933e-02 -6.697327643632888794e-02 -5.749612115323543549e-03 -1.204569935798645020e-01 2.521075867116451263e-02 2.061165571212768555e-01 -7.025903463363647461e-02 9.783899039030075073e-02 -2.130755037069320679e-01 -3.292131721973419189e-01 -3.012506067752838135e-01 -2.991528809070587158e-02 1.780313700437545776e-01 -2.569954097270965576e-01 2.941449405625462532e-03 -5.310252308845520020e-02 1.338387727737426758e-01 -3.228172287344932556e-02 1.996329128742218018e-01 -8.249337226152420044e-02 1.897681653499603271e-01 4.255036637187004089e-02 -1.522809118032455444e-01 3.103857859969139099e-03 -8.521386981010437012e-02 -2.865523695945739746e-01 -8.353179693222045898e-02 -1.930472999811172485e-01 -5.370367318391799927e-02 9.095128625631332397e-02 -2.856461703777313232e-01 -1.332852840423583984e-01 2.280500978231430054e-01 -9.935764223337173462e-02 -5.496037751436233521e-02 1.574514657258987427e-01 -1.033462807536125183e-01 -1.595173180103302002e-01 1.301261037588119507e-01 1.162368059158325195e-01 2.499803751707077026e-01 -5.239116773009300232e-02 1.504984498023986816e-01 -1.747104823589324951e-01 -1.653453409671783447e-01 -1.738783568143844604e-01 3.444146737456321716e-02 -6.362628936767578125e-02 -2.583543956279754639e-02 6.023361161351203918e-02 -8.715550601482391357e-02 1.105295792222023010e-01 3.166284784674644470e-02 9.535788744688034058e-02 -2.556132376194000244e-01 -8.341126888990402222e-02 -8.659408241510391235e-02 -1.403828710317611694e-01 -8.385309576988220215e-02 -1.919681876897811890e-01 3.410174697637557983e-02 -1.478830724954605103e-01 -1.239101029932498932e-02 2.982192207127809525e-03 -1.557705691084265709e-03 5.717143043875694275e-02 -1.043983921408653259e-01 2.314944863319396973e-01 -3.022028207778930664e-01 -4.811038821935653687e-02 -9.175041317939758301e-02 2.769113481044769287e-01 -2.824791707098484039e-02 1.149417832493782043e-01 -3.204466998577117920e-01 6.309685856103897095e-02 1.437970250844955444e-01 -1.150206625461578369e-01 -1.762925684452056885e-01 -9.848333150148391724e-02 -1.917672306299209595e-01
-9.489036351442337036e-02 -1.430198252201080322e-01 3.783690556883811951e-02 1.408877372741699219e-01 1.474236696958541870e-01 -5.935755744576454163e-02 1.891041100025177002e-01 1.582126170396804810e-01 -8.599762618541717529e-02 1.631009578704833984e-01 -1.676548868417739868e-01 -6.672780495136976242e-03 -8.669997006654739380e-02 -1.120833009481430054e-01 4.954898357391357422e-02 2.250307053327560425e-02 -1.697255522012710571e-01 1.220298558473587036e-01 -6.246534734964370728e-02 9.678277373313903809e-02 -9.951318055391311646e-02 6.959313154220581055e-02 1.182560697197914124e-01 1.705451607704162598e-01 -6.410209834575653076e-02 4.795630648732185364e-02 1.422101259231567383e-01 -1.130182296037673950e-01 -1.192576661705970764e-01 9.263386577367782593e-02 -4.233055189251899719e-02 9.957564622163772583e-02 -8.150970190763473511e-02 6.780467927455902100e-02 1.323707550764083862e-01 -6.678842753171920776e-02 6.687925010919570923e-02 2.101529091596603394e-01 2.433938533067703247e-02 -1.935499906539916992e-01 1.208963766694068909e-01 -1.798631250858306885e-01 5.107402801513671875e-03 -6.290845572948455811e-02 1.211240608245134354e-02 -1.551284790039062500e-01 8.243623375892639160e-02 6.037431582808494568e-02 3.632601350545883179e-02 1.041929423809051514e-01 1.904754340648651123e-02 2.148613706231117249e-02 6.687566637992858887e-02 -3.718603774905204773e-02 2.476599439978599548e-02 -1.882407516241073608e-01 4.300550743937492371e-02 -8.161293342709541321e-03 -8.379065990447998047e-02 -1.090431958436965942e-01 -3.652676939964294434e-02 4.939045384526252747e-02 1.411640495061874390e-01 -8.603407442569732666e-02 -1.440546661615371704e-01 2.177558653056621552e-02 -2.160746371373534203e-03 9.914451092481613159e-02 1.704530864953994751e-01 2.788523212075233459e-02 -1.148430183529853821e-01 4.358112439513206482e-02 -8.404974639415740967e-02 -6.239737570285797119e-02 -2.242667973041534424e-02 1.756988614797592163e-01 1.478142738342285156e-01 -8.270034193992614746e-02 1.733360886573791504e-01 -6.503680720925331116e-03 1.642498672008514404e-01 8.256094157695770264e-02 7.128380984067916870e-02 -1.042400673031806946e-02 1.600350141525268555e-01 1.049556955695152283e-02 -4.500399902462959290e-02 1.034437641501426697e-01 -4.125022515654563904e-02 5.108018219470977783e-02 1.117671504616737366e-01 -6.631329655647277832e-02 7.204431295394897461e-02 2.108058184385299683e-01 1.388820558786392212e-01 6.833445280790328979e-02 -1.107216402888298035e-01 1.054958105087280273e-01 6.085258722305297852e-02 1.242469064891338348e-02 -1.901791989803314209e-01 -1.423002034425735474e-01 1.176758948713541031e-02 -5.342215299606323242e-02 -1.180789340287446976e-02 7.526145875453948975e-02 -8.272185176610946655e-02 -8.350872248411178589e-02 7.902552187442779541e-02 4.586694762110710144e-02 -6.534899026155471802e-02 -9.524698555469512939e-02 -1.671828478574752808e-01 1.173820346593856812e-01 5.225161835551261902e-02 -1.094956174492835999e-01 1.085796877741813660e-01 -1.165219917893409729e-01 -9.494228661060333252e-02 -1.145047694444656372e-02 9.538293629884719849e-02 -7.285618782043457031e-02 -1.652458906173706055e-01 -1.527449786663055420e-01 -9.405948221683502197e-02 6.682268530130386353e-02 -9.903632849454879761e-02 1.419389843940734863e-01
1.622273325920104980e-01 9.518270380795001984e-03 -8.095952868461608887e-02 -5.978673323988914490e-02 7.731423527002334595e-02 1.072018444538116455e-01 1.036833003163337708e-01 1.218845769762992859e-01 6.803143024444580078e-02 4.853648319840431213e-02 3.706226497888565063e-02 -2.484209463000297546e-02 1.103397905826568604e-01 6.116923689842224121e-02 -4.800404608249664307e-02 -8.396600931882858276e-02 -6.786959618330001831e-02 1.169872805476188660e-01 1.210805587470531464e-02 6.626608967781066895e-02 1.580480784177780151e-01 7.277526706457138062e-02 5.913019180297851562e-02 -1.376772820949554443e-01 1.410347316414117813e-02 8.102574944496154785e-02 1.173576638102531433e-01 -1.297552436590194702e-01 9.428223967552185059e-02 -4.989875014871358871e-03 -3.743121773004531860e-02 1.012026518583297729e-02 -7.463132590055465698e-02 4.937778785824775696e-02 1.575877368450164795e-01 1.011111661791801453e-01 5.707371234893798828e-02 -1.486566066741943359e-01 -1.548126935958862305e-01 -1.664334535598754883e-01 2.404503524303436279e-02 -7.815441489219665527e-02 -5.512856692075729370e-02 1.018888875842094421e-01 4.199257493019104004e-02 1.375918686389923096e-01 -2.403379231691360474e-02 5.236539989709854126e-02 -1.261563971638679504e-02 7.765490561723709106e-02 1.216878518462181091e-01 3.804269805550575256e-02 1.485691964626312256e-01 2.928129024803638458e-02 5.903450399637222290e-02 -7.863600552082061768e-02 1.103318482637405396e-01 -6.873161066323518753e-03 7.709445059299468994e-02 9.612104296684265137e-02 -8.819526992738246918e-03 -2.500124648213386536e-02 1.481942385435104370e-01 1.528748422861099243e-01 -4.501197021454572678e-03 -4.993637278676033020e-02 -1.074462905526161194e-01 1.300197094678878784e-01 4.952844232320785522e-03 7.847326248884201050e-02 -1.596173644065856934e-01 2.568115852773189545e-02 -1.672015637159347534e-01 -1.181871592998504639e-01 1.764795780181884766e-01 5.276032537221908569e-02 -2.285026945173740387e-02 1.921460963785648346e-02 -1.727767437696456909e-01 -1.157324239611625671e-01 6.832294166088104248e-02 -1.175150424242019653e-01 2.481364645063877106e-02 1.282349415123462677e-02 -2.314226701855659485e-02 -7.828843593597412109e-02 -4.142180085182189941e-02 -5.293864756822586060e-02 8.864712715148925781e-02 7.858175039291381836e-02 1.342446953058242798e-01 -1.579776406288146973e-01 -9.192364662885665894e-02 3.820356680080294609e-03 6.788596510887145996e-03 -1.268824376165866852e-02 -1.113649979233741760e-01 1.827069520950317383e-01 -9.449619054794311523e-02 2.564773522317409515e-02 -3.647721558809280396e-02 9.515596926212310791e-02 1.096781343221664429e-01 1.029036641120910645e-01 -1.152260676026344299e-01 -1.356187611818313599e-01 1.529782265424728394e-01 -4.169567674398422241e-02 -1.417347341775894165e-01 -1.180620715022087097e-01 9.410603344440460205e-02 -1.699416153132915497e-02 -8.165001869201660156e-02 1.814903169870376587e-01 -4.119765758514404297e-02 -5.913873761892318726e-02 1.217599585652351379e-01 -1.259617507457733154e-01 -7.417606562376022339e-02 -7.892321050167083740e-02 1.102599576115608215e-01 -2.324470505118370056e-02 -8.062354475259780884e-02 5.597059056162834167e-02 -1.569946706295013428e-01 -6.233607232570648193e-02 -1.379521936178207397e-01 4.700226336717605591e-02
-1.694178581237792969e-01 2.020721733570098877e-01 9.595213830471038818e-02 1.551213711500167847e-01 1.315230578184127808e-01 7.802828401327133179e-02 -4.986963421106338501e-02 7.800169289112091064e-02 1.120954975485801697e-01 7.172215729951858521e-02 -2.798324078321456909e-02 6.376224011182785034e-02 1.603359580039978027e-01 4.436568170785903931e-02 1.456179916858673096e-01 2.092175036668777466e-01 -7.272522151470184326e-02 1.202163100242614746e-01 1.314252167940139771e-01 -4.424111172556877136e-02 -1.113706305623054504e-01 1.430002152919769287e-01 1.123440684750676155e-03 -3.162383288145065308e-02 -4.376990348100662231e-02 -1.368579175323247910e-02 1.314074099063873291e-01 1.151177659630775452e-01 1.531637758016586304e-01 -1.559853553771972656e-01 1.503975540399551392e-01 1.746209263801574707e-01 -9.529384970664978027e-02 -8.921009302139282227e-02 -3.872347250580787659e-02 1.075560152530670166e-01 -9.622542560100555420e-02 1.635621339082717896e-01 -1.386595666408538818e-01 -3.923919051885604858e-02 1.716934591531753540e-01 -1.199826672673225403e-01 -1.064991056919097900e-01 9.462389349937438965e-02 -1.738361269235610962e-01 -1.942509263753890991e-01 1.565265804529190063e-01 -8.340125530958175659e-02 -4.007908701896667480e-02 -3.935180604457855225e-02 1.695925593376159668e-01 2.862043678760528564e-02 2.113563567399978638e-01 1.823610439896583557e-02 1.534671038389205933e-01 -5.074450001120567322e-02 4.337254911661148071e-02 7.233098149299621582e-02 -1.459282189607620239e-01 1.314101219177246094e-01 1.553069800138473511e-01 1.155771687626838684e-01 -1.067618504166603088e-01 1.987129151821136475e-01 -8.622708916664123535e-02 -1.428717672824859619e-01 4.912324249744415283e-02 -1.939479447901248932e-02 1.299493014812469482e-01 5.736850574612617493e-02 7.731498777866363525e-02 -2.008462324738502502e-02 -1.441621035337448120e-01 -4.537545517086982727e-02 -1.390563398599624634e-01 -8.939144015312194824e-02 1.292838305234909058e-01 3.888111794367432594e-03 1.664274781942367554e-01 -1.975615136325359344e-02 1.074701547622680664e-01 2.625068649649620056e-02 -1.290076076984405518e-01 1.087066084146499634e-01 -2.500168606638908386e-02 -1.221441626548767090e-01 -7.486383616924285889e-02 1.011477559804916382e-01 5.262523889541625977e-03 -1.268895715475082397e-01 -7.097604870796203613e-02 -4.199108853936195374e-02 3.212529793381690979e-02 -3.959565609693527222e-02 5.917796865105628967e-02 -8.149176836013793945e-02 5.695384368300437927e-02 8.433359861373901367e-02 1.370043158531188965e-01 1.490297447890043259e-02 -1.052965223789215088e-01 -4.188527818769216537e-03 -9.190667420625686646e-02 1.731335669755935669e-01 -2.263512089848518372e-02 1.408162862062454224e-01 1.311193108558654785e-01 -1.304952055215835571e-01 6.022155657410621643e-02 -1.784350723028182983e-02 2.119514346122741699e-02 8.774098753929138184e-02 -1.040708422660827637e-01 -7.888719439506530762e-02 7.051086425781250000e-02 4.260279983282089233e-02 -1.075327545404434204e-01 2.668386325240135193e-02 -7.173941284418106079e-02 1.433071345090866089e-01 1.308218389749526978e-01 4.670027270913124084e-02 -7.668701559305191040e-02 -6.280681490898132324e-02 -1.666203141212463379e-01 8.104636520147323608e-02 6.955503672361373901e-02 -1.304176449775695801e-01
1.152262687683105469e-01 3.994154185056686401e-02 -7.302752882242202759e-02 -1.182712316513061523e-01 -7.478346582502126694e-03 1.254296153783798218e-01 2.339592203497886658e-02 1.190716773271560669e-01 2.272042818367481232e-02 -3.132546693086624146e-02 -1.757637113332748413e-01 -1.290403604507446289e-01 -1.911325454711914062e-01 -1.060590371489524841e-01 7.484979927539825439e-02 -7.033342868089675903e-02 -1.252596825361251831e-01 1.773039437830448151e-02 -7.597851753234863281e-02 -3.429547697305679321e-02 -1.830643266439437866e-01 6.683258712291717529e-02 1.427607685327529907e-01 5.264420062303543091e-02 1.969613693654537201e-02 5.157025996595621109e-03 1.437521278858184814e-01 -6.408869475126266479e-02 7.504573464393615723e-02 6.170222535729408264e-02 -1.618552654981613159e-01 -1.155688017606735229e-01 -5.231280997395515442e-02 1.470217108726501465e-02 4.637466743588447571e-02 7.314842194318771362e-02 -1.623004227876663208e-01 -2.307687513530254364e-02 2.571991458535194397e-02 -4.691324755549430847e-02 -8.735713362693786621e-02 1.466442197561264038e-01 4.956418275833129883e-02 -1.119875982403755188e-01 -1.097315698862075806e-01 -5.362810194492340088e-02 -1.436543613672256470e-01 1.222246885299682617e-01 4.517992585897445679e-02 1.147614121437072754e-01 -6.868906319141387939e-02 -1.567623615264892578e-01 -5.331411957740783691e-02 -5.858618393540382385e-02 1.507698446512222290e-01 -1.207408756017684937e-01 -9.168910235166549683e-02 -1.134970337152481079e-01 -1.766466200351715088e-01 2.821963280439376831e-02 5.392825230956077576e-02 -1.270533800125122070e-01 5.168394371867179871e-02 7.429763674736022949e-02 -1.267824470996856689e-01 -3.671922534704208374e-02 -4.671927541494369507e-02 -1.781737208366394043e-01 -7.604928314685821533e-02 8.925016969442367554e-03 -1.393190473318099976e-01 2.276730351150035858e-02 1.777772456407546997e-01 1.526577174663543701e-01 -1.136494725942611694e-01 -5.116824060678482056e-02 7.462103664875030518e-02 -5.881983041763305664e-02 -1.090961992740631104e-01 -1.063435822725296021e-01 -5.498820915818214417e-02 -1.121710240840911865e-01 1.413866281509399414e-01 9.091315418481826782e-02 5.440694093704223633e-02 -1.824804246425628662e-01 -8.738978952169418335e-02 9.400410205125808716e-02 3.655904158949851990e-02 1.459235996007919312e-01 1.037718504667282104e-01 1.101774498820304871e-01 1.197518110275268555e-01 7.062461227178573608e-02 -1.515467017889022827e-01 -1.114091947674751282e-01 3.326147794723510742e-02 -1.924145072698593140e-01 -1.786999404430389404e-01 5.906655639410018921e-02 -1.129470616579055786e-01 -1.128227543085813522e-02 6.855717301368713379e-02 -9.513664990663528442e-02 1.557545214891433716e-01 -1.879189461469650269e-01 -1.223048567771911621e-01 -1.659050881862640381e-01 5.195651575922966003e-02 -1.437333077192306519e-01 -7.284029573202133179e-02 1.800221204757690430e-02 -1.134768649935722351e-01 1.577873975038528442e-01 -9.333919733762741089e-03 -9.920402429997920990e-03 -1.729851216077804565e-02 -5.418960005044937134e-02 -9.178534150123596191e-02 -1.460011601448059082e-01 4.433584690559655428e-04 5.602039024233818054e-02 9.485868364572525024e-02 -1.634122431278228760e-01 4.288747534155845642e-02 -1.342703029513359070e-02 -8.936792612075805664e-02 3.339574858546257019e-02
1.413702815771102905e-01 -9.675368666648864746e-03 -1.245516911149024963e-01 -2.688576281070709229e-02 -1.081845611333847046e-01 9.356182813644409180e-02 1.081514433026313782e-01 1.614087224006652832e-01 7.016022503376007080e-02 -1.710384786128997803e-01 -6.812307983636856079e-02 -1.966772973537445068e-01 -8.758720010519027710e-02 -1.743835955858230591e-01 6.008029729127883911e-02 1.232850402593612671e-01 -1.560931354761123657e-01 -3.429497033357620239e-02 -6.692125648260116577e-02 -2.944372966885566711e-02 -5.560886487364768982e-02 8.550894260406494141e-02 3.162618726491928101e-02 -8.579328656196594238e-02 9.437498450279235840e-02 1.256569325923919678e-01 1.583279967308044434e-01 1.113014519214630127e-01 1.256699860095977783e-01 4.058712720870971680e-02 3.094120323657989502e-02 -6.832390278577804565e-02 1.060072705149650574e-01 1.795905083417892456e-01 1.465828567743301392e-01 2.013483792543411255e-01 -1.760456115007400513e-01 -2.293307706713676453e-02 6.117022410035133362e-02 1.307258903980255127e-01 -1.844581514596939087e-01 -1.024485379457473755e-01 6.421454995870590210e-02 -7.339881360530853271e-02 4.476208239793777466e-02 1.422913521528244019e-01 -4.952733218669891357e-02 -2.803591452538967133e-02 5.052169412374496460e-02 1.975861638784408569e-01 -1.127454265952110291e-01 -1.538937240839004517e-01 2.480227686464786530e-02 3.125301375985145569e-02 -3.023574128746986389e-02 5.676515772938728333e-02 1.006552428007125854e-01 -5.013915896415710449e-02 1.459542810916900635e-01 2.190961502492427826e-02 6.848305463790893555e-02 1.168487966060638428e-02 1.216914951801300049e-01 -3.707239031791687012e-02 -6.670138239860534668e-02 -9.780241549015045166e-02 1.004339829087257385e-01 -6.921304762363433838e-02 -5.055966228246688843e-02 -2.543288096785545349e-02 -9.125030040740966797e-02 -2.011387050151824951e-01 -8.303931355476379395e-02 8.576228469610214233e-02 -1.165160164237022400e-01 1.694194078445434570e-01 -5.608469992876052856e-02 -9.060469269752502441e-02 1.692606806755065918e-01 9.682178497314453125e-02 7.698562741279602051e-02 -4.009098559617996216e-02 -1.156659498810768127e-01 -3.048366121947765350e-02 3.982979059219360352e-02 -1.475354880094528198e-01 -1.588877439498901367e-01 8.390255272388458252e-02 -5.865668877959251404e-02 -4.688906297087669373e-02 7.311756163835525513e-02 -7.684254646301269531e-02 1.120512858033180237e-01 -4.552783817052841187e-02 7.933995872735977173e-02 -1.888283342123031616e-01 -4.229738935828208923e-02 -1.065529286861419678e-01 -1.815658658742904663e-01 -5.999286659061908722e-03 -8.336527645587921143e-02 7.289269007742404938e-03 1.143248453736305237e-01 6.674713641405105591e-02 9.144437499344348907e-03 1.461136341094970703e-01 -1.552736759185791016e-01 -1.088896393775939941e-02 1.576337218284606934e-01 -1.068340018391609192e-01 -9.044640511274337769e-02 1.187095865607261658e-01 -8.307185769081115723e-02 9.731191396713256836e-02 -1.494417786598205566e-01 2.336265332996845245e-02 -9.232283383607864380e-02 -4.545703157782554626e-02 -2.098125815391540527e-01 -2.774886973202228546e-02 -4.183010756969451904e-02 7.518640905618667603e-02 -1.406334489583969116e-01 -6.564122438430786133e-02 -1.193577125668525696e-01 1.045025885105133057e-01 -1.154078021645545959e-01 -2.514080330729484558e-02
1.142839193344116211e-01 1.117261499166488647e-01 -1.430413126945495605e-01 -1.530484110116958618e-01 -8.749581128358840942e-02 1.031060740351676941e-01 -8.615493774414062500e-02 1.727719604969024658e-02 1.135965809226036072e-01 9.478843957185745239e-02 -8.734400570392608643e-02 -1.780225634574890137e-01 -1.846479475498199463e-01 -1.510279327630996704e-01 1.507028788328170776e-01 4.155710712075233459e-02 -1.531248986721038818e-01 -1.438218653202056885e-01 -9.365522116422653198e-02 1.349597275257110596e-01 -1.912892013788223267e-01 1.325383037328720093e-01 1.637852042913436890e-01 1.318145394325256348e-01 -5.679360032081604004e-02 -7.506532222032546997e-02 4.830696061253547668e-02 4.596291482448577881e-02 -8.078388124704360962e-02 -3.755708783864974976e-02 -1.667378842830657959e-01 -8.343230932950973511e-02 -1.355444639921188354e-01 -1.075052767992019653e-01 1.346528977155685425e-01 3.006251715123653412e-02 1.525071114301681519e-01 2.011209353804588318e-02 -6.955973803997039795e-02 1.181743741035461426e-01 -1.511483490467071533e-01 2.290804535150527954e-01 -7.087172567844390869e-02 -1.428426951169967651e-01 -1.563917547464370728e-01 1.178927719593048096e-01 -2.225484848022460938e-01 -1.108492016792297363e-01 -1.250664144754409790e-01 -1.094954907894134521e-01 -1.681490987539291382e-01 -7.436566799879074097e-02 7.957056909799575806e-02 1.886735856533050537e-02 -1.286614835262298584e-01 8.785337954759597778e-02 9.592781215906143188e-02 3.775015939027070999e-04 8.898284286260604858e-02 1.281055212020874023e-01 -1.240439340472221375e-01 -2.977509796619415283e-02 -9.160369634628295898e-02 -7.322105765342712402e-02 -1.659898459911346436e-01 -1.605480015277862549e-01 3.181196376681327820e-02 -1.365101188421249390e-01 7.395748049020767212e-02 9.301504492759704590e-02 -1.732854694128036499e-01 -2.148286998271942139e-02 -9.159238077700138092e-03 9.915725141763687134e-02 4.057915508747100830e-02 5.596661940217018127e-02 -1.074427813291549683e-01 -9.743708372116088867e-02 -1.113055720925331116e-01 8.393839001655578613e-02 1.318768225610256195e-02 -1.702776849269866943e-01 -1.696315556764602661e-01 -6.525063514709472656e-02 6.280851364135742188e-02 -1.795425713062286377e-01 -3.833434730768203735e-02 3.801725059747695923e-02 -5.066863447427749634e-02 8.818777650594711304e-02 -7.778822444379329681e-03 8.515756577253341675e-02 2.945139817893505096e-02 -3.265458345413208008e-02 1.382147818803787231e-01 -1.769531816244125366e-01 -1.281102746725082397e-01 3.207148611545562744e-02 6.523656845092773438e-02 4.112588241696357727e-02 -1.234341636300086975e-01 -1.672094315290451050e-01 1.207219064235687256e-01 6.081861630082130432e-02 -1.395774930715560913e-01 -1.535781323909759521e-01 -2.467505261301994324e-02 -2.032227516174316406e-01 -2.917343005537986755e-02 -1.680510789155960083e-01 -6.107924878597259521e-02 1.424364596605300903e-01 -2.399334870278835297e-02 -1.052912101149559021e-01 6.046916544437408447e-02 -1.395195126533508301e-01 7.161529362201690674e-02 7.757837325334548950e-02 -1.220921352505683899e-01 -4.333989694714546204e-02 -1.958360522985458374e-02 -1.485147774219512939e-01 1.302839070558547974e-01 -3.648600727319717407e-02 1.322307884693145752e-01 1.186512527056038380e-03 -8.971973508596420288e-02 -1.365624219179153442e-01
2.390477992594242096e-02 -1.835676580667495728e-01 3.390378504991531372e-02 1.172446757555007935e-01 5.037648603320121765e-02 1.100598201155662537e-01 -9.528996795415878296e-02 -1.369253844022750854e-01 -1.380097493529319763e-02 1.443118453025817871e-01 -3.587071597576141357e-02 -1.855992972850799561e-01 1.870859563350677490e-01 -1.101865619421005249e-01 -7.982516288757324219e-02 -9.354962408542633057e-02 -9.876013547182083130e-02 -1.346907019615173340e-01 -5.505302920937538147e-02 8.173815160989761353e-02 1.834896802902221680e-01 1.030024662613868713e-01 1.664505749940872192e-01 5.912832170724868774e-02 5.128688178956508636e-03 1.173761934041976929e-01 4.425319656729698181e-02 -1.628257930278778076e-01 7.567503303289413452e-02 -1.240976303815841675e-01 -1.201208159327507019e-01 1.271115988492965698e-01 -8.555618673563003540e-02 -4.634017869830131531e-02 2.335559576749801636e-02 1.533372886478900909e-02 -1.442785114049911499e-01 5.307822022587060928e-03 1.142031699419021606e-01 8.040192723274230957e-02 -1.515836566686630249e-01 1.477129757404327393e-01 -4.348522052168846130e-03 -1.631312668323516846e-01 -1.187597289681434631e-01 -7.616397738456726074e-02 7.651231437921524048e-02 7.549887150526046753e-02 -8.068415522575378418e-02 -1.222159639000892639e-01 -1.017243936657905579e-01 1.309836804866790771e-01 5.799054168164730072e-03 -4.231961071491241455e-02 1.416480820626020432e-02 -8.001951873302459717e-02 -1.381787806749343872e-01 -1.572191566228866577e-01 1.147954910993576050e-01 1.032740324735641479e-01 -3.946119174361228943e-02 -1.364407129585742950e-02 4.408720135688781738e-02 6.514129042625427246e-02 1.420299261808395386e-01 1.400391161441802979e-01 -7.766019552946090698e-02 4.074497148394584656e-03 8.195645362138748169e-02 -1.058109626173973083e-01 4.572203382849693298e-02 1.042799279093742371e-01 -1.020205095410346985e-01 -1.265467405319213867e-01 8.070206642150878906e-02 4.857451096177101135e-02 6.354214251041412354e-02 -4.967958852648735046e-02 -8.091671019792556763e-02 -8.153384178876876831e-02 1.212375238537788391e-01 -8.489833772182464600e-02 1.147475466132164001e-01 1.530859172344207764e-01 -7.612893730401992798e-02 -1.207116842269897461e-01 -1.856678538024425507e-02 -4.134619235992431641e-02 -4.906700178980827332e-02 1.480890661478042603e-01 2.211872860789299011e-02 9.467144310474395752e-02 -7.271069288253784180e-02 -1.024248003959655762e-01 -1.663699597120285034e-01 -1.602949500083923340e-01 5.256572738289833069e-02 -6.471766531467437744e-02 -1.653911359608173370e-02 -1.077137663960456848e-01 -5.599907413125038147e-02 -6.164859980344772339e-03 9.893681854009628296e-02 3.140222281217575073e-02 5.821728333830833435e-02 5.226130411028862000e-02 -2.839380688965320587e-02 1.265932321548461914e-01 -6.206643953919410706e-02 6.391941010951995850e-02 -4.654691368341445923e-02 -6.891440600156784058e-02 -7.400304544717073441e-03 -1.125104799866676331e-01 5.698549747467041016e-02 5.840003490447998047e-02 -9.798207134008407593e-02 1.407164242118597031e-02 4.006690904498100281e-02 -8.417023718357086182e-02 -8.153684437274932861e-03 1.497720927000045776e-01 -8.722772449254989624e-02 1.113074198365211487e-01 6.789713352918624878e-02 7.018870115280151367e-02 -5.428890511393547058e-02 1.390222609043121338e-01
-8.987755863927304745e-04 -6.028422340750694275e-02 1.101747080683708191e-01 3.852310776710510254e-02 -3.286973387002944946e-02 1.137408241629600525e-02 -2.014164030551910400e-01 1.312725432217121124e-02 -9.734290838241577148e-02 -1.005398482084274292e-01 1.178671326488256454e-02 -1.198584437370300293e-01 1.655129343271255493e-01 -1.794706881046295166e-01 -3.991147503256797791e-02 -2.361008711159229279e-02 -1.532732788473367691e-02 -3.869999200105667114e-02 -2.022548764944076538e-01 6.278338842093944550e-03 1.157940253615379333e-01 1.256226450204849243e-01 -2.445982396602630615e-01 -2.368203699588775635e-01 1.423801183700561523e-01 1.239753141999244690e-02 1.061106286942958832e-02 -2.553590387105941772e-02 -5.239234492182731628e-02 -8.332450874149799347e-03 -1.263849586248397827e-01 1.588386297225952148e-01 5.914389714598655701e-02 -2.306730598211288452e-01 -7.780257612466812134e-02 -1.825694888830184937e-01 -1.187245920300483704e-01 -2.685749344527721405e-02 -6.253884639590978622e-03 -4.872120916843414307e-04 5.581616610288619995e-02 4.894380643963813782e-02 -1.150991693139076233e-01 2.271308330819010735e-03 -1.473601013422012329e-01 1.719538271427154541e-01 -2.022010646760463715e-02 -1.582849472761154175e-01 -1.822107285261154175e-01 5.023640394210815430e-02 -5.952790006995201111e-02 8.688997477293014526e-02 1.487117167562246323e-02 -6.100739538669586182e-02 5.928608775138854980e-02 -8.692763000726699829e-02 -4.766549170017242432e-02 8.553005754947662354e-02 -1.749207824468612671e-01 -1.251917928457260132e-01 -9.062331169843673706e-02 -1.011464670300483704e-01 1.051951497793197632e-01 3.224968537688255310e-02 2.019046694040298462e-01 -2.273181527853012085e-01 -1.041588373482227325e-02 2.036424875259399414e-01 -2.855112031102180481e-02 -1.279113292694091797e-01 9.433811157941818237e-02 1.062461584806442261e-01 -4.964550957083702087e-02 -2.283098399639129639e-01 -1.178736537694931030e-01 6.142546981573104858e-02 9.157448261976242065e-02 -3.757564723491668701e-02 3.657842054963111877e-02 -1.964323222637176514e-01 -1.480885297060012817e-01 1.634641736745834351e-01 1.849696189165115356e-01 1.050180420279502869e-01 -2.424676567316055298e-01 -1.265976279973983765e-01 1.176073402166366577e-01 -1.784783601760864258e-01 -2.541119605302810669e-02 4.540857300162315369e-02 7.561922073364257812e-02 1.488501578569412231e-01 -6.308105587959289551e-02 -8.227884024381637573e-02 -2.188398092985153198e-01 1.801732480525970459e-01 6.847859174013137817e-02 1.534788161516189575e-01 -4.857777431607246399e-02 7.606431841850280762e-02 -3.807584941387176514e-02 -1.236675754189491272e-01 -9.748218953609466553e-02 -1.341795623302459717e-01 -8.227918297052383423e-02 -1.057445481419563293e-01 1.475667953491210938e-01 -1.848369538784027100e-01 -2.531020343303680420e-01 -9.689062088727951050e-02 -6.992901116609573364e-02 -1.410004794597625732e-01 1.159861385822296143e-01 -6.533762067556381226e-02 -4.949434846639633179e-02 -5.403163842856884003e-03 -1.231639180332422256e-03 2.087426744401454926e-02 -7.256598025560379028e-02 -1.305087506771087646e-01 -6.182514876127243042e-02 1.456213593482971191e-01 -1.650892198085784912e-02 -5.024904757738113403e-02 -1.253745555877685547e-01 2.114512622356414795e-01 -7.393960654735565186e-02 3.684375435113906860e-02
