-1.106054931879043579e-01 1.353159546852111816e-01 -6.321154534816741943e-02 -9.812291711568832397e-02 1.348929703235626221e-01 -9.756511449813842773e-02 -8.415712043642997742e-03 1.291745603084564209e-01 1.191255375742912292e-01 -3.175880061462521553e-03 1.159609295427799225e-02 -7.247981429100036621e-02 1.284905523061752319e-01 -1.022135093808174133e-01 6.278216093778610229e-02 6.173636019229888916e-02 -7.021830976009368896e-02 1.253703534603118896e-01 1.138686574995517731e-02 -3.685355558991432190e-02 -1.500707864761352539e-01 4.859881103038787842e-02 -9.334725141525268555e-02 3.073152527213096619e-02 -2.186205610632896423e-02 2.838438004255294800e-02 -6.414739042520523071e-02 -1.258243322372436523e-01 1.470298469066619873e-01 1.542452871799468994e-01 -9.586393833160400391e-02 1.014202181249856949e-02 9.799938648939132690e-02 6.070144847035408020e-02 1.607180945575237274e-02 4.216295480728149414e-02 1.499688178300857544e-01 1.796754151582717896e-01 -4.029635339975357056e-02 -2.172102406620979309e-02 -1.506796330213546753e-01 1.261029243469238281e-01 9.809374064207077026e-02 1.656331419944763184e-01 1.792581528425216675e-01 -1.526584029197692871e-01 -1.487784087657928467e-01 -1.190822646021842957e-01 -1.029105186462402344e-01 -1.009370982646942139e-01 -1.315740495920181274e-01 -1.205963492393493652e-01 1.360585987567901611e-01 -7.586541026830673218e-02 3.870293870568275452e-02 4.285895079374313354e-02 -8.403798192739486694e-02 -6.971785426139831543e-02 1.112352218478918076e-02 6.786250323057174683e-02 9.246714413166046143e-02 9.941967576742172241e-02 -8.763048052787780762e-02 8.251798897981643677e-02
8.214897662401199341e-02 1.003797799348831177e-01 -1.482930928468704224e-01 1.818120628595352173e-01 5.341713875532150269e-02 -1.061433851718902588e-01 1.601429730653762817e-01 -4.002222418785095215e-02 8.619301021099090576e-02 -7.894702255725860596e-03 -5.335548520088195801e-02 1.907745376229286194e-02 2.083664089441299438e-01 6.810393929481506348e-02 5.266480520367622375e-02 -6.720540672540664673e-02 -1.357921361923217773e-01 -1.859092265367507935e-01 6.906213611364364624e-02 -6.003313139081001282e-02 6.084412708878517151e-02 -4.581395164132118225e-02 -2.614248171448707581e-02 1.072403639554977417e-01 1.581774353981018066e-01 1.399430632591247559e-01 1.377789594698697329e-04 -8.121447265148162842e-02 1.434645652770996094e-01 2.027496397495269775e-01 7.196742296218872070e-02 -4.053170606493949890e-02 1.600692272186279297e-01 -1.307987272739410400e-01 -1.422533243894577026e-01 1.003674715757369995e-01 2.759802713990211487e-02 4.679565504193305969e-02 1.488805860280990601e-01 -1.585088670253753662e-01 1.634601354598999023e-01 -1.323452442884445190e-01 1.391551345586776733e-01 4.327965155243873596e-02 -1.513505075126886368e-02 -9.277527034282684326e-02 9.314922988414764404e-02 -1.415635496377944946e-01 1.437914222478866577e-01 1.787577122449874878e-01 -1.317826360464096069e-01 -8.187545835971832275e-02 -5.230314657092094421e-02 -4.162492975592613220e-02 -7.506423443555831909e-02 -3.942878544330596924e-02 -1.036284584552049637e-02 1.255258023738861084e-01 -1.170795504003763199e-02 6.785116344690322876e-02 1.479400843381881714e-01 3.496272861957550049e-02 -4.807232320308685303e-02 -4.000394046306610107e-02
1.520379483699798584e-01 -6.084589287638664246e-02 -7.505233585834503174e-02 1.517204940319061279e-01 1.240797862410545349e-01 1.719926893711090088e-01 2.315257303416728973e-02 6.811749935150146484e-02 -3.680132329463958740e-02 -8.074907585978507996e-03 -7.244769949465990067e-04 1.626351028680801392e-01 1.545318365097045898e-01 1.329142898321151733e-01 -1.096856892108917236e-01 1.932233870029449463e-01 8.886844664812088013e-02 1.640277914702892303e-02 2.002350091934204102e-01 -7.925172895193099976e-02 -6.792489439249038696e-02 6.182853132486343384e-02 3.461403399705886841e-02 1.659701019525527954e-01 -5.987446382641792297e-02 1.910253986716270447e-02 2.339994311332702637e-01 8.502898365259170532e-02 6.116824597120285034e-02 4.101800918579101562e-02 -1.345235109329223633e-01 -1.532875299453735352e-01 -6.154998391866683960e-02 -6.102542579174041748e-02 1.134898886084556580e-01 1.062117591500282288e-01 -1.214919239282608032e-01 -1.219741329550743103e-01 -1.333436369895935059e-01 -7.835837453603744507e-02 6.357286474667489529e-04 1.191380172967910767e-01 2.085765153169631958e-01 1.241718418896198273e-04 -1.598427630960941315e-02 8.897074498236179352e-03 -1.683688610792160034e-01 1.120460778474807739e-01 -8.890733867883682251e-02 -2.753607183694839478e-02 -9.512241184711456299e-02 -1.263392716646194458e-01 -1.246069520711898804e-01 -2.457482554018497467e-02 -6.752119958400726318e-02 8.909846842288970947e-02 7.093139737844467163e-02 1.132291629910469055e-01 1.290008276700973511e-01 -1.864562034606933594e-01 1.461961269378662109e-01 1.186147034168243408e-01 -1.098051965236663818e-01 2.176050990819931030e-01
1.097803115844726562e-01 1.273197680711746216e-01 1.041119843721389771e-01 -1.393247246742248535e-01 3.660469129681587219e-02 -9.595842659473419189e-02 8.003577589988708496e-02 -1.871488615870475769e-02 -4.946608096361160278e-02 -4.096455499529838562e-02 5.049963295459747314e-02 -1.370543614029884338e-02 -1.174256391823291779e-02 -6.142708659172058105e-02 1.328535825014114380e-01 1.553119421005249023e-01 -8.329537510871887207e-02 1.682521104812622070e-01 5.362154543399810791e-02 1.190188229084014893e-01 -7.196759432554244995e-02 8.921130746603012085e-02 -5.155031383037567139e-02 1.102983206510543823e-01 -8.128945529460906982e-02 1.056584864854812622e-01 7.253035902976989746e-02 3.735974058508872986e-02 1.289722323417663574e-01 -7.507285475730895996e-02 1.276318728923797607e-01 1.119887530803680420e-01 6.810295581817626953e-02 -1.324504166841506958e-01 -1.471427083015441895e-01 1.166844218969345093e-01 -1.877323091030120850e-01 -1.232134029269218445e-01 4.768849164247512817e-02 1.417853236198425293e-01 1.006444767117500305e-01 -4.515227302908897400e-02 -1.292378082871437073e-02 9.285229444503784180e-02 -2.821056917309761047e-02 2.404490262269973755e-01 -1.103367730975151062e-01 -1.092497631907463074e-01 -7.132717221975326538e-02 9.268762171268463135e-02 3.940875828266143799e-02 7.259450387209653854e-03 1.039712876081466675e-01 -6.400193274021148682e-02 1.000482738018035889e-01 -2.624436281621456146e-02 8.187874406576156616e-02 2.722274512052536011e-02 -4.161827638745307922e-02 1.430949419736862183e-01 1.092548295855522156e-01 5.731545016169548035e-02 -1.011840254068374634e-01 1.525291707366704941e-02
2.206682786345481873e-02 -4.746985062956809998e-02 -1.548166275024414062e-01 1.688169687986373901e-01 2.587651461362838745e-02 -2.028040774166584015e-02 2.264839708805084229e-01 -7.021496444940567017e-02 1.583466306328773499e-02 6.903949379920959473e-02 4.379301145672798157e-02 4.476136714220046997e-02 2.113765478134155273e-02 1.971932202577590942e-01 1.248477920889854431e-01 -1.107968576252460480e-02 4.718931764364242554e-02 -9.740473330020904541e-02 -5.544947832822799683e-02 1.140467524528503418e-01 1.136116124689579010e-02 1.668447703123092651e-01 -1.090456992387771606e-01 -6.344985216856002808e-02 -9.871640056371688843e-02 1.084711700677871704e-01 1.701835170388221741e-02 -5.259096249938011169e-02 -1.290315389633178711e-01 -5.956825241446495056e-02 -8.119653165340423584e-02 -7.174488902091979980e-02 5.910189449787139893e-02 1.762371882796287537e-02 -1.059843748807907104e-01 -2.352107316255569458e-02 -1.531170755624771118e-01 -5.795582011342048645e-02 6.462590396404266357e-02 1.335140764713287354e-01 7.855704426765441895e-02 -1.390704326331615448e-02 -9.076078236103057861e-02 4.378746822476387024e-02 -1.389393210411071777e-01 1.242944896221160889e-01 6.386643648147583008e-02 -1.032084301114082336e-01 -4.905052110552787781e-02 -9.187992662191390991e-02 -1.064537242054939270e-01 5.871792323887348175e-03 8.572415262460708618e-02 -1.731332689523696899e-01 5.728281661868095398e-02 5.177290737628936768e-02 3.226742893457412720e-02 -7.871311157941818237e-02 -7.039789110422134399e-02 8.010810613632202148e-02 1.817598491907119751e-01 -9.523351490497589111e-02 5.536938831210136414e-02 -1.237144228070974350e-02
2.668617479503154755e-02 -1.760794408619403839e-02 -3.833606839179992676e-02 -1.251802891492843628e-01 -1.311572790145874023e-01 1.408388167619705200e-01 -4.915960505604743958e-02 4.598351195454597473e-02 -1.265795528888702393e-01 1.735385879874229431e-02 -1.860093884170055389e-02 1.144213452935218811e-01 -4.752377048134803772e-02 7.549685426056385040e-03 5.825480818748474121e-02 -1.345143932849168777e-02 5.648119002580642700e-02 -1.748221963644027710e-01 -1.635301560163497925e-01 -9.558235853910446167e-02 -6.833544373512268066e-02 -4.441341012716293335e-02 -2.158009447157382965e-02 1.202615350484848022e-02 3.382848575711250305e-02 3.825822472572326660e-02 -1.330007165670394897e-01 -1.194532141089439392e-01 2.345682494342327118e-02 2.768047153949737549e-03 1.955012418329715729e-02 4.477155581116676331e-02 -3.337579593062400818e-02 -4.834700003266334534e-02 8.935557305812835693e-02 2.131864428520202637e-01 4.586926102638244629e-02 2.707800641655921936e-02 5.028953310102224350e-03 6.445072591304779053e-02 -1.583825945854187012e-01 -1.546609103679656982e-01 -1.235649734735488892e-01 5.510554835200309753e-02 2.819991298019886017e-02 6.853111833333969116e-02 -1.377326250076293945e-01 8.329841494560241699e-02 -1.231397613883018494e-01 -1.399431228637695312e-01 -5.744257569313049316e-02 1.315392404794692993e-01 -1.814914941787719727e-01 -3.673762828111648560e-02 7.865883409976959229e-02 1.936717517673969269e-02 -8.399996906518936157e-02 -1.394594609737396240e-01 -8.245970308780670166e-02 1.254657655954360962e-01 1.501555889844894409e-01 -9.441817551851272583e-02 1.556335836648941040e-01 -1.711544841527938843e-01
7.320782542228698730e-02 6.312615424394607544e-02 1.926736384630203247e-01 2.475196123123168945e-02 -1.282743662595748901e-01 -1.087580323219299316e-01 9.125062078237533569e-02 5.399781093001365662e-02 -1.427971273660659790e-01 4.766026139259338379e-02 2.083331719040870667e-02 1.552641689777374268e-01 -3.574823588132858276e-02 1.514683365821838379e-01 -9.041473269462585449e-02 7.736883312463760376e-02 1.697356812655925751e-02 1.225501969456672668e-01 -1.339648365974426270e-01 1.030823960900306702e-01 -9.139373898506164551e-02 -3.290469199419021606e-02 3.590334206819534302e-02 -1.114663183689117432e-01 -6.749190390110015869e-02 7.804439216852188110e-02 5.013350024819374084e-02 -1.146690994501113892e-01 5.460121482610702515e-02 6.046001985669136047e-02 1.442027688026428223e-01 1.569337695837020874e-01 6.540189497172832489e-03 1.366326361894607544e-01 1.317698955535888672e-01 9.601739048957824707e-02 1.448500603437423706e-01 -8.831872791051864624e-02 6.455739494413137436e-03 8.022309094667434692e-02 2.690363302826881409e-02 1.808433532714843750e-01 1.210667937994003296e-01 -1.757409796118736267e-02 1.774406433105468750e-02 -1.218179985880851746e-01 1.280228793621063232e-01 -5.561101809144020081e-02 9.411923587322235107e-02 -2.970699220895767212e-02 1.535121798515319824e-01 -1.008339077234268188e-01 -1.445389352738857269e-02 9.318965673446655273e-02 1.574169471859931946e-02 -3.924471139907836914e-02 -1.011375933885574341e-01 -4.162380099296569824e-02 -1.305605918169021606e-01 -7.876167446374893188e-02 1.409868299961090088e-01 -8.349799364805221558e-02 1.290009319782257080e-01 7.299587130546569824e-02
-8.287533372640609741e-02 -6.196373328566551208e-02 1.332975327968597412e-01 9.234230965375900269e-02 1.290921960026025772e-02 7.579281227663159370e-04 9.874317795038223267e-02 1.392778009176254272e-01 -2.234737761318683624e-02 1.140471100807189941e-01 -1.052007228136062622e-01 6.812398135662078857e-02 4.219342768192291260e-02 -2.067240327596664429e-02 -1.125898435711860657e-01 5.434045568108558655e-02 2.682079933583736420e-02 6.468675285577774048e-02 -1.459790468215942383e-01 -6.706199795007705688e-02 9.063673764467239380e-02 -1.068937405943870544e-01 -7.399752270430326462e-03 1.689249724149703979e-01 1.808044463396072388e-01 -7.275162637233734131e-02 -4.013650491833686829e-02 -8.508200198411941528e-02 1.834429800510406494e-01 6.986922770738601685e-02 1.002132222056388855e-01 1.634615510702133179e-01 7.592388242483139038e-02 6.234217062592506409e-02 1.854240521788597107e-02 9.529208391904830933e-02 1.257323175668716431e-01 -4.582762718200683594e-02 7.472955435514450073e-02 1.214642152190208435e-01 -7.555599510669708252e-02 -1.419000178575515747e-01 -7.842657715082168579e-02 -5.346323922276496887e-02 -9.284859150648117065e-02 8.444650471210479736e-02 1.741707175970077515e-01 -1.121782213449478149e-01 1.506913304328918457e-01 1.148042902350425720e-01 -3.017818182706832886e-02 -1.031319350004196167e-01 1.798826754093170166e-01 5.151879414916038513e-02 -7.115014642477035522e-02 -2.439741790294647217e-02 1.054443195462226868e-01 -9.037964046001434326e-02 5.230602622032165527e-02 1.569605469703674316e-01 5.429311841726303101e-02 -2.823204547166824341e-02 1.078698690980672836e-02 -8.547192066907882690e-02
-4.866777360439300537e-02 1.872002519667148590e-02 1.580305546522140503e-01 1.077546104788780212e-01 -1.244252398610115051e-01 -9.780316054821014404e-02 8.241999149322509766e-02 -7.194031774997711182e-02 1.328505109995603561e-02 1.049574464559555054e-01 8.694963157176971436e-02 -4.602684080600738525e-02 1.640103571116924286e-02 -4.391280561685562134e-02 -8.833275735378265381e-02 -1.182308942079544067e-01 -9.322507679462432861e-02 -1.779054999351501465e-01 6.735453754663467407e-02 -1.191617771983146667e-01 -1.512111872434616089e-01 -1.263808906078338623e-01 5.040078982710838318e-02 -7.552630454301834106e-02 1.170182526111602783e-01 4.757051542401313782e-02 1.170157641172409058e-01 2.627638168632984161e-02 -5.445552989840507507e-02 1.656144261360168457e-01 -8.977993577718734741e-02 1.840946376323699951e-01 8.102555572986602783e-02 4.039448872208595276e-02 9.343311935663223267e-02 -9.737920761108398438e-02 1.291775703430175781e-01 1.541766971349716187e-01 -5.919995158910751343e-02 -1.045852005481719971e-01 1.449583023786544800e-01 -1.498591005802154541e-01 7.153595238924026489e-02 7.124704122543334961e-02 1.512683182954788208e-01 2.359603531658649445e-02 1.882575303316116333e-01 -1.020438000559806824e-01 9.166723489761352539e-02 -6.707900762557983398e-02 -5.087736621499061584e-02 -8.171974867582321167e-02 -7.618501782417297363e-02 1.030376553535461426e-02 -1.171020269393920898e-01 2.883603982627391815e-02 -4.295369237661361694e-02 -4.245168343186378479e-02 -1.636385172605514526e-01 -5.213419720530509949e-02 -5.084978044033050537e-02 4.115596786141395569e-02 8.664474636316299438e-02 8.749660104513168335e-02
9.363565593957901001e-02 -9.872648119926452637e-02 3.504455089569091797e-04 1.531025171279907227e-01 5.712456535547971725e-03 9.627988934516906738e-02 -1.207044124603271484e-01 -8.868600428104400635e-02 1.283681243658065796e-01 -1.165101751685142517e-01 9.684123098850250244e-02 5.189815908670425415e-02 -1.320022642612457275e-01 1.395141631364822388e-01 -6.173137202858924866e-02 5.002694204449653625e-02 6.425751745700836182e-02 1.246608793735504150e-01 3.651952371001243591e-02 -1.282426621764898300e-02 1.747709512710571289e-01 5.259196832776069641e-02 -4.817160591483116150e-02 -1.546431630849838257e-01 -1.318023353815078735e-01 -1.536404788494110107e-01 6.803379207849502563e-02 -2.384256757795810699e-02 -1.518011689186096191e-01 -1.342630386352539062e-01 6.409761961549520493e-03 -1.038008928298950195e-01 -7.461149245500564575e-02 8.400510251522064209e-02 6.674333661794662476e-02 -5.397104471921920776e-02 8.000359684228897095e-02 -1.006579771637916565e-01 1.970088481903076172e-02 -1.077190935611724854e-01 1.267644166946411133e-01 -2.354553871555253863e-04 -1.103218197822570801e-01 5.416262894868850708e-03 2.313722111284732819e-02 -1.360413897782564163e-02 1.011816561222076416e-01 3.413261473178863525e-02 1.575351059436798096e-01 -5.002766475081443787e-02 -6.505780667066574097e-02 -7.574570178985595703e-02 3.519719094038009644e-02 1.792406886816024780e-01 1.570107340812683105e-01 -1.156549379229545593e-01 1.433630883693695068e-01 -3.572116792201995850e-02 1.534130573272705078e-01 1.900375932455062866e-01 -1.456650942564010620e-01 8.140709251165390015e-03 5.013252794742584229e-02 4.711744561791419983e-02
4.945149272680282593e-02 8.462259918451309204e-02 -3.506154194474220276e-02 -1.186229288578033447e-02 -1.112034097313880920e-01 -3.440444543957710266e-02 -2.698493003845214844e-02 -7.551770657300949097e-02 -4.483338072896003723e-02 -1.524917185306549072e-01 1.276445835828781128e-01 2.157982625067234039e-02 1.642434298992156982e-01 1.271906793117523193e-01 2.986043225973844528e-03 1.016154959797859192e-01 -6.506563723087310791e-02 7.836043834686279297e-02 2.435972690582275391e-01 4.133265465497970581e-02 -5.825185030698776245e-02 5.176782235503196716e-02 -1.210914086550474167e-02 -1.190168876200914383e-02 1.105526387691497803e-01 -4.356085509061813354e-02 2.174436748027801514e-01 1.870608329772949219e-02 1.417739838361740112e-01 -1.757776141166687012e-01 -1.345496326684951782e-01 -1.030735746026039124e-01 9.619609266519546509e-02 -2.105465829372406006e-01 1.394491549581289291e-02 8.057393878698348999e-02 8.588360249996185303e-02 -8.187545835971832275e-02 3.954347595572471619e-02 -5.802459269762039185e-02 7.720944285392761230e-02 -7.812780141830444336e-02 1.607374399900436401e-01 -4.038193449378013611e-02 7.266188040375709534e-03 -1.364202201366424561e-01 -1.546296477317810059e-01 8.845218271017074585e-02 -3.387279435992240906e-02 8.364672958850860596e-02 -7.724198698997497559e-02 1.254853457212448120e-01 -9.176729246973991394e-03 4.888420924544334412e-03 -8.232115954160690308e-02 -6.963782012462615967e-02 -4.266984015703201294e-02 1.174537017941474915e-01 -1.042291615158319473e-02 -2.000175863504409790e-01 2.068307995796203613e-01 -5.781236104667186737e-04 -7.575139403343200684e-02 6.363972276449203491e-02
7.611535489559173584e-02 -1.538134813308715820e-01 4.160895571112632751e-02 5.533902719616889954e-02 1.452043503522872925e-01 9.540537744760513306e-02 -1.020898371934890747e-01 -1.578651927411556244e-02 2.337183952331542969e-01 -1.595202237367630005e-01 1.013448610901832581e-01 2.180273830890655518e-01 -9.611954540014266968e-02 -3.477595001459121704e-02 -1.369432779029011726e-03 1.015576533973217010e-02 -1.475237309932708740e-01 1.140863150358200073e-01 8.041191101074218750e-02 6.048272922635078430e-02 6.713776849210262299e-03 -1.265038996934890747e-01 -9.582542628049850464e-02 1.418398022651672363e-01 4.253784939646720886e-02 -4.768005013465881348e-02 6.402028352022171021e-02 -1.347065418958663940e-01 -8.526264876127243042e-02 -2.121992558240890503e-01 -8.474942296743392944e-03 1.170366331934928894e-01 5.767045170068740845e-02 2.649053558707237244e-02 -1.065924167633056641e-01 5.103756487369537354e-02 -2.123862691223621368e-02 -1.291618049144744873e-01 1.585424542427062988e-01 -1.307974159717559814e-01 -3.810248896479606628e-02 1.627960205078125000e-01 -2.543084695935249329e-02 6.168140470981597900e-02 1.923713646829128265e-02 -1.196770891547203064e-01 -5.572294071316719055e-02 1.111310347914695740e-01 -1.780739985406398773e-02 -2.752862125635147095e-02 -3.009228408336639404e-02 -3.849029913544654846e-02 -1.363412588834762573e-01 2.141817212104797363e-01 6.348735839128494263e-02 -1.351454481482505798e-02 -1.285944879055023193e-02 1.174376830458641052e-01 -2.670812606811523438e-02 7.701118942350149155e-03 -6.396245956420898438e-02 -1.605395078659057617e-01 5.915468186140060425e-02 2.294060289859771729e-01
4.373085126280784607e-02 1.740091480314731598e-02 -7.688289880752563477e-02 -1.035083532333374023e-01 1.060338970273733139e-02 1.409789770841598511e-01 8.636059612035751343e-02 9.565319865942001343e-02 2.219218201935291290e-02 2.406446821987628937e-02 -9.100987762212753296e-02 -1.334186047315597534e-01 3.531434759497642517e-02 -9.648687392473220825e-02 -7.236856222152709961e-02 -1.869867905043065548e-03 -1.836691796779632568e-01 -5.982225760817527771e-02 1.790005713701248169e-01 1.200141161680221558e-01 1.617651581764221191e-01 -2.600042149424552917e-02 5.958647932857275009e-03 1.789290606975555420e-01 -6.360700726509094238e-02 8.550865948200225830e-02 7.158306986093521118e-02 2.396066300570964813e-02 -7.947426289319992065e-02 4.358398914337158203e-02 -1.780061274766921997e-01 -8.340228348970413208e-02 -4.570662230253219604e-02 6.008690223097801208e-02 -8.632329106330871582e-02 -9.794902056455612183e-02 -7.949189282953739166e-03 -1.229562312364578247e-01 -1.634155809879302979e-01 2.761419862508773804e-02 1.253748089075088501e-01 3.984545543789863586e-02 6.532724201679229736e-02 1.071561872959136963e-01 1.434871107339859009e-01 4.946642741560935974e-02 -1.776248961687088013e-02 1.571701765060424805e-01 -1.066870614886283875e-01 -1.404099315404891968e-01 1.161819919943809509e-01 -1.017720326781272888e-01 2.487525157630443573e-02 -1.042179092764854431e-01 -3.454509750008583069e-02 8.240706473588943481e-02 -1.068263873457908630e-01 1.093522161245346069e-01 -1.157492473721504211e-01 -1.377631276845932007e-01 -7.714319974184036255e-02 1.013361662626266479e-01 -1.340073943138122559e-01 -1.365392562001943588e-02
3.486935794353485107e-02 -8.681901544332504272e-02 -8.765915036201477051e-02 4.620557278394699097e-02 2.850956320762634277e-01 -4.127054661512374878e-02 1.715530753135681152e-01 -2.090282738208770752e-01 -5.595725029706954956e-02 7.552301138639450073e-02 7.976143807172775269e-02 2.420966327190399170e-01 2.369053065776824951e-01 -1.076447740197181702e-01 -4.171567037701606750e-03 -1.116392165422439575e-01 3.171069547533988953e-02 -1.624496430158615112e-01 -7.134618610143661499e-02 -8.665936440229415894e-02 4.977265745401382446e-02 3.573027998208999634e-02 1.433937251567840576e-01 -1.502768248319625854e-01 3.585997223854064941e-02 7.648961246013641357e-02 -1.220462005585432053e-02 -7.381246238946914673e-02 5.971749126911163330e-02 -1.216992270201444626e-02 5.000456795096397400e-02 -8.739973604679107666e-02 -7.643850147724151611e-02 1.116399560123682022e-02 -8.866415917873382568e-02 8.071482181549072266e-02 -4.361742734909057617e-02 -7.334111630916595459e-02 -9.997339546680450439e-02 6.281439680606126785e-03 1.321163624525070190e-01 -1.469288468360900879e-01 -7.143311202526092529e-02 2.748396694660186768e-01 1.464898288249969482e-01 -4.127376247197389603e-03 -6.613845378160476685e-02 7.339654862880706787e-02 2.627099454402923584e-01 -1.181154139339923859e-02 5.038770660758018494e-02 3.017245605587959290e-02 -4.278403706848621368e-03 1.533755511045455933e-01 -5.904121324419975281e-02 -5.837436765432357788e-02 -6.447922904044389725e-03 -1.107337325811386108e-01 -4.126773402094841003e-02 -7.466996461153030396e-02 1.923986226320266724e-01 1.597227156162261963e-02 1.390679031610488892e-01 1.349027901887893677e-01
-8.104861527681350708e-02 1.256489306688308716e-01 1.157312393188476562e-01 -5.075826775282621384e-04 1.360955554991960526e-02 -1.096407100558280945e-01 -1.348339617252349854e-01 1.416012197732925415e-01 -8.759741485118865967e-02 1.433311849832534790e-01 -1.633576601743698120e-01 9.315995872020721436e-02 6.190942972898483276e-02 -3.236170113086700439e-02 -6.801819056272506714e-02 -5.891157314181327820e-02 5.079187918454408646e-03 -8.864992856979370117e-02 -1.804514378309249878e-01 -1.350198220461606979e-02 -2.067900002002716064e-01 -1.455685943365097046e-01 7.372338324785232544e-03 7.987401634454727173e-02 1.069012656807899475e-01 3.866921365261077881e-02 -6.680034846067428589e-02 4.305382445454597473e-02 -1.010272726416587830e-01 8.422560989856719971e-02 7.692686468362808228e-02 1.483763456344604492e-01 -4.593570902943611145e-02 8.176138997077941895e-02 -3.778403624892234802e-02 -2.506392821669578552e-02 1.850256174802780151e-01 1.294338852167129517e-01 1.299332231283187866e-01 8.987431973218917847e-02 -7.988775148987770081e-03 3.659447655081748962e-02 -1.459248363971710205e-01 7.540879398584365845e-02 4.881135746836662292e-02 7.474766112864017487e-03 -7.716125994920730591e-02 -4.414922744035720825e-02 -1.028268933296203613e-01 -2.881250344216823578e-02 1.000401526689529419e-01 9.972300380468368530e-02 -7.966043427586555481e-03 -4.497149214148521423e-02 9.451518207788467407e-02 -9.272374212741851807e-02 -5.882850661873817444e-02 -1.619890332221984863e-01 9.387205541133880615e-02 1.108212545514106750e-01 6.371329724788665771e-02 8.625879883766174316e-02 1.580519080162048340e-01 -7.832157425582408905e-03
-7.048700004816055298e-02 1.342585384845733643e-01 -1.822791248559951782e-02 1.000107154250144958e-01 -1.540614571422338486e-02 7.845455408096313477e-02 1.194660887122154236e-01 3.027169406414031982e-02 -4.183016344904899597e-02 -7.494094222784042358e-02 5.704133305698633194e-03 3.633619844913482666e-02 -5.025945976376533508e-02 9.342383593320846558e-02 -4.524016287177801132e-03 -1.828751340508460999e-02 -1.211156547069549561e-01 -1.764519810676574707e-01 -7.045418024063110352e-02 -6.087575852870941162e-02 1.426787674427032471e-01 -4.153451323509216309e-02 -3.181349893566220999e-04 2.871246263384819031e-02 2.374617457389831543e-01 7.770548015832901001e-02 -7.754947990179061890e-02 -9.255206584930419922e-02 1.320527791976928711e-01 -2.105972729623317719e-02 1.064008027315139771e-01 -1.864887215197086334e-02 -6.574289500713348389e-02 3.468373417854309082e-02 -6.205625832080841064e-02 -1.047375723719596863e-01 1.780051290988922119e-01 -3.197889775037765503e-02 1.738692373037338257e-01 -4.659825563430786133e-02 8.101527392864227295e-02 -1.095154881477355957e-01 5.033764615654945374e-02 3.139545768499374390e-02 2.120592147111892700e-01 1.038961857557296753e-02 -3.430686518549919128e-02 1.339168995618820190e-01 -2.024274878203868866e-02 7.026829570531845093e-02 -1.105232834815979004e-01 8.896101266145706177e-02 -1.632866412401199341e-01 1.256855875253677368e-01 -1.577115356922149658e-01 -1.844406872987747192e-01 -1.505973190069198608e-01 -6.331312656402587891e-02 -1.329892426729202271e-01 -1.632488518953323364e-01 5.699454620480537415e-02 -3.386297449469566345e-02 -7.002807408571243286e-02 -1.688930392265319824e-01
-3.497029095888137817e-02 -1.315270513296127319e-01 -2.176039386540651321e-03 1.457828581333160400e-01 -1.014877632260322571e-01 4.116841778159141541e-02 -1.069394871592521667e-01 -3.363415598869323730e-02 -1.228013634681701660e-01 1.744329370558261871e-02 -1.027586236596107483e-01 -3.130461554974317551e-03 9.926977753639221191e-02 -8.925829082727432251e-03 -1.359267383813858032e-01 1.072400584816932678e-01 1.386894285678863525e-02 -1.810961812734603882e-01 5.538805946707725525e-02 -8.125456422567367554e-02 -1.164622977375984192e-01 1.281152367591857910e-01 -5.639084056019783020e-02 1.129856705665588379e-01 -1.287110596895217896e-01 2.204337120056152344e-01 3.905158117413520813e-02 7.748103141784667969e-02 -9.776027500629425049e-02 1.417924761772155762e-01 1.656943932175636292e-02 -1.050341427326202393e-01 -6.872853729873895645e-03 -1.598847657442092896e-01 5.540604516863822937e-02 -1.349918246269226074e-01 1.268869638442993164e-01 -1.110744103789329529e-01 -7.915828377008438110e-03 -9.278060495853424072e-02 1.113973259925842285e-01 -9.199492633342742920e-02 -5.676922202110290527e-02 9.801714122295379639e-02 1.405002027750015259e-01 4.314111545681953430e-03 1.068267449736595154e-01 7.234733551740646362e-03 4.282474517822265625e-02 4.624645039439201355e-02 -1.197905745357275009e-02 -5.392957851290702820e-02 -1.441807746887207031e-01 5.430395156145095825e-02 1.364000588655471802e-01 -1.650938838720321655e-01 -1.546956598758697510e-01 1.020235419273376465e-01 5.166028812527656555e-02 -1.052539143711328506e-02 1.634978204965591431e-01 1.350620239973068237e-01 8.128061145544052124e-02 -1.120187118649482727e-01
8.800315856933593750e-02 -1.598206013441085815e-01 -2.986657060682773590e-02 -9.108006209135055542e-02 1.695205569267272949e-01 -1.557276546955108643e-01 1.840554028749465942e-01 7.912319153547286987e-03 -9.777718037366867065e-02 4.699618741869926453e-02 -5.705863703042268753e-03 6.161158159375190735e-02 -7.507669180631637573e-02 -1.033830270171165466e-01 -1.052833124995231628e-01 -5.275131668895483017e-03 2.609914913773536682e-02 -5.053284764289855957e-02 1.360818296670913696e-01 1.189183667302131653e-01 -1.877421513199806213e-02 -9.550068527460098267e-02 -7.793519645929336548e-02 9.748249500989913940e-02 -3.141400590538978577e-02 1.259719673544168472e-02 7.055262476205825806e-02 -8.991298079490661621e-02 -2.323756553232669830e-02 5.055761337280273438e-02 4.984276369214057922e-02 -1.191058158874511719e-01 1.874722912907600403e-02 1.059832423925399780e-01 3.886371105909347534e-02 -1.368309706449508667e-01 4.263321310281753540e-02 7.711672782897949219e-02 -9.869703650474548340e-02 -1.285117417573928833e-01 1.713657081127166748e-01 -6.823688745498657227e-02 -1.112344115972518921e-01 -8.218911476433277130e-03 7.292199414223432541e-03 1.271316707134246826e-01 1.315228492021560669e-01 1.221584081649780273e-01 1.543535441160202026e-01 7.325333356857299805e-02 -8.716540783643722534e-02 8.075527846813201904e-02 -8.471705764532089233e-02 1.862598955631256104e-01 -1.420141607522964478e-01 1.115602552890777588e-01 -4.477188736200332642e-02 1.651465594768524170e-01 1.058061374351382256e-03 7.876001298427581787e-03 1.022616475820541382e-01 -1.539367735385894775e-01 -7.623887807130813599e-02 1.838479936122894287e-01
-9.683861583471298218e-02 2.013535425066947937e-02 1.341636925935745239e-01 1.511666085571050644e-02 -6.608967483043670654e-02 -1.364908069372177124e-01 4.413617774844169617e-02 1.227492243051528931e-01 -1.189540997147560120e-01 -9.676633775234222412e-02 5.455591902136802673e-02 2.669597044587135315e-02 1.708777062594890594e-02 -1.950775384902954102e-01 -1.107383817434310913e-01 4.591535776853561401e-02 -5.076417699456214905e-02 1.146327182650566101e-01 1.576446555554866791e-02 -9.828647971153259277e-02 -1.236761286854743958e-01 -1.206100136041641235e-01 5.925351008772850037e-02 8.968889713287353516e-02 1.661299616098403931e-01 -7.222574204206466675e-03 1.245293067768216133e-03 8.589197695255279541e-02 -3.249864652752876282e-02 2.899544080719351768e-03 1.826159805059432983e-01 -7.573378086090087891e-02 -9.522631019353866577e-02 1.476901471614837646e-01 -6.199731305241584778e-02 -1.742080897092819214e-01 -9.166906028985977173e-02 -5.601913481950759888e-02 -1.184407435357570648e-02 -1.566731929779052734e-01 3.768431022763252258e-03 -1.580107808113098145e-01 -1.259196698665618896e-01 5.047665908932685852e-02 2.192079648375511169e-02 -3.296911343932151794e-02 -1.427826937288045883e-02 1.031055301427841187e-01 1.001109480857849121e-01 -1.171283945441246033e-01 7.037332281470298767e-03 -6.414876133203506470e-02 2.819656627252697945e-03 1.536028981208801270e-01 -3.995139151811599731e-03 1.224685907363891602e-01 3.565195575356483459e-02 -3.096207976341247559e-02 1.104863360524177551e-01 7.562356442213058472e-02 2.510231919586658478e-02 -1.381076574325561523e-01 1.091218553483486176e-03 -6.177159026265144348e-02
4.552073031663894653e-02 1.410201787948608398e-01 1.544397622346878052e-01 1.862344890832901001e-01 -1.638350486755371094e-01 7.586790248751640320e-03 1.237576603889465332e-01 7.091832906007766724e-02 1.368629485368728638e-01 1.761897057294845581e-01 1.562437266111373901e-01 8.378412574529647827e-02 4.794742539525032043e-02 1.601910889148712158e-01 5.412685126066207886e-02 -4.972432181239128113e-02 1.464332789182662964e-01 2.472079358994960785e-02 9.466730803251266479e-02 -4.588076844811439514e-02 -1.241738200187683105e-01 1.014387011528015137e-01 1.317827496677637100e-02 1.543895155191421509e-01 -1.705888286232948303e-02 7.250102609395980835e-02 8.735731989145278931e-02 2.116126120090484619e-01 -1.004455834627151489e-01 1.451177150011062622e-01 -4.442100599408149719e-02 -2.736965939402580261e-02 1.530796736478805542e-01 4.381553828716278076e-02 -1.156676784157752991e-01 1.600419282913208008e-01 3.992915898561477661e-02 3.032413870096206665e-02 -7.588598411530256271e-03 -7.909199595451354980e-02 8.352743089199066162e-02 1.181893516331911087e-02 -3.280851617455482483e-02 -8.626460097730159760e-03 -8.736892044544219971e-02 -1.489074677228927612e-01 -5.164074897766113281e-02 -8.385381847620010376e-02 -1.106913760304450989e-01 9.822069108486175537e-02 -5.085243284702301025e-02 1.967850327491760254e-02 -4.107560217380523682e-02 1.173615232110023499e-01 9.115248918533325195e-02 -6.607837229967117310e-02 1.611936278641223907e-02 1.633073575794696808e-02 -2.097635157406330109e-02 -1.425103396177291870e-01 1.296940445899963379e-01 -4.086216911673545837e-03 -7.296654582023620605e-02 7.283419370651245117e-02
-2.096774842357262969e-04 -1.245325431227684021e-01 -9.386493265628814697e-02 -1.333960443735122681e-01 1.204437669366598129e-02 1.492525935173034668e-01 7.871914654970169067e-02 -2.709759213030338287e-02 1.771326214075088501e-01 9.470512717962265015e-02 7.134365290403366089e-02 -1.169298365712165833e-01 1.403099447488784790e-01 -2.664733864367008209e-02 -5.644610524177551270e-02 8.357952535152435303e-02 -8.377218246459960938e-02 4.363984987139701843e-02 9.560106694698333740e-02 -8.335918188095092773e-02 3.844216093420982361e-02 -7.373511791229248047e-02 7.876859605312347412e-02 8.728652447462081909e-02 -1.361728012561798096e-01 8.378692716360092163e-02 1.179512366652488708e-01 -8.177836425602436066e-03 -2.331975381821393967e-03 1.265397369861602783e-01 -1.165045127272605896e-01 1.328538209199905396e-01 9.768452495336532593e-02 4.416862968355417252e-03 6.633499264717102051e-02 -1.237627491354942322e-01 -4.968766868114471436e-02 1.900188811123371124e-02 9.514958411455154419e-02 -3.167698159813880920e-02 -1.628555729985237122e-02 6.161243095993995667e-02 -1.259798407554626465e-01 1.466244012117385864e-01 6.335804611444473267e-02 -3.967811539769172668e-02 -1.368120312690734863e-01 -1.738551706075668335e-01 -1.042633950710296631e-01 -8.564801514148712158e-02 -1.440884172916412354e-01 1.569297909736633301e-01 -6.943661253899335861e-03 4.247064702212810516e-03 8.689292520284652710e-02 1.215683482587337494e-02 -1.101034134626388550e-02 9.286466985940933228e-02 -5.884754285216331482e-02 -1.949902810156345367e-02 1.796735078096389771e-01 -7.324285060167312622e-02 6.151687353849411011e-02 -7.707968354225158691e-02
-4.803093150258064270e-02 1.799924820661544800e-01 -1.710912138223648071e-01 9.859459102153778076e-02 -1.307569891214370728e-01 -1.322690211236476898e-02 -7.054194808006286621e-02 4.209817200899124146e-02 -9.685419499874114990e-02 6.195016205310821533e-03 8.769787102937698364e-02 -3.757214173674583435e-02 -6.278675794601440430e-02 -9.639880061149597168e-02 -1.327174305915832520e-01 7.618522644042968750e-02 1.053972318768501282e-01 9.961652755737304688e-02 -1.047584936022758484e-01 7.913532853126525879e-02 7.810299098491668701e-02 6.819642335176467896e-02 7.538305968046188354e-02 2.227265015244483948e-02 -1.396270394325256348e-01 -1.559996139258146286e-02 1.048169061541557312e-01 1.650203578174114227e-02 2.079014331102371216e-01 6.863818317651748657e-02 8.028377778828144073e-03 8.619488030672073364e-02 2.647789195179939270e-02 3.624816238880157471e-02 3.640692681074142456e-02 -9.585768729448318481e-02 -3.692726418375968933e-02 -8.303788304328918457e-02 -1.024827584624290466e-01 1.046219393610954285e-01 -3.277172148227691650e-02 -6.495339423418045044e-02 -1.187088564038276672e-01 -7.948272675275802612e-02 -1.571962684392929077e-01 1.786887459456920624e-02 1.615393757820129395e-01 1.744546741247177124e-01 1.706613153219223022e-01 -1.362480372190475464e-01 -1.443152129650115967e-01 -8.917422965168952942e-03 -4.621813073754310608e-02 4.809963703155517578e-02 2.797683700919151306e-02 7.362713664770126343e-02 -3.447072952985763550e-02 1.645656116306781769e-02 6.191204488277435303e-02 1.113269850611686707e-02 -1.784739643335342407e-01 -3.821569308638572693e-02 9.771291911602020264e-02 1.162830069661140442e-01
5.671030282974243164e-02 8.652888238430023193e-02 4.306415468454360962e-02 -3.076056577265262604e-02 1.162472069263458252e-01 2.048804610967636108e-02 1.088439077138900757e-01 -6.883024424314498901e-02 -1.657204031944274902e-01 -7.823734730482101440e-02 1.177110970020294189e-01 -3.088775649666786194e-02 -8.246523141860961914e-02 4.449772089719772339e-02 1.773322820663452148e-01 7.793588191270828247e-02 1.078073009848594666e-01 2.705227211117744446e-02 -8.792036771774291992e-02 -1.212418824434280396e-02 1.362895518541336060e-01 -3.793886303901672363e-02 7.234700024127960205e-02 -1.015936955809593201e-01 7.590134628117084503e-03 -3.032816946506500244e-02 -1.516576111316680908e-01 -2.330072224140167236e-02 9.022550284862518311e-02 1.022630333900451660e-01 -1.615671068429946899e-02 -3.157004714012145996e-02 6.154325976967811584e-02 1.938181743025779724e-02 -1.036413852125406265e-02 1.135042309761047363e-01 -3.071237169206142426e-02 -2.043818868696689606e-02 1.768988789990544319e-03 1.055969521403312683e-01 1.387136280536651611e-01 5.336031783372163773e-03 -7.390793412923812866e-02 1.476963609457015991e-02 3.148809447884559631e-02 1.044143810868263245e-01 -1.434648334980010986e-01 -1.023768261075019836e-01 -2.326479414477944374e-03 1.602150946855545044e-01 7.136862725019454956e-02 -5.231887847185134888e-02 1.333363819867372513e-02 1.075971946120262146e-01 -1.056004986166954041e-01 1.150770261883735657e-01 1.093623265624046326e-01 2.914863079786300659e-02 1.208664104342460632e-01 3.587870858609676361e-03 -1.136612985283136368e-02 -1.474929302930831909e-01 -1.060281097888946533e-01 6.473620980978012085e-02
-6.987841427326202393e-02 -5.631338804960250854e-03 9.400311112403869629e-02 1.184430271387100220e-01 -1.105947718024253845e-01 3.791624680161476135e-02 1.786658316850662231e-01 6.928261369466781616e-02 -1.420683115720748901e-01 -2.597694471478462219e-02 3.200829774141311646e-02 -1.139679178595542908e-01 -1.484203338623046875e-02 -3.583375364542007446e-03 1.912752687931060791e-01 -1.003599986433982849e-01 -3.714622929692268372e-02 8.333930373191833496e-02 -2.088529989123344421e-02 -1.224669907242059708e-02 7.897561043500900269e-02 -1.574656665325164795e-01 7.809779047966003418e-02 -1.027282252907752991e-01 -8.030757308006286621e-03 2.782405912876129150e-02 -1.058293357491493225e-01 -1.609692126512527466e-01 -6.858507543802261353e-02 7.189503312110900879e-02 9.052180498838424683e-02 1.948948353528976440e-01 -1.572573371231555939e-02 9.616937488317489624e-02 -1.130778789520263672e-01 5.354594811797142029e-02 1.255535334348678589e-01 1.011669784784317017e-01 -9.664733894169330597e-03 -8.493252843618392944e-02 -6.206906214356422424e-02 1.943403184413909912e-01 -5.388828739523887634e-02 1.097598746418952942e-01 5.199710652232170105e-02 4.686994478106498718e-02 7.193415611982345581e-02 -9.861166030168533325e-02 -1.039485037326812744e-01 8.828293532133102417e-02 -8.704669028520584106e-02 -3.531398996710777283e-02 -1.445284299552440643e-02 -7.185655413195490837e-04 -4.526792839169502258e-02 1.714694201946258545e-01 9.082674980163574219e-02 1.149767450988292694e-02 -7.920938730239868164e-02 6.860744953155517578e-02 -1.211336851119995117e-01 1.132849678397178650e-01 3.014085628092288971e-02 1.334009170532226562e-01
1.651386171579360962e-01 -1.742280274629592896e-02 1.618073135614395142e-01 9.307443350553512573e-02 -2.203141525387763977e-02 -4.604790359735488892e-02 3.209156915545463562e-02 4.229742288589477539e-02 4.806611686944961548e-02 9.082463383674621582e-02 5.040954425930976868e-02 -1.590175777673721313e-01 -8.836013823747634888e-02 -1.389662176370620728e-01 -1.604888290166854858e-01 6.535541266202926636e-02 -1.302178367041051388e-03 1.510495245456695557e-01 1.099738031625747681e-01 -3.191024810075759888e-02 -7.247348129749298096e-02 8.390821516513824463e-02 -2.861535735428333282e-02 -1.113880239427089691e-02 3.745793923735618591e-02 -1.087114885449409485e-01 -2.298916131258010864e-02 4.885140061378479004e-02 1.397598087787628174e-01 3.079635091125965118e-02 1.030148640275001526e-01 6.474017351865768433e-02 -4.792371392250061035e-02 8.233564347028732300e-02 -6.248240545392036438e-02 3.086543269455432892e-02 1.315105037065222859e-04 1.173352524638175964e-01 1.107663586735725403e-01 2.777745202183723450e-02 -7.906190305948257446e-02 5.706898868083953857e-02 3.017764352262020111e-02 -1.208218261599540710e-01 4.477252438664436340e-02 -5.427530035376548767e-02 5.176564306020736694e-02 1.398957073688507080e-01 1.409396249800920486e-02 -6.499145179986953735e-02 8.624146133661270142e-02 1.174761578440666199e-01 1.641772687435150146e-01 -8.590021729469299316e-02 1.110754087567329407e-01 -9.123562276363372803e-02 1.608446538448333740e-01 -1.368676722049713135e-01 -6.424675881862640381e-02 -3.786207363009452820e-02 -3.602631017565727234e-02 1.153374537825584412e-01 -9.433448314666748047e-02 2.868265286087989807e-02
1.534342318773269653e-01 1.649860888719558716e-01 -1.088620126247406006e-01 -1.474258396774530411e-02 1.446818839758634567e-02 3.072787367273122072e-04 -1.416660398244857788e-01 1.513230949640274048e-01 -4.034354910254478455e-02 -5.214314535260200500e-02 7.620774209499359131e-02 -3.210687637329101562e-02 -7.414402812719345093e-02 -1.389172822237014771e-01 5.733036232413724065e-05 -2.528706565499305725e-02 -6.094836816191673279e-02 8.078850060701370239e-02 3.724199160933494568e-02 1.475604623556137085e-01 -1.081660538911819458e-01 -8.126399666070938110e-02 1.698723807930946350e-02 7.387934625148773193e-02 3.302489221096038818e-02 1.040872484445571899e-01 -5.837596207857131958e-02 3.388430550694465637e-02 2.773799002170562744e-02 1.390820275992155075e-02 -1.896622031927108765e-01 1.725912243127822876e-01 6.639973074197769165e-02 8.545544929802417755e-03 -7.897578924894332886e-02 9.353613853454589844e-02 1.623101085424423218e-01 1.816069483757019043e-01 9.420790523290634155e-02 -1.574467308819293976e-02 4.627244919538497925e-02 -3.272661939263343811e-02 -3.101499937474727631e-02 -1.058189049363136292e-01 1.349181402474641800e-02 7.271412760019302368e-02 7.118640094995498657e-02 -4.630266129970550537e-02 1.252735033631324768e-03 9.869896620512008667e-02 -1.017288342118263245e-01 -2.157390303909778595e-02 1.331196576356887817e-01 -1.231371983885765076e-01 -1.756441965699195862e-02 4.184313490986824036e-02 -2.895098179578781128e-02 -7.674848288297653198e-02 1.403526985086500645e-03 -1.676356196403503418e-01 3.566609928384423256e-03 4.581551998853683472e-02 1.007012724876403809e-01 1.065953224897384644e-01
-1.103000808507204056e-02 -1.671278476715087891e-02 -4.325054585933685303e-02 -1.170564293861389160e-01 8.553355187177658081e-02 -1.116898506879806519e-01 8.930000662803649902e-02 1.704538911581039429e-01 3.157327696681022644e-02 1.729345917701721191e-01 1.093092635273933411e-01 -9.598570317029953003e-02 9.796658903360366821e-02 8.801403641700744629e-02 -2.008217014372348785e-02 1.896798759698867798e-01 -4.878367856144905090e-02 -6.039045983925461769e-04 1.372006982564926147e-01 -3.422871232032775879e-02 4.933805018663406372e-02 9.453342854976654053e-02 -5.300468183122575283e-04 -1.026865243911743164e-01 1.020593568682670593e-01 -2.986802533268928528e-02 -3.046409413218498230e-02 2.541548945009708405e-02 -5.414184927940368652e-02 1.675139069557189941e-01 2.663250267505645752e-02 1.685213595628738403e-01 4.463421180844306946e-02 8.208104968070983887e-02 -3.959317877888679504e-02 -8.190550655126571655e-02 4.681664705276489258e-02 -1.369050238281488419e-02 8.138396590948104858e-02 -1.208633407950401306e-01 3.417740017175674438e-02 1.131141334772109985e-01 -9.584348648786544800e-02 -7.392297685146331787e-02 -1.359260380268096924e-01 4.384863376617431641e-02 8.616479486227035522e-02 -1.347659230232238770e-01 9.843025356531143188e-02 7.771316170692443848e-02 2.415239252150058746e-02 -7.790461927652359009e-02 1.818026453256607056e-01 5.232594907283782959e-02 -1.021371781826019287e-01 -1.216091215610504150e-02 5.527698993682861328e-02 -1.034907530993223190e-02 1.322118639945983887e-01 -1.190604344010353088e-01 -1.105754673480987549e-01 -1.232501268386840820e-01 1.306813582777976990e-02 8.795020729303359985e-02
3.550437837839126587e-02 -1.674117594957351685e-01 -9.367657452821731567e-02 -9.311004728078842163e-02 1.837295852601528168e-02 9.204252064228057861e-02 7.389649748802185059e-02 1.027406528592109680e-01 -8.844334632158279419e-02 8.807811886072158813e-02 -1.706867851316928864e-02 -1.144775748252868652e-01 2.870064415037631989e-02 7.050935178995132446e-02 2.978652901947498322e-02 1.122419089078903198e-01 3.133925050497055054e-02 1.623898148536682129e-01 -3.882593661546707153e-02 1.210204511880874634e-01 3.298318386077880859e-02 1.556723266839981079e-01 -5.582775920629501343e-03 7.609093934297561646e-02 8.089310675859451294e-02 -2.427530474960803986e-02 -6.575087457895278931e-02 -2.925259992480278015e-02 -8.745978027582168579e-02 -2.542324364185333252e-02 -1.354607008397579193e-02 -3.034692630171775818e-02 3.744629677385091782e-03 -7.663857936859130859e-02 1.112527996301651001e-01 2.006305381655693054e-02 9.874794632196426392e-02 -1.160258799791336060e-01 1.969445496797561646e-02 -1.264826804399490356e-01 7.843875326216220856e-03 8.816053159534931183e-03 1.069777533411979675e-01 9.574916213750839233e-02 7.086484227329492569e-03 1.218676492571830750e-01 -2.921971864998340607e-02 -1.112907379865646362e-01 -1.458902955055236816e-01 7.315655052661895752e-02 9.455294907093048096e-02 -7.026020437479019165e-02 1.448062211275100708e-01 1.570040709339082241e-03 -5.357040837407112122e-02 1.508691012859344482e-01 -6.818072497844696045e-02 1.573567539453506470e-01 8.553910255432128906e-02 -3.198979422450065613e-03 1.124054491519927979e-01 -3.616309911012649536e-02 1.642542518675327301e-02 1.415899097919464111e-01
7.764896005392074585e-02 2.730255760252475739e-02 6.400930136442184448e-02 1.177221313118934631e-01 -9.015890210866928101e-02 -9.566610306501388550e-02 -1.071964856237173080e-02 8.147954940795898438e-02 3.819127380847930908e-02 1.149124130606651306e-01 5.731909349560737610e-02 6.932574324309825897e-03 7.227722555398941040e-02 -5.779257416725158691e-02 1.409138888120651245e-01 9.315827488899230957e-02 -1.519323289394378662e-01 7.420817762613296509e-02 -1.062343716621398926e-01 5.375970527529716492e-02 -1.817227457650005817e-03 1.525424122810363770e-01 -5.671150982379913330e-02 3.870853036642074585e-02 6.345458328723907471e-02 4.965239763259887695e-02 -2.388328872621059418e-02 -1.327782571315765381e-01 -3.623119741678237915e-02 7.112738490104675293e-02 -1.820910423994064331e-01 -8.017193526029586792e-02 -8.799642324447631836e-02 -9.535358846187591553e-02 -1.757932081818580627e-02 -1.404493767768144608e-02 -4.520291090011596680e-02 -1.594443619251251221e-02 9.766282886266708374e-02 -9.998656809329986572e-02 -9.400708973407745361e-02 -9.156285226345062256e-02 -8.550608158111572266e-02 -1.095626428723335266e-01 1.503942650742828846e-03 -2.599116601049900055e-02 -3.065464273095130920e-02 -1.954048573970794678e-01 -3.549310564994812012e-02 -9.466784447431564331e-02 1.180118694901466370e-01 -2.700312621891498566e-02 -4.161680117249488831e-02 1.015336290001869202e-01 8.326743543148040771e-02 2.867700159549713135e-02 3.652678802609443665e-02 -1.347972601652145386e-01 1.357803195714950562e-01 2.972119115293025970e-02 -3.710985928773880005e-02 -1.592390686273574829e-01 -7.252958416938781738e-02 -1.388593763113021851e-01
3.310006111860275269e-02 5.567692220211029053e-02 -5.757682025432586670e-02 -2.732670679688453674e-02 -8.890452980995178223e-02 -1.439685821533203125e-01 1.281879544258117676e-01 8.816934376955032349e-02 -6.807519495487213135e-02 -6.353071331977844238e-02 8.999412506818771362e-02 -1.215856075286865234e-01 -8.349145948886871338e-02 1.048972085118293762e-01 1.627493835985660553e-02 1.811367571353912354e-01 7.655711472034454346e-02 -1.061231344938278198e-01 -1.397980749607086182e-01 1.656914353370666504e-01 5.254425480961799622e-02 1.627690345048904419e-01 1.301684677600860596e-01 1.018698513507843018e-02 3.845100104808807373e-02 -6.715802103281021118e-02 -6.883983314037322998e-02 -4.342693462967872620e-02 1.072839461266994476e-02 1.587299257516860962e-02 -1.320793572813272476e-02 1.912063807249069214e-01 -4.477120935916900635e-02 -1.023945882916450500e-01 6.427887827157974243e-02 1.473294049501419067e-01 1.307377368211746216e-01 3.821263834834098816e-02 1.173245757818222046e-01 -7.540362328290939331e-02 -1.670029759407043457e-02 -7.817842066287994385e-02 -6.123231351375579834e-02 3.537695482373237610e-02 -1.390322484076023102e-02 2.077793329954147339e-02 1.136162206530570984e-01 -9.393689036369323730e-02 -8.572363853454589844e-02 1.119121834635734558e-01 -5.266188085079193115e-02 -4.931123927235603333e-02 1.379301249980926514e-01 1.456763967871665955e-02 1.031232345849275589e-02 -4.622795805335044861e-02 -1.924085021018981934e-01 7.295347005128860474e-02 7.831402868032455444e-02 1.553466320037841797e-01 5.774644389748573303e-02 1.500631719827651978e-01 -1.057550385594367981e-01 -3.827954828739166260e-02
2.623800560832023621e-02 -6.634133309125900269e-02 -2.982317470014095306e-02 7.429819554090499878e-02 -3.322186321020126343e-02 -1.380695551633834839e-01 9.133983403444290161e-03 -1.090063899755477905e-01 1.697886176407337189e-02 -6.805158406496047974e-02 1.545587033033370972e-01 -9.297268465161323547e-03 9.896671026945114136e-02 -9.259330481290817261e-02 2.391726151108741760e-02 5.197734385728836060e-02 5.677663534879684448e-02 6.991538405418395996e-02 -3.910587728023529053e-02 1.210215222090482712e-02 1.416367590427398682e-01 9.512825869023799896e-03 6.077600643038749695e-02 -1.044053956866264343e-01 1.171303763985633850e-01 -1.732412725687026978e-01 1.298357918858528137e-02 8.616580069065093994e-02 -9.789118170738220215e-02 2.171428129076957703e-02 6.332288030534982681e-03 1.478413492441177368e-01 1.844918355345726013e-02 2.931972965598106384e-02 -1.166316568851470947e-01 6.678009778261184692e-02 1.811155304312705994e-02 -9.993919730186462402e-02 1.854435540735721588e-02 2.133318223059177399e-02 -6.217333301901817322e-02 2.903398312628269196e-02 3.563214838504791260e-02 1.607397496700286865e-01 -1.474767178297042847e-01 1.797360479831695557e-01 1.339598745107650757e-01 -4.142997413873672485e-02 1.556258350610733032e-01 4.780950024724006653e-02 -8.292794972658157349e-02 -9.890604764223098755e-02 9.204377979040145874e-02 1.711348891258239746e-01 8.872786909341812134e-02 -6.308852136135101318e-02 6.856973469257354736e-02 -3.187397494912147522e-02 2.163008041679859161e-02 -9.776704758405685425e-02 -2.569128014147281647e-02 -1.197429001331329346e-01 -8.094604313373565674e-02 7.134457677602767944e-02
4.850040003657341003e-02 8.790448307991027832e-02 1.696973443031311035e-01 6.220521405339241028e-02 1.662738025188446045e-01 4.232747852802276611e-02 -3.838834911584854126e-02 -1.675677113234996796e-02 -1.110825985670089722e-01 2.078126184642314911e-02 3.173124045133590698e-02 -6.683820486068725586e-02 -2.156053436920046806e-03 4.170361161231994629e-02 -8.818195760250091553e-02 8.163545280694961548e-03 -6.994420289993286133e-02 8.544405549764633179e-02 1.112231686711311340e-01 5.392143130302429199e-02 -1.403324455022811890e-01 9.619440883398056030e-02 1.631921827793121338e-01 -8.886130899190902710e-02 1.583725661039352417e-01 8.110959827899932861e-02 1.685009896755218506e-01 -1.146831735968589783e-01 -1.253978908061981201e-01 8.898705989122390747e-02 7.723377645015716553e-02 1.376293301582336426e-01 -3.132005780935287476e-02 -8.860911428928375244e-02 -6.495476514101028442e-02 -1.116210892796516418e-01 1.656987071037292480e-01 -4.249350354075431824e-02 1.409463286399841309e-01 -2.403025142848491669e-02 -1.254038363695144653e-01 7.784012705087661743e-02 -1.285838037729263306e-01 1.064821556210517883e-01 8.527708053588867188e-02 4.405511543154716492e-02 9.758378565311431885e-02 2.298446148633956909e-01 2.199580371379852295e-01 2.538723126053810120e-02 -5.520418658852577209e-02 -6.957779079675674438e-02 6.439600139856338501e-03 4.028880596160888672e-02 3.157979343086481094e-03 -5.798398703336715698e-02 4.877931252121925354e-02 -1.207247972488403320e-01 -3.626504912972450256e-02 -1.336679160594940186e-01 -1.262118518352508545e-01 -8.338814973831176758e-02 -5.035570636391639709e-02 8.921447396278381348e-02
2.972481772303581238e-02 1.227098628878593445e-01 4.919848218560218811e-02 2.802649512887001038e-02 -4.479255992919206619e-03 7.403402030467987061e-02 8.799264207482337952e-03 1.169919148087501526e-01 -1.149965450167655945e-01 -1.543019413948059082e-01 -9.079620987176895142e-02 4.830824956297874451e-02 1.126598417758941650e-01 -1.052312925457954407e-02 -1.347812861204147339e-01 -1.196310073137283325e-01 6.717790663242340088e-02 1.704710535705089569e-02 -6.457266281358897686e-04 -3.769991546869277954e-02 -2.410091310739517212e-01 -6.556423008441925049e-02 1.157509088516235352e-01 -1.461329609155654907e-01 1.557914167642593384e-02 -4.423644393682479858e-02 -5.387551337480545044e-02 5.835222825407981873e-02 1.451247483491897583e-01 -8.820953778922557831e-03 1.995012015104293823e-01 2.024388760328292847e-01 -2.639042958617210388e-02 1.958245933055877686e-01 -8.089067786931991577e-02 -5.755632743239402771e-02 7.786083221435546875e-02 -5.994170438498258591e-03 -8.306162804365158081e-02 6.541555374860763550e-02 -1.541386246681213379e-01 -1.455477476119995117e-01 -1.104374881833791733e-02 6.069196760654449463e-02 1.558128148317337036e-01 -1.271836459636688232e-01 6.888734549283981323e-02 1.454662829637527466e-01 2.166283577680587769e-01 8.419257402420043945e-02 -1.160905510187149048e-02 -6.501987110823392868e-03 1.744378805160522461e-01 2.030929028987884521e-01 -1.447401493787765503e-01 1.105425730347633362e-01 1.242492198944091797e-01 -1.388523578643798828e-01 3.973215073347091675e-02 -1.055146157741546631e-01 -1.056758761405944824e-01 5.576293915510177612e-02 8.220789581537246704e-02 1.115622115321457386e-03
-1.789072602987289429e-01 -1.350068002939224243e-01 1.286537498235702515e-01 8.904226124286651611e-02 -5.017000064253807068e-02 1.163159012794494629e-01 -1.396850775927305222e-02 1.402603983879089355e-01 -4.750547558069229126e-02 1.907676756381988525e-01 7.564626634120941162e-02 1.084226891398429871e-01 -7.690783590078353882e-02 -7.067212462425231934e-02 -6.073488388210535049e-03 1.011772900819778442e-01 -4.025200381875038147e-02 -1.619549393653869629e-01 -4.895070567727088928e-02 -2.553425356745719910e-02 8.272084407508373260e-03 -9.723550826311111450e-02 1.634932756423950195e-01 -4.391704685986042023e-03 1.196759641170501709e-01 7.417240738868713379e-02 -6.074064224958419800e-02 -1.006001085042953491e-01 -1.656294683925807476e-03 1.850796192884445190e-01 -1.011774167418479919e-01 5.460947751998901367e-02 -7.642636448144912720e-02 9.658612310886383057e-02 6.437926739454269409e-02 -1.218469114974141121e-03 1.977528631687164307e-01 6.052506342530250549e-02 1.034379471093416214e-02 -8.645767718553543091e-02 7.870318740606307983e-02 1.619126796722412109e-01 -1.258361339569091797e-01 1.642163842916488647e-01 -2.473188377916812897e-02 -9.813548624515533447e-02 7.617922127246856689e-02 1.519955247640609741e-01 5.318995192646980286e-02 1.075599044561386108e-01 1.473558992147445679e-01 7.302004098892211914e-02 3.222844004631042480e-02 -1.603234261274337769e-01 7.406411226838827133e-03 2.373052202165126801e-02 -1.764000654220581055e-01 -2.903559058904647827e-02 5.286072939634323120e-02 -7.773915678262710571e-02 -1.119727790355682373e-01 -9.694077819585800171e-02 6.983933597803115845e-02 -5.804285779595375061e-02
9.272024035453796387e-04 5.427415668964385986e-02 1.440618783235549927e-01 -5.806071311235427856e-02 -3.042357787489891052e-02 3.407259285449981689e-02 7.106096297502517700e-02 1.402547359466552734e-01 2.862439304590225220e-02 4.494505748152732849e-02 -7.411301136016845703e-02 -8.188821375370025635e-02 1.281681507825851440e-01 -3.708275407552719116e-02 -1.015040744096040726e-02 -1.183882802724838257e-01 1.523735970258712769e-01 3.172392025589942932e-02 -1.382135301828384399e-01 -4.778489843010902405e-02 -9.573119133710861206e-02 5.446179211139678955e-02 6.145100109279155731e-03 4.602869739755988121e-04 9.169974923133850098e-02 -3.577588126063346863e-02 -1.304663717746734619e-01 7.680821698158979416e-03 8.862069249153137207e-02 6.342288851737976074e-02 1.203478872776031494e-01 -1.212130412459373474e-01 8.016659319400787354e-02 -3.558470681309700012e-02 7.573449611663818359e-02 -6.927710771560668945e-02 1.490488052368164062e-01 1.079548522830009460e-01 -6.952465325593948364e-02 -1.767431758344173431e-02 3.500415757298469543e-02 -6.347241997718811035e-02 -1.337002366781234741e-01 -1.182961687445640564e-01 -4.441887140274047852e-02 6.042024865746498108e-02 -1.056729108095169067e-01 1.522081643342971802e-01 1.614938080310821533e-01 9.522079676389694214e-02 5.349895730614662170e-02 1.179643273353576660e-01 -1.201839521527290344e-01 -2.228397876024246216e-03 -5.541033670306205750e-02 -1.517077684402465820e-01 1.845717057585716248e-02 -1.718054264783859253e-01 1.073201894760131836e-01 -1.065419092774391174e-01 -5.847873911261558533e-02 6.457041949033737183e-02 1.141839250922203064e-01 -5.053779482841491699e-02
-1.018573064357042313e-02 1.651223152875900269e-01 1.496974378824234009e-01 1.197795718908309937e-01 9.641332924365997314e-02 6.233054026961326599e-02 6.510377675294876099e-02 3.706403076648712158e-02 -9.210465103387832642e-02 -9.681430459022521973e-02 -1.144275963306427002e-01 1.108441948890686035e-01 1.668387204408645630e-01 1.194688454270362854e-01 5.679885856807231903e-03 1.687673181295394897e-01 1.003765985369682312e-01 2.113182470202445984e-02 -1.047761142253875732e-01 7.260771095752716064e-02 4.356795176863670349e-02 4.025261104106903076e-02 5.247656255960464478e-02 8.013070374727249146e-02 2.290167510509490967e-01 2.643216215074062347e-02 6.185341998934745789e-02 -3.067406639456748962e-02 1.314316689968109131e-01 -1.194853894412517548e-02 5.104891955852508545e-02 -5.975296348333358765e-02 7.783909142017364502e-02 1.361347585916519165e-01 -7.623351365327835083e-02 -7.598543167114257812e-02 -9.067900478839874268e-02 1.325536519289016724e-01 4.252781346440315247e-02 -8.398285508155822754e-02 6.422852724790573120e-02 1.441249274648725986e-03 -2.601556479930877686e-02 -7.657123357057571411e-02 6.507621705532073975e-02 2.829983457922935486e-02 3.643520921468734741e-02 -6.596660614013671875e-02 -7.495737820863723755e-02 1.635656058788299561e-01 -5.766434967517852783e-02 1.594823412597179413e-02 -5.155050661414861679e-03 -1.764351725578308105e-01 -2.138659544289112091e-02 4.026417154818773270e-03 -7.572153117507696152e-03 1.526807248592376709e-02 -6.299965083599090576e-02 -4.503257200121879578e-02 1.266993954777717590e-02 -1.106956452131271362e-01 1.205470263957977295e-01 6.894617527723312378e-02
3.774680197238922119e-02 -1.398060619831085205e-01 -3.554397495463490486e-03 -3.308262303471565247e-02 -2.673111297190189362e-02 -2.930103073595091701e-05 2.319748103618621826e-01 -1.413651555776596069e-01 -2.519158646464347839e-02 -3.009727597236633301e-02 -5.896056815981864929e-02 1.741049736738204956e-01 -5.872509256005287170e-02 5.453323479741811752e-03 9.647554159164428711e-02 3.707536682486534119e-02 -1.077467277646064758e-01 4.927117004990577698e-02 -6.172981113195419312e-02 5.327477306127548218e-02 2.134114652872085571e-01 -1.986893359571695328e-03 -7.444525510072708130e-02 1.259558945894241333e-01 -1.312298923730850220e-01 1.878758668899536133e-01 -1.684290543198585510e-02 1.775098592042922974e-01 -1.255967617034912109e-01 2.926968969404697418e-02 -7.654862850904464722e-02 6.594266742467880249e-02 2.200361154973506927e-02 -1.885911971330642700e-01 7.226693630218505859e-02 5.536868050694465637e-02 -1.700255423784255981e-01 -1.040230691432952881e-01 5.764856934547424316e-02 2.073184028267860413e-02 1.188403517007827759e-01 1.562505811452865601e-01 1.816713996231555939e-02 6.071014702320098877e-02 -5.503001809120178223e-02 2.951240539550781250e-02 3.072076849639415741e-02 -1.898739039897918701e-01 -1.585961133241653442e-02 1.285894587635993958e-02 -2.384525956586003304e-03 5.524056777358055115e-02 7.002568244934082031e-02 -7.092101499438285828e-03 -5.623327568173408508e-02 -1.435904204845428467e-01 3.918869886547327042e-03 1.337002068758010864e-01 -7.798482477664947510e-02 3.050483763217926025e-03 1.828091889619827271e-01 1.217840984463691711e-01 2.719848044216632843e-02 3.428456187248229980e-02
-5.408717319369316101e-02 -8.810441941022872925e-02 -8.087948709726333618e-02 -5.146621167659759521e-02 6.983166560530662537e-03 -2.594630979001522064e-02 1.730337291955947876e-01 1.470980346202850342e-01 1.993352174758911133e-02 -1.191432029008865356e-01 1.436029523611068726e-01 -2.417475357651710510e-02 4.845026135444641113e-02 5.041721835732460022e-02 4.024307429790496826e-02 -7.821957767009735107e-02 -6.078187003731727600e-02 -4.319985862821340561e-03 1.718869805335998535e-01 5.148772150278091431e-02 8.336405456066131592e-02 -1.711720228195190430e-02 -9.934747219085693359e-02 9.162729233503341675e-02 -4.666784405708312988e-02 1.070435866713523865e-01 -5.504642054438591003e-02 -1.543063223361968994e-01 -1.357143968343734741e-01 -1.193475127220153809e-01 -1.039927452802658081e-01 -1.135064586997032166e-01 -2.576449699699878693e-02 -4.820741340517997742e-02 1.930570043623447418e-02 -1.632492542266845703e-01 5.122412741184234619e-02 -2.333687618374824524e-02 -1.599142700433731079e-02 4.582392051815986633e-02 -7.102401554584503174e-02 5.437685921788215637e-02 8.013658970594406128e-02 -9.423054009675979614e-02 -5.671213939785957336e-02 -7.071070373058319092e-02 8.705703169107437134e-02 5.406856909394264221e-02 7.224792242050170898e-02 -7.439977675676345825e-02 1.387579590082168579e-01 -6.085085868835449219e-02 1.329913586378097534e-01 -6.938844174146652222e-02 -2.121143788099288940e-02 -3.894202783703804016e-02 -6.654976308345794678e-02 2.575370855629444122e-02 -5.385114997625350952e-02 3.378664702177047729e-02 6.475370842963457108e-03 1.057067513465881348e-01 -1.475207954645156860e-01 6.127502024173736572e-02
2.129755616188049316e-01 3.120890818536281586e-02 -1.690348237752914429e-01 1.881000585854053497e-02 -1.609970331192016602e-01 2.139357477426528931e-02 -1.305748429149389267e-02 7.709624618291854858e-02 -1.072917357087135315e-01 -7.804297655820846558e-02 -8.401015400886535645e-02 1.298231333494186401e-01 -1.603018790483474731e-01 9.913222864270210266e-03 -1.075981855392456055e-01 1.202856600284576416e-01 3.456928953528404236e-02 2.022718777880072594e-03 6.702547520399093628e-02 1.236824840307235718e-01 -9.069070219993591309e-02 7.630294561386108398e-02 -8.414643257856369019e-02 1.712721288204193115e-01 7.933210581541061401e-02 3.934402391314506531e-02 1.020651459693908691e-01 1.198390796780586243e-01 -5.466262996196746826e-02 1.041784882545471191e-01 -1.271882057189941406e-01 -4.990268498659133911e-02 8.079616725444793701e-02 3.753222525119781494e-02 -6.123690679669380188e-02 8.310742676258087158e-02 -1.163583248853683472e-01 -1.729909889400005341e-02 3.006994165480136871e-02 -6.354900449514389038e-02 -5.384298413991928101e-02 9.249489754438400269e-03 -9.284687042236328125e-02 -1.127517223358154297e-01 6.786552816629409790e-02 6.033288314938545227e-03 -1.964208036661148071e-01 -1.595868021249771118e-01 -7.847221195697784424e-02 -3.033905476331710815e-02 4.892031848430633545e-02 -6.720413267612457275e-02 1.424409598112106323e-01 3.584692254662513733e-02 -3.442293778061866760e-02 1.714667826890945435e-01 -5.081745237112045288e-02 -7.121875882148742676e-02 -8.610472083091735840e-02 1.421749293804168701e-01 3.841507062315940857e-02 4.817588627338409424e-02 9.355657547712326050e-02 -1.119291037321090698e-01
2.801490575075149536e-02 3.406143561005592346e-02 -7.747278362512588501e-02 -1.274710297584533691e-01 5.087097734212875366e-02 1.134125329554080963e-02 -1.287697697989642620e-03 -7.097045332193374634e-02 4.610304534435272217e-02 -2.527780830860137939e-02 9.368016570806503296e-02 -3.638671338558197021e-02 -3.283872827887535095e-02 -1.377303302288055420e-01 9.744627773761749268e-02 1.016849279403686523e-01 1.366623491048812866e-01 1.335078179836273193e-01 9.884475171566009521e-02 8.786980062723159790e-02 -6.004603579640388489e-02 3.431074693799018860e-02 1.239867415279150009e-02 -5.742457881569862366e-02 1.293653100728988647e-01 1.469700187444686890e-01 1.278481483459472656e-01 1.039192080497741699e-01 -1.414157170802354813e-02 2.019460499286651611e-01 -2.038256078958511353e-01 -3.432116284966468811e-02 8.010385185480117798e-02 -4.043259471654891968e-02 -8.007528632879257202e-02 2.988181542605161667e-03 1.856037229299545288e-01 5.546437203884124756e-02 7.368369400501251221e-02 -4.621040821075439453e-02 1.157137975096702576e-01 -3.109236247837543488e-02 -7.764977961778640747e-02 -2.441301569342613220e-02 1.705501824617385864e-01 8.454066701233386993e-03 8.700405806303024292e-02 4.885134473443031311e-02 -1.184591278433799744e-01 -1.187507286667823792e-01 -8.876461535692214966e-02 -7.687200792133808136e-03 -8.174023032188415527e-02 -1.452672630548477173e-01 1.086779534816741943e-01 9.924487024545669556e-02 1.031835079193115234e-01 1.196554303169250488e-01 -4.246571287512779236e-02 4.039695858955383301e-02 1.221926957368850708e-01 1.438617240637540817e-02 -1.222292184829711914e-01 -1.503889858722686768e-01
-1.016456186771392822e-01 5.654803663492202759e-02 -4.829529672861099243e-03 -6.830967962741851807e-03 2.316990122199058533e-02 9.319832175970077515e-02 9.121274948120117188e-02 4.379978030920028687e-02 7.707113027572631836e-02 2.626054733991622925e-02 8.640640228986740112e-02 2.183631528168916702e-03 -6.773394532501697540e-03 -5.894488468766212463e-02 -2.177300304174423218e-02 1.899073421955108643e-01 -1.316515356302261353e-01 1.059079840779304504e-01 6.578207481652498245e-03 7.347698509693145752e-02 1.427378058433532715e-01 -1.625284850597381592e-01 -6.121680140495300293e-02 1.069870814681053162e-01 -1.679339446127414703e-02 1.182850673794746399e-01 1.365581899881362915e-01 -1.142432391643524170e-01 5.191749334335327148e-02 -8.736579120159149170e-02 6.271299719810485840e-02 3.401264175772666931e-02 1.348831038922071457e-02 1.996232271194458008e-01 7.021061331033706665e-02 -1.684989631175994873e-01 1.063216626644134521e-01 -1.063254475593566895e-02 -7.394510507583618164e-02 1.106050238013267517e-01 2.845169510692358017e-03 6.531216949224472046e-02 -6.313185393810272217e-02 5.486551299691200256e-02 1.176881939172744751e-01 1.895476430654525757e-01 9.072694182395935059e-02 -2.217970229685306549e-02 8.265808224678039551e-02 -1.761346459388732910e-01 7.855170965194702148e-02 1.340866386890411377e-01 -4.572587832808494568e-02 -9.260299801826477051e-02 5.829742178320884705e-03 -7.801520824432373047e-02 2.213739901781082153e-01 -2.200623042881488800e-02 3.079179301857948303e-02 9.912038594484329224e-02 -1.397377997636795044e-01 -1.159654781222343445e-01 1.621160097420215607e-02 -1.568299904465675354e-02
-6.034006364643573761e-04 4.597076773643493652e-02 -1.665425486862659454e-02 -7.095415145158767700e-02 -1.146470904350280762e-01 -5.545943975448608398e-02 -7.210989296436309814e-02 1.062759757041931152e-01 1.164567098021507263e-01 1.729039400815963745e-01 -9.817640483379364014e-02 1.395083814859390259e-01 -4.697642475366592407e-02 6.246676295995712280e-02 -1.555863171815872192e-01 1.057481840252876282e-01 3.993373736739158630e-02 -5.390433594584465027e-02 -1.247784122824668884e-01 -7.085304241627454758e-03 -6.912182271480560303e-02 7.439745962619781494e-02 1.347456425428390503e-01 2.447768114507198334e-02 -1.206391304731369019e-01 8.517792448401451111e-03 -1.366655379533767700e-01 1.033430993556976318e-01 -7.246004883199930191e-03 1.279137283563613892e-01 4.555073752999305725e-02 3.786346316337585449e-02 7.613324373960494995e-02 -1.135392040014266968e-01 2.452354133129119873e-02 2.074957191944122314e-01 6.885483860969543457e-02 1.247124597430229187e-01 -9.328753687441349030e-03 -7.524230331182479858e-02 -8.638758957386016846e-02 -5.130165815353393555e-02 6.952777504920959473e-03 1.225163787603378296e-01 6.631804257631301880e-02 -1.523065865039825439e-01 8.728565275669097900e-02 5.053731426596641541e-02 1.438761353492736816e-01 1.394720375537872314e-01 -7.738966494798660278e-02 -9.557998180389404297e-02 6.087863445281982422e-02 -1.047261580824851990e-01 -1.393379867076873779e-01 2.671435475349426270e-02 6.320772692561149597e-03 4.936923831701278687e-02 -4.368203133344650269e-02 7.927400991320610046e-03 1.751514673233032227e-01 -1.136765778064727783e-01 1.645951271057128906e-01 1.161527726799249649e-02
4.613196104764938354e-02 1.585649996995925903e-01 1.712129414081573486e-01 2.107623266056180000e-03 4.561310634016990662e-03 -1.005647033452987671e-01 7.555999793112277985e-03 5.508686229586601257e-02 -2.620784007012844086e-02 -1.507230997085571289e-01 -9.442654997110366821e-02 9.456422179937362671e-02 2.169572710990905762e-01 9.933721274137496948e-02 -1.908471137285232544e-01 1.082580462098121643e-01 -1.543873399496078491e-01 2.196215465664863586e-02 1.500091142952442169e-02 -1.743069738149642944e-01 9.907931089401245117e-02 7.812972366809844971e-02 -3.356985375285148621e-02 1.054587736725807190e-01 1.575223505496978760e-01 1.185720711946487427e-01 1.362230861559510231e-03 -2.632771991193294525e-02 -1.154648363590240479e-01 -4.369118809700012207e-02 7.516881078481674194e-02 6.884805113077163696e-02 6.869947165250778198e-02 2.333808317780494690e-02 -1.165915094316005707e-02 -7.777290046215057373e-02 1.930384486913681030e-01 2.423829957842826843e-02 4.529703035950660706e-02 -4.268229007720947266e-02 2.231787592172622681e-01 -1.924462169408798218e-01 4.721996188163757324e-02 2.334121763706207275e-01 2.394720911979675293e-01 2.089358307421207428e-02 6.807073205709457397e-02 6.497902423143386841e-02 8.379971235990524292e-02 -1.298159807920455933e-01 -1.894437819719314575e-01 1.678240597248077393e-01 -6.890720129013061523e-02 2.894093981012701988e-03 -1.240092366933822632e-01 -2.045845836400985718e-01 -9.922164678573608398e-02 -9.542098641395568848e-02 -1.264657229185104370e-01 -1.656732410192489624e-01 2.284154295921325684e-02 -1.634856909513473511e-01 8.247648924589157104e-02 -6.147057563066482544e-02
2.146479487419128418e-01 5.549402907490730286e-02 -7.174756377935409546e-02 -7.274433225393295288e-02 -8.194670081138610840e-02 2.010087966918945312e-01 1.518580019474029541e-01 1.720812767744064331e-01 -1.221007481217384338e-01 -4.914093762636184692e-02 2.386548928916454315e-02 8.828207850456237793e-02 1.979783410206437111e-03 1.249615661799907684e-02 -1.408648639917373657e-01 1.850899755954742432e-01 -8.624893426895141602e-02 1.512379646301269531e-01 1.094949916005134583e-01 -2.101078629493713379e-02 -7.745189592242240906e-03 3.723418340086936951e-02 2.820322848856449127e-02 -1.877778908237814903e-03 -1.951827853918075562e-01 7.463943213224411011e-02 1.611822247505187988e-01 -1.103396862745285034e-01 5.662444233894348145e-02 1.028978452086448669e-01 -7.361285388469696045e-02 -1.389556527137756348e-01 -5.223387852311134338e-02 -1.497030556201934814e-01 -7.341486215591430664e-02 2.442462183535099030e-02 -2.497149165719747543e-03 1.832824759185314178e-02 4.800777882337570190e-02 1.326415105722844601e-03 4.750649631023406982e-02 -3.872532397508621216e-02 -8.874326944351196289e-02 -8.239683508872985840e-02 1.325690746307373047e-01 2.352821081876754761e-01 1.208820641040802002e-01 6.722676008939743042e-02 6.361281126737594604e-02 1.039949283003807068e-01 -1.285376250743865967e-01 2.562998421490192413e-02 -1.454943232238292694e-02 1.159608084708452225e-02 -6.957629229873418808e-03 2.746291458606719971e-02 3.471643477678298950e-02 6.821587681770324707e-02 -7.163676619529724121e-02 8.159712702035903931e-02 -1.218361896462738514e-03 -1.639489382505416870e-01 -1.319756507873535156e-01 1.412013769149780273e-01
1.455796062946319580e-01 -5.194412171840667725e-02 9.685268625617027283e-03 4.482815787196159363e-02 -1.176014393568038940e-01 -3.519485145807266235e-02 -4.035608842968940735e-02 2.517238259315490723e-03 8.269653469324111938e-02 1.474348604679107666e-01 -6.014809384942054749e-02 5.244861915707588196e-02 -1.163240149617195129e-01 1.039741560816764832e-01 -3.682629764080047607e-02 1.706503480672836304e-01 2.822683565318584442e-02 1.902296580374240875e-02 -1.098995506763458252e-01 1.084560975432395935e-01 7.882886379957199097e-02 1.538154333829879761e-01 -2.186887338757514954e-02 -6.445589661598205566e-02 7.165020704269409180e-02 3.114180825650691986e-02 -5.888035893440246582e-02 -7.003056257963180542e-02 9.770614653825759888e-02 9.220716357231140137e-02 -7.872238755226135254e-02 1.674055159091949463e-01 1.063065826892852783e-01 1.562036871910095215e-01 -1.349654495716094971e-01 -8.544655144214630127e-02 8.868727833032608032e-02 2.515334635972976685e-02 2.070532739162445068e-02 1.226950660347938538e-01 1.712672412395477295e-02 1.410425268113613129e-02 -1.145276613533496857e-02 8.078213781118392944e-02 -1.559974905103445053e-02 -1.004754453897476196e-01 1.195570304989814758e-01 7.006224989891052246e-02 -6.686728447675704956e-02 6.190256774425506592e-02 -7.322429120540618896e-02 5.154203996062278748e-02 -4.743662104010581970e-02 -3.456105291843414307e-02 -9.073051810264587402e-02 -8.236323297023773193e-02 3.280441742390394211e-03 3.408136218786239624e-02 1.183319743722677231e-02 9.555950760841369629e-02 -8.252384513616561890e-02 -8.918301202356815338e-03 1.304145343601703644e-02 -4.921019077301025391e-02
-5.455608665943145752e-02 3.590917587280273438e-02 3.071983717381954193e-02 -1.036638990044593811e-01 -4.437556490302085876e-02 1.572266221046447754e-01 -1.657323539257049561e-02 3.208861500024795532e-02 -1.746740341186523438e-01 8.577251434326171875e-02 -1.216071024537086487e-01 2.400907874107360840e-02 1.558955013751983643e-01 -4.251176118850708008e-02 6.671641767024993896e-02 1.364468876272439957e-02 2.847002353519201279e-03 -1.451535522937774658e-01 -1.599285751581192017e-01 -7.194310426712036133e-02 5.018870811909437180e-03 -1.075030192732810974e-01 1.524426881223917007e-02 -1.282893121242523193e-01 5.617645103484392166e-03 -1.838634721934795380e-02 -1.227143108844757080e-01 -1.374439522624015808e-02 -9.959668666124343872e-02 -1.147693246603012085e-01 -1.593922227621078491e-01 -1.367975324392318726e-01 -3.896753862500190735e-02 -1.563803106546401978e-01 -4.586741328239440918e-02 5.696043372154235840e-02 -5.829802528023719788e-02 9.096603840589523315e-02 1.210893318057060242e-01 -9.249463677406311035e-02 4.387657390907406807e-04 7.496425509452819824e-02 1.313719451427459717e-01 1.334753334522247314e-01 -1.411785185337066650e-01 -2.929211407899856567e-02 1.662665009498596191e-01 1.327882558107376099e-01 -1.198899522423744202e-01 -1.241966933012008667e-01 -1.383530795574188232e-01 -9.785302728414535522e-02 -8.135291188955307007e-02 7.597794383764266968e-02 1.103246212005615234e-01 5.489927530288696289e-02 -3.561356663703918457e-02 3.722036024555563927e-03 -6.608579307794570923e-02 5.322295799851417542e-02 4.928913339972496033e-02 -8.461166173219680786e-02 1.622394844889640808e-02 -1.438418775796890259e-02
9.463667869567871094e-02 -1.797959357500076294e-01 -6.490341573953628540e-02 -4.458567872643470764e-02 8.101498335599899292e-02 -1.561124026775360107e-01 2.255558669567108154e-01 -8.635162562131881714e-02 1.387998610734939575e-01 5.805615801364183426e-03 -5.105904303491115570e-03 3.963318094611167908e-02 1.791583150625228882e-01 -7.241502404212951660e-02 -8.695203810930252075e-02 3.843653574585914612e-02 2.657735347747802734e-02 -2.075061053037643433e-01 1.053845509886741638e-02 -1.690739691257476807e-01 1.797080487012863159e-01 1.364312618970870972e-01 -3.231756389141082764e-02 -9.523123502731323242e-02 -1.552642229944467545e-02 1.408227831125259399e-01 -1.062527894973754883e-01 9.908014535903930664e-02 3.390071541070938110e-02 -9.949886798858642578e-02 -1.821557804942131042e-02 -8.366645872592926025e-02 -4.022623971104621887e-02 -2.721141092479228973e-02 6.199253723025321960e-02 6.980505585670471191e-02 4.154046997427940369e-02 9.533505886793136597e-02 -6.967411190271377563e-02 -8.620979264378547668e-03 1.487732231616973877e-01 -1.341858953237533569e-01 1.378099769353866577e-01 3.540002927184104919e-02 1.697921194136142731e-02 -4.280491173267364502e-02 1.415173429995775223e-02 -5.727530643343925476e-02 1.156259700655937195e-01 -1.465597748756408691e-01 1.298257857561111450e-01 -3.991225361824035645e-02 -7.947241514921188354e-02 5.851643532514572144e-02 1.686691492795944214e-01 -6.332165002822875977e-02 -7.509693503379821777e-02 1.315929740667343140e-01 7.714138925075531006e-02 -1.438420359045267105e-02 -2.261427044868469238e-02 -5.853970348834991455e-02 3.029899299144744873e-02 9.548202902078628540e-02
6.010463461279869080e-02 9.307094663381576538e-02 -1.495390385389328003e-01 -3.833646327257156372e-02 -8.835618942975997925e-02 2.531620115041732788e-02 6.870090216398239136e-02 -1.509856432676315308e-02 1.715290546417236328e-01 8.021421730518341064e-02 5.296256020665168762e-02 1.955324262380599976e-01 3.583664074540138245e-02 -6.253468245267868042e-02 -9.639777243137359619e-02 -7.768524345010519028e-03 2.235460467636585236e-02 -2.763195894658565521e-02 6.988389790058135986e-02 -8.324421942234039307e-02 8.842760324478149414e-02 -4.522139951586723328e-02 6.723298225551843643e-03 1.040381863713264465e-01 -1.237363144755363464e-01 -7.914050482213497162e-03 -4.915984719991683960e-02 -1.126721575856208801e-01 8.919858932495117188e-02 5.057194083929061890e-02 -4.659633338451385498e-02 -1.187484711408615112e-01 7.538368459790945053e-03 -3.146217018365859985e-02 -8.901710680220276117e-05 1.545985229313373566e-02 8.120772987604141235e-02 -9.534908086061477661e-02 -2.963706478476524353e-02 7.868584245443344116e-03 2.218859195709228516e-01 4.252887889742851257e-02 -3.082749390159733593e-05 2.237910777330398560e-02 5.935178324580192566e-02 -4.643550142645835876e-03 1.246213465929031372e-01 -1.221907809376716614e-01 8.909731358289718628e-02 -1.273174285888671875e-01 -1.109708938747644424e-02 9.248594939708709717e-02 -1.419792175292968750e-01 1.855790615081787109e-01 -2.939084172248840332e-02 -1.157366409897804260e-01 -1.271920651197433472e-01 -3.152264282107353210e-02 -8.116569370031356812e-02 -1.263015903532505035e-03 1.600630581378936768e-01 2.156947925686836243e-02 7.862687110900878906e-02 1.121949031949043274e-02
4.431145265698432922e-02 -1.235093399882316589e-01 2.179421782493591309e-01 1.366114616394042969e-02 5.292411893606185913e-02 3.453997150063514709e-02 -1.194747835397720337e-01 -2.025259658694267273e-02 1.281247884035110474e-01 -3.633044287562370300e-02 6.817554682493209839e-02 9.316740185022354126e-02 1.169699504971504211e-01 3.868832066655158997e-02 1.458256691694259644e-01 1.588823646306991577e-01 4.830570146441459656e-02 6.654959917068481445e-02 1.012667641043663025e-01 1.779305338859558105e-01 -3.613827377557754517e-02 1.261775195598602295e-01 -2.122482284903526306e-02 -3.364099934697151184e-02 -1.209307760000228882e-01 -1.483539193868637085e-01 -1.235356777906417847e-01 1.686808168888092041e-01 -1.793868280947208405e-02 1.737918853759765625e-01 6.375806033611297607e-02 4.548868164420127869e-02 9.730499982833862305e-02 -6.942000240087509155e-02 1.690660715103149414e-01 1.083664149045944214e-01 -2.833650819957256317e-02 1.720249950885772705e-01 -7.355389744043350220e-02 -1.225870698690414429e-01 6.241930183023214340e-03 9.030990302562713623e-02 -1.665545850992202759e-01 1.494908034801483154e-01 -1.490228325128555298e-01 6.280051916837692261e-02 -2.623363025486469269e-02 5.046968162059783936e-02 1.579123549163341522e-02 -1.463130954653024673e-02 1.114360392093658447e-01 -9.703891724348068237e-02 -7.652439922094345093e-02 -1.369920074939727783e-01 -3.422427922487258911e-02 -6.107869371771812439e-02 1.151744276285171509e-01 1.354460865259170532e-01 2.243360318243503571e-02 2.007582923397421837e-03 -1.190287917852401733e-01 8.258572220802307129e-02 1.118336915969848633e-01 6.812240928411483765e-02
1.203188747167587280e-01 1.080772578716278076e-01 -2.037720941007137299e-02 -1.945621147751808167e-02 -1.438833773136138916e-01 -4.713178495876491070e-04 -8.651486784219741821e-02 -1.554163545370101929e-01 -1.453884690999984741e-01 -6.927150487899780273e-02 -6.069780886173248291e-02 2.277650125324726105e-02 3.447861224412918091e-02 1.884242445230484009e-01 8.430464565753936768e-02 -6.218360364437103271e-02 -2.705522067844867706e-02 9.069560468196868896e-02 6.072951853275299072e-02 6.160178408026695251e-02 -1.378063708543777466e-01 5.661718081682920456e-03 -5.199484899640083313e-02 5.955281108617782593e-02 7.616535574197769165e-02 4.608716815710067749e-02 -1.664852052927017212e-01 1.234738007187843323e-01 1.588843762874603271e-01 3.463006019592285156e-02 6.641131639480590820e-02 -1.958104409277439117e-02 6.394338607788085938e-02 -6.707662343978881836e-02 -1.344034522771835327e-01 2.154472051188349724e-03 7.662806659936904907e-02 -1.190096512436866760e-02 1.476835310459136963e-01 3.235360234975814819e-02 -1.315008550882339478e-01 1.633303463459014893e-01 6.590854376554489136e-02 1.374827027320861816e-01 -3.809797391295433044e-02 -7.287906855344772339e-02 -1.354357451200485229e-01 -1.536438316106796265e-01 -4.516629129648208618e-02 1.384710818529129028e-01 -2.904716180637478828e-03 1.068818569183349609e-01 -3.235129639506340027e-02 -8.494952321052551270e-02 1.467344015836715698e-01 1.064405590295791626e-01 -8.138585835695266724e-02 -5.922247841954231262e-02 1.572106406092643738e-02 -5.273163691163063049e-02 1.860445830971002579e-03 4.438732191920280457e-02 1.060588806867599487e-01 2.540310285985469818e-02
1.158058643341064453e-01 8.746155351400375366e-02 1.108270287513732910e-01 -1.225049123167991638e-01 -4.522836301475763321e-03 9.400915354490280151e-03 1.541094630956649780e-01 -4.494702443480491638e-02 7.700414955615997314e-02 -8.726000785827636719e-02 -1.078729182481765747e-01 -5.749735981225967407e-02 8.751081675291061401e-02 1.351062655448913574e-01 4.137069731950759888e-02 7.671447843313217163e-02 -7.065524905920028687e-02 4.472141340374946594e-02 8.264841139316558838e-02 -6.852951645851135254e-02 1.082293987274169922e-01 1.237586885690689087e-01 -3.766946494579315186e-02 1.157341822981834412e-01 -2.432231232523918152e-02 -6.270793825387954712e-02 1.102350354194641113e-01 1.686041653156280518e-01 7.842119038105010986e-02 2.075411938130855560e-02 -5.588620156049728394e-02 5.261351913213729858e-02 4.992036148905754089e-02 1.443953961133956909e-01 8.600553125143051147e-02 3.248192742466926575e-02 -7.780859619379043579e-02 -7.215088233351707458e-03 -9.345912933349609375e-02 -9.421528130769729614e-02 1.800684481859207153e-01 1.669691205024719238e-01 -2.938435599207878113e-02 -9.291796595789492130e-04 -1.260486338287591934e-02 4.466935247182846069e-02 8.334852010011672974e-02 1.774850068613886833e-03 7.980154454708099365e-02 6.052923575043678284e-02 -8.687300235033035278e-02 1.473559290170669556e-01 -9.281416237354278564e-02 1.152829602360725403e-01 -4.807288944721221924e-02 -2.134394133463501930e-03 5.882750451564788818e-02 7.787743955850601196e-02 8.785885758697986603e-03 -3.974671289324760437e-02 2.076710462570190430e-01 -1.203636750578880310e-01 1.549063771963119507e-01 5.883883684873580933e-02
-2.068012254312634468e-03 -8.039610460400581360e-03 4.803827404975891113e-02 4.044102132320404053e-02 1.804974228143692017e-01 2.124873846769332886e-01 -1.087396964430809021e-01 -1.082505658268928528e-01 -3.104916773736476898e-03 7.513120025396347046e-02 2.902563102543354034e-02 1.441508084535598755e-01 -1.041882634162902832e-01 -1.930518262088298798e-02 -1.057869195938110352e-02 -5.348258838057518005e-02 -7.312891632318496704e-02 -6.929885596036911011e-02 8.908832818269729614e-02 9.058639407157897949e-02 9.806072711944580078e-02 -2.880461327731609344e-02 -2.410420775413513184e-02 8.531191200017929077e-02 1.597546599805355072e-02 4.913314245641231537e-03 -1.756744273006916046e-02 1.931275576353073120e-01 1.664645224809646606e-01 -8.140298724174499512e-02 -1.665840148925781250e-01 -7.178836315870285034e-02 -2.775938808917999268e-02 -7.860825397074222565e-03 1.050731241703033447e-01 -1.541979014873504639e-01 5.212726444005966187e-02 -1.383737381547689438e-02 -7.135888934135437012e-02 6.227558106184005737e-02 1.768746823072433472e-01 -8.503092080354690552e-02 -5.025692656636238098e-02 -4.952088743448257446e-02 -4.810980707406997681e-02 -1.014635786414146423e-01 -6.075947312638163567e-04 -1.018040776252746582e-01 -7.462544832378625870e-03 3.458382189273834229e-02 -7.759609073400497437e-02 -6.484413892030715942e-02 1.131983101367950439e-01 1.582722961902618408e-01 1.177174448966979980e-01 -4.939441103488206863e-03 -5.383419990539550781e-02 7.777810841798782349e-02 -1.209942437708377838e-02 6.481286138296127319e-02 1.491867005825042725e-01 -1.586207747459411621e-01 -5.546900257468223572e-02 -3.217953443527221680e-02
6.593682616949081421e-02 1.039416640996932983e-01 3.214866667985916138e-02 -6.282857805490493774e-02 -1.341194957494735718e-01 6.006097793579101562e-02 -1.129892319440841675e-01 -3.406881820410490036e-03 -4.031320288777351379e-02 9.483353048563003540e-02 1.596969068050384521e-01 -1.998562961816787720e-01 -1.421896070241928101e-01 1.067788600921630859e-01 1.064288765192031860e-01 2.139053046703338623e-01 -3.703452646732330322e-02 5.508666858077049255e-03 2.353767678141593933e-02 2.038242816925048828e-01 -1.422347407788038254e-02 -4.217571392655372620e-02 9.768888354301452637e-02 7.814116775989532471e-02 -6.000884249806404114e-02 -1.573833823204040527e-01 1.578165739774703979e-01 -6.507647037506103516e-02 -2.070396021008491516e-02 1.092963367700576782e-01 -5.078812316060066223e-02 1.084988117218017578e-01 6.198266148567199707e-02 -3.309983760118484497e-02 -6.564971804618835449e-02 -1.285915076732635498e-01 9.166503697633743286e-02 -5.300236493349075317e-02 -7.997789233922958374e-02 -9.532166272401809692e-02 -1.531583908945322037e-02 -2.654566988348960876e-02 1.256943400949239731e-02 -5.450556520372629166e-03 -3.090709820389747620e-02 6.586405634880065918e-02 -7.047370821237564087e-02 1.471627801656723022e-01 6.320019811391830444e-02 1.955057308077812195e-02 1.557587385177612305e-01 -4.814187064766883850e-03 7.265791296958923340e-02 1.923589594662189484e-02 1.253032088279724121e-01 1.098579913377761841e-01 -2.852152474224567413e-02 2.465456724166870117e-01 1.433537006378173828e-01 4.935592040419578552e-02 -6.460947543382644653e-02 -2.738115377724170685e-03 -1.959756612777709961e-01 1.651513725519180298e-01
-2.690247073769569397e-02 -5.795849114656448364e-02 1.544559001922607422e-01 1.163693144917488098e-01 2.130430489778518677e-01 -3.991875424981117249e-02 -2.249393053352832794e-02 7.393939793109893799e-02 -7.660581171512603760e-02 -8.168943226337432861e-02 2.267910353839397430e-02 1.086023300886154175e-01 5.589636042714118958e-02 -1.200394779443740845e-01 -1.581927947700023651e-02 2.457980252802371979e-02 -1.239892765879631042e-01 -1.726395636796951294e-01 -1.348567605018615723e-01 8.134592324495315552e-02 -1.686681509017944336e-01 -1.560987383127212524e-01 5.704688653349876404e-02 -2.297924160957336426e-01 -2.004851587116718292e-02 -1.308128833770751953e-01 -2.224306166172027588e-01 -2.471731975674629211e-02 -7.701121270656585693e-02 8.519358187913894653e-02 -1.982616633176803589e-02 1.052210330963134766e-01 -4.208368435502052307e-02 1.458784490823745728e-01 -3.019863739609718323e-02 9.385883063077926636e-02 1.444665938615798950e-01 9.919930994510650635e-02 -7.086148113012313843e-02 2.789673395454883575e-02 3.121103718876838684e-02 9.401930868625640869e-02 -3.367893025279045105e-02 -5.909179802983999252e-03 3.433471545577049255e-02 -1.444734185934066772e-01 1.050397604703903198e-01 2.363399118185043335e-01 2.213686406612396240e-01 5.828383937478065491e-02 -1.036884412169456482e-01 6.745862960815429688e-02 -3.672310383990406990e-03 -2.760001644492149353e-02 3.338447585701942444e-02 -4.800708964467048645e-02 -1.531563997268676758e-01 -1.935821473598480225e-01 7.146653532981872559e-02 1.223032101988792419e-01 -9.487393498420715332e-02 7.073361426591873169e-02 1.354559510946273804e-01 -2.088426500558853149e-01
-1.228596121072769165e-01 -9.354345500469207764e-02 3.335897997021675110e-02 1.310717314481735229e-01 -7.623669505119323730e-02 1.372611820697784424e-01 7.630211114883422852e-02 -1.140080094337463379e-01 1.673733144998550415e-01 -1.334391683340072632e-01 -8.882722258567810059e-02 -6.691785156726837158e-02 1.178809534758329391e-02 -1.499733626842498779e-01 -1.383128464221954346e-01 1.628910303115844727e-01 1.088562905788421631e-01 3.595712408423423767e-02 -5.372111499309539795e-02 3.697077184915542603e-02 -5.906961113214492798e-02 -1.318093687295913696e-01 8.573565632104873657e-02 2.178077027201652527e-02 -1.621154099702835083e-01 5.423729121685028076e-02 1.553599834442138672e-01 -5.352294445037841797e-02 -3.789005428552627563e-02 1.049129441380500793e-01 1.144358888268470764e-01 -7.120963186025619507e-02 -3.567223250865936279e-02 8.143428713083267212e-02 -1.486768871545791626e-01 -6.104343757033348083e-02 -2.853423357009887695e-02 3.071622177958488464e-02 1.178410798311233521e-01 -3.700941428542137146e-02 1.463305801153182983e-01 -4.335499927401542664e-02 -1.123322173953056335e-01 1.481281779706478119e-02 -8.440946042537689209e-02 -6.270118057727813721e-02 1.226650997996330261e-01 -1.018398478627204895e-01 -2.147907856851816177e-03 6.726155430078506470e-02 1.387238851748406887e-03 7.078229635953903198e-02 -2.761378698050975800e-02 -2.170772990211844444e-03 -1.261206865310668945e-01 -1.476705968379974365e-01 3.215989470481872559e-02 1.546191871166229248e-01 1.039280667901039124e-01 -7.028565555810928345e-02 1.008763536810874939e-01 4.605888202786445618e-02 7.796790916472673416e-03 -1.561967842280864716e-02
9.268878400325775146e-02 -4.556580632925033569e-02 1.931393891572952271e-01 7.134258747100830078e-02 -9.032302349805831909e-02 1.399366855621337891e-01 -1.115644127130508423e-01 5.405908077955245972e-02 -9.162473678588867188e-02 1.179715916514396667e-01 -1.094035431742668152e-01 1.942545361816883087e-02 -6.091971322894096375e-02 -5.328506976366043091e-02 -9.852332621812820435e-02 -1.220241561532020569e-01 1.100308671593666077e-01 -1.492414474487304688e-01 -1.221938356757164001e-01 -1.194849833846092224e-01 -5.561473593115806580e-02 -1.572790145874023438e-01 -2.488866634666919708e-02 -1.157100945711135864e-01 2.000835351645946503e-02 -5.674954876303672791e-02 -2.977978065609931946e-02 -9.973988682031631470e-02 -4.510119184851646423e-02 -1.230145990848541260e-02 1.363015621900558472e-01 1.366876065731048584e-02 2.617757581174373627e-02 -8.431501686573028564e-02 1.028184965252876282e-01 1.145186573266983032e-01 1.508426736108958721e-03 -2.719158492982387543e-02 1.718396097421646118e-01 3.831179812550544739e-02 -4.119446873664855957e-02 -6.321472674608230591e-02 -4.953300580382347107e-02 -4.201187193393707275e-02 1.300245523452758789e-01 -6.370058655738830566e-02 6.838896125555038452e-02 5.864552780985832214e-02 2.621820196509361267e-02 9.953191131353378296e-02 -5.366516858339309692e-02 -9.687298536300659180e-02 -6.522238999605178833e-02 9.367652237415313721e-02 1.173579022288322449e-01 2.778779156506061554e-02 -7.511274516582489014e-02 -6.377591937780380249e-02 1.104510053992271423e-01 2.110783942043781281e-02 1.133524030447006226e-01 4.776811227202415466e-02 1.542673353105783463e-02 -1.698937863111495972e-01
-5.738182738423347473e-02 4.056886956095695496e-02 1.868844926357269287e-01 7.800260931253433228e-02 -2.351037459447979927e-03 1.417242139577865601e-01 1.705196127295494080e-02 1.749370098114013672e-01 -7.888200134038925171e-02 1.048487052321434021e-01 -7.121288776397705078e-02 -9.198273718357086182e-02 1.297809332609176636e-01 -6.304586678743362427e-02 -1.463043987751007080e-01 -9.828654676675796509e-02 9.221685677766799927e-02 -3.738538175821304321e-02 -1.623084396123886108e-01 -1.312349736690521240e-02 -5.373831838369369507e-02 -5.162952095270156860e-02 1.182293146848678589e-01 2.258921787142753601e-02 1.898297667503356934e-01 2.814426831901073456e-02 8.417272567749023438e-02 1.144721638411283493e-03 -2.395377960056066513e-03 2.009584903717041016e-01 -5.256298929452896118e-02 -7.402962446212768555e-02 1.058183014392852783e-01 5.962971225380897522e-02 -7.078766822814941406e-02 6.027733162045478821e-02 1.356828659772872925e-01 -3.109143488109111786e-02 1.298765391111373901e-01 -8.483188599348068237e-02 -1.496227234601974487e-01 -1.300288885831832886e-01 9.758943319320678711e-02 1.727025508880615234e-01 -3.506483510136604309e-02 4.984138533473014832e-03 1.474346071481704712e-01 1.838488876819610596e-01 1.832951903343200684e-01 3.680581226944923401e-02 -3.480279818177223206e-02 6.369447219185531139e-04 -6.009783968329429626e-02 5.875712726265192032e-03 -6.398525834083557129e-02 -7.092386484146118164e-02 -1.242354288697242737e-01 -8.304491639137268066e-03 1.038900297135114670e-02 2.255964279174804688e-02 -1.310345977544784546e-01 -3.269589971750974655e-03 -4.321740195155143738e-02 5.100866034626960754e-02
-4.538760706782341003e-02 2.878670347854495049e-04 8.770533651113510132e-02 -4.721886292099952698e-02 1.731153875589370728e-01 1.124979481101036072e-01 1.948791742324829102e-02 -2.216603048145771027e-02 5.519818887114524841e-02 3.540333360433578491e-03 4.578148201107978821e-02 1.495055016130208969e-02 2.129095941781997681e-01 -1.316323578357696533e-01 5.051868781447410583e-02 -1.224899291992187500e-01 6.272417306900024414e-02 -2.054271660745143890e-02 1.860459102317690849e-03 -5.736013874411582947e-02 8.322893083095550537e-02 1.685597896575927734e-01 2.040888415649533272e-03 8.883031457662582397e-02 7.460436969995498657e-02 1.334020346403121948e-01 1.046621277928352356e-01 3.431931138038635254e-02 1.187029853463172913e-01 1.691616326570510864e-02 -2.053525112569332123e-02 -3.632636368274688721e-02 1.046704724431037903e-01 9.869502484798431396e-02 8.770504593849182129e-02 6.222025677561759949e-02 7.611961662769317627e-02 1.346358209848403931e-01 1.390269994735717773e-01 4.530772101134061813e-03 1.747339032590389252e-02 -1.371853649616241455e-01 -7.139611989259719849e-03 -6.045464891940355301e-03 -2.212320081889629364e-02 -1.630215346813201904e-01 -2.771839313209056854e-02 4.552089050412178040e-02 1.157364696264266968e-01 -1.298671662807464600e-01 -4.222550243139266968e-02 1.202942505478858948e-01 -1.343842223286628723e-02 1.312682628631591797e-01 -9.808345139026641846e-02 -1.563606560230255127e-01 5.128204822540283203e-02 -1.810985803604125977e-01 -1.765349209308624268e-01 -1.710779070854187012e-01 1.364945247769355774e-02 9.446290880441665649e-02 1.403888314962387085e-01 -6.758312880992889404e-02
1.101445108652114868e-01 1.220516487956047058e-01 1.675294339656829834e-01 -6.673211604356765747e-02 -1.289997100830078125e-01 1.478750258684158325e-01 -9.418325126171112061e-02 2.606703527271747589e-02 -1.598917245864868164e-01 6.550633907318115234e-02 -2.094095200300216675e-02 -7.760898023843765259e-02 9.856331348419189453e-02 -9.891995042562484741e-02 1.379952393472194672e-02 -7.903318107128143311e-02 -1.406098715960979462e-02 9.396301209926605225e-02 7.660243427380919456e-04 -3.780402708798646927e-03 -1.210953388363122940e-02 -8.147931098937988281e-02 -5.486425012350082397e-02 5.453400313854217529e-02 -1.244488209486007690e-01 -2.286771126091480255e-02 3.483735956251621246e-03 -2.969920635223388672e-02 -2.960302494466304779e-02 5.401223152875900269e-02 -5.114984512329101562e-02 6.429322808980941772e-02 -5.486026778817176819e-02 1.262306720018386841e-01 -2.530716918408870697e-02 -8.778291940689086914e-02 1.237902566790580750e-01 -1.823785528540611267e-02 7.468294352293014526e-02 -2.594858221709728241e-02 -1.216303464025259018e-02 9.498321264982223511e-02 8.543834835290908813e-02 2.870538458228111267e-02 7.727172970771789551e-02 -6.510145217180252075e-02 -2.627006173133850098e-02 -8.838174492120742798e-02 1.902552843093872070e-01 7.396923005580902100e-02 8.556888997554779053e-02 -7.879848778247833252e-02 1.054153144359588623e-01 -1.012845784425735474e-01 -5.831411108374595642e-03 -2.240505442023277283e-02 -8.149604499340057373e-02 5.997233465313911438e-02 -1.485272943973541260e-01 1.144660189747810364e-01 -5.966580007225275040e-03 -1.108799949288368225e-01 -4.683062806725502014e-02 -7.245222479104995728e-02
1.180542558431625366e-01 -4.142672941088676453e-02 -4.250083491206169128e-02 -1.309927850961685181e-01 -1.389043498784303665e-02 -6.141067668795585632e-02 -7.673104107379913330e-02 8.536151051521301270e-02 -1.140891462564468384e-01 1.601154208183288574e-01 9.879580885171890259e-02 2.369988337159156799e-02 1.559803783893585205e-01 7.750137150287628174e-02 5.224300082772970200e-03 5.754616856575012207e-02 1.810484230518341064e-01 1.072161868214607239e-01 1.014155298471450806e-01 6.592646241188049316e-03 -2.607891149818897247e-02 1.701780706644058228e-01 -2.402538200840353966e-03 1.841926127672195435e-01 -1.163356006145477295e-01 -3.950790315866470337e-02 7.257884740829467773e-02 -9.779908508062362671e-02 1.728100329637527466e-01 -1.808046922087669373e-02 -2.268431894481182098e-02 1.160342693328857422e-01 3.651846572756767273e-02 4.700430203229188919e-03 1.000479832291603088e-01 3.442771965637803078e-03 -1.602959930896759033e-01 1.204061210155487061e-01 1.834508180618286133e-01 -4.793580621480941772e-02 1.745828092098236084e-01 1.521100196987390518e-02 5.461876094341278076e-02 -1.679750233888626099e-01 1.062434092164039612e-01 -6.603134423494338989e-02 -8.793829381465911865e-02 -8.265564590692520142e-02 5.140073597431182861e-03 -5.818867683410644531e-02 -1.717517226934432983e-01 1.627510972321033478e-02 -5.190578475594520569e-02 -8.327353000640869141e-02 -1.070613712072372437e-01 -1.713907569646835327e-01 -3.967555984854698181e-02 1.708086282014846802e-01 -7.512486726045608521e-02 -1.197733804583549500e-01 -7.398411631584167480e-02 2.143834345042705536e-02 -7.372875511646270752e-02 -9.722704440355300903e-02
-5.865370389074087143e-03 1.563735306262969971e-01 -2.228362672030925751e-02 -1.195736825466156006e-01 2.224324047565460205e-01 2.213474735617637634e-02 -1.591209471225738525e-01 6.071345135569572449e-02 -2.869116887450218201e-02 1.098578497767448425e-01 4.943368211388587952e-02 -4.864978790283203125e-02 2.128237485885620117e-01 -2.051843851804733276e-01 -7.712446153163909912e-02 -1.282271891832351685e-01 -5.490084737539291382e-02 1.482864841818809509e-02 -3.544735535979270935e-02 4.563478007912635803e-02 9.195598214864730835e-02 6.679392606019973755e-02 7.057170150801539421e-04 4.791529104113578796e-02 2.105054706335067749e-01 2.129482924938201904e-01 -1.672038063406944275e-02 -1.531185302883386612e-02 7.094062119722366333e-02 -1.077891699969768524e-02 1.057948619127273560e-01 9.204756468534469604e-02 4.321859031915664673e-02 9.623859077692031860e-03 -1.211222186684608459e-01 -1.480657309293746948e-01 7.591056823730468750e-02 7.153064757585525513e-02 -9.265289455652236938e-02 -1.500499397516250610e-01 7.710934430360794067e-02 6.345329433679580688e-02 1.041710078716278076e-01 4.912075027823448181e-02 1.951560378074645996e-01 -1.077277213335037231e-01 8.982376009225845337e-02 2.669123932719230652e-02 9.040002524852752686e-02 4.920059069991111755e-02 -1.421369463205337524e-01 1.183919310569763184e-01 2.197301946580410004e-02 1.923684924840927124e-01 -6.629324704408645630e-02 6.912457942962646484e-02 -6.182084977626800537e-02 -1.810687482357025146e-01 4.996289685368537903e-02 -1.832471936941146851e-01 1.076076850295066833e-01 6.315594166517257690e-02 1.791252642869949341e-01 7.578763365745544434e-02
