8.895363658666610718e-02
8.709358423948287964e-02
8.312769979238510132e-02
7.809770107269287109e-02
1.100481003522872925e-01
-6.992384046316146851e-02
-9.902092814445495605e-02
-1.033306494355201721e-01
-4.867124557495117188e-02
-5.804491415619850159e-02
5.948943551629781723e-03
4.051357135176658630e-02
-1.192235276103019714e-01
1.024437919259071350e-01
1.450209319591522217e-01
-2.406980842351913452e-02
7.538875937461853027e-02
7.064511626958847046e-02
2.852053381502628326e-02
5.462982133030891418e-02
8.902494609355926514e-02
4.816471412777900696e-02
-5.020444095134735107e-02
1.214362233877182007e-01
-3.320683911442756653e-02
1.280791908502578735e-01
-1.006169989705085754e-01
7.871188968420028687e-02
-1.169647797942161560e-01
5.671253800392150879e-02
-1.145119667053222656e-01
1.079484820365905762e-01
5.131430551409721375e-02
3.268758952617645264e-02
6.330969929695129395e-02
8.919391781091690063e-02
1.158781498670578003e-01
6.609446834772825241e-03
4.423968121409416199e-02
-3.279693797230720520e-02
7.795634865760803223e-02
8.377771824598312378e-02
-1.707379519939422607e-02
1.552679538726806641e-01
5.909032374620437622e-02
-1.892541162669658661e-02
-1.151971742510795593e-01
-1.173694208264350891e-01
7.297093421220779419e-02
4.542459920048713684e-02
4.503310844302177429e-02
2.012871392071247101e-02
4.537641257047653198e-02
4.001151025295257568e-02
-5.924749374389648438e-02
-6.628102064132690430e-02
9.240595251321792603e-02
-9.735811501741409302e-02
3.435911145061254501e-03
-2.320831269025802612e-02
9.665770083665847778e-02
4.640913382172584534e-02
-1.153179258108139038e-01
2.964792586863040924e-02
