1.588411033153533936e-01 1.159762814640998840e-01 3.307690620422363281e-01 1.056367084383964539e-01 2.524515390396118164e-01 -1.424401104450225830e-01 1.684833616018295288e-01 -1.206106096506118774e-01 -8.655215054750442505e-02 -1.530126184225082397e-01 -6.821645796298980713e-02 -1.643780469894409180e-01 3.750377148389816284e-02 2.035232037305831909e-01 3.749603629112243652e-01 -1.815569400787353516e-01 2.048316001892089844e-01 2.203412055969238281e-01 -1.005717292428016663e-01 -1.252136379480361938e-01 3.020176589488983154e-01 -2.318283021450042725e-01 -8.867541700601577759e-02 2.713609635829925537e-01 -2.594000287353992462e-02 3.797295987606048584e-01 8.412250876426696777e-02 1.535748541355133057e-01 4.978836700320243835e-02 2.966971695423126221e-01 6.351538002490997314e-02 2.467892169952392578e-01 -5.756216123700141907e-02 -1.230376958847045898e-01 -1.125029698014259338e-01 3.862043917179107666e-01 2.402030974626541138e-01 -9.755986928939819336e-02 2.392073422670364380e-01 -3.828324005007743835e-02 3.777531683444976807e-01 2.747381627559661865e-01 -1.705610007047653198e-01 3.586810231208801270e-01 3.126071393489837646e-01 3.402434755116701126e-03 1.260599642992019653e-01 9.452599287033081055e-02 -9.331765770912170410e-02 -2.422999218106269836e-02 -1.292156577110290527e-01 -7.020509988069534302e-02 1.951260864734649658e-01 -2.434463500976562500e-01 -1.633817106485366821e-01 1.321214623749256134e-02 2.192404717206954956e-01 1.962776295840740204e-02 -1.575426161289215088e-01 -2.063555084168910980e-02 3.263353109359741211e-01 -2.695590853691101074e-01 8.812522888183593750e-02 1.721784621477127075e-01
3.048511445522308350e-01 2.715404331684112549e-01 2.181954979896545410e-01 3.394949138164520264e-01 2.937634587287902832e-01 -1.374099403619766235e-01 -1.693044975399971008e-02 8.536808192729949951e-02 -1.058502495288848877e-01 -5.206671729683876038e-02 -3.761309012770652771e-02 3.022548509761691093e-03 2.894532307982444763e-02 1.340550631284713745e-01 2.966979146003723145e-01 1.864692717790603638e-01 1.028846800327301025e-01 7.401277869939804077e-02 1.106734387576580048e-02 -1.924786269664764404e-01 1.602877862751483917e-02 2.116173058748245239e-01 -7.631320506334304810e-02 3.345387876033782959e-01 -7.579714059829711914e-02 2.421343177556991577e-01 -1.391110122203826904e-01 1.302815675735473633e-01 5.810068920254707336e-02 -1.685962975025177002e-01 1.980635374784469604e-01 2.179149240255355835e-01 -1.200688853859901428e-01 -1.749152988195419312e-01 -1.440014094114303589e-01 -1.180181950330734253e-01 3.532314896583557129e-01 2.332072257995605469e-01 -1.535798013210296631e-01 -7.349413633346557617e-02 -1.767469346523284912e-01 6.181711703538894653e-02 2.153176218271255493e-01 3.540178239345550537e-01 -1.863242536783218384e-01 2.328395284712314606e-02 -8.087234199047088623e-02 -5.205986090004444122e-03 -8.333057165145874023e-02 -2.080336809158325195e-01 -4.999719932675361633e-02 -9.556587040424346924e-02 -4.829618334770202637e-02 -1.695475131273269653e-01 -9.387750178575515747e-02 2.647903282195329666e-03 2.265042513608932495e-01 -3.201196342706680298e-02 -2.890409715473651886e-02 2.885157073251320980e-07 4.958804324269294739e-02 -9.458202123641967773e-02 1.586834788322448730e-01 -1.259989589452743530e-01
