2.152504324913024902e-01 2.070483006536960602e-02
1.453420668840408325e-01 9.194454550743103027e-02
1.576599031686782837e-01 1.838285773992538452e-01
2.478391677141189575e-01 5.509057082235813141e-03
3.665722608566284180e-01 -5.583066865801811218e-02
1.629278659820556641e-01 1.061858162283897400e-01
-5.598472803831100464e-02 -1.668501049280166626e-01
-1.870517432689666748e-01 -7.154702395200729370e-02
1.763748079538345337e-01 -6.326780468225479126e-02
4.589667916297912598e-02 -6.500216573476791382e-02
-1.315054893493652344e-01 -1.640901416540145874e-01
-8.823709934949874878e-02 2.027291357517242432e-01
-1.772885322570800781e-01 1.686896383762359619e-01
1.581275016069412231e-01 1.210511252284049988e-01
3.593065440654754639e-01 -1.573142260313034058e-01
3.431937098503112793e-02 -2.462930530309677124e-01
2.783905267715454102e-01 5.555879697203636169e-02
2.310699224472045898e-01 -2.821913659572601318e-01
-5.673099309206008911e-02 -3.943246975541114807e-02
-2.077663987874984741e-01 -3.252080455422401428e-02
1.000419631600379944e-01 3.722859779372811317e-03
-2.726809121668338776e-03 1.646895706653594971e-01
1.482330113649368286e-01 4.672268778085708618e-02
3.793626725673675537e-01 -1.298138201236724854e-01
6.777324527502059937e-02 1.246430277824401855e-01
3.841394484043121338e-01 -2.158086299896240234e-01
-3.942666575312614441e-02 1.241462528705596924e-01
1.598466485738754272e-01 8.617550134658813477e-02
-9.998044371604919434e-02 -3.942583501338958740e-02
2.508573830127716064e-01 1.486113965511322021e-01
-8.153616636991500854e-02 -1.716013550758361816e-01
2.398478984832763672e-01 1.120983511209487915e-01
-6.541915237903594971e-02 2.078963965177536011e-01
-1.857484132051467896e-01 -1.605761349201202393e-01
-8.129220455884933472e-02 9.818246960639953613e-02
1.937166303396224976e-01 -1.854242980480194092e-01
3.743558228015899658e-01 -1.208673194050788879e-01
1.875486522912979126e-01 -8.691638708114624023e-02
2.728714644908905029e-01 -1.509975790977478027e-01
3.949642181396484375e-03 -1.231631487607955933e-01
3.501393795013427734e-01 -2.512064203619956970e-02
1.802393943071365356e-01 -1.344719827175140381e-01
-2.095955424010753632e-02 -2.571775913238525391e-01
2.213677614927291870e-01 3.354977816343307495e-02
3.871687054634094238e-01 1.395555734634399414e-01
-1.199278235435485840e-02 -1.255954653024673462e-01
-1.051783934235572815e-01 -3.396228654310107231e-03
-1.810063123703002930e-01 -2.757065892219543457e-01
-8.930387347936630249e-02 8.448930829763412476e-02
-1.446131616830825806e-01 1.844835132360458374e-01
-1.989806070923805237e-02 2.149345129728317261e-01
3.656704723834991455e-02 1.608549654483795166e-01
2.955367267131805420e-01 6.863778457045555115e-03
-2.009252309799194336e-01 2.011565864086151123e-01
1.331826858222484589e-02 -3.429933264851570129e-02
-2.112719118595123291e-01 -1.297835558652877808e-01
2.785677909851074219e-01 -2.859337031841278076e-01
-1.907637268304824829e-01 -2.369994521141052246e-01
-1.126272305846214294e-01 -1.231788694858551025e-01
1.129439380019903183e-02 -4.803039191756397486e-04
2.362391799688339233e-01 -1.826436072587966919e-01
-1.039126962423324585e-01 2.459153681993484497e-01
-5.606579035520553589e-02 -4.441822320222854614e-02
3.074190616607666016e-01 -3.748831525444984436e-02
