1.048316713422536850e-02
-1.187102645635604858e-01
-6.782434135675430298e-02
-5.927041172981262207e-02
4.109479114413261414e-02
-1.724904216825962067e-02
-1.036424636840820312e-01
-7.202742248773574829e-02
-6.034856662154197693e-02
-7.027335464954376221e-02
-8.835177123546600342e-02
-6.027860939502716064e-02
-4.403492808341979980e-02
1.500652078539133072e-02
5.502808839082717896e-02
-6.777952425181865692e-03
-4.144607856869697571e-02
-5.880716815590858459e-02
2.086650021374225616e-02
-4.704677686095237732e-02
-2.003750391304492950e-02
1.243414729833602905e-02
2.365004457533359528e-02
6.056189537048339844e-02
-6.412523239850997925e-02
6.291683018207550049e-02
1.800713874399662018e-02
-1.858790405094623566e-02
-4.818705096840858459e-02
-7.163131982088088989e-02
-8.438237011432647705e-02
-2.106618508696556091e-02
4.286161810159683228e-02
-1.323647145181894302e-02
3.261891752481460571e-02
-8.489417284727096558e-02
-2.828534506261348724e-02
-5.134907737374305725e-02
4.558894410729408264e-02
-9.569791704416275024e-02
-6.637503206729888916e-02
3.466223180294036865e-02
1.685296557843685150e-02
-3.388395160436630249e-02
-2.842074073851108551e-02
-3.157953266054391861e-03
3.029790520668029785e-02
-4.824593663215637207e-02
2.387134823948144913e-03
1.197876501828432083e-02
-6.614214740693569183e-03
-4.844444245100021362e-02
3.040848486125469208e-02
-7.963518053293228149e-02
5.775861069560050964e-02
-4.981163889169692993e-02
2.357526496052742004e-02
-1.632986590266227722e-02
2.753392327576875687e-03
-2.776618814095854759e-03
-9.679794311523437500e-03
-4.562626406550407410e-02
6.961165368556976318e-02
-2.182922326028347015e-02
