3.312939032912254333e-02 -1.986391693353652954e-01 6.001472845673561096e-02 8.290842920541763306e-02
-6.921169906854629517e-02 -1.423549652099609375e-01 -1.989553123712539673e-01 -1.231404840946197510e-01
-1.396786570549011230e-01 1.122300326824188232e-01 1.512991338968276978e-01 -1.951318085193634033e-01
7.685460895299911499e-02 -1.131203863769769669e-02 1.561170220375061035e-01 2.221146412193775177e-02
2.569998800754547119e-01 -1.792595088481903076e-01 1.051524467766284943e-02 1.186590455472469330e-02
-1.648552119731903076e-01 -1.581197381019592285e-01 -2.050039172172546387e-01 1.381781995296478271e-01
4.418250173330307007e-02 1.293013244867324829e-01 1.267446577548980713e-01 -1.227325201034545898e-01
1.759332865476608276e-01 -1.450336724519729614e-01 1.013440340757369995e-01 -1.448328793048858643e-01
1.917981505393981934e-01 6.613249331712722778e-02 1.666993498802185059e-01 2.044228464365005493e-01
9.631618112325668335e-02 -1.297342777252197266e-01 1.290085315704345703e-01 -1.099468395113945007e-01
-1.659152507781982422e-01 -9.295173734426498413e-02 -8.315188437700271606e-02 -1.227805390954017639e-01
4.209902510046958923e-02 -3.767913952469825745e-02 2.163667529821395874e-01 -1.382680684328079224e-01
1.795810610055923462e-01 3.626017645001411438e-02 -8.411148935556411743e-02 1.603774130344390869e-01
-2.496572583913803101e-01 -1.031469851732254028e-01 -1.042557805776596069e-01 8.948053419589996338e-02
7.632125169038772583e-02 -1.759790629148483276e-01 5.672733765095472336e-03 -1.496672183275222778e-01
-1.608810015022754669e-02 2.433091029524803162e-02 -1.142362947575747967e-03 8.971115201711654663e-02
-4.620903171598911285e-03 2.887067943811416626e-02 7.771118730306625366e-02 1.224637404084205627e-01
-9.335035830736160278e-02 1.627119816839694977e-02 1.770493239164352417e-01 5.803924798965454102e-02
7.191548496484756470e-02 -1.447703242301940918e-01 -5.437226966023445129e-02 5.921898782253265381e-02
-1.341911870986223221e-02 4.226480424404144287e-02 1.760885119438171387e-01 -6.586040556430816650e-02
-5.804554559290409088e-03 7.759891450405120850e-02 1.064751520752906799e-01 -4.421465098857879639e-02
-2.180154919624328613e-01 9.400082379579544067e-02 -1.693802028894424438e-01 -1.190102472901344299e-01
8.470476418733596802e-02 3.227306902408599854e-02 7.413885742425918579e-02 9.241081774234771729e-02
-2.016001492738723755e-01 7.752043008804321289e-02 5.392209067940711975e-02 -5.085391178727149963e-02
1.736759543418884277e-01 -1.923726797103881836e-01 -8.235121518373489380e-02 1.272807121276855469e-01
-1.616024374961853027e-01 -8.091928809881210327e-02 1.437066793441772461e-01 -1.746216416358947754e-01
6.432585418224334717e-02 7.913263514637947083e-03 -3.701859340071678162e-02 -1.142987906932830811e-01
-1.609285026788711548e-01 -6.968311220407485962e-02 -1.307950615882873535e-01 -2.108194380998611450e-01
-2.183573096990585327e-01 6.033509224653244019e-02 -1.649538278579711914e-01 1.763992160558700562e-01
-3.276842087507247925e-02 -4.019192606210708618e-02 -2.027035653591156006e-01 -1.243706420063972473e-01
9.400021284818649292e-02 -4.558475315570831299e-02 -7.012816518545150757e-02 6.408802419900894165e-02
-7.663637399673461914e-02 4.493711888790130615e-02 -6.053560227155685425e-02 -9.472081065177917480e-02
-1.159380073659121990e-03 -8.753465116024017334e-02 -1.121798083186149597e-01 -1.732481420040130615e-01
-3.446038439869880676e-02 1.185110583901405334e-01 1.660211011767387390e-02 -2.170262187719345093e-01
1.065316349267959595e-01 -2.177041620016098022e-01 -1.277116835117340088e-01 -1.020579114556312561e-01
-1.066486835479736328e-01 1.785135269165039062e-01 -1.378553546965122223e-02 -2.033487707376480103e-01
-6.906497757881879807e-03 -2.353553771972656250e-01 -1.635333746671676636e-01 2.128763794898986816e-01
7.200253754854202271e-02 -1.913948059082031250e-01 -1.088270992040634155e-01 1.432431489229202271e-01
8.905776590108871460e-02 1.070065572857856750e-01 -4.908390343189239502e-02 1.123196035623550415e-01
-1.355400383472442627e-01 -1.342035233974456787e-01 -1.051358431577682495e-01 1.375305503606796265e-01
5.447553098201751709e-02 -1.829025894403457642e-02 2.105447351932525635e-01 -1.639517843723297119e-01
-1.939485222101211548e-01 7.660775631666183472e-02 3.879102692008018494e-02 -1.260400861501693726e-01
6.951805949211120605e-02 -8.683750778436660767e-02 1.361150145530700684e-01 -2.402971265837550163e-03
-1.267952769994735718e-01 3.203932137694209814e-04 -2.678560912609100342e-01 1.143415346741676331e-01
-2.426304519176483154e-01 -1.128844823688268661e-02 -2.064830511808395386e-01 -2.152575701475143433e-01
-1.936854869127273560e-01 1.498970687389373779e-01 1.491511315107345581e-01 -1.886795312166213989e-01
-1.340299546718597412e-01 7.340370118618011475e-02 5.255676433444023132e-02 -1.494804620742797852e-01
-6.267522275447845459e-02 1.007281020283699036e-01 1.450227499008178711e-01 9.923725575208663940e-02
-2.167769074440002441e-01 1.326546072959899902e-01 -2.053403109312057495e-01 -1.798510849475860596e-01
1.776036769151687622e-01 1.248556599020957947e-01 1.348489373922348022e-01 -9.802327305078506470e-02
7.021579146385192871e-02 -2.227496169507503510e-02 3.332520648837089539e-02 -1.045203488320112228e-02
4.697069525718688965e-02 -1.746838688850402832e-01 -9.642142057418823242e-02 -2.160867154598236084e-01
1.798815429210662842e-01 4.142035171389579773e-02 5.585432425141334534e-02 2.500756084918975830e-01
3.987819328904151917e-02 -2.716119214892387390e-02 9.110841155052185059e-02 -1.150805950164794922e-01
-2.088407576084136963e-01 -1.618923693895339966e-01 -1.407698392868041992e-01 -1.051602140069007874e-01
8.257169276475906372e-02 -2.749376595020294189e-01 -1.224305629730224609e-01 1.018874421715736389e-01
-2.140176147222518921e-01 -5.053311213850975037e-02 -1.027860715985298157e-01 -2.158852517604827881e-01
9.637267887592315674e-02 -2.453395873308181763e-01 1.371269226074218750e-01 1.692304462194442749e-01
1.054288148880004883e-01 -1.015882715582847595e-01 6.704866886138916016e-02 -1.285573393106460571e-01
6.624833494424819946e-02 -2.281399257481098175e-02 -1.056416928768157959e-01 1.023479327559471130e-01
-3.654951602220535278e-02 6.735890056006610394e-04 1.157427877187728882e-01 1.181046385318040848e-02
-2.333900779485702515e-01 -9.540372341871261597e-02 -1.727917939424514771e-01 -7.460077758878469467e-03
1.813988983631134033e-01 -1.826414614915847778e-01 -8.805027231574058533e-03 4.619971662759780884e-02
1.070917956531047821e-02 -6.281210482120513916e-02 -5.048400908708572388e-02 -9.536644816398620605e-02
-1.483408641070127487e-02 -2.082922756671905518e-01 2.048722505569458008e-01 2.556420564651489258e-01
-3.776980191469192505e-02 -1.970003098249435425e-01 -9.540846198797225952e-02 1.470290273427963257e-01
-2.427154779434204102e-01 3.931558877229690552e-02 -4.793433472514152527e-02 -4.276067949831485748e-03
-9.990537166595458984e-02 -8.240722864866256714e-02 -1.820673793554306030e-01 2.816139720380306244e-02
1.658582985401153564e-01 1.479155011475086212e-02 5.350144952535629272e-02 1.621675789356231689e-01
-1.679922640323638916e-01 9.484580159187316895e-02 -2.533896565437316895e-01 5.199542734771966934e-03
9.532745182514190674e-02 -2.262399718165397644e-02 3.940891474485397339e-02 -2.384466230869293213e-01
1.663637459278106689e-01 -1.062505617737770081e-01 4.924984648823738098e-02 2.072368413209915161e-01
-4.936875030398368835e-02 1.040255203843116760e-01 -1.849194467067718506e-01 1.553591489791870117e-01
9.920074790716171265e-02 9.252000600099563599e-02 -1.813323795795440674e-01 -1.034838035702705383e-01
5.836955085396766663e-02 -5.354369059205055237e-02 2.277990132570266724e-01 -2.012966424226760864e-01
6.804037839174270630e-02 1.408756375312805176e-01 -1.974703073501586914e-01 -4.738438874483108521e-02
1.928734481334686279e-01 8.271872997283935547e-02 -1.985507756471633911e-01 1.364266574382781982e-01
6.189802661538124084e-02 -1.337486654520034790e-01 -1.170133426785469055e-01 1.767018437385559082e-01
-1.125580370426177979e-01 -2.549634873867034912e-01 -1.582910120487213135e-01 1.937705576419830322e-01
-1.355566233396530151e-01 -8.973402902483940125e-03 -2.873533368110656738e-01 -2.462155371904373169e-02
7.501045614480972290e-02 1.101105660200119019e-01 2.105530053377151489e-01 -2.410726845264434814e-01
-5.838279053568840027e-02 1.215813532471656799e-01 4.317734763026237488e-02 5.576739087700843811e-02
-1.051036044955253601e-01 -2.188021838665008545e-01 -1.046719308942556381e-02 -1.179787442088127136e-01
2.079950459301471710e-02 -3.773673623800277710e-02 -1.035946160554885864e-01 3.118547201156616211e-01
-1.974721550941467285e-01 -8.899478614330291748e-02 -2.840175032615661621e-01 -1.241155490279197693e-01
-7.519842684268951416e-02 1.273552477359771729e-01 -1.804813891649246216e-01 -9.483152627944946289e-02
-4.312489554286003113e-02 2.380670513957738876e-03 5.369666963815689087e-02 -9.173328056931495667e-03
5.738447606563568115e-02 -1.470751464366912842e-01 -2.110057026147842407e-01 3.011477366089820862e-02
-1.442253887653350830e-01 1.388346403837203979e-01 1.890857517719268799e-01 -1.007060706615447998e-01
-9.217430651187896729e-02 1.719627976417541504e-01 -1.191575303673744202e-01 -1.615004539489746094e-01
-8.206366561353206635e-03 1.181958094239234924e-01 3.008654341101646423e-02 1.231655627489089966e-01
5.919279996305704117e-03 -4.116125404834747314e-02 1.344895921647548676e-02 -3.823126479983329773e-02
-9.706965833902359009e-02 -1.493145972490310669e-01 1.532686799764633179e-01 3.571376577019691467e-02
1.902631074190139771e-01 -2.128332294523715973e-02 1.754888743162155151e-01 3.209384679794311523e-01
2.214417755603790283e-01 5.751022323966026306e-02 -1.451689749956130981e-02 1.044237241148948669e-01
-1.738426089286804199e-01 3.871248569339513779e-03 -1.998728960752487183e-01 -1.074670776724815369e-01
-1.105902343988418579e-02 1.064478456974029541e-01 7.578634470701217651e-02 6.081360857933759689e-03
-3.872922062873840332e-02 -1.823260039091110229e-01 -1.624723821878433228e-01 5.240659415721893311e-02
-4.046794399619102478e-02 -1.993902772665023804e-01 -3.470748662948608398e-02 -1.215384528040885925e-02
-1.108401566743850708e-01 9.400511533021926880e-02 -5.896204710006713867e-02 5.233586579561233521e-02
-3.256176039576530457e-02 -1.345979571342468262e-01 -2.268207669258117676e-01 1.022764369845390320e-01
1.611102968454360962e-01 -1.476319581270217896e-01 -2.163446247577667236e-01 5.470474436879158020e-02
9.730238467454910278e-02 7.044310867786407471e-02 1.061117723584175110e-01 -1.663480401039123535e-01
1.162461265921592712e-01 4.090959206223487854e-02 9.053426980972290039e-02 1.207734365016222000e-02
1.333708763122558594e-01 1.540679931640625000e-01 1.329520530998706818e-02 -9.072245657444000244e-02
1.617333441972732544e-01 -2.133105844259262085e-01 -4.285173863172531128e-02 -1.927099227905273438e-01
-5.243313498795032501e-03 1.437535136938095093e-02 1.721021831035614014e-01 3.431662544608116150e-02
2.478387206792831421e-01 -2.574211731553077698e-02 4.808592796325683594e-02 1.736814528703689575e-01
-1.723036319017410278e-01 -4.371302202343940735e-02 1.770433783531188965e-01 -1.060009351931512356e-03
2.150978520512580872e-02 -1.370813399553298950e-01 -1.995950937271118164e-01 2.234244346618652344e-01
2.042242139577865601e-01 -1.647387072443962097e-02 4.550481960177421570e-02 8.673325181007385254e-02
1.902089081704616547e-02 -4.554039333015680313e-03 -9.838293492794036865e-02 -1.075816527009010315e-01
1.133190393447875977e-01 9.455055743455886841e-02 -6.871523708105087280e-02 2.413551881909370422e-02
7.822823710739612579e-03 -7.446394115686416626e-02 1.588809192180633545e-01 1.376605033874511719e-01
7.831443846225738525e-02 9.518103301525115967e-02 -1.388133168220520020e-01 -4.454719647765159607e-02
-6.673590093851089478e-02 3.512176871299743652e-02 2.178155630826950073e-01 -1.102880835533142090e-01
2.829219400882720947e-02 -6.798929721117019653e-02 2.683806791901588440e-02 1.793612837791442871e-01
-1.523435860872268677e-01 -3.427897393703460693e-02 -4.517104476690292358e-02 -2.308263331651687622e-01
1.990644335746765137e-01 7.063113152980804443e-02 -7.663851231336593628e-02 1.018730029463768005e-01
6.240155175328254700e-02 -6.051958724856376648e-02 8.786799758672714233e-02 3.958533704280853271e-02
-7.057246565818786621e-02 2.452592365443706512e-02 1.404573917388916016e-01 6.237705796957015991e-02
-2.761644124984741211e-02 -1.411938965320587158e-01 1.130570620298385620e-01 -2.390396744012832642e-01
1.624177694320678711e-01 -1.490234583616256714e-01 -4.255707934498786926e-02 -6.681215763092041016e-02
1.006366163492202759e-01 7.479867339134216309e-02 -9.150272607803344727e-02 -1.546909194439649582e-02
-2.310770899057388306e-01 -2.282108068466186523e-01 7.859771698713302612e-02 -2.451853156089782715e-01
-6.557177752256393433e-02 3.759835287928581238e-02 -9.127661585807800293e-02 -1.424297839403152466e-01
-1.426059156656265259e-01 1.078985929489135742e-01 2.741991914808750153e-02 -1.207798626273870468e-02
-1.863394230604171753e-01 -9.823750704526901245e-02 -2.214471101760864258e-01 6.841162685304880142e-03
