9.574115276336669922e-02
6.517688930034637451e-02
-2.497562440112233162e-03
2.751841954886913300e-02
-4.057981073856353760e-02
1.348218973726034164e-02
-7.803530897945165634e-03
0.000000000000000000e+00
-6.002217996865510941e-03
6.727031618356704712e-02
7.944715768098831177e-02
0.000000000000000000e+00
-2.453486435115337372e-02
1.125881001353263855e-01
8.129727840423583984e-02
0.000000000000000000e+00
1.505985297262668610e-02
9.727831184864044189e-02
1.059444323182106018e-01
-2.509567700326442719e-02
2.084693871438503265e-02
1.149985343217849731e-01
1.062798500061035156e-01
1.397872269153594971e-01
9.887772053480148315e-02
2.735481597483158112e-02
9.330217540264129639e-02
-1.597727462649345398e-02
7.483445852994918823e-02
1.287960708141326904e-01
-3.927891701459884644e-02
8.558052033185958862e-02
8.230672217905521393e-03
5.535859242081642151e-02
1.189887449145317078e-01
-2.658961713314056396e-02
1.220919284969568253e-02
8.459383249282836914e-02
1.675892970524728298e-03
4.121235106140375137e-03
1.345180347561836243e-02
-5.633248761296272278e-02
1.282173395156860352e-01
-4.750942811369895935e-02
3.820009529590606689e-02
-1.722199283540248871e-02
1.238330379128456116e-01
7.376024965196847916e-03
1.014631167054176331e-01
-6.049718335270881653e-02
-7.632464170455932617e-02
3.862026706337928772e-02
-7.281355559825897217e-02
-5.244445800781250000e-02
1.070244014263153076e-01
1.050048694014549255e-01
1.144043952226638794e-01
-1.713502220809459686e-02
3.915969654917716980e-02
1.026655808091163635e-01
-4.459847882390022278e-02
-1.670800521969795227e-02
-4.146369174122810364e-02
-3.827517852187156677e-03
