1.017544046044349670e-02 1.668373821303248405e-03 -6.494928151369094849e-02 -2.282469300553202629e-03 2.683437196537852287e-03 3.843863087240606546e-04 7.030254602432250977e-02 -5.399505142122507095e-03 7.611928880214691162e-02 6.336677074432373047e-02 -7.849168032407760620e-03 -2.955950805268711360e-18 4.992150515317916870e-02 3.363903984427452087e-02 8.129802532494068146e-03 -2.530448883771896362e-02 -5.629582703113555908e-02 -2.694092923775315285e-03 1.298631425015628338e-03 4.408298991620540619e-03 6.102340668439865112e-02 -5.882701370865106583e-03 8.740472840145230293e-04 1.681930758059024811e-02 -1.664410531520843506e-02 2.197449095547199249e-02 3.087517805397510529e-02 4.224012373015284538e-04 6.475479155778884888e-02 -3.378821536898612976e-03 3.090545907616615295e-02 -1.317922025918960571e-02 1.952966675162315369e-02 1.786164753139019012e-02 -4.289969510864466429e-04 -6.593401194550096989e-04 9.058250114321708679e-03 5.011406261473894119e-03 4.625745714292861521e-05 6.398659024853259325e-06 1.955985091626644135e-03 -1.749513758113607764e-04 1.649905554950237274e-02 1.470753795729251578e-05 5.707477033138275146e-02 6.961422972381114960e-03 9.124914184212684631e-03 6.075023859739303589e-02 5.382212251424789429e-02 5.484308674931526184e-02 4.934556013565444549e-32 6.922193616628646851e-02 -8.179469406604766846e-02 7.826558314263820648e-03 -4.938691854476928711e-03 -1.999262161552906036e-02 -3.815211728215217590e-02 -2.191719599068164825e-02 -6.310551543720066547e-04 5.963382776826620102e-03 -6.975897122174501419e-04 9.496836719335988164e-05 -6.223563559615286067e-06 4.341756924986839294e-03
-5.780350416898727417e-02 4.060773644596338272e-03 -5.923894350416958332e-04 6.164132058620452881e-02 -3.421214967966079712e-02 -8.364455425180494785e-04 2.149099018424749374e-03 -3.324340656399726868e-02 1.629672013223171234e-02 3.553804755210876465e-02 -8.349447511136531830e-03 -3.191492334008216858e-02 5.674763023853302002e-02 -5.312840268015861511e-02 9.816425852477550507e-03 -2.462041191756725311e-02 8.429673314094543457e-02 -1.045416109263896942e-02 -1.272609084844589233e-02 -2.133815549314022064e-02 5.011948198080062866e-02 -8.049672096967697144e-02 -5.024953931570053101e-02 3.268243372440338135e-02 4.831507802009582520e-02 -5.194502323865890503e-02 1.386596169322729111e-02 -1.836853480199351907e-04 1.399825047701597214e-02 1.120540127158164978e-01 -2.629522001370787621e-03 -1.478430721908807755e-02 1.110498979687690735e-01 -7.419938687235116959e-03 4.496143385767936707e-02 1.056694053113460541e-02 -8.099252730607986450e-02 6.295020878314971924e-02 3.112717904150485992e-02 6.295948082879476715e-07 5.177264660596847534e-02 1.865333691239356995e-02 2.432723762467503548e-03 6.501727551221847534e-02 -6.174219888634979725e-04 -2.413784712553024292e-02 -7.317252457141876221e-02 -7.364269345998764038e-03 -3.979836776852607727e-02 -5.878297984600067139e-02 -7.198868691921234131e-02 1.201959047466516495e-02 -6.293831020593643188e-02 -3.760727704502642155e-04 -9.401139803230762482e-03 5.910056177526712418e-03 -7.865863293409347534e-02 5.478047765791416168e-03 4.618857428431510925e-02 -8.313659578561782837e-02 9.216683916747570038e-03 -2.458160370588302612e-02 4.951773211359977722e-02 -6.728164386004209518e-03
6.310476362705230713e-02 1.265310496091842651e-02 -8.798898476851298126e-34 -1.856642309576272964e-03 8.714702911674976349e-03 1.112559810280799866e-01 2.291204509674571455e-05 -2.222861722111701965e-02 3.572524292394518852e-03 1.166360676288604736e-01 1.389972865581512451e-01 -7.714154198765754700e-04 -5.889032372863312048e-09 1.836035847663879395e-01 6.354774534702301025e-02 -2.093082862586470583e-08 -6.600778549909591675e-02 1.630181670188903809e-01 5.424478277564048767e-02 -3.278989311183977406e-07 -2.082861773669719696e-02 1.324328929185867310e-01 1.373686343431472778e-01 2.142414078116416931e-02 1.111710518598556519e-01 -6.333132833242416382e-02 1.456639170646667480e-01 -7.707549538143922425e-32 7.864878326654434204e-02 5.147246271371841431e-02 -2.526046941056847572e-03 1.741824597120285034e-01 -8.087322115898132324e-03 1.226300150156021118e-01 3.175242990255355835e-02 2.388387732207775116e-02 -5.801867693662643433e-03 7.752601802349090576e-02 -5.891143903136253357e-02 -7.169742882251739502e-02 -1.341294776648283005e-02 -4.650886356830596924e-02 2.534150704741477966e-02 -3.904355262430287274e-33 -6.911025941371917725e-02 -4.862516639336789126e-14 1.152206659317016602e-01 -4.337530955672264099e-02 1.898355334997177124e-01 -3.193537145853042603e-02 6.117333844304084778e-02 -1.732472889125347137e-02 6.970710307359695435e-02 5.244681984186172485e-02 1.536960899829864502e-01 1.689176261425018311e-02 1.299672275781631470e-01 -6.006620451807975769e-02 1.144487503916025162e-02 8.928930014371871948e-02 -6.985653726587770507e-07 1.120870038866996765e-01 -7.113286107778549194e-02 -3.694050729875337110e-27
