-3.500651195645332336e-02 4.053729027509689331e-02 4.781152307987213135e-02 9.225749224424362183e-02
-5.228749010711908340e-03 6.727003492414951324e-03 5.999343469738960266e-02 1.763897016644477844e-02
2.127477491740137339e-04 1.406987208394605327e-33 -6.569727510213851929e-02 1.895558376929784572e-08
5.859457451151683927e-05 7.953102141618728638e-02 7.756370119750499725e-03 -3.349370509386062622e-02
4.595931619405746460e-02 4.936421100865118206e-05 -1.175189083824079717e-07 -1.225482393056154251e-02
2.724580653011798859e-02 1.324184089899063110e-01 1.295711006969213486e-02 -2.022196352481842041e-02
4.471462965011596680e-02 -4.962623864412307739e-02 7.521566003561019897e-04 4.754246212542057037e-03
-1.264869206352159381e-04 2.261682646349072456e-03 7.479471902938072958e-12 -6.429992616176605225e-02
-2.780352719128131866e-02 -3.078395687043666840e-02 3.419969696551561356e-03 -3.590710833668708801e-02
-1.091887131333351135e-01 1.045466363430023193e-01 -9.454267472028732300e-02 3.751157224178314209e-02
5.251158401370048523e-02 7.367881387472152710e-02 3.492364659905433655e-02 1.669992357492446899e-01
1.747763017192482948e-04 -3.988901618868112564e-03 2.631137922606556357e-31 5.028872936964035034e-02
1.759308623149991035e-03 -7.380513101816177368e-02 7.147389464080333710e-03 1.056433003395795822e-02
-1.476968824863433838e-01 4.192564636468887329e-02 4.294160380959510803e-02 1.057628095149993896e-01
5.243027582764625549e-02 6.566882878541946411e-02 4.405330494046211243e-02 5.302820354700088501e-02
-1.891083666123449802e-03 5.872506299056112766e-04 -1.657868549227714539e-02 -1.970948942023276369e-26
6.783644109964370728e-02 9.584433585405349731e-02 -1.941844262182712555e-02 -2.272060140967369080e-02
-1.222993806004524231e-01 1.314150542020797729e-01 -1.036458741873502731e-02 1.182906255125999451e-01
-4.750706255435943604e-02 3.388357535004615784e-02 2.158247679471969604e-02 8.383747935295104980e-02
2.223124355077743530e-02 1.309672277420759201e-02 -3.202321963158283324e-08 -4.170976951718330383e-02
7.350388169288635254e-02 -4.549878090620040894e-02 3.106953389942646027e-02 -7.331690192222595215e-02
-7.544919848442077637e-02 9.190919250249862671e-02 6.859431974589824677e-03 9.111820161342620850e-02
-1.299421787261962891e-01 6.294209510087966919e-02 3.133680671453475952e-02 4.784912616014480591e-02
-2.870462648570537567e-02 3.780904412269592285e-02 3.786448761820793152e-02 8.208588697016239166e-03
-7.100154459476470947e-02 1.461809724569320679e-01 2.264591865241527557e-02 -7.576312124729156494e-02
-1.051170402206480503e-03 -4.189053177833557129e-02 -8.450761437416076660e-02 -2.881809836253523827e-03
5.318988114595413208e-02 1.545258462429046631e-01 4.731109738349914551e-02 6.477600336074829102e-02
3.727528452873229980e-02 -3.870480507612228394e-02 -8.330619527541216485e-10 7.521018385887145996e-02
-1.152362897992134094e-01 3.413303941488265991e-02 2.895273454487323761e-02 -3.666908666491508484e-02
-4.165930300951004028e-02 1.163417100906372070e-01 1.016016229987144470e-01 -1.812597736716270447e-02
-1.163668930530548096e-02 3.962155058979988098e-02 -3.729728609323501587e-02 -1.755483681336045265e-04
-9.723232686519622803e-02 1.191642656922340393e-01 -6.482254713773727417e-02 1.420568972826004028e-01
-2.188386954367160797e-02 3.120607696473598480e-02 1.694586500525474548e-02 -1.236355677247047424e-01
-1.336578279733657837e-01 -6.554553657770156860e-02 3.189726173877716064e-02 5.848261341452598572e-02
-3.690188378095626831e-02 4.443598538637161255e-02 5.202470719814300537e-02 1.988795213401317596e-02
7.889276370406150818e-03 -6.886150687932968140e-02 2.105510607361793518e-02 3.907412290573120117e-02
1.108918245881795883e-02 -8.042484521865844727e-03 6.377644091844558716e-02 -8.620965294539928436e-03
-7.884426414966583252e-02 7.703539729118347168e-02 6.423720717430114746e-02 -1.084162890911102295e-01
-2.108254283666610718e-02 2.377401571720838547e-03 -2.599391154944896698e-02 -8.335003256797790527e-02
1.265662722289562225e-04 -1.098315697163343430e-04 8.843041723594069481e-05 -3.384930314496159554e-04
5.934815853834152222e-02 3.604314057156443596e-03 1.669218949973583221e-02 -4.929096624255180359e-02
7.784841000102460384e-04 -3.654845058917999268e-03 -7.707479875534772873e-03 2.649964066222310066e-03
-5.648537725210189819e-02 2.691197022795677185e-02 2.948564477264881134e-02 1.490943878889083862e-02
-1.128584379330277443e-03 3.107263240963220596e-03 -5.177652928978204727e-04 6.491526961326599121e-02
-4.743085429072380066e-02 -2.027475042268633842e-03 2.787848934531211853e-03 3.945566713809967041e-03
-4.350354458892979892e-07 -1.295911893248558044e-02 -5.138206481933593750e-02 6.176402047276496887e-02
-7.159228622913360596e-02 9.297605603933334351e-02 7.790245860815048218e-02 2.939156815409660339e-02
1.277292147278785706e-02 -3.307005763053894043e-02 1.006750855594873428e-02 7.240696996450424194e-02
-1.356596648693084717e-01 -3.693717299029231071e-03 6.271441280841827393e-02 1.677295565605163574e-01
4.608829331118613482e-04 8.090025186538696289e-02 -1.246726885437965393e-02 -7.370028179138898849e-03
-7.012472953647375107e-03 -5.874448642134666443e-02 5.763174500316381454e-03 -2.346519567072391510e-02
-1.154367905110120773e-02 -3.088980540633201599e-02 3.670855239033699036e-02 -2.916278317570686340e-02
-1.041458360850811005e-02 -2.989452332258224487e-02 -2.829405106604099274e-02 9.737544693052768707e-03
7.731562852859497070e-02 6.600081920623779297e-02 3.881307784467935562e-03 -6.710162758827209473e-02
-6.300348788499832153e-02 8.207316696643829346e-02 3.507461398839950562e-02 1.591541916131973267e-01
-2.844851277768611908e-02 2.051243558526039124e-02 4.737624526023864746e-02 1.595838926732540131e-02
-6.793691217899322510e-02 6.521067023277282715e-02 3.538373485207557678e-02 1.250386536121368408e-01
-1.027354734617347276e-08 -7.361862808465957642e-02 4.076354578137397766e-02 6.276392191648483276e-02
-1.250509452074766159e-02 2.387771010398864746e-02 -3.843671584036201239e-05 -3.776142839342355728e-04
-4.757619276642799377e-02 5.990437790751457214e-02 7.577600330114364624e-02 7.148835808038711548e-02
1.671710379014257342e-05 -5.471736192703247070e-03 -2.819924615323543549e-02 2.371498569846153259e-02
-3.332360461354255676e-02 2.314495109021663666e-02 1.688396744430065155e-02 -1.776410639286041260e-02
-5.953243933618068695e-03 -2.042309939861297607e-02 -2.328312955796718597e-02 -2.278522402048110962e-02
6.224052235484123230e-02 -1.072025485336780548e-02 5.069106700830161572e-04 7.582682883366942406e-04
