-5.659354478120803833e-02 -7.677219063043594360e-02 6.154330074787139893e-02 1.380062699317932129e-01 2.914091944694519043e-02 -5.254938453435897827e-02 -4.645958170294761658e-02 7.138306740671396255e-03 -6.252992153167724609e-02 -1.346724573522806168e-02 -5.445986241102218628e-02 -8.339158375747501850e-04 2.867772057652473450e-02 2.032903581857681274e-02 9.082639217376708984e-02 -7.472031563520431519e-02 1.451277148589724675e-05 9.348180890083312988e-02 6.107511464506387711e-03 -6.270768493413925171e-02 7.255059201270341873e-03 6.558615714311599731e-02 5.881711840629577637e-02 -1.310323774814605713e-01 3.768977895379066467e-02 9.525036066770553589e-02 -6.596957147121429443e-02 -8.527192473411560059e-02 -1.049401093283705949e-27 7.313468493521213531e-03 5.515161901712417603e-03 -4.913642071187496185e-03 -6.098251789808273315e-02 -6.035069748759269714e-02 -2.367203401208066785e-15 4.858909174799919128e-02 -1.449642609804868698e-02 -8.192526549100875854e-02 6.359622627496719360e-02 9.793670475482940674e-02 7.355663925409317017e-02 1.256580650806427002e-01 -1.862286031246185303e-02 9.735367447137832642e-02 4.402558505535125732e-02 2.859400957822799683e-02 -8.048351854085922241e-02 6.721214950084686279e-02 -9.383917254357498905e-12 2.787780202925205231e-02 6.409670412540435791e-02 8.634299039840698242e-02 -2.784551543300040066e-05 -5.078870430588722229e-02 -3.868053480982780457e-02 -7.058621197938919067e-02 -9.534223377704620361e-02 4.022394865751266479e-02 -3.595088422298431396e-02 -1.940914802253246307e-02 -6.212712451815605164e-02 3.938611131161451340e-03 -3.900618106126785278e-02 1.061932519078254700e-01
-7.720206864178180695e-03 -6.196086853742599487e-02 2.787587582133710384e-04 1.361734903184697032e-04 3.107516840100288391e-02 -1.101510375738143921e-01 5.820481106638908386e-02 -2.009321376681327820e-02 -2.629215942184792709e-11 -4.318479718173071372e-34 6.567759066820144653e-02 -9.342893608845770359e-04 9.727391600608825684e-02 7.705684006214141846e-02 9.170031175017356873e-03 -4.874463775195181370e-04 1.215285509824752808e-01 1.305706501007080078e-01 1.343484669923782349e-01 1.015034615993499756e-01 8.305408060550689697e-03 1.349710226058959961e-01 -7.999894022941589355e-02 -9.804688394069671631e-02 -5.192141179577447474e-05 7.523174583911895752e-02 1.750858314335346222e-02 3.720040619373321533e-02 -2.271197922527790070e-02 6.509461998939514160e-02 1.229430511593818665e-01 2.202845811843872070e-01 -5.744875222444534302e-02 1.598809659481048584e-01 -2.539812804513985611e-10 -8.257040381431579590e-02 -6.424045867634065614e-23 6.969258934259414673e-02 1.191385909914970398e-01 4.497973714023828506e-04 5.237921327352523804e-02 -7.496171444654464722e-02 1.106587126851081848e-01 5.417416989803314209e-02 1.417350023984909058e-01 -4.910423606634140015e-02 -6.190628185868263245e-02 -3.228062018752098083e-02 7.265101430675713345e-06 1.373983323574066162e-01 -1.734251715242862701e-02 2.794449031352996826e-02 -7.799466699361801147e-02 -4.077328369021415710e-03 1.584783792495727539e-01 -2.942364662885665894e-03 6.206012517213821411e-02 1.930821537971496582e-01 -3.795650787651538849e-03 -1.965850777924060822e-02 9.615892916917800903e-02 1.106017529964447021e-01 -8.838581293821334839e-02 9.053831547498703003e-02
-8.529789745807647705e-02 5.335772037506103516e-02 -1.029598563909530640e-01 -2.036850713193416595e-02 -8.764110505580902100e-02 4.904849082231521606e-02 9.215124696493148804e-02 4.725792631506919861e-02 -4.786715656518936157e-02 -7.429621368646621704e-02 -1.163030117750167847e-01 -1.008626073598861694e-01 1.567963212728500366e-01 3.810214577242732048e-03 9.006474167108535767e-03 -2.139860577881336212e-02 8.059983700513839722e-02 1.110662296414375305e-01 1.391312945634126663e-02 1.778914332389831543e-01 2.062632590532302856e-01 -1.393894851207733154e-01 -2.933759056031703949e-02 2.541010379791259766e-01 -2.814948745071887970e-02 6.689923256635665894e-02 -2.204745449125766754e-02 7.660438120365142822e-02 1.064333226531744003e-02 1.546273231506347656e-01 8.859185874462127686e-02 5.535711348056793213e-02 1.330220848321914673e-01 -6.503700464963912964e-02 -6.472139060497283936e-02 1.002042321488261223e-03 -2.217699028551578522e-02 9.746739268302917480e-02 2.372518880292773247e-03 8.600173145532608032e-02 1.331496089696884155e-01 8.310807496309280396e-02 1.575800627470016479e-01 8.109125494956970215e-02 3.333808481693267822e-02 -6.131188198924064636e-02 -7.041766494512557983e-02 9.518194012343883514e-03 -2.361598657444119453e-03 7.339803874492645264e-02 -2.027943171560764313e-02 1.166834831237792969e-01 -8.258543908596038818e-03 -4.412558395415544510e-03 4.145368188619613647e-02 -2.499382942914962769e-02 -1.243555918335914612e-02 2.161135524511337280e-01 -8.465340733528137207e-02 -2.903058775700628757e-04 -6.919710338115692139e-02 1.585686504840850830e-01 -1.209885813295841217e-02 1.718949675559997559e-01
-7.524237036705017090e-02 -2.932865731418132782e-02 1.340506970882415771e-01 6.136580556631088257e-02 -1.087415404617786407e-02 -5.760356783866882324e-02 1.927107945084571838e-02 1.039954572916030884e-01 2.146509535901220268e-17 4.129406809806823730e-02 7.174324989318847656e-02 8.621333626674860539e-34 1.227698475122451782e-02 1.482592225074768066e-01 3.820833563804626465e-02 -2.418124722680659033e-06 -3.121433407068252563e-02 5.739266425371170044e-02 1.094041764736175537e-01 2.848387509584426880e-02 -7.916904240846633911e-02 7.229498028755187988e-02 -2.468292935952061930e-33 -1.098503395915031433e-01 -6.305606104433536530e-03 -3.831003606319427490e-02 -2.478482015430927277e-02 -1.174664124846458435e-02 1.743399724364280701e-02 1.076901033520698547e-01 -2.129496634006500244e-02 -2.529204450547695160e-02 -4.872165154665708542e-03 -8.901154994964599609e-02 -9.764363989233970642e-03 -1.288420800119638443e-02 6.112718954682350159e-02 -1.864033192396163940e-02 -5.020866543054580688e-02 4.464784171432256699e-03 4.660179093480110168e-02 7.483512163162231445e-03 2.601142227649688721e-02 -6.617571343667805195e-04 8.291246742010116577e-02 -4.781479388475418091e-02 -2.701682969927787781e-02 9.505641460418701172e-02 -2.917810576036572456e-03 6.886427104473114014e-02 -1.089033787138760090e-03 2.800454758107662201e-02 5.818850826472043991e-03 -8.270911127328872681e-02 -8.486502617597579956e-02 -4.919729754328727722e-02 -6.702595949172973633e-02 -4.493524134159088135e-02 2.571974751230943212e-11 -1.660228690525400452e-06 7.547547668218612671e-02 -1.952279824763536453e-03 2.387243881821632385e-02 -7.934664189815521240e-02
1.517358049750328064e-02 2.464950783178210258e-03 1.161344796419143677e-01 8.534668385982513428e-02 -2.230335492640733719e-03 -2.044837623834609985e-01 -1.779774576425552368e-02 3.947781771421432495e-02 1.230823169079409141e-13 -1.832475936680566519e-05 2.184473164379596710e-02 -9.595121257007122040e-03 -8.777711540460586548e-02 1.609217524528503418e-01 6.495702266693115234e-02 1.020725537091493607e-02 -1.445708423852920532e-01 -4.497037455439567566e-02 2.283605039119720459e-01 1.416514515876770020e-01 1.055572554469108582e-01 1.381391882896423340e-01 -9.327845955466372531e-33 -5.025331303477287292e-02 1.086132600903511047e-02 7.668916881084442139e-02 -4.146375134587287903e-02 -2.364476025104522705e-02 1.271950461623205797e-10 1.758464127779006958e-01 -1.087538376450538635e-01 4.349099844694137573e-02 -5.039307475090026855e-02 -5.237283185124397278e-02 2.247921423986554146e-03 -2.968627586960792542e-02 3.847304498776793480e-03 -8.462604880332946777e-02 -4.555448889732360840e-02 -8.486741036176681519e-02 9.432365000247955322e-02 1.369538009166717529e-01 8.720182627439498901e-02 -2.129335328936576843e-02 -2.112140357494354248e-01 7.465317100286483765e-02 -4.789171367883682251e-02 8.369908481836318970e-02 -2.448482066392898560e-02 1.044261455535888672e-01 2.605385147035121918e-02 -4.057876393198966980e-02 -1.034114789217710495e-02 -3.022830933332443237e-03 1.469526812434196472e-02 3.856879845261573792e-02 5.152118206024169922e-02 -5.117275938391685486e-02 -1.046723872423171997e-02 2.738936163950711489e-04 1.408419311046600342e-01 4.757482558488845825e-02 -1.314669009298086166e-02 -2.134533375501632690e-01
-4.039207845926284790e-02 -1.775651611387729645e-02 1.913483440876007080e-01 9.757907688617706299e-02 -1.383682247251272202e-02 7.113457657396793365e-03 7.577361911535263062e-02 2.532624639570713043e-02 -7.251382619142532349e-02 -1.779830745363142341e-05 -1.068656146526336670e-01 7.138358056545257568e-02 -1.262930780649185181e-01 1.525045484304428101e-01 7.922578603029251099e-02 -7.335950434207916260e-02 -1.159070953726768494e-01 -1.629161536693572998e-01 1.273941844701766968e-01 7.246515899896621704e-02 -5.523697007447481155e-03 1.077553406357765198e-01 -1.058116205967962742e-03 7.474618405103683472e-02 1.654296211199834943e-04 1.716547757387161255e-01 4.145196452736854553e-02 -1.474384367465972900e-01 -3.603642061352729797e-02 1.184425801038742065e-01 1.974752359092235565e-02 2.288324087858200073e-01 -9.424308687448501587e-02 8.306386321783065796e-02 -6.056013517081737518e-03 -1.935158157721161842e-03 -4.178364947438240051e-02 -9.935776144266128540e-02 -1.117395386099815369e-01 -5.068567767739295959e-02 9.547711163759231567e-02 1.927016526460647583e-01 1.299724429845809937e-01 -4.785823170095682144e-03 1.077447980642318726e-01 -1.046339869499206543e-01 7.687757909297943115e-02 1.304245293140411377e-01 -8.754561841487884521e-02 4.764954000711441040e-02 -2.685704641044139862e-02 6.306875497102737427e-02 1.226805802434682846e-02 1.863533165305852890e-03 1.236650943756103516e-01 -6.876606494188308716e-02 9.633960574865341187e-02 4.277798533439636230e-02 -6.430145353078842163e-02 2.583479695022106171e-02 -7.717438042163848877e-02 1.255279928445816040e-01 -3.849707543849945068e-02 -1.258579492568969727e-01
-8.848582208156585693e-02 -1.340053379535675049e-01 1.242460496723651886e-02 2.224166244268417358e-01 -5.722127109766006470e-02 8.054600656032562256e-02 1.362047195434570312e-01 -2.014191299676895142e-01 2.196234837174415588e-02 3.734592348337173462e-02 -2.106137275695800781e-01 -1.342122326605021954e-03 2.829219773411750793e-02 2.515448629856109619e-01 3.073466196656227112e-02 -2.058262191712856293e-02 -1.095284521579742432e-01 3.222639113664627075e-02 1.950112134218215942e-01 7.503432780504226685e-02 5.551774427294731140e-02 4.639326035976409912e-02 4.992434382438659668e-02 -1.295168697834014893e-01 -6.704583764076232910e-02 5.476414784789085388e-02 -1.061466410756111145e-01 -1.683040112257003784e-01 -4.990508407354354858e-02 4.818432778120040894e-02 9.619267284870147705e-02 1.725315302610397339e-02 -1.455307304859161377e-01 -7.162344455718994141e-02 1.018190671599586631e-21 -9.384572505950927734e-02 -9.282717364840209484e-04 -2.089186757802963257e-01 -5.261988937854766846e-02 8.406224846839904785e-02 -7.999289780855178833e-02 1.019579991698265076e-01 -5.857139080762863159e-02 1.503884792327880859e-01 -1.291918009519577026e-01 -7.703821361064910889e-02 -1.355532407760620117e-01 2.350245118141174316e-01 -8.179545402526855469e-03 6.792719662189483643e-02 7.662207633256912231e-02 8.769264072179794312e-02 8.101228624582290649e-02 -6.625987225561402738e-06 -6.886727362871170044e-02 8.625923097133636475e-02 -1.296503245830535889e-01 1.416539251804351807e-01 -4.130027153603776924e-10 -2.841426618397235870e-02 1.200051978230476379e-01 -3.849049657583236694e-02 -3.936871886253356934e-02 -7.280491292476654053e-02
-1.961174203760765088e-33 3.775302693247795105e-02 5.464698188006877899e-04 1.301649957895278931e-01 -3.086943551898002625e-02 1.739995479583740234e-01 4.801069572567939758e-02 6.175585463643074036e-02 7.452917088812682778e-06 1.022186595946550369e-02 4.046405106782913208e-02 -8.720613550394773483e-04 1.328689306974411011e-01 -1.521190535277128220e-02 -4.413953516632318497e-03 -5.819810903631150723e-04 -3.759738057851791382e-02 2.775429561734199524e-02 3.679595515131950378e-02 9.767992887645959854e-04 -1.596392393112182617e-01 1.148257255554199219e-01 -3.751134716588386945e-33 -1.433755457401275635e-01 -2.208807691931724548e-02 -1.189607381820678711e-01 1.925694383680820465e-02 3.666528686881065369e-02 1.825888641178607941e-02 -8.743423968553543091e-02 7.083612680435180664e-02 3.076505102217197418e-02 -2.552171237766742706e-02 8.302099257707595825e-02 -7.911673188209533691e-02 1.908829063177108765e-02 4.086840781383216381e-04 3.248597960919141769e-03 4.611537605524063110e-02 9.726920723915100098e-02 -1.283123195171356201e-01 2.665551751852035522e-02 -1.610562056303024292e-01 2.002253830432891846e-01 3.242988139390945435e-02 -7.840250432491302490e-02 7.760632038116455078e-02 1.270122677087783813e-01 6.138187646865844727e-02 1.481647603213787079e-02 1.001724600791931152e-02 -6.908316910266876221e-02 8.218007133109495044e-05 3.381555082761945371e-18 -1.351403743028640747e-01 -4.009053111076354980e-02 -7.063809037208557129e-02 7.883413881063461304e-02 -1.824817081796936691e-05 1.688071643002331257e-04 8.975862711668014526e-02 -1.261169016361236572e-01 -7.047141343355178833e-02 -1.153450682759284973e-01
-5.125156790018081665e-02 1.677840501070022583e-01 1.281243860721588135e-01 1.512633711099624634e-01 1.126649081707000732e-01 2.180201858282089233e-01 1.210792362689971924e-02 2.675295993685722351e-02 -9.475307313673212915e-33 -8.868869394063949585e-02 1.983446627855300903e-01 -5.844314396381378174e-02 4.477588832378387451e-02 1.433332171291112900e-02 1.506366953253746033e-02 -2.241113921627402306e-03 1.799860000610351562e-01 4.712174646556377411e-03 -7.768531888723373413e-02 -8.246693015098571777e-02 1.001085862517356873e-01 6.947689503431320190e-02 -3.476107120513916016e-02 6.328612565994262695e-02 -4.148250354774063453e-06 -2.101028338074684143e-02 1.000832691788673401e-01 1.372342854738235474e-01 1.790371537208557129e-02 -9.696158766746520996e-02 2.176369912922382355e-02 -7.775551080703735352e-02 1.771004348993301392e-01 1.796363852918148041e-02 -8.589768782258033752e-03 1.124448180198669434e-01 -2.277933992445468903e-02 1.758118718862533569e-01 3.573446348309516907e-02 1.550794690847396851e-01 -8.727513998746871948e-02 -9.449973702430725098e-02 -3.081389516592025757e-02 1.544577032327651978e-01 2.013576775789260864e-01 2.524569332599639893e-01 9.540770202875137329e-02 -5.330411950126290321e-04 -7.838530838489532471e-02 -6.202021613717079163e-02 -7.810702174901962280e-02 -4.462430253624916077e-02 -1.245222054421901703e-02 -1.012422027997672558e-03 -1.462726444005966187e-01 -4.386899992823600769e-02 6.348560750484466553e-02 4.508284479379653931e-02 1.252925693988800049e-01 -6.838009227067232132e-03 -2.440870739519596100e-02 3.421381115913391113e-02 7.921300828456878662e-02 2.928241491317749023e-01
1.198093499988317490e-02 -1.200867001898586750e-03 -2.425454149488359690e-04 3.932418674230575562e-02 5.095814354717731476e-03 -3.552290581865236163e-05 2.862518886104226112e-03 1.042026653885841370e-01 -3.088690154254436493e-02 1.150170441080134612e-24 -1.064210431650280952e-03 -5.877926200628280640e-02 2.724043326452374458e-03 -2.132641524076461792e-02 -7.220807950943708420e-03 -4.691702542913844809e-06 -5.957595072686672211e-03 3.350598365068435669e-02 -1.308274548500776291e-02 2.361304312944412231e-02 3.489033877849578857e-02 -1.740455254912376404e-02 -6.856268644332885742e-02 3.414728492498397827e-02 -1.147239323719358352e-33 -7.951469719409942627e-02 6.454181857407093048e-06 3.319654206279665232e-05 -2.089744620025157928e-02 2.083268202841281891e-02 1.913925819098949432e-02 7.703235745429992676e-02 -7.141612586565315723e-04 2.213753014802932739e-02 -4.044653102755546570e-02 6.661300938131339281e-33 -2.513448894023895264e-02 3.874937072396278381e-02 -3.823235863819718361e-03 -5.193404373216026215e-09 1.652038842439651489e-02 -6.103688850998878479e-03 1.670771837234497070e-02 5.916818045079708099e-03 -3.354583866894245148e-03 -2.332097478210926056e-02 1.867437049440923147e-08 -2.974379574880003929e-03 1.256395165682988591e-07 3.971320390701293945e-02 -1.335199223831295967e-03 -5.297002189763588831e-06 5.169031798255569312e-33 -5.520159006118774414e-02 -2.738292887806892395e-02 -7.921004667878150940e-03 2.221004664897918701e-02 1.678004488348960876e-02 2.687256596982479095e-02 -1.374302655676729046e-06 2.691804617643356323e-02 -8.680335013195872307e-04 -5.050226580351591110e-03 7.577829807996749878e-02
-1.527384156361222267e-03 -4.552713409066200256e-02 1.260516978800296783e-02 -5.143499374389648438e-02 4.048700630664825439e-02 -4.383408930152654648e-03 -7.226511836051940918e-02 -1.585990637540817261e-01 1.188624255378987827e-33 5.160970317774626892e-07 -1.967726834118366241e-02 5.992422997951507568e-02 2.686766721308231354e-02 -5.552179366350173950e-02 -5.739822983741760254e-02 5.627637356519699097e-02 5.464527383446693420e-02 -3.741182014346122742e-02 -6.952878832817077637e-02 1.670445501804351807e-01 1.778590232133865356e-01 -4.415297508239746094e-02 -1.134383119642734528e-02 1.590176969766616821e-01 -4.045604740099406627e-08 -3.621103987097740173e-02 -5.082152783870697021e-04 7.253658026456832886e-02 1.280313357710838318e-03 1.221249997615814209e-01 -4.008149262517690659e-03 1.523058861494064331e-01 3.215492144227027893e-02 9.614972025156021118e-02 -3.462388123478331672e-17 7.270395290106534958e-03 -8.497282862663269043e-02 3.325193375349044800e-02 1.029059588909149170e-01 -1.814841059967875481e-03 1.365712732076644897e-01 1.218583658337593079e-01 6.607193034142255783e-03 -2.595141064375638962e-03 -9.726937860250473022e-02 4.731407389044761658e-02 -2.490632049739360809e-02 7.361867930740118027e-03 -4.033856838941574097e-02 1.074324622750282288e-01 -7.132160477340221405e-03 -8.947785943746566772e-02 8.471540175378322601e-03 -2.228629961609840393e-02 1.240983530879020691e-01 2.029441855847835541e-02 4.155801609158515930e-02 9.895771741867065430e-02 -2.297327605926824390e-11 -6.295513361692428589e-02 1.721697300672531128e-01 2.194340974092483521e-01 -3.326482698321342468e-02 -6.972377002239227295e-02
7.310845539905130863e-04 6.994721945375204086e-03 2.423042804002761841e-02 -6.487666815519332886e-02 -8.204598724842071533e-02 -1.705995947122573853e-02 -3.034607693552970886e-02 -1.645773649215698242e-01 2.440247661122357626e-33 -9.684869088232517242e-03 8.808428794145584106e-02 -6.545174121856689453e-02 -1.352642774581909180e-01 -7.054419815540313721e-02 -5.715072527527809143e-02 -2.792716585099697113e-02 2.326022088527679443e-02 7.248236332088708878e-03 -3.280026465654373169e-02 2.639587223529815674e-01 1.879525929689407349e-01 -6.500158458948135376e-02 -7.005656510591506958e-02 8.849497139453887939e-02 4.774161425302736461e-06 2.555454969406127930e-01 -7.836066931486129761e-02 -1.343006547540426254e-02 -1.220552250742912292e-03 1.504455655813217163e-01 1.458832025527954102e-01 2.000162005424499512e-01 8.741559088230133057e-02 9.329967945814132690e-02 -3.227262277505360544e-05 -4.489698912948369980e-03 1.284596073674038053e-04 -2.876051515340805054e-02 -7.535793632268905640e-02 -4.152432456612586975e-02 1.555584818124771118e-01 7.543665170669555664e-02 1.697640269994735718e-01 -8.983229100704193115e-02 -7.963384687900543213e-02 2.622468583285808563e-02 -4.196018353104591370e-02 1.638698764145374298e-02 -1.245957147330045700e-02 1.280276626348495483e-01 -4.424501955509185791e-02 -5.673318356275558472e-02 3.022245503962039948e-02 -4.341152962297201157e-03 1.675446331501007080e-01 1.081758290529251099e-01 4.338360577821731567e-02 1.367472112178802490e-01 2.343099378049373627e-02 4.200335126370191574e-03 1.203174814581871033e-01 1.440876275300979614e-01 7.280361652374267578e-02 -1.212483048439025879e-01
-1.328106009168550372e-04 -2.364961244165897369e-02 1.349767856299877167e-02 -1.127020269632339478e-02 -6.656268960796296597e-04 1.175146680907346308e-04 6.362372636795043945e-02 -1.043933164328336716e-02 -1.005680747129370548e-32 -6.382482126355171204e-03 1.093758177012205124e-02 -2.063583934841517475e-07 2.446534112095832825e-02 -4.000929743051528931e-02 -4.404021427035331726e-03 -1.277297542401356623e-06 2.542026899755001068e-02 -8.606655756011605263e-04 -5.504309199750423431e-03 6.950295064598321915e-03 2.707894146442413330e-02 -1.928112097084522247e-02 -1.310802530497312546e-02 2.789930067956447601e-02 1.756724435836076736e-03 9.044456481933593750e-02 -8.261039853096008301e-02 -4.649963229894638062e-04 -5.659488522269384703e-08 4.091891646385192871e-02 9.147664904594421387e-02 1.991457305848598480e-02 -5.508171860128641129e-03 -1.001026853919029236e-02 3.331239213366643526e-06 4.234421998262405396e-03 -8.223089575767517090e-02 4.861542209982872009e-02 1.774342497810721397e-03 -6.779234856367111206e-02 1.324196346104145050e-02 5.084561929106712341e-02 3.372397646307945251e-02 7.253823429346084595e-02 4.587632790207862854e-02 -1.498304773122072220e-04 1.017226930707693100e-02 -7.779459655284881592e-02 -3.817516565322875977e-02 -3.011679090559482574e-02 -6.452495604753494263e-02 -5.449968576431274414e-02 4.899594841845100746e-06 8.118095993995666504e-02 -1.053485553711652756e-02 -1.928884885273873806e-03 9.228493436239659786e-04 2.300338074564933777e-02 -8.410641551017761230e-02 1.907090734221128514e-07 -2.589136594906449318e-03 1.817066781222820282e-02 9.228266775608062744e-03 -1.421943865716457367e-02
-4.321804372708903941e-11 -3.889885731041431427e-03 -7.979352772235870361e-02 -6.495232880115509033e-02 -1.213889452628791332e-03 3.590475069358944893e-03 2.676259540021419525e-02 7.324021309614181519e-02 4.179958254098892212e-02 1.303069530355605260e-16 -1.383217051625251770e-02 3.296812251210212708e-02 2.678844332695007324e-02 -5.965221300721168518e-02 -1.002428587526082993e-02 -2.856530807912349701e-02 -1.425416022539138794e-01 7.177771627902984619e-02 5.688903853297233582e-02 1.524472236633300781e-01 2.374712228775024414e-01 -9.528364241123199463e-02 -7.086968515068292618e-03 1.250056177377700806e-01 -5.516523867845535278e-02 1.993937939405441284e-01 -1.485179085284471512e-02 -3.976908512413501740e-03 -5.249988660216331482e-02 -3.290942683815956116e-02 2.220920845866203308e-02 1.157149896025657654e-01 -5.657590180635452271e-02 5.356765165925025940e-02 1.364359013678040355e-05 -4.686381295323371887e-02 -1.145539246499538422e-02 5.282223224639892578e-02 -4.873608797788619995e-02 1.888853311538696289e-02 -3.804801777005195618e-02 3.518389537930488586e-02 1.417033188045024872e-02 -5.804993212223052979e-02 9.801042079925537109e-02 -6.303773075342178345e-02 -5.563357379287481308e-03 1.075692009180784225e-03 3.366486253818022772e-27 6.294621527194976807e-02 5.578694120049476624e-02 -3.374195098876953125e-02 1.588438904110433734e-33 1.528296340256929398e-02 1.376271946355700493e-03 4.945478215813636780e-02 3.886422514915466309e-02 1.351836174726486206e-01 -1.388197415508329868e-03 2.427812293171882629e-02 1.237676590681076050e-01 1.446487605571746826e-01 -2.305715531110763550e-02 -3.613020479679107666e-02
-1.766931312374708796e-08 2.089552581310272217e-02 2.724731899797916412e-02 -8.585568517446517944e-03 -1.026855077341072911e-15 -1.656022667884826660e-02 8.904891461133956909e-02 1.124422475695610046e-01 -3.426912054419517517e-02 -1.603365689516067505e-02 -3.932319208979606628e-02 8.118838071823120117e-02 -4.147525504231452942e-02 -8.577305823564529419e-02 4.930251743644475937e-03 5.801599645138821870e-09 -7.979975640773773193e-02 -6.271322816610336304e-02 -4.082794114947319031e-02 1.728013455867767334e-01 2.451708316802978516e-01 -7.119062542915344238e-02 -4.540559276938438416e-02 1.856934465467929840e-02 -1.811411231756210327e-02 1.358956396579742432e-01 -2.331057004630565643e-02 -1.311685517430305481e-02 -3.881911560893058777e-02 1.231089085340499878e-01 1.267781406641006470e-01 -6.862454116344451904e-02 -8.129382878541946411e-02 1.680960655212402344e-01 3.074791654944419861e-02 -4.405278712511062622e-02 -3.722633793950080872e-02 1.889061555266380310e-02 -2.276327647268772125e-02 -7.397856563329696655e-02 2.649412676692008972e-02 6.931384652853012085e-02 -1.518018357455730438e-02 -5.344411730766296387e-02 -1.014210935682058334e-02 1.695392280817031860e-02 4.153805226087570190e-02 -4.351011943072080612e-03 6.263214349746704102e-02 2.410512715578079224e-01 2.889664471149444580e-02 -1.090088337659835815e-01 -5.789704248309135437e-02 1.718360371887683868e-02 8.158148080110549927e-02 -6.218331679701805115e-02 -5.917040631175041199e-03 1.369508355855941772e-01 -2.823124639689922333e-02 -4.651107825338840485e-03 1.773699522018432617e-01 -5.197619646787643433e-02 -4.531582072377204895e-02 3.973484970629215240e-03
