-6.446784734725952148e-02 2.852256596088409424e-01 -1.197644625790417194e-03 -2.722331788390874863e-03 1.740556955337524414e-02 -1.682790927588939667e-02 2.105669351294636726e-03 1.808606237173080444e-01 -8.111522346735000610e-02 2.058573961257934570e-01 -5.781627725809812546e-03 -6.195832788944244385e-02 -8.023378998041152954e-02 -3.387280739843845367e-03 -8.397373557090759277e-02 2.988559659570455551e-03 -1.364198140799999237e-02 7.722415775060653687e-02 5.225881523074349388e-06 1.321391609963029623e-04 1.745616644620895386e-01 1.666461378335952759e-01 -9.310914576053619385e-02 4.048891423735767603e-04 8.065806329250335693e-02 -3.225086256861686707e-02 -6.521722273333807607e-09 -4.581811837852001190e-03 -5.711352825164794922e-02 -5.316898692399263382e-03 1.787739098072052002e-01 1.357303261756896973e-01 5.767624825239181519e-03 7.454869151115417480e-02 -2.875809790566563606e-03 1.542356461286544800e-01 -1.841171272099018097e-02 1.438938081264495850e-01 7.923040539026260376e-03 -4.802426323294639587e-02 4.443981219083070755e-03 -7.022498548030853271e-02 1.063218787312507629e-01 3.051724135875701904e-01 3.622440621256828308e-02 -1.508606597781181335e-03 2.847853116691112518e-02 -8.820621296763420105e-03 1.656780578196048737e-02 3.940341249108314514e-02 2.363384813070297241e-01 4.829840734601020813e-02 7.659944891929626465e-02 2.183748185634613037e-01 -2.612078376114368439e-02 -3.313624858856201172e-02 1.387911885976791382e-01 -5.965305864810943604e-02 1.011381223797798157e-01 7.827448099851608276e-02 -7.850728183984756470e-02 1.739216744899749756e-01 -4.343890225300128805e-08 3.222484886646270752e-01
6.324897706508636475e-02 7.988990098237991333e-02 -1.674692495726048946e-03 9.624037891626358032e-02 5.205170509725576267e-06 1.732827350497245789e-02 -5.912900902330875397e-03 9.875167906284332275e-02 -2.564512658864259720e-03 5.127722769975662231e-02 -6.291288137435913086e-02 1.060828100889921188e-02 7.147719152271747589e-03 6.923833489418029785e-02 -7.101254886947572231e-04 3.820751560851931572e-03 5.385849624872207642e-02 1.819653250277042389e-02 -5.116205289959907532e-02 3.539181125233881176e-05 2.507502585649490356e-02 1.049354746937751770e-01 -3.169673029333353043e-03 -9.578611701726913452e-03 2.057372964918613434e-02 -1.260926248505711555e-03 -6.582647529285168275e-07 -1.237548142671585083e-02 3.420310467481613159e-02 -2.042128005996346474e-03 -4.221481084823608398e-02 -1.869909092783927917e-02 -4.021186614409089088e-04 -8.792165666818618774e-03 3.762514889240264893e-02 3.623890876770019531e-02 -3.199562802910804749e-02 -2.223437093198299408e-02 1.647974277148023248e-04 2.790260314941406250e-02 -9.744506996867130511e-07 -9.756382554769515991e-03 3.184044733643531799e-02 4.996876418590545654e-02 9.327406994998455048e-03 -9.336810559034347534e-03 -6.683665513992309570e-02 -1.038923393934965134e-03 7.941150665283203125e-02 3.969322890043258667e-02 -7.442956417798995972e-02 1.214402355253696442e-02 9.156190603971481323e-02 4.987351223826408386e-02 6.273087114095687866e-03 6.862459331750869751e-02 3.858139365911483765e-02 4.603624716401100159e-02 1.845219545066356659e-02 3.666756302118301392e-02 -3.196387737989425659e-02 5.700822174549102783e-02 -1.365088205784559250e-02 -1.123406342230737209e-03
