-1.207966171205043793e-02 -9.268832392990589142e-03
-2.487360239028930664e-01 -1.639339476823806763e-01
4.786518216133117676e-02 4.367647520523192211e-28
-3.939504176378250122e-02 -5.934417992830276489e-02
-8.228380233049392700e-03 3.752296417951583862e-02
-6.351683288812637329e-02 -1.214268704643473029e-04
7.821226119995117188e-02 8.304372429847717285e-03
-1.473125666379928589e-01 -1.552725881338119507e-01
5.250725150108337402e-02 6.946606095880270004e-03
-1.831534206867218018e-01 -1.278031915426254272e-01
3.493147669360041618e-03 4.514124616980552673e-02
-1.247305306605994701e-03 1.677180873230099678e-03
3.308428823947906494e-02 5.696491338312625885e-03
1.850378327071666718e-02 3.504212200641632080e-02
-1.175500359386205673e-02 4.699496552348136902e-02
-1.806728774681687355e-03 7.642432302236557007e-02
-4.618615657091140747e-02 -3.774019330739974976e-02
-6.848856061697006226e-02 -4.897956922650337219e-02
-2.720368852057730713e-12 6.869987118989229202e-03
6.185341626405715942e-02 -4.666543565690517426e-03
-1.462092846632003784e-01 -1.280905008316040039e-01
-7.522393763065338135e-02 -1.600625962018966675e-01
1.013204175978899002e-02 8.696480095386505127e-02
4.367702454328536987e-02 -9.430261328816413879e-03
-8.548371493816375732e-02 -2.236538194119930267e-02
5.537297111004590988e-03 8.822562545537948608e-02
7.501972722820937634e-04 -1.327026843966905290e-08
3.333274275064468384e-03 3.253268776461482048e-03
-2.836689585819840431e-03 -8.639825507998466492e-03
8.877125568687915802e-03 1.390686957165598869e-03
-1.502007544040679932e-01 -1.064278334379196167e-01
-1.143807470798492432e-01 -7.959339022636413574e-02
5.402835668064653873e-04 -1.788751978892832994e-04
-7.958425581455230713e-02 -1.182762719690799713e-02
-8.766048587858676910e-03 -4.897406324744224548e-03
-1.367092281579971313e-01 -9.778822958469390869e-02
1.504435110837221146e-02 1.066409517079591751e-02
-1.175793334841728210e-01 -1.079628691077232361e-01
2.585560642182826996e-02 -2.720602242334280163e-05
-4.597557336091995239e-02 9.938695438904687762e-05
-5.312503199093043804e-04 1.147375907748937607e-02
8.607938140630722046e-02 -2.061921358108520508e-02
-8.933396637439727783e-02 -6.966943293809890747e-02
-2.666978538036346436e-01 -1.740650236606597900e-01
-3.117744252085685730e-02 -2.522767148911952972e-02
7.655590934518841095e-07 2.514522348064929247e-04
-2.126290649175643921e-02 -1.904506422579288483e-02
5.429637152701616287e-03 4.261580761522054672e-03
-3.188397735357284546e-02 -1.830442622303962708e-02
9.854555875062942505e-02 -6.038324162364006042e-02
-2.042152583599090576e-01 -1.320648044347763062e-01
-3.646808862686157227e-02 -5.046666413545608521e-02
-7.732605189085006714e-02 -5.424151569604873657e-02
-2.073768228292465210e-01 -1.299057453870773315e-01
-6.216198380570858717e-05 7.349161058664321899e-02
-5.838709697127342224e-02 -6.257009226828813553e-03
-1.589895784854888916e-01 -1.861448958516120911e-02
-7.359270751476287842e-02 -2.423906931653618813e-03
-1.063396483659744263e-01 -5.884563922882080078e-02
2.776429057121276855e-02 -1.393279060721397400e-02
7.861793041229248047e-03 9.837227314710617065e-02
-1.567386090755462646e-01 -1.263149976730346680e-01
4.319371189922094345e-03 -1.395523454993963242e-02
-2.728855013847351074e-01 -1.829113066196441650e-01
