5.910194013267755508e-03 -7.974320650100708008e-02 -2.367918342351913452e-01 -7.561285793781280518e-02 3.469310104846954346e-01 3.900112211704254150e-01 4.209106415510177612e-02 3.782846331596374512e-01 -1.466889828443527222e-01 -2.403494715690612793e-01 -9.529957175254821777e-02 -1.070994734764099121e-01 6.801614910364151001e-02 2.161248177289962769e-01 2.261690795421600342e-01 -2.810793220996856689e-01 8.451209217309951782e-02 -1.622481644153594971e-01 1.742686331272125244e-02 2.055149823427200317e-01 -6.812410056591033936e-02 -2.783222496509552002e-01 -1.854976713657379150e-01 -1.599007844924926758e-01 1.207022517919540405e-01 -1.141108274459838867e-01 -8.460494689643383026e-03 -1.797643750905990601e-01 -2.305989563465118408e-01 -8.877648413181304932e-02 -9.187588468194007874e-03 1.928115785121917725e-01 1.764388680458068848e-01 -7.503020763397216797e-02 -1.352633684873580933e-01 2.424696981906890869e-01 -2.659352719783782959e-01 -8.947917819023132324e-02 8.317472785711288452e-02 2.539049088954925537e-01 1.430541127920150757e-01 -7.234137505292892456e-02 -1.085230484604835510e-01 -2.305674552917480469e-01 -1.418489664793014526e-01 -1.858711540699005127e-01 -6.606787443161010742e-02 1.426085978746414185e-01 -2.874739468097686768e-01 -3.027970343828201294e-02 2.607166171073913574e-01 2.724289894104003906e-01 1.089550405740737915e-01 -3.508265316486358643e-02 -1.139893904328346252e-01 -4.779981821775436401e-02 1.116010695695877075e-01 -1.284700036048889160e-01 -1.238857805728912354e-01 2.380593717098236084e-01 3.729711174964904785e-01 -4.941911622881889343e-02 -1.629192531108856201e-01 2.526798546314239502e-01
7.360434532165527344e-02 1.390966679900884628e-02 2.303404062986373901e-01 -1.596281975507736206e-01 4.005235433578491211e-02 -6.859575212001800537e-02 1.115797385573387146e-01 1.340443789958953857e-01 -2.729192934930324554e-02 2.257090508937835693e-01 -6.529984623193740845e-02 -1.628288030624389648e-01 -1.271359026432037354e-01 7.954514771699905396e-02 1.058306619524955750e-01 -1.429499685764312744e-01 1.145828962326049805e-01 -1.147577911615371704e-01 1.276886463165283203e-01 1.854018568992614746e-01 -7.116194814443588257e-02 2.147013545036315918e-01 1.455561369657516479e-01 1.988354772329330444e-01 5.413121357560157776e-02 -7.700192742049694061e-03 2.054047584533691406e-01 -1.888661980628967285e-01 4.029501974582672119e-02 -1.254772990942001343e-01 5.975723266601562500e-02 1.866624504327774048e-02 -9.775640070438385010e-02 6.823892891407012939e-02 2.299861982464790344e-02 -3.595462813973426819e-02 -1.567138880491256714e-01 8.308789134025573730e-02 -7.356157898902893066e-02 2.280103415250778198e-01 2.169343978166580200e-01 2.323911041021347046e-01 -7.683712989091873169e-02 -1.845985203981399536e-01 1.043963059782981873e-01 -1.641755402088165283e-01 2.001060843467712402e-01 -9.623286873102188110e-02 -1.790290027856826782e-01 -1.679310798645019531e-01 1.536213755607604980e-01 -4.521926864981651306e-02 5.687785148620605469e-02 2.307474017143249512e-01 -8.316955529153347015e-03 2.829873748123645782e-02 1.368488650768995285e-02 1.036306321620941162e-01 -6.774919480085372925e-02 1.544532924890518188e-01 2.133142016828060150e-02 4.711681976914405823e-02 -9.610828012228012085e-02 -1.469386965036392212e-01
