-1.920735388994216919e-01 6.321591325104236603e-03
2.448375150561332703e-02 1.075051259249448776e-02
-1.155818551778793335e-01 -2.280669212341308594e-01
-5.268942192196846008e-02 -1.842233836650848389e-01
3.463119268417358398e-01 2.917414009571075439e-01
1.226140931248664856e-01 2.819102704524993896e-01
-1.630809605121612549e-01 1.663983762264251709e-01
2.363467216491699219e-01 2.117992639541625977e-01
8.777084201574325562e-02 -6.470694392919540405e-02
-1.372040808200836182e-01 -2.294947952032089233e-01
-4.032725095748901367e-02 -1.285888701677322388e-01
-7.290226966142654419e-02 -1.333235353231430054e-01
-5.205476284027099609e-02 -1.108350418508052826e-02
-6.282906234264373779e-02 3.457537293434143066e-01
1.839346736669540405e-01 4.414118826389312744e-02
-1.928134709596633911e-01 -1.892633885145187378e-01
1.969446539878845215e-01 -8.559565246105194092e-02
-3.090476095676422119e-01 1.527739018201828003e-01
-1.555754542350769043e-01 1.140070110559463501e-01
9.517235308885574341e-02 -3.381351754069328308e-02
1.500442028045654297e-01 -2.215741127729415894e-01
-2.255305200815200806e-01 -4.498176276683807373e-02
2.102802693843841553e-01 -7.245309650897979736e-02
-1.831940747797489166e-02 1.454750448465347290e-01
4.593181237578392029e-02 1.477234810590744019e-01
1.074921265244483948e-01 1.420620083808898926e-01
1.011648774147033691e-02 1.044640168547630310e-01
-2.951243221759796143e-01 -9.708612412214279175e-02
-2.067978382110595703e-01 -6.181526929140090942e-02
-1.427929848432540894e-01 -6.150608137249946594e-02
-2.038225382566452026e-01 -2.150295078754425049e-01
1.770426481962203979e-01 -1.413729339838027954e-01
4.542776569724082947e-02 2.608413398265838623e-01
1.816730499267578125e-01 4.505356401205062866e-02
5.483092367649078369e-02 3.748822584748268127e-02
-7.093380205333232880e-03 3.456219136714935303e-01
-1.207488998770713806e-01 -1.799429655075073242e-01
6.170131638646125793e-02 7.596584409475326538e-02
6.728591769933700562e-02 -4.027909412980079651e-02
2.156659662723541260e-01 6.062909960746765137e-02
-4.436892271041870117e-02 -2.042795298621058464e-03
-1.410181075334548950e-01 -2.082133106887340546e-02
6.528641097247600555e-03 1.056196913123130798e-01
-1.979044973850250244e-01 -1.827453672885894775e-01
1.636551767587661743e-01 -1.843955367803573608e-01
-1.506726741790771484e-01 -2.972760498523712158e-01
-1.075231581926345825e-01 1.527045369148254395e-01
8.084458857774734497e-02 4.337944462895393372e-02
-9.287887811660766602e-02 -2.757136821746826172e-01
2.989830262959003448e-02 -2.025816142559051514e-01
2.871039882302284241e-02 1.192956864833831787e-01
2.253786027431488037e-01 1.692879498004913330e-01
2.182227969169616699e-01 2.917757071554660797e-02
-1.231872364878654480e-01 1.419613957405090332e-01
-7.496814243495464325e-03 7.812976092100143433e-02
-1.433050483465194702e-01 -8.184661157429218292e-03
9.069834649562835693e-02 8.768986165523529053e-02
1.933837495744228363e-02 -2.045391947031021118e-01
-7.163441739976406097e-03 -1.392453163862228394e-01
2.578540742397308350e-01 7.797077298164367676e-02
3.056199848651885986e-01 1.132463887333869934e-01
-2.170338779687881470e-01 -1.817393116652965546e-02
-1.698250621557235718e-01 1.192483212798833847e-02
2.689717710018157959e-01 2.564684450626373291e-01
