1.722687669098377228e-02
-3.242969512939453125e-02
1.201865915209054947e-02
3.647395223379135132e-02
-4.487608745694160461e-02
-4.342523752711713314e-04
2.026371099054813385e-02
-2.169820480048656464e-02
4.000757262110710144e-02
-2.482613315805792809e-03
-2.089260704815387726e-02
-4.726967215538024902e-02
1.440101861953735352e-02
-4.056596010923385620e-02
4.772560298442840576e-02
-1.249259617179632187e-02
-2.259528264403343201e-02
4.518176242709159851e-02
1.525368634611368179e-02
2.390941977500915527e-02
1.259656623005867004e-02
-2.785696089267730713e-02
-2.491138875484466553e-03
0.000000000000000000e+00
-4.517284035682678223e-02
3.359335707500576973e-03
7.859800010919570923e-03
-3.614004934206604958e-03
-2.088080719113349915e-02
3.044658713042736053e-02
-1.450835494324564934e-03
6.398538127541542053e-03
3.159411251544952393e-02
1.411847583949565887e-02
5.987565591931343079e-02
4.415203258395195007e-02
-1.885331049561500549e-02
-2.037169225513935089e-02
-4.962622001767158508e-02
-7.405377109535038471e-04
1.272190548479557037e-02
9.997691027820110321e-03
-5.001002922654151917e-03
4.577181488275527954e-02
2.383071929216384888e-02
6.986928731203079224e-02
1.660391315817832947e-02
-1.223501190543174744e-02
4.775324463844299316e-02
3.158710151910781860e-02
5.182730033993721008e-02
3.072623349726200104e-02
-5.342488735914230347e-02
1.943122968077659607e-02
-4.981491714715957642e-03
2.290836721658706665e-02
2.560627460479736328e-02
0.000000000000000000e+00
2.564045600593090057e-02
-1.770793809555470943e-03
6.639258936047554016e-05
-9.573687799274921417e-03
5.092342197895050049e-02
1.548141334205865860e-02
-3.197412192821502686e-02
1.030645426362752914e-02
5.781264230608940125e-02
4.265674948692321777e-02
3.083850024268031120e-03
8.323594927787780762e-03
2.639585360884666443e-02
7.055264431983232498e-03
6.288477033376693726e-02
5.138321965932846069e-02
1.232859911397099495e-03
-1.891632564365863800e-02
5.472258850932121277e-02
-1.618192717432975769e-02
-2.563155430834740400e-04
-4.780848696827888489e-02
-2.063722815364599228e-03
-4.458071663975715637e-02
4.489531740546226501e-02
-1.294508576393127441e-03
2.700371295213699341e-02
3.964529186487197876e-02
1.761443563736975193e-03
-1.306548528373241425e-02
-5.054818838834762573e-02
5.118537694215774536e-02
-2.787009999155998230e-02
3.595464676618576050e-02
5.871065333485603333e-02
3.949604183435440063e-02
-9.708532132208347321e-03
8.518737740814685822e-03
1.958957314491271973e-02
0.000000000000000000e+00
-1.111477613449096680e-03
-7.904287427663803101e-03
-1.630312763154506683e-02
-5.392109043896198273e-03
0.000000000000000000e+00
1.645543426275253296e-02
-2.790725044906139374e-02
1.733521744608879089e-02
-2.305855043232440948e-03
3.727781027555465698e-02
-4.247395321726799011e-03
2.611202001571655273e-02
-1.778276404365897179e-03
-2.535822615027427673e-02
1.877659186720848083e-02
2.781089022755622864e-02
1.809882558882236481e-02
3.889503329992294312e-02
-3.934090491384267807e-03
-1.576555147767066956e-02
-2.882917970418930054e-02
-1.096262782812118530e-02
0.000000000000000000e+00
3.666544705629348755e-02
2.150152064859867096e-02
7.428774237632751465e-02
3.752722591161727905e-02
-2.234885655343532562e-02
-3.189771960023790598e-04
3.357986733317375183e-02
