-1.688890717923641205e-02 1.682906746864318848e-01 -1.209367066621780396e-02 8.195417933166027069e-03 -7.075987290591001511e-03 -2.155451849102973938e-02 1.986812651157379150e-01 1.911976188421249390e-02 1.305009610950946808e-02 -8.780347530303231278e-31 -4.033985733985900879e-02 1.501336228102445602e-02 -5.147861782461404800e-03 1.402130816131830215e-02 -4.111399874091148376e-02 -4.369427996503416622e-12 1.766576170921325684e-01 1.637796312570571899e-01 9.257249534130096436e-03 1.050097569823265076e-01 -1.443447917699813843e-02 -7.969937287271022797e-04 -1.382149290293455124e-03 -4.286931827664375305e-02 3.523866832256317139e-02 -1.467123045586049557e-03 5.064167827367782593e-02 3.220036253333091736e-02 -2.598233707249164581e-02 4.373649135231971741e-02 1.023946106433868408e-01 2.809695526957511902e-02 8.490647375583648682e-02 8.508409559726715088e-02 1.222271844744682312e-01 1.193277239799499512e-01 -3.128374906627277948e-26 -3.758124634623527527e-02 1.325260400772094727e-01 5.115536041557788849e-04 -1.343433931469917297e-02 -1.056797150522470474e-02 1.624890118837356567e-01 -3.173471242189407349e-02 -2.091630734503269196e-02 9.011149406433105469e-02 -5.075195059180259705e-02 7.411499042063951492e-03 -4.817658290266990662e-02 8.840186148881912231e-02 4.337061196565628052e-02 2.236436307430267334e-02 -4.520374909043312073e-02 1.513701230287551880e-01 1.130030751228332520e-01 -1.620004768483340740e-03 -4.951046779751777649e-02 -1.808644272387027740e-03 -1.746164448559284210e-02 -4.278663517707705251e-17 7.012411952018737793e-02 -1.024172888719476759e-04 7.738567143678665161e-02 2.077874913811683655e-02 2.400176227092742920e-02 -1.080238819122314453e-02 1.017488613724708557e-01 5.823509022593498230e-02 6.387139856815338135e-02 -9.256755933165550232e-03 2.725715981796383858e-03 8.705873787403106689e-02 5.286593362689018250e-02 5.880591645836830139e-02 1.190120819956064224e-02 4.496024303080048412e-06 2.215122133493423462e-01 -3.981999179814010859e-04 -2.362882904708385468e-02 -4.622941091656684875e-02 -4.360210414944276636e-09 -1.392791513353586197e-02 -1.840822957456111908e-02 7.215055078268051147e-02 4.864253103733062744e-02 -2.619074098765850067e-02 -3.383546695113182068e-02 -2.741934498772025108e-03 -2.696322975680232048e-03 4.836241900920867920e-02 1.236468106508255005e-01 2.934690006077289581e-02 1.190361753106117249e-01 -4.980568215250968933e-02 8.228649199008941650e-02 1.114980969578027725e-02 -3.600682318210601807e-02 -1.294165151193737984e-03 -1.426139206728294084e-10 1.012426912784576416e-01 1.258835494518280029e-01 5.256205797195434570e-02 -1.655086816754192114e-05 2.022837474942207336e-02 -3.181441113157823519e-13 2.372054615989327431e-03 -4.208502545952796936e-02 1.551985442638397217e-01 5.444794617966419132e-32 6.605257093906402588e-02 -4.249696212355047464e-05 5.430264770984649658e-02 1.654394119977951050e-01 -2.816344425082206726e-02 1.743177324533462524e-01 7.206857204437255859e-02 -4.239121079444885254e-02 4.101107269525527954e-02 -1.765255630016326904e-02 1.038843691349029541e-01 -2.777090479439184821e-15 3.443599119782447815e-02 6.159157678484916687e-02 1.207829788327217102e-01 -3.870841115713119507e-02 -5.984789686364109100e-32 3.819963708519935608e-02 4.497760161757469177e-02
1.309684514999389648e-01 -7.796445395797491074e-03 -1.225954107940196991e-02 1.157351210713386536e-02 4.096526652574539185e-02 1.442801356315612793e-01 -3.220746060833334923e-03 -1.929035410284996033e-02 2.734764479100704193e-02 1.014884095638990402e-03 -3.232076065118327790e-11 1.134032458066940308e-01 -4.879189655184745789e-03 5.014420673251152039e-02 1.827164441347122192e-01 6.158012896776199341e-02 6.785238534212112427e-02 8.390026539564132690e-02 1.429802030324935913e-01 5.547319073230028152e-03 -1.308376621454954147e-02 1.351279616355895996e-01 -8.919991087168455124e-04 -9.799126535654067993e-03 2.890572324395179749e-02 6.153748184442520142e-02 -5.075209960341453552e-02 2.347126416862010956e-02 7.169032003730535507e-03 1.082700341939926147e-01 -4.258606955409049988e-02 -7.705338299274444580e-03 4.883383587002754211e-02 1.632867753505706787e-02 9.656783193349838257e-03 1.243963241577148438e-01 -5.910229083383455873e-05 8.605948835611343384e-02 -2.836010605096817017e-02 6.010971963405609131e-02 1.637725532054901123e-01 8.841830305755138397e-03 -9.701363978820154443e-08 2.015950828790664673e-01 3.895549848675727844e-02 5.171551834791898727e-03 2.264676392078399658e-01 5.207927897572517395e-03 1.407718360424041748e-01 7.515556365251541138e-02 1.507251709699630737e-01 1.717113852500915527e-01 6.684776395559310913e-02 6.560672074556350708e-02 -1.482031494379043579e-02 1.292067319154739380e-01 7.703548762947320938e-03 -4.078033845871686935e-03 8.772733854129910469e-04 -9.779952961253002286e-06 -2.423793921479955316e-04 4.628578666597604752e-03 1.526050865650177002e-01 -2.293332852423191071e-02 1.876215077936649323e-02 8.986952016130089760e-04 5.818212777376174927e-02 5.246348679065704346e-02 -1.762903667986392975e-02 1.232703626155853271e-01 7.325941324234008789e-02 7.042100280523300171e-02 2.295543253421783447e-01 -3.502220660448074341e-02 -1.625601947307586670e-02 1.065682959952651711e-31 1.472274810075759888e-01 -1.472600502893328667e-03 9.696373343467712402e-02 1.287058740854263306e-01 -2.569941990077495575e-02 -6.973659027566797777e-32 6.787024438381195068e-02 7.333779335021972656e-02 2.133598625659942627e-01 1.949301958084106445e-01 -4.976224899291992188e-02 -2.606102079153060913e-02 8.480116724967956543e-02 2.274751365184783936e-01 2.150663174688816071e-02 5.649856850504875183e-02 1.643529087305068970e-01 -6.524401251226663589e-03 -5.130816660425807640e-09 -8.644843474030494690e-03 7.070283591747283936e-02 -2.363006144923129881e-11 -7.994016015277025475e-22 7.347736041992902756e-03 -8.030674420297145844e-03 1.355428546667098999e-01 -3.698738146340474486e-05 2.613372914493083954e-02 8.028529584407806396e-02 5.932996049523353577e-02 -1.281965733568313226e-08 4.716454818844795227e-02 1.100081801414489746e-01 -3.194204345345497131e-02 -2.494455315172672272e-03 -4.611921212926972657e-06 9.388830512762069702e-02 -2.117090485990047455e-02 -1.759737357497215271e-02 1.353430598974227905e-01 1.630506515502929688e-01 -4.013356566429138184e-02 -2.975820680148899555e-04 -2.077314304187893867e-03 -6.725989010192279238e-08 1.825883686542510986e-01 1.507281810045242310e-01 1.742363572120666504e-01 -2.561119757592678070e-02 6.563225388526916504e-02 -1.545827719382941723e-03 -3.905177861452102661e-02
1.015760377049446106e-02 7.882647216320037842e-02 7.223554700613021851e-02 2.501116693019866943e-02 4.272316396236419678e-02 1.409316360950469971e-01 3.822010243311524391e-03 1.176803708076477051e-01 -5.245599150657653809e-02 -6.706695072352886200e-03 4.149332642555236816e-02 1.287173837314250084e-31 4.486753791570663452e-02 -1.481195725500583649e-02 -4.892328754067420959e-02 1.235392596572637558e-02 2.195731177926063538e-02 -2.791812643408775330e-02 -4.710622131824493408e-02 -2.407236211001873016e-02 1.151998564600944519e-01 5.489798262715339661e-03 -1.002953581519250292e-06 -1.596174060980448672e-11 -1.573528908193111420e-02 1.652427017688751221e-01 -2.455904893577098846e-02 7.181949168443679810e-02 8.582656085491180420e-02 1.356520950794219971e-01 -2.270538918673992157e-02 1.968541294336318970e-01 2.198203057050704956e-01 9.378328919410705566e-03 -5.890477448701858521e-02 9.656678885221481323e-03 6.629041582345962524e-02 -6.556494890369581097e-32 -1.702728308737277985e-02 -1.368934524039648716e-31 1.615271419286727905e-01 1.094861701130867004e-01 1.790437474846839905e-02 -2.948044613003730774e-02 1.916629821062088013e-01 -6.781590729951858521e-02 3.173952549695968628e-02 -1.345216442132368684e-04 1.158042550086975098e-01 1.422711461782455444e-01 -5.099247768521308899e-02 1.682650446891784668e-01 -1.089830300770699978e-03 -1.938877440989017487e-02 1.501186192035675049e-01 1.168118491768836975e-01 8.528474718332290649e-02 -2.669047132854151586e-23 8.183372765779495239e-02 -3.514442651066929102e-04 -2.720539830625057220e-02 5.934286862611770630e-03 -5.015351250767707825e-02 1.304514706134796143e-01 -3.873693570494651794e-02 9.013057500123977661e-02 -5.627955868840217590e-02 -4.175873473286628723e-02 -1.741992123425006866e-02 7.632141560316085815e-02 -2.647439762949943542e-02 1.816755384206771851e-01 -5.381885170936584473e-02 -4.546374082565307617e-02 3.345205262303352356e-02 1.023526787757873535e-01 -5.483983457088470459e-02 9.189581125974655151e-02 1.032219305634498596e-01 1.160197611898183823e-02 2.688411250710487366e-02 9.527672082185745239e-02 -4.323530942201614380e-02 9.401632100343704224e-02 4.618644714355468750e-03 4.715288057923316956e-03 1.648801863193511963e-01 8.265945315361022949e-02 1.218834072351455688e-01 -4.735087975859642029e-02 -1.417713179247296826e-14 1.351694613695144653e-01 -5.878840014338493347e-02 1.949770301580429077e-01 -1.627086475491523743e-02 2.326690126210451126e-03 1.658862084150314331e-01 -3.373322263360023499e-02 -3.743337629202869721e-06 1.048036105930805206e-02 2.034074254333972931e-02 -3.437838236308721207e-09 -1.264610460793846869e-07 1.282658725976943970e-01 1.308790221810340881e-02 -1.095081958919763565e-02 -4.926215857267379761e-02 1.644201725721359253e-01 -2.517830207943916321e-02 -2.609486691653728485e-02 -4.858325794339179993e-02 -9.653984569013118744e-03 7.393462955951690674e-02 1.662195175886154175e-01 -1.630699262022972107e-02 9.544072300195693970e-02 1.600789837539196014e-03 1.538961231708526611e-01 1.245672330260276794e-01 7.837873697280883789e-02 -5.212395638227462769e-02 1.580837517976760864e-01 1.893262267112731934e-01 -7.422699034214019775e-02 1.885990649461746216e-01 1.715681254863739014e-01 6.141333281993865967e-02 -3.146097436547279358e-02
