4.250363633036613464e-02
-1.270637102425098419e-02
1.089659333229064941e-01
7.864432036876678467e-02
-1.535099446773529053e-01
1.030367687344551086e-01
1.017881557345390320e-01
6.792818754911422729e-02
-2.023044973611831665e-02
5.453884974122047424e-02
1.142648607492446899e-01
-2.952117659151554108e-02
-1.545007154345512390e-02
1.354782134294509888e-01
-5.677762255072593689e-02
1.692522317171096802e-01
4.305419698357582092e-02
-3.324414789676666260e-02
1.018400304019451141e-02
1.139954030513763428e-01
1.392185222357511520e-02
1.175452247262001038e-01
9.255645424127578735e-02
7.713378965854644775e-02
1.473880857229232788e-01
1.290690004825592041e-01
1.331001054495573044e-02
5.661785230040550232e-02
-7.481014728546142578e-02
3.995605558156967163e-02
1.464958637952804565e-01
2.596071176230907440e-02
4.992045089602470398e-02
1.958155781030654907e-01
3.404676914215087891e-02
-7.482872810214757919e-03
1.673825383186340332e-01
7.732093334197998047e-02
9.168507158756256104e-02
1.447066962718963623e-01
4.402520135045051575e-02
-3.911476209759712219e-02
2.050801552832126617e-02
-3.779630409553647041e-03
9.158751368522644043e-02
-2.246491052210330963e-02
-6.130271125584840775e-03
8.327183127403259277e-02
1.454090774059295654e-01
-4.670189321041107178e-02
1.181677207350730896e-01
-5.127749592065811157e-02
5.427537485957145691e-02
1.089382767677307129e-01
1.500916332006454468e-01
1.555940359830856323e-01
-9.746053814888000488e-02
-5.741185322403907776e-02
1.337254792451858521e-01
-6.609705090522766113e-02
-5.110137164592742920e-02
-6.597499549388885498e-02
1.178888157010078430e-01
-1.495985221117734909e-02
