-5.592527613043785095e-02 -1.664004474878311157e-02 2.554259598255157471e-01 -1.908877044916152954e-01 -1.787670701742172241e-01 -6.388792395591735840e-02 5.402017012238502502e-02 4.640601575374603271e-02 -1.335290968418121338e-01 2.307969331741333008e-01 -1.147233396768569946e-01 -2.169966697692871094e-02 7.082775980234146118e-02 1.602767109870910645e-01 -4.615810513496398926e-02 6.205213814973831177e-02 9.379189461469650269e-02 9.767724573612213135e-02 -1.515850275754928589e-01 7.151832431554794312e-02 -1.010830048471689224e-03 -1.300166249275207520e-01 2.060533314943313599e-01 -8.371000736951828003e-02 -9.993337839841842651e-02 2.538617234677076340e-03 -2.031012177467346191e-01 4.109064489603042603e-02 1.713334619998931885e-01 1.627821922302246094e-01 1.763098835945129395e-01 -1.253595799207687378e-01 -8.401846140623092651e-02 -1.404638737440109253e-01 -2.332974970340728760e-01 -1.896405667066574097e-01 1.312265396118164062e-01 -2.731398642063140869e-01 -2.386379987001419067e-01 -2.507945895195007324e-02 -5.387261137366294861e-02 9.249862283468246460e-02 -4.972423613071441650e-02 4.476965963840484619e-02 1.484806835651397705e-01 -8.919985592365264893e-02 -1.477116346359252930e-01 3.380126506090164185e-02 -1.073072999715805054e-01 1.254663765430450439e-01 -2.788125537335872650e-02 1.818733662366867065e-01 1.627295315265655518e-01 1.483274847269058228e-01 -1.770437210798263550e-01 8.561073243618011475e-02 2.394037246704101562e-01 -3.433274105191230774e-02 -9.004664421081542969e-02 2.128987312316894531e-01 -6.107945367693901062e-02 3.458300232887268066e-02 -1.848639994859695435e-01 9.331879764795303345e-02
1.821232140064239502e-01 3.816254436969757080e-02 3.443295136094093323e-02 1.519682854413986206e-01 -1.550696417689323425e-02 -1.875653862953186035e-01 -5.371055100113153458e-03 -4.752207547426223755e-02 -7.011258602142333984e-02 3.838015720248222351e-02 1.825859844684600830e-01 -1.600885540246963501e-01 -1.434358060359954834e-01 -2.218981832265853882e-01 -9.721335768699645996e-02 1.609370857477188110e-01 -9.243857115507125854e-02 -3.220505267381668091e-02 1.846232712268829346e-01 -4.062945768237113953e-02 2.466552406549453735e-01 -5.406124517321586609e-02 -1.584450453519821167e-01 -6.920801009982824326e-03 -1.378868669271469116e-01 -4.245661571621894836e-02 6.793065369129180908e-02 2.159513682126998901e-01 9.670064598321914673e-02 -1.279731392860412598e-01 8.746434003114700317e-02 -2.654733695089817047e-02 1.573231071233749390e-01 -1.616974472999572754e-01 5.294412374496459961e-02 -1.631221622228622437e-01 -1.451332569122314453e-01 -2.035649567842483521e-01 -1.176612600684165955e-01 8.338652551174163818e-02 1.303896307945251465e-01 1.391596347093582153e-01 1.618763804435729980e-02 -7.949140854179859161e-03 -2.392166852951049805e-01 1.039646640419960022e-01 -1.162129342555999756e-01 -9.146438539028167725e-02 -1.634257286787033081e-01 1.799667626619338989e-01 -3.927304223179817200e-02 1.935589611530303955e-01 1.526206731796264648e-02 -2.675574123859405518e-01 1.046907007694244385e-01 -3.070550411939620972e-02 6.916917860507965088e-02 -1.476825177669525146e-01 2.434211820363998413e-01 2.449063658714294434e-01 -2.152471393346786499e-01 -1.064582075923681259e-02 1.412774175405502319e-01 1.355873197317123413e-01
-2.116645127534866333e-01 -2.470685392618179321e-01 2.377582192420959473e-01 -1.114363446831703186e-01 -1.645949482917785645e-01 1.454586442559957504e-02 -1.324994266033172607e-01 1.717455871403217316e-02 2.075669765472412109e-01 1.388984173536300659e-01 -7.965955883264541626e-02 2.156341820955276489e-02 1.392088830471038818e-01 2.304533869028091431e-01 1.723265089094638824e-02 9.729234129190444946e-02 -1.533257961273193359e-01 2.260414808988571167e-01 -3.017326816916465759e-02 1.279371082782745361e-01 4.594129696488380432e-02 -1.176263317465782166e-01 2.926917001605033875e-02 -2.209710478782653809e-01 1.639765948057174683e-01 -3.356854245066642761e-02 1.600645482540130615e-02 2.507470548152923584e-01 -1.759871989488601685e-01 1.764646023511886597e-01 8.720490336418151855e-02 -1.966479420661926270e-01 2.463028579950332642e-01 1.531248390674591064e-01 4.351541027426719666e-02 -1.204879134893417358e-01 6.174430623650550842e-02 4.666604846715927124e-02 1.241441518068313599e-01 -2.124632149934768677e-01 2.357366979122161865e-01 -2.212947458028793335e-01 1.462357044219970703e-01 2.489662021398544312e-01 -1.642250865697860718e-01 7.811515778303146362e-02 -1.264940798282623291e-01 4.927722271531820297e-03 -2.708261273801326752e-02 2.280862070620059967e-02 -3.613695874810218811e-02 2.499490529298782349e-01 -2.651608921587467194e-02 2.365504354238510132e-01 -2.063127160072326660e-01 1.342620998620986938e-01 -1.526199281215667725e-01 -5.350005626678466797e-02 1.179993376135826111e-01 7.034681737422943115e-02 -1.997288763523101807e-01 -3.359222412109375000e-02 -2.032199352979660034e-01 3.602297976613044739e-02
-2.049739956855773926e-01 3.279096782207489014e-01 -1.156907156109809875e-01 -1.455263048410415649e-01 -6.061635911464691162e-02 -2.005358338356018066e-01 1.492794901132583618e-01 -1.673948764801025391e-01 1.260466575622558594e-01 6.384105980396270752e-02 -1.984287649393081665e-01 -2.348991334438323975e-01 1.292569190263748169e-01 1.002306044101715088e-01 -2.883699536323547363e-01 -3.877940028905868530e-02 -1.934609115123748779e-01 -5.870912969112396240e-02 3.150740265846252441e-01 7.520015537738800049e-02 1.018020436167716980e-01 -3.104079365730285645e-01 -1.222613602876663208e-01 -1.407650858163833618e-01 2.496748715639114380e-01 -1.329296082258224487e-01 -2.864775657653808594e-01 1.583824008703231812e-01 -1.286604627966880798e-02 -6.877776235342025757e-02 -5.430483072996139526e-02 1.256782710552215576e-01 2.171763330698013306e-01 2.637044712901115417e-02 2.186485975980758667e-01 2.760096192359924316e-01 1.689745299518108368e-02 -1.939144730567932129e-01 -2.108271867036819458e-01 -1.475420445203781128e-01 -2.093602716922760010e-01 9.302597492933273315e-02 1.750206500291824341e-01 -2.581996917724609375e-01 1.145554482936859131e-01 1.162962988018989563e-01 2.376964539289474487e-01 3.266198560595512390e-02 2.461498528718948364e-01 1.789668947458267212e-01 -2.651116624474525452e-02 -8.767342567443847656e-02 -1.642096322029829025e-03 -2.302343398332595825e-02 -1.546635776758193970e-01 3.612243756651878357e-02 1.707235872745513916e-01 -1.475078463554382324e-01 -1.353367418050765991e-01 -1.688842475414276123e-01 -4.660110548138618469e-02 -2.718439996242523193e-01 2.651638090610504150e-01 -1.288000959903001785e-02
-1.908140629529953003e-01 9.734988212585449219e-02 4.671698808670043945e-02 -9.012486785650253296e-02 1.976799815893173218e-01 -8.023636788129806519e-02 -1.674809902906417847e-01 -1.191707402467727661e-01 7.559336721897125244e-02 -2.561472356319427490e-01 5.618550255894660950e-02 -1.944003254175186157e-02 -8.335489034652709961e-02 1.792626529932022095e-01 5.046234931796789169e-03 4.862698540091514587e-02 -1.974676251411437988e-01 -5.666231270879507065e-03 -2.014674991369247437e-01 -1.068184822797775269e-01 -2.190894186496734619e-01 -2.399947494268417358e-01 -9.060328453779220581e-02 1.308261007070541382e-01 7.400006800889968872e-02 1.361627131700515747e-01 3.165834546089172363e-01 -2.617411017417907715e-01 1.386770457029342651e-01 3.211082890629768372e-02 -1.612254530191421509e-01 -9.722349047660827637e-02 -4.064974933862686157e-02 4.747922718524932861e-02 1.871581077575683594e-01 -2.493910640478134155e-01 -3.831075876951217651e-02 1.632050275802612305e-01 -3.526011854410171509e-02 -8.563171327114105225e-02 2.339650094509124756e-01 1.688188016414642334e-01 -1.917833089828491211e-01 1.745375245809555054e-02 -2.008974999189376831e-01 -1.171163544058799744e-01 3.186777830123901367e-01 1.451664566993713379e-01 -2.311051338911056519e-01 -1.141529604792594910e-01 -4.023579508066177368e-02 -2.760907821357250214e-02 2.086921483278274536e-01 9.388360381126403809e-02 1.916008144617080688e-01 3.598205745220184326e-02 1.550143659114837646e-01 2.322152405977249146e-01 -3.096207678318023682e-01 2.358772233128547668e-02 -7.961826771497726440e-02 3.023538291454315186e-01 -9.468796849250793457e-02 -7.640486210584640503e-02
2.792806923389434814e-02 2.133402228355407715e-01 -1.466047614812850952e-01 -2.607345581054687500e-01 -9.083802998065948486e-02 -8.255197107791900635e-02 -6.982924044132232666e-02 3.835401311516761780e-02 2.291288822889328003e-01 -4.210428521037101746e-02 1.366950422525405884e-01 -2.106111496686935425e-02 -2.130901217460632324e-01 -7.086082547903060913e-02 -1.175408437848091125e-01 -4.015402495861053467e-02 1.346372067928314209e-01 -2.335401773452758789e-01 3.047687709331512451e-01 9.697011671960353851e-03 4.667075723409652710e-02 2.014764547348022461e-01 -1.386015862226486206e-01 2.398861646652221680e-01 3.246006667613983154e-01 -4.406665638089179993e-02 3.058170527219772339e-02 2.327143996953964233e-01 -5.111195519566535950e-02 -2.320771068334579468e-01 1.682913005352020264e-01 2.078012526035308838e-01 -6.566169112920761108e-02 1.260447353124618530e-01 9.831294417381286621e-02 -4.705439880490303040e-02 -4.427356645464897156e-02 5.834785476326942444e-02 6.296730786561965942e-02 -2.905527949333190918e-01 -1.679701209068298340e-01 -1.098068132996559143e-01 1.623454317450523376e-02 2.637199163436889648e-01 4.800810478627681732e-03 -9.684494137763977051e-02 -1.912966966629028320e-01 -3.626549988985061646e-02 -2.817912995815277100e-01 -2.241556793451309204e-01 -4.472032189369201660e-02 1.740898489952087402e-01 -2.719259262084960938e-02 -9.812062233686447144e-02 -1.902664601802825928e-01 2.494261786341667175e-02 2.904304265975952148e-01 -3.152013197541236877e-02 -1.536930948495864868e-01 -2.352089434862136841e-02 1.640734374523162842e-01 -9.349419176578521729e-02 -1.948025971651077271e-01 -2.568753361701965332e-01
-3.125274926424026489e-02 -2.024425864219665527e-01 8.681207895278930664e-02 8.390944451093673706e-02 1.227663978934288025e-01 -3.899938985705375671e-02 6.320232897996902466e-02 2.217209190130233765e-01 1.401947140693664551e-01 -1.370565146207809448e-01 3.816312551498413086e-02 1.156794000416994095e-02 -8.506225049495697021e-02 -2.419481426477432251e-01 1.412044614553451538e-01 1.018130853772163391e-01 1.601098626852035522e-01 -1.749195009469985962e-01 1.848593503236770630e-01 -2.069740742444992065e-01 -1.682244092226028442e-01 7.017286866903305054e-02 -2.189491391181945801e-01 -5.313857644796371460e-02 -3.630528599023818970e-02 1.769125908613204956e-01 -1.519369035959243774e-01 -2.450993210077285767e-01 1.635307669639587402e-01 -6.727198511362075806e-02 1.869590207934379578e-02 -1.258405447006225586e-01 -7.421072572469711304e-02 -9.168270230293273926e-02 2.854537777602672577e-02 4.526495561003684998e-02 -2.019690573215484619e-01 -1.241679042577743530e-01 -1.748195290565490723e-01 -2.585915029048919678e-01 -1.585700809955596924e-01 -7.887461781501770020e-02 5.671555176377296448e-02 -9.966980665922164917e-02 1.493124067783355713e-01 1.472839266061782837e-01 -1.035864651203155518e-01 -1.215431615710258484e-01 -2.115272283554077148e-01 1.193265169858932495e-01 -2.337376645300537348e-05 -2.090755552053451538e-01 -7.939966022968292236e-02 -2.304196208715438843e-01 -8.358186110854148865e-03 -5.197966098785400391e-02 -2.366473376750946045e-01 1.728426781482994556e-03 2.059151418507099152e-02 -4.823382198810577393e-02 1.351355109363794327e-02 2.562756240367889404e-01 -6.432281434535980225e-02 -1.103282067924737930e-02
-1.196863502264022827e-01 -1.585101634263992310e-01 -7.875808328390121460e-02 -1.862018108367919922e-01 3.073176927864551544e-02 1.237153857946395874e-01 9.609018266201019287e-02 -8.332159370183944702e-02 -3.640355169773101807e-02 -1.250629127025604248e-01 8.059239014983177185e-03 -1.720672845840454102e-01 1.437685489654541016e-01 1.240294501185417175e-01 7.192097604274749756e-02 7.504357490688562393e-03 -1.744453608989715576e-02 -2.100563198328018188e-01 5.508122965693473816e-03 2.185647748410701752e-02 1.572891473770141602e-01 -1.971689313650131226e-01 -2.060733139514923096e-01 1.882477700710296631e-01 1.669458895921707153e-01 -1.287363171577453613e-01 -9.588069468736648560e-02 -2.771108783781528473e-02 -1.136575937271118164e-01 -1.789955645799636841e-01 -8.598253130912780762e-02 -1.879093945026397705e-01 2.455947548151016235e-01 6.364900618791580200e-02 1.680600494146347046e-01 6.465630233287811279e-02 1.514326632022857666e-01 -1.369730532169342041e-01 1.148262023925781250e-01 1.017382368445396423e-01 3.395107015967369080e-02 1.819308847188949585e-01 8.610871434211730957e-02 1.440348103642463684e-02 1.678258627653121948e-01 9.024626016616821289e-02 -2.717155218124389648e-02 -9.365444630384445190e-02 -1.566209942102432251e-01 -8.492618799209594727e-02 -1.303331106901168823e-01 1.611265838146209717e-01 1.997949331998825073e-01 -2.087920755147933960e-01 2.397491410374641418e-02 -1.411626636981964111e-01 1.899803429841995239e-01 -4.019508510828018188e-02 3.740292415022850037e-02 -6.821834947913885117e-03 -1.639207899570465088e-01 1.432108134031295776e-01 1.987285315990447998e-01 1.247385069727897644e-01
-4.793168604373931885e-02 -1.115014031529426575e-01 -1.502615064382553101e-01 -9.144700318574905396e-02 -5.621946975588798523e-02 -6.155278161168098450e-02 8.031416684389114380e-02 2.649147808551788330e-02 1.705195456743240356e-01 -2.024208307266235352e-01 -1.010462269186973572e-01 1.817935556173324585e-01 -1.678684502840042114e-01 -7.774032652378082275e-02 1.043031215667724609e-01 3.665644675493240356e-02 3.957181423902511597e-02 1.108705177903175354e-01 1.558332890272140503e-01 1.485675275325775146e-01 2.632083296775817871e-01 -9.581451117992401123e-02 1.094075292348861694e-01 3.473649919033050537e-02 2.536748945713043213e-01 2.108699381351470947e-01 9.797316789627075195e-02 -1.886662468314170837e-02 -1.325455605983734131e-01 -2.999188145622611046e-04 -1.014143899083137512e-01 1.053052842617034912e-01 -4.229566454887390137e-02 1.864780485630035400e-01 2.935995347797870636e-02 2.261891961097717285e-01 3.383405879139900208e-02 1.850826479494571686e-02 1.930712610483169556e-01 -9.138601273298263550e-02 2.380940690636634827e-02 -1.190555542707443237e-01 -1.194399520754814148e-01 1.736038625240325928e-01 1.304207593202590942e-01 -1.280910223722457886e-01 -1.548893097788095474e-02 -1.439741551876068115e-01 -1.335442513227462769e-01 1.240032166242599487e-02 -6.216108053922653198e-02 -2.133209109306335449e-01 8.596719056367874146e-02 -4.109460860490798950e-02 2.500967085361480713e-01 2.497429996728897095e-01 -8.227994292974472046e-02 1.368042677640914917e-01 2.080237418413162231e-01 -1.127729564905166626e-01 1.844752728939056396e-01 -2.392698228359222412e-01 -6.017827242612838745e-02 2.064769715070724487e-01
-1.206880882382392883e-01 -9.877300262451171875e-02 -1.551079899072647095e-01 -1.478120237588882446e-01 2.228882461786270142e-01 5.810199305415153503e-02 1.621753871440887451e-01 5.024872720241546631e-02 -8.100933581590652466e-02 -9.803792834281921387e-02 -1.469768732786178589e-01 6.633847486227750778e-03 -1.009739711880683899e-01 9.287180751562118530e-02 1.878149062395095825e-01 6.782887876033782959e-02 -1.563649997115135193e-02 1.834805905818939209e-01 -2.227658182382583618e-01 -2.192582488059997559e-01 -3.508586436510086060e-02 -1.623459160327911377e-01 -3.269011899828910828e-02 -1.826315224170684814e-01 -6.760482490062713623e-02 -1.141893342137336731e-01 2.281696498394012451e-01 -8.387521654367446899e-02 1.223655343055725098e-01 2.599013224244117737e-02 -4.060958698391914368e-02 -1.947389990091323853e-01 8.857496082782745361e-02 -1.593752503395080566e-01 2.485776394605636597e-01 -4.151358082890510559e-02 -1.157365739345550537e-01 3.335822001099586487e-02 -7.851928472518920898e-02 -2.281035855412483215e-02 1.578752845525741577e-01 1.624890416860580444e-01 -1.626108288764953613e-01 3.827505931258201599e-02 5.647531151771545410e-02 4.075122624635696411e-02 1.272934228181838989e-01 1.502820700407028198e-01 1.754812896251678467e-01 -2.209849953651428223e-01 -2.340282499790191650e-01 -8.852763473987579346e-02 2.481385022401809692e-01 -2.377508431673049927e-01 -1.884595751762390137e-01 -9.341939538717269897e-02 -2.151754498481750488e-01 2.445430755615234375e-01 7.130666822195053101e-02 -1.308640837669372559e-01 -1.418596953153610229e-01 -1.158590428531169891e-03 1.362969130277633667e-01 4.528779909014701843e-02
-2.057703584432601929e-02 -2.269508242607116699e-01 -1.340088397264480591e-01 -3.569743037223815918e-02 -1.288959980010986328e-01 1.029346510767936707e-01 -4.382359236478805542e-02 6.730709224939346313e-02 2.779870666563510895e-02 9.833580255508422852e-02 -1.409776974469423294e-02 -6.073061749339103699e-02 4.487701132893562317e-02 1.382705867290496826e-01 1.839636862277984619e-01 -1.667540669441223145e-01 -8.272119611501693726e-02 -1.557689458131790161e-01 5.813564173877239227e-03 -4.391666874289512634e-02 -1.677627675235271454e-02 -1.611221879720687866e-01 -3.165971636772155762e-01 1.144315525889396667e-01 -2.822411358356475830e-01 1.785941570997238159e-01 9.543380886316299438e-02 -2.213113456964492798e-01 -1.721301674842834473e-01 1.335012912750244141e-01 2.663549482822418213e-01 -2.118333131074905396e-01 -9.954353421926498413e-02 -2.170416563749313354e-01 -2.084867209196090698e-01 2.616350352764129639e-02 -1.021388545632362366e-01 1.447553634643554688e-01 -1.031116694211959839e-01 6.911316514015197754e-02 -1.976965516805648804e-01 -2.138344198465347290e-02 4.933702573180198669e-02 -2.428726702928543091e-01 -1.473848521709442139e-01 1.921228766441345215e-01 -2.376828193664550781e-01 5.478560924530029297e-02 1.789312213659286499e-01 1.772232800722122192e-01 1.090977340936660767e-01 1.717875152826309204e-02 1.712329983711242676e-01 -2.282042056322097778e-01 2.643555169925093651e-03 3.070802055299282074e-02 -1.036115512251853943e-01 -2.267512492835521698e-02 -2.619855105876922607e-01 -2.744103036820888519e-02 -2.441410869359970093e-01 -5.791882425546646118e-02 -2.759732306003570557e-01 -9.389404207468032837e-02
-5.676376447081565857e-02 1.498275548219680786e-01 -1.820142865180969238e-01 9.511975198984146118e-02 -1.022257283329963684e-01 1.126627251505851746e-01 1.492434144020080566e-01 7.997986674308776855e-02 3.358291229233145714e-03 -1.397948265075683594e-01 3.686115890741348267e-02 -1.057298853993415833e-01 -1.735569983720779419e-01 1.102745756506919861e-01 -1.115200147032737732e-01 -9.763219952583312988e-02 -1.080944240093231201e-01 -2.906728722155094147e-02 -2.055178433656692505e-01 -2.263781875371932983e-01 9.802499413490295410e-02 -2.187530249357223511e-01 -1.837248504161834717e-01 1.512752026319503784e-01 -1.097786426544189453e-01 3.307421877980232239e-02 1.142165884375572205e-01 -2.305494248867034912e-01 -5.665374454110860825e-03 -1.428717374801635742e-01 -2.929697278887033463e-03 -4.991464316844940186e-02 -2.413679063320159912e-01 -7.506372034549713135e-02 -1.260573267936706543e-01 -1.946814954280853271e-01 5.590050015598535538e-03 2.645904198288917542e-02 1.974562108516693115e-01 6.175864115357398987e-02 1.596798151731491089e-01 -1.259576082229614258e-01 -4.092514514923095703e-02 -2.563833296298980713e-01 1.861683875322341919e-01 1.809706911444664001e-02 8.092398196458816528e-02 -1.086728051304817200e-01 2.170643061399459839e-01 -8.555381745100021362e-02 -1.831950992345809937e-01 -5.783624574542045593e-02 -1.555519700050354004e-01 -1.554575935006141663e-02 -1.693103909492492676e-01 -1.273334622383117676e-01 -7.552179694175720215e-02 1.448487639427185059e-01 -6.248329207301139832e-02 9.112729877233505249e-02 -1.576873660087585449e-01 -1.619140058755874634e-01 2.252713739871978760e-01 1.053267531096935272e-02
6.102100759744644165e-02 2.329858690500259399e-01 5.118099600076675415e-02 -5.267714336514472961e-02 -2.485476620495319366e-02 8.136209100484848022e-02 -2.069036662578582764e-01 -1.564565747976303101e-01 -1.042965650558471680e-01 2.028969824314117432e-01 1.102723553776741028e-01 -7.126048952341079712e-02 -3.820098564028739929e-02 -2.448197901248931885e-01 8.208979666233062744e-02 1.166234463453292847e-01 1.040351837873458862e-01 -1.386572718620300293e-01 -2.206124663352966309e-01 -2.678513824939727783e-01 6.639007478952407837e-02 -4.278055950999259949e-02 -1.483698748052120209e-02 2.744594812393188477e-01 -5.109093710780143738e-02 -8.709537237882614136e-02 -2.297215163707733154e-02 -6.338527053594589233e-02 -1.552130430936813354e-01 3.230576217174530029e-02 2.309388816356658936e-01 -1.675727963447570801e-01 -8.575385436415672302e-03 1.499281227588653564e-01 -2.273561060428619385e-01 2.651785314083099365e-01 -4.058225452899932861e-02 -2.126698940992355347e-01 -5.622577853500843048e-03 -1.976920068264007568e-01 5.454656481742858887e-02 -1.106999814510345459e-01 -1.245219632983207703e-01 9.456378221511840820e-02 9.636721760034561157e-02 4.312780871987342834e-02 -1.001270562410354614e-01 1.436357498168945312e-01 -1.907928660511970520e-02 5.088719725608825684e-02 1.689384691417217255e-02 -1.983680725097656250e-01 -1.451007574796676636e-01 -4.320548847317695618e-02 -2.252434380352497101e-02 1.818240880966186523e-01 -1.002325043082237244e-01 1.124510020017623901e-01 -1.232082918286323547e-01 1.863857656717300415e-01 -8.705836720764636993e-03 1.433202326297760010e-01 1.285743564367294312e-01 2.149358540773391724e-01
-2.105516195297241211e-01 5.171421170234680176e-02 -1.626464352011680603e-02 -1.040762960910797119e-01 1.050721760839223862e-02 9.710670262575149536e-02 6.695578992366790771e-02 1.572802066802978516e-01 2.082455530762672424e-02 -1.316359173506498337e-02 -1.779986023902893066e-01 -8.130562305450439453e-02 -1.631792336702346802e-01 -3.101182542741298676e-02 1.500502824783325195e-01 -1.201345003210008144e-03 -1.303663700819015503e-01 -7.509552687406539917e-02 1.708187460899353027e-01 6.994645297527313232e-02 3.492196090519428253e-03 -1.814613044261932373e-01 2.101089954376220703e-01 -2.119433134794235229e-01 -6.108119618147611618e-03 -2.135557979345321655e-01 -3.355944063514471054e-03 1.090660914778709412e-01 -2.569061517715454102e-01 9.876582771539688110e-02 -1.175783015787601471e-02 -7.736602425575256348e-02 2.902160026133060455e-02 -1.830411255359649658e-01 -1.731422692537307739e-01 1.197464838624000549e-01 1.058088541030883789e-01 -1.736439764499664307e-01 2.127771377563476562e-01 -2.891028672456741333e-02 -1.688351482152938843e-01 4.675678163766860962e-02 -1.724854856729507446e-01 1.774941682815551758e-01 1.524393856525421143e-01 1.862125098705291748e-01 -5.519866198301315308e-02 1.258735358715057373e-01 -1.863604187965393066e-01 1.914117932319641113e-01 4.341831058263778687e-02 -3.266008943319320679e-02 -2.376530170440673828e-01 -1.329180449247360229e-01 -2.217860668897628784e-01 -1.483544409275054932e-01 -1.007753759622573853e-01 2.294782735407352448e-02 -1.697697788476943970e-01 9.610553085803985596e-02 -1.973170042037963867e-01 6.367915123701095581e-02 -1.274258363991975784e-02 4.009913280606269836e-02
-1.267284601926803589e-01 -1.007924973964691162e-01 1.999564766883850098e-01 -7.935582846403121948e-02 1.604483872652053833e-01 -5.664712935686111450e-02 -8.159486949443817139e-02 6.712745130062103271e-02 7.525801658630371094e-02 8.530438877642154694e-03 5.285874381661415100e-02 2.039138525724411011e-01 -1.069627627730369568e-01 5.099189653992652893e-02 -1.243529990315437317e-01 -6.042447313666343689e-02 -2.647321671247482300e-02 8.982346951961517334e-02 1.599652767181396484e-01 -2.012311071157455444e-01 1.153453215956687927e-01 1.476370263844728470e-02 1.013660207390785217e-01 -1.503872573375701904e-01 3.256526216864585876e-02 4.521288909018039703e-03 1.456370800733566284e-01 -4.453440010547637939e-02 -1.287934333086013794e-01 1.511540170758962631e-02 2.511772513389587402e-02 -1.364584714174270630e-01 -6.887021660804748535e-02 1.729379892349243164e-01 -9.630744159221649170e-02 -1.927914917469024658e-01 -7.861013710498809814e-02 7.032086607068777084e-03 4.719241708517074585e-02 -1.469812691211700439e-01 7.198001444339752197e-02 3.020617924630641937e-02 2.980610728263854980e-01 -1.340594422072172165e-02 -2.376288026571273804e-01 1.607774645090103149e-01 -1.962233930826187134e-01 2.336134761571884155e-01 1.041180118918418884e-01 2.751229405403137207e-01 1.401514559984207153e-01 -2.982688322663307190e-02 2.437202185392379761e-01 -1.153320744633674622e-01 2.379013970494270325e-02 6.472463905811309814e-02 6.544175092130899429e-03 2.102464437484741211e-01 1.025216057896614075e-01 -1.324032340198755264e-02 1.585678905248641968e-01 1.348475068807601929e-01 -1.962529271841049194e-01 -9.891770035028457642e-02
9.151007980108261108e-02 1.051228493452072144e-02 6.567511707544326782e-02 1.572437584400177002e-01 -1.756452918052673340e-01 5.813204217702150345e-03 6.589785218238830566e-02 -1.731968671083450317e-01 2.023699879646301270e-01 -8.583956956863403320e-02 -1.036574319005012512e-02 -1.851459741592407227e-01 -4.499692097306251526e-02 2.030202299356460571e-01 1.345519125461578369e-01 2.278295606374740601e-01 -1.745794266462326050e-01 -2.738611698150634766e-01 8.307435363531112671e-02 -1.196456924080848694e-01 -6.646192073822021484e-02 -2.291487157344818115e-02 2.430772408843040466e-02 1.590773165225982666e-01 1.804449260234832764e-01 2.049753367900848389e-01 -1.552915573120117188e-01 2.544159889221191406e-01 -1.317732483148574829e-01 8.104047924280166626e-02 1.469588130712509155e-01 1.587208360433578491e-01 -4.545862600207328796e-02 -1.787244975566864014e-01 1.577023565769195557e-01 -1.482953429222106934e-01 1.471596956253051758e-01 -7.696108520030975342e-02 -8.859863132238388062e-02 5.441311001777648926e-02 -1.395770907402038574e-01 5.576581507921218872e-02 -1.958634108304977417e-01 1.896526664495468140e-01 -1.067869812250137329e-01 1.059751659631729126e-01 1.528062820434570312e-01 1.830388158559799194e-01 -1.531468033790588379e-01 -5.534126609563827515e-02 1.463143676519393921e-01 8.863168209791183472e-02 6.890862435102462769e-02 -1.298818290233612061e-01 -1.998387277126312256e-01 2.684466838836669922e-01 -4.385618492960929871e-02 1.016671434044837952e-01 -1.460532397031784058e-01 -1.953173726797103882e-01 -1.885396242141723633e-01 1.814289391040802002e-01 3.346953913569450378e-02 -4.448347538709640503e-02
-2.020225077867507935e-01 -2.649304866790771484e-01 1.924724504351615906e-02 -1.298382971435785294e-02 8.963312208652496338e-02 9.363541752099990845e-02 -2.799628674983978271e-01 -1.691986918449401855e-01 -8.946958929300308228e-02 -1.358940005302429199e-01 -1.421968638896942139e-01 4.302403703331947327e-02 -1.815541088581085205e-01 -2.437859028577804565e-01 3.601478040218353271e-02 7.454372942447662354e-02 6.822969019412994385e-02 -1.656527966260910034e-01 -1.156668514013290405e-01 -4.917870089411735535e-02 -1.638857722282409668e-01 -4.824050143361091614e-02 -1.060168072581291199e-01 7.834392599761486053e-04 -1.328608691692352295e-01 -1.255937814712524414e-01 2.972353249788284302e-02 -2.747662663459777832e-01 -7.255027443170547485e-02 7.778760045766830444e-02 4.923154786229133606e-02 -7.487009465694427490e-02 1.012865006923675537e-01 1.914414949715137482e-02 -1.066231504082679749e-01 2.147693783044815063e-01 -5.920506268739700317e-02 1.309212483465671539e-02 1.003094948828220367e-02 -1.308815032243728638e-01 2.741063237190246582e-01 -1.368612200021743774e-01 -2.788203023374080658e-02 4.173032194375991821e-02 4.187272116541862488e-02 5.568592250347137451e-02 8.485789597034454346e-02 -7.006082683801651001e-02 -6.056489422917366028e-02 2.361812889575958252e-01 1.936715841293334961e-01 -2.103708237409591675e-01 -1.260920166969299316e-01 1.007097810506820679e-01 -7.157107442617416382e-02 -3.463710471987724304e-02 1.188039481639862061e-01 -6.221933290362358093e-02 4.098994284868240356e-02 1.689686328172683716e-01 -1.343019455671310425e-01 -1.998227685689926147e-01 -5.419940501451492310e-02 6.902028620243072510e-02
3.473683819174766541e-02 4.471301566809415817e-03 1.660580337047576904e-01 9.546878188848495483e-02 2.925330959260463715e-02 9.135403484106063843e-02 -2.546487934887409210e-02 6.726514548063278198e-02 -1.397019475698471069e-01 -1.315372139215469360e-01 8.311972767114639282e-02 8.473745733499526978e-02 1.633182018995285034e-01 1.685286313295364380e-02 -1.677315086126327515e-01 -2.825728617608547211e-02 2.615315020084381104e-01 2.673775255680084229e-01 -5.399138480424880981e-02 -1.125182881951332092e-01 5.104299634695053101e-02 6.824222952127456665e-02 -2.037261575460433960e-01 -1.979571394622325897e-02 -8.691436797380447388e-02 3.657483309507369995e-02 1.331841200590133667e-01 1.558226495981216431e-01 -1.952306926250457764e-01 2.344959676265716553e-01 -2.080474644899368286e-01 -7.174071669578552246e-02 -1.651494801044464111e-01 -1.081921160221099854e-01 6.648136768490076065e-03 1.686689853668212891e-01 -1.442553699016571045e-01 4.790578410029411316e-02 5.211352556943893433e-02 4.482382535934448242e-02 -1.132695302367210388e-01 1.241908743977546692e-01 -1.313241869211196899e-01 -9.379381686449050903e-02 -5.715209990739822388e-02 7.044959068298339844e-02 -1.029365360736846924e-01 4.525649175047874451e-02 -2.336335033178329468e-01 -2.159445174038410187e-02 -1.844931989908218384e-01 -3.644418716430664062e-02 6.852149963378906250e-02 -1.924674957990646362e-01 -1.591580212116241455e-01 9.373267740011215210e-02 9.659423679113388062e-02 -7.270433008670806885e-02 3.760058060288429260e-02 -1.256715208292007446e-01 -3.824559226632118225e-02 1.840383559465408325e-01 8.258043229579925537e-02 8.669338375329971313e-02
-1.195948943495750427e-01 2.837258279323577881e-01 2.525209784507751465e-01 -2.419765144586563110e-01 9.042042493820190430e-02 -2.193373627960681915e-02 -8.472666889429092407e-02 -3.184936195611953735e-02 2.481141500174999237e-02 -2.459758073091506958e-01 -1.255986839532852173e-01 -1.128257215023040771e-01 7.037852704524993896e-02 2.340247631072998047e-01 6.089285761117935181e-02 1.450942158699035645e-01 -1.122715622186660767e-01 1.109430566430091858e-01 1.835369020700454712e-01 -1.216855347156524658e-01 2.410573512315750122e-01 -1.399889886379241943e-01 -1.094771251082420349e-01 2.055483311414718628e-01 -1.786442995071411133e-01 -3.617541119456291199e-02 1.042743548750877380e-01 2.002885751426219940e-02 -1.061383560299873352e-01 6.545153260231018066e-02 -1.585584692656993866e-02 5.359335616230964661e-02 -6.077360361814498901e-02 -1.001766920089721680e-01 -4.866661876440048218e-02 4.807773511856794357e-03 -2.328583784401416779e-02 2.248853147029876709e-01 -5.177050456404685974e-02 -1.729331724345684052e-02 -4.151164367794990540e-02 -2.883239090442657471e-02 -1.365097612142562866e-01 -1.350546330213546753e-01 -2.437817454338073730e-01 1.202804818749427795e-01 3.287821635603904724e-02 -1.851257830858230591e-01 3.246063739061355591e-02 1.262868493795394897e-01 3.478445112705230713e-02 2.526025176048278809e-01 -8.835306018590927124e-02 4.961142688989639282e-02 -9.680693037807941437e-03 -5.123529583215713501e-02 -1.742596328258514404e-01 1.143595799803733826e-01 -5.602414533495903015e-02 4.087470471858978271e-02 1.627833694219589233e-01 -1.679316610097885132e-01 -6.337798386812210083e-02 -1.561069637537002563e-01
-1.190351918339729309e-01 5.034485831856727600e-02 2.068597376346588135e-01 1.406290829181671143e-01 8.633743971586227417e-02 1.794692277908325195e-01 -2.330220043659210205e-01 1.604302972555160522e-01 1.870894283056259155e-01 3.855217993259429932e-02 1.423020809888839722e-01 1.781084239482879639e-01 -5.174138396978378296e-02 2.800885587930679321e-03 -6.699876487255096436e-02 -1.868740469217300415e-01 -1.930001075379550457e-03 1.307796686887741089e-01 2.502512633800506592e-01 -3.628591075539588928e-02 2.626281082630157471e-01 1.332567818462848663e-02 -5.117525532841682434e-02 1.799810677766799927e-01 -2.075965702533721924e-01 1.621968746185302734e-01 -1.994998306035995483e-01 -2.108087241649627686e-01 4.290301352739334106e-03 2.286905795335769653e-02 -8.786905556917190552e-02 -1.244233623147010803e-01 1.309629380702972412e-01 2.054564207792282104e-01 -2.227411717176437378e-01 -7.041281461715698242e-02 -9.707011282444000244e-02 -2.437502518296241760e-02 -1.612705737352371216e-01 -1.182613298296928406e-01 -2.379404902458190918e-01 -7.986124604940414429e-02 6.578362733125686646e-02 -7.641185820102691650e-02 6.124949455261230469e-02 -1.557426806539297104e-02 -2.527245581150054932e-01 8.783642551861703396e-04 -9.097662568092346191e-02 2.218528836965560913e-01 -3.291495144367218018e-02 -1.515968292951583862e-01 2.972548082470893860e-02 2.736301124095916748e-01 -1.477412283420562744e-01 4.274559766054153442e-02 -1.767818443477153778e-02 -2.118022739887237549e-01 1.899286955595016479e-01 -9.472571313381195068e-03 -1.430071890354156494e-01 -9.673956781625747681e-02 -1.281458586454391479e-01 -2.141481786966323853e-01
