1.171753276139497757e-02 -1.186452805995941162e-02 -5.304366350173950195e-02 -6.919893785379827023e-04 1.072917971760034561e-02 2.082943543791770935e-02 -3.858549287542700768e-03 -7.122024893760681152e-02 1.339874928817152977e-03 2.122565172612667084e-02 -2.546066977083683014e-02 5.648409205605275929e-05 -5.783187970519065857e-02 -7.793901860713958740e-02 -7.175649516284465790e-03 -4.009589925408363342e-02 2.479691244661808014e-02 6.646603811532258987e-03 -1.811481639742851257e-02 2.254869975149631500e-02 -2.225457690656185150e-02 -2.893247082829475403e-02 -5.195213481783866882e-03 -3.724771086126565933e-04 -2.576397173106670380e-02 -7.607206352986395359e-04 -4.451543092727661133e-03 -1.086431462317705154e-02 -2.006325684487819672e-02 -2.136458829045295715e-02 4.732319712638854980e-02 4.961493238806724548e-02 4.156043287366628647e-03 2.422082424163818359e-02 -5.500987917184829712e-02 5.780220497399568558e-03 3.832982853055000305e-02 -2.893589250743389130e-02 2.673649042844772339e-02 4.146732017397880554e-02 -3.334735706448554993e-02 -6.332343909889459610e-03 2.579411491751670837e-02 -1.332618761807680130e-02 2.955896966159343719e-02 4.535131528973579407e-02 -4.206833615899085999e-02 -2.055351436138153076e-02 4.372819885611534119e-02 -5.433067306876182556e-02 2.583862282335758209e-02 -5.487319082021713257e-03 3.749492019414901733e-02 7.115706056356430054e-02 3.143262490630149841e-02 3.202696144580841064e-02 1.446901151211932302e-04 3.852836787700653076e-02 6.864292547106742859e-03 1.740054413676261902e-02 -4.914342425763607025e-03 9.359873831272125244e-02 -3.186381608247756958e-02 -2.859877236187458038e-02
-1.798570714890956879e-02 -1.476942328736186028e-03 2.403650805354118347e-02 -5.680459551513195038e-03 -1.189659349620342255e-03 6.894388701766729355e-03 -4.474082496017217636e-03 -5.169380083680152893e-02 -1.500177942216396332e-02 -4.367654025554656982e-02 -1.974183507263660431e-02 -3.355151740834116936e-03 2.066231146454811096e-02 -4.460155591368675232e-02 -1.741348579525947571e-02 -8.819268550723791122e-04 5.539555475115776062e-02 1.526172645390033722e-02 1.077321544289588928e-02 -8.698496967554092407e-03 -4.097076505422592163e-02 4.750962369143962860e-03 -2.615944540593773127e-04 -1.345741283148527145e-02 -4.877473227679729462e-03 1.390298944897949696e-03 2.679089084267616272e-02 3.381157666444778442e-02 -1.074123778380453587e-03 -1.219329796731472015e-02 4.534604400396347046e-02 3.110244683921337128e-02 -1.656457595527172089e-02 -6.428270787000656128e-02 6.846801377832889557e-03 -3.222787985578179359e-03 3.722556307911872864e-02 1.061967457644641399e-03 -2.942265011370182037e-02 6.547643989324569702e-02 -5.165604408830404282e-03 -1.955441385507583618e-02 -1.305995695292949677e-02 4.183155670762062073e-02 -2.399526070803403854e-03 2.884147316217422485e-02 -1.374369859695434570e-02 -8.772020228207111359e-03 6.719545926898717880e-03 -6.330059375613927841e-03 -3.339090198278427124e-02 -1.228776387870311737e-02 2.820869162678718567e-02 1.845937222242355347e-02 -5.333431763574481010e-04 -7.229569833725690842e-03 -1.871016062796115875e-02 2.972950926050543785e-03 -4.932378651574254036e-04 -3.623508673626929522e-04 -3.321100398898124695e-02 1.448243041522800922e-03 5.220923107117414474e-03 5.331667885184288025e-02
-1.394002139568328857e-01 -5.573718622326850891e-02 6.212001293897628784e-02 5.346850957721471786e-03 -1.984077133238315582e-02 -1.167207956314086914e-02 -2.672606706619262695e-02 -5.851460993289947510e-02 2.172527648508548737e-02 2.305242232978343964e-02 -6.698849052190780640e-02 6.831556675024330616e-04 1.475418079644441605e-02 -2.596730552613735199e-02 -1.035255147144198418e-03 -6.714972201734781265e-03 4.464869387447834015e-03 -1.251490204595029354e-03 -2.141770673915743828e-03 2.056973427534103394e-02 -1.368865370750427246e-02 -4.168503917753696442e-03 -7.913270033895969391e-03 -3.031819872558116913e-02 -1.436318270862102509e-03 -3.446426941081881523e-03 3.041788702830672264e-03 1.910757087171077728e-02 -7.296132971532642841e-04 -1.364832464605569839e-02 -1.041331794112920761e-02 -3.029312379658222198e-02 7.931402884423732758e-03 -1.090162713080644608e-02 -1.999565400183200836e-02 8.081172592937946320e-03 -2.285463549196720123e-02 -5.305175436660647392e-04 -2.879876876249909401e-03 -2.327984943985939026e-02 3.013854613527655602e-03 2.213720604777336121e-02 1.753325387835502625e-02 1.171064004302024841e-02 -2.237047534435987473e-03 -1.925513707101345062e-02 -2.555082738399505615e-02 -2.836488187313079834e-03 -2.930863387882709503e-02 3.865296486765146255e-03 -2.754061110317707062e-02 6.162543222308158875e-02 4.956728662364184856e-04 2.138550579547882080e-02 -1.332876738160848618e-02 -6.482676602900028229e-03 -4.914343357086181641e-03 3.198993578553199768e-02 -6.315761245787143707e-03 3.656348912045359612e-03 4.363841563463211060e-02 1.145912054926156998e-02 -3.881005570292472839e-02 -6.224478781223297119e-02
-2.090225741267204285e-02 -7.801789790391921997e-02 7.437820732593536377e-02 3.792612999677658081e-02 -1.511413254775106907e-03 -5.477867275476455688e-02 -5.459912586957216263e-03 1.908404380083084106e-02 -6.552657578140497208e-04 -5.546019598841667175e-02 -2.474705316126346588e-02 -1.697161234915256500e-02 1.775944977998733521e-02 3.954142332077026367e-02 1.711811125278472900e-02 2.410730905830860138e-02 3.993995115160942078e-02 1.337392721325159073e-02 -1.397755648940801620e-02 6.753329932689666748e-02 -1.192503571510314941e-01 1.867945678532123566e-02 4.870403558015823364e-03 -5.040379986166954041e-02 -2.295507490634918213e-02 -1.489696674980223179e-03 -1.525827124714851379e-02 -1.158840656280517578e-01 2.086450549541041255e-04 -7.844026386737823486e-02 3.388983756303787231e-02 -5.223518237471580505e-02 2.520558424293994904e-02 1.230900827795267105e-02 -9.656000882387161255e-02 9.681604802608489990e-03 3.567935526371002197e-02 3.302367404103279114e-02 -3.531908849254250526e-03 2.565704099833965302e-02 -6.680440157651901245e-02 -2.739390172064304352e-02 -4.878434352576732635e-03 1.109282951802015305e-02 -5.007509514689445496e-02 2.290189638733863831e-02 -7.044586539268493652e-02 -5.533983930945396423e-03 -1.282837893813848495e-02 -3.926730528473854065e-02 -1.694153994321823120e-02 1.346958614885807037e-02 4.150001332163810730e-02 5.842363461852073669e-02 -8.573373779654502869e-03 2.370868436992168427e-02 -1.582123106345534325e-03 4.390583187341690063e-02 2.702313708141446114e-03 -2.185663441196084023e-03 1.742244698107242584e-02 -4.231533035635948181e-02 1.199741475284099579e-02 -3.168161213397979736e-02
-1.806231439113616943e-01 5.399057641625404358e-02 -7.573752105236053467e-02 2.948149479925632477e-02 -1.227485947310924530e-02 -6.707228720188140869e-02 -3.995197638869285583e-02 -6.980117410421371460e-02 4.904571454972028732e-03 -1.310612112283706665e-01 -1.087923720479011536e-01 -1.121953781694173813e-02 6.980781257152557373e-02 -1.239809915423393250e-01 2.393468050286173820e-03 -1.804049499332904816e-02 -3.904814133420586586e-03 2.683025784790515900e-02 5.307669937610626221e-02 -1.100009656511247158e-03 1.552687734365463257e-01 -5.172620713710784912e-02 5.989155918359756470e-02 -1.022212430834770203e-01 -1.022249981760978699e-01 -6.748536136001348495e-03 8.259536698460578918e-03 1.634774655103683472e-01 -1.671482576057314873e-03 7.791370898485183716e-02 -2.512086182832717896e-02 -1.116110607981681824e-01 -3.364622965455055237e-02 -1.024742573499679565e-01 4.240259155631065369e-02 2.398850396275520325e-03 -8.010220527648925781e-02 -3.883198369294404984e-03 -3.885161876678466797e-02 -8.736298978328704834e-02 2.685575559735298157e-02 7.425969932228326797e-03 3.701835125684738159e-02 1.265962868928909302e-01 3.548256680369377136e-02 8.895524591207504272e-02 5.454641953110694885e-02 -4.401160031557083130e-02 -1.041213944554328918e-01 3.209769725799560547e-02 -8.475992828607559204e-02 4.925446701236069202e-04 4.387072846293449402e-02 3.002344444394111633e-02 -5.915915220975875854e-02 -1.590292342007160187e-02 -3.335760161280632019e-02 -1.001021359115839005e-02 -2.518615871667861938e-02 5.355112627148628235e-02 1.687341928482055664e-02 2.831736952066421509e-02 -9.252487123012542725e-02 9.202460199594497681e-02
-1.337575167417526245e-01 4.987102374434471130e-02 1.755245178937911987e-01 -3.918264433741569519e-02 -6.768295168876647949e-02 -6.509063765406608582e-03 -2.991337701678276062e-02 -1.257084608078002930e-01 -2.279569627717137337e-03 -7.696573436260223389e-02 -1.229383125901222229e-01 -3.774953074753284454e-03 -1.047377241775393486e-03 -2.077127248048782349e-02 -1.835791207849979401e-02 1.982003822922706604e-02 5.586329102516174316e-02 3.338570147752761841e-02 -7.321952376514673233e-03 1.423850208520889282e-01 -6.879460066556930542e-02 2.175284735858440399e-02 -2.484294120222330093e-03 -9.879837185144424438e-02 -7.141426950693130493e-02 3.223210573196411133e-03 -1.144270878285169601e-03 -7.945577800273895264e-02 2.471241913735866547e-02 -1.852220483124256134e-02 3.550354018807411194e-02 -5.364400148391723633e-02 -3.995357826352119446e-02 2.677166648209095001e-02 -6.891939323395490646e-03 4.596498981118202209e-02 -3.118194453418254852e-02 1.727670431137084961e-02 6.490385532379150391e-02 4.219293966889381409e-02 -1.344870124012231827e-02 -8.356068283319473267e-03 4.714716970920562744e-02 -2.752742730081081390e-02 -6.797845941036939621e-03 1.231381669640541077e-02 -4.640674160327762365e-04 -1.240056101232767105e-02 -6.594897061586380005e-02 -2.324588783085346222e-02 -5.178848654031753540e-02 -4.811942577362060547e-02 8.495943248271942139e-02 8.887101709842681885e-02 -2.677273005247116089e-02 -2.140982821583747864e-02 9.929366642609238625e-04 -6.934097409248352051e-02 -5.919577670283615589e-04 3.745356341823935509e-03 -4.688189178705215454e-02 7.882355153560638428e-02 -5.557759478688240051e-02 -1.388926245272159576e-02
-1.473135594278573990e-02 2.162310294806957245e-02 -6.570622324943542480e-03 -2.633565105497837067e-03 3.178610652685165405e-02 6.065172329545021057e-02 -1.844971068203449249e-02 3.350318223237991333e-02 -1.338485744781792164e-03 -3.653249517083168030e-02 -4.342381656169891357e-02 9.863259270787239075e-03 -1.335071492940187454e-02 -4.940672218799591064e-02 1.647968031466007233e-02 -1.038624905049800873e-02 -1.235976722091436386e-02 -7.827021181583404541e-03 -2.840119972825050354e-02 6.945230066776275635e-02 7.982823252677917480e-02 -1.339245494455099106e-02 -7.082065101712942123e-03 -4.045097529888153076e-02 -6.437246501445770264e-02 -9.938891977071762085e-03 3.345270454883575439e-02 -1.610374264419078827e-02 1.534287352114915848e-03 2.581941522657871246e-02 3.379600867629051208e-02 -3.045885451138019562e-02 -2.832916565239429474e-02 3.925607074052095413e-03 7.255621254444122314e-02 -4.909805953502655029e-03 -3.077742271125316620e-02 -1.760770939290523529e-02 -4.336949065327644348e-02 -3.755520284175872803e-02 5.926336348056793213e-02 7.312047481536865234e-02 6.610724329948425293e-02 5.291585251688957214e-02 5.586658790707588196e-02 -8.694991469383239746e-03 1.751249842345714569e-02 4.095118492841720581e-02 -3.148537874221801758e-02 -5.187354609370231628e-02 -8.082367479801177979e-03 6.170284375548362732e-02 2.660634554922580719e-02 -5.423459038138389587e-02 -2.658784762024879456e-02 -1.271493081003427505e-02 5.328609794378280640e-02 4.231263324618339539e-02 1.149123534560203552e-02 -5.256661027669906616e-02 4.529852420091629028e-02 -1.694249920547008514e-02 7.582601159811019897e-02 9.416884742677211761e-03
-5.606068670749664307e-02 2.618594281375408173e-02 1.888298057019710541e-02 1.546050421893596649e-03 3.698221407830715179e-03 -2.058937214314937592e-02 -1.609852723777294159e-02 -3.077401965856552124e-02 -5.766788963228464127e-04 -7.116719335317611694e-02 4.103382676839828491e-02 -1.437489292584359646e-03 -2.071746625006198883e-02 -3.577676415443420410e-02 2.705982886254787445e-02 5.759204179048538208e-02 3.213850781321525574e-02 -1.348697231151163578e-03 -5.049948766827583313e-02 -3.849815204739570618e-02 -4.628874827176332474e-03 -5.566249601542949677e-03 -3.472958505153656006e-02 -3.130200132727622986e-02 -7.460385095328092575e-03 -6.486852187663316727e-03 2.586595714092254639e-03 1.403881981968879700e-02 5.427201394923031330e-04 1.352684572339057922e-02 -3.786663059145212173e-03 -4.119232669472694397e-02 2.476909570395946503e-02 -1.577851548790931702e-02 2.688074484467506409e-02 1.647973805665969849e-02 7.216985803097486496e-03 -2.528931247070431709e-03 -2.589286305010318756e-02 -4.244273155927658081e-02 1.311286725103855133e-02 1.895651593804359436e-02 -6.357990670949220657e-03 -3.839223831892013550e-02 2.577840350568294525e-03 -3.829372301697731018e-02 5.948204174637794495e-02 2.710409276187419891e-02 -1.510888990014791489e-02 3.120129741728305817e-02 5.419985204935073853e-02 2.056312747299671173e-02 -1.938145258463919163e-03 7.093287073075771332e-03 5.583828315138816833e-03 -5.999108310788869858e-03 1.173834968358278275e-02 -4.073143936693668365e-03 -3.865848993882536888e-03 6.842025555670261383e-03 5.200685001909732819e-03 -6.562361959367990494e-03 -3.838133066892623901e-02 -1.431703800335526466e-03
-3.865550830960273743e-02 -1.388756558299064636e-03 2.831784449517726898e-02 -3.285533515736460686e-03 -2.008914947509765625e-03 1.406102068722248077e-02 -2.966637955978512764e-03 1.631844602525234222e-02 -1.594490371644496918e-03 -1.182020921260118484e-02 4.119290038943290710e-02 -2.320940839126706123e-04 -4.567937552928924561e-02 -1.351153850555419922e-02 3.207656089216470718e-03 -5.255256313830614090e-03 3.124140761792659760e-02 -4.031950235366821289e-02 -8.512832224369049072e-03 6.174070015549659729e-02 1.803641207516193390e-04 1.140095386654138565e-02 3.211107570677995682e-03 2.193016558885574341e-02 2.607659809291362762e-02 5.141672212630510330e-03 -2.587213180959224701e-03 -2.844853885471820831e-02 1.493496587499976158e-03 -1.072257757186889648e-02 3.636187687516212463e-02 -4.823453855351544917e-05 8.032426238059997559e-02 4.506695643067359924e-02 -1.546540018171072006e-02 2.709931880235671997e-02 7.442559301853179932e-02 8.739529177546501160e-03 3.016804158687591553e-02 9.273112565279006958e-02 2.786613628268241882e-02 2.957631833851337433e-02 2.458389475941658020e-02 -2.750754356384277344e-02 -2.703612204641103745e-03 -2.382512204349040985e-02 -3.759532934054732323e-03 -2.259309403598308563e-03 2.392019517719745636e-02 -3.185245394706726074e-02 1.964611560106277466e-02 -1.655447855591773987e-02 2.872163243591785431e-02 -2.459019422531127930e-02 6.939237564802169800e-02 9.520538151264190674e-03 -2.360354410484433174e-03 -3.012594953179359436e-02 3.899786155670881271e-03 3.875670582056045532e-02 -4.943151492625474930e-03 3.003691136837005615e-02 -2.354317530989646912e-02 1.211103610694408417e-02
8.224324882030487061e-02 8.203893899917602539e-03 -1.598600111901760101e-02 -4.361876286566257477e-03 4.889139905571937561e-02 -3.666803985834121704e-02 1.011243648827075958e-02 7.160333544015884399e-02 3.728650277480483055e-03 2.240970358252525330e-02 5.739835649728775024e-02 -3.696971014142036438e-02 1.327704638242721558e-02 -1.654828339815139771e-02 -6.564843934029340744e-03 -1.080573722720146179e-02 -1.809497177600860596e-02 -1.748086139559745789e-02 6.531416438519954681e-03 -1.847502961754798889e-02 8.247540891170501709e-02 -1.674328744411468506e-02 8.417745120823383331e-04 3.086910769343376160e-02 -5.645559355616569519e-02 -4.481169860810041428e-03 2.413676120340824127e-03 3.907391056418418884e-02 1.265419460833072662e-02 1.349317934364080429e-02 -7.934522815048694611e-03 4.773076996207237244e-02 1.872091367840766907e-02 2.027626335620880127e-02 3.517186641693115234e-02 -1.460115145891904831e-02 6.351047009229660034e-02 -7.958964444696903229e-03 -5.632250756025314331e-02 -4.262272268533706665e-02 -3.189481794834136963e-02 5.518906284123659134e-03 -4.340700060129165649e-02 2.628665976226329803e-02 7.128272205591201782e-03 1.883923821151256561e-02 1.682732626795768738e-02 1.605173200368881226e-02 5.206418782472610474e-02 1.166548393666744232e-02 3.820141032338142395e-02 1.461107749491930008e-03 -5.782561004161834717e-02 -6.435815989971160889e-02 -1.779174804687500000e-02 -4.380377475172281265e-03 9.460202418267726898e-03 -4.342164099216461182e-02 -5.061550438404083252e-02 -6.151077337563037872e-03 -2.651784941554069519e-02 -4.124122858047485352e-02 8.056379854679107666e-02 6.951373815536499023e-02
5.779434368014335632e-02 7.434322033077478409e-03 -2.081724815070629120e-03 -1.975961588323116302e-02 -2.468891907483339310e-03 -4.553814977407455444e-02 1.046660076826810837e-02 5.092263594269752502e-02 -6.625006906688213348e-03 3.535284474492073059e-02 1.369768567383289337e-02 2.734216162934899330e-03 -7.907734252512454987e-03 3.748204931616783142e-02 3.091889806091785431e-02 -2.620375156402587891e-02 5.274599045515060425e-02 -7.923528319224715233e-04 2.458113618195056915e-02 -9.056179784238338470e-03 3.594320639967918396e-02 -1.785046979784965515e-02 -6.225344724953174591e-03 2.217542380094528198e-02 -4.307571426033973694e-02 -2.656886354088783264e-03 1.087751123122870922e-03 1.545680686831474304e-02 -5.094780027866363525e-02 1.908097974956035614e-02 -1.254837773740291595e-02 4.720280319452285767e-02 -5.621210113167762756e-02 -1.015909761190414429e-02 1.649070531129837036e-02 -5.420160479843616486e-03 1.962663047015666962e-02 -7.641481235623359680e-03 -5.427811294794082642e-02 6.212664395570755005e-02 2.921528881415724754e-03 3.838779404759407043e-02 -2.794736763462424278e-03 -3.323807567358016968e-02 -2.574292197823524475e-02 -4.585159942507743835e-02 2.146398182958364487e-03 6.841706577688455582e-03 1.381030585616827011e-02 -2.184357121586799622e-02 -1.301298663020133972e-02 -1.481766905635595322e-02 4.652311280369758606e-02 -4.930674284696578979e-02 -4.809143953025341034e-03 -1.759241707623004913e-02 -4.219742026180028915e-03 2.980856224894523621e-02 -7.976602762937545776e-03 1.839250209741294384e-03 2.304122783243656158e-02 -9.096290916204452515e-03 2.003706991672515869e-02 -4.225378856062889099e-02
-5.764111876487731934e-02 4.791400581598281860e-02 6.156832445412874222e-03 -4.050906375050544739e-02 -5.275388713926076889e-03 4.657955095171928406e-02 6.484074890613555908e-02 6.365620344877243042e-02 1.181275025010108948e-02 -6.748656276613473892e-03 5.997634306550025940e-02 4.639284312725067139e-02 -2.821383997797966003e-02 -2.813055738806724548e-02 2.607317827641963959e-02 3.531206399202346802e-03 -5.054564028978347778e-02 2.108034444972872734e-03 -1.194591540843248367e-02 1.811872050166130066e-02 3.247133269906044006e-02 -1.364487782120704651e-02 -3.922320157289505005e-02 -1.752048917114734650e-02 9.780510328710079193e-03 -4.446615930646657944e-04 -1.459882827475667000e-03 -5.451788753271102905e-02 -4.090400412678718567e-02 1.823971420526504517e-02 6.204489618539810181e-03 1.145317777991294861e-02 -2.363234944641590118e-02 1.463413331657648087e-02 -7.808963302522897720e-03 -3.567163133993744850e-03 6.204607337713241577e-02 -5.407665856182575226e-03 -3.337811678647994995e-02 5.717866122722625732e-02 2.906725043430924416e-03 2.858646772801876068e-02 -4.913249984383583069e-02 -4.103276506066322327e-02 -2.859086170792579651e-02 -2.774133346974849701e-02 -1.946412399411201477e-02 1.109890826046466827e-02 1.205717399716377258e-02 5.287452042102813721e-02 1.406205166131258011e-02 9.057995863258838654e-03 -1.611666008830070496e-02 5.228387191891670227e-03 8.816056884825229645e-03 1.116266101598739624e-02 3.308513900265097618e-03 -7.825355045497417450e-03 4.158401396125555038e-03 -3.160082735121250153e-03 3.809643909335136414e-03 -6.361413747072219849e-02 5.058893188834190369e-02 -3.224318474531173706e-02
3.063804283738136292e-02 -1.528978627175092697e-02 -1.942805200815200806e-02 3.782921237871050835e-03 -5.228055268526077271e-02 7.316549308598041534e-03 -1.549618318676948547e-03 -9.057166054844856262e-03 -2.784047974273562431e-04 -1.810322329401969910e-02 -4.522367380559444427e-03 -1.843371312133967876e-03 4.224686324596405029e-02 5.826043337583541870e-02 -1.875634043244645000e-04 -1.102240756154060364e-03 -2.096135541796684265e-02 9.673156775534152985e-03 -1.754477806389331818e-02 -3.960181027650833130e-02 -7.032445818185806274e-02 -3.841977939009666443e-02 -1.128854113630950451e-03 -4.995446279644966125e-02 2.906177565455436707e-02 9.301341138780117035e-03 5.058200913481414318e-04 6.305412203073501587e-02 -4.158121300861239433e-04 1.250106561928987503e-02 1.637985371053218842e-02 -3.282956033945083618e-02 -2.277537016198039055e-03 -9.748405776917934418e-03 7.346497382968664169e-03 1.165848225355148315e-02 -2.488208003342151642e-02 -4.652356728911399841e-02 1.623347215354442596e-02 -1.310471072793006897e-02 -4.859810229390859604e-03 -1.188610028475522995e-02 8.519638329744338989e-03 1.287145540118217468e-02 -6.347879207169171423e-06 1.727020740509033203e-02 -5.211643502116203308e-02 1.095601241104304790e-03 -3.262042533606290817e-03 -1.915873400866985321e-02 5.737970396876335144e-02 -9.346703998744487762e-03 -4.108284041285514832e-02 -4.054537042975425720e-02 4.200712312012910843e-03 2.062863670289516449e-03 -1.332502532750368118e-02 8.807203732430934906e-03 -1.049958635121583939e-02 6.553044542670249939e-03 -1.423958968371152878e-02 -7.799620740115642548e-03 2.178189158439636230e-02 -1.137251779437065125e-02
-2.832424826920032501e-02 -6.672271341085433960e-02 3.146379813551902771e-02 1.401200704276561737e-02 -4.534995183348655701e-02 -1.218617148697376251e-02 -1.402608118951320648e-02 5.817685741931200027e-03 6.507415673695504665e-04 -6.018903851509094238e-02 -1.808570511639118195e-02 1.751034753397107124e-03 -1.594403013586997986e-02 -4.388035088777542114e-02 3.444513678550720215e-02 5.242424085736274719e-04 1.560816261917352676e-02 -5.017774924635887146e-02 7.058615982532501221e-02 6.504461914300918579e-02 3.737693279981613159e-02 2.297885529696941376e-02 8.321965113282203674e-03 1.433942932635545731e-02 1.203382946550846100e-02 -8.026394643820822239e-04 -6.827797624282538891e-04 7.187195122241973877e-02 -3.817674296442419291e-04 5.763359740376472473e-02 -2.296679094433784485e-02 1.986741321161389351e-03 -2.967909723520278931e-02 7.186591625213623047e-02 -2.955754753202199936e-03 3.186314366757869720e-03 6.396400928497314453e-02 -3.974868357181549072e-02 -1.212984137237071991e-02 -5.609023571014404297e-02 -1.133629027754068375e-02 3.422423033043742180e-03 1.788995973765850067e-02 4.968265816569328308e-02 6.602840730920433998e-04 1.538953650742769241e-02 -1.760904863476753235e-02 -4.917707666754722595e-02 5.108046811074018478e-03 1.683951728045940399e-02 2.139771357178688049e-02 -2.755742333829402924e-02 2.660244517028331757e-02 -4.757289309054613113e-03 -4.460368305444717407e-02 -3.463271260261535645e-02 -7.581807207316160202e-03 4.593892022967338562e-02 -6.371854338794946671e-03 -5.797316785901784897e-03 1.593914255499839783e-02 3.095160052180290222e-02 -2.888862229883670807e-02 7.004396989941596985e-03
-7.755099236965179443e-02 2.462324500083923340e-02 -7.810728996992111206e-02 4.580956697463989258e-02 -4.881565645337104797e-02 -6.828045006841421127e-03 -1.586489379405975342e-02 2.355432882905006409e-02 -4.502968117594718933e-02 1.671737525612115860e-03 -7.982300221920013428e-02 7.182470289990305901e-05 -5.124794319272041321e-02 -4.890741780400276184e-02 1.401733141392469406e-02 -4.453755542635917664e-02 3.368779271841049194e-02 -6.327968090772628784e-02 -5.336267873644828796e-02 -5.453523620963096619e-02 -1.242846529930830002e-02 -1.327145006507635117e-02 6.316117942333221436e-03 -2.178815193474292755e-02 -3.437413275241851807e-02 -1.135511696338653564e-02 1.425520144402980804e-02 9.195546805858612061e-02 1.115481252782046795e-03 9.786703623831272125e-03 -1.651611924171447754e-02 1.766656152904033661e-02 -2.696634037420153618e-03 -2.463696058839559555e-03 5.589873716235160828e-02 5.139525607228279114e-02 -5.604954436421394348e-02 1.994942431338131428e-04 2.034479752182960510e-02 -1.458831131458282471e-02 1.230566482990980148e-02 2.189851924777030945e-02 -2.134500443935394287e-02 2.367253974080085754e-02 1.305592944845557213e-03 -4.388983547687530518e-02 6.284238770604133606e-04 -2.946377918124198914e-02 -5.788567662239074707e-02 -4.706728085875511169e-02 -1.378778927028179169e-02 6.494261324405670166e-02 -4.133209958672523499e-02 -1.426607742905616760e-02 -6.370101589709520340e-03 -6.264435593038797379e-03 -3.589195199310779572e-03 -3.478657826781272888e-02 -1.298682182095944881e-03 -2.007430046796798706e-02 3.007929539307951927e-03 -3.559647500514984131e-02 -5.896389111876487732e-02 -1.535404007881879807e-02
-1.615861430764198303e-02 -1.056023500859737396e-02 4.432230070233345032e-02 -1.364738680422306061e-03 3.231316432356834412e-02 2.806600183248519897e-03 -3.376079723238945007e-02 -4.165257513523101807e-02 -1.906272227643057704e-04 -5.289855878800153732e-03 2.126463502645492554e-02 -7.347529754042625427e-04 -1.215014420449733734e-02 -7.437310647219419479e-03 -2.312109433114528656e-02 6.306491792201995850e-03 4.884912446141242981e-02 9.950418025255203247e-03 5.169500038027763367e-02 4.384687170386314392e-02 -7.807964575476944447e-04 7.698622532188892365e-03 -4.161596589256078005e-04 6.132267415523529053e-02 1.634841971099376678e-02 -3.172682598233222961e-02 -5.945542943663895130e-04 1.562724635004997253e-02 7.089506834745407104e-04 4.146432504057884216e-02 1.182791218161582947e-02 -1.191202783957123756e-03 6.526241451501846313e-02 -3.784127766266465187e-03 1.215456333011388779e-02 1.048783957958221436e-02 -2.984057879075407982e-03 5.141432583332061768e-02 6.964983046054840088e-02 6.858958303928375244e-02 -1.335156615823507309e-03 3.668087534606456757e-03 4.062734078615903854e-03 -1.743184961378574371e-02 -5.898031522519886494e-04 -1.278454624116420746e-02 -2.484448812901973724e-02 -3.931435756385326385e-03 5.687961727380752563e-02 -1.067311223596334457e-02 -2.191134169697761536e-02 -1.456735469400882721e-02 9.648359380662441254e-03 4.621594026684761047e-02 4.342930391430854797e-02 7.754734251648187637e-03 -9.286072105169296265e-03 4.617985710501670837e-02 2.748346421867609024e-03 1.325140474364161491e-03 5.766334943473339081e-03 1.258393097668886185e-02 -3.690864890813827515e-02 -4.904455691576004028e-02
2.358578704297542572e-02 1.198972575366497040e-03 -4.627365246415138245e-02 -3.012243658304214478e-02 9.953338652849197388e-03 1.860309951007366180e-02 -3.436008468270301819e-02 -5.338548496365547180e-02 -1.829619333148002625e-02 -5.899396166205406189e-02 -3.522718697786331177e-02 2.540773712098598480e-03 -3.370828926563262939e-02 3.824138641357421875e-02 2.437355741858482361e-02 -2.012195624411106110e-02 -5.458489432930946350e-02 3.201991319656372070e-02 1.255571469664573669e-02 1.612585037946701050e-02 1.600657589733600616e-02 1.346341567113995552e-03 1.599261537194252014e-02 -6.331763416528701782e-02 -2.436885051429271698e-02 -3.308963729068636894e-03 -4.053927841596305370e-04 1.395091135054826736e-02 -9.168707765638828278e-03 -2.168081700801849365e-02 3.152516903355717659e-03 -5.768501013517379761e-02 4.319277033209800720e-02 -3.241551667451858521e-02 4.000428889412432909e-04 -1.256393152289092541e-03 -2.458193153142929077e-02 3.634385019540786743e-02 -3.005352104082703590e-03 -3.189617022871971130e-02 -2.116196043789386749e-02 -2.448429353535175323e-02 8.010433986783027649e-03 -5.802892148494720459e-02 -1.042450312525033951e-02 -4.966039210557937622e-02 3.547402797266840935e-03 5.470649152994155884e-02 -2.120954729616641998e-02 5.688017606735229492e-02 -3.249948099255561829e-02 2.465341985225677490e-02 -1.460794638842344284e-02 8.863524533808231354e-03 2.016157470643520355e-02 -4.263821244239807129e-02 1.344888098537921906e-02 7.186286896467208862e-02 -4.398887231945991516e-02 1.841025613248348236e-02 2.817467413842678070e-02 8.231509476900100708e-02 -7.820478640496730804e-03 -2.909026294946670532e-02
-6.632557511329650879e-02 1.167750265449285507e-02 -2.465907484292984009e-02 1.016152236843481660e-04 3.855156153440475464e-02 -3.052903339266777039e-02 2.469375357031822205e-02 -7.193499803543090820e-02 -8.433766779489815235e-04 -3.340782597661018372e-02 -1.180327963083982468e-02 7.949436083436012268e-03 4.691176488995552063e-02 5.094885826110839844e-02 1.581010594964027405e-02 -4.325076937675476074e-02 5.965342279523611069e-03 -5.925937090069055557e-03 -2.131715416908264160e-02 9.574469178915023804e-03 -3.519904986023902893e-02 -1.120155304670333862e-02 -6.200324743986129761e-03 -5.888453498482704163e-02 -2.072543092072010040e-02 9.700466180220246315e-04 2.400308847427368164e-03 1.116183958947658539e-02 -3.871366754174232483e-02 1.954050967469811440e-03 4.161098506301641464e-03 -4.505469277501106262e-02 -3.755491599440574646e-02 1.553291734308004379e-02 -2.101247943937778473e-02 6.947006098926067352e-03 -2.246434614062309265e-02 3.560691699385643005e-02 7.447639852762222290e-02 -3.607378527522087097e-02 1.095317490398883820e-02 3.741702064871788025e-02 -1.973485201597213745e-02 3.388162236660718918e-03 -5.217948462814092636e-03 -2.635446190834045410e-02 -1.446462329477071762e-02 2.229989133775234222e-02 -2.274210378527641296e-02 -2.802451699972152710e-02 -4.480417072772979736e-02 3.765859408304095268e-03 1.189914415590465069e-03 6.255599856376647949e-02 -6.033463869243860245e-03 2.459506876766681671e-02 -1.269184611737728119e-02 -1.159930042922496796e-02 3.508009761571884155e-02 4.207827523350715637e-02 1.455370429903268814e-02 8.612562902271747589e-03 -1.623323000967502594e-02 3.989266976714134216e-02
-1.018555089831352234e-01 8.357247337698936462e-03 6.681110709905624390e-02 2.289942651987075806e-02 -2.691266126930713654e-02 -1.327418256551027298e-02 -4.966142401099205017e-02 -8.926858752965927124e-02 -1.649526529945433140e-03 -6.878896802663803101e-02 -1.078533679246902466e-01 1.983621157705783844e-02 -1.317397598177194595e-02 -3.285077586770057678e-02 8.472045883536338806e-03 -4.297805484384298325e-03 5.712151527404785156e-02 8.531123399734497070e-03 -3.786895191296935081e-03 6.129864230751991272e-02 2.129544690251350403e-02 1.020066253840923309e-02 -3.144046990200877190e-03 -9.839284420013427734e-02 -3.387738391757011414e-02 -2.074752934277057648e-03 1.377114909701049328e-03 6.912555079907178879e-03 -4.381432756781578064e-02 2.541311271488666534e-02 5.687512829899787903e-02 -4.925040900707244873e-02 3.040470741689205170e-02 -4.715027287602424622e-02 4.644717648625373840e-02 4.678572993725538254e-03 -4.896415397524833679e-02 1.331130973994731903e-02 7.287206500768661499e-02 5.724188312888145447e-02 4.945232532918453217e-03 4.047742113471031189e-03 1.992543926462531090e-03 -4.455032572150230408e-02 8.758325129747390747e-03 -1.495044585317373276e-02 1.987954787909984589e-02 1.821645162999629974e-02 1.403299160301685333e-02 4.983120784163475037e-02 -7.999781519174575806e-03 6.480498239398002625e-03 5.813790857791900635e-02 4.767218604683876038e-02 -5.209568515419960022e-02 -1.322346553206443787e-02 8.259847760200500488e-03 2.684803446754813194e-03 -6.970637477934360504e-03 3.952500410377979279e-03 -4.070091992616653442e-02 4.994110669940710068e-03 -5.079191923141479492e-02 -8.260505273938179016e-03
-3.187909349799156189e-02 1.118875760585069656e-02 7.927878946065902710e-02 1.341842464171350002e-03 4.964892286807298660e-03 -1.442175451666116714e-02 -1.609841734170913696e-02 -2.467907965183258057e-02 -2.799596264958381653e-02 -2.750322222709655762e-02 -6.258075684309005737e-02 1.035297056660056114e-03 -3.103189729154109955e-02 -2.230619639158248901e-02 1.094075758010149002e-02 5.391411948949098587e-03 -2.086185617372393608e-03 3.228316083550453186e-02 1.139312982559204102e-02 4.896630719304084778e-02 7.493512332439422607e-02 6.075097620487213135e-02 -4.096609540283679962e-03 -2.792767062783241272e-02 1.309321378357708454e-03 7.032285793684422970e-04 -2.146747894585132599e-03 9.221693035215139389e-04 2.393722534179687500e-02 -8.326346869580447674e-04 2.705764770507812500e-02 -6.494161486625671387e-02 6.007950007915496826e-02 -6.916814483702182770e-03 3.847531508654356003e-03 -2.451067231595516205e-02 1.589586585760116577e-02 1.057981513440608978e-02 2.460019104182720184e-02 -1.391001790761947632e-02 -2.969625405967235565e-03 2.024198509752750397e-02 2.625280246138572693e-02 -2.083267550915479660e-03 -1.607754640281200409e-02 -3.682417050004005432e-02 -4.546331241726875305e-02 -2.509512705728411674e-03 -6.002108566462993622e-03 4.753129556775093079e-02 -3.022295422852039337e-02 2.808907814323902130e-02 3.639109432697296143e-02 7.679440826177597046e-02 -3.538473974913358688e-03 3.288460196927189827e-03 5.209325812757015228e-03 -1.172084640711545944e-02 -2.585037844255566597e-03 6.741409655660390854e-03 2.882364578545093536e-02 2.896314486861228943e-02 5.878795310854911804e-02 -1.010276935994625092e-02
