9.821546822786331177e-02
1.116306632757186890e-01
3.016284108161926270e-02
5.664355680346488953e-02
-2.157594310119748116e-03
2.082087285816669464e-02
-3.277719393372535706e-02
3.837003558874130249e-02
4.142963513731956482e-02
-4.226431716233491898e-03
4.973518103361129761e-02
6.711693853139877319e-02
0.000000000000000000e+00
0.000000000000000000e+00
8.693181371199898422e-06
-7.587601430714130402e-04
1.027506589889526367e-01
3.778677061200141907e-02
1.019158400595188141e-02
-9.313421469414606690e-05
3.707163035869598389e-02
-1.369479577988386154e-03
-6.317575275897979736e-02
1.129223220050334930e-02
-1.009770948439836502e-02
1.171087920665740967e-01
-2.657610550522804260e-02
1.892336513265036047e-06
1.059581264853477478e-01
-4.559325426816940308e-02
9.662543982267379761e-02
-5.013716965913772583e-02
8.926964364945888519e-04
9.202856570482254028e-02
1.861881837248802185e-02
9.755117446184158325e-02
-4.955456033349037170e-02
1.017175763845443726e-01
-1.494958542025415227e-05
0.000000000000000000e+00
5.804314464330673218e-02
4.470759630203247070e-02
1.096570566296577454e-01
8.939429186284542084e-03
5.468201357871294022e-03
5.497757717967033386e-02
5.885617062449455261e-02
-2.778545953333377838e-03
-2.031099051237106323e-02
-2.720956876873970032e-02
-5.137793347239494324e-02
-6.968451291322708130e-02
1.165963113307952881e-01
8.764354861341416836e-04
8.079234510660171509e-02
-3.988503012806177139e-03
1.070625782012939453e-01
-9.655790403485298157e-03
6.679076701402664185e-02
1.394153479486703873e-02
-1.180449689854867756e-04
0.000000000000000000e+00
0.000000000000000000e+00
4.235516488552093506e-02
