-1.692803949117660522e-01 -8.925016224384307861e-02 2.291891127824783325e-01 2.031321227550506592e-01 1.676115244626998901e-01 1.896087452769279480e-02 3.522340655326843262e-01 -2.018686532974243164e-01 7.936423271894454956e-02 6.441180408000946045e-02 -8.831138842424479662e-08 -3.531392663717269897e-02 4.142613336443901062e-02 -1.386635303497314453e-01 4.157171249389648438e-01 -2.256072908639907837e-01 -5.832521617412567139e-02 2.414496093988418579e-01 3.171357512474060059e-01 -1.679453104734420776e-01 4.495806619524955750e-02 -1.796802990838841652e-07 -5.252232775092124939e-02 -4.213617369532585144e-02 2.028857730329036713e-02 1.205121443490497768e-04 -2.116020210087299347e-02 -6.512326654046773911e-03 -2.204003930091857910e-02 -1.995093625737354159e-04 -1.555400490760803223e-01 -2.103597670793533325e-02
-1.798299849033355713e-01 2.752116024494171143e-01 1.658990234136581421e-01 -1.938822492957115173e-02 -1.530341058969497681e-02 2.798028588294982910e-01 3.885903060436248779e-01 -6.617701053619384766e-02 -2.045037448406219482e-01 5.112410336732864380e-02 1.259981989860534668e-01 1.386966556310653687e-01 -1.321582049131393433e-01 -2.248418182134628296e-01 1.445937305688858032e-01 -2.233380073448643088e-04 2.692478299140930176e-01 2.339444011449813843e-01 4.182280600070953369e-01 -1.673187017440795898e-01 7.508686929941177368e-02 -1.305108070373535156e-01 2.200136892497539520e-02 1.129009127616882324e-01 9.207597374916076660e-02 1.985109001398086548e-01 9.877970814704895020e-02 1.514033079147338867e-01 2.850236892700195312e-01 -1.890493631362915039e-01 1.455201506614685059e-01 3.782995641231536865e-01
8.255431428551673889e-03 2.531033456325531006e-01 6.398612260818481445e-02 3.964171409606933594e-01 -3.746761754155158997e-02 -9.908670559525489807e-03 7.664748933166265488e-03 -1.614865809679031372e-01 -2.097019255161285400e-01 -5.283673480153083801e-02 3.598082065582275391e-01 7.501154392957687378e-02 -4.647218436002731323e-02 -2.218055129051208496e-01 2.175828069448471069e-01 -1.394464779878035188e-04 -4.318121820688247681e-02 -2.209109812974929810e-01 1.739260554313659668e-01 3.127981349825859070e-02 1.716986149549484253e-01 -2.283790672663599253e-04 -1.459681391716003418e-01 1.845909841358661652e-02 -8.561608940362930298e-02 3.570937216281890869e-01 2.906291782855987549e-01 -1.730539277195930481e-02 2.681893706321716309e-01 -9.103666990995407104e-03 1.843804260715842247e-03 -2.035424858331680298e-01
