2.471586018800735474e-01 -1.158754974603652954e-01 4.029540121555328369e-01 -4.220843315124511719e-02 3.122264891862869263e-02 -6.934691965579986572e-02 1.011757366359233856e-02 -3.658090159296989441e-02 -1.718345135450363159e-01 1.981996744871139526e-01 -9.940057247877120972e-02 3.273519277572631836e-01 -4.078641359228640795e-05 -2.111595273017883301e-01 2.350035160779953003e-01 1.737823933362960815e-01 2.098077908158302307e-02 -1.628242284059524536e-01 -1.871928013861179352e-02 -9.777657687664031982e-02 -3.204167634248733521e-02 3.707098662853240967e-01 1.422694474458694458e-01 -2.448497265577316284e-01 8.774620294570922852e-02 -2.317686975002288818e-01 4.489480983465909958e-03 -1.113013401627540588e-01 -1.675928086042404175e-01 2.399914264678955078e-01 3.429632484912872314e-01 -7.539734989404678345e-02 -2.560348212718963623e-01 3.374671041965484619e-01 -6.523774564266204834e-02 -1.182700470089912415e-01 3.878037929534912109e-01 3.524672985076904297e-01 1.719026267528533936e-01 1.900729024782776833e-03 -8.919622004032135010e-02 2.697895467281341553e-01 -9.424305707216262817e-02 3.898515552282333374e-02 -1.945961117744445801e-01 1.498717069625854492e-01 1.861771196126937866e-01 2.271196842193603516e-01 2.524970173835754395e-01 2.142496854066848755e-01 2.904710769653320312e-01 -9.371294081211090088e-02 -1.360706537961959839e-01 -1.440372765064239502e-01 9.054044634103775024e-02 -1.127544045448303223e-01 2.688447535037994385e-01 -1.946647763252258301e-01 3.730207085609436035e-01 -1.268874257802963257e-01 1.999770700931549072e-01 -1.271834671497344971e-01 -1.163161993026733398e-01 -2.266359776258468628e-01
1.575460731983184814e-01 2.685005664825439453e-01 1.201977580785751343e-01 -1.591188311576843262e-01 6.115476042032241821e-02 -2.186367511749267578e-01 1.185975447297096252e-01 1.681853383779525757e-01 -1.781974881887435913e-01 2.090740948915481567e-01 1.553100943565368652e-01 3.149543330073356628e-02 -1.979691296583041549e-05 2.200545519590377808e-01 9.511306881904602051e-02 1.392270475625991821e-01 -6.640589982271194458e-02 -1.257051825523376465e-01 1.429301053285598755e-01 1.749286502599716187e-01 -1.091992408037185669e-01 2.308659106492996216e-01 1.370006948709487915e-01 -1.633503288030624390e-01 1.597360819578170776e-01 8.913320302963256836e-02 5.511352792382240295e-02 9.153158217668533325e-02 2.912887632846832275e-01 -3.259732201695442200e-02 1.746861338615417480e-01 -1.306568682193756104e-01 -2.484929114580154419e-01 3.208896890282630920e-02 -9.490526467561721802e-02 -7.543922215700149536e-02 -1.376442462205886841e-01 2.015447020530700684e-01 1.285685747861862183e-01 1.678962856531143188e-01 -2.029661834239959717e-02 -1.564135104417800903e-01 1.283672749996185303e-01 1.659089475870132446e-01 2.831864058971405029e-01 1.620035171508789062e-01 1.006833314895629883e-01 -2.338543720543384552e-02 1.336850523948669434e-01 -3.695606067776679993e-02 -1.638358831405639648e-01 -2.215845286846160889e-01 -2.270435839891433716e-01 -8.083699643611907959e-02 7.702886313199996948e-02 -1.295980662107467651e-01 2.454515360295772552e-02 2.964525669813156128e-02 -2.905051596462726593e-02 -1.384713202714920044e-01 -8.256840705871582031e-02 -1.278222054243087769e-01 2.500561475753784180e-01 2.261423468589782715e-01
