2.375777065753936768e-01 2.486920654773712158e-01
-2.807668447494506836e-01 -2.213142067193984985e-01
2.656532227993011475e-01 1.219011191278696060e-02
-2.027832865715026855e-01 -1.099983453750610352e-01
1.253441423177719116e-01 -4.886988922953605652e-02
3.411590307950973511e-02 -2.956537306308746338e-01
-4.664045572280883789e-02 -1.526341736316680908e-01
6.560745835304260254e-02 -2.302864342927932739e-01
-2.463669627904891968e-01 -2.730131149291992188e-01
1.618727594614028931e-01 -7.699830830097198486e-02
8.442578837275505066e-03 1.878559440374374390e-01
2.012002021074295044e-01 1.324115097522735596e-01
8.669900853419676423e-05 -3.965439887565480603e-08
9.551181644201278687e-02 1.649295240640640259e-01
2.926091849803924561e-01 1.310155391693115234e-01
3.641838207840919495e-02 -1.575320586562156677e-02
-7.505793124437332153e-02 -1.517239362001419067e-01
-2.440670579671859741e-01 -2.683439254760742188e-01
-1.490869969129562378e-01 -1.681439727544784546e-01
-1.938054412603378296e-01 1.563941687345504761e-02
8.869840949773788452e-02 -2.329447679221630096e-02
2.802425324916839600e-01 1.450018584728240967e-01
9.431250393390655518e-02 2.380020469427108765e-01
-2.779304683208465576e-01 -9.715802222490310669e-02
9.104690700769424438e-02 -2.009403705596923828e-01
-2.527808248996734619e-01 -7.686749845743179321e-02
1.180250942707061768e-01 -2.378455996513366699e-01
-5.430645123124122620e-02 2.129718512296676636e-01
-4.775566048920154572e-03 -1.496102362871170044e-01
-1.814675144851207733e-02 2.664627134799957275e-01
-1.117264293134212494e-02 3.210431635379791260e-01
3.479567170143127441e-02 -2.364828437566757202e-01
-2.340376377105712891e-01 -1.923756599426269531e-01
1.152718625962734222e-02 1.519774794578552246e-01
1.246618665754795074e-02 1.388620138168334961e-01
-1.752625107765197754e-01 1.159738097339868546e-02
1.504641771316528320e-01 1.106084436178207397e-01
4.151572287082672119e-02 2.535894215106964111e-01
5.507183820009231567e-02 -1.871253252029418945e-01
1.340695377439260483e-02 -1.214025635272264481e-02
-3.175624459981918335e-02 -1.713719218969345093e-02
1.945273429155349731e-01 1.924051046371459961e-01
-6.802289187908172607e-02 -1.707335412502288818e-01
-1.039011031389236450e-01 2.342335581779479980e-01
-2.366107106208801270e-01 -9.626948274672031403e-03
2.037936896085739136e-01 1.736702322959899902e-01
2.408757358789443970e-01 -1.364335864782333374e-01
2.615694403648376465e-01 2.313595265150070190e-01
9.171573072671890259e-02 2.414513751864433289e-02
-4.062925651669502258e-02 3.068737685680389404e-01
1.330030560493469238e-01 4.073412716388702393e-01
-2.694734036922454834e-01 -4.303013905882835388e-02
-2.686225473880767822e-01 -3.049816191196441650e-01
-7.708046585321426392e-02 1.713448911905288696e-01
-1.363213360309600830e-01 -8.547063916921615601e-02
-2.072843909263610840e-01 -5.701064318418502808e-02
3.316253796219825745e-02 1.396214067935943604e-01
8.564712852239608765e-02 6.398959457874298096e-02
2.385743409395217896e-01 3.458238542079925537e-01
-4.653558880090713501e-02 1.030679941177368164e-01
-5.081438645720481873e-02 2.960574328899383545e-01
-1.139322891831398010e-01 -2.846617698669433594e-01
-2.826582193374633789e-01 -1.918924450874328613e-01
6.306470930576324463e-02 1.602277010679244995e-01
