-3.689768165349960327e-02 -3.866922110319137573e-02 3.681077808141708374e-02 5.199643597006797791e-02 5.230745766311883926e-03 -4.240874666720628738e-03 7.075958698987960815e-02 2.735286764800548553e-02 -2.367506362497806549e-02 5.099607631564140320e-02 -3.135166363790631294e-03 -1.331356316804885864e-01 -2.223473414778709412e-02 2.483726106584072113e-02 1.293231267482042313e-03 4.129061847925186157e-02 9.695302695035934448e-02 3.305491409264504910e-04 -1.696741394698619843e-02 5.369131639599800110e-02 -5.160536244511604309e-02 8.402849547564983368e-03 -3.284541144967079163e-02 -3.626596927642822266e-02 -2.246938087046146393e-02 6.849057227373123169e-02 4.168456420302391052e-02 8.855051547288894653e-02 -1.780737638473510742e-01 7.977752387523651123e-02 9.733888506889343262e-02 5.852018296718597412e-02 -3.372458368539810181e-02 5.032265558838844299e-03 4.964658245444297791e-02 -3.031364642083644867e-02 3.893916681408882141e-02 -1.358703076839447021e-01 -1.181764602661132812e-01 4.084158688783645630e-02 -5.179008096456527710e-02 -4.630865156650543213e-02 -5.416203290224075317e-02 -8.631373941898345947e-02 -1.273971609771251678e-02 6.394086778163909912e-02 -8.494117856025695801e-02 -8.327912539243698120e-02 -1.749493367969989777e-02 3.675520047545433044e-02 -4.469393566250801086e-02 -9.013433754444122314e-02 -2.039995416998863220e-02 1.076408922672271729e-01 8.102671056985855103e-02 7.655727863311767578e-02 1.187728531658649445e-02 1.115380972623825073e-01 3.927038982510566711e-02 -5.041283555328845978e-03 -6.505663692951202393e-02 2.573933452367782593e-02 -4.098419100046157837e-02 -1.158151477575302124e-01 -1.203218568116426468e-02 5.733908619731664658e-03 4.121905192732810974e-03 -8.866093121469020844e-03 2.687272801995277405e-02 -1.491914987564086914e-01 -4.846297577023506165e-02 9.081006795167922974e-02 -1.771409064531326294e-01 -4.461903870105743408e-02 -9.467878192663192749e-02 -1.185009023174643517e-03 5.878521595150232315e-03 2.971119480207562447e-03 5.312424153089523315e-02 1.206445842981338501e-01 -1.318520307540893555e-02 4.186541959643363953e-02 3.906409069895744324e-02 2.899645455181598663e-02 -4.111143574118614197e-02 -5.396788474172353745e-03 3.609955683350563049e-02 -7.714229077100753784e-02 -1.479026079177856445e-01 -1.158210113644599915e-01 1.034208536148071289e-01 -6.379022449254989624e-02 3.260386362671852112e-02 -3.713330253958702087e-03 -1.068284437060356140e-01 -1.176624149084091187e-01 -2.954325079917907715e-02 -6.499660760164260864e-02 -1.145334988832473755e-01 -4.274741187691688538e-02 8.636750280857086182e-02 -4.929546639323234558e-02 6.215370073914527893e-02 -3.131083026528358459e-02 -2.100588567554950714e-02 1.979187130928039551e-02 -1.723976619541645050e-02 -1.804332584142684937e-01 -4.203866049647331238e-02 5.467995256185531616e-02 7.287899497896432877e-03 -1.317137926816940308e-01 -7.555949687957763672e-02 1.007679328322410583e-01 9.066506475210189819e-02 7.549969106912612915e-02 -1.507237851619720459e-01 -6.090230122208595276e-02 1.323484070599079132e-02 -9.150101244449615479e-02 -7.989437878131866455e-02 3.428489714860916138e-02 -1.023869737982749939e-01 5.157563835382461548e-02 1.172706577926874161e-02 1.081011146306991577e-01 2.417247556149959564e-02 -6.354989856481552124e-02
1.878780312836170197e-02 1.354794949293136597e-02 1.583284586668014526e-01 1.206691656261682510e-02 -1.116721238940954208e-02 -2.026868984103202820e-02 2.310583740472793579e-01 1.069613099098205566e-01 2.783431299030780792e-02 1.331072151660919189e-01 -1.019724458456039429e-01 6.980369798839092255e-03 1.690583080053329468e-01 -4.188581928610801697e-02 -7.775900512933731079e-02 -7.598216831684112549e-02 8.991867303848266602e-02 6.864252686500549316e-02 4.323849827051162720e-02 2.600543946027755737e-02 -2.255121432244777679e-02 -1.214796602725982666e-01 3.055918589234352112e-02 3.859904408454895020e-02 2.385654486715793610e-02 1.494606882333755493e-01 -1.179582029581069946e-01 1.197404414415359497e-01 2.646157331764698029e-02 2.125279754400253296e-01 3.154858946800231934e-02 1.161325350403785706e-01 5.543674156069755554e-02 1.012377887964248657e-01 4.775550588965415955e-02 -9.300512075424194336e-02 -7.240203022956848145e-02 -8.809749968349933624e-03 1.083911359310150146e-01 1.657958626747131348e-01 1.262703984975814819e-01 1.671941727399826050e-01 -1.325365453958511353e-01 3.444917500019073486e-02 5.057750269770622253e-03 1.866811811923980713e-01 5.779949575662612915e-02 3.971584513783454895e-02 4.212950170040130615e-02 -1.353021264076232910e-01 -2.284504473209381104e-02 3.991150110960006714e-02 -7.044705003499984741e-02 -2.241192013025283813e-02 5.545238405466079712e-02 1.876044869422912598e-01 1.139184981584548950e-01 -2.694634497165679932e-01 -9.293398261070251465e-02 -1.694506853818893433e-01 -3.225607052445411682e-02 -1.031426489353179932e-01 3.701134771108627319e-02 5.494987964630126953e-02 -1.293216198682785034e-01 6.422479450702667236e-02 1.266799420118331909e-01 3.526497632265090942e-02 1.282412465661764145e-02 2.094742357730865479e-01 2.022455185651779175e-01 4.525307565927505493e-02 1.149814501404762268e-01 -2.904836460947990417e-02 6.229119375348091125e-02 1.553029865026473999e-01 -6.832922343164682388e-03 -2.374177128076553345e-01 -1.965621709823608398e-01 -2.411842197179794312e-01 1.477050781250000000e-01 -2.391469329595565796e-01 -1.181922480463981628e-01 8.058884739875793457e-02 -1.985301449894905090e-02 -7.733156532049179077e-02 4.129775241017341614e-02 9.200493246316909790e-02 8.180634677410125732e-02 1.519561707973480225e-01 2.416325658559799194e-01 -4.788912832736968994e-02 1.571699827909469604e-01 1.638512313365936279e-01 1.093235537409782410e-01 1.287050358951091766e-02 -3.026134707033634186e-02 9.986340254545211792e-02 -7.253494858741760254e-02 2.232143431901931763e-01 -1.455397009849548340e-01 1.454294621944427490e-01 -1.771367043256759644e-01 -7.006676495075225830e-02 1.712080091238021851e-01 -5.687648430466651917e-03 -9.144394099712371826e-02 7.770591974258422852e-02 1.534569561481475830e-01 1.072236773325130343e-05 2.285865098237991333e-01 9.642578661441802979e-02 -5.522610992193222046e-02 -1.877192407846450806e-01 1.133290603756904602e-01 -1.153884381055831909e-01 9.379584342241287231e-02 -4.744009673595428467e-02 4.098026826977729797e-02 -8.573953062295913696e-02 2.297144681215286255e-01 -4.903515800833702087e-03 1.157862171530723572e-01 -1.321562081575393677e-01 7.521156221628189087e-03 8.710291236639022827e-02 -9.703905135393142700e-02 -1.823950745165348053e-02
7.110240310430526733e-02 1.092479974031448364e-01 -1.204024478793144226e-01 -4.878655448555946350e-02 6.634847819805145264e-02 1.693224608898162842e-01 -1.973706036806106567e-01 -4.161691665649414062e-02 1.074792668223381042e-01 -2.158504724502563477e-02 3.139654919505119324e-02 -1.138053741306066513e-02 -3.443049732595682144e-03 -3.009607456624507904e-02 -5.934967473149299622e-02 -8.087771385908126831e-02 -9.166668355464935303e-02 -7.948212325572967529e-02 -6.682652980089187622e-03 -1.494105812162160873e-02 -4.171237349510192871e-03 -1.633642613887786865e-01 5.834104865789413452e-02 -1.762786880135536194e-02 1.349577866494655609e-02 -1.642417460680007935e-01 -6.075234711170196533e-02 -5.559414252638816833e-02 1.624853014945983887e-01 -1.852002590894699097e-01 -2.140594422817230225e-01 -1.677398681640625000e-01 -1.122633889317512512e-01 6.861806660890579224e-02 -6.404915452003479004e-02 -1.183255836367607117e-01 -1.574675180017948151e-02 8.880051970481872559e-02 1.953906118869781494e-01 -1.863330006599426270e-01 -1.352350562810897827e-01 2.434853650629520416e-02 -4.142837598919868469e-03 1.261189132928848267e-01 2.037881314754486084e-02 -2.825203910470008850e-02 1.934916526079177856e-01 8.317607641220092773e-02 7.057720422744750977e-02 -4.285801202058792114e-02 9.006766974925994873e-02 1.457973122596740723e-01 4.950962215662002563e-02 -1.219670176506042480e-01 -1.805360913276672363e-01 -1.607842445373535156e-01 -2.454129047691822052e-02 -3.875959664583206177e-02 -7.358628511428833008e-02 -8.932321518659591675e-02 7.914578169584274292e-02 3.863472957164049149e-03 -1.446765474975109100e-02 4.810274764895439148e-02 -4.962660372257232666e-02 2.226524800062179565e-01 -1.404669694602489471e-02 -2.576466463506221771e-02 7.061788439750671387e-02 1.063330546021461487e-01 7.487731426954269409e-02 -3.055110108107328415e-03 1.265481412410736084e-01 -7.193758338689804077e-02 1.915677338838577271e-01 1.819274127483367920e-01 3.095893748104572296e-02 -1.565904617309570312e-01 5.687216296792030334e-02 -1.959353089332580566e-01 -1.128256693482398987e-01 -1.743363142013549805e-01 1.830535754561424255e-02 -9.732758998870849609e-02 9.662001579999923706e-02 -2.931913360953330994e-03 -6.339541822671890259e-02 1.493636816740036011e-01 1.933604478836059570e-01 5.339100956916809082e-02 -1.447720527648925781e-01 9.142085909843444824e-02 -6.809278577566146851e-02 -1.469970494508743286e-01 -8.704375475645065308e-02 1.845380291342735291e-02 -6.558353453874588013e-02 2.000523805618286133e-01 7.035956531763076782e-02 -7.106523029506206512e-03 -1.426637619733810425e-01 -7.325010374188423157e-03 -8.752170205116271973e-02 2.531362138688564301e-02 -1.822262257337570190e-02 1.172901093959808350e-01 -4.066555202007293701e-02 1.840267628431320190e-01 6.824252754449844360e-02 -9.679131209850311279e-02 5.457343533635139465e-03 2.154777050018310547e-01 9.588252007961273193e-02 -1.491523683071136475e-01 -2.122521549463272095e-01 -1.955674402415752411e-02 1.839648485183715820e-01 -5.000996589660644531e-02 1.664772778749465942e-01 3.211839124560356140e-02 -3.721182420849800110e-02 4.435154050588607788e-02 3.278081491589546204e-02 -4.969290271401405334e-02 2.500915527343750000e-02 -1.688038110733032227e-01 -4.697621241211891174e-02 4.153220355510711670e-02
-2.036923356354236603e-02 1.366629824042320251e-02 -9.281228482723236084e-02 -4.322692751884460449e-02 -8.032535016536712646e-02 -2.077962756156921387e-01 3.660898655652999878e-02 4.333719611167907715e-02 8.990366756916046143e-02 -6.707666814327239990e-02 -1.170986220240592957e-01 7.357811927795410156e-02 3.768796846270561218e-02 -1.621842756867408752e-02 -9.073641896247863770e-02 -2.110571227967739105e-02 3.550480306148529053e-02 6.067432928830385208e-03 -1.589021831750869751e-01 2.338044904172420502e-02 -1.371224075555801392e-01 -1.720851473510265350e-02 1.257967669516801834e-02 -3.515480831265449524e-02 -3.418001532554626465e-02 -1.058429256081581116e-01 5.396235734224319458e-03 -2.285593152046203613e-01 -1.157342791557312012e-01 4.779650270938873291e-02 -1.143995393067598343e-02 -1.371529847383499146e-01 -2.047144770622253418e-01 -1.765676587820053101e-01 -1.240699216723442078e-01 1.319356821477413177e-02 3.066964447498321533e-03 -1.938557326793670654e-01 2.349975705146789551e-02 1.030024420469999313e-02 -2.649472467601299286e-02 8.488893508911132812e-02 -2.073078006505966187e-01 7.935419678688049316e-02 5.658926069736480713e-02 -2.370918989181518555e-01 -6.320269405841827393e-02 -7.267018407583236694e-02 -2.473742812871932983e-01 -8.735565841197967529e-02 2.380411513149738312e-02 -7.441593706607818604e-02 -1.305131912231445312e-01 -7.514388859272003174e-02 -3.224183246493339539e-02 -1.050241068005561829e-01 -3.017767891287803650e-02 2.658642083406448364e-02 -2.528778649866580963e-02 -3.295107930898666382e-02 -2.058493942022323608e-01 4.402802512049674988e-02 -1.090052202343940735e-01 6.616313755512237549e-02 -1.097371131181716919e-01 -1.097799018025398254e-01 -1.151926163583993912e-02 -2.447425276041030884e-01 -3.420134633779525757e-02 1.113570928573608398e-01 1.082172319293022156e-01 6.392115261405706406e-03 -2.040323466062545776e-01 -3.268644213676452637e-02 1.015331521630287170e-01 -1.231322288513183594e-01 -8.550717681646347046e-02 -7.989805191755294800e-02 2.813659980893135071e-02 -6.271245330572128296e-02 4.697765782475471497e-02 -3.548857197165489197e-02 6.587369367480278015e-03 2.370540518313646317e-03 4.007152095437049866e-02 5.368918646126985550e-03 3.458759933710098267e-02 1.321721822023391724e-01 1.024242937564849854e-01 -6.098979339003562927e-02 3.367032483220100403e-02 6.652815639972686768e-02 -1.267564892768859863e-01 2.622782438993453979e-02 5.671301111578941345e-02 -7.357498258352279663e-02 -1.299067735671997070e-01 -1.763354539871215820e-01 6.512573361396789551e-02 5.674323812127113342e-02 -3.905086545273661613e-03 6.344486773014068604e-02 1.470530591905117035e-02 3.834770992398262024e-02 -2.214945256710052490e-01 6.552941352128982544e-02 2.788319252431392670e-02 1.113428547978401184e-01 2.106398530304431915e-02 1.181190926581621170e-02 2.081570960581302643e-02 1.865506172180175781e-02 -6.261657923460006714e-02 -6.149472668766975403e-02 -2.065532375127077103e-03 -6.105039268732070923e-02 3.260287456214427948e-03 -9.256801754236221313e-02 -5.186893418431282043e-02 -2.114268839359283447e-01 4.602896049618721008e-02 5.303701013326644897e-02 -4.264061525464057922e-02 7.623858284205198288e-03 5.985259078443050385e-03 6.027078721672296524e-03 -2.563997171819210052e-02 -9.442752599716186523e-02
-6.359742581844329834e-02 -1.258432120084762573e-01 5.394384637475013733e-02 -3.249283134937286377e-02 4.182827845215797424e-02 -1.248591928742825985e-03 -6.323488894850015640e-03 -1.822706311941146851e-02 -1.234010681509971619e-01 1.934773102402687073e-02 4.787456989288330078e-02 -9.445187449455261230e-02 -9.181333705782890320e-03 1.000607386231422424e-02 4.161709919571876526e-03 -1.750281080603599548e-02 -3.759984672069549561e-02 -5.514325574040412903e-03 -2.434410154819488525e-02 -5.811005830764770508e-03 7.573368400335311890e-02 -3.371338546276092529e-02 -2.659565024077892303e-02 -1.590306311845779419e-02 -4.593525454401969910e-02 2.225276455283164978e-02 -2.083162963390350342e-02 -9.510238654911518097e-03 -7.146545499563217163e-02 -7.265463354997336864e-04 -2.248402126133441925e-02 4.412729758769273758e-03 5.958811193704605103e-02 5.756650120019912720e-03 5.904323235154151917e-02 -1.223160140216350555e-02 -4.733885452151298523e-02 -5.827121064066886902e-02 -8.413258194923400879e-02 -2.599686756730079651e-02 -4.876608774065971375e-02 -9.096890687942504883e-02 -3.052515210583806038e-03 -9.191826730966567993e-02 3.395513072609901428e-02 2.318217419087886810e-02 -7.250746339559555054e-02 -4.544277489185333252e-02 1.124175116419792175e-01 4.284518072381615639e-04 -3.195343166589736938e-02 -9.085211902856826782e-03 3.048809245228767395e-02 -1.753660966642200947e-03 -5.192517861723899841e-02 3.055541543290019035e-03 -1.026345491409301758e-01 -4.204633086919784546e-02 -1.389780919998884201e-02 -4.357688874006271362e-02 -3.848725184798240662e-02 -1.632007397711277008e-02 2.796512562781572342e-03 -6.217010319232940674e-02 4.573963582515716553e-02 -1.076434999704360962e-01 -2.511524781584739685e-02 1.541227847337722778e-02 1.594408415257930756e-02 -1.335151046514511108e-01 -1.862098835408687592e-02 -2.485826052725315094e-02 -3.825669735670089722e-02 -4.364955425262451172e-02 -4.450692236423492432e-02 -2.082717791199684143e-02 -1.402726862579584122e-03 -7.421077042818069458e-02 1.059268973767757416e-02 -4.996959120035171509e-02 -3.805983439087867737e-02 6.690613925457000732e-03 -3.693767637014389038e-02 -1.273206993937492371e-02 -1.086594685912132263e-01 -3.090707212686538696e-02 -8.196172304451465607e-03 -1.583254039287567139e-01 -1.054891571402549744e-01 -3.186994791030883789e-02 -3.196620941162109375e-02 -1.225496828556060791e-01 3.590627759695053101e-02 -3.283875063061714172e-03 -3.118491917848587036e-02 -1.004705280065536499e-01 -8.631344098830595613e-05 2.308257244294509292e-04 -1.562290340662002563e-01 -3.404992073774337769e-02 -3.081903047859668732e-02 -3.268928825855255127e-02 -8.102986216545104980e-02 -4.652254283428192139e-02 -5.823626369237899780e-02 -6.216135248541831970e-02 -4.483654350042343140e-02 -1.099428310990333557e-01 -3.960527107119560242e-02 2.552428655326366425e-02 -1.039792671799659729e-01 -5.429132282733917236e-02 -2.359313704073429108e-02 -3.617232292890548706e-02 -2.214017882943153381e-02 -8.737212978303432465e-03 -1.015472412109375000e-01 -3.183610504493117332e-03 -1.076363101601600647e-01 1.804149337112903595e-02 -9.564040601253509521e-02 -3.562729060649871826e-02 -4.625007882714271545e-02 -5.165095441043376923e-03 1.029806863516569138e-02 -3.973320126533508301e-02 -8.239101618528366089e-03 2.820887416601181030e-02
1.450190175091847777e-04 -3.752313926815986633e-02 1.018254272639751434e-02 -2.876635640859603882e-02 -2.698591677471995354e-03 1.907502673566341400e-02 -1.003552693873643875e-03 3.788746893405914307e-03 -3.807487711310386658e-02 7.210237439721822739e-03 1.637352071702480316e-02 -3.658542037010192871e-02 -2.637392282485961914e-02 -5.700665060430765152e-03 7.885850034654140472e-03 -3.564937040209770203e-03 -4.188437014818191528e-03 1.329003088176250458e-02 -5.303771700710058212e-03 7.783957989886403084e-04 1.613001339137554169e-02 -1.321838470175862312e-03 -7.132277823984622955e-03 -9.263064712285995483e-03 -1.694383099675178528e-02 1.487583760172128677e-02 -2.048264630138874054e-02 1.850837841629981995e-02 7.658476941287517548e-03 2.309592964593321085e-04 -6.926062982529401779e-03 9.533481672406196594e-03 1.349423360079526901e-02 1.931384578347206116e-02 -5.859977682121098042e-04 4.230513237416744232e-03 -4.429047461599111557e-03 -1.117288973182439804e-02 -3.507212176918983459e-02 -1.442192494869232178e-02 -1.890775747597217560e-02 -1.935654133558273315e-02 1.286863815039396286e-02 -2.168226800858974457e-02 9.829708375036716461e-03 2.343832887709140778e-02 -1.506068464368581772e-02 -1.139917504042387009e-02 2.540595829486846924e-02 1.062172581441700459e-03 -1.272463891655206680e-02 9.298298507928848267e-03 1.540037710219621658e-02 2.204061951488256454e-03 6.853543221950531006e-03 2.588260918855667114e-02 -2.837457880377769470e-02 -9.381862037116661668e-05 -3.558110678568482399e-03 -2.397709526121616364e-03 3.726428840309381485e-03 -6.023971363902091980e-03 1.312913931906223297e-02 -1.761374250054359436e-02 1.788958907127380371e-02 -2.024899423122406006e-02 -8.331378921866416931e-03 3.370397165417671204e-02 5.597729701548814774e-03 -3.849127143621444702e-02 -3.514173999428749084e-02 1.287236250936985016e-02 -1.257273554801940918e-02 2.568906405940651894e-03 -3.153625130653381348e-02 -8.003487251698970795e-03 2.263898961246013641e-03 -1.280260086059570312e-02 3.899889066815376282e-03 -7.941641844809055328e-03 -7.524617016315460205e-03 -8.745649829506874084e-03 1.241287682205438614e-04 -3.978288732469081879e-03 -3.158794716000556946e-02 -1.046528224833309650e-03 -2.466021804139018059e-03 -3.151373565196990967e-02 -3.536816686391830444e-02 -1.873135194182395935e-02 -1.007703598588705063e-02 -3.243345022201538086e-02 5.586551502346992493e-03 -1.088792108930647373e-03 -2.106041461229324341e-02 -2.359986491501331329e-02 -1.026581600308418274e-02 -1.007383596152067184e-02 -3.500907123088836670e-02 -2.574067935347557068e-02 -5.224014166742563248e-03 -2.019288577139377594e-02 -2.181379869580268860e-02 -1.308922562748193741e-02 6.015891558490693569e-04 -3.129166364669799805e-02 -1.489521702751517296e-03 -3.043661266565322876e-02 -1.604904048144817352e-02 7.057253969833254814e-04 -3.066304326057434082e-02 -2.593894116580486298e-02 1.167539414018392563e-02 -9.046924300491809845e-03 -4.906249698251485825e-03 1.718861749395728111e-03 -3.769209980964660645e-02 -5.770479328930377960e-03 -2.566943690180778503e-02 1.116688270121812820e-02 -2.656435593962669373e-02 -1.194513170048594475e-03 -3.276208648458123207e-03 -2.076959982514381409e-02 4.075875971466302872e-03 -4.906400572508573532e-03 2.341768937185406685e-03 1.251957379281520844e-02
-3.801916912198066711e-02 -2.094016037881374359e-02 3.048582933843135834e-02 -7.532814983278512955e-03 -9.242585510946810246e-04 4.017662629485130310e-02 5.942590534687042236e-03 1.194643974304199219e-02 -6.647808104753494263e-02 1.540731638669967651e-02 2.445724792778491974e-03 -4.917894303798675537e-02 -2.864732220768928528e-02 -2.777062356472015381e-03 -9.630307555198669434e-03 -1.108991261571645737e-02 -9.190207347273826599e-03 -3.833652241155505180e-03 -3.663593158125877380e-02 2.857265761122107506e-03 4.581637308001518250e-02 -5.048328894190490246e-04 -1.733723282814025879e-02 -1.077294815331697464e-02 -2.353609539568424225e-02 4.126738756895065308e-03 1.872722804546356201e-02 3.477350994944572449e-02 -1.586473174393177032e-02 1.844915910623967648e-03 -2.683483809232711792e-02 7.725956384092569351e-03 4.845866560935974121e-02 4.570557922124862671e-02 2.041726559400558472e-02 1.270319987088441849e-02 -1.081502158194780350e-02 -3.890296444296836853e-02 -5.959732830524444580e-02 -1.476168818771839142e-02 -4.669818654656410217e-02 -2.273319289088249207e-02 2.519688941538333893e-02 -3.426920995116233826e-02 2.132210135459899902e-02 2.296338230371475220e-02 -2.906245924532413483e-02 -3.427412733435630798e-02 4.096381366252899170e-02 -4.135443828999996185e-03 -2.661578916013240814e-02 9.032325819134712219e-03 4.816479608416557312e-02 5.371531937271356583e-03 -6.080522201955318451e-03 9.562349878251552582e-03 -5.931833758950233459e-02 1.302299275994300842e-02 -6.687995977699756622e-03 8.715040050446987152e-03 -8.747529238462448120e-03 -1.202163752168416977e-02 3.558575734496116638e-02 -3.664918616414070129e-02 -4.274613747838884592e-04 -4.008941724896430969e-02 -1.347546651959419250e-02 5.214169248938560486e-02 7.499731611460447311e-03 -2.519294060766696930e-02 -7.644411921501159668e-02 -1.284857466816902161e-02 -2.642718143761157990e-02 1.677569374442100525e-02 -3.693714737892150879e-02 -3.946195542812347412e-02 4.223469179123640060e-03 -1.924225687980651855e-02 3.078449983149766922e-03 -2.459958754479885101e-02 -1.642493531107902527e-02 9.996946901082992554e-03 -1.228599902242422104e-02 -7.687069941312074661e-03 -6.900812685489654541e-02 -1.127378363162279129e-02 -1.889114268124103546e-03 -5.981456488370895386e-03 -5.374364182353019714e-02 -7.016040384769439697e-02 -2.967979013919830322e-02 -6.997717171907424927e-02 2.819793112576007843e-02 -3.505802305880934000e-04 -6.393355876207351685e-02 -6.129121035337448120e-02 -7.896827533841133118e-03 -3.948882687836885452e-03 -8.388254046440124512e-02 -5.507111549377441406e-02 -1.086510159075260162e-02 -4.871447756886482239e-02 -6.188923865556716919e-02 -2.506574429571628571e-02 1.738629676401615143e-02 -6.171476468443870544e-02 -4.669007379561662674e-03 -5.661788955330848694e-02 -6.764873117208480835e-02 3.212348371744155884e-02 -2.849249169230461121e-02 -6.315524131059646606e-02 -1.724195852875709534e-02 -1.285640988498926163e-02 1.098312623798847198e-02 6.302942987531423569e-03 -4.397083818912506104e-02 3.814992029219865799e-03 -6.456955522298812866e-02 1.874100603163242340e-02 -5.583733692765235901e-02 -1.405572704970836639e-02 -3.362633520737290382e-03 -6.183683872222900391e-04 7.384128868579864502e-03 -1.823006081394851208e-03 1.990734366700053215e-03 1.369251310825347900e-02
-5.898849666118621826e-02 -3.119291923940181732e-02 3.123725205659866333e-02 1.727361045777797699e-02 1.053995918482542038e-02 5.758599564433097839e-02 -2.449990948662161827e-03 1.614805124700069427e-02 -4.174573346972465515e-02 2.584181167185306549e-02 9.136153012514114380e-02 -1.197069808840751648e-01 -6.353759020566940308e-02 -3.705747192725539207e-03 1.071324013173580170e-02 -1.219669729471206665e-02 -1.312021724879741669e-02 -2.957725664600729942e-04 -1.546487025916576385e-02 -7.867165841162204742e-03 6.401742249727249146e-02 2.828153548762202263e-03 -1.821589283645153046e-02 -2.513887360692024231e-02 -4.451242834329605103e-02 8.142288774251937866e-03 -1.501345168799161911e-02 5.029553547501564026e-02 -1.755910180509090424e-02 3.804616397246718407e-03 -3.258974477648735046e-02 2.964265644550323486e-02 4.765020683407783508e-02 -8.102013729512691498e-03 7.408797740936279297e-02 1.332682278007268906e-02 -1.601604372262954712e-02 -3.207154199481010437e-02 -1.126978397369384766e-01 -2.255005203187465668e-02 -7.653150707483291626e-02 -1.462866812944412231e-01 7.609519362449645996e-02 -6.354677677154541016e-02 4.873087629675865173e-02 8.453150838613510132e-02 -6.300232559442520142e-02 -5.789658054709434509e-02 6.451820582151412964e-02 6.987558677792549133e-03 -4.208540171384811401e-02 -3.767809644341468811e-02 3.302485123276710510e-02 4.130902513861656189e-02 3.733641281723976135e-02 -1.162453554570674896e-02 -9.763413667678833008e-02 -3.235219419002532959e-02 -8.425934240221977234e-03 2.777208015322685242e-02 3.446314483880996704e-02 -9.651167201809585094e-04 4.015796259045600891e-02 -5.914507433772087097e-02 2.517445385456085205e-02 -8.692739903926849365e-02 -2.220205403864383698e-02 9.171706438064575195e-02 -1.313252933323383331e-02 -1.277383118867874146e-01 -2.668382599949836731e-02 -1.370321400463581085e-02 -5.417813360691070557e-02 5.683968309313058853e-03 -1.170962378382682800e-01 -1.364674605429172516e-02 6.841095164418220520e-03 -4.972095787525177002e-02 -5.951163358986377716e-03 -3.526260703802108765e-02 6.211887011886574328e-06 -4.505566321313381195e-03 -3.479144722223281860e-02 2.255611820146441460e-03 -5.295261368155479431e-02 -1.094172708690166473e-02 9.753389284014701843e-03 -1.039966717362403870e-01 -1.283985525369644165e-01 -7.037672400474548340e-02 -3.717067837715148926e-02 -1.605020165443420410e-01 2.413624338805675507e-02 -2.127066720277070999e-03 -8.815473318099975586e-02 -9.063306450843811035e-02 9.275895543396472931e-03 -6.184205040335655212e-02 -1.049974262714385986e-01 -1.099367812275886536e-01 -2.328697405755519867e-02 -9.551995247602462769e-02 -6.037154421210289001e-02 -3.446441516280174255e-02 -2.133233100175857544e-02 -1.054262593388557434e-01 8.637867867946624756e-03 -3.519324585795402527e-02 -1.140568479895591736e-01 2.347710728645324707e-02 -6.109903752803802490e-02 -8.796587586402893066e-02 6.916369497776031494e-02 6.598126143217086792e-03 1.109405886381864548e-02 1.134969480335712433e-02 -6.431182473897933960e-02 2.425847761332988739e-02 -1.077123209834098816e-01 6.905686855316162109e-02 -8.348465710878372192e-02 -9.067323990166187286e-03 -3.237402439117431641e-02 1.537617295980453491e-02 -1.095562614500522614e-02 -3.608132898807525635e-02 1.727092079818248749e-02 2.930415980517864227e-02
-5.246428027749061584e-02 -1.738322228193283081e-01 7.102232426404953003e-02 4.046804457902908325e-02 1.889656335115432739e-01 -9.321054071187973022e-02 1.017006672918796539e-02 3.495175391435623169e-02 -4.866707313340157270e-04 2.797767985612154007e-03 2.253201007843017578e-01 -1.412333697080612183e-01 -4.964241012930870056e-02 1.523953489959239960e-02 -5.280916020274162292e-02 -3.792390599846839905e-02 -2.913862280547618866e-02 2.346656657755374908e-02 -2.240997180342674255e-02 2.296138256788253784e-01 -7.425530254840850830e-02 -8.823857456445693970e-02 -1.872409135103225708e-02 -2.679364010691642761e-02 -1.323700994253158569e-01 -2.381915599107742310e-02 -3.077633213251829147e-03 -1.032240912318229675e-01 1.433394253253936768e-01 5.545863416045904160e-03 -4.540719464421272278e-02 -3.712618723511695862e-02 2.169127613306045532e-01 -3.715280070900917053e-02 8.350122720003128052e-02 -4.674420505762100220e-02 -2.993053011596202850e-02 -6.789225339889526367e-02 -1.051245108246803284e-01 -1.825747638940811157e-02 -8.578040450811386108e-02 -4.203669726848602295e-02 1.518953405320644379e-02 1.639017164707183838e-01 2.039118707180023193e-01 7.554430048912763596e-03 2.052442580461502075e-01 -5.949053913354873657e-02 -9.913551062345504761e-02 1.235479488968849182e-01 1.177322492003440857e-01 1.312936395406723022e-01 1.040519475936889648e-01 2.767666988074779510e-02 -1.024596542119979858e-01 -5.017592571675777435e-03 -4.768393561244010925e-02 -1.057937517762184143e-01 -3.755817189812660217e-02 6.753893196582794189e-02 -4.550300166010856628e-02 -8.317831903696060181e-03 1.361030191183090210e-01 5.014706030488014221e-02 -3.639336302876472473e-02 -1.634412258863449097e-01 3.094172105193138123e-02 -5.067976564168930054e-02 2.360412478446960449e-02 -1.523103713989257812e-01 -8.040137588977813721e-02 5.790810659527778625e-02 -6.948339194059371948e-02 -1.517266873270273209e-02 -1.481039673089981079e-01 -5.845414940267801285e-03 -2.760639041662216187e-02 -1.317490935325622559e-01 6.315366923809051514e-02 -7.295721769332885742e-02 2.850458398461341858e-02 -1.598301157355308533e-02 -4.300829023122787476e-03 3.012708388268947601e-02 -1.377142071723937988e-01 1.632281243801116943e-01 -1.377470232546329498e-02 1.240564435720443726e-01 -7.316963374614715576e-02 -1.494056880474090576e-01 -3.395646810531616211e-02 3.558143600821495056e-02 7.168587762862443924e-04 -4.163293633610010147e-03 -1.551456153392791748e-01 -7.453432679176330566e-02 -9.153833240270614624e-02 -6.942718476057052612e-02 8.861564844846725464e-02 -3.006307967007160187e-02 -1.468301750719547272e-02 2.361127920448780060e-02 -1.415414214134216309e-01 -2.190991491079330444e-02 -8.407203108072280884e-02 -9.713034331798553467e-02 -6.457958370447158813e-02 -1.211839765310287476e-01 -4.911677166819572449e-02 2.159363031387329102e-01 -5.975173413753509521e-02 -9.949144721031188965e-02 1.940518021583557129e-01 -9.261956810951232910e-02 -2.882022969424724579e-02 -5.762627348303794861e-02 3.969956561923027039e-02 1.523247957229614258e-01 2.924812957644462585e-03 -9.179326891899108887e-02 -2.802181988954544067e-03 1.127910614013671875e-02 1.308517158031463623e-01 -1.190847344696521759e-02 9.991578757762908936e-02 -1.123107448220252991e-01 1.790690422058105469e-01 -7.145359367132186890e-02
2.722227573394775391e-02 -3.469736501574516296e-02 -6.029283627867698669e-02 4.067703336477279663e-02 -9.094917029142379761e-02 -3.472993522882461548e-02 1.223087310791015625e-02 -2.522355318069458008e-02 -4.055412113666534424e-02 -1.259677391499280930e-02 -9.519516676664352417e-02 -2.283264137804508209e-02 3.479171544313430786e-02 -1.163530163466930389e-02 -1.405401434749364853e-02 -3.514124080538749695e-02 1.873557269573211670e-02 2.778648398816585541e-02 2.533381804823875427e-02 -1.430802941322326660e-01 -5.816424265503883362e-02 -1.841783872805535793e-03 -6.697786040604114532e-03 1.425470574758946896e-03 1.991579122841358185e-02 -3.497802652418613434e-03 2.986961603164672852e-02 2.908130735158920288e-02 -7.405833899974822998e-02 -3.362210700288414955e-03 -1.778294891119003296e-02 -3.208573441952466965e-03 -1.475096195936203003e-01 7.551283924840390682e-04 -1.642012000083923340e-01 -1.260589063167572021e-01 -1.376564241945743561e-02 6.190636008977890015e-02 5.541205406188964844e-03 3.183789318427443504e-03 -2.047510072588920593e-02 4.347620159387588501e-02 2.169407904148101807e-02 -5.375802889466285706e-02 -1.199681758880615234e-01 -2.848552167415618896e-02 -8.194009214639663696e-02 -1.800764584913849831e-03 -2.285377355292439461e-03 -1.062279045581817627e-01 -1.120030358433723450e-01 -7.973737269639968872e-02 1.617079786956310272e-02 1.492246892303228378e-02 -4.291922971606254578e-02 -6.560883950442075729e-03 2.265221998095512390e-02 -2.060779370367527008e-02 -1.795469038188457489e-02 -9.852945804595947266e-02 1.342509873211383820e-02 -8.636238984763622284e-03 -1.751214563846588135e-01 -8.720026165246963501e-02 1.164031215012073517e-02 -3.380930423736572266e-02 -1.371686719357967377e-02 -7.967220246791839600e-02 -3.854147717356681824e-02 4.290407896041870117e-02 5.898771435022354126e-02 9.142875671386718750e-03 2.050515636801719666e-02 -9.115773253142833710e-03 7.243793457746505737e-02 -2.332391403615474701e-02 4.730727523565292358e-02 -1.423043757677078247e-02 -1.397508010268211365e-02 -1.038607582449913025e-02 -3.048691526055335999e-02 -4.066825658082962036e-02 -2.238631062209606171e-02 -1.004598848521709442e-02 -5.948482546955347061e-03 -1.344001293182373047e-01 -1.946395728737115860e-03 2.931064367294311523e-02 9.197009354829788208e-02 4.622710123658180237e-02 1.091566774994134903e-02 -9.437534213066101074e-02 2.870338782668113708e-02 2.466383948922157288e-02 2.334652468562126160e-02 7.303203642368316650e-02 -8.526250720024108887e-03 -3.876759856939315796e-02 -6.518477946519851685e-02 5.060368776321411133e-02 -4.526966065168380737e-02 -8.693333715200424194e-03 -9.957871399819850922e-03 8.931909687817096710e-03 8.345703035593032837e-02 -2.524480037391185760e-02 -2.929553017020225525e-02 1.161641106009483337e-01 6.978029012680053711e-02 -1.460372954607009888e-01 9.599617682397365570e-03 -3.271776251494884491e-03 -1.266933232545852661e-01 -5.411589518189430237e-02 -5.983986891806125641e-03 -3.058641450479626656e-03 9.190910309553146362e-02 -5.299042537808418274e-02 -5.541023565456271172e-04 -4.831890389323234558e-02 1.727916672825813293e-02 -8.339409716427326202e-03 -3.340575844049453735e-02 1.995139196515083313e-02 -5.199445411562919617e-02 -2.679461240768432617e-02 -1.217418983578681946e-01 -4.107161983847618103e-02
3.403848782181739807e-02 -8.806954324245452881e-02 -5.790913105010986328e-02 7.632848620414733887e-02 6.759426742792129517e-02 -1.978078335523605347e-01 -1.775012351572513580e-02 -6.393608171492815018e-03 1.869168728590011597e-01 -1.340843178331851959e-02 2.451288998126983643e-01 1.370438337326049805e-01 -1.659659296274185181e-02 -1.739546656608581543e-02 4.495991766452789307e-02 -1.866454631090164185e-02 5.885183066129684448e-02 2.644182369112968445e-02 4.960169643163681030e-02 1.527028530836105347e-01 -9.887027554214000702e-03 8.965946733951568604e-02 -1.983245089650154114e-02 -4.647058434784412384e-03 -6.314411014318466187e-02 -6.248340010643005371e-03 9.450293332338333130e-02 -1.862523406744003296e-01 8.247188478708267212e-02 -1.143616158515214920e-03 -2.868883498013019562e-02 -1.273145340383052826e-02 4.769802466034889221e-02 -1.280744969844818115e-01 1.808173656463623047e-01 1.471898425370454788e-02 -2.066397294402122498e-02 -5.234117060899734497e-02 -7.283369451761245728e-02 2.634959481656551361e-02 1.156481914222240448e-02 -2.086297236382961273e-02 -1.363863237202167511e-02 2.850050106644630432e-02 1.621361970901489258e-01 -1.472005993127822876e-01 1.402049362659454346e-01 -3.701205924153327942e-02 -1.733482033014297485e-01 1.579443067312240601e-01 1.388162225484848022e-01 1.133969649672508240e-01 8.974796533584594727e-02 1.307223737239837646e-01 -1.878664828836917877e-02 -9.908716380596160889e-02 1.141794621944427490e-01 1.282267719507217407e-01 2.863061148673295975e-03 1.199269294738769531e-01 -1.220066566020250320e-02 1.369325723499059677e-02 3.740615397691726685e-02 1.705579757690429688e-01 7.209693640470504761e-02 -1.350893527269363403e-01 -1.109522767364978790e-02 -1.764988005161285400e-01 -4.847522825002670288e-02 -4.215166345238685608e-02 4.327716305851936340e-02 8.110408671200275421e-03 -1.051741987466812134e-01 1.684736087918281555e-02 7.148092240095138550e-02 -1.049066185951232910e-01 -6.444780528545379639e-02 6.102190166711807251e-02 1.014612466096878052e-01 -4.728185012936592102e-02 8.475589007139205933e-02 1.023985445499420166e-01 -1.135017164051532745e-02 3.370297327637672424e-02 1.106849387288093567e-01 1.982435584068298340e-01 1.757509410381317139e-01 2.013631314039230347e-01 -5.260268226265907288e-02 -8.156246691942214966e-02 -3.063315711915493011e-02 2.501832842826843262e-01 -3.066121600568294525e-02 6.121511571109294891e-03 2.444178052246570587e-02 3.667118400335311890e-02 -8.481421321630477905e-02 1.816865615546703339e-02 1.930702626705169678e-01 -3.264037519693374634e-02 -6.791332364082336426e-02 1.763707548379898071e-01 8.182231336832046509e-02 8.398766815662384033e-02 -1.113396510481834412e-01 1.096944659948348999e-01 8.122412860393524170e-02 1.248481683433055878e-02 1.710030250251293182e-02 1.796821504831314087e-01 -5.224912613630294800e-02 -2.901078201830387115e-02 -1.075802370905876160e-02 -4.655179008841514587e-02 -2.347358688712120056e-02 8.415578305721282959e-02 6.565029174089431763e-02 1.134181842207908630e-01 9.523087739944458008e-02 -9.255300462245941162e-02 -3.207986010238528252e-03 -1.650687307119369507e-02 1.616913378238677979e-01 -1.158990990370512009e-02 7.827088981866836548e-02 7.746982853859663010e-03 1.891593039035797119e-01 -1.386018097400665283e-02
-4.941866546869277954e-02 1.252395659685134888e-01 1.382429450750350952e-01 -1.958045363426208496e-01 1.257869601249694824e-01 1.947806328535079956e-01 -4.007405787706375122e-02 2.611772343516349792e-02 -1.855438202619552612e-01 2.181569859385490417e-02 1.719383336603641510e-02 -2.156673669815063477e-01 -9.109029918909072876e-02 5.223262310028076172e-02 -7.376600801944732666e-02 5.719161406159400940e-02 -1.294442713260650635e-01 6.869158241897821426e-03 -1.953614205121994019e-01 4.735889658331871033e-02 2.532015740871429443e-01 -7.662571221590042114e-02 -4.071200639009475708e-02 -5.696494132280349731e-02 1.299384385347366333e-01 -1.250796578824520111e-02 -1.583327353000640869e-01 2.549784779548645020e-01 9.058249741792678833e-02 -3.911554813385009766e-02 6.284439563751220703e-02 2.974468283355236053e-02 2.185002565383911133e-01 9.308192133903503418e-02 1.152511090040206909e-01 2.179158031940460205e-01 5.583968013525009155e-02 -6.126823648810386658e-02 -6.223880499601364136e-02 -1.026087347418069839e-02 -2.069409042596817017e-01 -8.411095291376113892e-02 -1.262780427932739258e-01 2.049540169537067413e-02 1.399625092744827271e-01 3.708373010158538818e-02 5.765818804502487183e-02 -2.700755186378955841e-02 2.582498788833618164e-01 6.716477870941162109e-02 -5.183017253875732422e-02 1.395126525312662125e-02 2.649343311786651611e-01 -1.722081601619720459e-01 -2.459752708673477173e-01 1.046281903982162476e-01 -1.511690467596054077e-01 5.651635676622390747e-02 2.753325924277305603e-02 -5.317141860723495483e-02 -1.209895461797714233e-01 -1.424158513545989990e-01 2.129656225442886353e-01 9.658081084489822388e-02 -1.565243601799011230e-01 7.979524135589599609e-02 -1.704930700361728668e-02 1.343320161104202271e-01 1.701970696449279785e-01 -7.211772259324789047e-03 -1.247231885790824890e-01 -1.006106585264205933e-01 -2.479697577655315399e-03 -1.976532042026519775e-01 -5.674863979220390320e-02 3.399072587490081787e-02 1.474926471710205078e-01 4.310651123523712158e-02 -2.033368200063705444e-01 1.307408660650253296e-01 -3.589056059718132019e-02 9.571416676044464111e-02 -1.574470251798629761e-01 -2.207589894533157349e-02 4.256421700119972229e-03 -6.823308020830154419e-02 -1.216439157724380493e-01 -5.114519968628883362e-02 -9.408966451883316040e-02 1.143940687179565430e-01 2.906842343509197235e-02 -1.077324226498603821e-01 7.269925624132156372e-02 -1.946974731981754303e-02 -2.849537646397948265e-03 -3.915479406714439392e-02 1.680670082569122314e-01 -3.751296177506446838e-02 -1.407196521759033203e-01 -6.424800306558609009e-02 1.547310203313827515e-01 -2.610663510859012604e-02 -3.418979421257972717e-02 -1.269277334213256836e-01 1.030857637524604797e-01 -1.653172969818115234e-01 4.298080690205097198e-03 -1.422553556039929390e-03 -7.753937691450119019e-02 6.295417994260787964e-02 -9.476474672555923462e-02 6.536435335874557495e-02 4.940618202090263367e-02 1.333928704261779785e-01 4.220006242394447327e-02 -1.874594986438751221e-01 1.646981947124004364e-02 5.571505799889564514e-02 -7.323454320430755615e-02 -9.620075114071369171e-03 -1.381035000085830688e-01 1.560223475098609924e-02 1.415172815322875977e-01 -1.970001757144927979e-01 5.103336274623870850e-02 6.125670671463012695e-02 -3.417104249820113182e-03 -1.418498307466506958e-01
6.225394830107688904e-02 5.410542711615562439e-02 2.571165002882480621e-02 -1.070984899997711182e-01 -2.280225016875192523e-04 9.122875332832336426e-02 -5.859131366014480591e-02 6.023593991994857788e-02 9.242460876703262329e-02 -3.255942463874816895e-02 -2.920237928628921509e-02 -1.327800471335649490e-02 -8.810097724199295044e-02 -5.262821447104215622e-03 1.572129316627979279e-02 5.298968404531478882e-02 -2.121113613247871399e-02 -5.408587306737899780e-02 7.295753806829452515e-02 -3.091640397906303406e-02 -3.216985613107681274e-02 3.380622342228889465e-02 5.415024235844612122e-02 -2.975814603269100189e-02 6.648968905210494995e-02 -2.723586186766624451e-02 2.383083477616310120e-02 -2.834806777536869049e-02 1.485053300857543945e-01 6.276766955852508545e-02 -4.645413160324096680e-02 -7.432611286640167236e-02 -1.605982892215251923e-02 -4.868165776133537292e-02 -8.887710981070995331e-03 -9.588089585304260254e-02 -2.502505108714103699e-02 -2.538438886404037476e-02 8.737462759017944336e-02 2.825693599879741669e-02 -3.422827646136283875e-02 8.960714191198348999e-02 1.821816153824329376e-02 6.792826950550079346e-02 2.403539977967739105e-02 1.842178404331207275e-02 9.630596637725830078e-02 6.023321184329688549e-04 4.627117142081260681e-02 3.368114121258258820e-03 -2.980947494506835938e-02 5.887604132294654846e-02 -5.972516164183616638e-02 -1.130979582667350769e-01 -6.454411149024963379e-02 -7.255148142576217651e-02 7.796408981084823608e-02 -8.471012860536575317e-02 3.465367481112480164e-02 -7.973633706569671631e-02 -1.786642149090766907e-02 -7.305902242660522461e-02 -1.143233254551887512e-01 5.197661742568016052e-02 -6.438609212636947632e-02 7.567966729402542114e-02 -4.281787574291229248e-02 4.624542221426963806e-02 -4.770250245928764343e-02 -5.901790782809257507e-02 8.977032452821731567e-02 -1.003697514533996582e-01 5.868649855256080627e-02 -4.783092066645622253e-02 -6.577949225902557373e-02 4.684950783848762512e-02 6.898280978202819824e-02 -4.655499011278152466e-02 -7.295430451631546021e-02 -2.677843160927295685e-02 1.008283644914627075e-01 -4.079050570726394653e-02 -2.759746648371219635e-02 8.454737067222595215e-02 4.690077155828475952e-02 -1.307101547718048096e-02 -1.231358051300048828e-01 -6.507766246795654297e-02 3.661064803600311279e-02 1.145490407943725586e-01 -1.098671704530715942e-01 -7.134288549423217773e-03 -1.060097143054008484e-01 -4.356855526566505432e-02 4.510188475251197815e-02 1.224363669753074646e-01 2.221686206758022308e-02 2.424814924597740173e-02 -9.232723154127597809e-03 -2.564803697168827057e-02 9.122508019208908081e-02 7.166668027639389038e-02 6.378616392612457275e-02 -9.381169080734252930e-02 3.059440664947032928e-02 4.731221497058868408e-02 -8.680199086666107178e-02 1.265955865383148193e-01 7.486872375011444092e-02 -5.036411061882972717e-02 -8.848271518945693970e-02 1.730230450630187988e-01 6.762180011719465256e-03 -2.882981859147548676e-02 -4.164091497659683228e-02 -9.257698804140090942e-02 7.724664360284805298e-02 -3.769882768392562866e-02 1.038701683282852173e-01 3.853080794215202332e-02 8.085113018751144409e-02 5.007199198007583618e-02 1.307605300098657608e-02 -4.171737283468246460e-02 -6.857789587229490280e-03 -1.223391592502593994e-01 -2.508748136460781097e-02 8.578986674547195435e-02
3.124983748421072960e-03 -8.276376128196716309e-02 8.584561198949813843e-02 -2.594636194407939911e-02 -6.482838653028011322e-04 1.466639488935470581e-01 1.457981416024267673e-03 8.183718472719192505e-02 -1.490269005298614502e-01 8.624749630689620972e-02 7.204829156398773193e-02 -1.534396596252918243e-02 -8.854297548532485962e-02 -6.156453490257263184e-02 2.885810472071170807e-02 6.167839467525482178e-02 4.239478334784507751e-02 -9.264460951089859009e-02 1.311366707086563110e-01 2.844821661710739136e-02 1.070524901151657104e-01 1.468863617628812790e-02 6.329774856567382812e-02 -2.707488648593425751e-02 7.716976851224899292e-02 -2.848407253623008728e-02 3.708003833889961243e-02 4.177527129650115967e-02 3.498097881674766541e-02 -2.007124014198780060e-02 8.319743908941745758e-03 -3.472656756639480591e-02 7.273046672344207764e-02 1.753726899623870850e-01 6.756026297807693481e-02 -7.003660500049591064e-02 6.645073741674423218e-02 6.752236932516098022e-02 -1.225719004869461060e-01 -6.316865235567092896e-02 -1.714415475726127625e-02 -1.610258817672729492e-01 6.894271075725555420e-02 -1.258952915668487549e-01 2.897904999554157257e-02 1.656672731041908264e-02 -2.693555876612663269e-02 -1.461633946746587753e-02 1.478215456008911133e-01 -3.194750100374221802e-02 -8.773349225521087646e-02 1.100415643304586411e-02 1.038891971111297607e-01 8.460316807031631470e-03 -6.676087528467178345e-02 -4.752952232956886292e-02 -1.083027645945549011e-01 1.261152606457471848e-02 1.854356192052364349e-02 -8.808276802301406860e-02 1.214973330497741699e-01 -1.021528542041778564e-01 3.294997289776802063e-02 -9.819161146879196167e-02 5.394880473613739014e-02 6.204293295741081238e-02 1.722881011664867401e-02 1.650320142507553101e-01 9.902824461460113525e-02 -8.935926854610443115e-02 -4.549415409564971924e-02 -8.493991196155548096e-02 5.957815051078796387e-02 7.892917841672897339e-02 -9.957641363143920898e-02 3.218189254403114319e-02 1.058796346187591553e-01 -8.592689782381057739e-02 -2.171586826443672180e-02 -2.550335973501205444e-02 4.015348106622695923e-02 -2.551843784749507904e-02 -7.779668271541595459e-02 -4.223679006099700928e-02 -1.583218723535537720e-01 -7.906759157776832581e-03 6.708985893055796623e-04 -1.624591201543807983e-01 -1.864108741283416748e-01 -2.826245129108428955e-02 -6.515637785196304321e-02 -1.261490285396575928e-01 -2.034605853259563446e-02 -2.901094406843185425e-02 -9.578964114189147949e-02 -2.458901517093181610e-02 -4.790282249450683594e-02 5.499064549803733826e-02 -9.613497555255889893e-02 -8.846207708120346069e-02 -2.357467077672481537e-02 -8.824674785137176514e-02 -1.034536063671112061e-01 -3.604182228446006775e-02 9.965079277753829956e-02 -2.945426851511001587e-02 -4.263687506318092346e-02 -1.142806708812713623e-01 -1.257192194461822510e-01 -1.218787673860788345e-02 -6.758704781532287598e-02 2.251134812831878662e-02 9.819027781486511230e-02 -5.064326524734497070e-02 -1.709919609129428864e-02 -5.316824465990066528e-02 -5.933396518230438232e-02 -6.941238534636795521e-04 -9.912884235382080078e-02 1.353280395269393921e-01 -9.949319064617156982e-02 5.186638608574867249e-02 -8.251899853348731995e-03 -7.395014166831970215e-02 1.256548985838890076e-02 4.605571180582046509e-02 5.424700677394866943e-02 -2.625025343149900436e-03
6.981252133846282959e-02 1.267500221729278564e-01 -7.177969068288803101e-02 -4.488823562860488892e-02 1.861296966671943665e-02 -9.945353120565414429e-02 -4.206162691116333008e-02 -3.202543826773762703e-03 1.141161620616912842e-01 2.190158329904079437e-02 -1.066965889185667038e-02 1.329809427261352539e-01 2.675428241491317749e-02 4.091580584645271301e-02 8.632792159914970398e-03 -4.675395041704177856e-02 2.829089574515819550e-02 -1.818405650556087494e-02 8.452126383781433105e-02 -2.722574211657047272e-02 1.294532231986522675e-02 -4.924054443836212158e-02 3.877703472971916199e-02 -4.271812364459037781e-02 6.372242420911788940e-02 1.851809583604335785e-02 -3.886317461729049683e-02 4.960639053024351597e-04 1.062174290418624878e-01 -5.024225637316703796e-02 4.938798770308494568e-02 -5.284354090690612793e-03 -8.506517112255096436e-02 1.993259787559509277e-02 -2.861243300139904022e-02 -1.878617703914642334e-02 2.123749069869518280e-02 1.045208498835563660e-01 3.977929055690765381e-02 -3.309729322791099548e-02 3.860788419842720032e-02 8.179649710655212402e-02 -2.469919621944427490e-02 1.294509414583444595e-02 -4.264791030436754227e-03 -1.046128347516059875e-01 7.141841948032379150e-02 3.951323777437210083e-02 -3.550633043050765991e-02 -9.451085497858002782e-05 -3.503694012761116028e-02 4.567095264792442322e-02 -8.540603518486022949e-02 4.094449803233146667e-02 -4.320366308093070984e-02 6.291534006595611572e-02 1.113494634628295898e-01 -5.950568988919258118e-02 7.672273553907871246e-03 -3.874275088310241699e-02 6.082192063331604004e-02 1.096081361174583435e-01 -5.078616365790367126e-02 6.672000139951705933e-02 5.623809993267059326e-02 4.224281758069992065e-02 -1.957149244844913483e-02 -3.887432068586349487e-02 -4.778363928198814392e-02 1.113160327076911926e-01 2.971068210899829865e-02 5.719454027712345123e-03 6.223776564002037048e-02 -6.133139133453369141e-02 8.890216052532196045e-02 5.217963457107543945e-02 -9.090899676084518433e-02 9.067779034376144409e-02 7.272127270698547363e-02 1.941518858075141907e-02 -9.076520800590515137e-03 3.193099796772003174e-02 2.968969754874706268e-02 4.362095519900321960e-02 1.378217488527297974e-01 1.070573832839727402e-02 3.456935286521911621e-02 -2.833126485347747803e-02 1.134348213672637939e-01 -2.876297105103731155e-03 5.699085071682929993e-02 3.609085083007812500e-02 5.268087238073348999e-02 -1.287273317575454712e-02 1.755553781986236572e-01 7.240274548530578613e-02 5.895838513970375061e-02 -3.141925111413002014e-02 -1.184007734991610050e-03 6.692424416542053223e-02 -1.111486367881298065e-02 -5.852568428963422775e-03 1.394016295671463013e-01 5.246602371335029602e-02 4.477489739656448364e-02 1.120314970612525940e-01 -6.350377947092056274e-02 5.097981169819831848e-02 -5.258107930421829224e-02 1.255891099572181702e-02 7.073333952575922012e-03 1.090140119194984436e-01 -7.057060301303863525e-02 1.079001929610967636e-02 -5.759079754352569580e-02 2.569255046546459198e-02 -2.970236167311668396e-02 1.192772295325994492e-02 -2.160719037055969238e-02 7.398506253957748413e-02 -3.670853003859519958e-02 -6.069592386484146118e-02 1.025533769279718399e-02 3.217708691954612732e-02 -6.013032421469688416e-02 -7.890924811363220215e-02 1.443448383361101151e-02 -8.195423334836959839e-02
8.713364601135253906e-02 9.106502681970596313e-02 -2.698542922735214233e-02 -1.755728721618652344e-01 5.555566400289535522e-02 -1.028255373239517212e-01 3.639693558216094971e-02 6.735307164490222931e-03 -1.199364811182022095e-01 -1.320766005665063858e-02 -1.151526495814323425e-01 -1.294598579406738281e-01 9.774701297283172607e-02 1.071979571133852005e-02 -2.993374131619930267e-02 7.737713307142257690e-02 -8.454379439353942871e-02 2.172944508492946625e-02 -1.808484345674514771e-01 1.067488417029380798e-01 1.060159318149089813e-02 -1.245606616139411926e-01 1.696405746042728424e-02 7.789461314678192139e-02 8.636693656444549561e-02 1.205778960138559341e-02 -7.721273601055145264e-02 6.551171839237213135e-02 5.489283055067062378e-02 -1.351490709930658340e-02 5.129449069499969482e-02 -1.803258992731571198e-02 1.147846691310405731e-02 -7.281898707151412964e-02 1.828409545123577118e-02 1.153386570513248444e-02 9.086988121271133423e-02 -8.157037943601608276e-02 -6.538835912942886353e-02 7.251156121492385864e-02 -1.320655271410942078e-02 4.806261137127876282e-02 -1.565327495336532593e-01 6.167883053421974182e-02 5.854250863194465637e-02 -9.860493987798690796e-02 -1.532082329504191875e-03 3.691010549664497375e-02 -6.765678524971008301e-02 1.655446738004684448e-02 2.868488989770412445e-02 5.634487792849540710e-02 3.393438830971717834e-02 -1.843151897192001343e-01 -1.908035129308700562e-01 3.490585833787918091e-02 -7.447759062051773071e-02 -1.771651208400726318e-01 3.192218020558357239e-03 -1.726478934288024902e-01 -1.532488781958818436e-02 -1.381134241819381714e-01 7.953587919473648071e-02 8.846951276063919067e-02 -1.673068553209304810e-01 1.894439384341239929e-02 2.072389796376228333e-02 3.731301287189126015e-03 -8.295430801808834076e-03 5.843392387032508850e-02 4.315925762057304382e-02 -8.634670078754425049e-02 -2.074680849909782410e-02 -1.392540931701660156e-01 5.655167996883392334e-02 2.352906204760074615e-02 -8.031783252954483032e-02 -7.577688992023468018e-02 -1.743177175521850586e-01 3.369164466857910156e-02 1.108525693416595459e-02 -4.115332290530204773e-02 -1.841254234313964844e-01 2.960945130325853825e-04 8.467503637075424194e-02 5.778151005506515503e-02 -7.491467893123626709e-02 3.776127123273909092e-04 3.818927705287933350e-02 -5.747459363192319870e-03 8.356142789125442505e-02 9.016121923923492432e-02 3.734974935650825500e-02 1.970572955906391144e-02 2.998788096010684967e-02 2.608611620962619781e-02 -8.604752831161022186e-03 -8.257886022329330444e-02 -3.582970052957534790e-02 2.773121744394302368e-02 3.810280933976173401e-02 7.271344214677810669e-02 -1.826013475656509399e-01 -8.014246076345443726e-02 5.703451856970787048e-02 -1.156357079744338989e-01 -1.764222532510757446e-01 -7.506478577852249146e-02 -9.744647890329360962e-03 -4.916957765817642212e-02 1.075194180011749268e-01 -6.388705223798751831e-02 2.931696549057960510e-02 1.303404420614242554e-01 4.192292690277099609e-02 -1.103946119546890259e-01 -3.075477108359336853e-02 6.470924615859985352e-02 3.994879871606826782e-02 -1.699537187814712524e-01 7.898469455540180206e-03 -7.689281366765499115e-03 1.425037044100463390e-03 -1.122681945562362671e-01 4.624409135431051254e-03 1.363136172294616699e-01 -3.162573277950286865e-02 -2.168086767196655273e-01
5.229026079177856445e-02 3.420147579163312912e-03 -4.408994317054748535e-02 -3.061372227966785431e-02 -5.875431001186370850e-02 -5.250759422779083252e-02 -5.030544009059667587e-03 -3.692106902599334717e-02 -1.969056203961372375e-02 -2.710305526852607727e-02 -9.833651781082153320e-02 1.172284875065088272e-02 -3.012766130268573761e-02 -3.523569321259856224e-03 6.508524063974618912e-03 -1.217901986092329025e-02 9.847844019532203674e-03 1.781535334885120392e-02 -8.004444092512130737e-02 -1.638306863605976105e-02 -5.015902593731880188e-02 5.357106565497815609e-04 -7.012568879872560501e-03 6.915173958986997604e-03 -5.049299448728561401e-02 -7.470433134585618973e-03 -2.483143704012036324e-03 -6.538432836532592773e-02 -5.524760857224464417e-02 -6.691729649901390076e-03 -3.439960628747940063e-02 -2.847617678344249725e-02 -5.448779091238975525e-02 -7.685918826609849930e-03 9.428760968148708344e-03 -4.145446047186851501e-02 1.398525573313236237e-02 -6.348046660423278809e-02 4.661813750863075256e-02 1.775388233363628387e-02 -5.805061385035514832e-02 5.006891116499900818e-02 -1.021881494671106339e-02 2.230222895741462708e-02 1.977016590535640717e-02 -5.315125733613967896e-02 2.638679742813110352e-02 4.360170569270849228e-03 1.350138708949089050e-02 -4.604578483849763870e-03 -2.207410708069801331e-02 -3.959585912525653839e-03 -2.380473166704177856e-02 -4.827414453029632568e-02 -3.573961555957794189e-02 -2.581099048256874084e-03 -2.717049606144428253e-02 -9.878152608871459961e-02 -1.821255497634410858e-02 -4.071053862571716309e-02 -3.094172850251197815e-02 -5.270478129386901855e-02 -4.128832742571830750e-02 5.180504638701677322e-03 2.033065259456634521e-02 2.044348511844873428e-03 -1.531122811138629913e-02 9.581755846738815308e-03 -4.753658175468444824e-02 -2.805985510349273682e-02 -2.086942084133625031e-03 1.638026908040046692e-02 2.073115296661853790e-02 -1.087682247161865234e-01 4.599458351731300354e-02 -2.743359282612800598e-02 -6.762839108705520630e-02 -8.183192461729049683e-02 -7.864806801080703735e-02 -6.134299561381340027e-03 1.011803187429904938e-02 -8.530670404434204102e-02 -4.989580810070037842e-02 -1.392120961099863052e-02 -3.534186258912086487e-02 -5.500547587871551514e-02 -9.639109671115875244e-02 6.563675403594970703e-02 -1.326061878353357315e-02 -4.408398643136024475e-02 -4.999849572777748108e-02 1.293347589671611786e-02 -1.532207150012254715e-02 -5.633606109768152237e-03 -4.832740500569343567e-02 5.666168034076690674e-02 -6.505345460027456284e-03 -1.450774446129798889e-02 -6.380794942378997803e-02 -4.819511622190475464e-02 -4.045341536402702332e-02 -1.832571928389370441e-03 -5.565508455038070679e-02 -7.821041345596313477e-02 3.438838571310043335e-02 -5.518243089318275452e-02 -4.372807219624519348e-02 1.875620894134044647e-02 3.927900269627571106e-02 -6.226253136992454529e-02 -3.991186991333961487e-02 -3.480700775980949402e-02 -2.934199385344982147e-02 -1.718871295452117920e-02 -7.398677407763898373e-04 2.556730806827545166e-02 -3.157263994216918945e-02 -7.691947743296623230e-03 1.336121466010808945e-03 -1.165880039334297180e-01 3.442090749740600586e-02 -2.645414136350154877e-02 2.508185803890228271e-02 -1.226939633488655090e-01 -9.324272978119552135e-04 2.311058808118104935e-03 -5.755710601806640625e-02 -7.812196761369705200e-02
3.118146583437919617e-02 8.857406675815582275e-03 2.375268377363681793e-02 1.425924152135848999e-01 -4.167427495121955872e-02 -2.210758812725543976e-02 3.825059160590171814e-03 9.592451155185699463e-03 1.090191751718521118e-01 -1.036149170249700546e-02 4.215646907687187195e-02 9.745517745614051819e-03 6.462439196184277534e-04 5.111795850098133087e-03 3.936439007520675659e-02 1.256775949150323868e-02 5.227456614375114441e-02 4.039726033806800842e-02 8.274829387664794922e-02 -9.329226799309253693e-03 1.775118894875049591e-02 5.387498810887336731e-02 9.362850338220596313e-03 1.234234590083360672e-02 4.855659976601600647e-02 -2.046528458595275879e-02 6.815253943204879761e-02 6.070086732506752014e-02 -5.537270382046699524e-02 2.945541217923164368e-02 3.911418467760086060e-02 -4.017577040940523148e-03 -3.764371946454048157e-02 -3.066442348062992096e-02 9.235850884579122066e-04 2.756374143064022064e-02 2.869337610900402069e-02 -3.421934694051742554e-02 2.920590154826641083e-02 2.488093450665473938e-02 1.721985824406147003e-02 2.047139964997768402e-02 6.465409696102142334e-02 4.594427719712257385e-02 -1.028707437217235565e-02 -6.203261762857437134e-02 -4.976886790245771408e-03 7.436104118824005127e-03 -2.177410572767257690e-02 5.262441560626029968e-02 -2.679567225277423859e-02 2.144150808453559875e-02 4.016332328319549561e-02 4.144590720534324646e-02 7.034691423177719116e-02 5.205356050282716751e-03 5.102812871336936951e-02 1.188575625419616699e-01 4.132494702935218811e-02 6.780808418989181519e-02 9.889724105596542358e-02 2.961855940520763397e-02 -1.279622595757246017e-02 -2.925897762179374695e-02 -2.247850643470883369e-04 7.302229106426239014e-02 1.275251246988773346e-02 3.926182538270950317e-02 4.402393475174903870e-02 -1.838047616183757782e-02 2.018934488296508789e-02 7.440812140703201294e-02 -1.371697895228862762e-02 2.304725162684917450e-02 -2.739164419472217560e-02 1.699559763073921204e-02 3.228268399834632874e-02 6.888628751039505005e-02 6.205703318119049072e-02 7.336605340242385864e-02 1.200503110885620117e-02 1.006857529282569885e-01 7.875720411539077759e-02 1.462357025593519211e-02 3.392620012164115906e-02 4.172219336032867432e-02 2.506262436509132385e-02 6.550744920969009399e-02 -2.239871211349964142e-02 -1.029239315539598465e-02 -1.416248548775911331e-02 3.604564815759658813e-02 5.454758554697036743e-02 -3.523727180436253548e-03 1.128894314169883728e-01 1.705208048224449158e-02 -1.123829977586865425e-03 5.749302729964256287e-02 -2.009276300668716431e-02 4.013515263795852661e-02 5.430181324481964111e-02 -8.934117853641510010e-03 1.105799749493598938e-01 -1.941909827291965485e-02 8.259359002113342285e-02 4.789274185895919800e-02 9.758639335632324219e-02 1.668241433799266815e-02 5.246886238455772400e-02 3.070476464927196503e-02 5.405773408710956573e-03 -3.801380982622504234e-03 4.702032357454299927e-02 2.187837101519107819e-02 3.094956837594509125e-02 4.266615211963653564e-02 2.449155040085315704e-02 -2.508765086531639099e-02 -9.052996523678302765e-03 8.853414654731750488e-02 2.621542429551482201e-03 2.590849529951810837e-03 1.455252245068550110e-02 5.058974027633666992e-02 2.901378087699413300e-03 3.197614103555679321e-02 -2.713458612561225891e-02 1.364746093750000000e-01
-1.298664719797670841e-03 5.146214365959167480e-02 2.760423347353935242e-02 1.380273047834634781e-02 1.799568161368370056e-02 3.834783658385276794e-02 8.286942727863788605e-03 -1.671059615910053253e-02 6.499730795621871948e-02 3.099810564890503883e-03 -4.319610819220542908e-02 7.784848101437091827e-03 -3.344659693539142609e-03 4.904369357973337173e-03 2.885106950998306274e-02 1.331862341612577438e-02 3.213080763816833496e-02 3.566759638488292694e-03 -1.372111309319734573e-02 1.159947086125612259e-02 9.367844904772937298e-04 3.872922807931900024e-02 6.701812613755464554e-03 5.942555144429206848e-03 2.239031903445720673e-02 5.242815241217613220e-03 3.465130925178527832e-02 2.552312985062599182e-02 2.062436193227767944e-02 1.493146643042564392e-02 2.400870807468891144e-02 1.064705848693847656e-02 3.397197648882865906e-02 3.775902092456817627e-02 2.801565453410148621e-02 4.650282114744186401e-02 1.115347072482109070e-02 4.533657431602478027e-02 -3.835923038423061371e-03 -5.136119201779365540e-03 3.104195930063724518e-02 4.573673475533723831e-03 4.459346830844879150e-02 4.287781566381454468e-02 1.580520533025264740e-02 -5.173676181584596634e-03 1.184463780373334885e-02 1.811260916292667389e-02 4.404729977250099182e-02 2.916907332837581635e-02 9.958726353943347931e-03 3.392956405878067017e-02 3.403987362980842590e-02 3.218852728605270386e-02 7.570274174213409424e-02 3.924422431737184525e-03 1.968098990619182587e-02 8.121237903833389282e-02 2.592296153306961060e-02 1.957078091800212860e-02 2.455955557525157928e-02 3.639239072799682617e-02 8.359425701200962067e-03 2.504153549671173096e-02 3.737938776612281799e-02 2.340201521292328835e-03 1.130994781851768494e-02 -3.932219371199607849e-02 3.469682112336158752e-02 3.816911950707435608e-03 -5.730524659156799316e-03 2.155915461480617523e-02 9.592785499989986420e-03 2.121448330581188202e-02 1.869945973157882690e-02 1.472184062004089355e-02 1.390595175325870514e-02 1.899540796875953674e-02 4.076072573661804199e-02 4.626568034291267395e-02 1.187558937817811966e-02 4.365728422999382019e-02 2.463266626000404358e-02 1.072381250560283661e-02 -2.429188229143619537e-02 1.993884705007076263e-02 5.471072345972061157e-02 3.226149454712867737e-02 -1.368738058954477310e-02 -8.455756120383739471e-03 1.539751049131155014e-02 1.337889954447746277e-02 7.009647320955991745e-03 1.702676527202129364e-03 6.676213443279266357e-02 7.545039989054203033e-03 1.739339716732501984e-02 2.967217937111854553e-02 4.917951300740242004e-02 -1.467104884795844555e-04 2.568459697067737579e-02 -3.005368635058403015e-02 5.753605440258979797e-02 2.829297445714473724e-02 2.079413086175918579e-02 -1.466469373553991318e-02 -3.006258606910705566e-02 -3.057840652763843536e-02 1.715035177767276764e-02 3.002258948981761932e-02 8.930932730436325073e-03 1.536404155194759369e-02 -1.650899834930896759e-02 2.901176176965236664e-02 2.950026467442512512e-02 2.246746607124805450e-02 3.346468880772590637e-02 3.418760001659393311e-02 2.443502889946103096e-03 3.536962345242500305e-02 2.736628800630569458e-02 3.140343725681304932e-02 1.296066679060459137e-02 1.168115530163049698e-02 -1.094780303537845612e-02 1.752818934619426727e-02 2.340336889028549194e-02 -3.201431035995483398e-02
9.934869594871997833e-03 2.956900745630264282e-02 2.329986914992332458e-02 6.980662792921066284e-02 1.734918355941772461e-02 -3.717835620045661926e-02 -1.769049558788537979e-03 -1.252455823123455048e-02 6.036765873432159424e-03 1.759636029601097107e-02 5.204933509230613708e-02 1.560157258063554764e-02 1.046506594866514206e-02 1.197982695885002613e-03 3.737313672900199890e-02 -8.425978943705558777e-03 5.080466717481613159e-02 -1.652424689382314682e-03 1.502811536192893982e-02 -1.072054542601108551e-02 1.414003968238830566e-02 6.688950210809707642e-02 2.796093234792351723e-03 -1.817550510168075562e-02 -7.937680347822606564e-04 2.160984091460704803e-03 6.324002146720886230e-02 2.130394987761974335e-02 2.769692428410053253e-02 3.705007024109363556e-03 1.715596392750740051e-02 -1.724996976554393768e-02 4.012469947338104248e-02 9.933814406394958496e-03 9.020665660500526428e-03 2.535203099250793457e-02 4.082593601197004318e-03 5.685945600271224976e-02 6.305125076323747635e-03 1.566238142549991608e-02 8.188012242317199707e-02 -6.182362139225006104e-02 3.915181010961532593e-02 1.327747665345668793e-02 3.631064435467123985e-03 4.781682044267654419e-02 -9.036198607645928860e-04 -2.036855928599834442e-02 6.205224245786666870e-02 3.919797763228416443e-02 1.070696394890546799e-02 1.232855115085840225e-02 1.872505433857440948e-02 8.028941601514816284e-02 8.952266722917556763e-02 -3.839625045657157898e-02 1.352331601083278656e-02 1.052679494023323059e-01 1.847110502421855927e-02 5.247909948229789734e-02 -3.174970671534538269e-02 5.674290657043457031e-02 2.609258145093917847e-02 1.770849898457527161e-02 7.541912794113159180e-02 -5.575261544436216354e-03 3.019744344055652618e-02 5.618616193532943726e-02 -9.538678452372550964e-03 -5.792910233139991760e-02 -1.971571333706378937e-02 5.793777480721473694e-02 7.097415160387754440e-03 1.101410314440727234e-01 3.719640523195266724e-02 1.939321309328079224e-02 3.327013179659843445e-02 -1.378702279180288315e-02 1.030922755599021912e-01 2.826708368957042694e-02 2.504567848518490791e-03 5.210233852267265320e-02 -2.032499201595783234e-02 1.109919138252735138e-02 -4.701768606901168823e-02 -8.121260325424373150e-04 5.487714428454637527e-03 -4.162280634045600891e-02 1.842886023223400116e-02 3.093422949314117432e-02 2.614726079627871513e-03 -2.625386975705623627e-02 -2.560372464358806610e-03 4.367488436400890350e-03 -5.807609762996435165e-03 -2.908629737794399261e-02 -1.653611287474632263e-02 3.284958750009536743e-02 -2.531739883124828339e-02 -3.210011869668960571e-02 -2.047000825405120850e-02 -4.708705469965934753e-03 -8.015223778784275055e-03 3.526630252599716187e-02 3.132352605462074280e-03 5.369022116065025330e-02 7.270455360412597656e-02 4.206183180212974548e-02 -5.388264358043670654e-02 4.208296071738004684e-03 -2.828701399266719818e-02 -3.000879846513271332e-02 -1.281156484037637711e-02 -1.898898743093013763e-02 3.301620716229081154e-03 2.886075153946876526e-02 1.396134030073881149e-02 -1.700243726372718811e-02 -1.083967089653015137e-02 8.705590665340423584e-02 -1.652312651276588440e-02 1.428497862070798874e-02 2.923810854554176331e-03 1.179908812046051025e-01 -1.434357487596571445e-03 9.444219176657497883e-05 3.714377805590629578e-02 1.314019411802291870e-01
