7.965505868196487427e-02 -5.357138440012931824e-02 -4.091451689600944519e-02 -1.162249711342155933e-03 -1.079694479703903198e-01 -1.491478532552719116e-01 9.194096922874450684e-02 -2.296764105558395386e-01
-2.001443952322006226e-01 -8.246172964572906494e-02 9.700477868318557739e-02 2.701945044100284576e-02 -1.670736670494079590e-01 2.509931027889251709e-01 1.878803223371505737e-01 -2.184335738420486450e-01
8.913028240203857422e-02 -1.263358741998672485e-01 1.417104750871658325e-01 -2.414215207099914551e-01 8.587063848972320557e-02 -1.799345612525939941e-01 -1.438255161046981812e-01 2.711943089962005615e-01
-9.246888011693954468e-02 3.181847557425498962e-02 -4.826358705759048462e-02 9.692206047475337982e-03 -1.858572065830230713e-01 1.398798227310180664e-01 -1.044943258166313171e-01 -7.335589826107025146e-02
-2.449531406164169312e-01 -1.457341313362121582e-01 1.845501549541950226e-02 2.434364110231399536e-01 -6.156921759247779846e-02 9.161387383937835693e-02 1.285007148981094360e-01 1.809972524642944336e-01
1.621461659669876099e-01 -1.958372592926025391e-01 -1.095500588417053223e-01 5.264445394277572632e-02 -1.656999289989471436e-01 2.172210812568664551e-01 4.393657296895980835e-02 -1.967353522777557373e-01
2.508630752563476562e-01 -8.684671483933925629e-03 -1.207073628902435303e-01 1.410744637250900269e-01 9.144815802574157715e-02 2.341919839382171631e-01 -9.143911302089691162e-02 -5.575946345925331116e-02
-9.266772121191024780e-02 5.002569407224655151e-02 1.274235844612121582e-01 -1.775720715522766113e-01 8.859495073556900024e-02 7.504621148109436035e-02 -2.212532609701156616e-02 -1.359705775976181030e-01
-8.586622774600982666e-02 3.950343653559684753e-02 1.084482949227094650e-02 -1.056050807237625122e-01 3.324061632156372070e-01 -5.659252777695655823e-02 -7.662679255008697510e-02 -1.083323210477828979e-01
2.760064229369163513e-02 4.668583348393440247e-02 -1.719685047864913940e-01 2.280942201614379883e-01 1.310458481311798096e-01 -2.557987868785858154e-01 2.358519099652767181e-02 -2.418368160724639893e-01
-2.269040234386920929e-02 -9.168218821287155151e-02 7.309782505035400391e-02 -2.468573004007339478e-01 1.386902779340744019e-01 -1.041869521141052246e-01 1.041376143693923950e-01 -2.715690135955810547e-01
1.958590298891067505e-01 -9.740716777741909027e-03 5.034435540437698364e-02 5.052147060632705688e-02 1.132567524909973145e-01 -2.342122793197631836e-01 -1.327296644449234009e-01 7.879145443439483643e-02
6.970135122537612915e-02 7.917243242263793945e-02 -6.690390408039093018e-02 1.557160913944244385e-02 -1.999072730541229248e-01 -1.457938104867935181e-01 -3.249309584498405457e-02 -1.732691228389739990e-01
2.825319021940231323e-02 -1.837376356124877930e-01 1.404349356889724731e-01 -5.849158391356468201e-02 8.310637623071670532e-02 -6.620937585830688477e-02 8.298116177320480347e-02 2.300284951925277710e-01
-2.105109840631484985e-01 -1.014381200075149536e-01 -6.282406300306320190e-02 1.809521168470382690e-01 6.569101940840482712e-03 -2.152130454778671265e-01 -2.297624200582504272e-01 2.625007033348083496e-01
-1.453510671854019165e-01 -2.749931300058960915e-03 -3.782681375741958618e-02 2.206059694290161133e-01 2.222420275211334229e-01 -2.047477811574935913e-01 2.916843295097351074e-01 -1.851184666156768799e-01
1.148789376020431519e-01 -9.428429603576660156e-02 -8.571662753820419312e-02 2.816379070281982422e-01 -2.391029447317123413e-01 1.703598201274871826e-01 -4.468765109777450562e-02 -1.912328451871871948e-01
-4.797644913196563721e-02 -2.378861606121063232e-02 -7.641796953976154327e-03 2.753310501575469971e-01 -2.178574949502944946e-01 -3.478971868753433228e-02 -8.021395653486251831e-02 2.895505726337432861e-01
-2.085421085357666016e-01 -2.249695509672164917e-01 -3.867378458380699158e-02 -1.831275075674057007e-01 4.881717637181282043e-02 2.914169430732727051e-01 5.584210157394409180e-02 -9.509875439107418060e-03
1.458735764026641846e-01 -7.652675360441207886e-02 -9.399118274450302124e-02 -2.892911732196807861e-01 -9.142023324966430664e-02 1.322448998689651489e-01 -2.169638127088546753e-01 3.612295910716056824e-02
-1.533806174993515015e-01 1.022375822067260742e-01 -1.858461648225784302e-01 -2.003090679645538330e-01 2.355681173503398895e-02 -4.950094223022460938e-02 1.238071694970130920e-01 2.421380430459976196e-01
-1.531581729650497437e-01 3.370166569948196411e-02 9.540711343288421631e-02 -2.772261202335357666e-01 1.778698116540908813e-01 1.480098664760589600e-01 -1.328750997781753540e-01 1.629887372255325317e-01
-3.462411928921937943e-03 5.211115814745426178e-03 -1.538000851869583130e-01 3.547419011592864990e-01 7.988956570625305176e-02 -2.145147770643234253e-01 -1.875442266464233398e-01 -1.483693867921829224e-01
3.000333607196807861e-01 1.173085197806358337e-01 -1.115870699286460876e-01 -9.145607799291610718e-02 -1.462300866842269897e-01 -2.872170880436897278e-02 -1.025586277246475220e-01 -2.575564943253993988e-02
1.739909648895263672e-01 -1.034945249557495117e-03 3.185334429144859314e-02 1.787066310644149780e-01 1.715654730796813965e-01 -2.000847309827804565e-01 2.859179079532623291e-01 -1.981496214866638184e-01
-1.624856442213058472e-01 9.621529839932918549e-03 -7.904535531997680664e-02 3.014000356197357178e-01 -6.707870960235595703e-02 -1.364387422800064087e-01 -2.632185630500316620e-02 -1.303252428770065308e-01
3.200837373733520508e-01 4.387306980788707733e-03 5.508999153971672058e-02 4.910859279334545135e-03 1.141713932156562805e-01 -4.386067390441894531e-02 5.326961353421211243e-02 -1.256226152181625366e-01
-5.236961692571640015e-02 -1.008392274379730225e-01 -9.987852722406387329e-02 -8.466731011867523193e-02 2.809049189090728760e-01 2.951743602752685547e-01 -1.088420227169990540e-01 -1.363279223442077637e-01
-1.502875983715057373e-01 -8.228300511837005615e-02 -3.577328845858573914e-02 1.739955544471740723e-01 -1.303511559963226318e-01 2.007062733173370361e-01 2.412966042757034302e-01 -2.263443320989608765e-01
3.480159863829612732e-02 -7.364026457071304321e-02 1.736508756875991821e-01 -1.733264327049255371e-01 2.694015502929687500e-01 -1.994604319334030151e-01 -1.651314944028854370e-01 2.706643044948577881e-01
2.156782746315002441e-01 -3.740677237510681152e-02 1.319417953491210938e-01 -1.767205893993377686e-01 -2.190432548522949219e-01 -9.992148727178573608e-02 2.983274869620800018e-02 1.320723146200180054e-01
1.888529956340789795e-01 5.691444501280784607e-02 7.560141850262880325e-03 -3.362100198864936829e-02 2.592406272888183594e-01 -4.599140584468841553e-02 1.290818303823471069e-01 -4.023801907896995544e-02
-1.153611764311790466e-02 -6.094098836183547974e-02 4.903482645750045776e-02 -2.031842023134231567e-01 -1.486080735921859741e-01 1.708066016435623169e-01 -1.403361558914184570e-01 9.318048506975173950e-02
-1.345795243978500366e-01 2.759515307843685150e-02 -2.352269180119037628e-02 -7.433255016803741455e-02 3.282629325985908508e-02 -2.423890680074691772e-02 8.001848310232162476e-02 -1.278992593288421631e-01
-9.977357834577560425e-02 6.860184669494628906e-02 1.970486901700496674e-02 2.439955770969390869e-01 -1.650454252958297729e-01 2.631748914718627930e-01 -1.499561965465545654e-01 -1.396830230951309204e-01
-4.547248780727386475e-02 -5.053036287426948547e-02 2.010048367083072662e-02 2.671122848987579346e-01 1.678291559219360352e-01 -2.077982872724533081e-01 -1.622960865497589111e-01 2.226578891277313232e-01
2.591034173965454102e-01 -9.893102198839187622e-02 3.735538572072982788e-02 -5.740685760974884033e-02 1.184228882193565369e-01 -1.659986972808837891e-01 5.822276324033737183e-02 1.481002718210220337e-01
-1.749012619256973267e-01 -4.705561324954032898e-02 8.083278313279151917e-03 -4.015017300844192505e-02 1.664567142724990845e-01 4.851008951663970947e-02 -1.262630224227905273e-01 2.620987594127655029e-01
-1.507612913846969604e-01 -1.738251298666000366e-01 -3.053814172744750977e-02 -2.230419665575027466e-01 -1.306616365909576416e-01 3.844624385237693787e-02 -9.005237370729446411e-03 2.115754187107086182e-01
5.117134377360343933e-02 3.584311157464981079e-02 -1.282379403710365295e-02 -1.859528422355651855e-01 1.001033410429954529e-01 4.027958214282989502e-02 1.599290966987609863e-01 -9.642623364925384521e-02
-1.704542934894561768e-01 2.855977229773998260e-02 -1.106363683938980103e-01 3.053482156246900558e-03 -9.131931513547897339e-02 2.122142910957336426e-01 2.357885986566543579e-01 -1.680017709732055664e-01
-2.555544376373291016e-01 -1.012980788946151733e-01 3.363088937476277351e-03 -1.790500432252883911e-01 -6.002644822001457214e-02 -7.663593441247940063e-02 6.727778911590576172e-02 6.203509867191314697e-02
-2.361321002244949341e-01 -5.375534668564796448e-02 -3.270087391138076782e-02 2.735770940780639648e-01 2.657144516706466675e-02 2.979178130626678467e-01 -1.404734104871749878e-01 1.536972820758819580e-01
-6.384224444627761841e-02 -6.492342799901962280e-02 -9.508577734231948853e-02 1.980437785387039185e-01 1.787778139114379883e-01 8.961159735918045044e-02 -9.102474898099899292e-02 1.262979656457901001e-01
1.174542400985956192e-02 1.285711228847503662e-01 -5.466282367706298828e-02 3.053787052631378174e-01 -2.834574580192565918e-01 2.372958213090896606e-01 1.042016148567199707e-01 1.519225686788558960e-01
-7.014191150665283203e-02 -1.268653124570846558e-01 -5.630525574088096619e-02 1.116909235715866089e-01 1.070063337683677673e-01 -1.952576041221618652e-01 1.511500924825668335e-01 -2.354423403739929199e-01
4.570723045617341995e-03 5.165727064013481140e-02 -7.609217613935470581e-02 -2.375638186931610107e-01 -1.934032738208770752e-01 2.686224579811096191e-01 4.486257582902908325e-02 1.602734625339508057e-01
6.466462276875972748e-03 -1.137059405446052551e-01 -1.929260939359664917e-01 2.774472348392009735e-02 1.816715151071548462e-01 7.427330315113067627e-02 -2.456317543983459473e-01 2.338619828224182129e-01
1.441086381673812866e-01 -1.647831648588180542e-01 -6.485053896903991699e-02 3.342816531658172607e-01 2.160146273672580719e-02 8.406549692153930664e-02 2.216690927743911743e-01 -9.585807099938392639e-03
-2.307883948087692261e-01 6.766528636217117310e-02 2.062347158789634705e-02 -2.591497600078582764e-01 1.650218963623046875e-01 2.172280400991439819e-01 -3.885665163397789001e-02 -1.212715283036231995e-01
1.939157843589782715e-01 -2.193026244640350342e-03 6.204661354422569275e-02 -8.977942168712615967e-02 -9.805914014577865601e-02 -4.454533755779266357e-02 -9.781015664339065552e-02 -7.146399002522230148e-03
1.946469396352767944e-01 -2.011185884475708008e-02 1.544730961322784424e-01 -8.814230561256408691e-02 1.251472532749176025e-01 -1.697865128517150879e-01 1.116938591003417969e-01 1.689143478870391846e-01
-1.415423303842544556e-01 7.736125588417053223e-02 -1.123699918389320374e-01 -2.544477880001068115e-01 2.245725393295288086e-01 -4.164134711027145386e-02 3.296724557876586914e-01 -9.102300554513931274e-02
4.684211313724517822e-02 4.943551123142242432e-02 1.081489920616149902e-01 -1.466144472360610962e-01 2.107399255037307739e-01 -6.306452304124832153e-02 -1.478295177221298218e-01 2.549827992916107178e-01
1.998257339000701904e-01 -4.066411778330802917e-02 -9.288273006677627563e-02 5.446631088852882385e-02 1.809899061918258667e-01 -1.396993249654769897e-01 -1.913081705570220947e-01 -1.485753222368657589e-03
-6.252104043960571289e-02 -1.439399868249893188e-01 1.294990777969360352e-01 -6.864937394857406616e-02 2.793197333812713623e-01 -1.274008750915527344e-01 -1.196491420269012451e-01 -1.623837649822235107e-01
-1.264229300431907177e-03 -2.019464820623397827e-01 -1.276383101940155029e-01 1.798161417245864868e-01 1.478597968816757202e-01 -1.618383973836898804e-01 3.291469998657703400e-03 1.180289387702941895e-01
1.168462410569190979e-01 -6.151912361383438110e-02 -1.642336994409561157e-01 2.021263986825942993e-01 -2.066199779510498047e-01 -2.619417011737823486e-01 -1.937237381935119629e-01 1.816132366657257080e-01
1.198081448674201965e-01 -2.196882814168930054e-01 2.581047825515270233e-02 3.096792697906494141e-01 -1.823590546846389771e-01 -2.169694304466247559e-01 1.365562230348587036e-01 1.170255318284034729e-01
2.144190222024917603e-01 -7.462590932846069336e-02 -1.398492604494094849e-01 -1.871274858713150024e-01 -1.652789488434791565e-02 -1.224053949117660522e-01 1.494622081518173218e-01 2.335330247879028320e-01
3.204239904880523682e-02 -1.241759136319160461e-01 -1.457528769969940186e-02 2.798977494239807129e-01 5.966012552380561829e-02 2.801642119884490967e-01 1.913912408053874969e-02 -2.249348461627960205e-01
2.107177823781967163e-01 -1.490751057863235474e-01 -1.041363850235939026e-01 1.815988570451736450e-01 1.641483753919601440e-01 1.475705951452255249e-01 -2.122360467910766602e-01 -1.700651794672012329e-01
-5.961236357688903809e-02 -3.683467954397201538e-02 -4.728450626134872437e-02 -2.098381370306015015e-01 1.891890913248062134e-01 -9.929548949003219604e-02 -4.023935645818710327e-03 1.536313295364379883e-01
1.804867535829544067e-01 -5.773494020104408264e-02 -7.084139436483383179e-02 -1.430716663599014282e-01 -1.233138889074325562e-01 -1.400272399187088013e-01 2.125029265880584717e-01 -9.280250966548919678e-02
