4.003521054983139038e-02
7.158552855253219604e-02
6.114117335528135300e-03
-1.772724837064743042e-02
-1.505958847701549530e-02
-1.231063436716794968e-02
6.889850832521915436e-03
8.609858900308609009e-02
6.818501651287078857e-02
-2.092642150819301605e-02
-1.629723794758319855e-02
1.397108193486928940e-02
-1.044288650155067444e-02
-8.112849172903224826e-05
3.533891215920448303e-02
7.797328382730484009e-02
5.352622270584106445e-02
-3.085438907146453857e-02
5.597387999296188354e-02
-3.638865426182746887e-02
1.895729266107082367e-02
-7.741761207580566406e-02
7.905988022685050964e-03
-8.424620144069194794e-03
4.831195622682571411e-02
5.970401689410209656e-02
-5.167319905012845993e-03
-3.165876027196645737e-03
7.065936177968978882e-02
-8.558095991611480713e-02
7.229922711849212646e-02
5.784995737485587597e-04
-1.074175117537379265e-03
4.512721672654151917e-02
9.303391724824905396e-02
-1.736567914485931396e-02
7.234811782836914062e-02
6.494294852018356323e-02
-1.148029789328575134e-02
7.940220832824707031e-02
4.757146909832954407e-02
-3.242155769839882851e-03
-1.849291101098060608e-02
5.186698958277702332e-02
4.702287912368774414e-02
7.907306402921676636e-02
-1.851068623363971710e-02
-2.893526107072830200e-03
-7.045095320791006088e-03
4.899375140666961670e-02
7.442855834960937500e-02
5.231232568621635437e-02
-2.232927456498146057e-02
6.142185255885124207e-02
5.974662303924560547e-02
7.131621241569519043e-02
2.394764684140682220e-03
6.023076921701431274e-02
1.460644323378801346e-02
-7.718402892351150513e-03
3.989955782890319824e-02
7.823545485734939575e-02
5.389156565070152283e-02
-1.926857419312000275e-02
