-3.895609825849533081e-02 2.741795778274536133e-02 -4.158724099397659302e-02 -3.996551781892776489e-02
-1.635888069868087769e-01 -5.725269392132759094e-02 -9.988629072904586792e-02 -2.015721201896667480e-01
-5.326923727989196777e-02 -7.115843892097473145e-02 1.002168050035834312e-03 -4.645710345357656479e-03
-3.619723720476031303e-03 2.587806875453679822e-07 4.121707752346992493e-02 1.962474379979539663e-05
4.277441505921679432e-14 -1.252132700756192207e-03 4.486133903264999390e-02 4.991602152585983276e-03
7.683480530977249146e-02 9.403376514949268739e-12 5.612738505078596063e-07 -1.194888414626196944e-15
-1.527955662459135056e-02 1.041448768228292465e-02 -7.083466649055480957e-02 4.149126762058585882e-04
-1.530115306377410889e-01 -4.430790245532989502e-02 -3.396398201584815979e-02 -1.161290705204010010e-01
-9.128326177597045898e-02 -2.995581738650798798e-02 -5.700403079390525818e-02 -9.058823436498641968e-02
2.161963144317269325e-03 -3.951747715473175049e-02 -6.979896221309900284e-03 1.670302636921405792e-02
-4.354607686400413513e-02 3.036256413906812668e-03 -4.422922059893608093e-02 -8.598593622446060181e-02
6.872480735182762146e-04 5.588367348536849022e-04 -1.336616370826959610e-02 3.634288161993026733e-02
5.721581727266311646e-02 6.392784416675567627e-02 -1.427545212209224701e-03 3.620728875830536708e-06
3.762937957147803127e-22 -8.067916333675384521e-02 -6.532773375511169434e-02 -4.222133755683898926e-02
7.489029085263609886e-04 3.459778800606727600e-02 2.560524502769112587e-03 2.438345178961753845e-02
-1.380781382322311401e-01 -6.111314147710800171e-02 4.766078665852546692e-03 -1.433057039976119995e-01
-8.597197383642196655e-02 2.522755414247512817e-02 -8.499457687139511108e-02 -1.105945780873298645e-01
3.128694742918014526e-02 -2.526273310650140047e-04 -5.708751850761473179e-04 -5.132275167852640152e-03
-9.379123151302337646e-02 -4.064213111996650696e-02 -7.930453121662139893e-02 -1.151443198323249817e-01
6.108405068516731262e-02 -2.576776978457928635e-07 -1.723367720842361450e-03 3.495356440544128418e-02
4.878572071902453899e-04 4.114748165011405945e-02 -1.763435639441013336e-02 1.476536155678331852e-03
3.147630020976066589e-02 -9.434139792574569583e-05 8.363754302263259888e-02 -1.477703684940934181e-03
-3.823723644018173218e-02 -1.572817750275135040e-02 -3.390588238835334778e-02 -5.464815348386764526e-02
1.501416671089828014e-03 8.345610112883150578e-04 8.185346378013491631e-04 -7.436135783791542053e-03
-3.975713253021240234e-02 1.528213149867951870e-03 3.003390971571207047e-03 6.131119653582572937e-02
-1.097485646605491638e-01 3.057350777089595795e-02 -1.073332354426383972e-01 -1.395041495561599731e-01
9.782714769244194031e-03 1.468714908696711063e-03 -1.291239634156227112e-03 1.480197720229625702e-02
3.723856434226036072e-02 4.307058081030845642e-02 -1.202957425266504288e-02 -7.108640932840248894e-13
-8.506982773542404175e-02 5.115442443639039993e-03 -4.881486669182777405e-02 -8.735286444425582886e-02
8.994133677333593369e-04 -2.911574265453964472e-04 -8.465075516141951084e-04 7.406022399663925171e-02
-1.400301009416580200e-01 -4.983469471335411072e-02 -1.278831660747528076e-01 -1.806943118572235107e-01
-5.256781587377190590e-04 1.357630821985367220e-06 7.737454026937484741e-03 -2.985297515988349915e-02
4.195527639240026474e-03 -6.325773238557985678e-11 -2.374127507209777832e-02 7.288264459930360317e-04
-1.986121200025081635e-02 2.464869758114218712e-03 3.988752141594886780e-03 9.122309274971485138e-03
-9.374689310789108276e-02 -3.285226598381996155e-02 -5.679566413164138794e-02 -8.891661465167999268e-02
2.458746166666969657e-05 -3.949203528463840485e-04 -2.267188974656164646e-04 -1.422247104346752167e-02
-1.528625488281250000e-01 -3.785031288862228394e-02 -7.090247422456741333e-02 2.065296471118927002e-02
-1.866054832935333252e-01 -5.613081157207489014e-02 -1.376731395721435547e-01 -1.747628897428512573e-01
-6.318630404590904437e-26 -9.825767977034161049e-10 6.188283488154411316e-02 9.385574230691418052e-05
-1.170868724584579468e-01 -6.382489949464797974e-02 -8.557563275098800659e-02 -1.374801248311996460e-01
-8.489772677421569824e-02 -3.146713599562644958e-02 -4.763654619455337524e-02 -9.898562729358673096e-02
1.383760594762861729e-03 -5.101493373513221741e-02 -3.377750888466835022e-02 -1.308594830334186554e-02
5.299830886651424322e-12 7.645208099908514800e-28 1.470501162111759186e-02 -1.013960286400106270e-06
-4.839726164937019348e-02 -1.066987984813749790e-03 7.560784369707107544e-02 -6.734903156757354736e-02
-6.128019653260707855e-03 -3.002345038112252951e-04 1.109911478124558926e-03 2.211919054388999939e-03
-1.532535105943679810e-01 -7.078696787357330322e-02 -8.945213258266448975e-02 -1.674356460571289062e-01
3.473867103457450867e-02 9.534157288726419210e-05 5.416483804583549500e-02 1.874643564224243164e-02
5.664651440630939442e-33 1.015427733364049345e-05 3.916545247193425894e-04 -6.339373439550399780e-02
-7.918964548128012478e-33 -6.195121500240929890e-07 1.566645757239197236e-29 -3.884279655628165764e-33
-7.197363674640655518e-02 -5.029750755056738853e-04 -3.679464012384414673e-02 -2.885860018432140350e-02
-1.585725545883178711e-01 5.999393761157989502e-02 -6.304523348808288574e-02 -1.919872313737869263e-01
-9.537528455257415771e-02 -9.809042513370513916e-02 -5.767925083637237549e-02 -1.011810228228569031e-01
2.356563508510589600e-02 -1.153806624643038958e-05 -3.699165210127830505e-02 -4.287695628590881824e-05
-1.101861968636512756e-01 -4.940524324774742126e-02 -1.157423108816146851e-01 -1.468669623136520386e-01
-6.995940208435058594e-02 -8.573822677135467529e-03 -8.919616043567657471e-02 -6.846531480550765991e-02
-9.374321252107620239e-02 -4.323895275592803955e-02 -1.122881248593330383e-01 -1.097255796194076538e-01
1.007531536743044853e-04 7.803416345268487930e-03 -5.016844253987073898e-03 2.226044452982023358e-04
-2.167798578739166260e-02 -1.743417466059327126e-03 4.741301294416189194e-03 2.920732088387012482e-02
-5.752769112586975098e-02 -2.111473307013511658e-02 5.531764775514602661e-02 -1.035698503255844116e-01
3.781605046242475510e-04 1.823018887080252171e-03 8.650615200167521834e-06 -1.204790678457356989e-04
-3.737292252480983734e-03 4.541542381048202515e-02 2.715556649491190910e-03 3.893718123435974121e-03
-1.304473876953125000e-01 -1.009092852473258972e-01 2.763762511312961578e-02 -1.094659194350242615e-01
-1.502241566777229309e-02 2.356233075261116028e-03 6.911363452672958374e-02 6.632530689239501953e-02
2.108489908277988434e-02 -4.547410458326339722e-02 -5.676772817969322205e-02 -1.185111179947853088e-01
