-3.448154777288436890e-02
-4.526683688163757324e-02
-1.013350188732147217e-01
1.342173516750335693e-01
-4.923820123076438904e-02
5.461855232715606689e-02
9.882786870002746582e-02
1.474962681531906128e-01
-5.146620422601699829e-02
3.297484293580055237e-02
6.347057968378067017e-02
2.199017629027366638e-02
-4.967878386378288269e-02
-1.027328222990036011e-01
-1.372226513922214508e-03
1.429893970489501953e-01
-1.067109405994415283e-01
-6.443084031343460083e-02
2.283228561282157898e-02
3.450704365968704224e-02
1.377535313367843628e-01
7.776007056236267090e-02
2.880791388452053070e-02
7.754445821046829224e-02
-2.722699381411075592e-02
1.797917298972606659e-02
8.275963366031646729e-02
8.529979735612869263e-02
4.316911846399307251e-02
8.813077956438064575e-02
-1.074494272470474243e-01
-9.934675879776477814e-03
1.096794605255126953e-01
1.899521052837371826e-01
-1.575130154378712177e-03
-1.300452798604965210e-01
-8.517438173294067383e-02
1.026134714484214783e-01
1.602015048265457153e-01
-2.758350223302841187e-02
8.738745935261249542e-03
1.214357465505599976e-01
1.041106283664703369e-01
8.411933481693267822e-02
-2.887598238885402679e-02
2.541428804397583008e-02
5.475925654172897339e-02
-4.556834325194358826e-02
-2.370824851095676422e-02
4.046370461583137512e-02
5.626499280333518982e-02
9.651977568864822388e-02
6.179098784923553467e-02
2.320574969053268433e-02
-4.198054224252700806e-02
-6.044727936387062073e-02
1.668922156095504761e-01
2.196938171982765198e-02
3.172305226325988770e-02
3.587766736745834351e-02
-4.637352004647254944e-02
1.433436274528503418e-01
-1.401082240045070648e-02
8.264195173978805542e-02
