-1.552321612834930420e-01 -5.927348509430885315e-02 5.741653591394424438e-02 3.638745248317718506e-01 3.016741573810577393e-02 2.043642699718475342e-01 2.743920385837554932e-01 3.146124482154846191e-01 -9.118905663490295410e-02 1.703209131956100464e-01 1.930830329656600952e-01 -2.322033643722534180e-01 -2.837459370493888855e-02 1.584403216838836670e-01 1.753477603197097778e-01 2.174920886754989624e-01 1.712126135826110840e-01 -4.411586001515388489e-02 -2.525982260704040527e-01 -3.404071927070617676e-01 3.002951145172119141e-01 9.499631822109222412e-02 -2.104394882917404175e-01 3.011451661586761475e-01 -1.883933842182159424e-01 1.517884135246276855e-01 1.919796913862228394e-01 1.166463568806648254e-01 7.552821934223175049e-02 2.807903885841369629e-01 5.647064372897148132e-02 -4.055698961019515991e-02 3.335144817829132080e-01 4.199257493019104004e-01 -1.575141549110412598e-01 1.213880106806755066e-01 1.765096187591552734e-01 2.608317732810974121e-01 3.959987461566925049e-01 -3.746734187006950378e-02 -7.797996699810028076e-02 3.563179969787597656e-01 2.407688945531845093e-01 1.887470781803131104e-01 -2.785049937665462494e-02 4.686500877141952515e-02 -2.123963981866836548e-01 -1.781865209341049194e-01 -3.194009885191917419e-02 1.785609722137451172e-01 7.951305061578750610e-02 2.734687030315399170e-01 9.426951408386230469e-02 -3.152899146080017090e-01 -4.269873723387718201e-02 -8.583192527294158936e-02 3.863902688026428223e-01 -2.020977884531021118e-01 -2.920003607869148254e-02 -6.482914090156555176e-02 -6.970008462667465210e-02 2.979135215282440186e-01 -2.024125494062900543e-02 2.292559146881103516e-01
-1.825930774211883545e-01 -8.003725111484527588e-02 -4.810743778944015503e-02 -3.132091462612152100e-02 -4.399900510907173157e-02 -1.160922497510910034e-01 -3.528538346290588379e-02 1.932578086853027344e-01 -3.094433061778545380e-02 -1.582812666893005371e-01 1.956785768270492554e-01 1.213757097721099854e-01 -1.785298585891723633e-01 9.467405080795288086e-02 -2.049822825938463211e-03 2.765353620052337646e-01 -1.444267332553863525e-01 1.194477081298828125e-01 -7.596732676029205322e-02 2.361057549715042114e-01 1.045869737863540649e-01 1.798475682735443115e-01 1.583018749952316284e-01 -1.877818852663040161e-01 2.217381298542022705e-01 -1.907124668359756470e-01 3.905457630753517151e-02 1.906944066286087036e-01 6.660338491201400757e-02 -9.941300749778747559e-02 -1.207315400242805481e-01 3.521247208118438721e-02 -9.335745126008987427e-02 1.247010752558708191e-01 -3.191371634602546692e-02 -5.105046927928924561e-02 -3.986059874296188354e-02 4.718894604593515396e-03 3.266635909676551819e-02 -2.370344102382659912e-02 -1.340085417032241821e-01 -7.591464370489120483e-02 4.992485046386718750e-02 5.303724855184555054e-02 6.189319118857383728e-02 6.152885407209396362e-02 7.490729540586471558e-02 1.446946710348129272e-01 -1.272561587393283844e-02 -1.391810178756713867e-01 1.240726560354232788e-01 -4.984775185585021973e-02 1.225824430584907532e-01 2.100065201520919800e-01 -7.024712115526199341e-02 1.568466573953628540e-01 1.365828067064285278e-01 1.229497566819190979e-01 2.092524170875549316e-01 -7.322337478399276733e-02 1.764081716537475586e-01 1.348770707845687866e-01 -6.070552859455347061e-03 -1.883850060403347015e-02
