-2.233677953481674194e-01 1.727607846260070801e-01 0.000000000000000000e+00 3.125201463699340820e-01 -1.006587743759155273e-01 3.785489127039909363e-03 0.000000000000000000e+00 2.457493841648101807e-01 9.657029062509536743e-02 -4.828374460339546204e-02 -5.502109415829181671e-03 1.396435946226119995e-01 -1.487291604280471802e-01 -1.560903489589691162e-01 0.000000000000000000e+00 1.775091886520385742e-01
1.859009712934494019e-01 2.057089358568191528e-01 -2.886719442903995514e-02 -1.265820860862731934e-01 0.000000000000000000e+00 1.123290210962295532e-01 2.003920823335647583e-01 -1.007360145449638367e-01 -0.000000000000000000e+00 -3.012874126434326172e-01 -5.494138225913047791e-02 2.186426967382431030e-01 2.567650973796844482e-01 -2.132917754352092743e-03 -2.225260436534881592e-01 1.234682127833366394e-01
1.925505995750427246e-01 1.882926910184323788e-03 -2.364092618227005005e-01 2.249138616025447845e-02 1.329169124364852905e-01 2.712359130382537842e-01 1.081440895795822144e-01 3.402085006237030029e-01 -1.923052817583084106e-01 2.232608944177627563e-01 -3.509930074214935303e-01 -9.398456662893295288e-03 -1.544166952371597290e-01 -0.000000000000000000e+00 2.033446878194808960e-01 -0.000000000000000000e+00
7.061969488859176636e-02 2.277658134698867798e-01 -2.198579609394073486e-01 -1.254311352968215942e-01 -5.883179903030395508e-01 3.402345580980181694e-03 -1.432036161422729492e-01 -6.228980142623186111e-03 2.294974923133850098e-01 -3.867754712700843811e-02 -5.602494478225708008e-01 -5.720574855804443359e-01 3.898248672485351562e-01 7.047660648822784424e-02 2.039965391159057617e-01 1.624454557895660400e-02
-0.000000000000000000e+00 -9.934983402490615845e-02 5.895626544952392578e-02 0.000000000000000000e+00 -1.495177149772644043e-01 -0.000000000000000000e+00 -3.150224685668945312e-03 -1.225414872169494629e-01 2.426528781652450562e-01 -3.396232379600405693e-03 2.684146761894226074e-01 -2.375202719122171402e-03 2.221253663301467896e-01 0.000000000000000000e+00 3.829820156097412109e-01 2.934620380401611328e-01
-3.530477881431579590e-01 3.154926002025604248e-01 -3.135745823383331299e-01 2.082092911005020142e-01 -3.825586521998047829e-03 8.392716944217681885e-02 -2.181010087952017784e-03 4.616557955741882324e-01 2.938800752162933350e-01 2.685050964355468750e-01 -2.138578100129961967e-03 2.736474275588989258e-01 -1.222133785486221313e-01 -0.000000000000000000e+00 3.158501386642456055e-01 0.000000000000000000e+00
8.582368493080139160e-02 7.409610599279403687e-02 -0.000000000000000000e+00 -1.978728622198104858e-01 -2.137663960456848145e-01 -0.000000000000000000e+00 0.000000000000000000e+00 -4.279516339302062988e-01 -2.641670107841491699e-01 2.694369554519653320e-01 -1.277602165937423706e-01 -3.072217404842376709e-01 0.000000000000000000e+00 1.716071516275405884e-01 -6.080766767263412476e-02 -1.113773696124553680e-02
1.891842037439346313e-01 1.991924131289124489e-03 2.543445229530334473e-01 0.000000000000000000e+00 3.354404866695404053e-02 -2.190742343664169312e-01 -2.341082841157913208e-01 1.869570761919021606e-01 2.910837531089782715e-01 -9.720348753035068512e-03 -1.843254715204238892e-01 -7.095503620803356171e-03 -1.613950729370117188e-01 -1.815260350704193115e-01 -1.786419451236724854e-01 3.824425116181373596e-02
2.222750484943389893e-01 1.350669115781784058e-01 4.070933759212493896e-01 -0.000000000000000000e+00 2.233157455921173096e-01 -2.290144413709640503e-01 -0.000000000000000000e+00 3.515705466270446777e-03 -0.000000000000000000e+00 8.035571873188018799e-02 8.681177161633968353e-03 2.827183604240417480e-01 1.357895433902740479e-01 3.738499283790588379e-01 -0.000000000000000000e+00 -9.723497927188873291e-02
-2.250196933746337891e-01 -3.661804199218750000e-01 1.132095605134963989e-01 -1.275269836187362671e-01 -1.047864481806755066e-01 -0.000000000000000000e+00 2.544359304010868073e-03 -1.236311867833137512e-01 -1.052858978509902954e-01 -7.332602888345718384e-02 -6.235330551862716675e-02 1.159016415476799011e-02 0.000000000000000000e+00 -3.091040998697280884e-03 -1.974267661571502686e-01 4.937389865517616272e-02
-2.811062335968017578e-01 5.314761027693748474e-02 -9.396271407604217529e-02 -1.728686541318893433e-01 1.472727507352828979e-01 -3.139287829399108887e-01 -1.055626571178436279e-01 -1.972687989473342896e-01 -2.442385554313659668e-01 -3.044511973857879639e-01 7.996147125959396362e-02 -5.775880068540573120e-02 -2.695790827274322510e-01 1.120212674140930176e-01 -1.912452280521392822e-01 9.061074256896972656e-02
1.943893879652023315e-01 2.145604640245437622e-01 -4.120466765016317368e-03 3.534184992313385010e-01 1.287409514188766479e-01 -2.858875095844268799e-01 3.142951130867004395e-01 -3.108953833580017090e-01 -3.974046111106872559e-01 5.395489931106567383e-02 2.134875766932964325e-02 1.394433230161666870e-01 1.001707985997200012e-01 -2.689780294895172119e-01 2.446433752775192261e-01 2.587068676948547363e-01
2.671959400177001953e-01 -2.924896478652954102e-01 -3.017815649509429932e-01 2.840673327445983887e-01 2.207691222429275513e-01 -1.102620288729667664e-01 -6.448043137788772583e-02 -2.626692177727818489e-03 1.141306236386299133e-01 -1.206817477941513062e-01 -5.611581262201070786e-03 4.061979949474334717e-01 -2.605677843093872070e-01 -3.236636286601424217e-03 2.865272760391235352e-01 -3.763849288225173950e-02
-2.226651757955551147e-01 -2.495028823614120483e-01 -1.998027786612510681e-03 0.000000000000000000e+00 3.527640923857688904e-02 2.603730652481317520e-03 -0.000000000000000000e+00 1.034073457121849060e-01 2.105969004333019257e-02 1.266065239906311035e-01 1.156917661428451538e-01 -4.586669150739908218e-03 7.870876044034957886e-02 2.049783766269683838e-01 1.626168489456176758e-01 -1.737066656351089478e-01
3.501646816730499268e-01 -2.870430937036871910e-03 1.452033221721649170e-01 -2.700734138488769531e-01 -1.949536651372909546e-01 3.153356909751892090e-01 0.000000000000000000e+00 4.342316836118698120e-02 3.282664110884070396e-03 1.364281177520751953e-01 2.574468851089477539e-01 1.677421480417251587e-01 -2.245127409696578979e-01 -2.007430186495184898e-03 1.820344328880310059e-01 -1.556512564420700073e-01
2.306678295135498047e-01 7.524063438177108765e-02 2.206212729215621948e-01 2.100612372159957886e-01 1.256381273269653320e-01 -3.515714704990386963e-01 1.194526478648185730e-01 -2.267151325941085815e-01 0.000000000000000000e+00 -3.659003078937530518e-01 -2.038654237985610962e-01 -2.572259008884429932e-01 1.697418987751007080e-01 -5.936064943671226501e-02 5.634615942835807800e-02 -7.056672871112823486e-02
-1.182536333799362183e-01 0.000000000000000000e+00 -1.532081961631774902e-01 -4.650816321372985840e-01 6.906755268573760986e-02 -8.266112953424453735e-02 3.284770548343658447e-01 -3.335605561733245850e-01 -1.603996194899082184e-02 1.114813312888145447e-01 -2.120209485292434692e-01 -2.170488387346267700e-01 0.000000000000000000e+00 5.031623691320419312e-02 2.901153266429901123e-01 -2.357130348682403564e-01
-1.913786828517913818e-01 7.347775250673294067e-02 3.578381240367889404e-01 -2.443863153457641602e-01 1.695211827754974365e-01 1.391905695199966431e-01 -3.450733050704002380e-02 -1.849146336317062378e-01 2.878368198871612549e-01 1.810508668422698975e-01 3.194269537925720215e-01 -4.439720511436462402e-01 1.806339174509048462e-01 -4.011557698249816895e-01 -2.423938959836959839e-01 3.060216009616851807e-01
3.429406881332397461e-01 -1.765862107276916504e-01 0.000000000000000000e+00 1.005996614694595337e-01 2.825253307819366455e-01 -3.901473581790924072e-01 1.119562163949012756e-01 -4.635535180568695068e-02 2.707017064094543457e-01 -1.896622925996780396e-01 -1.105712167918682098e-02 -1.380282789468765259e-01 -1.897487640380859375e-01 8.819471299648284912e-02 2.501274645328521729e-01 3.651013597846031189e-02
3.582904040813446045e-01 2.933603823184967041e-01 -2.938772141933441162e-01 -4.535141289234161377e-01 -0.000000000000000000e+00 -2.249381989240646362e-01 3.487587571144104004e-01 -7.640827912837266922e-03 -2.829332947731018066e-01 3.871697485446929932e-01 2.345642894506454468e-01 3.413318097591400146e-01 3.708016872406005859e-01 2.451571673154830933e-01 -2.998028695583343506e-01 2.095330804586410522e-01
